~o
<STREAMINFO> 1 39
<VECSIZE> 39<NULLD><MFCC_E_D_A><DIAGC>
~h "ah"
<BEGINHMM>
<NUMSTATES> 5
<STATE> 2
<NUMMIXES> 16
<MIXTURE> 1 8.112677e-02
<MEAN> 39
 -1.647979e+00 -1.281001e+01 -1.439270e+01 -9.516994e+00 -1.027396e+01 -4.244227e+00 -3.704403e+00 -6.420616e+00 7.447670e+00 -2.335001e+00 -3.172692e+00 -6.712245e+00 8.470891e-01 1.197786e-02 -2.202264e-01 -3.934951e-01 -7.100196e-01 5.287358e-01 6.641911e-01 3.051175e-01 -4.599613e-01 3.798466e-01 -2.054351e-01 -4.572462e-02 -1.402840e-01 1.266583e-02 -3.277406e-01 4.422320e-01 5.456235e-01 1.297895e-02 2.671463e-01 -1.674343e-01 -4.242932e-01 3.891308e-01 -6.629220e-01 1.051784e-01 1.184788e-01 2.228296e-01 -1.614974e-02
<VARIANCE> 39
 1.279759e+01 2.138303e+01 2.127285e+01 2.901949e+01 2.964526e+01 6.247521e+01 4.329135e+01 3.890235e+01 4.991938e+01 4.703673e+01 3.210375e+01 3.131631e+01 1.072281e-02 5.700355e-01 1.157038e+00 1.562948e+00 1.625453e+00 2.160266e+00 2.394975e+00 3.071939e+00 2.949068e+00 2.451076e+00 2.207101e+00 1.797819e+00 1.537776e+00 4.534119e-04 2.165698e-01 2.221432e-01 1.973813e-01 2.895582e-01 3.737545e-01 4.614033e-01 3.876362e-01 4.549828e-01 4.252589e-01 4.219796e-01 3.237121e-01 3.192972e-01 9.981923e-05
<GCONST> 8.558793e+01
<MIXTURE> 2 6.287453e-02
<MEAN> 39
 -2.129542e+00 -9.685229e+00 -1.222064e+01 -1.714100e+01 -3.390794e+00 -1.740282e+00 -4.830095e+00 -3.139240e+00 -2.926075e-01 3.931914e+00 -4.172986e+00 -6.670387e+00 7.360157e-01 2.102373e+00 -1.314654e+00 -3.506632e-01 -1.947993e+00 -1.008569e+00 3.703260e-01 -7.574007e-01 -1.740346e-01 -1.298731e-01 4.172029e-01 3.791478e-01 -6.614096e-01 9.025941e-02 -9.408095e-01 5.177350e-02 3.029718e-01 5.751096e-01 -6.336582e-02 1.046058e-02 -3.871585e-02 3.142185e-01 6.598113e-02 -2.624943e-01 2.281179e-01 4.095553e-01 -2.754023e-02
<VARIANCE> 39
 8.903502e+00 2.195896e+01 2.759797e+01 4.064459e+01 2.176172e+01 7.484352e+01 3.732178e+01 4.028822e+01 4.022678e+01 2.826597e+01 4.698569e+01 3.206544e+01 1.536050e-02 1.925059e+00 2.208498e+00 2.403045e+00 3.366192e+00 2.704764e+00 3.851397e+00 3.343026e+00 2.890678e+00 2.613313e+00 2.425684e+00 2.827141e+00 2.757188e+00 2.302971e-03 3.958715e-01 4.927861e-01 3.357171e-01 5.387582e-01 3.057454e-01 5.830167e-01 4.690720e-01 5.006940e-01 5.186261e-01 4.099056e-01 5.348670e-01 4.293113e-01 4.405857e-04
<GCONST> 9.757602e+01
<MIXTURE> 3 2.783437e-02
<MEAN> 39
 -1.598387e+00 -1.628205e+01 -7.831833e+00 -1.394942e+01 -1.203869e+01 3.089485e-01 -1.738441e+01 6.378318e+00 -4.088067e-01 5.897488e+00 -4.618085e+00 -9.097691e+00 8.790766e-01 8.935093e-01 -8.820037e-01 -8.857180e-01 -1.436904e+00 4.338416e-01 2.268455e+00 2.105322e-01 -2.281178e-01 -7.002652e-01 1.001899e+00 2.400745e-01 -5.750208e-01 2.062702e-02 -7.143869e-01 1.002593e+00 1.735863e-01 3.063768e-01 6.335546e-01 -4.314901e-01 1.122088e+00 -9.604331e-01 -3.860502e-01 -6.290076e-01 2.780376e-01 7.688469e-01 -2.490338e-02
<VARIANCE> 39
 7.833399e+00 1.858708e+01 2.818035e+01 2.555730e+01 2.282174e+01 3.620155e+01 3.578378e+01 3.177750e+01 3.043498e+01 3.895751e+01 4.658559e+01 2.634925e+01 6.792492e-03 7.120333e-01 1.340081e+00 1.690188e+00 2.973302e+00 2.680893e+00 3.142670e+00 2.946013e+00 3.483600e+00 2.468029e+00 3.122831e+00 3.465433e+00 2.206280e+00 4.705583e-04 3.162228e-01 3.123992e-01 3.451218e-01 3.840356e-01 4.338244e-01 4.951316e-01 5.575886e-01 4.925795e-01 5.924367e-01 4.603688e-01 5.854702e-01 3.951390e-01 7.249659e-05
<GCONST> 8.917061e+01
<MIXTURE> 4 6.055801e-02
<MEAN> 39
 -4.280741e+00 -1.542183e+01 -1.137456e+01 -1.899153e+01 -6.509192e+00 -7.295542e+00 -8.783325e+00 3.591092e+00 -4.613163e+00 -8.616328e-01 -1.466405e+01 -1.304366e+00 8.694946e-01 2.590726e-01 -1.695055e+00 -1.238413e-01 -7.914655e-01 5.947014e-01 9.825813e-01 9.100951e-02 1.486681e+00 -1.654755e-01 3.101127e-01 -6.353455e-01 1.826745e-01 3.562091e-02 -8.660213e-01 8.951099e-01 3.099930e-01 1.006979e+00 2.806197e-01 1.665598e-01 4.668848e-01 -5.288296e-01 1.825793e-01 -2.666441e-01 1.043397e+00 1.312573e-02 -3.209966e-02
<VARIANCE> 39
 8.495943e+00 1.743145e+01 2.845876e+01 3.453224e+01 5.713517e+01 4.275282e+01 4.538368e+01 4.489609e+01 4.260697e+01 6.184948e+01 2.741951e+01 3.268398e+01 6.196743e-03 6.709306e-01 1.531642e+00 1.280167e+00 1.693936e+00 3.015623e+00 2.945127e+00 2.270911e+00 2.251914e+00 2.570451e+00 2.535673e+00 1.964162e+00 1.620194e+00 4.704876e-04 2.599044e-01 2.872045e-01 3.307609e-01 4.545246e-01 5.890974e-01 5.513383e-01 5.040280e-01 7.194253e-01 5.278783e-01 5.993099e-01 4.340545e-01 4.340431e-01 1.860422e-04
<GCONST> 9.052607e+01
<MIXTURE> 5 7.337242e-02
<MEAN> 39
 -3.636532e+00 -1.278444e+01 -9.724988e+00 -1.190168e+01 -8.299171e+00 -6.798025e+00 -8.868575e+00 4.155679e+00 2.842047e+00 -3.080248e-01 -7.607126e+00 -7.425756e+00 7.650779e-01 4.681519e-01 -3.850344e-01 -1.088865e+00 -6.789058e-01 1.207325e+00 1.485396e+00 -5.985294e-02 -6.092234e-01 4.659920e-01 1.564068e-01 -5.588353e-01 -9.289961e-01 1.599902e-02 -3.160360e-02 2.084487e-01 3.668084e-01 6.791544e-02 -2.296247e-01 4.767666e-02 -2.918485e-02 -3.539279e-01 -5.121992e-01 -2.933505e-03 4.190993e-01 3.334809e-01 -5.412235e-03
<VARIANCE> 39
 7.786692e+00 2.274575e+01 2.816500e+01 2.721159e+01 3.771886e+01 5.868594e+01 4.423118e+01 3.550217e+01 4.624140e+01 5.439655e+01 3.256060e+01 2.426284e+01 1.732139e-02 5.956424e-01 1.087584e+00 1.757653e+00 1.242929e+00 2.024393e+00 2.831447e+00 2.957225e+00 2.896940e+00 2.579605e+00 2.488686e+00 2.392161e+00 1.890905e+00 6.260537e-04 1.027206e-01 2.055643e-01 2.228232e-01 2.698284e-01 3.335649e-01 3.981782e-01 4.025717e-01 4.081815e-01 5.002162e-01 4.405002e-01 3.831010e-01 2.792071e-01 1.231291e-04
<GCONST> 8.599348e+01
<MIXTURE> 6 7.255281e-02
<MEAN> 39
 -1.143725e+00 -1.378647e+01 -9.620519e+00 -1.668977e+01 -1.097890e+01 2.323449e+00 -1.271738e+01 -3.024045e+00 3.772749e+00 2.157889e+00 2.578291e+00 -1.061222e+01 8.624787e-01 2.474726e-01 -1.491282e+00 1.013626e-02 -7.261784e-01 -4.889809e-01 6.834013e-01 -5.317398e-01 6.021577e-01 9.877087e-01 -3.192123e-01 2.497614e-01 -9.151390e-01 3.289174e-02 -9.584759e-01 8.478185e-01 2.181699e-01 8.067002e-01 7.362499e-01 -6.808039e-01 6.641335e-01 7.362818e-02 -4.770771e-01 -2.034467e-01 -5.153176e-01 7.422566e-01 -3.157385e-02
<VARIANCE> 39
 9.046794e+00 2.188992e+01 2.436023e+01 2.999193e+01 2.970458e+01 6.350857e+01 3.853187e+01 3.729687e+01 4.889834e+01 3.365709e+01 4.592833e+01 2.940750e+01 8.387552e-03 6.142782e-01 1.045262e+00 1.237869e+00 1.428556e+00 1.755808e+00 2.757050e+00 2.053022e+00 2.309711e+00 1.934815e+00 2.108295e+00 2.474556e+00 1.742628e+00 3.616148e-04 3.229422e-01 2.644145e-01 2.803459e-01 3.614078e-01 3.571328e-01 6.501870e-01 4.890455e-01 5.357799e-01 5.949988e-01 4.160471e-01 4.656153e-01 3.261006e-01 1.678857e-04
<GCONST> 8.688585e+01
<MIXTURE> 7 4.202605e-02
<MEAN> 39
 -2.885663e+00 -1.371254e+01 -1.886635e+00 -1.583674e+01 -9.596845e+00 -7.729224e+00 -1.678577e+01 5.748098e+00 -2.120760e+00 6.342770e+00 -4.704545e+00 -5.283014e+00 8.064155e-01 2.534012e+00 -2.660927e+00 1.927504e-01 -2.492617e+00 -9.641671e-01 9.378147e-01 -2.052729e+00 1.278457e+00 3.650903e-01 2.021889e+00 -8.280459e-01 -1.180125e+00 7.254466e-02 -1.177274e+00 3.972004e-01 -4.735013e-01 4.046952e-01 5.658749e-01 5.178798e-01 1.197774e+00 -4.206885e-01 1.020043e-01 -5.093830e-01 1.738575e-01 2.193087e-01 -2.643353e-02
<VARIANCE> 39
 7.506558e+00 2.032832e+01 2.763117e+01 3.542361e+01 2.760847e+01 4.464664e+01 4.414941e+01 2.732305e+01 2.419194e+01 3.448729e+01 2.911197e+01 2.258901e+01 7.523297e-03 2.115758e+00 2.459258e+00 2.453058e+00 2.552329e+00 2.773469e+00 4.042185e+00 4.210547e+00 2.922016e+00 2.458405e+00 2.372493e+00 2.737171e+00 2.394449e+00 9.955653e-04 3.636573e-01 4.792333e-01 3.186222e-01 5.535622e-01 3.983666e-01 5.701361e-01 6.483001e-01 4.292357e-01 3.631583e-01 4.293855e-01 3.952018e-01 4.446083e-01 3.011993e-04
<GCONST> 9.332207e+01
<MIXTURE> 8 7.254869e-02
<MEAN> 39
 -5.890738e+00 -1.028432e+01 -1.287205e+01 -1.349771e+01 -6.581790e+00 -8.548347e+00 -8.072597e+00 -2.146401e+00 -2.854181e+00 -6.786703e+00 -1.061367e+01 -2.200131e+00 6.953028e-01 3.381083e+00 -2.394656e+00 -1.159740e+00 -3.012962e+00 -5.343011e-01 -7.675273e-01 -1.686345e+00 2.728170e-01 -4.212083e-01 -4.271650e-01 -2.316269e+00 -7.998313e-01 1.208120e-01 -8.691645e-01 4.730299e-02 2.495915e-01 3.319628e-01 2.888187e-01 5.017245e-01 5.297939e-01 4.974639e-01 2.072252e-01 5.848485e-01 6.165029e-01 8.032537e-02 -1.566621e-02
<VARIANCE> 39
 1.103189e+01 2.966105e+01 2.408122e+01 3.222620e+01 4.953531e+01 5.426409e+01 5.303797e+01 3.081695e+01 5.095488e+01 5.465145e+01 3.657175e+01 2.946507e+01 1.897607e-02 2.143401e+00 3.073308e+00 2.778898e+00 4.041364e+00 5.201473e+00 5.130857e+00 4.133047e+00 4.331078e+00 4.946484e+00 4.400476e+00 3.640667e+00 3.404446e+00 4.245347e-03 4.260321e-01 5.080131e-01 3.457614e-01 5.447274e-01 7.509295e-01 7.785023e-01 7.497714e-01 5.032256e-01 5.904440e-01 6.137983e-01 4.178537e-01 4.626828e-01 5.416646e-04
<GCONST> 1.060854e+02
<MIXTURE> 9 8.059299e-02
<MEAN> 39
 -5.235672e+00 -1.481635e+01 -1.070545e+01 -1.861598e+01 -4.953075e+00 -8.532482e+00 -8.298927e+00 2.993733e+00 -4.592178e+00 -5.784829e+00 -1.211077e+01 -2.272904e+00 8.378925e-01 -1.864344e-01 -8.818703e-01 -3.306663e-01 2.841685e-01 6.600776e-01 -9.528521e-02 6.751983e-01 9.996748e-01 4.976369e-01 -1.549793e+00 -4.681228e-01 9.259779e-01 1.693557e-02 -2.783591e-02 6.929299e-01 2.664893e-01 4.198946e-01 -3.073273e-01 -6.592258e-02 1.856669e-02 -8.087505e-01 -2.275118e-01 2.484551e-01 3.237595e-01 4.819860e-02 -1.461197e-02
<VARIANCE> 39
 6.839062e+00 1.970034e+01 3.643636e+01 3.280471e+01 6.333385e+01 4.467101e+01 7.367523e+01 3.432598e+01 5.078846e+01 5.991076e+01 3.117030e+01 3.059656e+01 1.097907e-02 5.316701e-01 1.288123e+00 2.907363e+00 1.629244e+00 3.966970e+00 3.325047e+00 3.152551e+00 2.752640e+00 2.787594e+00 2.617384e+00 2.093166e+00 2.469387e+00 5.066565e-04 1.063569e-01 2.004356e-01 2.626754e-01 4.159008e-01 4.755951e-01 4.105919e-01 6.375031e-01 5.206776e-01 5.915553e-01 5.532323e-01 4.464963e-01 4.516227e-01 5.516245e-05
<GCONST> 9.045650e+01
<MIXTURE> 10 6.609304e-02
<MEAN> 39
 -2.944377e+00 -1.651539e+01 -4.409467e+00 -1.014905e+01 -1.625455e+01 -3.170684e+00 -1.477841e+01 4.135739e+00 6.923489e+00 -4.342285e+00 -6.408949e-01 -8.261665e+00 8.485526e-01 3.427231e-01 -6.348857e-01 -1.703221e+00 -5.939409e-01 6.241211e-01 1.254483e+00 4.544328e-01 -3.349757e-01 1.371267e+00 2.069324e-01 -3.450930e-01 -1.212763e+00 2.418719e-02 -3.207260e-01 6.808340e-01 6.745331e-02 1.427593e-01 6.688762e-01 -2.757061e-01 6.143165e-01 -6.075715e-01 -7.839242e-01 2.807736e-01 -1.059780e-01 3.146530e-01 -1.729183e-02
<VARIANCE> 39
 7.990089e+00 1.663978e+01 2.341875e+01 1.855126e+01 3.169401e+01 5.307688e+01 3.262209e+01 3.562728e+01 3.435255e+01 3.001454e+01 3.395783e+01 3.163236e+01 1.026843e-02 3.139527e-01 8.049949e-01 1.095102e+00 1.027856e+00 1.831652e+00 1.743446e+00 1.856880e+00 2.213267e+00 1.856768e+00 1.658031e+00 1.872274e+00 1.881657e+00 3.513665e-04 1.617721e-01 1.997430e-01 2.006443e-01 1.958545e-01 4.543855e-01 4.317679e-01 3.764275e-01 4.459592e-01 3.565453e-01 3.272086e-01 2.922769e-01 3.503382e-01 7.998817e-05
<GCONST> 7.827052e+01
<MIXTURE> 11 8.688097e-02
<MEAN> 39
 -8.495106e-01 -1.120394e+01 -1.340028e+01 -1.907814e+01 -6.378756e+00 -6.787930e-01 -3.894360e+00 -7.974926e+00 2.615495e+00 9.460096e-01 2.375113e+00 -5.905504e+00 8.695562e-01 -3.347111e-01 -3.894127e-01 1.709914e-01 1.990332e-01 5.739814e-01 -5.406243e-01 -3.465311e-01 2.688594e-01 8.917557e-01 2.465997e-01 -6.115038e-01 -9.916964e-01 5.207994e-03 -3.682256e-02 3.207149e-01 1.896898e-01 4.155662e-01 -1.691855e-01 -2.617380e-01 -2.686225e-01 2.053576e-01 -3.706658e-01 -9.530966e-02 -1.133974e-01 1.872235e-01 -1.077472e-02
<VARIANCE> 39
 8.821175e+00 2.613829e+01 2.360384e+01 5.323923e+01 4.211752e+01 6.915685e+01 4.922739e+01 3.947329e+01 4.387969e+01 5.278137e+01 4.532248e+01 3.260713e+01 8.517552e-03 2.526565e-01 6.438338e-01 5.374833e-01 1.412911e+00 1.050988e+00 1.625652e+00 1.873173e+00 1.290611e+00 1.379977e+00 1.449572e+00 1.357674e+00 1.403262e+00 2.789343e-04 6.690343e-02 1.339769e-01 1.423478e-01 2.631818e-01 2.265284e-01 3.181834e-01 3.355890e-01 2.689284e-01 2.808799e-01 2.627957e-01 3.301911e-01 3.225365e-01 5.420969e-05
<GCONST> 7.486105e+01
<MIXTURE> 12 7.335933e-02
<MEAN> 39
 -1.049453e+00 -1.221958e+01 -1.191805e+01 -1.693126e+01 -8.278962e+00 3.895892e+00 -1.233454e+01 -4.437517e+00 9.648579e-01 2.540199e+00 2.499529e+00 -9.131534e+00 8.653717e-01 -5.502321e-01 -8.620086e-01 7.500645e-01 1.536278e+00 3.638822e-01 -2.011908e+00 -1.536307e+00 1.337456e+00 1.804275e+00 5.524239e-01 -1.739707e+00 -1.493240e+00 -1.635332e-03 -1.384480e-01 5.969511e-01 6.136067e-01 4.043560e-01 -2.965218e-01 -6.770512e-01 5.330766e-01 1.184569e-01 -6.184034e-01 -5.683867e-01 -3.850664e-01 6.045432e-01 -1.763422e-02
<VARIANCE> 39
 6.242989e+00 1.886726e+01 2.975416e+01 3.867638e+01 3.994061e+01 6.461295e+01 4.891426e+01 4.175958e+01 5.031853e+01 5.874795e+01 5.863848e+01 4.034332e+01 8.421045e-03 2.756732e-01 7.678710e-01 1.216204e+00 1.987386e+00 1.910580e+00 2.747633e+00 2.061164e+00 3.082433e+00 2.023439e+00 2.996401e+00 2.175180e+00 2.028502e+00 3.296084e-04 1.199651e-01 1.883625e-01 2.560361e-01 4.318964e-01 4.848610e-01 5.818405e-01 5.220259e-01 6.063318e-01 6.251709e-01 6.230430e-01 6.010380e-01 5.862156e-01 6.446397e-05
<GCONST> 8.801836e+01
<MIXTURE> 13 3.782437e-02
<MEAN> 39
 -5.281284e+00 -1.339359e+01 -8.711920e+00 -2.152651e+01 -5.703535e+00 -1.741535e+01 -4.180384e+00 4.688973e-01 -1.238763e-02 -5.656089e+00 -1.367401e+01 1.343884e+00 8.326409e-01 1.461899e+00 -2.892670e+00 1.832117e-02 -2.694347e+00 1.237774e+00 -6.147949e-01 5.294294e-01 1.047962e+00 3.468170e-01 -1.421700e-01 -1.784659e+00 1.947695e-01 6.199218e-02 -1.183297e+00 6.812165e-01 2.714723e-03 1.294514e+00 2.095456e-01 1.341307e+00 2.490092e-01 -1.303558e-01 -1.911515e-01 2.671212e-01 1.022629e+00 -2.796746e-01 -3.063674e-02
<VARIANCE> 39
 5.751875e+00 1.816522e+01 3.284258e+01 1.827533e+01 3.593023e+01 2.755191e+01 4.033019e+01 3.421459e+01 4.131041e+01 3.504734e+01 3.499659e+01 2.648669e+01 7.686517e-03 1.817300e+00 2.312300e+00 1.987973e+00 2.204863e+00 3.568523e+00 3.879450e+00 4.082821e+00 2.910661e+00 3.544803e+00 2.771122e+00 2.421372e+00 2.658117e+00 1.103288e-03 3.304870e-01 3.560617e-01 3.213945e-01 2.805620e-01 4.988191e-01 3.964238e-01 5.801689e-01 5.198518e-01 4.965549e-01 4.376208e-01 5.495888e-01 4.918102e-01 3.272591e-04
<GCONST> 9.322116e+01
<MIXTURE> 14 4.712680e-02
<MEAN> 39
 -1.569163e+00 -1.076476e+01 -1.031182e+01 -1.329824e+01 -8.680929e+00 -1.938339e+00 -1.034989e+01 -4.054850e+00 2.963302e+00 2.398406e+00 -6.598330e-01 -9.575854e+00 7.837660e-01 3.134238e+00 -2.604813e+00 -7.339570e-01 -1.709647e+00 -2.266787e+00 1.552563e+00 -1.681740e+00 -6.784903e-01 1.368962e+00 -4.651286e-02 1.483552e+00 -1.961367e+00 9.256682e-02 -1.430397e+00 1.801078e-01 1.071976e-01 2.092691e-01 5.009081e-01 -4.360761e-02 5.348650e-01 4.389730e-01 -1.646006e-01 -3.093693e-01 -6.782760e-02 6.577598e-01 -2.167870e-02
<VARIANCE> 39
 8.122142e+00 1.797987e+01 2.137792e+01 2.639262e+01 1.621250e+01 4.536788e+01 2.579988e+01 3.115937e+01 2.751508e+01 2.595622e+01 3.732485e+01 1.984979e+01 8.492026e-03 2.593936e+00 1.976545e+00 1.740800e+00 2.137362e+00 2.308781e+00 3.988528e+00 4.212626e+00 3.453979e+00 2.677702e+00 3.221798e+00 3.216839e+00 2.477019e+00 1.428903e-03 3.110068e-01 2.613299e-01 2.838551e-01 3.586893e-01 3.050921e-01 5.318707e-01 4.151119e-01 4.149845e-01 3.870522e-01 4.445482e-01 4.711331e-01 2.927388e-01 3.026008e-04
<GCONST> 9.000684e+01
<MIXTURE> 15 8.195322e-02
<MEAN> 39
 -1.783459e+00 -1.670004e+01 -5.873387e+00 -1.933634e+01 -6.954627e+00 -1.641620e+00 -1.522616e+01 6.038690e+00 -2.385291e+00 7.239796e+00 -6.733915e+00 -6.227488e+00 8.740946e-01 -4.830069e-02 -3.427572e-01 -1.083285e-01 -6.306412e-01 3.066972e-01 4.778349e-01 1.744211e-01 9.840295e-02 2.502956e-01 2.644640e-01 -5.080209e-01 -1.762367e-01 1.231042e-02 -3.311977e-01 8.414970e-01 -8.623963e-02 7.399635e-01 9.762412e-02 -4.065057e-01 5.136082e-01 -7.874072e-01 -8.528356e-03 -4.859847e-01 3.416700e-01 2.623464e-01 -1.996890e-02
<VARIANCE> 39
 6.791436e+00 1.909941e+01 2.636920e+01 2.298314e+01 1.868732e+01 6.412083e+01 4.223931e+01 3.345620e+01 3.213721e+01 3.781359e+01 3.838093e+01 2.508433e+01 8.465068e-03 3.852929e-01 8.585640e-01 1.209089e+00 1.226129e+00 1.380124e+00 2.289335e+00 1.902095e+00 2.356324e+00 1.376536e+00 1.714173e+00 1.740517e+00 1.561263e+00 3.219520e-04 1.767352e-01 1.847531e-01 1.916603e-01 2.252520e-01 2.426714e-01 3.902529e-01 4.477398e-01 3.861496e-01 3.001303e-01 3.586063e-01 3.202702e-01 2.379118e-01 6.621909e-05
<GCONST> 7.714491e+01
<MIXTURE> 16 3.326866e-02
<MEAN> 39
 -2.616311e+00 -1.495415e+01 -5.402847e+00 -1.229498e+01 -1.551224e+01 -2.116793e+00 -1.712338e+01 1.844453e+00 4.815132e+00 -1.106408e+00 6.512129e-01 -9.059299e+00 8.541685e-01 2.181276e+00 -2.917544e+00 -9.235274e-01 -1.154989e+00 -2.452678e+00 2.805827e+00 -1.983534e+00 5.097939e-01 2.095175e+00 -4.732531e-01 1.160459e+00 -2.156851e+00 6.757265e-02 -1.233896e+00 5.884395e-01 -2.680591e-01 1.945915e-01 1.158702e+00 -9.250080e-03 1.337394e+00 -1.295891e-01 -4.721585e-01 -2.957601e-02 -1.609572e-01 5.346264e-01 -2.563964e-02
<VARIANCE> 39
 7.210313e+00 1.704279e+01 3.289717e+01 2.550501e+01 3.333240e+01 5.875533e+01 3.025303e+01 4.427181e+01 4.339904e+01 3.105113e+01 5.299381e+01 3.340167e+01 4.458229e-03 1.472610e+00 1.465940e+00 1.578732e+00 2.307849e+00 3.194338e+00 3.491157e+00 3.948043e+00 3.624278e+00 3.339597e+00 2.673014e+00 3.277135e+00 2.622880e+00 7.076157e-04 3.542004e-01 3.849315e-01 4.601842e-01 3.633701e-01 5.681097e-01 7.933114e-01 5.161189e-01 7.007126e-01 5.223230e-01 5.046927e-01 6.436068e-01 5.926718e-01 1.466394e-04
<GCONST> 9.477438e+01
<STATE> 3
<NUMMIXES> 16
<MIXTURE> 1 5.871460e-02
<MEAN> 39
 -3.671111e-01 -1.445723e+01 -1.016827e+01 -1.916884e+01 -9.994455e+00 4.706010e+00 -1.042674e+01 -4.357973e+00 3.150951e+00 1.847390e+00 8.927222e-01 -8.485267e+00 8.835864e-01 5.206649e-01 1.084478e+00 4.457267e-02 -3.164176e-01 -4.117577e-01 3.680264e-01 4.624833e-01 -1.164232e+00 -1.311906e+00 -5.497994e-02 1.355460e+00 1.171824e+00 -2.135688e-02 -5.459226e-01 1.032603e+00 3.774728e-01 9.849411e-01 4.106555e-01 -7.147163e-01 4.699050e-01 -1.458180e-02 -7.658978e-01 -2.279485e-01 -3.006347e-01 5.123299e-01 -3.308755e-02
<VARIANCE> 39
 7.657365e+00 2.388144e+01 2.299531e+01 4.080269e+01 4.419199e+01 4.994891e+01 4.280422e+01 3.604707e+01 4.689792e+01 4.101069e+01 5.570786e+01 3.791439e+01 6.084904e-03 4.345709e-01 1.200172e+00 1.110329e+00 2.491366e+00 1.700907e+00 2.503127e+00 2.663695e+00 2.582078e+00 2.333004e+00 2.575400e+00 2.271688e+00 1.805537e+00 8.602280e-04 1.784804e-01 2.924860e-01 2.615969e-01 3.886004e-01 5.212422e-01 5.577711e-01 4.303261e-01 4.676822e-01 5.613241e-01 5.023535e-01 6.135054e-01 4.794951e-01 1.840729e-04
<GCONST> 8.960918e+01
<MIXTURE> 2 7.671585e-02
<MEAN> 39
 -2.049143e+00 -1.726513e+01 -5.296235e+00 -1.733441e+01 -9.096649e+00 -5.273474e-01 -1.363912e+01 4.404431e+00 2.223771e+00 4.800691e+00 -6.647558e+00 -7.475843e+00 8.470193e-01 1.048322e-01 2.939650e-02 -4.826036e-01 -4.434586e-01 5.914125e-01 6.275479e-01 4.180345e-01 -6.083714e-01 1.522473e-02 2.449650e-01 -1.400835e-01 -2.174648e-01 -3.448723e-04 -4.343898e-02 2.816674e-01 1.026319e-01 1.543902e-01 -2.550136e-02 -3.121945e-01 2.161763e-02 -1.419971e-01 -1.908071e-01 -1.347386e-01 2.483042e-01 1.944869e-01 -7.215235e-03
<VARIANCE> 39
 6.461298e+00 1.996498e+01 2.433829e+01 3.309514e+01 3.722811e+01 5.867998e+01 4.110045e+01 3.285730e+01 3.316291e+01 3.284784e+01 4.011384e+01 2.275501e+01 9.937267e-03 2.284613e-01 4.424501e-01 7.287995e-01 8.335684e-01 8.441304e-01 1.487252e+00 9.778202e-01 9.549772e-01 9.814020e-01 9.679618e-01 1.112171e+00 9.533622e-01 1.905913e-04 3.943463e-02 7.468577e-02 1.166798e-01 1.064805e-01 1.403107e-01 1.769942e-01 1.539046e-01 1.679949e-01 1.553914e-01 1.367255e-01 1.539677e-01 1.442995e-01 2.347805e-05
<GCONST> 6.025040e+01
<MIXTURE> 3 7.662267e-02
<MEAN> 39
 -2.699043e+00 -1.483961e+01 -7.242660e+00 -2.026390e+01 -3.375961e+00 -5.231989e+00 -9.836533e+00 1.925159e+00 4.414739e-01 6.831418e+00 -9.678622e+00 -4.604647e+00 8.417411e-01 2.379666e-02 6.692905e-01 9.732582e-02 3.606249e-01 2.383482e-02 -4.838974e-01 -2.888857e-01 -4.144848e-01 -1.845337e-01 -1.929958e-02 2.316027e-01 2.994344e-01 -1.746519e-02 -4.358235e-02 5.354022e-01 5.071393e-02 5.713097e-01 -2.276416e-01 2.736831e-03 -6.495100e-02 -3.536121e-01 -2.641477e-01 -2.620876e-01 5.131574e-01 1.248132e-02 -1.452378e-02
<VARIANCE> 39
 7.161240e+00 2.545983e+01 2.962464e+01 3.383082e+01 2.878760e+01 6.345608e+01 3.665709e+01 3.288067e+01 3.154049e+01 3.382878e+01 2.921132e+01 2.565287e+01 9.431208e-03 3.017556e-01 6.857448e-01 9.210768e-01 1.094432e+00 1.193203e+00 1.728596e+00 1.648551e+00 2.023021e+00 1.163029e+00 1.599691e+00 1.516567e+00 1.243035e+00 2.647982e-04 9.197726e-02 1.459344e-01 1.591993e-01 1.759434e-01 1.796871e-01 2.786820e-01 2.465521e-01 2.714601e-01 2.452655e-01 2.252286e-01 2.196438e-01 2.049086e-01 5.487139e-05
<GCONST> 7.131332e+01
<MIXTURE> 4 7.839552e-02
<MEAN> 39
 -1.748447e+00 -1.508869e+01 -5.273051e+00 -1.771224e+01 -8.386821e+00 -3.555708e+00 -1.619841e+01 4.875270e+00 -1.828478e+00 8.019233e+00 -4.055748e+00 -8.245369e+00 8.514770e-01 -3.328421e-01 1.240969e+00 5.730466e-01 1.158483e+00 3.820205e-01 -1.413541e+00 9.964216e-03 -7.621509e-01 -8.283348e-02 -5.781561e-01 -1.789891e-01 5.646226e-01 -3.662051e-02 -5.662934e-01 1.091471e+00 -4.901801e-02 8.775665e-01 2.940729e-01 1.550854e-02 8.189071e-01 -8.185443e-01 -6.352539e-02 -8.312685e-01 1.698149e-01 4.651209e-01 -2.972344e-02
<VARIANCE> 39
 8.102809e+00 2.253747e+01 3.003080e+01 2.518492e+01 2.832303e+01 5.776665e+01 4.373411e+01 3.166893e+01 3.734727e+01 3.018972e+01 4.686206e+01 3.150371e+01 8.850096e-03 7.083696e-01 1.234427e+00 1.748055e+00 2.106200e+00 1.996172e+00 3.441132e+00 3.108608e+00 4.280623e+00 3.245195e+00 3.312397e+00 3.488081e+00 2.199688e+00 5.016304e-04 3.120342e-01 2.907800e-01 2.713926e-01 3.841752e-01 4.556347e-01 6.078840e-01 6.198751e-01 4.098276e-01 4.929236e-01 4.120500e-01 5.604084e-01 4.257132e-01 1.776820e-04
<GCONST> 9.126637e+01
<MIXTURE> 5 6.325592e-02
<MEAN> 39
 -2.279654e+00 -1.439637e+01 -9.389938e+00 -2.039169e+01 -4.766423e+00 8.781432e-01 -1.120640e+01 1.526674e-01 1.984630e+00 4.975630e-01 -5.252301e+00 -5.368300e+00 8.518265e-01 -1.930914e-02 8.052271e-02 -6.005494e-03 1.135075e-01 6.036659e-02 -1.810967e-01 -2.837082e-02 2.214158e-01 -2.488195e-02 6.678208e-03 -5.149972e-02 8.596576e-02 -4.666031e-03 1.536708e-02 7.232903e-02 1.529578e-02 7.029257e-02 -1.061039e-01 -1.012718e-01 1.447753e-02 -6.919834e-03 -5.645063e-02 3.582390e-02 3.530157e-02 2.586916e-02 -1.976149e-03
<VARIANCE> 39
 5.497149e+00 2.701038e+01 3.348208e+01 4.828431e+01 7.041437e+01 8.427917e+01 6.526804e+01 4.368881e+01 3.733174e+01 4.030710e+01 6.832675e+01 3.872251e+01 1.351060e-02 8.269287e-02 2.218743e-01 2.715876e-01 4.093800e-01 3.792941e-01 4.953483e-01 4.168057e-01 4.984568e-01 3.573810e-01 4.416898e-01 4.883826e-01 3.762808e-01 5.535782e-05 1.152161e-02 3.163695e-02 3.392212e-02 4.250916e-02 5.426374e-02 6.376905e-02 7.446775e-02 7.389429e-02 6.583727e-02 7.691424e-02 7.209834e-02 6.822620e-02 7.162007e-06
<GCONST> 4.104809e+01
<MIXTURE> 6 6.428251e-02
<MEAN> 39
 -5.738307e+00 -1.718288e+01 -1.028737e+01 -1.645332e+01 -6.838368e+00 -6.190470e+00 -4.546235e+00 5.397995e+00 -7.513377e+00 -5.873409e+00 -1.288267e+01 1.640079e+00 8.711956e-01 2.773564e-01 -1.606764e-01 -7.309408e-01 3.045790e-01 8.305746e-01 5.320324e-01 -7.016640e-01 -2.400211e-01 4.306676e-01 -3.593939e-01 -1.101027e-01 -2.298453e-01 1.161004e-03 9.028855e-03 5.113229e-01 1.939664e-01 -3.026424e-02 -3.179478e-01 -3.802648e-01 -1.912686e-01 -4.272702e-01 1.056529e-01 2.321296e-01 1.879099e-01 -3.186202e-01 -1.039534e-02
<VARIANCE> 39
 8.045455e+00 1.623363e+01 2.255066e+01 2.615427e+01 4.314421e+01 4.118850e+01 5.956967e+01 2.791920e+01 3.170963e+01 3.123207e+01 2.632329e+01 1.596234e+01 9.439433e-03 3.366343e-01 6.763696e-01 8.571049e-01 8.168103e-01 1.780519e+00 1.475470e+00 1.940970e+00 1.108227e+00 1.326106e+00 1.949351e+00 1.321096e+00 1.215903e+00 2.180784e-04 8.052748e-02 1.402175e-01 1.103889e-01 1.403323e-01 2.522831e-01 2.533245e-01 3.359447e-01 2.773638e-01 2.719435e-01 3.224610e-01 2.531991e-01 1.960993e-01 4.405501e-05
<GCONST> 6.975134e+01
<MIXTURE> 7 5.387308e-02
<MEAN> 39
 -2.665224e+00 -1.348623e+01 -1.245447e+01 -1.332428e+01 -1.039195e+01 -7.535739e+00 -8.346283e+00 -9.444531e-01 9.432691e-01 -9.307063e-01 -6.310315e+00 -5.263080e+00 8.474169e-01 -1.229954e-01 5.804318e-01 1.146911e+00 7.295296e-01 -3.986846e-01 -1.084957e+00 -5.225028e-01 1.577900e-02 -3.602562e-01 -3.533981e-02 -1.071020e-01 2.462734e-01 -2.625231e-02 -4.955732e-01 9.933987e-01 6.046029e-01 4.974365e-01 3.907620e-01 2.738351e-01 1.830104e-01 -4.233819e-01 -6.511019e-01 -1.895093e-01 3.009332e-01 2.870743e-01 -3.256559e-02
<VARIANCE> 39
 1.296967e+01 2.723744e+01 4.380299e+01 4.651576e+01 5.535960e+01 7.406851e+01 7.276379e+01 7.185445e+01 7.262514e+01 5.643532e+01 7.354489e+01 3.882525e+01 9.588715e-03 1.019855e+00 1.627112e+00 2.912078e+00 3.098925e+00 4.396082e+00 4.198403e+00 3.875082e+00 4.580209e+00 3.667440e+00 4.499749e+00 4.477995e+00 3.747545e+00 7.408314e-04 4.214718e-01 3.877630e-01 5.436098e-01 7.965429e-01 7.573305e-01 1.182815e+00 9.228048e-01 1.195540e+00 8.588331e-01 7.702506e-01 8.029794e-01 6.898816e-01 3.084321e-04
<GCONST> 1.088389e+02
<MIXTURE> 8 7.153478e-02
<MEAN> 39
 -1.554551e+00 -1.439482e+01 -1.189511e+01 -1.417871e+01 -9.382139e+00 -9.986027e-01 -9.866197e+00 -1.473778e+00 5.650771e+00 -4.181522e-01 1.206442e+00 -1.278816e+01 8.803464e-01 2.652668e-01 6.047059e-01 -3.935702e-01 -1.069507e-01 3.926583e-01 1.268492e-01 7.164706e-02 -5.169727e-01 -6.874769e-01 3.819462e-01 3.913333e-01 2.192838e-01 -1.223887e-02 -1.645350e-01 6.125482e-01 3.644886e-01 3.614461e-01 9.381156e-02 -3.593262e-01 8.222407e-02 -9.432621e-02 -5.773839e-01 5.712647e-02 -1.189724e-01 7.167025e-01 -1.837486e-02
<VARIANCE> 39
 9.266197e+00 1.847944e+01 2.537743e+01 2.714487e+01 2.319260e+01 5.565549e+01 4.458274e+01 4.542547e+01 3.424252e+01 2.534462e+01 3.781538e+01 2.211271e+01 8.453886e-03 3.723526e-01 7.049009e-01 1.093017e+00 1.252741e+00 1.216530e+00 2.062231e+00 1.849382e+00 1.831038e+00 1.417950e+00 1.434393e+00 1.716164e+00 1.207543e+00 3.563684e-04 8.995347e-02 1.427783e-01 1.975603e-01 1.797113e-01 2.876883e-01 3.003312e-01 3.538362e-01 3.281862e-01 2.917419e-01 2.120599e-01 2.267656e-01 2.274982e-01 5.245967e-05
<GCONST> 7.357117e+01
<MIXTURE> 9 5.323483e-02
<MEAN> 39
 -2.817498e+00 -1.126779e+01 -1.372810e+01 -1.185743e+01 -3.955904e+00 -4.291434e+00 -1.027528e+01 1.864678e+00 -3.827258e+00 -5.108459e+00 -8.391379e+00 -3.837070e+00 6.952072e-01 -1.332382e-02 4.197411e-01 8.612327e-02 4.272017e-01 -2.403651e-01 -3.005542e-01 3.087679e-01 -3.522460e-02 -4.876517e-02 -2.599361e-01 6.700549e-02 2.384578e-01 -1.365851e-02 -5.673651e-02 9.285749e-02 1.370631e-01 -3.967664e-02 -9.421699e-02 -1.054424e-01 9.118082e-02 -7.693082e-02 5.544578e-03 7.702774e-02 6.981224e-03 6.416659e-03 -2.472574e-03
<VARIANCE> 39
 6.545027e+00 1.995676e+01 2.872452e+01 3.186603e+01 4.241738e+01 4.754903e+01 4.895215e+01 4.482523e+01 4.712423e+01 5.259389e+01 3.855112e+01 2.767642e+01 1.037736e-02 2.066687e-01 4.640405e-01 6.606276e-01 9.099889e-01 1.067073e+00 9.656436e-01 1.341305e+00 9.604250e-01 1.088737e+00 9.822203e-01 7.321838e-01 8.832192e-01 1.637806e-04 3.253698e-02 6.111393e-02 7.011778e-02 1.403686e-01 1.580830e-01 1.348052e-01 2.084329e-01 1.681504e-01 1.492643e-01 1.588224e-01 1.220701e-01 1.091854e-01 2.003891e-05
<GCONST> 6.031690e+01
<MIXTURE> 10 5.154649e-02
<MEAN> 39
 -2.790996e+00 -1.338229e+01 -1.078513e+01 -1.592765e+01 -9.715366e+00 -2.426492e+00 -9.166985e+00 -2.495011e+00 6.719249e+00 2.135224e+00 -8.801826e-01 -1.184013e+01 9.194085e-01 -1.224862e-01 -9.640098e-03 3.188440e-01 3.715659e-01 -6.726450e-02 -7.049659e-01 -2.423837e-01 5.468317e-01 3.329158e-02 -9.373612e-02 -4.783152e-01 1.949407e-01 -5.247044e-03 5.275020e-02 2.038754e-01 2.716221e-01 1.784685e-01 -1.145085e-01 -1.015526e-01 -3.137184e-01 -2.128514e-02 -4.296727e-01 -8.928563e-03 1.325120e-01 3.735908e-01 -9.495441e-03
<VARIANCE> 39
 6.748606e+00 2.427314e+01 1.554633e+01 2.649993e+01 2.458106e+01 6.797232e+01 3.138872e+01 4.172460e+01 3.508435e+01 3.982457e+01 3.581093e+01 2.924095e+01 4.271489e-03 1.689545e-01 3.015084e-01 5.416165e-01 7.381888e-01 7.703741e-01 1.209097e+00 9.003476e-01 1.153651e+00 8.030617e-01 7.625591e-01 1.096407e+00 1.045907e+00 1.514195e-04 3.878960e-02 7.717611e-02 1.055373e-01 1.510450e-01 1.965277e-01 1.996497e-01 1.746894e-01 2.117329e-01 1.325833e-01 1.577353e-01 1.728508e-01 1.726879e-01 2.906969e-05
<GCONST> 5.874970e+01
<MIXTURE> 11 6.447667e-02
<MEAN> 39
 -5.270982e+00 -1.601621e+01 -9.373236e+00 -2.171469e+01 -1.524759e+00 -1.298196e+01 -2.129861e+00 5.669956e-01 1.132347e+00 -7.040947e+00 -1.248109e+01 -5.076216e-01 8.736345e-01 2.371955e-01 4.324762e-01 -1.222687e-01 1.895775e-01 1.110397e-01 2.968261e-02 -2.936106e-01 -3.975897e-01 2.748935e-01 1.743540e-01 1.651814e-01 -4.259519e-01 -1.061294e-02 -1.316985e-01 9.414834e-01 1.337800e-01 8.817422e-01 -4.647515e-01 2.608637e-01 -5.558626e-01 -3.690514e-01 -4.261291e-01 3.580165e-01 4.537305e-01 -1.625067e-01 -2.440690e-02
<VARIANCE> 39
 6.150203e+00 2.078999e+01 3.355787e+01 2.558164e+01 3.436082e+01 3.696799e+01 4.407144e+01 3.084457e+01 4.637496e+01 5.196165e+01 2.775206e+01 2.616304e+01 7.169453e-03 5.251672e-01 1.353110e+00 1.136897e+00 1.111428e+00 2.213610e+00 2.064518e+00 2.362627e+00 2.044342e+00 2.236974e+00 2.799652e+00 1.402107e+00 1.838519e+00 5.883037e-04 1.643471e-01 2.298703e-01 2.820270e-01 3.154858e-01 2.865595e-01 3.197024e-01 4.243854e-01 4.254045e-01 4.099184e-01 4.062776e-01 3.201765e-01 3.087018e-01 1.184457e-04
<GCONST> 8.246679e+01
<MIXTURE> 12 5.486630e-02
<MEAN> 39
 -5.751993e+00 -1.539960e+01 -1.017760e+01 -1.691789e+01 -7.034886e+00 -9.286164e+00 -6.551579e+00 5.370521e+00 -6.768741e+00 -7.760139e+00 -1.310332e+01 1.353557e+00 8.484028e-01 -2.283162e-01 8.220794e-01 1.022967e+00 -1.967756e-02 -1.254589e+00 -1.207978e+00 5.442147e-01 9.094575e-02 -7.496094e-01 -2.253089e-01 4.944663e-01 6.458241e-01 -1.966854e-02 9.967675e-02 5.635282e-01 1.740340e-01 1.161065e-01 -1.634613e-01 -1.495579e-01 -1.795122e-01 -6.695107e-01 -8.786824e-02 3.831476e-01 1.831347e-01 -2.560658e-01 -1.310608e-02
<VARIANCE> 39
 6.474171e+00 1.470244e+01 2.144373e+01 2.471303e+01 4.737883e+01 3.674592e+01 5.974124e+01 2.988216e+01 4.628617e+01 3.787924e+01 2.525635e+01 1.966776e+01 8.825544e-03 2.819387e-01 6.252751e-01 9.160349e-01 1.060735e+00 1.731535e+00 1.539216e+00 2.837727e+00 2.022586e+00 1.843338e+00 2.181109e+00 1.594291e+00 1.559769e+00 2.592390e-04 6.169645e-02 1.176726e-01 1.493434e-01 2.260967e-01 3.360282e-01 2.760683e-01 5.086940e-01 4.965039e-01 3.203046e-01 3.539912e-01 3.471678e-01 2.690071e-01 4.556055e-05
<GCONST> 7.479858e+01
<MIXTURE> 13 4.816915e-02
<MEAN> 39
 -3.179577e+00 -1.236079e+01 -1.371142e+01 -1.281072e+01 -6.477211e+00 -4.157423e+00 -6.834663e+00 -1.284702e+00 2.346169e+00 -2.627425e+00 -4.896502e+00 -7.304571e+00 8.120358e-01 5.150604e-02 1.625229e-01 -1.868053e-01 -3.595257e-02 3.424460e-01 -2.352333e-03 -2.067895e-02 -2.749053e-01 1.627623e-01 2.243411e-01 -1.961758e-01 -4.960394e-02 -6.092533e-03 2.607224e-02 4.090305e-02 1.642886e-01 -4.338932e-02 -9.541652e-02 -1.335535e-01 -1.673092e-01 7.980660e-02 -1.901735e-01 1.196210e-01 3.760052e-02 4.706286e-03 -3.261949e-03
<VARIANCE> 39
 1.028087e+01 1.457778e+01 2.972832e+01 3.070417e+01 4.076572e+01 5.588736e+01 5.351123e+01 3.003884e+01 3.409014e+01 4.786918e+01 4.019809e+01 4.301627e+01 8.783114e-03 1.557389e-01 2.968248e-01 3.457552e-01 4.578252e-01 4.608574e-01 7.354032e-01 5.491446e-01 6.821848e-01 5.670649e-01 6.557173e-01 6.261122e-01 5.543867e-01 1.133999e-04 2.390349e-02 4.119455e-02 5.770776e-02 6.690740e-02 8.340353e-02 7.926231e-02 1.044406e-01 1.100072e-01 1.008480e-01 1.101147e-01 9.738901e-02 1.040465e-01 1.371128e-05
<GCONST> 4.836663e+01
<MIXTURE> 14 7.632846e-02
<MEAN> 39
 -2.308738e+00 -1.360358e+01 -1.080890e+01 -1.221400e+01 -8.824611e+00 -6.037423e-01 -1.263347e+01 -1.636824e+00 6.425761e+00 -4.839784e+00 -1.403458e+00 -8.406904e+00 8.263575e-01 -1.580352e-01 4.055996e-01 9.466247e-01 7.374099e-01 -2.379007e-01 -1.342883e+00 -6.887181e-01 6.679875e-01 -5.351387e-01 -2.710457e-03 -3.870664e-01 -4.621665e-02 -2.460739e-02 -5.645440e-02 5.399572e-01 3.803179e-01 2.936823e-01 -1.133970e-01 -3.165409e-01 5.371035e-01 -3.922109e-01 -9.978867e-01 3.477758e-01 -3.293151e-02 3.133333e-01 -1.577387e-02
<VARIANCE> 39
 9.154895e+00 2.194078e+01 2.368492e+01 2.952220e+01 3.956437e+01 5.454391e+01 4.747939e+01 5.372742e+01 4.666489e+01 3.912054e+01 4.697135e+01 3.258567e+01 9.772072e-03 3.756864e-01 7.876065e-01 1.086992e+00 1.774350e+00 1.938366e+00 2.569695e+00 2.082220e+00 2.905773e+00 2.007934e+00 1.878270e+00 2.817567e+00 2.034712e+00 1.822985e-04 9.228300e-02 1.300531e-01 1.566820e-01 2.415349e-01 3.587053e-01 4.506750e-01 4.106684e-01 6.190259e-01 4.368774e-01 3.415720e-01 3.941021e-01 3.754888e-01 3.423766e-05
<GCONST> 8.159050e+01
<MIXTURE> 15 5.770566e-02
<MEAN> 39
 -7.965602e-01 -1.480540e+01 -1.125065e+01 -1.550185e+01 -8.787883e+00 7.298247e+00 -1.542905e+01 4.547573e-01 1.808992e+00 -2.163116e+00 -1.863412e+00 -8.596998e+00 8.391883e-01 -1.563739e-01 -7.209328e-03 1.694226e-01 4.038614e-01 -1.008544e-02 -5.016968e-01 -2.878471e-01 5.381133e-01 6.697270e-02 -2.531395e-01 -1.997247e-01 -2.675736e-01 -5.541194e-03 -7.222546e-02 2.969915e-01 1.289014e-01 1.451398e-01 -3.026387e-02 -6.212786e-01 3.016590e-01 -1.457311e-01 -1.385551e-01 1.173305e-01 -3.445952e-02 1.806937e-01 -7.635719e-03
<VARIANCE> 39
 5.143494e+00 1.826976e+01 1.601284e+01 3.322592e+01 3.469999e+01 3.191079e+01 3.270498e+01 4.634016e+01 4.691815e+01 4.822095e+01 3.982654e+01 3.745912e+01 8.087165e-03 2.271930e-01 5.205668e-01 6.035855e-01 1.119170e+00 8.660627e-01 2.000973e+00 1.150409e+00 1.235816e+00 1.531530e+00 1.006969e+00 1.715908e+00 1.105983e+00 1.566240e-04 3.591061e-02 8.060473e-02 8.714386e-02 1.490727e-01 1.639966e-01 2.113133e-01 1.718509e-01 2.609713e-01 2.067672e-01 1.897090e-01 2.198404e-01 1.928839e-01 1.979920e-05
<GCONST> 6.384743e+01
<MIXTURE> 16 5.026350e-02
<MEAN> 39
 -5.392263e+00 -1.450785e+01 -1.368867e+01 -1.798995e+01 -1.955123e-01 -8.922368e+00 -4.883507e+00 -1.576529e+00 1.406588e+00 -1.002103e+01 -9.875154e+00 -3.933291e+00 8.658567e-01 1.735362e-02 7.171866e-02 -9.971321e-02 7.604543e-02 -1.489822e-01 -7.049420e-02 -1.103089e-01 -2.125693e-02 1.178856e-01 -3.674481e-01 5.207762e-02 -1.318420e-01 -1.729390e-03 6.843041e-02 3.034285e-01 2.122640e-01 5.872197e-02 -4.739692e-01 -2.067922e-01 -9.960578e-02 -4.013389e-04 -2.294794e-01 3.130440e-01 7.252874e-03 8.171555e-02 -7.584316e-03
<VARIANCE> 39
 4.296492e+00 1.647014e+01 2.259596e+01 3.790147e+01 4.187763e+01 3.254373e+01 7.213995e+01 2.969189e+01 4.930138e+01 3.275642e+01 3.256684e+01 2.548990e+01 9.035455e-03 2.002888e-01 4.195200e-01 5.360625e-01 4.932738e-01 1.375370e+00 1.304829e+00 1.088195e+00 1.304357e+00 1.239210e+00 1.130167e+00 1.269007e+00 1.327582e+00 1.775944e-04 3.466232e-02 8.975940e-02 8.847982e-02 1.216623e-01 1.427944e-01 1.766022e-01 2.398502e-01 2.358680e-01 2.108175e-01 2.056675e-01 1.731466e-01 1.943845e-01 3.478055e-05
<GCONST> 6.267591e+01
<STATE> 4
<NUMMIXES> 16
<MIXTURE> 1 5.743208e-02
<MEAN> 39
 -1.683180e+00 -1.369874e+01 -8.109715e+00 -1.061328e+01 -1.230929e+01 -4.316102e+00 -1.496710e+01 2.960459e-01 4.070033e+00 -2.549916e+00 2.900827e+00 -1.105920e+01 7.976388e-01 -9.685825e-01 2.600018e+00 1.184957e+00 1.511190e+00 1.681807e+00 -1.374721e+00 4.732347e-01 -6.263080e-02 -1.975441e+00 4.168078e-01 -1.302063e+00 1.696498e+00 -8.062471e-02 -9.340773e-01 8.240950e-01 1.804582e-01 2.464062e-01 7.213085e-01 2.505894e-01 1.001496e+00 -4.140954e-01 -4.486497e-01 9.270551e-02 -4.608701e-01 7.180925e-01 -3.067465e-02
<VARIANCE> 39
 8.549070e+00 2.118745e+01 3.227964e+01 2.988602e+01 4.354965e+01 4.689314e+01 4.520467e+01 6.546362e+01 4.590117e+01 3.578026e+01 3.839651e+01 2.667746e+01 1.032322e-02 1.299300e+00 1.974262e+00 2.079663e+00 2.806379e+00 2.695451e+00 3.988497e+00 4.318717e+00 3.703240e+00 3.513430e+00 3.030039e+00 3.330381e+00 3.264930e+00 1.176469e-03 3.646591e-01 3.042592e-01 3.184177e-01 4.437138e-01 5.709972e-01 7.292982e-01 5.971627e-01 7.499917e-01 6.790239e-01 4.692121e-01 5.196939e-01 3.821965e-01 3.221158e-04
<GCONST> 9.834889e+01
<MIXTURE> 2 5.074657e-02
<MEAN> 39
 -5.314005e-01 -1.205181e+01 -1.382385e+01 -1.985196e+01 -7.994959e+00 4.298238e+00 -9.222025e+00 -3.451914e+00 -2.993276e+00 1.965988e+00 -3.190699e-01 -4.926005e+00 8.610756e-01 3.275649e-01 1.116045e+00 -3.849643e-01 -4.965883e-01 -8.966443e-02 1.748395e-01 6.565886e-01 -5.229560e-01 -6.598466e-01 -5.210523e-01 6.291521e-01 1.121803e+00 -1.120036e-02 -9.247451e-02 4.084741e-01 2.957250e-01 2.605943e-01 1.566591e-02 -4.909264e-01 3.979455e-02 4.967376e-02 -5.141714e-02 -3.144355e-01 -1.864682e-01 1.681428e-01 -1.208851e-02
<VARIANCE> 39
 9.325880e+00 2.382544e+01 3.964998e+01 6.754637e+01 4.875185e+01 5.941002e+01 6.407609e+01 4.351572e+01 5.164610e+01 4.140771e+01 8.888938e+01 3.961695e+01 8.206080e-03 3.965578e-01 1.092689e+00 1.258559e+00 2.859402e+00 1.928968e+00 2.661282e+00 2.935102e+00 2.137785e+00 2.106657e+00 2.466752e+00 2.244162e+00 2.110824e+00 4.372426e-04 7.313378e-02 1.286855e-01 2.202283e-01 2.987486e-01 3.389606e-01 3.486037e-01 3.345515e-01 2.999808e-01 2.922365e-01 3.519315e-01 3.955177e-01 3.317064e-01 4.942529e-05
<GCONST> 8.525230e+01
<MIXTURE> 3 5.312191e-02
<MEAN> 39
 -1.287849e+00 -5.430263e+00 -1.316533e+01 -1.423854e+01 -5.543385e+00 -3.018640e+00 -6.183686e+00 -6.386920e+00 -2.084215e+00 2.675586e+00 -9.216545e-01 -5.504633e+00 6.435484e-01 -3.111763e+00 3.534994e+00 2.282291e+00 3.906293e+00 1.284742e+00 3.960984e-01 7.756558e-01 -1.872675e-01 -1.159743e+00 -1.213471e+00 -2.625571e-03 1.078954e+00 -1.704378e-01 -1.233319e+00 -4.654975e-01 4.952878e-01 5.642568e-01 2.378728e-01 1.278622e-01 3.149306e-01 7.186499e-01 2.648170e-01 -3.320443e-01 -3.064761e-01 1.238676e-01 -2.396427e-02
<VARIANCE> 39
 1.052188e+01 1.374586e+01 2.045507e+01 2.326060e+01 2.664234e+01 4.000503e+01 4.081092e+01 3.716629e+01 3.731341e+01 5.152467e+01 6.236729e+01 3.148526e+01 1.543993e-02 2.154606e+00 2.679886e+00 2.849422e+00 3.796425e+00 3.210814e+00 4.395081e+00 4.836120e+00 4.874453e+00 4.418320e+00 5.240097e+00 5.408962e+00 3.255898e+00 3.326353e-03 2.322332e-01 2.307198e-01 2.514965e-01 3.535428e-01 3.325688e-01 4.472796e-01 5.484639e-01 5.516861e-01 5.917938e-01 6.319424e-01 6.545071e-01 5.802320e-01 3.795368e-04
<GCONST> 1.000560e+02
<MIXTURE> 4 5.042244e-02
<MEAN> 39
 -1.240856e+01 -1.068301e+00 -5.043156e+00 -2.346140e+00 -2.670234e+00 -3.624591e+00 -4.102225e+00 -3.502328e+00 -3.293881e+00 -1.421004e+00 -4.072706e+00 -3.924933e+00 1.095608e-01 -2.431015e+00 8.367128e-01 9.653224e-01 1.868140e+00 9.542893e-01 4.203903e-01 1.294568e+00 9.430037e-02 -7.557318e-01 -9.056438e-01 -1.351310e-01 1.063510e+00 -1.031013e-01 6.247182e-01 -1.154997e+00 -4.432853e-01 -1.333026e+00 -5.272678e-01 -1.669689e-01 -3.560473e-01 3.064697e-01 3.041214e-01 3.212739e-01 1.049045e-01 -1.351827e-01 5.386317e-02
<VARIANCE> 39
 2.639046e+01 2.884280e+01 2.862236e+01 2.711757e+01 2.932571e+01 3.672816e+01 3.900105e+01 5.684417e+01 4.554644e+01 3.463531e+01 2.944604e+01 3.226978e+01 4.153761e-02 4.997470e+00 3.908508e+00 3.617411e+00 5.707851e+00 4.208571e+00 4.469184e+00 3.984014e+00 7.603131e+00 6.064407e+00 4.960574e+00 5.206237e+00 4.093405e+00 9.770667e-03 7.800354e-01 6.930870e-01 5.635807e-01 8.135433e-01 7.908458e-01 9.570057e-01 8.077926e-01 1.566879e+00 1.058727e+00 8.498873e-01 8.335835e-01 7.361661e-01 9.857620e-04
<GCONST> 1.159174e+02
<MIXTURE> 5 4.497886e-02
<MEAN> 39
 -2.025176e+00 -1.593767e+01 -4.436596e+00 -9.824396e+00 -1.409127e+01 4.353029e-01 -1.709168e+01 2.343773e+00 5.042514e+00 -3.966522e+00 -4.291487e+00 -6.846339e+00 7.719744e-01 -2.519242e-01 1.672174e+00 1.393201e+00 2.075329e+00 -5.086077e-01 -1.938502e+00 1.157767e+00 -9.868590e-01 -2.352295e+00 2.036905e-01 -8.304691e-02 7.196331e-01 -5.354484e-02 -1.027491e-01 8.127095e-01 -9.984970e-02 2.223974e-01 3.681096e-01 -2.631422e-01 9.760976e-01 -8.254405e-01 -1.122908e+00 3.322447e-01 3.060663e-01 1.047623e-01 -1.371471e-02
<VARIANCE> 39
 5.138691e+00 1.418241e+01 1.842948e+01 2.495256e+01 4.026210e+01 4.498050e+01 3.363245e+01 5.129399e+01 3.636298e+01 4.788270e+01 3.161489e+01 3.498486e+01 9.711564e-03 3.204475e-01 1.504187e+00 1.363981e+00 1.553049e+00 2.587930e+00 3.030538e+00 2.535372e+00 4.368861e+00 4.261826e+00 3.043530e+00 3.221093e+00 2.459030e+00 4.459808e-04 8.112433e-02 2.198379e-01 2.148740e-01 3.462584e-01 4.408656e-01 5.807015e-01 4.584655e-01 7.269579e-01 6.056110e-01 4.619721e-01 4.194544e-01 3.524699e-01 7.891397e-05
<GCONST> 8.657160e+01
<MIXTURE> 6 1.072137e-01
<MEAN> 39
 -3.946778e+00 -9.274137e+00 -3.817657e+00 -9.740722e+00 -1.098731e+01 -1.289928e+01 -1.168871e+01 1.887301e+00 -1.277504e+00 -2.118318e+00 -5.563126e+00 -1.522033e+00 6.764260e-01 -1.883636e+00 3.323961e+00 1.472029e+00 3.136132e+00 1.469805e+00 1.060004e+00 5.050689e-01 -1.566808e+00 -1.386250e+00 -1.334003e+00 1.892719e-01 2.621831e-01 -1.375650e-01 -8.252591e-01 8.727424e-02 -2.943759e-01 -4.317161e-02 6.518003e-01 1.095675e+00 7.503822e-01 -3.162198e-01 -6.864526e-03 1.149948e-01 1.186948e-01 -3.276131e-01 -1.885805e-02
<VARIANCE> 39
 1.025298e+01 2.352440e+01 4.059920e+01 3.534401e+01 4.422139e+01 3.827908e+01 6.400310e+01 5.139398e+01 6.226433e+01 4.824528e+01 4.330856e+01 3.514664e+01 1.387593e-02 2.602037e+00 2.809611e+00 3.038296e+00 4.349950e+00 3.567382e+00 5.499281e+00 5.919543e+00 4.983974e+00 5.106893e+00 5.123749e+00 4.518544e+00 3.908188e+00 2.814662e-03 3.701631e-01 4.890789e-01 4.252909e-01 6.478819e-01 7.728313e-01 7.117687e-01 8.121079e-01 8.145602e-01 8.296854e-01 7.344558e-01 7.365155e-01 5.420088e-01 4.698076e-04
<GCONST> 1.091310e+02
<MIXTURE> 7 4.934825e-02
<MEAN> 39
 9.802037e-01 -1.106786e+01 -8.607352e+00 -1.755180e+01 -1.113980e+01 1.891283e+00 -1.142451e+01 -6.002167e+00 -2.367158e+00 5.025941e+00 4.480096e+00 -6.510553e+00 7.586244e-01 -1.032480e+00 3.907218e+00 9.499288e-01 2.973737e+00 1.606370e+00 -7.043163e-01 1.502530e+00 -1.784755e+00 -2.197941e+00 -1.433662e+00 1.005897e-01 1.617893e+00 -1.281510e-01 -1.151256e+00 6.418235e-01 3.680517e-01 1.199390e+00 8.051950e-01 -2.481247e-01 5.969093e-01 4.242399e-01 9.703063e-02 -6.858354e-01 -1.061534e+00 -5.013547e-02 -4.087839e-02
<VARIANCE> 39
 7.537826e+00 1.694816e+01 3.249483e+01 3.101687e+01 2.547508e+01 3.197274e+01 4.551899e+01 3.930565e+01 4.273251e+01 3.041695e+01 4.058045e+01 3.179620e+01 1.075563e-02 1.505348e+00 2.173666e+00 1.914337e+00 3.782199e+00 3.059074e+00 3.146080e+00 3.186774e+00 3.668870e+00 3.933358e+00 3.786059e+00 3.399857e+00 2.860734e+00 2.078541e-03 2.974390e-01 2.873732e-01 3.617619e-01 3.984580e-01 3.604607e-01 3.985506e-01 4.760480e-01 5.587998e-01 5.739561e-01 4.062648e-01 5.189267e-01 5.721849e-01 3.928064e-04
<GCONST> 9.594972e+01
<MIXTURE> 8 1.046755e-01
<MEAN> 39
 -4.982860e+00 -1.209200e+01 -8.379972e+00 -1.801138e+01 -8.294614e+00 -1.565125e+01 -4.566156e+00 5.478628e-01 -1.241976e+00 -4.779737e+00 -1.290022e+01 1.106308e+00 7.903599e-01 -3.079061e-01 2.513234e+00 8.710064e-01 1.940015e+00 -5.386452e-01 -1.835176e-01 -1.167470e+00 -1.319636e+00 -3.575575e-01 5.700471e-02 1.069387e+00 -7.763041e-02 -6.455117e-02 -5.837224e-01 7.133042e-01 1.885040e-01 9.236699e-01 3.795757e-01 8.874874e-01 -1.283962e-01 -3.557994e-01 -3.470485e-01 4.990553e-02 5.223435e-01 -4.041233e-01 -2.816898e-02
<VARIANCE> 39
 7.282306e+00 2.122196e+01 3.899273e+01 2.427217e+01 3.957373e+01 3.988285e+01 4.452360e+01 2.846833e+01 4.824998e+01 4.963268e+01 2.830952e+01 2.409453e+01 9.872830e-03 1.088230e+00 1.802596e+00 2.166705e+00 2.383239e+00 2.383213e+00 3.051355e+00 3.175383e+00 2.992414e+00 3.340177e+00 3.389661e+00 2.209078e+00 2.472322e+00 1.005308e-03 3.221011e-01 3.085994e-01 3.408184e-01 3.586564e-01 4.587478e-01 5.138215e-01 5.161932e-01 5.061740e-01 5.667250e-01 5.883144e-01 5.017741e-01 3.734409e-01 3.213504e-04
<GCONST> 9.352697e+01
<MIXTURE> 9 6.470881e-02
<MEAN> 39
 -4.839931e+00 -1.364347e+01 -9.473561e+00 -1.732944e+01 -4.859695e+00 -8.870728e+00 -1.198102e+01 5.138146e+00 -9.410029e+00 -6.761072e+00 -1.123344e+01 -2.263016e+00 7.628433e-01 1.391740e-01 2.023789e+00 1.177688e+00 9.997343e-01 -1.448931e+00 -1.248731e+00 7.173607e-01 -1.979823e+00 -9.319775e-01 1.122575e+00 -3.170467e-01 1.647609e-02 -4.758588e-02 -5.483584e-02 5.686095e-01 2.376791e-01 5.065464e-01 -4.265231e-01 3.744322e-02 4.454952e-01 -1.347781e+00 1.213869e-01 3.097597e-01 -7.185481e-02 1.093419e-02 -1.027679e-02
<VARIANCE> 39
 7.397865e+00 1.396470e+01 2.832403e+01 2.775570e+01 5.881384e+01 4.864609e+01 5.125696e+01 3.833690e+01 4.020969e+01 6.823737e+01 3.260094e+01 3.782182e+01 1.129673e-02 5.387263e-01 1.251850e+00 1.881739e+00 2.228764e+00 2.479881e+00 3.361253e+00 3.855705e+00 5.082372e+00 2.782860e+00 3.477732e+00 3.086127e+00 2.739084e+00 3.926228e-04 1.076950e-01 1.818465e-01 3.451470e-01 3.027602e-01 4.941177e-01 8.217090e-01 5.757774e-01 6.818892e-01 4.119448e-01 6.627676e-01 4.701901e-01 4.579713e-01 4.741442e-05
<GCONST> 9.095445e+01
<MIXTURE> 10 5.405017e-02
<MEAN> 39
 -2.107967e+00 -1.065461e+01 -1.091808e+01 -8.003709e+00 -1.189526e+01 -7.083427e+00 -7.364557e+00 -7.006277e+00 6.266760e+00 1.882650e+00 -1.683934e+00 -7.245177e+00 7.585064e-01 -4.991810e-01 1.556004e+00 1.133886e+00 1.435118e+00 7.488802e-01 -8.211339e-01 1.761837e-02 -2.853224e-01 -1.403788e+00 -4.765435e-01 -6.591613e-01 1.156237e+00 -5.953337e-02 -3.787397e-01 3.693674e-01 3.824892e-01 -1.400182e-01 4.750937e-01 4.123235e-01 2.716411e-02 2.681768e-01 -5.814423e-01 -3.096840e-01 6.755801e-03 2.932312e-01 -1.555410e-02
<VARIANCE> 39
 1.053786e+01 2.917425e+01 3.393188e+01 3.409054e+01 2.549219e+01 4.905309e+01 5.375988e+01 5.095081e+01 3.733423e+01 3.973502e+01 4.277169e+01 3.140757e+01 1.662613e-02 6.938608e-01 1.538775e+00 2.448118e+00 2.418344e+00 3.024294e+00 3.979115e+00 4.007214e+00 4.909296e+00 2.723335e+00 3.184328e+00 2.671858e+00 2.629193e+00 6.352562e-04 1.866266e-01 2.871988e-01 2.608652e-01 3.676810e-01 2.600330e-01 4.256671e-01 4.748903e-01 5.631065e-01 3.997700e-01 4.292696e-01 3.505044e-01 3.415294e-01 1.545183e-04
<GCONST> 9.252177e+01
<MIXTURE> 11 6.214083e-02
<MEAN> 39
 -3.174156e+00 -9.045644e+00 -6.387998e+00 -1.477670e+01 -4.456515e+00 -6.194189e+00 -1.187325e+01 -3.112949e-01 7.272537e-01 5.814758e+00 -6.678816e+00 -5.547189e+00 7.396367e-01 -3.077251e+00 3.565473e+00 3.806691e-01 1.727164e+00 1.838376e+00 -1.001646e+00 2.235505e+00 -6.013678e-01 -9.982459e-02 -1.105832e+00 -2.756371e-01 1.254862e+00 -6.806620e-02 -1.510749e+00 3.359997e-01 -2.965599e-02 2.838840e-01 1.000109e-01 3.804651e-01 6.444820e-01 1.683238e-01 -1.214485e-01 -5.220995e-01 6.102466e-01 2.432051e-01 -5.474697e-03
<VARIANCE> 39
 7.141680e+00 2.034837e+01 3.075866e+01 2.210898e+01 2.154736e+01 4.870314e+01 4.910720e+01 3.399955e+01 2.905844e+01 3.306230e+01 3.500242e+01 2.289046e+01 1.084704e-02 2.653331e+00 2.469887e+00 2.497795e+00 2.364482e+00 2.999308e+00 4.114330e+00 3.791578e+00 4.495853e+00 2.672125e+00 2.590899e+00 3.121060e+00 2.494523e+00 5.334099e-04 2.320435e-01 3.813112e-01 2.720403e-01 3.158537e-01 3.165677e-01 4.635685e-01 4.812897e-01 4.939058e-01 4.699850e-01 3.624090e-01 5.014038e-01 3.095356e-01 1.272236e-04
<GCONST> 9.120271e+01
<MIXTURE> 12 6.163485e-02
<MEAN> 39
 -1.470401e+00 -1.315340e+01 -8.959888e+00 -1.976413e+01 -3.797404e+00 -8.257886e+00 -1.020663e+01 -9.037406e-01 -2.095755e+00 7.710121e+00 -8.764856e+00 -6.546811e+00 7.779219e-01 -5.393459e-01 3.416880e+00 4.256383e-01 2.891439e+00 -9.990602e-02 5.015859e-01 -3.187688e-01 -2.417714e+00 -8.107064e-01 -5.245177e-01 1.771289e+00 -1.042167e-01 -1.000998e-01 -9.985319e-01 7.744219e-01 3.758033e-01 1.198419e+00 4.728480e-02 3.916429e-01 4.831353e-01 -7.384019e-02 -2.522573e-01 -1.160337e+00 1.824007e-01 3.394011e-01 -3.792223e-02
<VARIANCE> 39
 6.637969e+00 2.138637e+01 3.878224e+01 3.162169e+01 2.609048e+01 5.445926e+01 3.073461e+01 3.021409e+01 3.885263e+01 4.858753e+01 3.573459e+01 2.370486e+01 1.043722e-02 1.284699e+00 1.558755e+00 2.640013e+00 3.552971e+00 2.165148e+00 3.225412e+00 4.102324e+00 3.265043e+00 4.318766e+00 4.079156e+00 3.236778e+00 2.892913e+00 1.894307e-03 2.897921e-01 3.465228e-01 3.927604e-01 4.413804e-01 3.821354e-01 5.728440e-01 3.996134e-01 5.906776e-01 5.724481e-01 5.540030e-01 4.272546e-01 4.096030e-01 3.265339e-04
<GCONST> 9.593600e+01
<MIXTURE> 13 5.256442e-02
<MEAN> 39
 -4.187454e+00 -1.637055e+00 -5.825321e+00 -6.070773e+00 -3.581986e+00 -3.925517e+00 -1.122303e+01 -7.439583e+00 -4.329107e+00 1.060713e+00 -2.407659e+00 -6.836444e+00 4.154282e-01 -2.760547e+00 3.175367e+00 1.481694e+00 4.035611e+00 1.491340e+00 4.737696e-01 1.905514e+00 -1.025711e+00 -1.356048e+00 -2.029210e+00 -1.018884e+00 6.885766e-01 -1.661348e-01 -5.351471e-01 -9.914309e-01 -1.926434e-01 -7.461390e-01 -2.716398e-01 -1.985864e-03 4.278792e-01 8.817371e-01 5.318093e-01 6.482101e-02 -1.027238e-01 2.037149e-01 1.748004e-02
<VARIANCE> 39
 6.714620e+00 1.961963e+01 2.075137e+01 2.539651e+01 2.311258e+01 2.980337e+01 3.401367e+01 3.959808e+01 4.373059e+01 3.776533e+01 3.909120e+01 2.144344e+01 2.175049e-02 2.652866e+00 3.033753e+00 2.723119e+00 3.770515e+00 3.938276e+00 3.371622e+00 4.590243e+00 5.167317e+00 5.108562e+00 4.451989e+00 4.545325e+00 3.439879e+00 3.883078e-03 2.536895e-01 4.181201e-01 3.253598e-01 3.954701e-01 4.243077e-01 4.970756e-01 7.667768e-01 6.688114e-01 8.193058e-01 5.843646e-01 5.923132e-01 4.676628e-01 3.509301e-04
<GCONST> 1.008745e+02
<MIXTURE> 14 8.327726e-02
<MEAN> 39
 -2.980289e+00 -8.491344e+00 -1.339806e+01 -1.381248e+01 -4.036649e+00 -5.983244e+00 -5.780848e+00 -4.038322e+00 1.950850e+00 5.696513e-01 -5.852259e+00 -5.772402e+00 7.117568e-01 -5.997210e-02 1.251985e+00 6.746390e-01 8.207626e-01 -1.548205e-01 -1.433401e-01 -1.361722e-01 -7.018712e-01 -7.313434e-01 1.286860e-01 2.681533e-01 4.690757e-01 -4.097742e-02 -2.144190e-01 6.018723e-02 4.964924e-01 3.717565e-01 -1.069022e-01 1.170252e-01 -5.898016e-02 4.831883e-02 -4.019119e-01 -4.614687e-02 9.397177e-02 1.149119e-01 -1.183023e-02
<VARIANCE> 39
 1.034777e+01 1.990107e+01 3.189458e+01 3.691481e+01 2.944481e+01 4.779257e+01 5.871236e+01 3.772980e+01 4.765708e+01 6.209401e+01 4.027708e+01 3.715358e+01 1.960895e-02 4.874654e-01 9.837586e-01 1.204750e+00 1.866043e+00 1.911698e+00 1.603374e+00 2.566824e+00 2.000440e+00 2.199307e+00 1.683797e+00 1.550653e+00 1.550816e+00 5.138406e-04 2.375156e-01 2.217497e-01 2.761773e-01 3.271739e-01 2.348907e-01 2.754284e-01 3.818257e-01 3.311926e-01 3.928960e-01 3.315361e-01 2.967285e-01 3.219410e-01 1.550466e-04
<GCONST> 8.453245e+01
<MIXTURE> 15 4.706446e-02
<MEAN> 39
 1.572511e-01 -1.045042e+01 -1.024212e+01 -1.831136e+01 -9.418494e+00 4.403025e+00 -9.420376e+00 -8.364952e+00 5.910342e-02 -1.408240e+00 2.360826e+00 -1.985577e+00 8.038386e-01 -4.524384e-01 1.907880e+00 1.407238e+00 1.794364e+00 1.057659e-01 -1.417277e+00 7.251563e-01 -6.411265e-01 -3.135658e+00 -6.278259e-01 6.622778e-01 3.317803e-01 -6.726769e-02 -4.385691e-01 2.229146e-01 5.264836e-01 8.302094e-01 2.469183e-01 -5.910913e-01 1.192663e-02 2.820627e-01 -5.532534e-01 1.111529e-01 -5.351096e-01 -4.427496e-01 -1.517478e-02
<VARIANCE> 39
 5.742834e+00 2.500298e+01 1.783871e+01 3.882860e+01 3.337869e+01 5.309386e+01 5.231111e+01 4.392189e+01 5.707611e+01 3.347621e+01 3.575380e+01 3.168277e+01 6.800422e-03 4.771250e-01 1.200773e+00 1.903426e+00 2.915913e+00 2.714600e+00 3.674181e+00 3.735086e+00 3.700516e+00 3.683759e+00 3.075785e+00 3.879580e+00 3.236100e+00 5.838192e-04 7.381717e-02 1.543373e-01 2.736468e-01 3.117517e-01 3.596463e-01 4.652856e-01 3.809126e-01 4.101101e-01 5.271560e-01 3.796216e-01 4.299624e-01 3.856111e-01 8.491801e-05
<GCONST> 8.823574e+01
<MIXTURE> 16 5.661264e-02
<MEAN> 39
 -1.390069e+00 -1.042305e+01 -1.136544e+01 -1.307589e+01 -4.608407e+00 -6.363315e-01 -1.501422e+01 1.638475e+00 -1.388865e+00 -2.805326e+00 4.043260e-01 -9.759915e+00 7.383067e-01 -3.290506e-01 1.502572e+00 1.251553e+00 1.929221e+00 -9.177603e-01 -1.402659e+00 1.548595e+00 -1.770106e+00 -2.329644e+00 1.135799e+00 -1.502538e-01 -1.597739e-01 -5.323459e-02 -2.186274e-01 2.769835e-01 5.485445e-01 4.959650e-01 -4.981936e-01 -1.487152e-01 8.759081e-01 -8.970799e-01 -5.591820e-01 3.411335e-01 -5.297541e-01 4.249154e-01 -1.055839e-02
<VARIANCE> 39
 7.774074e+00 1.875415e+01 2.409947e+01 2.961734e+01 2.022377e+01 3.848471e+01 4.519705e+01 3.351725e+01 4.165171e+01 3.744866e+01 5.559232e+01 2.662576e+01 1.043057e-02 5.059466e-01 8.297537e-01 1.798911e+00 2.371412e+00 2.231828e+00 2.766471e+00 2.514309e+00 3.655629e+00 2.870172e+00 2.513551e+00 2.749306e+00 1.993573e+00 3.783228e-04 7.073916e-02 1.534103e-01 2.224123e-01 3.228879e-01 2.706244e-01 4.936455e-01 4.361131e-01 4.476340e-01 5.028536e-01 4.511572e-01 3.973051e-01 3.076822e-01 4.145543e-05
<GCONST> 8.323867e+01
<TRANSP> 5
 0.000000e+00 1.000000e+00 0.000000e+00 0.000000e+00 0.000000e+00
 0.000000e+00 5.889913e-01 4.110087e-01 0.000000e+00 0.000000e+00
 0.000000e+00 0.000000e+00 6.861638e-01 3.138362e-01 0.000000e+00
 0.000000e+00 0.000000e+00 0.000000e+00 5.492316e-01 4.507684e-01
 0.000000e+00 0.000000e+00 0.000000e+00 0.000000e+00 0.000000e+00
<ENDHMM>
