~o
<STREAMINFO> 1 39
<VECSIZE> 39<NULLD><MFCC_E_D_A><DIAGC>
~h "ao"
<BEGINHMM>
<NUMSTATES> 5
<STATE> 2
<NUMMIXES> 16
<MIXTURE> 1 5.102806e-02
<MEAN> 39
 5.852128e-01 -1.277265e+01 -1.113009e+01 -1.448925e+01 -1.145102e+01 1.823406e+00 -1.488404e+01 -2.716578e+00 -2.857986e+00 1.712321e+00 6.668819e+00 -5.725142e+00 8.067036e-01 7.614479e-01 3.720563e-01 -1.595552e+00 -2.173086e+00 -3.602405e-01 2.441547e+00 2.057316e+00 -7.841197e-02 -1.681456e+00 -7.642506e-01 1.608717e+00 8.607808e-01 2.251124e-02 -6.194559e-01 5.325521e-01 4.459229e-01 2.585710e-01 4.920228e-02 -5.778418e-01 9.958218e-01 2.125724e-01 -1.242977e-01 -5.586752e-01 -7.225454e-01 4.940283e-01 -1.236373e-02
<VARIANCE> 39
 7.680923e+00 1.578944e+01 2.208625e+01 3.459096e+01 3.362576e+01 5.847978e+01 4.498993e+01 5.148637e+01 5.484594e+01 4.738541e+01 4.290651e+01 4.237319e+01 1.065221e-02 4.620104e-01 1.099334e+00 1.410919e+00 2.718265e+00 2.284840e+00 2.628441e+00 2.701392e+00 4.234387e+00 2.879380e+00 2.433547e+00 2.449408e+00 2.185768e+00 2.579891e-04 2.900318e-01 2.128730e-01 2.053073e-01 3.780083e-01 5.452045e-01 4.672459e-01 5.012408e-01 6.195236e-01 6.427397e-01 5.740573e-01 5.649564e-01 5.183244e-01 8.255594e-05
<GCONST> 9.002544e+01
<MIXTURE> 2 6.305186e-02
<MEAN> 39
 -2.843511e-01 -4.286882e+00 -1.452138e+01 -1.509379e+01 -8.743855e+00 6.066457e-01 -4.729317e-01 -2.363918e+00 -5.618571e+00 -3.492917e+00 1.873191e+00 -2.934639e-01 6.295832e-01 2.667874e+00 -3.214296e-01 -8.364899e-01 -1.845318e+00 -1.710001e+00 3.730777e-01 3.250794e-01 4.462436e-01 -4.415191e-01 -1.790159e+00 1.093770e+00 4.813126e-01 9.187917e-02 -5.619613e-01 -5.188817e-01 1.674940e-01 1.877431e-02 1.838553e-01 -1.121241e-01 -5.413685e-01 1.483678e-01 3.531353e-01 1.425160e-01 -7.441276e-02 -1.396815e-01 -3.088822e-03
<VARIANCE> 39
 1.259484e+01 2.528346e+01 2.072047e+01 3.027254e+01 4.160191e+01 4.772517e+01 4.552028e+01 4.775633e+01 3.577644e+01 4.539423e+01 3.018539e+01 3.148317e+01 2.366907e-02 2.465745e+00 2.529343e+00 2.752766e+00 2.853499e+00 5.877974e+00 4.269642e+00 5.311522e+00 4.687776e+00 4.790988e+00 4.672416e+00 3.518289e+00 3.208967e+00 1.896219e-03 3.892526e-01 2.814357e-01 3.646094e-01 3.768571e-01 5.477496e-01 5.615636e-01 5.447909e-01 5.540988e-01 4.057941e-01 5.377344e-01 3.893396e-01 3.167418e-01 2.470178e-04
<GCONST> 1.007651e+02
<MIXTURE> 3 5.091986e-02
<MEAN> 39
 -2.052765e+00 -1.353401e+01 -9.055766e+00 -1.321100e+01 -9.501979e+00 -7.071701e+00 -1.398803e+01 1.173694e+00 1.414877e+00 4.214754e+00 -2.875737e+00 -7.644190e+00 7.797501e-01 7.558386e-01 2.499692e-01 -2.499708e+00 -2.086633e+00 1.549445e+00 3.530503e+00 8.346475e-01 -2.062072e+00 -5.496066e-01 1.743447e+00 1.046456e+00 -9.934939e-01 1.472748e-02 -1.495364e-01 3.515816e-01 4.314463e-01 -2.149442e-01 -4.226643e-01 3.508521e-01 9.150630e-01 -3.126388e-01 -9.890298e-01 -6.634901e-01 4.640692e-01 7.126127e-01 -3.387425e-03
<VARIANCE> 39
 8.449456e+00 2.842159e+01 3.570178e+01 3.248997e+01 3.267586e+01 5.077697e+01 4.800230e+01 5.616498e+01 5.137156e+01 5.290918e+01 5.548841e+01 3.951349e+01 1.545325e-02 4.184569e-01 1.146190e+00 1.579836e+00 1.781943e+00 1.869767e+00 3.007532e+00 3.290090e+00 2.664144e+00 3.064245e+00 2.738847e+00 3.074063e+00 3.133749e+00 4.706683e-04 1.508326e-01 2.136493e-01 3.114403e-01 2.747551e-01 4.391386e-01 5.813981e-01 5.194312e-01 7.051055e-01 5.879619e-01 6.211207e-01 4.412433e-01 4.208033e-01 9.897105e-05
<GCONST> 9.171313e+01
<MIXTURE> 4 5.266681e-02
<MEAN> 39
 -1.442002e+00 -1.071551e+01 -8.828018e+00 -1.360239e+01 -9.856921e+00 -2.806105e+00 -1.482447e+01 -4.068819e+00 4.494349e-01 2.847569e+00 2.431759e+00 -5.918564e+00 7.499344e-01 3.396642e+00 -1.464967e+00 -1.837754e+00 -2.649778e+00 -1.352647e+00 2.213251e+00 -6.859636e-01 -6.259309e-01 -5.926941e-01 4.244077e-01 1.956948e+00 -4.394954e-01 6.670716e-02 -1.277354e+00 3.160085e-01 6.788364e-02 -6.366907e-02 3.299750e-01 2.765451e-01 1.418969e+00 4.103251e-01 -4.016258e-01 -5.035008e-01 -1.705234e-01 5.659605e-01 -1.388289e-02
<VARIANCE> 39
 1.084076e+01 2.092734e+01 2.502817e+01 5.387864e+01 3.197071e+01 5.098578e+01 4.541426e+01 3.802868e+01 3.667557e+01 3.224699e+01 2.911308e+01 2.735208e+01 1.345079e-02 3.306137e+00 3.146570e+00 2.289961e+00 3.360550e+00 3.294369e+00 3.915788e+00 5.665627e+00 5.168781e+00 5.643229e+00 4.196470e+00 3.969789e+00 4.038744e+00 1.047180e-03 4.433430e-01 4.418856e-01 3.508125e-01 6.198913e-01 6.748084e-01 7.180272e-01 6.174806e-01 6.776180e-01 5.100381e-01 4.224295e-01 5.853397e-01 3.781086e-01 2.616486e-04
<GCONST> 1.019570e+02
<MIXTURE> 5 6.666224e-02
<MEAN> 39
 -1.857136e+00 -1.054035e+01 -1.732128e+01 -2.322987e+01 -2.552501e+00 -3.575782e-01 1.432478e+00 -9.387427e+00 1.343457e-02 -1.057193e+00 -2.336495e+00 -4.782475e+00 8.626828e-01 2.747926e-01 -7.669961e-01 -4.289335e-01 -1.195827e+00 6.718801e-01 7.620672e-01 1.043959e+00 -2.273863e-01 9.168339e-02 -1.229633e-01 6.276304e-02 1.355514e-01 3.731155e-02 -6.365584e-01 3.245754e-01 4.649523e-01 7.598330e-01 8.680402e-02 1.433840e-02 -2.412368e-01 4.921765e-01 -1.828801e-01 -2.809436e-02 -6.742901e-02 2.477591e-01 -2.455684e-02
<VARIANCE> 39
 7.752231e+00 2.894965e+01 2.122236e+01 5.230679e+01 3.846326e+01 5.203562e+01 7.134660e+01 3.138926e+01 4.945495e+01 4.363184e+01 4.526264e+01 3.236864e+01 8.774646e-03 5.833150e-01 1.254242e+00 1.231766e+00 2.025233e+00 1.637629e+00 1.773945e+00 2.845537e+00 1.799009e+00 1.925405e+00 2.296988e+00 1.796073e+00 1.887304e+00 5.440281e-04 2.689583e-01 2.637171e-01 2.422933e-01 4.824913e-01 3.704393e-01 3.342850e-01 4.674351e-01 3.863994e-01 4.854727e-01 3.961139e-01 2.997766e-01 3.198586e-01 2.829393e-04
<GCONST> 8.738501e+01
<MIXTURE> 6 7.223268e-02
<MEAN> 39
 1.622363e+00 -1.313023e+01 -1.238817e+01 -2.281027e+01 -1.316617e+01 1.144518e+01 -3.046896e+00 -3.967273e+00 -1.133091e+00 -2.884678e+00 3.293642e+00 -4.099108e+00 8.691263e-01 1.552637e-01 -7.549279e-01 -4.530143e-02 -7.467997e-01 -3.153583e-01 1.275111e+00 2.628396e-01 -1.368121e-01 5.697863e-01 -6.540248e-01 4.131012e-02 2.042864e-02 2.848173e-02 -3.930937e-01 4.705082e-01 3.877031e-02 4.319060e-01 5.096982e-01 -5.752281e-01 -2.307798e-02 6.603101e-02 -1.396862e-01 1.628913e-01 -2.936407e-01 6.073964e-02 -1.578925e-02
<VARIANCE> 39
 5.699018e+00 2.589689e+01 2.345396e+01 4.539225e+01 4.615129e+01 3.366044e+01 3.755152e+01 2.755654e+01 2.956625e+01 3.944939e+01 4.289630e+01 3.501180e+01 7.943793e-03 3.744037e-01 9.467149e-01 7.535161e-01 1.357305e+00 1.697620e+00 1.544405e+00 1.721733e+00 1.187745e+00 1.229893e+00 1.610795e+00 1.515193e+00 1.270452e+00 5.218422e-04 1.442367e-01 1.435600e-01 1.759728e-01 2.069011e-01 3.080308e-01 2.208675e-01 2.185302e-01 2.315608e-01 2.485112e-01 2.401363e-01 2.546506e-01 2.185297e-01 1.145942e-04
<GCONST> 7.427460e+01
<MIXTURE> 7 6.331234e-02
<MEAN> 39
 2.928711e+00 -4.047025e+00 -1.162403e+01 -2.283559e+01 -1.845796e+01 1.453552e+00 -3.070914e+00 -1.717376e-01 -9.566144e+00 -3.501646e+00 9.704194e-01 -1.146806e+00 7.914009e-01 1.029386e+00 -9.413925e-01 -4.624426e-01 -1.328962e+00 -1.446618e+00 4.403139e-01 -3.004727e-01 8.943708e-01 -5.298525e-01 -1.762670e-01 9.681223e-01 1.350289e-01 4.979449e-02 -1.264765e+00 -4.430526e-01 -1.745684e-01 1.288106e+00 1.407700e+00 -2.530267e-01 -6.477376e-02 -4.569379e-02 5.901684e-01 2.675317e-01 -4.315793e-02 1.137075e-01 -3.055807e-02
<VARIANCE> 39
 5.521795e+00 2.455539e+01 3.716777e+01 4.124911e+01 4.377129e+01 3.900949e+01 3.817812e+01 5.094796e+01 5.646649e+01 5.909143e+01 5.465583e+01 3.191946e+01 1.083246e-02 1.047466e+00 1.449572e+00 1.892194e+00 2.923882e+00 3.948724e+00 2.138524e+00 3.088713e+00 3.193398e+00 2.922575e+00 3.839392e+00 2.734196e+00 1.930471e+00 4.806285e-04 2.213455e-01 3.172265e-01 4.230698e-01 4.870895e-01 4.026459e-01 5.275887e-01 4.325832e-01 4.948987e-01 6.730366e-01 5.800664e-01 6.014212e-01 4.642864e-01 9.386497e-05
<GCONST> 9.416499e+01
<MIXTURE> 8 5.653575e-02
<MEAN> 39
 -1.241772e+01 -5.337773e+00 -1.227562e+01 -1.187386e+01 -4.259344e+00 1.552079e+00 -7.553606e-01 -1.972152e+00 3.783608e-01 1.942680e+00 -1.925865e+00 -3.234369e+00 2.621172e-01 1.445420e+00 -2.128704e-01 -9.027360e-01 -1.401316e+00 6.720945e-01 1.555075e+00 7.103608e-01 -7.669871e-01 -1.073334e+00 -6.814519e-01 2.420428e-02 2.544933e-01 5.287380e-02 7.362119e-01 -3.421353e-01 -2.473504e-02 -5.249622e-01 -3.375673e-01 -2.444458e-01 -4.821460e-01 -5.537136e-02 -2.807639e-01 -3.111174e-01 2.926889e-02 8.152113e-02 3.696535e-02
<VARIANCE> 39
 4.593453e+01 3.107536e+01 4.136980e+01 6.573883e+01 5.036848e+01 4.404414e+01 7.124020e+01 5.596406e+01 5.415974e+01 4.841536e+01 5.943011e+01 3.382743e+01 7.511429e-02 8.473495e+00 4.726018e+00 4.954886e+00 9.992975e+00 5.301387e+00 5.938184e+00 9.627495e+00 6.798553e+00 4.987893e+00 5.143055e+00 5.507082e+00 3.470257e+00 1.441337e-02 1.232193e+00 7.515466e-01 1.130677e+00 1.763445e+00 9.797220e-01 9.925905e-01 1.454906e+00 1.412941e+00 1.070617e+00 1.034578e+00 1.306825e+00 7.205573e-01 1.640800e-03
<GCONST> 1.278473e+02
<MIXTURE> 9 7.839076e-02
<MEAN> 39
 -3.240321e+00 -1.547637e+01 -1.571163e+01 -1.851128e+01 -2.032236e+00 -1.721459e+00 -6.391720e+00 -1.089741e+00 -2.787129e+00 -1.210766e+00 -9.401333e+00 -5.620814e+00 8.742138e-01 2.143248e-01 -3.129210e-01 -8.930643e-01 -3.614843e-01 1.739962e+00 1.786715e+00 3.256474e-02 -1.249569e+00 -5.962923e-02 9.683002e-02 7.196156e-01 -4.081001e-01 1.223221e-02 -3.608500e-02 3.210064e-01 3.361817e-01 1.507025e-01 -3.619120e-01 -3.340921e-01 -1.788210e-02 -1.048010e-01 -1.229245e-01 -7.157968e-02 3.205593e-01 1.613338e-01 -6.489079e-03
<VARIANCE> 39
 7.551702e+00 2.526163e+01 2.589898e+01 4.310754e+01 4.467125e+01 5.694655e+01 4.709251e+01 6.211867e+01 5.397267e+01 6.263070e+01 3.970377e+01 3.654051e+01 7.606467e-03 3.929524e-01 1.008161e+00 1.292851e+00 2.056092e+00 2.294509e+00 1.972765e+00 2.664892e+00 3.245545e+00 2.616069e+00 2.715256e+00 2.248560e+00 1.999828e+00 2.466059e-04 7.090081e-02 1.750788e-01 1.554001e-01 2.773249e-01 3.720577e-01 3.747983e-01 3.801541e-01 6.853004e-01 3.533480e-01 4.213998e-01 3.006703e-01 3.291705e-01 4.419667e-05
<GCONST> 8.407819e+01
<MIXTURE> 10 5.959612e-02
<MEAN> 39
 -2.078672e+00 -1.392839e+01 -1.102471e+01 -2.439872e+01 -4.799169e+00 8.286694e-01 -9.093309e+00 5.360343e-01 -5.570514e+00 6.453329e+00 -6.542455e+00 -6.140625e+00 8.449494e-01 5.719875e-01 -1.454856e+00 -4.369467e-01 -1.555992e+00 6.170329e-01 2.412620e+00 5.914426e-01 5.729831e-01 -7.455714e-01 2.558862e-01 1.563212e-01 -1.811821e-01 3.874763e-02 -7.784999e-01 6.549810e-01 4.808806e-02 9.857704e-01 1.961291e-01 -5.167327e-02 4.651667e-01 -2.941671e-01 2.046811e-01 -7.383365e-01 3.956061e-01 3.739135e-01 -2.050656e-02
<VARIANCE> 39
 7.919552e+00 3.777850e+01 3.964037e+01 3.608862e+01 3.795197e+01 7.819546e+01 5.769705e+01 2.860707e+01 5.129299e+01 4.155046e+01 4.804892e+01 2.944617e+01 9.638348e-03 7.853244e-01 1.843540e+00 1.839612e+00 3.385347e+00 3.155209e+00 3.189414e+00 3.141346e+00 2.864103e+00 2.604339e+00 2.835404e+00 2.745158e+00 2.122187e+00 4.780878e-04 3.945496e-01 4.003875e-01 3.591280e-01 4.142714e-01 5.064583e-01 6.432685e-01 7.964054e-01 5.603989e-01 5.347323e-01 4.656093e-01 5.956929e-01 4.021572e-01 2.011109e-04
<GCONST> 9.613661e+01
<MIXTURE> 11 7.730489e-02
<MEAN> 39
 1.719150e+00 -3.803348e+00 -1.202384e+01 -1.972033e+01 -2.115295e+01 3.659215e+00 7.612913e-01 -6.423977e+00 -7.799587e-01 -6.999652e+00 3.552486e+00 -2.449118e+00 7.931547e-01 1.211483e-01 2.146445e-01 -2.927314e-01 -6.170025e-01 -5.201733e-01 -1.327000e-02 1.333713e+00 -1.533429e-02 6.762704e-01 -6.335670e-01 -3.497964e-01 1.277889e-01 1.688460e-02 -2.432147e-01 -1.644542e-01 -3.511506e-02 5.723595e-01 8.611634e-01 -4.282323e-01 -3.979635e-01 1.975616e-01 -2.254405e-01 2.714952e-01 -8.644404e-02 6.205203e-02 -8.790771e-03
<VARIANCE> 39
 6.430095e+00 3.419320e+01 3.257692e+01 4.196799e+01 4.472479e+01 5.617678e+01 4.252187e+01 6.428997e+01 5.590268e+01 4.380693e+01 4.300738e+01 4.256458e+01 1.236184e-02 3.778196e-01 1.367823e+00 1.275315e+00 2.266932e+00 2.745490e+00 2.292275e+00 2.466765e+00 3.064593e+00 2.346192e+00 2.643739e+00 2.697767e+00 1.804095e+00 3.987374e-04 1.493845e-01 1.773296e-01 2.283852e-01 3.593408e-01 3.803548e-01 5.443316e-01 4.692578e-01 5.576285e-01 5.679361e-01 4.169150e-01 3.940729e-01 4.090380e-01 1.181238e-04
<GCONST> 8.944368e+01
<MIXTURE> 12 8.548059e-02
<MEAN> 39
 1.037545e+00 -1.036814e+01 -1.298299e+01 -1.913820e+01 -1.007079e+01 2.345363e+00 -7.936388e+00 -3.440984e+00 -7.923910e+00 2.974096e+00 4.153751e+00 -2.723437e+00 8.037665e-01 4.131207e-01 7.733367e-01 -6.396800e-01 -1.614530e+00 -5.443893e-01 1.385702e+00 2.137475e+00 1.673502e-01 -1.234611e+00 -1.190391e+00 2.817916e-01 1.157323e+00 9.163758e-03 -1.235853e-01 -7.333662e-02 3.306263e-01 4.829328e-01 -1.168061e-01 -7.175863e-01 -2.745695e-01 4.237179e-01 5.218213e-01 -3.254337e-01 -5.116985e-01 -7.637527e-02 -2.358740e-03
<VARIANCE> 39
 9.363073e+00 2.316484e+01 2.981768e+01 4.591816e+01 4.383277e+01 5.917549e+01 4.249799e+01 5.293999e+01 5.466444e+01 5.130246e+01 5.448767e+01 3.744440e+01 1.047300e-02 3.132992e-01 8.354080e-01 9.078878e-01 1.455716e+00 1.786305e+00 2.472823e+00 2.326278e+00 2.894887e+00 2.131431e+00 1.984626e+00 2.370204e+00 1.977606e+00 1.899174e-04 4.948833e-02 1.236999e-01 1.605089e-01 2.282501e-01 2.502499e-01 3.225743e-01 3.008898e-01 3.424522e-01 2.859970e-01 4.261740e-01 3.609362e-01 3.189521e-01 2.642076e-05
<GCONST> 7.960843e+01
<MIXTURE> 13 3.998006e-02
<MEAN> 39
 -4.290692e+00 -1.151785e+01 -1.323095e+01 -1.640614e+01 -8.722116e+00 -1.047236e+01 -9.914495e+00 -1.460621e+00 -1.965004e+00 -2.234005e+00 -1.156963e+01 -4.151641e+00 7.939984e-01 3.148049e+00 -2.576283e+00 -1.950844e+00 -2.564821e+00 8.295762e-01 1.135140e+00 -1.334855e+00 6.043375e-02 1.132554e-01 1.173375e+00 -1.498717e+00 -1.568162e+00 7.256383e-02 -1.161717e+00 2.495350e-01 1.591682e-01 4.206971e-01 7.822856e-01 1.278985e+00 8.330072e-01 -4.747625e-02 -1.564706e-01 3.569961e-01 9.862695e-01 2.172114e-01 -1.571695e-02
<VARIANCE> 39
 1.142128e+01 2.869250e+01 3.557261e+01 2.882825e+01 3.658718e+01 5.332490e+01 3.718155e+01 5.654070e+01 6.087910e+01 5.407138e+01 3.205251e+01 2.920835e+01 7.779112e-03 3.668784e+00 3.590033e+00 2.135590e+00 4.013643e+00 6.651858e+00 6.554173e+00 5.208170e+00 4.677045e+00 4.382750e+00 5.750822e+00 4.226356e+00 2.381535e+00 1.421713e-03 4.228960e-01 4.582442e-01 3.214196e-01 7.098619e-01 6.245406e-01 8.221257e-01 6.418026e-01 1.048599e+00 8.493053e-01 9.207807e-01 5.773492e-01 5.048851e-01 2.864946e-04
<GCONST> 1.065707e+02
<MIXTURE> 14 5.091601e-02
<MEAN> 39
 2.659451e-02 -9.794991e+00 -1.446068e+01 -2.410133e+01 -7.441112e+00 4.963896e+00 -6.285995e+00 -3.869718e+00 -7.435509e+00 -1.780340e+00 -8.538895e-01 -3.760072e+00 7.692680e-01 2.695150e+00 -1.603540e+00 -8.921345e-01 -3.802874e+00 -1.421193e+00 1.242180e+00 -7.390083e-01 1.113768e-02 -9.220223e-01 -9.767716e-02 4.204300e-01 -3.400050e-01 1.224284e-01 -1.351115e+00 8.364704e-02 3.160190e-01 1.210661e+00 5.353351e-01 -2.794300e-01 3.455265e-01 4.324097e-01 5.301980e-01 2.026930e-01 -4.722971e-02 1.258906e-01 -3.914265e-02
<VARIANCE> 39
 1.013402e+01 3.212289e+01 3.065781e+01 4.052831e+01 5.712683e+01 5.449449e+01 4.350863e+01 4.353648e+01 6.299330e+01 4.465799e+01 5.023207e+01 2.886046e+01 1.386890e-02 1.969427e+00 1.971028e+00 2.582893e+00 3.778760e+00 3.575557e+00 3.861587e+00 3.600212e+00 4.118483e+00 4.493583e+00 3.838360e+00 3.187697e+00 2.362598e+00 3.203667e-03 2.895562e-01 4.245260e-01 3.879505e-01 5.946991e-01 5.202884e-01 4.325643e-01 4.451398e-01 4.822650e-01 6.356193e-01 5.041099e-01 5.495408e-01 3.601834e-01 2.679475e-04
<GCONST> 1.016247e+02
<MIXTURE> 15 5.287004e-02
<MEAN> 39
 7.461877e-01 -8.668646e-01 -1.158031e+01 -2.029282e+01 -1.443091e+01 -1.309688e+00 -2.492577e-01 -3.201957e+00 -6.889235e+00 -3.562972e+00 -2.777476e+00 -1.974120e+00 6.887283e-01 3.933950e+00 7.367838e-01 -1.209553e-01 -3.874198e+00 -3.632054e+00 -1.373023e-01 1.752724e-01 -5.038601e-02 -1.585034e+00 -4.866404e-01 6.248520e-02 -1.438432e-01 1.248580e-01 -1.189371e+00 -8.713265e-01 -1.993645e-01 5.451268e-01 6.989324e-01 1.296479e-01 -2.165356e-01 2.533017e-01 2.776970e-01 3.752791e-01 3.646619e-01 1.754854e-01 -1.827705e-02
<VARIANCE> 39
 8.493114e+00 1.909809e+01 2.667019e+01 2.172782e+01 5.023758e+01 4.425580e+01 3.904963e+01 3.926807e+01 5.014874e+01 3.393253e+01 2.701842e+01 2.195574e+01 1.300904e-02 1.757146e+00 2.506570e+00 3.465249e+00 3.725628e+00 3.944461e+00 4.823433e+00 4.206226e+00 5.159754e+00 5.544609e+00 4.348273e+00 3.810331e+00 2.827917e+00 1.689879e-03 2.358365e-01 2.114145e-01 3.479385e-01 3.464864e-01 4.404513e-01 4.160329e-01 4.234812e-01 4.560039e-01 4.301431e-01 4.961903e-01 3.439472e-01 3.008951e-01 1.896217e-04
<GCONST> 9.605482e+01
<MIXTURE> 16 7.903681e-02
<MEAN> 39
 5.255402e-01 -5.444167e+00 -9.825022e+00 -2.941196e+01 -1.333744e+01 6.676666e+00 -6.229772e+00 1.469758e+00 -7.656542e+00 -6.267657e-01 -2.417999e+00 -9.435634e-01 8.121393e-01 4.533825e-02 -5.057829e-01 -1.211204e-01 -5.899556e-01 9.507942e-02 7.438360e-01 1.209216e-01 5.600435e-01 2.524834e-02 -3.545476e-02 -1.076811e-01 6.434315e-03 2.224169e-02 -2.288355e-01 4.718239e-02 -5.216801e-02 8.739173e-01 3.721443e-01 -4.588994e-01 1.687653e-01 -3.441722e-01 3.987233e-02 -2.827020e-02 1.376447e-01 -1.057426e-01 -1.236439e-02
<VARIANCE> 39
 7.668198e+00 3.203759e+01 3.464673e+01 3.534001e+01 6.414457e+01 5.393627e+01 4.113544e+01 3.280346e+01 3.766156e+01 4.320011e+01 3.807139e+01 2.654070e+01 1.200275e-02 2.922966e-01 9.389817e-01 8.070146e-01 1.488617e+00 1.505747e+00 1.526797e+00 1.288927e+00 1.368407e+00 1.450097e+00 1.269393e+00 1.304799e+00 1.117823e+00 2.845525e-04 1.178544e-01 1.836064e-01 1.941679e-01 3.482047e-01 3.407682e-01 3.523788e-01 2.576014e-01 2.778194e-01 4.055433e-01 3.301611e-01 2.592790e-01 2.297104e-01 1.082987e-04
<GCONST> 7.740510e+01
<STATE> 3
<NUMMIXES> 16
<MIXTURE> 1 5.655882e-02
<MEAN> 39
 2.892435e+00 -6.241858e+00 -1.168494e+01 -2.015280e+01 -1.998880e+01 2.223834e+00 2.960580e-01 -7.993108e-01 -9.606809e+00 -3.527766e+00 4.940187e+00 -2.183012e+00 8.186074e-01 3.664704e-01 -1.315748e+00 -1.834821e+00 1.875240e+00 1.892583e+00 -1.130771e+00 -5.056604e-01 7.749431e-01 -9.834534e-01 -8.402994e-01 1.919853e+00 1.238161e+00 8.914213e-03 -1.870461e-02 -3.843411e-02 -2.439313e-01 3.410818e-01 7.893204e-01 -3.504811e-01 -9.835466e-01 9.573653e-02 6.332352e-01 1.344080e-03 -1.931065e-01 2.584061e-01 -3.972463e-03
<VARIANCE> 39
 7.265394e+00 2.845058e+01 2.983254e+01 3.800082e+01 3.929739e+01 4.687249e+01 4.830681e+01 7.271346e+01 5.553099e+01 4.935040e+01 4.548842e+01 3.589426e+01 1.048989e-02 1.872454e-01 7.590216e-01 8.727301e-01 1.468212e+00 1.638888e+00 2.035204e+00 2.171322e+00 2.220653e+00 2.523733e+00 2.501438e+00 2.336229e+00 2.204263e+00 2.099871e-04 3.526270e-02 1.454914e-01 1.462677e-01 1.806850e-01 2.427751e-01 3.057408e-01 3.327085e-01 3.897083e-01 3.774000e-01 3.272076e-01 4.072826e-01 3.315487e-01 2.612258e-05
<GCONST> 7.837272e+01
<MIXTURE> 2 6.966006e-02
<MEAN> 39
 2.144071e-01 -1.261725e+01 -1.417152e+01 -2.373750e+01 -1.218893e+01 1.081338e+01 -1.121325e+00 -6.459752e+00 2.390548e+00 -5.766862e+00 5.905933e+00 -7.280737e+00 9.441315e-01 -2.277729e-02 2.198265e-01 -6.152498e-02 -2.954515e-01 1.265919e-01 1.542818e-01 9.693203e-02 6.736106e-02 -1.887574e-02 -2.860660e-01 2.308611e-02 2.139014e-02 4.095290e-04 6.259858e-03 6.756976e-02 4.609218e-02 1.063720e-01 5.891554e-02 -2.782362e-01 -2.356068e-01 2.260735e-01 -2.073867e-01 2.766525e-01 -1.345016e-01 6.791089e-02 -3.343052e-03
<VARIANCE> 39
 8.232168e+00 2.739711e+01 2.289477e+01 3.898200e+01 4.440329e+01 4.106955e+01 3.586192e+01 2.839998e+01 3.206764e+01 3.732347e+01 3.693159e+01 3.516076e+01 1.958897e-03 1.292752e-01 4.000427e-01 3.780609e-01 6.615483e-01 6.787274e-01 6.789943e-01 1.075463e+00 8.672904e-01 7.508668e-01 9.386739e-01 8.733289e-01 8.286204e-01 6.797858e-05 2.978867e-02 5.069528e-02 5.660664e-02 7.405409e-02 8.317889e-02 1.053734e-01 1.533787e-01 1.142518e-01 1.200480e-01 1.221487e-01 1.100634e-01 1.054618e-01 1.118590e-05
<GCONST> 5.005299e+01
<MIXTURE> 3 6.515477e-02
<MEAN> 39
 -5.690341e-01 -5.878184e+00 -1.751529e+01 -2.491788e+01 -8.685590e+00 2.299883e+00 8.699265e+00 -1.093358e+01 2.113670e+00 -4.904226e+00 -7.532127e-01 6.971309e-01 8.837008e-01 5.568876e-02 8.175575e-02 -7.245109e-02 -3.240666e-01 3.974153e-02 2.742396e-01 9.082328e-02 3.405498e-03 5.370392e-02 -3.447158e-01 -5.893169e-02 2.215223e-01 5.255747e-03 -1.191640e-02 -8.801949e-02 1.335186e-01 2.321221e-01 -1.822623e-02 -2.136065e-02 -5.341592e-01 2.135992e-01 -1.075041e-01 1.194384e-01 2.164645e-01 -2.953318e-01 -4.065597e-03
<VARIANCE> 39
 1.098092e+01 2.757381e+01 2.983373e+01 5.554860e+01 5.207035e+01 4.736453e+01 3.834589e+01 3.320689e+01 3.394585e+01 3.457172e+01 3.477580e+01 2.825859e+01 7.597366e-03 2.446714e-01 8.499470e-01 7.560568e-01 1.632768e+00 1.591734e+00 1.270901e+00 1.897848e+00 1.305281e+00 1.257673e+00 1.527760e+00 1.402070e+00 1.170493e+00 2.608430e-04 4.710261e-02 1.143073e-01 1.260244e-01 2.260331e-01 2.257142e-01 2.156303e-01 2.790087e-01 1.890153e-01 2.134038e-01 2.414282e-01 2.004246e-01 1.938923e-01 3.300571e-05
<GCONST> 7.070982e+01
<MIXTURE> 4 6.422514e-02
<MEAN> 39
 -1.680431e+00 -1.453130e+01 -1.620123e+01 -2.132761e+01 -3.944037e+00 3.237467e+00 -2.048988e+00 -6.673401e+00 8.688466e-01 -1.755962e+00 8.195924e-01 -9.572845e+00 9.468711e-01 1.270637e-01 5.728009e-02 -3.381793e-01 -2.679827e-01 2.950927e-01 5.511712e-01 7.422760e-01 -6.432206e-01 -9.744731e-02 -3.747931e-01 2.499442e-01 1.184017e-01 5.024150e-03 -2.095639e-02 2.495207e-01 1.363485e-01 2.437503e-01 -2.047781e-01 -2.520897e-01 -2.253073e-01 1.989979e-01 -7.966136e-02 6.504963e-02 -2.151748e-01 2.651427e-01 -7.275045e-03
<VARIANCE> 39
 8.103952e+00 1.946687e+01 2.531934e+01 4.820442e+01 4.906335e+01 5.101620e+01 6.101578e+01 3.534631e+01 3.864901e+01 3.579416e+01 5.010763e+01 2.907104e+01 1.903893e-03 3.549017e-01 7.031927e-01 7.513441e-01 1.480850e+00 1.155393e+00 1.461392e+00 1.910144e+00 1.448465e+00 1.497451e+00 1.437928e+00 1.178439e+00 1.286154e+00 1.394365e-04 5.269967e-02 1.104359e-01 1.377386e-01 1.709534e-01 1.895452e-01 1.862262e-01 2.478521e-01 2.569352e-01 2.513939e-01 2.039597e-01 2.225607e-01 1.801952e-01 3.097022e-05
<GCONST> 6.860202e+01
<MIXTURE> 5 5.930772e-02
<MEAN> 39
 -5.388549e-01 -1.069419e+01 -1.122328e+01 -2.994253e+01 -8.059767e+00 8.929680e+00 -2.927786e+00 -8.568776e-01 -3.797968e+00 -2.752785e+00 -1.149187e+00 -1.514003e+00 9.003537e-01 4.122730e-02 9.663078e-02 -4.057581e-02 2.191526e-02 7.335223e-02 -6.780840e-02 9.591644e-02 -2.774184e-02 6.456251e-02 -4.626306e-02 -5.962185e-03 2.237687e-02 -2.504432e-03 1.508981e-02 3.915323e-03 1.145539e-03 6.835033e-02 -1.481337e-03 -1.063418e-01 -2.389616e-02 -3.906397e-02 6.636826e-03 8.100512e-02 1.636903e-03 -1.164508e-02 -1.129992e-03
<VARIANCE> 39
 4.966296e+00 3.393004e+01 2.778802e+01 5.407623e+01 7.385474e+01 5.221281e+01 5.038330e+01 4.336118e+01 4.205552e+01 5.935182e+01 6.018506e+01 4.498817e+01 6.611889e-03 4.984871e-02 1.707038e-01 1.363871e-01 2.768443e-01 3.142044e-01 3.326034e-01 3.349924e-01 3.056903e-01 3.734213e-01 3.817677e-01 3.629162e-01 3.170240e-01 3.575747e-05 7.650306e-03 1.741511e-02 1.712837e-02 3.439946e-02 4.042458e-02 4.550970e-02 4.917316e-02 4.600943e-02 5.021772e-02 5.002866e-02 4.341212e-02 4.196599e-02 4.273652e-06
<GCONST> 3.043653e+01
<MIXTURE> 6 5.534438e-02
<MEAN> 39
 -3.612064e+00 -1.846899e+01 -1.544245e+01 -2.113908e+01 4.576012e+00 2.388725e+00 -1.020658e+01 -2.534666e+00 -4.834331e+00 -1.655871e+00 -9.694273e+00 -3.402355e+00 9.154692e-01 -1.533047e-01 -6.458069e-02 2.209889e-01 2.037177e-01 -1.145565e-01 -6.026426e-01 -3.623626e-02 3.908502e-01 8.588162e-02 -3.456740e-01 -2.998886e-01 1.191029e-01 -3.191110e-03 3.179666e-03 2.595473e-01 3.045277e-02 6.352834e-02 -3.699205e-01 -3.482525e-01 1.958384e-01 1.019835e-01 -4.469375e-02 -9.405308e-02 -6.500588e-02 6.028745e-02 -5.538516e-03
<VARIANCE> 39
 5.415213e+00 2.658048e+01 2.092776e+01 4.655286e+01 4.623627e+01 4.801575e+01 4.858251e+01 3.626170e+01 3.416673e+01 4.066071e+01 3.315678e+01 2.794121e+01 5.163421e-03 2.107458e-01 6.794532e-01 5.529317e-01 1.058682e+00 1.184860e+00 1.698761e+00 1.457833e+00 1.261014e+00 1.148743e+00 1.033040e+00 1.306516e+00 1.005640e+00 1.305159e-04 3.597173e-02 7.503938e-02 8.647712e-02 1.232317e-01 1.771882e-01 1.835409e-01 1.982655e-01 1.852470e-01 1.854936e-01 1.813231e-01 1.653770e-01 1.543370e-01 1.827404e-05
<GCONST> 6.268195e+01
<MIXTURE> 7 5.124281e-02
<MEAN> 39
 2.557534e+00 -1.690225e+00 -9.335701e+00 -2.220832e+01 -2.348404e+01 1.469764e+00 1.608360e+00 -3.508279e+00 -2.551980e+00 -6.325568e+00 3.715213e-01 -1.669223e+00 7.913068e-01 1.151207e-01 -7.803172e-01 -8.681990e-01 5.968462e-01 6.346822e-01 -2.657350e-02 4.977747e-01 7.221381e-02 -8.010338e-01 -3.367781e-01 8.237479e-01 6.350688e-01 7.154583e-03 2.256260e-02 -2.895081e-01 -3.201993e-01 3.503251e-01 5.514754e-01 -6.427587e-02 -2.908914e-01 -9.613069e-03 -2.574008e-01 -4.756622e-02 4.218876e-01 2.845502e-01 -5.229993e-04
<VARIANCE> 39
 6.865966e+00 2.120570e+01 2.447351e+01 3.496858e+01 3.847224e+01 4.607987e+01 3.531381e+01 4.147904e+01 4.701507e+01 4.091249e+01 3.574767e+01 2.950067e+01 1.067998e-02 9.258149e-02 5.344493e-01 5.362316e-01 6.679670e-01 8.149862e-01 1.035020e+00 8.769589e-01 1.209031e+00 1.369544e+00 1.237177e+00 1.436785e+00 1.079665e+00 1.227860e-04 1.527698e-02 5.963893e-02 8.082864e-02 8.498766e-02 1.405607e-01 1.353594e-01 1.440742e-01 1.940794e-01 1.888042e-01 2.089707e-01 2.303049e-01 1.812594e-01 1.271912e-05
<GCONST> 5.877850e+01
<MIXTURE> 8 4.950874e-02
<MEAN> 39
 2.622991e+00 -6.996068e+00 -1.711861e+01 -1.981746e+01 -8.263693e+00 -3.070762e+00 -6.727659e+00 4.976201e+00 -1.027923e+01 -5.847426e+00 4.390975e+00 1.163773e+00 8.339832e-01 3.083677e-01 -6.222621e-01 -9.564420e-01 1.901025e-01 1.080959e+00 -1.187912e-02 -9.589862e-01 6.391611e-01 2.637632e-01 -9.827686e-02 3.316979e-01 6.152024e-01 1.717078e-02 -5.197303e-01 -1.890200e-02 3.216389e-01 8.097900e-01 4.312007e-01 -1.719044e-01 -2.976351e-01 -5.127922e-01 6.942491e-01 4.595111e-01 -4.915163e-01 -2.336943e-01 -1.822549e-02
<VARIANCE> 39
 8.128315e+00 3.341953e+01 2.958657e+01 4.335312e+01 6.083609e+01 6.607888e+01 9.266090e+01 6.404841e+01 8.217672e+01 9.030082e+01 5.280412e+01 5.302851e+01 1.136731e-02 4.079639e-01 1.716380e+00 1.348163e+00 2.614097e+00 2.339013e+00 2.606011e+00 4.117234e+00 3.718474e+00 2.359496e+00 2.907748e+00 2.150441e+00 2.880807e+00 4.644003e-04 2.178066e-01 2.795981e-01 3.360129e-01 3.373820e-01 5.875077e-01 6.464909e-01 6.567602e-01 5.397989e-01 7.359712e-01 8.271790e-01 4.941804e-01 5.496013e-01 1.496356e-04
<GCONST> 9.772481e+01
<MIXTURE> 9 8.208057e-02
<MEAN> 39
 -2.216940e+00 -1.123106e+01 -1.880114e+01 -2.317128e+01 5.075186e-02 8.020973e-01 1.265496e+00 -1.094170e+01 -4.918073e-01 -3.048860e+00 -3.263424e+00 -4.901484e+00 9.153740e-01 5.695107e-03 4.625586e-03 -1.034067e-01 1.520497e-01 2.891065e-01 -3.539811e-02 6.097657e-03 -4.142122e-02 1.155406e-01 -4.004320e-03 8.320841e-02 2.515448e-03 -7.254772e-04 2.702922e-02 2.294416e-02 1.169470e-01 1.226774e-01 -1.713204e-01 -5.121646e-02 -1.063718e-01 1.854619e-01 8.756311e-02 4.069692e-02 1.528814e-02 -3.763403e-03 -2.388823e-03
<VARIANCE> 39
 6.876908e+00 2.567954e+01 1.976118e+01 5.066763e+01 4.609302e+01 3.443500e+01 7.262252e+01 2.987871e+01 4.819209e+01 5.105096e+01 3.661414e+01 3.371014e+01 5.576628e-03 9.512720e-02 3.576972e-01 3.113135e-01 7.513031e-01 6.224718e-01 7.555071e-01 7.027276e-01 7.050417e-01 7.521192e-01 8.044823e-01 6.905590e-01 5.786518e-01 6.586251e-05 1.657856e-02 4.638651e-02 5.305559e-02 8.681733e-02 9.508759e-02 1.057509e-01 1.475311e-01 1.209808e-01 1.413191e-01 1.125348e-01 1.111449e-01 1.122297e-01 8.236269e-06
<GCONST> 4.980288e+01
<MIXTURE> 10 8.160158e-02
<MEAN> 39
 3.030080e-01 -1.275391e+01 -9.738990e+00 -3.108572e+01 -8.810712e+00 1.373401e+01 -5.149253e+00 1.100392e-01 -4.874538e+00 4.281090e-01 -2.545049e+00 -4.878074e-01 9.292337e-01 -5.343270e-02 -1.637334e-01 -2.439357e-02 -7.871588e-02 3.355766e-01 -8.734419e-02 3.572621e-02 3.218653e-02 -1.071274e-01 -9.217656e-03 -3.082518e-02 -4.799560e-02 3.910924e-03 -2.043869e-02 1.264349e-01 -4.766024e-02 2.083304e-01 -1.501099e-02 -3.046705e-01 -3.783721e-02 -7.085729e-02 1.543149e-02 7.340384e-02 7.280416e-02 -1.439511e-01 -4.396612e-03
<VARIANCE> 39
 7.790612e+00 2.725645e+01 2.654838e+01 3.418533e+01 4.973853e+01 3.125181e+01 4.900560e+01 2.866941e+01 2.434504e+01 3.739808e+01 3.332511e+01 2.985146e+01 3.120972e-03 1.614085e-01 5.569404e-01 3.791408e-01 7.410775e-01 8.483538e-01 8.099451e-01 7.565452e-01 8.147030e-01 6.605297e-01 8.300135e-01 7.372537e-01 8.122285e-01 1.508891e-04 2.654846e-02 5.927538e-02 5.988852e-02 8.453388e-02 1.217247e-01 1.234994e-01 1.226667e-01 1.165804e-01 1.218585e-01 1.140468e-01 1.269496e-01 1.101561e-01 1.592947e-05
<GCONST> 5.216071e+01
<MIXTURE> 11 8.025803e-02
<MEAN> 39
 -7.531790e-02 -1.444293e+01 -1.372821e+01 -2.463320e+01 -4.485860e+00 7.328742e+00 -4.993932e+00 1.470158e-01 -8.970292e+00 6.118988e+00 -4.510689e+00 -4.692685e+00 9.024795e-01 3.374806e-02 -2.208253e-01 -6.735101e-02 1.827910e-01 7.666180e-02 3.065692e-01 -7.079308e-02 -8.168639e-02 8.402931e-02 -6.577298e-02 -5.715954e-03 -1.559056e-01 3.473612e-03 -5.919600e-02 2.182575e-01 5.084211e-02 3.033608e-01 -1.269217e-01 -4.274890e-01 -8.281267e-02 -1.048973e-01 2.845073e-01 -2.074157e-01 2.593818e-02 -1.973856e-02 -7.188569e-03
<VARIANCE> 39
 8.089518e+00 1.784951e+01 2.182001e+01 4.584690e+01 2.859276e+01 4.512766e+01 5.067642e+01 2.825707e+01 2.971895e+01 3.493100e+01 3.382123e+01 2.631135e+01 6.024135e-03 2.766185e-01 7.363145e-01 6.898060e-01 1.535225e+00 1.090839e+00 2.170995e+00 1.417578e+00 1.219924e+00 1.405101e+00 1.290576e+00 1.216276e+00 1.233134e+00 2.474829e-04 4.962241e-02 1.415790e-01 1.286414e-01 2.163335e-01 1.953112e-01 2.823396e-01 2.352369e-01 2.238114e-01 1.603405e-01 2.146179e-01 2.100988e-01 1.862383e-01 4.698659e-05
<GCONST> 6.822629e+01
<MIXTURE> 12 6.416555e-02
<MEAN> 39
 9.450226e-01 -8.150414e+00 -1.392401e+01 -2.545490e+01 -9.422832e+00 1.184646e+01 -6.807848e+00 -2.644666e+00 -1.601214e+00 -6.739091e+00 3.769471e-01 4.244569e-01 7.997592e-01 1.471684e-02 -4.193865e-02 -1.805679e-01 2.344459e-01 1.048434e-01 -1.717673e-02 1.610538e-01 -2.331595e-01 6.356052e-02 -1.729605e-01 2.543697e-02 3.943409e-02 -2.318684e-03 -5.029386e-02 -9.686772e-02 4.374621e-02 3.002089e-01 3.344091e-02 -4.209195e-01 6.240881e-02 -1.287025e-01 -5.655570e-02 4.066564e-01 -5.874243e-02 -2.706033e-01 -2.134972e-03
<VARIANCE> 39
 6.242941e+00 1.960280e+01 2.701636e+01 4.086755e+01 7.304633e+01 4.262724e+01 5.936673e+01 3.107934e+01 4.693156e+01 4.288078e+01 2.923045e+01 3.655418e+01 1.233071e-02 2.394265e-01 1.001601e+00 6.447719e-01 1.140229e+00 1.376001e+00 1.243056e+00 1.119374e+00 1.820815e+00 1.494048e+00 1.967748e+00 1.334053e+00 1.141181e+00 2.401878e-04 3.156808e-02 1.082792e-01 1.034542e-01 1.698924e-01 1.912925e-01 2.261109e-01 1.900789e-01 2.144040e-01 2.346155e-01 2.050596e-01 2.302708e-01 1.887202e-01 2.254236e-05
<GCONST> 6.898714e+01
<MIXTURE> 13 5.850390e-02
<MEAN> 39
 5.272171e-01 -6.382681e+00 -1.491864e+01 -2.587491e+01 -8.875119e+00 4.951513e+00 2.398038e+00 -4.580746e+00 -2.757838e+00 -4.573717e+00 1.096172e+00 -1.773777e+00 8.323331e-01 1.455224e-02 2.277209e-01 -3.001554e-03 -5.418336e-02 2.835727e-02 -1.500552e-01 -5.114557e-02 9.268199e-02 -1.531141e-01 7.661346e-02 -1.136225e-01 6.596649e-02 -5.503290e-03 -8.507601e-03 -2.666992e-02 3.534096e-02 9.462202e-02 -5.804892e-02 -1.119886e-02 -1.439005e-01 2.379436e-02 -2.720301e-02 6.739517e-02 2.088629e-02 -4.622285e-02 -1.220747e-03
<VARIANCE> 39
 8.213846e+00 2.346949e+01 2.181519e+01 6.521751e+01 7.090665e+01 3.887064e+01 3.762461e+01 2.952632e+01 4.903288e+01 4.622086e+01 3.695770e+01 3.226310e+01 1.017326e-02 8.883059e-02 2.935172e-01 2.257732e-01 4.731803e-01 5.647873e-01 4.288341e-01 5.146168e-01 4.800911e-01 4.313865e-01 4.149478e-01 4.137268e-01 4.279654e-01 8.732999e-05 1.309274e-02 3.152400e-02 4.272290e-02 6.750342e-02 7.791366e-02 7.326136e-02 8.594766e-02 6.395677e-02 6.835741e-02 7.223167e-02 6.892052e-02 7.103717e-02 1.379452e-05
<GCONST> 4.202612e+01
<MIXTURE> 14 5.569344e-02
<MEAN> 39
 8.829941e-01 -6.973622e+00 -1.483618e+01 -2.480442e+01 -1.070084e+01 4.329274e+00 -1.945097e+00 -5.793759e+00 -8.978302e+00 2.707981e+00 -2.163457e+00 -6.969880e-01 8.336591e-01 4.717627e-02 -1.444775e+00 -7.090942e-01 1.895252e+00 9.361976e-01 -7.445297e-01 -1.222973e-01 -4.021396e-01 -5.745472e-01 1.653871e+00 9.833405e-01 -1.336018e+00 3.984235e-03 -1.327753e-02 -1.457367e-01 2.178938e-02 5.848450e-01 1.476850e-01 -7.955855e-01 -4.268104e-01 4.333352e-01 2.227470e-01 -5.666269e-02 -3.740148e-02 -4.102790e-01 -4.059071e-03
<VARIANCE> 39
 7.668837e+00 2.469636e+01 2.386324e+01 3.405068e+01 3.796098e+01 5.343985e+01 4.150595e+01 4.810547e+01 6.815314e+01 6.257114e+01 5.329255e+01 3.603971e+01 1.205010e-02 1.728560e-01 6.613417e-01 6.302104e-01 1.228161e+00 1.322435e+00 1.987269e+00 1.846578e+00 2.281614e+00 2.201871e+00 1.948528e+00 2.038850e+00 2.102839e+00 1.550034e-04 3.251934e-02 8.739763e-02 1.239556e-01 1.573658e-01 1.895163e-01 2.742845e-01 2.474344e-01 3.300767e-01 3.543462e-01 3.916023e-01 3.176101e-01 3.022001e-01 2.321718e-05
<GCONST> 7.420352e+01
<MIXTURE> 15 5.738958e-02
<MEAN> 39
 1.470277e+00 -1.626493e+00 -1.044507e+01 -2.601209e+01 -1.653298e+01 4.525984e-04 -2.885503e+00 2.513031e+00 -7.259597e+00 -2.465053e+00 -2.434096e+00 -2.746176e+00 7.743748e-01 5.539634e-02 -1.232932e-01 -2.197023e-01 1.233685e-03 3.084986e-02 4.175445e-02 3.675130e-01 3.027446e-01 -1.482536e-02 -1.376379e-01 -1.164118e-01 1.352505e-01 4.215554e-03 6.830052e-03 -3.136785e-01 -2.416296e-01 3.895088e-01 2.683718e-01 1.292088e-01 -3.211701e-02 -3.766585e-01 -1.659508e-01 -2.229574e-02 3.140949e-01 1.561418e-01 -9.621768e-04
<VARIANCE> 39
 7.449199e+00 2.829827e+01 4.492908e+01 4.561295e+01 4.578531e+01 4.239434e+01 4.655091e+01 4.512848e+01 8.007627e+01 5.570429e+01 5.799986e+01 3.956400e+01 1.175718e-02 1.572965e-01 5.167777e-01 6.015851e-01 6.623309e-01 1.009356e+00 1.557488e+00 9.297323e-01 1.125290e+00 1.257951e+00 1.054615e+00 1.079346e+00 1.044004e+00 1.301479e-04 3.029918e-02 8.987188e-02 1.086626e-01 1.708632e-01 1.675254e-01 2.331889e-01 2.596553e-01 2.209932e-01 2.889457e-01 2.891701e-01 2.444433e-01 2.179670e-01 2.600641e-05
<GCONST> 6.813085e+01
<MIXTURE> 16 4.927824e-02
<MEAN> 39
 -1.057844e+00 -1.330735e+01 -1.835171e+01 -1.896111e+01 -9.677371e-01 8.344478e+00 -1.174146e+01 -2.932599e+00 -5.707699e+00 -3.183486e+00 -3.130779e+00 -5.786171e+00 8.583905e-01 -3.839655e-02 -1.255523e-01 -3.146514e-02 2.702557e-01 -3.889951e-02 -2.081931e-01 -2.795313e-01 -2.024788e-01 1.908883e-01 -7.836361e-02 -1.481048e-01 -1.410057e-01 -3.488527e-03 -6.123532e-02 -1.468657e-02 6.253617e-02 -1.248067e-01 -1.361321e-01 -3.249006e-01 -1.474347e-02 -1.331619e-02 -8.959579e-04 -8.729684e-02 -2.900691e-01 -4.226372e-02 -1.536269e-03
<VARIANCE> 39
 6.420487e+00 1.743785e+01 1.459856e+01 3.952314e+01 4.746991e+01 5.357940e+01 4.429425e+01 2.700139e+01 3.427168e+01 4.751073e+01 3.768985e+01 1.996858e+01 1.112100e-02 1.015152e-01 3.115744e-01 3.367280e-01 7.721465e-01 5.302796e-01 8.129756e-01 8.206357e-01 7.721289e-01 8.256288e-01 7.624691e-01 9.029723e-01 6.631179e-01 6.032302e-05 1.661281e-02 4.151772e-02 5.042539e-02 7.285360e-02 8.809783e-02 1.026428e-01 9.257179e-02 1.232778e-01 1.228812e-01 1.026123e-01 1.155121e-01 1.059615e-01 1.025889e-05
<GCONST> 4.808277e+01
<STATE> 4
<NUMMIXES> 16
<MIXTURE> 1 7.486913e-02
<MEAN> 39
 4.027558e+00 -7.148867e+00 -1.768233e+01 -1.499493e+01 -1.503338e+01 -1.642971e+00 -3.763855e+00 1.032663e+00 -2.366081e+00 -1.359891e+01 6.973848e+00 5.726066e+00 8.417050e-01 2.770852e-01 -5.951353e-01 -1.466397e+00 9.011918e-01 2.142443e+00 -2.756706e-01 -1.860873e+00 5.845387e-02 1.001938e+00 -4.637031e-02 -2.605163e-01 1.020083e+00 3.576963e-03 -4.124266e-02 -1.872003e-02 8.455147e-02 1.191089e-01 2.978283e-01 3.255855e-02 -5.681654e-01 -2.956661e-01 2.504183e-01 7.021540e-01 -2.467856e-01 -4.591724e-01 -3.152203e-03
<VARIANCE> 39
 6.243316e+00 2.490682e+01 1.988461e+01 2.742259e+01 4.236944e+01 4.249286e+01 6.100543e+01 7.016683e+01 3.580630e+01 3.994026e+01 4.692358e+01 4.375091e+01 1.039420e-02 1.276706e-01 4.938804e-01 7.779408e-01 8.450215e-01 1.591450e+00 1.535117e+00 2.015477e+00 1.585553e+00 1.309569e+00 1.957646e+00 1.678362e+00 1.478654e+00 1.104461e-04 2.670416e-02 7.674956e-02 1.127385e-01 1.384542e-01 1.706970e-01 2.344846e-01 2.382551e-01 2.442060e-01 1.759124e-01 2.542652e-01 2.533772e-01 2.610374e-01 2.042379e-05
<GCONST> 6.778564e+01
<MIXTURE> 2 5.925713e-02
<MEAN> 39
 -5.533470e-01 -1.281264e+01 -1.530618e+01 -2.180449e+01 -4.824719e+00 3.563741e+00 -1.936346e+00 -5.196840e+00 -2.762532e+00 1.452376e+00 -2.724661e+00 -5.892195e+00 8.929822e-01 -1.316163e-01 1.404583e+00 3.917767e-01 1.080639e+00 -2.379723e-01 -9.799009e-01 -3.259413e-01 -1.138048e-02 1.210827e-01 1.678995e-01 -2.158195e-01 3.274403e-01 -4.164129e-02 -6.023380e-01 6.764896e-01 4.347427e-01 7.802896e-01 2.102425e-01 -1.913484e-01 -5.800781e-02 1.790734e-01 -1.343504e-02 -1.743416e-01 7.437965e-02 1.954526e-01 -2.530778e-02
<VARIANCE> 39
 9.348104e+00 2.369940e+01 2.476507e+01 4.932301e+01 3.791088e+01 4.993459e+01 5.815298e+01 4.037140e+01 4.221933e+01 5.056802e+01 5.566427e+01 3.125173e+01 4.139128e-03 5.768684e-01 1.034769e+00 1.095783e+00 1.650152e+00 2.200225e+00 1.679365e+00 2.547129e+00 2.040128e+00 1.702315e+00 1.741582e+00 1.944155e+00 1.623726e+00 3.109357e-04 2.590718e-01 1.759919e-01 2.489011e-01 4.011552e-01 3.579110e-01 3.223474e-01 3.857575e-01 5.361560e-01 4.002178e-01 3.564063e-01 3.437346e-01 2.804306e-01 9.144780e-05
<GCONST> 8.361085e+01
<MIXTURE> 3 4.971953e-02
<MEAN> 39
 -4.737681e+00 -8.804385e+00 -9.974040e+00 -1.014592e+01 -7.086771e+00 -7.378811e+00 -7.604012e+00 2.994285e-01 -8.431426e-01 -1.925783e-01 -5.172190e+00 -3.465985e+00 5.275639e-01 -1.981593e+00 2.697655e+00 1.990044e+00 3.031302e+00 4.215992e-01 -8.189384e-01 3.699045e-01 -8.348991e-01 -3.115256e-01 -6.808878e-01 9.204716e-02 9.900156e-01 -1.226400e-01 -4.581556e-01 -5.605880e-03 -2.341820e-02 -2.484371e-01 3.036749e-01 8.600026e-01 3.488544e-01 -3.322131e-01 -2.760286e-01 -1.175689e-01 3.059744e-01 -8.488949e-02 -7.464367e-05
<VARIANCE> 39
 2.290176e+01 3.354094e+01 3.571014e+01 5.095557e+01 5.645924e+01 6.235035e+01 7.267665e+01 6.171592e+01 7.530764e+01 6.312558e+01 8.134115e+01 4.077264e+01 4.878730e-02 2.906624e+00 4.222446e+00 3.338655e+00 5.048404e+00 6.421218e+00 6.088244e+00 6.527042e+00 6.054389e+00 6.408546e+00 5.827135e+00 6.514356e+00 3.448872e+00 4.351960e-03 6.820121e-01 7.166792e-01 5.579271e-01 1.003353e+00 1.071992e+00 1.008679e+00 1.119230e+00 1.240640e+00 1.239738e+00 1.205255e+00 1.057129e+00 6.701646e-01 8.549196e-04
<GCONST> 1.220281e+02
<MIXTURE> 4 5.284020e-02
<MEAN> 39
 2.426718e-01 -1.272394e+01 -1.198504e+01 -2.638414e+01 -1.149295e+01 1.150851e+01 -6.188776e+00 -1.926789e-01 -1.443338e+00 -4.026303e+00 4.574401e+00 -6.597212e+00 9.381046e-01 5.176417e-02 3.873630e-01 1.108273e-01 2.702297e-01 8.117229e-02 -8.389302e-01 -5.533862e-01 4.555925e-01 -3.422314e-01 4.626043e-01 -8.790001e-02 8.243578e-02 -1.155637e-02 -9.761539e-03 3.103059e-01 3.769815e-02 3.079632e-01 1.243310e-01 -5.187230e-01 3.373778e-02 -1.243943e-01 -1.377767e-01 3.113173e-01 -2.705188e-01 2.465609e-01 -9.578878e-03
<VARIANCE> 39
 7.984214e+00 3.317124e+01 2.675599e+01 6.240288e+01 6.647054e+01 4.524958e+01 3.847959e+01 3.662518e+01 3.824659e+01 5.108952e+01 6.374108e+01 5.565471e+01 2.663243e-03 2.124375e-01 6.630760e-01 7.276056e-01 1.108098e+00 1.243057e+00 1.285079e+00 1.345960e+00 1.151206e+00 1.089677e+00 1.377265e+00 1.552092e+00 1.411592e+00 1.343703e-04 3.602422e-02 1.112770e-01 9.963504e-02 1.516974e-01 1.929176e-01 1.810072e-01 2.351070e-01 2.507577e-01 2.263141e-01 2.138064e-01 2.167461e-01 2.628564e-01 3.259968e-05
<GCONST> 6.864436e+01
<MIXTURE> 5 8.995780e-02
<MEAN> 39
 4.595536e+00 -8.518756e+00 -2.248046e+01 -1.446087e+01 -3.040784e+00 -4.633917e+00 -1.325779e+01 3.830243e+00 -2.587120e+00 -5.874895e+00 3.036440e+00 4.392881e+00 8.401788e-01 8.194368e-02 -3.951543e-01 -7.518265e-01 8.435509e-01 1.896940e+00 -2.273551e-01 -2.543697e+00 -7.436196e-01 1.667403e+00 1.572145e+00 -7.790607e-01 -9.498287e-01 -4.104170e-03 -9.305543e-02 4.501850e-04 4.642383e-01 8.433366e-02 -4.336835e-01 -2.182921e-02 1.101827e-01 -1.159124e-01 -2.558564e-02 1.369022e-01 1.907394e-02 -3.561594e-01 -3.288144e-03
<VARIANCE> 39
 7.257339e+00 2.546590e+01 2.509441e+01 3.376915e+01 4.375829e+01 5.014373e+01 7.391467e+01 6.676035e+01 7.521619e+01 6.114570e+01 5.071375e+01 3.623424e+01 9.918501e-03 1.527143e-01 4.733275e-01 8.605620e-01 7.965928e-01 1.132942e+00 1.579326e+00 1.517397e+00 1.765190e+00 1.767578e+00 1.462873e+00 1.720303e+00 1.209061e+00 8.714962e-05 2.709697e-02 7.523941e-02 1.033818e-01 1.567964e-01 1.519688e-01 2.328799e-01 2.521993e-01 2.336587e-01 2.714757e-01 3.044778e-01 2.504095e-01 2.371927e-01 1.506276e-05
<GCONST> 6.915949e+01
<MIXTURE> 6 7.385747e-02
<MEAN> 39
 1.363973e+00 -1.281620e+01 -1.759619e+01 -1.696520e+01 -6.208349e+00 -3.085452e+00 -5.363686e+00 -1.459895e+00 -1.178861e+01 7.796491e+00 -3.621841e-01 -7.009811e+00 8.427176e-01 4.840189e-02 -1.252285e+00 -4.490879e-01 2.360992e+00 8.697171e-01 -2.571907e+00 -1.240673e+00 1.757245e+00 9.187418e-01 -3.492169e-01 -3.389349e-01 -8.315322e-01 -2.388135e-03 -5.462900e-02 1.613962e-01 2.945490e-01 -6.759264e-02 -2.042025e-01 -3.259552e-01 -1.879818e-01 3.305428e-01 4.791574e-01 -7.297382e-01 -4.844726e-01 4.712157e-01 -3.960752e-03
<VARIANCE> 39
 6.103041e+00 2.397490e+01 2.540141e+01 2.691141e+01 3.376401e+01 5.940771e+01 3.851809e+01 5.770311e+01 6.301054e+01 4.243992e+01 6.583198e+01 3.869681e+01 1.210016e-02 1.564745e-01 5.194591e-01 7.232282e-01 1.099096e+00 1.387155e+00 1.819005e+00 1.852785e+00 1.924818e+00 2.061798e+00 2.272639e+00 1.628588e+00 2.060591e+00 1.167764e-04 2.377180e-02 7.736111e-02 1.256564e-01 1.882117e-01 1.964176e-01 2.767009e-01 2.502038e-01 3.101483e-01 3.079213e-01 3.205950e-01 3.603055e-01 2.719336e-01 1.334417e-05
<GCONST> 7.160364e+01
<MIXTURE> 7 7.290774e-02
<MEAN> 39
 -1.443966e+00 -6.769249e+00 -1.398773e+01 -1.792906e+01 -4.489236e+00 1.921205e+00 -2.847456e+00 -5.879724e+00 -2.910613e+00 1.395625e+00 -2.424670e+00 -4.924410e+00 7.081747e-01 -2.749065e+00 2.574117e+00 1.705216e+00 3.363578e+00 1.213917e+00 -1.361805e+00 2.199320e-01 7.724712e-01 5.372613e-02 -3.130620e-01 -3.901250e-01 7.838891e-01 -1.084424e-01 -1.278498e+00 -1.476935e-01 4.433723e-01 4.879453e-01 1.633788e-01 -1.776321e-02 1.813470e-02 4.516054e-01 1.233102e-01 -2.399168e-01 1.757059e-01 1.930631e-01 -1.641120e-02
<VARIANCE> 39
 7.560072e+00 2.109741e+01 2.829784e+01 4.160888e+01 3.553481e+01 4.189475e+01 6.173794e+01 3.392368e+01 4.753553e+01 5.346029e+01 5.246020e+01 2.676895e+01 1.791818e-02 2.833733e+00 2.744096e+00 2.936656e+00 4.853921e+00 3.772947e+00 3.747532e+00 4.721073e+00 4.939264e+00 3.213511e+00 3.489960e+00 3.907681e+00 2.780927e+00 2.268028e-03 3.657226e-01 3.360762e-01 3.398180e-01 5.204335e-01 4.509751e-01 4.228525e-01 6.586013e-01 5.147508e-01 5.465885e-01 6.675517e-01 6.100261e-01 4.463850e-01 3.729984e-04
<GCONST> 1.022888e+02
<MIXTURE> 8 4.032061e-02
<MEAN> 39
 -2.604375e+00 -1.411779e+01 -1.340760e+01 -1.310916e+01 -3.998200e+00 -2.956578e+00 -7.487672e+00 -1.223375e+00 9.941889e-01 8.993226e-01 -9.673965e+00 -3.990823e+00 7.287669e-01 -5.733291e-01 5.134001e-01 1.386062e+00 1.206006e+00 -9.941635e-01 -2.208264e+00 4.277257e-01 1.109107e+00 -1.688544e-01 -5.461587e-01 -6.943590e-01 5.698473e-01 -3.314676e-02 -1.085657e-01 3.376974e-01 3.326800e-01 -1.350080e-01 -2.394813e-01 8.114194e-02 2.635329e-01 -1.501711e-01 -4.340642e-01 -3.082742e-01 5.645669e-01 1.114142e-01 -6.094072e-03
<VARIANCE> 39
 8.379292e+00 2.721909e+01 3.514185e+01 2.859362e+01 3.590014e+01 7.152574e+01 5.928547e+01 5.667616e+01 4.770995e+01 4.227654e+01 3.345228e+01 2.662934e+01 2.440886e-02 4.793524e-01 1.471250e+00 1.688462e+00 2.076903e+00 2.104805e+00 2.023848e+00 2.295749e+00 2.707638e+00 2.409005e+00 2.048735e+00 1.831947e+00 2.473588e+00 5.709959e-04 1.140609e-01 2.343371e-01 2.753715e-01 2.485192e-01 3.045185e-01 3.866839e-01 4.552814e-01 4.801119e-01 4.485929e-01 3.306779e-01 2.773180e-01 2.594366e-01 1.309411e-04
<GCONST> 8.705540e+01
<MIXTURE> 9 6.803268e-02
<MEAN> 39
 -1.580894e+00 -1.109033e+01 -1.726836e+01 -1.965288e+01 -3.930075e+00 7.346309e-02 2.921261e+00 -1.217709e+01 4.856011e+00 -3.616798e+00 6.485509e-01 -4.407917e+00 8.813668e-01 -1.001025e-01 -1.442854e-01 3.241471e-01 1.133099e+00 -2.677701e-01 -8.013213e-01 -1.142082e+00 3.018250e-01 4.053302e-01 3.736875e-01 -1.229477e-01 -7.177876e-01 -1.635479e-02 -9.826405e-03 1.739482e-01 2.753358e-01 2.219777e-01 -2.345225e-01 -1.788219e-01 -3.658661e-01 3.955485e-01 -2.362955e-01 7.105999e-02 -1.085009e-01 -2.242379e-02 -8.507608e-03
<VARIANCE> 39
 7.278575e+00 2.798553e+01 2.435925e+01 5.906000e+01 3.612252e+01 4.997910e+01 4.908183e+01 2.656398e+01 4.160875e+01 4.249550e+01 3.855843e+01 4.511883e+01 7.662497e-03 2.545733e-01 8.085398e-01 6.637667e-01 1.121721e+00 1.408981e+00 1.336170e+00 1.680190e+00 1.505704e+00 1.862754e+00 1.569632e+00 2.069097e+00 1.606372e+00 1.741559e-04 5.642977e-02 1.190065e-01 1.169702e-01 1.694103e-01 2.042347e-01 1.858494e-01 1.970255e-01 2.212963e-01 2.795728e-01 2.303966e-01 2.422520e-01 2.485391e-01 2.954190e-05
<GCONST> 7.099758e+01
<MIXTURE> 10 4.866983e-02
<MEAN> 39
 -7.298581e-01 -1.448714e+01 -1.560075e+01 -1.595446e+01 -5.851099e+00 -2.328472e+00 -7.489617e+00 -2.544783e+00 -1.220803e+00 3.239691e+00 -1.651846e+00 -1.089343e+01 8.705034e-01 -3.268704e-01 -6.968400e-01 1.060481e+00 2.223404e+00 -5.600951e-01 -3.163110e+00 -1.103736e+00 1.804475e+00 1.291425e+00 -3.189811e-01 -1.582796e+00 -2.877005e-02 -1.927627e-02 -1.182132e-01 4.314314e-01 5.969849e-01 2.730725e-02 -4.465232e-01 -2.037240e-01 2.474969e-01 1.474344e-01 -2.669279e-01 -5.355588e-01 -9.607450e-02 9.952811e-01 -1.185272e-02
<VARIANCE> 39
 1.011180e+01 2.395600e+01 3.815670e+01 4.051730e+01 3.391492e+01 8.380061e+01 5.675078e+01 5.925647e+01 8.140102e+01 6.338213e+01 4.874942e+01 3.116768e+01 8.521856e-03 2.880231e-01 1.277104e+00 1.449908e+00 2.012054e+00 2.278413e+00 2.611130e+00 2.586036e+00 2.951092e+00 2.855825e+00 3.414023e+00 2.618889e+00 2.935973e+00 2.415443e-04 7.869866e-02 1.714753e-01 2.181309e-01 3.942735e-01 3.380838e-01 5.261872e-01 5.450230e-01 6.012976e-01 6.446539e-01 6.008222e-01 4.931721e-01 3.434424e-01 7.901211e-05
<GCONST> 8.979664e+01
<MIXTURE> 11 6.830350e-02
<MEAN> 39
 3.808228e+00 -8.770000e+00 -1.646234e+01 -1.799573e+01 -9.763715e+00 -3.627241e+00 -5.197307e+00 5.761646e+00 -1.392240e+01 -3.817376e+00 7.010907e+00 3.567764e+00 8.316624e-01 2.421605e-01 -9.575936e-01 -1.839131e+00 1.808075e+00 2.969680e+00 -1.319535e+00 -2.822628e+00 5.128269e-01 1.501223e+00 -1.545331e-01 1.852799e-01 1.055802e+00 2.307059e-03 -7.109280e-02 1.142204e-01 2.005760e-01 8.690591e-02 9.271698e-02 1.840526e-02 -7.248244e-01 -3.728322e-01 9.479141e-01 4.638771e-01 -7.723362e-01 -5.995088e-01 -4.526713e-03
<VARIANCE> 39
 6.697073e+00 2.376681e+01 3.399501e+01 3.853383e+01 4.389166e+01 3.301139e+01 5.902048e+01 6.393683e+01 4.450805e+01 4.434296e+01 4.208768e+01 3.033693e+01 9.193867e-03 2.000304e-01 7.698812e-01 1.047150e+00 1.204319e+00 1.743531e+00 1.585051e+00 2.415012e+00 2.053006e+00 2.332585e+00 2.054202e+00 2.515025e+00 2.108671e+00 1.355174e-04 3.007683e-02 1.051501e-01 1.497426e-01 2.163712e-01 2.397732e-01 2.090289e-01 3.324994e-01 3.647977e-01 3.041645e-01 3.300081e-01 3.573388e-01 3.059172e-01 2.550530e-05
<GCONST> 7.541953e+01
<MIXTURE> 12 7.084873e-02
<MEAN> 39
 3.770690e+00 -1.001600e+01 -1.868145e+01 -1.338828e+01 -6.984601e+00 -1.701594e+00 -1.226239e+01 1.576024e-01 -4.477930e+00 -4.655737e+00 7.760430e+00 3.651427e+00 8.190656e-01 -7.482842e-02 -1.223410e+00 -3.430848e-01 2.408867e+00 2.035178e+00 -1.243255e+00 -3.710128e+00 -3.533610e-01 2.350572e+00 1.760089e+00 -9.140076e-01 -1.064193e+00 -7.590425e-03 -2.013511e-01 2.096964e-01 7.415469e-01 2.169928e-01 -4.456390e-01 -5.235703e-01 2.100572e-01 1.295466e-01 3.698507e-01 -3.806429e-03 -9.805421e-01 -5.186933e-01 -9.411553e-03
<VARIANCE> 39
 7.900085e+00 2.108907e+01 3.280214e+01 4.056118e+01 5.736692e+01 4.341854e+01 9.562286e+01 7.768392e+01 6.040250e+01 5.651003e+01 4.194888e+01 3.733695e+01 1.525718e-02 2.689792e-01 8.663004e-01 1.510121e+00 1.560088e+00 2.525157e+00 2.265359e+00 2.916205e+00 3.176075e+00 2.720450e+00 2.670965e+00 2.603490e+00 1.768853e+00 2.084185e-04 5.564924e-02 1.597053e-01 2.357483e-01 3.099992e-01 4.261813e-01 4.932156e-01 6.238836e-01 5.462952e-01 4.948213e-01 5.450155e-01 5.135105e-01 4.675899e-01 3.690278e-05
<GCONST> 8.751366e+01
<MIXTURE> 13 6.398410e-02
<MEAN> 39
 -8.109125e-01 -1.374810e+01 -1.156423e+01 -1.943781e+01 -7.524979e+00 1.898727e+00 -1.063726e+01 -3.052362e-01 -2.781157e+00 1.768185e+00 1.762438e-03 -7.949248e+00 8.102317e-01 -5.419930e-01 1.971954e+00 1.046887e+00 2.139035e+00 3.407820e-01 -2.301550e+00 -5.492591e-01 -2.056926e-01 -4.067625e-01 3.887830e-01 -5.161918e-01 4.813961e-01 -6.898974e-02 -6.610489e-01 8.257223e-01 2.654389e-01 7.360640e-01 3.654005e-01 -6.605606e-02 6.877324e-01 -4.609010e-01 -7.856796e-02 -3.783176e-01 -1.823950e-01 4.481851e-01 -2.718566e-02
<VARIANCE> 39
 8.847408e+00 2.955506e+01 3.738949e+01 5.477726e+01 4.712486e+01 8.357706e+01 4.995304e+01 4.833357e+01 5.698189e+01 6.310694e+01 7.854981e+01 3.865785e+01 8.716865e-03 8.335450e-01 2.326789e+00 2.275779e+00 2.721084e+00 4.307009e+00 3.433966e+00 4.750137e+00 4.474827e+00 4.635945e+00 4.663910e+00 3.667563e+00 3.788229e+00 7.961180e-04 3.514916e-01 2.814708e-01 4.098211e-01 5.022574e-01 5.895832e-01 7.847975e-01 6.731000e-01 7.063287e-01 6.682605e-01 7.327218e-01 6.955690e-01 5.039973e-01 2.270044e-04
<GCONST> 1.036443e+02
<MIXTURE> 14 7.243682e-02
<MEAN> 39
 -8.646031e-01 -1.044297e+01 -1.490835e+01 -1.881117e+01 -3.941491e+00 6.580384e+00 -9.548082e+00 -2.835850e+00 -2.737483e+00 -4.789621e+00 1.444828e+00 -5.390746e+00 7.550908e-01 -3.274582e-01 4.783386e-01 7.128094e-01 1.212411e+00 -6.522769e-02 -1.621409e+00 -1.130960e-01 5.716693e-02 -7.984671e-01 1.058036e+00 -3.959886e-01 -8.875602e-01 -3.307767e-02 -1.361111e-01 2.805653e-01 3.313412e-01 3.361640e-01 -1.888732e-01 -4.823371e-01 4.143545e-01 -1.863669e-01 -2.876454e-01 2.721475e-01 -3.399102e-01 6.987115e-02 -9.800941e-03
<VARIANCE> 39
 5.633963e+00 2.185616e+01 2.585568e+01 4.723265e+01 5.104019e+01 5.511717e+01 6.042056e+01 4.006362e+01 6.521893e+01 3.978159e+01 5.176656e+01 4.040526e+01 1.453276e-02 3.071224e-01 7.648700e-01 1.295051e+00 1.569138e+00 1.775808e+00 1.616858e+00 2.401357e+00 2.114414e+00 2.630942e+00 1.799702e+00 2.347159e+00 2.312711e+00 3.369630e-04 6.562754e-02 1.205297e-01 1.669096e-01 2.748939e-01 3.067595e-01 2.657848e-01 2.655512e-01 4.083958e-01 3.870498e-01 3.130358e-01 3.232877e-01 3.467015e-01 4.048129e-05
<GCONST> 8.073528e+01
<MIXTURE> 15 6.423281e-02
<MEAN> 39
 1.720106e+00 -1.259400e+01 -1.747197e+01 -1.653745e+01 -9.323825e+00 5.822540e+00 -4.790282e+00 -2.877243e+00 -3.839580e+00 -1.392966e+00 9.990417e-01 -5.302011e+00 8.455719e-01 -1.255309e-01 2.151065e-01 2.527639e-01 2.408419e-01 2.060751e-01 -6.802888e-01 -6.954097e-01 2.918757e-01 9.631599e-02 2.917349e-01 -2.946612e-01 -2.206181e-01 -1.189279e-02 -1.417064e-01 2.483328e-01 2.720011e-01 -3.834351e-02 8.106934e-02 -2.719103e-01 -1.447652e-01 6.517614e-02 -1.721572e-02 2.213965e-02 -1.238272e-01 -1.794353e-02 -6.696911e-03
<VARIANCE> 39
 6.828857e+00 2.953121e+01 3.812587e+01 6.545856e+01 3.323676e+01 4.464981e+01 5.807027e+01 3.567289e+01 3.914857e+01 4.143938e+01 4.822086e+01 3.932710e+01 1.056192e-02 1.763181e-01 5.423377e-01 6.864630e-01 8.766564e-01 8.968549e-01 1.098581e+00 1.172393e+00 9.912723e-01 1.160800e+00 1.001833e+00 9.315861e-01 7.579852e-01 1.087273e-04 2.744341e-02 8.285511e-02 9.352259e-02 1.253428e-01 1.223425e-01 1.988138e-01 2.133757e-01 1.551319e-01 1.585313e-01 1.573605e-01 1.581030e-01 1.462844e-01 2.679728e-05
<GCONST> 6.244806e+01
<MIXTURE> 16 2.974365e-02
<MEAN> 39
 -5.426879e+00 -1.756471e+01 -1.296122e+01 -1.792908e+01 -3.278064e-01 -4.940539e+00 -1.019937e+01 2.758411e+00 -5.461198e+00 -7.329465e+00 -1.149093e+01 -2.251737e+00 8.385360e-01 -2.079646e-01 1.300223e+00 1.224847e+00 3.139829e-01 -2.466872e+00 -2.335377e+00 1.262023e+00 2.949988e-01 -6.065582e-01 -2.060942e-01 -7.636874e-01 6.577007e-01 -3.834362e-02 6.643999e-02 7.041852e-01 1.847599e-01 3.475584e-01 -4.877930e-01 1.271971e-01 2.178770e-01 -7.234738e-01 -7.949258e-02 3.882264e-01 3.306611e-01 -1.140870e-01 -1.302582e-02
<VARIANCE> 39
 5.644496e+00 2.291023e+01 2.034348e+01 2.932187e+01 6.705823e+01 5.435354e+01 9.160709e+01 3.879094e+01 4.298182e+01 4.168121e+01 3.465911e+01 4.865849e+01 9.185854e-03 4.378924e-01 1.507856e+00 1.327125e+00 2.300165e+00 2.748043e+00 2.498935e+00 3.266232e+00 3.676055e+00 2.518872e+00 2.759879e+00 3.522138e+00 2.635092e+00 4.167563e-04 9.708205e-02 1.486657e-01 2.024517e-01 4.231013e-01 5.393333e-01 4.652011e-01 7.576994e-01 5.876423e-01 6.094656e-01 3.751946e-01 4.894691e-01 4.577275e-01 6.727887e-05
<GCONST> 8.957005e+01
<TRANSP> 5
 0.000000e+00 1.000000e+00 0.000000e+00 0.000000e+00 0.000000e+00
 0.000000e+00 7.144473e-01 2.855527e-01 0.000000e+00 0.000000e+00
 0.000000e+00 0.000000e+00 8.124677e-01 1.875323e-01 0.000000e+00
 0.000000e+00 0.000000e+00 0.000000e+00 7.477810e-01 2.522190e-01
 0.000000e+00 0.000000e+00 0.000000e+00 0.000000e+00 0.000000e+00
<ENDHMM>
