~o
<STREAMINFO> 1 39
<VECSIZE> 39<NULLD><MFCC_E_D_A><DIAGC>
~h "ay"
<BEGINHMM>
<NUMSTATES> 5
<STATE> 2
<NUMMIXES> 16
<MIXTURE> 1 5.779405e-02
<MEAN> 39
 -1.063132e+00 -1.718263e+01 -1.435742e+01 -1.430657e+01 -6.741998e+00 6.337527e-01 4.902583e-01 -7.682890e+00 6.888024e+00 -3.746268e+00 -9.999924e-01 -9.751139e+00 9.156128e-01 -2.547207e-02 -6.051445e-01 -3.095032e-01 1.865250e-01 4.259172e-01 -7.791723e-03 6.617597e-01 -2.080944e-01 4.393944e-01 -2.525421e-01 -6.674356e-01 -2.727795e-01 1.461710e-02 -1.919346e-01 4.568628e-01 2.590999e-01 3.415228e-01 1.278907e-01 -3.103456e-01 -3.182502e-01 4.626730e-01 -3.700818e-01 1.029971e-01 -1.062058e-01 2.988771e-01 -1.423516e-02
<VARIANCE> 39
 7.909600e+00 1.934701e+01 1.628407e+01 3.163650e+01 3.840256e+01 6.394933e+01 3.618599e+01 3.882418e+01 3.051587e+01 2.374536e+01 4.013371e+01 2.705802e+01 4.687118e-03 3.103710e-01 6.610404e-01 8.212752e-01 9.090425e-01 1.151948e+00 1.071046e+00 1.172209e+00 1.161189e+00 9.617493e-01 1.244958e+00 9.958156e-01 1.208746e+00 2.128763e-04 8.245850e-02 1.171524e-01 1.203696e-01 1.649494e-01 2.211972e-01 2.354005e-01 2.486131e-01 2.187306e-01 1.998472e-01 1.746549e-01 1.911005e-01 1.897773e-01 5.855857e-05
<GCONST> 6.592860e+01
<MIXTURE> 2 6.057799e-02
<MEAN> 39
 -3.358734e+00 -1.858367e+01 -1.333695e+01 -1.827581e+01 -3.221621e+00 -3.933418e+00 -5.788141e+00 9.974028e-01 -5.575480e+00 -9.915970e-01 -1.327166e+01 -2.823759e+00 8.769822e-01 9.817849e-02 -2.211944e+00 -1.914668e-02 -2.165581e-01 1.121153e+00 1.098919e+00 3.778099e-01 8.304292e-01 -2.316280e-01 1.389692e-03 -4.665076e-01 6.423864e-01 3.955129e-02 -8.861436e-01 8.875284e-01 5.831594e-01 9.726295e-01 -4.009727e-02 -6.514215e-02 2.675683e-01 -2.381889e-01 1.546495e-01 -2.556973e-01 8.113234e-01 2.253059e-01 -3.085266e-02
<VARIANCE> 39
 8.534571e+00 2.195866e+01 2.705663e+01 3.114705e+01 3.954723e+01 5.282249e+01 5.029238e+01 4.247286e+01 3.494386e+01 7.322193e+01 2.780622e+01 3.178427e+01 6.891155e-03 7.499040e-01 1.528187e+00 2.069468e+00 1.999232e+00 3.430093e+00 3.290481e+00 2.551348e+00 2.354008e+00 2.051969e+00 2.795571e+00 2.393722e+00 1.697204e+00 4.867313e-04 2.940660e-01 2.604347e-01 3.316053e-01 4.112267e-01 5.333329e-01 5.549553e-01 6.736738e-01 6.517941e-01 5.097333e-01 7.769901e-01 4.663684e-01 4.073862e-01 2.123600e-04
<GCONST> 9.225932e+01
<MIXTURE> 3 5.956971e-02
<MEAN> 39
 -1.224546e+00 -1.494082e+01 -1.630868e+01 -1.935118e+01 -3.238222e+00 2.310337e+00 5.128772e-01 -5.920313e+00 7.727739e-01 -1.740440e+00 -9.318057e-01 -6.485847e+00 9.438752e-01 -2.272540e-01 -5.370132e-01 9.610686e-02 2.138545e-01 7.213131e-01 -4.540081e-02 2.355968e-01 -5.759122e-01 4.715868e-01 4.425001e-02 -5.961866e-01 -5.254936e-01 3.709032e-03 8.573015e-02 1.387404e-02 1.294034e-01 2.529319e-01 -2.318015e-01 -2.983381e-01 -3.134382e-01 2.935952e-01 9.733031e-02 -1.070679e-01 -2.256590e-02 6.003609e-02 -4.184175e-03
<VARIANCE> 39
 1.104062e+01 2.378605e+01 2.000802e+01 5.120979e+01 5.274873e+01 5.805938e+01 5.641389e+01 5.778131e+01 5.451611e+01 4.078397e+01 5.083475e+01 4.407310e+01 2.546744e-03 2.257350e-01 3.572355e-01 3.902434e-01 9.158094e-01 6.826141e-01 8.645907e-01 1.198639e+00 1.251366e+00 9.895965e-01 1.015400e+00 1.081106e+00 1.082713e+00 7.522788e-05 3.143734e-02 5.468024e-02 8.195467e-02 1.206832e-01 1.381245e-01 1.446421e-01 1.795134e-01 1.686325e-01 1.377086e-01 1.620530e-01 1.877863e-01 2.250360e-01 1.500376e-05
<GCONST> 6.027689e+01
<MIXTURE> 4 4.061598e-02
<MEAN> 39
 -2.272931e+00 -1.172140e+01 -1.420876e+01 -1.581686e+01 -1.701998e+00 1.549711e-01 9.704685e-01 -6.852502e+00 -1.271492e-01 2.869683e-01 -3.218522e+00 -2.861639e+00 7.459249e-01 2.695940e+00 -2.300838e+00 -8.738248e-01 -2.193091e+00 -3.994730e-01 3.915286e-01 1.760317e-02 -7.703725e-01 3.976291e-01 1.067640e-01 -8.625337e-02 -5.843698e-01 1.232694e-01 -1.018621e+00 -7.675245e-02 3.786109e-01 5.069114e-01 4.792876e-04 -1.127820e-01 -2.537635e-01 5.750673e-01 8.196942e-02 -1.458698e-01 -1.214312e-01 -1.014178e-01 -2.376062e-02
<VARIANCE> 39
 1.664225e+01 2.326750e+01 2.611148e+01 5.343695e+01 5.333155e+01 5.274964e+01 3.576719e+01 3.888626e+01 3.199709e+01 3.511231e+01 4.036385e+01 2.068623e+01 1.784414e-02 2.569783e+00 2.986023e+00 2.671607e+00 4.020188e+00 3.526432e+00 3.906677e+00 3.844196e+00 4.512613e+00 3.806441e+00 2.681333e+00 2.911325e+00 1.896472e+00 3.317303e-03 4.838849e-01 2.885182e-01 3.509625e-01 6.539132e-01 6.447662e-01 3.882654e-01 4.746896e-01 4.754601e-01 4.443275e-01 4.092671e-01 4.167761e-01 2.677801e-01 4.562721e-04
<GCONST> 1.000895e+02
<MIXTURE> 5 6.647957e-02
<MEAN> 39
 -1.288179e+00 -1.859276e+01 -1.215227e+01 -1.790406e+01 -4.891011e+00 3.184325e+00 -8.332730e+00 1.050230e+00 -2.157961e-01 3.428715e+00 -4.789653e+00 -1.040677e+01 9.256918e-01 -5.336865e-01 -9.366899e-01 1.153839e+00 1.704345e+00 -1.029008e-01 -2.403952e+00 -5.134625e-01 1.975354e+00 1.217808e+00 -7.245952e-01 -1.918224e+00 -3.080364e-01 -2.520161e-03 -6.083697e-02 5.586759e-01 3.904709e-01 8.641328e-02 -6.195303e-01 -7.258744e-01 2.983769e-01 3.739912e-01 -3.446417e-01 -5.475920e-01 2.536613e-01 9.301255e-01 -9.229601e-03
<VARIANCE> 39
 8.106634e+00 2.336069e+01 2.266619e+01 3.231251e+01 4.724997e+01 5.856278e+01 4.286403e+01 5.351754e+01 5.804543e+01 3.872128e+01 4.575637e+01 3.461388e+01 4.484074e-03 3.403726e-01 9.195522e-01 1.189529e+00 2.136542e+00 2.022291e+00 2.581718e+00 2.934323e+00 2.274339e+00 1.883206e+00 2.062349e+00 1.578882e+00 2.082511e+00 2.015511e-04 5.656799e-02 1.612204e-01 1.656246e-01 2.446094e-01 3.140506e-01 3.639248e-01 4.104552e-01 4.159490e-01 4.930541e-01 3.164577e-01 4.292442e-01 3.520790e-01 3.772652e-05
<GCONST> 8.044591e+01
<MIXTURE> 6 6.804375e-02
<MEAN> 39
 -3.798896e-01 -1.882612e+01 -1.017394e+01 -2.211777e+01 -3.408676e+00 5.656910e+00 -7.113250e+00 -9.534812e-02 -2.921048e+00 4.882937e+00 -5.133148e+00 -7.078556e+00 9.176664e-01 -1.126959e-01 -1.228242e+00 1.659205e-01 4.787522e-01 4.565930e-01 2.630544e-01 -1.144305e-01 4.518935e-01 5.735065e-01 -3.361369e-01 -8.270112e-01 -4.362837e-01 1.694011e-02 -3.724869e-01 6.935311e-01 8.930138e-02 8.344781e-01 -9.148262e-02 -6.756243e-01 1.620116e-01 -3.775975e-02 1.019986e-01 -4.531416e-01 3.677230e-02 2.444176e-01 -1.905811e-02
<VARIANCE> 39
 7.628689e+00 2.515658e+01 2.539437e+01 2.822501e+01 3.351432e+01 4.599823e+01 3.429447e+01 2.776837e+01 3.000008e+01 2.803837e+01 3.023980e+01 2.349224e+01 4.486592e-03 2.823888e-01 9.355053e-01 9.010776e-01 1.329556e+00 1.375749e+00 1.824746e+00 1.229236e+00 1.597431e+00 1.140393e+00 1.364914e+00 1.419849e+00 1.131956e+00 2.040293e-04 1.344088e-01 1.702646e-01 1.992735e-01 2.533158e-01 2.566292e-01 2.945454e-01 2.596026e-01 2.914430e-01 2.747115e-01 2.598062e-01 2.169999e-01 2.480362e-01 9.649053e-05
<GCONST> 7.173149e+01
<MIXTURE> 7 4.025875e-02
<MEAN> 39
 -2.157274e+00 -1.712674e+01 -6.505996e+00 -1.561764e+01 -1.067292e+01 -3.948106e+00 -1.134592e+01 5.774056e+00 3.047277e+00 1.707832e+00 -4.770717e+00 -8.323211e+00 8.760384e-01 1.054926e+00 -2.358938e+00 -1.157593e+00 -1.187456e+00 1.635100e-01 2.020320e+00 1.737019e-01 8.090359e-01 6.366971e-01 -3.973455e-01 -5.962337e-01 -1.560374e+00 4.488272e-02 -9.265518e-01 7.292351e-01 -3.210136e-02 5.931849e-01 5.587187e-01 1.448573e-01 8.572233e-01 -6.835200e-01 -3.857753e-01 -4.372782e-01 8.330389e-02 5.175534e-01 -2.168547e-02
<VARIANCE> 39
 8.300101e+00 2.007820e+01 2.498932e+01 2.982218e+01 3.374093e+01 5.539850e+01 4.096320e+01 2.871362e+01 2.750620e+01 4.044447e+01 2.665549e+01 2.748974e+01 5.365276e-03 1.362946e+00 2.027545e+00 2.548573e+00 2.168517e+00 3.154039e+00 2.615606e+00 3.809212e+00 3.103455e+00 2.602473e+00 2.338662e+00 2.299826e+00 1.995781e+00 6.240221e-04 4.155696e-01 2.520667e-01 2.956394e-01 3.284701e-01 3.731460e-01 5.409716e-01 4.927273e-01 4.606657e-01 4.792549e-01 5.206555e-01 4.029759e-01 4.373944e-01 1.123963e-04
<GCONST> 8.976158e+01
<MIXTURE> 8 5.542659e-02
<MEAN> 39
 -4.114572e+00 -1.270663e+01 -1.406943e+01 -1.547757e+01 -5.381442e+00 -6.778428e+00 -7.221128e+00 -3.125558e+00 -4.992254e+00 -4.553715e+00 -1.206467e+01 -3.899040e+00 7.591308e-01 2.989293e+00 -2.981472e+00 -1.591746e+00 -2.321767e+00 -1.259783e-01 -4.827916e-02 -9.855934e-01 2.702739e-01 -4.929843e-01 -3.939245e-05 -1.805907e+00 -5.461038e-01 1.069385e-01 -1.287045e+00 5.219940e-02 4.383496e-01 6.212062e-01 4.061463e-01 6.046351e-01 6.769090e-01 4.231352e-01 3.054407e-01 3.279238e-01 8.817917e-01 4.213060e-01 -2.074300e-02
<VARIANCE> 39
 1.009828e+01 2.759378e+01 2.586248e+01 2.580300e+01 3.715199e+01 4.782465e+01 4.219986e+01 3.825137e+01 4.035267e+01 6.222666e+01 2.359591e+01 2.768427e+01 1.162596e-02 2.594089e+00 2.719342e+00 2.653220e+00 2.965220e+00 4.600197e+00 4.131560e+00 5.061328e+00 3.883036e+00 3.731243e+00 4.153923e+00 3.760942e+00 2.779294e+00 2.065716e-03 3.363222e-01 4.048382e-01 4.163786e-01 4.994483e-01 5.768297e-01 6.260270e-01 5.729037e-01 5.185750e-01 5.993857e-01 8.225153e-01 4.266706e-01 4.374262e-01 5.164260e-04
<GCONST> 1.016291e+02
<MIXTURE> 9 6.679058e-02
<MEAN> 39
 -4.777211e+00 -1.641691e+01 -1.569761e+01 -1.786427e+01 2.769282e+00 -2.962922e+00 -8.228927e+00 -2.306769e+00 -2.398095e+00 -6.802119e+00 -9.325520e+00 -2.673846e+00 8.754920e-01 -3.687506e-01 -1.200894e+00 4.851798e-01 7.618202e-01 6.639412e-01 -1.398959e-02 3.143960e-01 4.782569e-01 -7.969086e-02 -7.929301e-01 -3.818293e-02 9.957433e-01 1.393235e-02 -8.795161e-02 5.117035e-01 5.259780e-01 3.649529e-01 -7.852711e-01 -4.781130e-01 2.747648e-01 -1.925300e-01 -3.112283e-01 1.913937e-01 2.196440e-01 3.238616e-02 -1.286491e-02
<VARIANCE> 39
 6.980637e+00 2.485587e+01 2.394448e+01 4.420591e+01 3.972780e+01 5.291463e+01 5.510292e+01 4.391882e+01 4.331254e+01 4.753835e+01 3.277417e+01 3.872001e+01 1.025644e-02 4.180939e-01 9.199207e-01 9.487517e-01 1.928141e+00 2.528509e+00 1.945553e+00 2.647164e+00 2.076682e+00 2.170702e+00 2.167336e+00 1.967919e+00 1.610986e+00 3.040701e-04 8.140530e-02 1.602024e-01 2.398648e-01 3.656462e-01 3.302069e-01 4.217923e-01 4.042373e-01 4.775325e-01 4.475960e-01 4.469791e-01 4.559095e-01 4.250958e-01 6.470449e-05
<GCONST> 8.370119e+01
<MIXTURE> 10 8.745988e-02
<MEAN> 39
 -2.291216e-01 -1.511864e+01 -1.386508e+01 -2.135301e+01 -4.721829e+00 9.612451e+00 -6.741900e+00 -5.557526e+00 7.874938e-01 -2.058430e+00 1.362823e+00 -6.499443e+00 8.885723e-01 -3.165803e-01 -1.176126e+00 2.514386e-01 1.661469e+00 6.425702e-01 -9.353383e-01 -1.065349e+00 3.587643e-01 1.285616e+00 1.803394e-01 -9.617488e-01 -1.307065e+00 6.108701e-04 -5.336565e-02 2.712274e-01 2.511722e-01 3.064870e-01 -3.989353e-01 -7.249722e-01 5.742322e-02 5.200995e-01 -1.103609e-01 -5.616331e-02 -3.983774e-01 1.760936e-01 -6.213055e-03
<VARIANCE> 39
 7.043003e+00 2.537799e+01 2.569591e+01 3.276572e+01 4.487393e+01 4.649219e+01 5.474439e+01 4.775761e+01 6.079149e+01 4.657601e+01 3.774236e+01 3.534151e+01 7.884564e-03 1.607293e-01 5.061449e-01 5.531521e-01 9.910424e-01 1.061245e+00 1.356496e+00 1.083845e+00 1.439268e+00 1.357216e+00 1.384353e+00 1.197392e+00 1.242720e+00 1.123582e-04 3.793124e-02 8.216020e-02 1.188735e-01 1.778565e-01 2.088103e-01 1.898163e-01 2.455454e-01 3.006575e-01 2.527408e-01 2.247398e-01 1.652675e-01 2.427839e-01 2.527421e-05
<GCONST> 6.691422e+01
<MIXTURE> 11 8.966126e-02
<MEAN> 39
 -3.795222e+00 -1.776573e+01 -1.230344e+01 -1.252174e+01 -5.526283e+00 -4.643378e+00 -2.504759e+00 6.419140e-01 -5.965698e-01 -4.232997e+00 -9.328225e+00 -3.964632e+00 8.695427e-01 7.793386e-02 -5.183017e-01 -6.711507e-01 1.973604e-01 1.136020e+00 9.310387e-01 1.961756e-01 -9.289893e-01 2.579266e-01 -2.291945e-01 -1.216828e-01 3.871284e-02 9.455092e-03 -6.311872e-02 3.350825e-01 3.235114e-01 2.628647e-02 -2.503197e-01 -2.460946e-01 -1.822245e-01 -5.321291e-02 -1.627753e-01 8.059330e-02 2.773800e-01 7.241125e-02 -7.374276e-03
<VARIANCE> 39
 7.328096e+00 2.899418e+01 3.367372e+01 3.037250e+01 4.328475e+01 3.918655e+01 3.665240e+01 5.770597e+01 6.055812e+01 4.281785e+01 2.538037e+01 3.216216e+01 9.132463e-03 4.380774e-01 8.759314e-01 1.787099e+00 1.347568e+00 2.131568e+00 1.688864e+00 2.172930e+00 2.510716e+00 1.782665e+00 2.044210e+00 1.870470e+00 1.348105e+00 2.217980e-04 7.505576e-02 1.406344e-01 2.069745e-01 1.782215e-01 2.611797e-01 2.057380e-01 2.859159e-01 4.163886e-01 2.667268e-01 3.122031e-01 2.523214e-01 2.025170e-01 4.831301e-05
<GCONST> 7.733121e+01
<MIXTURE> 12 7.925911e-02
<MEAN> 39
 -1.280374e+00 -1.809217e+01 -1.269394e+01 -1.311133e+01 -7.739456e+00 6.395440e+00 -1.214644e+01 3.123055e+00 -3.978781e-01 -4.160665e+00 -3.206356e+00 -8.947492e+00 8.631528e-01 1.042770e-01 -7.509933e-01 1.004704e-02 1.964212e-01 -1.935603e-02 6.468301e-01 -3.206267e-02 -1.142985e-01 2.540811e-01 -5.317407e-01 1.000665e-01 -1.425504e-01 1.247967e-02 -1.844292e-01 3.578468e-01 2.740513e-01 1.127580e-01 3.197461e-02 -6.937244e-01 3.831965e-01 -1.377756e-01 -1.077013e-01 1.285376e-01 -1.501092e-01 3.119690e-01 -9.085080e-03
<VARIANCE> 39
 6.896896e+00 2.697106e+01 3.149724e+01 2.935242e+01 3.435638e+01 4.713355e+01 3.478143e+01 3.339520e+01 4.742451e+01 3.901887e+01 4.015201e+01 3.354242e+01 8.400606e-03 4.019276e-01 8.794620e-01 1.149716e+00 1.428246e+00 1.574281e+00 2.151294e+00 2.005444e+00 1.907360e+00 1.622811e+00 1.422770e+00 1.564440e+00 1.329168e+00 4.108229e-04 7.522414e-02 1.485138e-01 1.438468e-01 1.951546e-01 2.465073e-01 2.210539e-01 2.460046e-01 2.885153e-01 3.005950e-01 2.148696e-01 2.351844e-01 2.247306e-01 6.805710e-05
<GCONST> 7.502021e+01
<MIXTURE> 13 4.755821e-02
<MEAN> 39
 8.524084e-01 -1.578652e+01 -1.243090e+01 -1.966425e+01 -1.013295e+01 7.969008e+00 -6.315794e+00 -3.973734e+00 1.785882e-01 -5.856133e-01 4.117527e+00 -9.251510e+00 8.879095e-01 3.910108e-01 -2.222217e+00 -2.964732e-01 -4.839731e-01 -5.940217e-02 1.089460e+00 -4.290180e-01 1.625472e-01 1.182323e+00 -3.390181e-01 -2.310844e-01 -1.668755e+00 4.564375e-02 -1.085112e+00 6.502424e-01 3.597800e-01 1.154985e+00 7.192810e-01 -9.073294e-01 2.059498e-01 2.820877e-01 -9.405451e-02 -4.540685e-02 -7.896931e-01 4.151770e-01 -3.395776e-02
<VARIANCE> 39
 6.132081e+00 2.100192e+01 2.086739e+01 3.859993e+01 3.684395e+01 4.328540e+01 3.761966e+01 4.026657e+01 4.353084e+01 3.448826e+01 3.782619e+01 3.084662e+01 4.516957e-03 1.271755e+00 1.459892e+00 1.168265e+00 2.864338e+00 2.729504e+00 3.027708e+00 2.412797e+00 2.343806e+00 1.846983e+00 2.215433e+00 2.373196e+00 1.914773e+00 8.060171e-04 3.843038e-01 2.094062e-01 3.298056e-01 4.908333e-01 4.132943e-01 4.975312e-01 3.963159e-01 6.322197e-01 4.868656e-01 3.371883e-01 3.544486e-01 4.389675e-01 1.475122e-04
<GCONST> 8.857561e+01
<MIXTURE> 14 6.365447e-02
<MEAN> 39
 -1.787845e+00 -1.335389e+01 -1.669756e+01 -1.347203e+01 -5.145992e+00 -4.224985e+00 1.183263e+00 -8.261603e+00 5.356245e+00 -3.348453e+00 -3.263509e+00 -6.255311e+00 8.552172e-01 3.038258e-02 -1.552762e+00 -7.090828e-01 -1.090477e-01 7.285424e-01 1.569556e-01 1.050279e+00 -3.492581e-01 1.098785e+00 -4.416616e-01 -7.996212e-01 -3.793115e-01 3.475668e-02 -7.462875e-01 4.297689e-01 8.217375e-01 5.377539e-01 1.997932e-01 -7.747490e-02 -2.508401e-01 4.243386e-01 -6.565754e-01 4.511811e-02 -4.544919e-02 2.719497e-01 -2.455529e-02
<VARIANCE> 39
 1.148824e+01 1.901985e+01 2.628577e+01 4.824119e+01 4.856285e+01 6.045054e+01 3.893444e+01 4.573467e+01 4.618747e+01 4.151147e+01 4.568678e+01 3.160422e+01 7.845933e-03 6.942414e-01 9.876907e-01 1.690759e+00 1.690527e+00 2.949387e+00 2.395843e+00 2.841109e+00 2.986865e+00 2.783657e+00 2.458183e+00 2.241527e+00 1.999810e+00 4.347862e-04 2.591718e-01 2.408323e-01 2.711524e-01 5.562842e-01 5.032281e-01 5.504395e-01 4.834501e-01 5.281461e-01 5.730620e-01 4.889255e-01 5.360128e-01 4.127229e-01 1.400832e-04
<GCONST> 9.114551e+01
<MIXTURE> 15 4.432519e-02
<MEAN> 39
 -2.410755e+00 -1.141948e+01 -1.309677e+01 -1.159459e+01 -4.891901e+00 -6.708356e-02 -4.786153e+00 -1.837132e+00 1.803901e+00 -1.842714e+00 -1.822114e+00 -9.634832e+00 7.581645e-01 2.459573e+00 -2.228901e+00 -1.159481e+00 -1.494160e+00 -1.209864e+00 8.723254e-01 -7.715543e-01 -7.329139e-01 8.483358e-01 -6.686363e-01 5.881150e-01 -1.654224e+00 9.634365e-02 -1.048682e+00 -1.588041e-01 3.248567e-01 6.947774e-02 1.317734e-01 -9.742603e-02 2.995820e-01 1.865741e-01 -4.514644e-02 -3.033081e-02 -1.371529e-01 5.510425e-01 -1.474115e-02
<VARIANCE> 39
 8.168927e+00 1.956026e+01 1.800313e+01 2.891011e+01 2.578125e+01 5.242381e+01 2.846992e+01 2.932514e+01 4.073170e+01 3.054910e+01 3.274308e+01 1.520031e+01 1.081498e-02 2.536993e+00 1.833113e+00 2.051785e+00 2.104021e+00 3.115689e+00 3.647812e+00 2.761407e+00 3.318501e+00 2.991894e+00 2.051487e+00 2.668481e+00 1.927846e+00 1.553456e-03 3.686995e-01 2.491552e-01 2.991520e-01 3.802180e-01 4.405468e-01 4.188770e-01 3.977340e-01 3.826518e-01 4.984993e-01 4.118325e-01 3.506445e-01 2.822078e-01 2.534715e-04
<GCONST> 9.007169e+01
<MIXTURE> 16 7.250593e-02
<MEAN> 39
 -9.953665e-01 -1.274250e+01 -2.011885e+01 -1.242392e+01 -2.094546e+00 -4.121229e+00 3.298401e+00 -8.254021e+00 2.889593e+00 -1.610808e+00 -3.103440e+00 -7.355833e+00 8.808084e-01 -3.274854e-01 -4.579177e-01 5.844590e-01 7.978260e-01 8.197352e-02 -7.657971e-01 -3.898483e-01 5.892987e-01 7.320983e-01 -3.411394e-01 -8.879794e-01 -3.375410e-01 -3.600520e-03 -3.186624e-02 -1.473046e-02 5.092599e-01 -2.068257e-02 -5.080408e-01 -9.900858e-02 -3.862317e-01 5.817524e-01 -5.050380e-02 -2.126302e-01 7.172220e-03 2.576266e-01 -3.343298e-03
<VARIANCE> 39
 1.034270e+01 2.206167e+01 1.956254e+01 3.945180e+01 4.192229e+01 5.383412e+01 3.916042e+01 4.501619e+01 4.000473e+01 3.414772e+01 4.301367e+01 2.883207e+01 8.027843e-03 2.743025e-01 9.132691e-01 1.197780e+00 1.888951e+00 1.975177e+00 2.088876e+00 2.356529e+00 2.556160e+00 1.973613e+00 1.385990e+00 1.736275e+00 1.728483e+00 1.845950e-04 5.497545e-02 1.265928e-01 1.606753e-01 2.689982e-01 3.157160e-01 2.863047e-01 3.696482e-01 3.925194e-01 3.112999e-01 2.586312e-01 2.855299e-01 2.653943e-01 3.015405e-05
<GCONST> 7.667189e+01
<STATE> 3
<NUMMIXES> 16
<MIXTURE> 1 4.053853e-02
<MEAN> 39
 -2.033852e-01 -2.261613e+01 -7.503298e+00 -1.335914e+01 -1.010487e+01 8.698503e-01 -1.148852e+01 1.065446e+01 -6.517757e-01 8.828717e-01 -6.249721e+00 -7.793772e+00 9.127476e-01 -5.010725e-02 1.326224e-01 3.681309e-01 2.068420e-01 -2.277432e-01 -7.212939e-01 -2.574670e-01 5.555843e-01 9.024592e-02 -9.709811e-02 -1.993212e-01 4.447635e-01 -6.484366e-03 -9.881035e-03 1.929505e-01 -1.403189e-02 -7.666386e-03 -2.121785e-02 -1.104332e-01 -1.108498e-02 -2.220605e-01 9.639652e-02 -8.271911e-03 1.798060e-01 1.010967e-01 -2.145630e-03
<VARIANCE> 39
 9.686044e+00 1.454172e+01 2.061189e+01 2.340889e+01 4.315013e+01 4.910786e+01 4.568230e+01 3.161371e+01 3.266633e+01 2.806823e+01 2.818101e+01 2.075143e+01 4.852827e-03 1.719232e-01 3.306316e-01 6.333047e-01 7.703436e-01 7.455993e-01 1.045751e+00 9.975789e-01 1.118499e+00 7.691379e-01 7.021409e-01 7.438433e-01 7.773858e-01 7.219623e-05 2.015398e-02 2.826946e-02 6.450306e-02 7.203278e-02 8.954450e-02 1.091462e-01 1.193565e-01 1.214017e-01 7.361487e-02 8.697147e-02 8.995879e-02 8.463553e-02 8.738059e-06
<GCONST> 4.789647e+01
<MIXTURE> 2 5.236699e-02
<MEAN> 39
 -5.247977e+00 -1.860085e+01 -1.305399e+01 -1.554428e+01 -8.000953e-01 -6.195915e+00 -3.276181e+00 -3.917758e+00 -3.838108e-01 -6.702696e+00 -9.218568e+00 -3.524019e+00 8.926719e-01 1.381936e-02 8.348917e-02 9.760444e-02 1.980264e-01 -2.757387e-02 8.544647e-02 -2.859977e-02 1.514656e-01 1.179252e-01 -1.347537e-01 1.742993e-01 2.040467e-01 -2.792955e-03 9.252664e-02 1.711294e-01 3.557528e-03 1.406994e-01 -1.915924e-01 2.211711e-02 -5.305252e-03 1.414981e-01 3.454552e-02 1.068771e-01 1.212379e-01 1.388682e-02 -2.306063e-03
<VARIANCE> 39
 8.923584e+00 2.254321e+01 2.549329e+01 2.873183e+01 4.023215e+01 5.252781e+01 6.975505e+01 4.183365e+01 8.411089e+01 4.825218e+01 3.871169e+01 3.431813e+01 6.247604e-03 2.287793e-01 3.572983e-01 5.503691e-01 6.222124e-01 9.433879e-01 7.987242e-01 1.241483e+00 9.623540e-01 9.104110e-01 1.040149e+00 7.001746e-01 6.979160e-01 7.588846e-05 3.503577e-02 7.258289e-02 1.019145e-01 8.785813e-02 1.768559e-01 1.314356e-01 2.249076e-01 1.918577e-01 1.903295e-01 1.655624e-01 1.535561e-01 1.212104e-01 1.623432e-05
<GCONST> 5.963508e+01
<MIXTURE> 3 7.160036e-02
<MEAN> 39
 -1.655108e+00 -1.856751e+01 -1.116236e+01 -1.159307e+01 -9.372677e+00 -1.690507e+00 -6.047142e+00 1.069927e+00 8.080343e+00 -4.554940e+00 -3.912021e+00 -1.086062e+01 8.917122e-01 -4.413224e-01 1.407807e-02 1.720109e+00 1.141842e+00 -1.716852e+00 -2.415016e+00 -4.621921e-01 2.704632e+00 -1.554977e-01 -8.286181e-01 -6.066841e-01 1.084843e+00 -1.299236e-02 -3.768052e-02 4.465722e-01 3.558274e-01 -2.200492e-01 -3.388774e-01 -1.377497e-01 9.833777e-02 -3.994765e-02 -8.063385e-01 2.063456e-01 5.477417e-01 6.393303e-01 -6.285053e-03
<VARIANCE> 39
 7.672999e+00 2.201748e+01 2.177670e+01 2.160903e+01 3.819818e+01 5.635057e+01 5.612976e+01 4.850430e+01 3.576552e+01 3.449312e+01 3.224774e+01 2.375285e+01 6.943529e-03 2.395843e-01 6.213978e-01 9.568360e-01 1.163891e+00 1.473498e+00 1.832818e+00 1.938883e+00 1.740603e+00 1.822490e+00 1.736297e+00 1.813596e+00 1.716551e+00 9.965435e-05 4.539263e-02 1.013988e-01 1.275310e-01 1.740594e-01 2.156983e-01 2.455002e-01 3.140828e-01 3.482019e-01 2.983411e-01 2.713272e-01 3.042972e-01 2.475032e-01 2.471707e-05
<GCONST> 7.077168e+01
<MIXTURE> 4 6.057509e-02
<MEAN> 39
 -2.667891e+00 -2.080281e+01 -6.005119e+00 -1.472772e+01 -6.472265e+00 -4.820444e+00 -6.040272e+00 7.902403e+00 -1.091260e+00 -7.106662e-01 -1.238826e+01 -3.104588e+00 8.645308e-01 -4.808723e-01 4.997518e-01 1.643203e+00 4.475321e-01 -1.794812e+00 -2.120001e+00 7.693709e-01 1.764756e+00 -6.011554e-01 -8.019977e-01 5.817082e-01 1.080693e+00 -1.310438e-02 4.745740e-03 3.680514e-01 8.932560e-02 -1.579171e-01 -2.750185e-01 1.517146e-01 -2.674743e-02 -4.124376e-01 -2.863398e-01 2.306923e-01 7.089718e-01 -1.097842e-01 -3.471193e-03
<VARIANCE> 39
 6.404160e+00 1.909899e+01 2.649776e+01 2.469837e+01 3.026572e+01 3.844099e+01 3.422472e+01 2.494881e+01 3.969215e+01 2.897649e+01 2.022375e+01 1.805796e+01 7.949131e-03 1.938474e-01 4.635962e-01 6.231557e-01 8.572690e-01 1.225102e+00 1.289463e+00 1.861959e+00 1.481205e+00 1.582016e+00 1.075555e+00 1.358397e+00 9.091098e-01 7.783974e-05 3.160714e-02 7.784341e-02 9.935599e-02 1.311021e-01 1.897802e-01 1.760829e-01 1.966131e-01 2.203580e-01 2.242199e-01 2.288899e-01 1.837447e-01 1.598077e-01 1.408213e-05
<GCONST> 6.005274e+01
<MIXTURE> 5 5.393422e-02
<MEAN> 39
 -4.691314e+00 -1.804920e+01 -1.418701e+01 -1.193961e+01 -3.479190e+00 -3.792217e+00 -5.385663e+00 -1.009955e-02 -2.455641e+00 -5.465708e+00 -9.686550e+00 -2.749818e+00 8.929917e-01 -1.898233e-02 1.860420e-02 2.667633e-01 1.623740e-01 -2.160609e-01 -2.045388e-01 1.984802e-01 4.070366e-01 -6.428915e-02 -2.953304e-02 2.983872e-02 2.324487e-01 -2.981020e-03 1.765803e-02 5.112182e-02 7.453632e-02 -3.659119e-02 -6.576438e-02 -5.726618e-02 8.007863e-02 3.107720e-02 8.454984e-02 -8.849999e-03 7.594283e-02 -2.842490e-03 -8.611928e-04
<VARIANCE> 39
 9.343211e+00 2.123894e+01 2.717960e+01 2.270182e+01 3.278677e+01 4.723565e+01 5.692969e+01 4.618965e+01 6.916820e+01 3.842804e+01 2.546173e+01 2.993376e+01 5.858824e-03 7.251640e-02 1.654883e-01 2.217264e-01 2.447872e-01 3.634909e-01 4.740771e-01 5.472388e-01 5.163877e-01 3.886736e-01 4.230022e-01 4.535342e-01 3.409638e-01 3.579074e-05 1.292729e-02 1.809835e-02 3.148688e-02 3.114596e-02 5.389533e-02 6.075596e-02 7.100333e-02 7.139028e-02 5.795791e-02 6.412726e-02 6.428905e-02 5.505636e-02 3.959033e-06
<GCONST> 3.375351e+01
<MIXTURE> 6 6.057280e-02
<MEAN> 39
 -7.799497e-01 -1.817857e+01 -1.143395e+01 -1.540477e+01 -3.500369e+00 2.405299e-01 -5.583076e+00 5.047817e-01 -2.864472e-02 3.769096e+00 -8.264254e+00 -7.298437e+00 8.447744e-01 -3.050883e-01 -3.206438e-01 8.834856e-01 1.217408e+00 -6.381825e-01 -1.898968e+00 -1.733915e-01 1.673043e+00 7.083362e-01 -7.677926e-01 -1.000590e+00 2.353146e-01 -9.137910e-03 -3.369303e-02 2.557534e-01 1.876550e-01 -4.184421e-02 -4.215675e-01 -1.638450e-01 7.782795e-02 2.042615e-01 -1.078381e-01 -3.110376e-01 3.502890e-01 3.136891e-01 -2.936639e-03
<VARIANCE> 39
 5.876317e+00 2.157200e+01 2.272210e+01 2.512156e+01 2.617246e+01 5.126445e+01 4.830949e+01 4.625397e+01 4.503688e+01 2.787573e+01 2.588821e+01 2.683171e+01 1.400847e-02 1.197279e-01 4.423455e-01 5.253114e-01 8.413227e-01 1.225098e+00 1.145563e+00 1.036687e+00 1.050158e+00 1.011947e+00 9.982797e-01 8.495126e-01 9.722252e-01 9.800033e-05 2.713833e-02 6.502586e-02 8.624749e-02 1.092648e-01 1.525237e-01 1.796941e-01 1.671092e-01 1.934413e-01 1.642942e-01 1.193663e-01 1.255087e-01 1.319496e-01 1.372630e-05
<GCONST> 5.718639e+01
<MIXTURE> 7 7.939492e-02
<MEAN> 39
 -6.189191e-02 -1.918142e+01 -1.227416e+01 -1.744662e+01 -5.671157e+00 6.421669e+00 -7.493837e+00 -5.119305e-01 2.690067e-01 -4.439535e-01 -1.812045e+00 -1.105306e+01 9.202203e-01 -3.653722e-02 -2.596598e-01 7.788927e-02 5.520661e-01 8.566784e-02 -5.005354e-01 2.517818e-02 2.446262e-01 2.859972e-01 -2.275456e-01 -5.151137e-01 -7.632990e-03 -2.070548e-03 -3.661942e-02 1.342799e-01 3.893929e-02 1.280797e-01 -1.511466e-01 -3.186951e-01 2.363667e-02 1.325327e-01 7.691617e-02 -2.386338e-02 -6.000747e-02 1.567492e-01 -2.392865e-03
<VARIANCE> 39
 6.992564e+00 2.431428e+01 2.224684e+01 3.070461e+01 2.363051e+01 3.655219e+01 4.073201e+01 2.966297e+01 2.865931e+01 3.206411e+01 3.603044e+01 2.579650e+01 4.254305e-03 1.752128e-01 4.106214e-01 4.592218e-01 7.546797e-01 6.814215e-01 9.866487e-01 7.280993e-01 9.386826e-01 7.582198e-01 6.769987e-01 7.344564e-01 5.894647e-01 7.616986e-05 2.548319e-02 6.490433e-02 7.029137e-02 1.069187e-01 1.046515e-01 1.216591e-01 1.254253e-01 1.089768e-01 1.118313e-01 1.052822e-01 1.008744e-01 1.071633e-01 1.186149e-05
<GCONST> 4.967716e+01
<MIXTURE> 8 7.879767e-02
<MEAN> 39
 -6.136976e+00 -2.051267e+01 -9.841489e+00 -1.388358e+01 -5.624389e+00 -4.659861e+00 -2.577913e+00 2.279291e+00 -9.321993e+00 -8.621991e+00 -8.844463e+00 2.387269e+00 8.822090e-01 -5.012442e-01 6.713276e-01 1.556921e+00 -8.170245e-01 -2.426064e+00 -7.785681e-01 2.380365e+00 2.911047e-01 -1.305451e+00 2.705646e-01 5.700938e-01 -1.138157e-01 -8.758973e-03 2.271304e-02 4.595730e-01 1.370453e-01 -4.165476e-01 -2.850849e-01 2.542687e-02 -7.217745e-02 -3.958523e-01 2.337214e-01 6.252549e-01 -6.371375e-02 -5.635581e-01 -4.232168e-03
<VARIANCE> 39
 8.400703e+00 2.010155e+01 2.466974e+01 3.158605e+01 4.354755e+01 4.490841e+01 6.289526e+01 3.893994e+01 3.411047e+01 4.001617e+01 2.961549e+01 2.406395e+01 7.491351e-03 2.188773e-01 6.494225e-01 7.690892e-01 1.027526e+00 1.455217e+00 1.503943e+00 1.950695e+00 2.013992e+00 1.555517e+00 2.214691e+00 1.319654e+00 1.735630e+00 1.024582e-04 3.569245e-02 8.303379e-02 1.015456e-01 1.517660e-01 2.009507e-01 2.184961e-01 3.707033e-01 2.849260e-01 3.179851e-01 3.215117e-01 2.448195e-01 1.978477e-01 1.617256e-05
<GCONST> 6.887760e+01
<MIXTURE> 9 5.679898e-02
<MEAN> 39
 -4.596516e+00 -1.985788e+01 -1.290957e+01 -1.393352e+01 1.434214e+00 -8.171521e-01 -8.172941e+00 -5.245045e-01 -4.121640e+00 -4.628387e+00 -9.970469e+00 8.820377e-04 8.845521e-01 -2.757322e-01 -2.359762e-01 3.752102e-01 2.382593e-01 -6.217428e-01 -6.281454e-01 3.520673e-01 1.509630e-01 -3.057255e-01 -7.293551e-01 -9.875190e-03 2.976897e-01 -3.065352e-03 -4.501700e-02 5.662037e-02 1.892569e-02 -1.813701e-01 -3.571439e-01 -2.218805e-01 1.515578e-01 -1.144508e-02 -2.103116e-01 -1.358074e-01 -4.686068e-02 -1.388290e-01 -9.904692e-04
<VARIANCE> 39
 6.451089e+00 1.897332e+01 2.790556e+01 3.053039e+01 3.547750e+01 3.672641e+01 5.615547e+01 2.950881e+01 3.453540e+01 3.249401e+01 2.571227e+01 2.536513e+01 8.337040e-03 1.139434e-01 2.673507e-01 3.638337e-01 4.813631e-01 6.429962e-01 5.871156e-01 1.121536e+00 7.449495e-01 7.672219e-01 6.835006e-01 6.568441e-01 6.200823e-01 4.745242e-05 2.041852e-02 4.141285e-02 4.737043e-02 6.271436e-02 9.021889e-02 7.988813e-02 1.382245e-01 1.098919e-01 1.049758e-01 1.133401e-01 1.010465e-01 9.445003e-02 6.920060e-06
<GCONST> 4.566824e+01
<MIXTURE> 10 9.335655e-02
<MEAN> 39
 -2.416954e+00 -1.242303e+01 -1.711765e+01 -1.102507e+01 -1.265206e+00 -6.062687e+00 1.888062e+00 -6.032774e+00 4.422413e+00 -2.940517e+00 -7.069941e+00 -5.531405e+00 7.920659e-01 -8.238086e-02 5.557517e-05 2.411033e-01 4.342967e-01 -2.168863e-01 -4.780104e-01 -1.345213e-02 4.004213e-01 1.566385e-01 -2.747033e-01 -2.043851e-01 1.066250e-01 -7.280008e-03 -2.691976e-02 1.810385e-02 1.819607e-01 -1.389313e-02 -2.376195e-01 9.420401e-04 -1.244159e-01 1.894079e-01 -2.470693e-02 -8.002735e-02 1.191210e-01 7.132810e-03 -1.390276e-03
<VARIANCE> 39
 8.650122e+00 1.856560e+01 2.020551e+01 3.750611e+01 3.665804e+01 5.381235e+01 5.665284e+01 5.546498e+01 4.319499e+01 3.108706e+01 3.082003e+01 2.554351e+01 1.465156e-02 1.669085e-01 4.978202e-01 5.662791e-01 7.463481e-01 9.327933e-01 1.083164e+00 1.013661e+00 1.250517e+00 7.522525e-01 7.940657e-01 9.073283e-01 6.632414e-01 2.013397e-04 3.173253e-02 6.731978e-02 9.465672e-02 1.188478e-01 1.450235e-01 1.534519e-01 1.624037e-01 1.885380e-01 1.465345e-01 1.347634e-01 1.428215e-01 1.084858e-01 2.965115e-05
<GCONST> 5.959344e+01
<MIXTURE> 11 6.755564e-02
<MEAN> 39
 -5.005027e+00 -1.670037e+01 -1.438030e+01 -1.083924e+01 -3.892952e+00 -5.958849e+00 -4.301862e+00 -4.238502e+00 6.297958e-01 -1.129461e+01 -8.458306e+00 -1.886300e+00 8.329631e-01 -3.560775e-01 -7.600749e-02 1.252034e+00 2.344562e-01 -1.648080e+00 -8.029024e-01 1.162780e+00 1.118676e+00 -8.877739e-01 -7.660158e-01 3.922509e-01 6.417481e-01 -6.304823e-03 -7.325223e-03 2.269078e-01 2.416533e-01 -2.807190e-01 -3.269658e-01 6.785315e-03 2.075501e-01 7.918131e-02 -2.849255e-01 3.357909e-01 2.015906e-01 -1.289612e-01 -2.137774e-03
<VARIANCE> 39
 7.166332e+00 1.561585e+01 2.101101e+01 3.452674e+01 4.496946e+01 4.258495e+01 7.214553e+01 3.574515e+01 6.567894e+01 3.975935e+01 2.811017e+01 2.384507e+01 1.363875e-02 1.373810e-01 3.765001e-01 4.298500e-01 6.289971e-01 7.840365e-01 8.595053e-01 1.153020e+00 1.155068e+00 1.108521e+00 1.111386e+00 8.792912e-01 7.945713e-01 9.052012e-05 2.462362e-02 5.253741e-02 7.238095e-02 1.002788e-01 1.574535e-01 1.345549e-01 2.100814e-01 1.692912e-01 1.821798e-01 1.684773e-01 1.896894e-01 1.489643e-01 1.088327e-05
<GCONST> 5.739180e+01
<MIXTURE> 12 4.048804e-02
<MEAN> 39
 -3.138558e+00 -1.907090e+01 -8.936584e+00 -1.417342e+01 -6.756238e+00 -6.356102e+00 -5.585654e+00 6.129313e+00 2.409100e-02 -2.134255e+00 -9.380184e+00 -5.092866e+00 8.833118e-01 -7.089622e-01 4.118532e-01 2.165976e+00 7.156473e-01 -2.267531e+00 -2.454857e+00 7.919085e-01 1.694540e+00 -7.545566e-01 -7.808250e-01 4.530574e-01 1.386493e+00 -1.204058e-02 -1.559791e-01 8.198251e-01 2.615267e-01 -2.465582e-02 -3.010824e-01 1.437052e-01 1.729516e-01 -7.095652e-01 -5.732245e-01 2.813370e-01 8.707111e-01 1.680136e-01 -1.515533e-02
<VARIANCE> 39
 8.946582e+00 2.729425e+01 2.992115e+01 3.279476e+01 4.829237e+01 6.316910e+01 6.491584e+01 5.513220e+01 5.721463e+01 5.046866e+01 3.274361e+01 3.273152e+01 7.044397e-03 5.266777e-01 1.408974e+00 1.601120e+00 2.697372e+00 2.745790e+00 3.028302e+00 3.876501e+00 2.804935e+00 2.875938e+00 2.662244e+00 3.260444e+00 2.720592e+00 5.911906e-04 1.408343e-01 2.225191e-01 3.255291e-01 4.525746e-01 5.577627e-01 5.346590e-01 5.814018e-01 5.602019e-01 6.563134e-01 5.261919e-01 4.134280e-01 3.889788e-01 1.568320e-04
<GCONST> 9.335276e+01
<MIXTURE> 13 6.183461e-02
<MEAN> 39
 -7.328697e-01 -1.780205e+01 -1.506733e+01 -1.197452e+01 -7.814689e+00 4.386946e+00 -5.149353e+00 -5.004446e+00 6.931760e+00 -6.541238e+00 4.900244e-01 -1.121176e+01 9.029727e-01 -2.164603e-01 -3.470086e-01 4.888611e-01 8.664857e-01 -3.938656e-01 -1.035006e+00 -3.851794e-01 1.079646e+00 3.971034e-01 -2.670263e-01 -7.858896e-01 -1.271697e-01 -3.695642e-03 -2.764872e-02 7.372683e-02 2.393253e-01 -6.176830e-02 -2.036291e-01 -2.757110e-01 -1.103073e-01 4.704780e-01 -2.481601e-01 7.728653e-02 -8.965275e-02 2.349984e-01 -2.009752e-03
<VARIANCE> 39
 6.444551e+00 1.909490e+01 2.267610e+01 3.287710e+01 3.096743e+01 4.656450e+01 4.404530e+01 3.148710e+01 3.416554e+01 3.004810e+01 3.078748e+01 2.623754e+01 6.229044e-03 1.149446e-01 2.871146e-01 3.986131e-01 6.874838e-01 7.096921e-01 9.639704e-01 8.600369e-01 1.115938e+00 9.489027e-01 7.120169e-01 6.796615e-01 7.862515e-01 5.868788e-05 1.964982e-02 3.847435e-02 4.972550e-02 7.376429e-02 9.461019e-02 1.194050e-01 1.218231e-01 1.205840e-01 1.206379e-01 1.200053e-01 1.078965e-01 1.258633e-01 7.938767e-06
<GCONST> 4.849647e+01
<MIXTURE> 14 5.418719e-02
<MEAN> 39
 -3.253836e+00 -2.048063e+01 -1.224585e+01 -1.742043e+01 1.221347e+00 2.239772e+00 -1.001709e+01 -5.251383e-01 -2.121818e+00 -1.931944e+00 -1.129811e+01 -3.148905e+00 9.059867e-01 -3.629022e-01 -6.616638e-01 9.461442e-01 1.025662e+00 -7.729023e-01 -1.367875e+00 6.144379e-01 1.169767e+00 -2.251041e-01 -9.454673e-01 -5.536649e-01 7.666855e-01 -1.281661e-03 -2.789759e-02 3.429493e-01 1.517095e-01 -6.460686e-02 -5.790138e-01 -4.052947e-01 5.362108e-01 1.617554e-01 -3.289377e-01 -1.336573e-01 2.761770e-01 1.227738e-01 -4.529776e-03
<VARIANCE> 39
 7.104834e+00 2.536022e+01 3.376524e+01 2.912237e+01 2.998457e+01 3.685531e+01 3.607500e+01 3.073076e+01 3.788169e+01 3.072948e+01 2.452010e+01 2.279814e+01 5.091431e-03 1.813317e-01 5.232512e-01 5.789924e-01 1.089412e+00 1.136845e+00 1.468538e+00 1.560066e+00 1.184643e+00 1.363887e+00 1.230473e+00 1.279288e+00 9.902730e-01 1.203726e-04 3.435940e-02 8.655102e-02 9.448687e-02 1.595213e-01 1.614039e-01 1.814267e-01 2.078052e-01 2.163090e-01 2.171579e-01 1.969589e-01 1.949241e-01 1.523538e-01 1.954726e-05
<GCONST> 6.176945e+01
<MIXTURE> 15 6.640324e-02
<MEAN> 39
 -2.659661e+00 -1.582997e+01 -1.426946e+01 -1.396182e+01 -2.964892e+00 -1.296755e+00 -2.076641e+00 -5.624752e+00 5.711000e+00 -6.259140e+00 -3.253374e+00 -6.959311e+00 8.472977e-01 -6.354004e-02 -8.035931e-02 7.605985e-02 2.616189e-01 7.156309e-03 -2.756721e-01 -6.798227e-02 1.342274e-01 1.523938e-01 -1.263375e-01 -1.929041e-01 -1.578070e-02 -4.286021e-03 1.769318e-02 4.373787e-03 3.554641e-02 4.651775e-02 -1.490616e-01 -6.686684e-02 -7.090374e-02 1.459324e-01 -4.949667e-02 4.638667e-02 -2.255178e-02 -1.213913e-03 -8.333938e-04
<VARIANCE> 39
 7.544380e+00 1.737388e+01 2.683611e+01 4.156010e+01 4.027422e+01 6.361317e+01 5.222980e+01 5.316167e+01 5.781725e+01 3.734491e+01 3.763094e+01 3.362107e+01 1.141365e-02 7.325423e-02 1.621785e-01 2.199817e-01 2.849551e-01 3.957165e-01 3.602148e-01 3.691631e-01 4.874452e-01 4.479069e-01 3.656327e-01 3.533273e-01 3.039838e-01 5.400792e-05 1.118095e-02 1.944326e-02 2.544363e-02 3.964208e-02 5.466295e-02 5.287037e-02 5.762129e-02 6.582628e-02 7.244749e-02 6.048636e-02 6.235706e-02 4.824328e-02 5.398414e-06
<GCONST> 3.484231e+01
<MIXTURE> 16 6.156445e-02
<MEAN> 39
 -2.226403e+00 -1.804214e+01 -9.817169e+00 -9.684030e+00 -9.565287e+00 -2.654791e+00 -6.382359e+00 4.826968e+00 5.199115e+00 -6.484262e+00 -3.305021e+00 -1.000767e+01 8.498289e-01 -2.320508e-01 3.912508e-01 9.051958e-01 5.303735e-01 -1.090767e+00 -1.383147e+00 7.856646e-03 1.300415e+00 -2.472730e-01 -3.207141e-01 6.673755e-02 6.623172e-01 -1.265417e-02 -4.474407e-04 2.151855e-01 7.842703e-02 -1.228935e-01 -7.068955e-03 -7.082805e-02 1.258072e-02 -2.035101e-01 -2.055669e-01 1.852782e-01 1.921067e-01 2.085267e-01 -2.830813e-03
<VARIANCE> 39
 7.013768e+00 1.862013e+01 1.786959e+01 2.090810e+01 2.569248e+01 3.975327e+01 3.652294e+01 3.021493e+01 2.705628e+01 3.134317e+01 2.867878e+01 2.475957e+01 1.055248e-02 1.339217e-01 3.511586e-01 4.623059e-01 4.280986e-01 6.688832e-01 9.851991e-01 9.440243e-01 9.067079e-01 7.173637e-01 7.774157e-01 9.827128e-01 6.783707e-01 8.370921e-05 2.441167e-02 4.762172e-02 7.670135e-02 7.775205e-02 1.070849e-01 1.286046e-01 1.356707e-01 1.460801e-01 9.394209e-02 1.058058e-01 1.079661e-01 8.443177e-02 1.267443e-05
<GCONST> 4.886709e+01
<STATE> 4
<NUMMIXES> 16
<MIXTURE> 1 8.591757e-02
<MEAN> 39
 -1.325769e+00 -1.645161e+01 -1.081677e+01 -8.503037e+00 -1.135381e+01 -5.651795e+00 -6.508979e+00 5.017110e+00 3.462718e+00 -5.772382e+00 -2.711627e+00 -7.097184e+00 8.286222e-01 2.375455e-01 5.591615e-01 -3.393614e-02 2.254075e-01 -1.621525e-02 -4.546677e-01 -9.255105e-01 1.882552e-01 1.267633e-01 1.657759e-01 3.884684e-01 2.061816e-01 -1.336267e-02 7.927386e-02 2.073174e-01 -1.807305e-01 -1.499082e-01 3.471083e-01 2.198664e-01 -9.883916e-02 -4.821497e-01 -1.413688e-01 2.809303e-01 1.198268e-01 -2.467922e-02 -3.116503e-03
<VARIANCE> 39
 8.301044e+00 2.740663e+01 3.672190e+01 3.357814e+01 4.759999e+01 4.860487e+01 5.266808e+01 4.948539e+01 5.448120e+01 4.369290e+01 4.371462e+01 4.210939e+01 1.105433e-02 3.307531e-01 6.076064e-01 1.091165e+00 1.045914e+00 1.643494e+00 1.901334e+00 1.688180e+00 1.979985e+00 1.490289e+00 1.494532e+00 1.298867e+00 1.473399e+00 1.815538e-04 4.166846e-02 1.082325e-01 1.559132e-01 1.553303e-01 2.368126e-01 2.795655e-01 2.763424e-01 2.825859e-01 2.402686e-01 2.172900e-01 2.122996e-01 2.285111e-01 3.318316e-05
<GCONST> 7.365250e+01
<MIXTURE> 2 5.502135e-02
<MEAN> 39
 -2.505798e+00 -1.061404e+01 -6.599915e+00 -7.478856e+00 -1.182993e+01 -1.250522e+01 -6.792904e+00 2.218958e+00 1.706256e+00 -2.007054e+00 -2.455908e+00 -4.231923e+00 7.043425e-01 -1.032986e+00 3.207021e+00 1.101686e+00 1.688362e+00 1.505102e+00 1.331145e-01 -5.381639e-01 -1.510808e+00 -1.336728e+00 3.779178e-02 1.739932e-01 8.690683e-01 -8.895391e-02 -9.433401e-01 3.900318e-01 1.963842e-02 -5.334442e-02 8.273603e-01 8.514890e-01 5.169512e-01 -3.055954e-01 -2.489701e-01 -1.036290e-01 -1.972689e-01 -4.331914e-02 -1.671373e-02
<VARIANCE> 39
 1.026164e+01 2.115289e+01 2.819996e+01 2.931274e+01 4.138958e+01 4.122871e+01 6.800647e+01 4.194639e+01 4.217360e+01 4.268889e+01 3.622392e+01 3.272697e+01 1.208191e-02 1.716430e+00 2.665565e+00 2.806919e+00 3.307855e+00 3.908314e+00 4.522367e+00 4.650834e+00 5.925709e+00 3.565205e+00 2.917525e+00 2.966527e+00 3.283925e+00 1.814509e-03 3.628619e-01 3.383053e-01 3.052321e-01 4.317639e-01 4.904441e-01 5.162112e-01 6.936834e-01 5.574479e-01 5.563179e-01 5.537865e-01 5.448728e-01 4.549802e-01 3.339813e-04
<GCONST> 1.005500e+02
<MIXTURE> 3 3.789427e-02
<MEAN> 39
 -1.177611e+01 -2.402385e+00 -2.458672e+00 -3.555619e+00 -9.397912e+00 -7.454265e+00 -2.757114e+00 -2.075125e+00 -2.755780e+00 -8.852079e-01 -2.261122e+00 -1.761783e+00 2.228141e-01 -1.431426e+00 8.385364e-01 -1.114267e+00 1.130510e+00 2.623122e+00 1.640116e+00 3.542662e-01 -7.133126e-01 5.493925e-02 -1.252115e-01 -4.205887e-01 -3.477291e-01 -7.999407e-02 2.155319e-01 -6.869190e-01 1.191675e-02 -9.613671e-01 -3.037159e-01 -1.836482e-01 1.230567e-01 1.635586e-01 -7.028248e-02 4.837057e-02 2.403868e-02 5.217180e-02 3.319667e-02
<VARIANCE> 39
 3.189821e+01 3.181214e+01 4.735616e+01 4.283620e+01 4.642384e+01 3.433247e+01 5.192586e+01 5.040394e+01 4.972532e+01 4.694590e+01 3.695590e+01 2.706805e+01 4.788861e-02 3.957235e+00 4.032767e+00 5.198232e+00 6.512661e+00 8.459812e+00 4.867539e+00 5.187138e+00 5.399110e+00 5.226854e+00 4.218210e+00 3.819626e+00 3.243551e+00 8.411183e-03 8.242416e-01 6.121153e-01 8.125458e-01 8.354870e-01 1.180889e+00 7.431651e-01 9.065887e-01 7.913780e-01 1.068377e+00 8.896897e-01 7.901078e-01 5.734692e-01 7.508274e-04
<GCONST> 1.176867e+02
<MIXTURE> 4 5.855163e-02
<MEAN> 39
 -3.133774e+00 -1.811966e+01 -1.089472e+00 -1.293548e+01 -1.453293e+01 -9.789263e+00 -7.467525e+00 1.247122e+01 -2.623154e+00 -1.029664e+00 -4.249602e+00 -3.280698e+00 8.523868e-01 -2.181208e-01 7.687334e-01 1.447713e+00 3.700105e-02 -9.872392e-01 -1.314495e+00 -4.452179e-01 1.100780e-01 -1.090959e+00 4.398480e-01 1.177233e+00 8.808030e-01 -1.545827e-02 9.647474e-02 1.137760e-01 -3.086072e-01 8.858345e-02 4.149161e-01 3.146728e-01 -1.817254e-01 -6.757253e-01 1.140158e-01 3.215296e-02 -4.050627e-02 -1.787523e-01 -2.714711e-03
<VARIANCE> 39
 6.911174e+00 1.732541e+01 2.388623e+01 1.766628e+01 2.988412e+01 3.542850e+01 3.343472e+01 2.321300e+01 3.470337e+01 2.335666e+01 3.615623e+01 2.150016e+01 5.984006e-03 2.604191e-01 5.225483e-01 1.051481e+00 8.091599e-01 1.348233e+00 1.197897e+00 1.557431e+00 1.420711e+00 1.170111e+00 1.472675e+00 1.334965e+00 1.277652e+00 1.002088e-04 3.030652e-02 7.774103e-02 1.200424e-01 1.349081e-01 1.761332e-01 1.742787e-01 1.539643e-01 2.179549e-01 2.200891e-01 1.826277e-01 2.296079e-01 1.452591e-01 2.519490e-05
<GCONST> 6.109347e+01
<MIXTURE> 5 6.047136e-02
<MEAN> 39
 -6.550060e+00 -1.756441e+01 -5.897222e+00 -1.808079e+01 -9.733991e+00 -1.118196e+01 4.626637e+00 3.228566e+00 -7.410526e+00 -5.117249e+00 -9.824506e+00 -3.465322e-01 8.620480e-01 -1.840884e-01 1.650090e+00 1.486696e+00 -4.601633e-01 -2.567490e+00 -1.379753e+00 3.054496e-01 -4.793892e-01 -1.650086e-01 1.428381e+00 6.021123e-01 -5.065936e-01 -2.536921e-02 1.248370e-01 5.198786e-01 -9.135014e-02 4.799224e-01 2.677495e-01 2.696648e-01 -1.020007e+00 -6.410894e-01 1.659809e-01 3.204235e-01 1.388699e-01 -1.341111e-01 -1.249708e-02
<VARIANCE> 39
 6.896326e+00 2.252637e+01 2.860363e+01 2.484818e+01 3.921622e+01 3.371602e+01 3.952731e+01 4.754538e+01 3.751700e+01 4.205544e+01 2.430704e+01 2.549590e+01 7.450656e-03 7.134947e-01 1.085793e+00 1.864091e+00 2.091035e+00 2.192130e+00 2.034966e+00 3.226553e+00 2.630509e+00 2.866074e+00 2.825292e+00 2.000450e+00 1.827571e+00 2.652356e-04 1.099408e-01 2.409745e-01 2.270053e-01 3.004655e-01 3.851593e-01 4.165315e-01 3.880080e-01 5.028524e-01 3.211747e-01 4.527291e-01 3.108939e-01 3.540348e-01 7.499786e-05
<GCONST> 8.338757e+01
<MIXTURE> 6 6.794099e-02
<MEAN> 39
 -2.422093e+00 -1.495467e+01 -7.412801e+00 -1.098910e+01 -1.075370e+01 -7.072282e+00 -7.068376e+00 5.934123e+00 2.616278e+00 -1.738878e+00 -5.512630e+00 -6.272122e+00 7.843624e-01 1.180659e-01 1.564583e+00 9.103535e-01 9.218407e-01 -3.860904e-01 -1.250556e+00 -9.361182e-01 -5.319741e-01 -6.750028e-01 6.698909e-01 7.549346e-01 6.544337e-01 -4.140065e-02 -2.156352e-01 6.201822e-01 1.722784e-02 3.407658e-01 6.067005e-01 2.664542e-01 1.700344e-01 -8.860140e-01 -4.513409e-01 -7.905849e-03 1.984966e-01 7.411953e-02 -1.660425e-02
<VARIANCE> 39
 7.196275e+00 2.294417e+01 2.700959e+01 3.520368e+01 4.277749e+01 4.936884e+01 4.702619e+01 4.300187e+01 4.517377e+01 4.677620e+01 3.089568e+01 3.421422e+01 1.491787e-02 4.467672e-01 8.956444e-01 1.376662e+00 1.274668e+00 2.233691e+00 2.683257e+00 2.717796e+00 3.186347e+00 2.048249e+00 2.064876e+00 1.963332e+00 2.284457e+00 2.389265e-04 1.642170e-01 2.341410e-01 2.359794e-01 3.139093e-01 4.453664e-01 5.430514e-01 4.368294e-01 4.734277e-01 4.469309e-01 4.721521e-01 4.047149e-01 3.888523e-01 1.106044e-04
<GCONST> 8.615076e+01
<MIXTURE> 7 5.642960e-02
<MEAN> 39
 -5.643236e+00 -6.805599e+00 2.560813e+00 -5.226633e+00 -1.561722e+01 -1.400460e+01 -5.290407e+00 1.911147e+00 -6.250973e+00 -3.481513e+00 1.671522e-01 -1.142924e+00 5.843791e-01 -2.108313e+00 3.229931e+00 -3.138366e-01 2.206481e+00 3.147112e+00 1.034208e+00 7.129246e-01 -1.504881e+00 -4.312554e-01 -1.661844e-01 -8.787975e-01 5.163221e-02 -1.138216e-01 -8.595942e-01 -1.846246e-01 -8.918068e-01 -3.974451e-01 9.162583e-01 8.394693e-01 3.812065e-01 7.058066e-02 7.155350e-01 1.910273e-01 -3.424809e-01 -1.652035e-01 -6.489771e-03
<VARIANCE> 39
 8.201069e+00 1.979647e+01 3.003192e+01 2.595203e+01 3.290517e+01 3.329785e+01 4.692847e+01 3.864241e+01 4.370298e+01 2.665517e+01 3.499464e+01 2.276997e+01 1.649162e-02 2.920360e+00 3.109801e+00 3.712934e+00 3.857534e+00 3.859340e+00 4.109455e+00 5.062765e+00 3.774592e+00 4.566079e+00 3.434478e+00 3.082507e+00 3.335132e+00 3.272859e-03 4.163728e-01 3.963501e-01 4.552768e-01 3.935123e-01 5.736519e-01 5.277970e-01 6.795677e-01 5.612665e-01 7.756131e-01 4.635470e-01 5.034179e-01 4.802268e-01 3.614152e-04
<GCONST> 1.014585e+02
<MIXTURE> 8 7.134195e-02
<MEAN> 39
 -8.268086e+00 -1.076009e+01 -1.234033e-01 -2.153301e+01 -1.855149e+01 -1.062380e+01 1.264606e+00 -3.015572e+00 -8.432518e+00 1.515239e+00 -8.645517e+00 -1.806107e+00 7.676415e-01 -5.534443e-02 2.314720e+00 1.296805e+00 7.026445e-01 -1.006604e+00 -7.317523e-01 -1.817191e+00 -1.973241e+00 7.559595e-02 8.212370e-01 2.295403e-01 2.447714e-01 -4.821926e-02 -7.315655e-02 2.227052e-01 -5.316401e-01 1.250196e+00 1.027002e+00 3.589288e-01 -4.192496e-01 -2.372099e-02 -7.109117e-04 -7.796660e-01 1.393987e-01 1.226037e-01 -1.876874e-02
<VARIANCE> 39
 8.674563e+00 2.656643e+01 3.105747e+01 3.093567e+01 3.084672e+01 5.098470e+01 4.662556e+01 5.573364e+01 3.729468e+01 4.134464e+01 3.103304e+01 2.536565e+01 1.217642e-02 8.196537e-01 1.883882e+00 2.166986e+00 3.028685e+00 2.586004e+00 2.417851e+00 3.044209e+00 3.252009e+00 2.813358e+00 3.511867e+00 2.256431e+00 2.007730e+00 5.186212e-04 2.503586e-01 3.140054e-01 2.854185e-01 4.238565e-01 5.883517e-01 6.499409e-01 6.068566e-01 6.661513e-01 6.541374e-01 4.869760e-01 4.825520e-01 4.807701e-01 2.288653e-04
<GCONST> 9.397791e+01
<MIXTURE> 9 6.081425e-02
<MEAN> 39
 -7.819819e+00 -1.555249e+01 -4.906083e+00 -1.779454e+01 -1.522895e+01 -4.830166e+00 2.204991e+00 7.657097e-01 -1.199943e+01 -4.423675e+00 -7.453128e+00 -2.521000e+00 8.157011e-01 -4.888505e-01 1.840563e+00 1.880716e+00 -1.867349e+00 -2.298413e+00 -4.353356e-01 5.866011e-01 -1.241430e+00 1.729997e-01 2.277076e+00 -3.960876e-01 -1.126708e+00 -1.876255e-02 9.229770e-02 2.186616e-01 -7.955420e-02 1.340325e-01 4.127224e-01 -1.021210e-01 -8.394699e-01 -3.936858e-01 4.384913e-01 7.008082e-02 -1.984652e-01 2.003143e-01 -4.122365e-03
<VARIANCE> 39
 7.603404e+00 2.112652e+01 2.794894e+01 3.464305e+01 3.362684e+01 3.946091e+01 4.294254e+01 5.207465e+01 2.933088e+01 4.324450e+01 2.378929e+01 2.249833e+01 1.113177e-02 2.086694e-01 7.153152e-01 7.637441e-01 9.857234e-01 1.402238e+00 1.880689e+00 2.698412e+00 2.026257e+00 2.734363e+00 1.702203e+00 1.737053e+00 1.430224e+00 1.348056e-04 4.069590e-02 1.249552e-01 1.280079e-01 2.255135e-01 2.011719e-01 2.487254e-01 3.167017e-01 3.935308e-01 3.092147e-01 3.904130e-01 2.533762e-01 3.118085e-01 3.062572e-05
<GCONST> 7.253396e+01
<MIXTURE> 10 5.446936e-02
<MEAN> 39
 -5.395062e+00 -1.035520e+01 1.208197e+00 -1.130107e+01 -1.602851e+01 -1.542383e+01 -1.409924e+00 3.351387e+00 -2.345126e+00 -1.062824e+00 -1.002037e+00 8.477263e-01 6.994624e-01 -3.353482e-01 1.434503e+00 1.503885e+00 4.776047e-01 -5.194945e-01 -3.219105e-01 -6.624551e-01 -1.365515e+00 -1.461545e+00 2.709986e-01 8.271337e-01 5.344326e-01 -3.015729e-02 6.983902e-04 7.943437e-02 -4.406010e-01 3.395146e-01 6.008855e-01 5.028986e-01 -1.732410e-01 -1.447688e-01 1.744739e-01 -2.287584e-01 -4.145902e-01 -4.126831e-01 -6.859255e-03
<VARIANCE> 39
 5.981642e+00 2.178654e+01 2.635452e+01 2.784766e+01 2.575426e+01 3.067780e+01 4.207579e+01 3.744007e+01 3.644164e+01 2.422742e+01 2.579770e+01 1.501595e+01 2.152650e-02 3.586307e-01 8.500981e-01 1.312147e+00 1.301081e+00 1.484786e+00 1.372278e+00 1.986026e+00 1.725548e+00 1.582742e+00 1.516702e+00 1.630165e+00 1.165904e+00 2.030738e-04 1.199908e-01 1.500030e-01 1.454325e-01 1.977105e-01 2.587134e-01 2.151403e-01 3.138539e-01 4.103245e-01 2.550805e-01 2.810892e-01 2.237269e-01 1.688881e-01 6.519451e-05
<GCONST> 7.233660e+01
<MIXTURE> 11 9.674989e-02
<MEAN> 39
 -3.561657e+00 -1.452644e+01 -8.410875e+00 -8.396513e+00 -1.241793e+01 -9.994038e+00 -8.426834e-01 3.644613e+00 5.847337e+00 -6.492660e+00 -4.653902e+00 -4.721151e+00 7.923493e-01 -4.828593e-01 9.456878e-01 2.022471e+00 3.969774e-01 -2.143720e+00 -1.426096e+00 -1.108063e-01 9.534059e-01 -1.265691e+00 6.362291e-02 1.389350e+00 1.094291e+00 -2.115683e-02 1.308217e-02 2.146091e-01 1.856577e-01 -1.983140e-01 2.196986e-01 3.507768e-01 -2.919941e-01 -5.630981e-01 -4.918287e-01 4.205185e-01 2.995222e-01 -4.294079e-02 -4.703221e-03
<VARIANCE> 39
 7.256326e+00 2.284599e+01 2.436921e+01 2.083564e+01 3.568282e+01 5.517156e+01 4.827553e+01 3.567904e+01 3.688169e+01 3.193530e+01 2.593271e+01 2.548518e+01 1.638731e-02 2.871863e-01 7.022248e-01 9.647958e-01 9.741849e-01 1.708972e+00 1.745816e+00 2.313091e+00 2.049107e+00 1.891173e+00 1.820908e+00 1.881675e+00 1.593209e+00 1.645195e-04 6.015972e-02 1.358799e-01 1.399631e-01 1.716533e-01 2.432734e-01 2.496470e-01 2.817661e-01 2.908507e-01 2.720312e-01 2.393727e-01 2.531215e-01 1.972831e-01 3.709930e-05
<GCONST> 7.234740e+01
<MIXTURE> 12 6.335817e-02
<MEAN> 39
 -3.747775e+00 -1.741459e+01 -2.370990e-01 -1.059036e+01 -1.892307e+01 -8.853018e+00 -8.588732e+00 9.332586e+00 1.046031e+00 -4.616485e+00 -1.276646e-02 -3.418744e+00 8.358840e-01 -5.808309e-01 1.567814e+00 2.603482e+00 3.380548e-01 -1.407877e+00 -1.465965e+00 -7.021807e-01 -4.041000e-01 -2.660199e+00 3.424572e-01 1.891403e+00 1.147838e+00 -3.528086e-02 -3.270961e-02 5.873411e-01 -3.537070e-01 2.312123e-01 8.537240e-01 4.781268e-01 2.228032e-01 -1.125882e+00 -3.139381e-01 2.490741e-01 -3.051331e-01 -3.450254e-01 -1.457160e-02
<VARIANCE> 39
 7.206685e+00 2.049521e+01 2.085084e+01 2.009649e+01 3.197388e+01 4.817080e+01 5.255861e+01 3.623509e+01 4.531933e+01 3.233212e+01 3.272691e+01 2.405967e+01 6.618407e-03 5.430446e-01 8.212852e-01 1.652804e+00 1.571092e+00 2.390133e+00 1.960827e+00 2.745381e+00 2.769841e+00 3.034839e+00 2.747736e+00 2.133674e+00 2.336156e+00 2.780520e-04 9.313295e-02 1.853160e-01 2.327656e-01 2.586880e-01 3.803730e-01 4.382895e-01 3.946205e-01 4.491493e-01 4.197113e-01 4.090943e-01 4.355448e-01 3.605745e-01 9.645911e-05
<GCONST> 8.255181e+01
<MIXTURE> 13 6.551897e-02
<MEAN> 39
 -4.388030e+00 -1.444675e+01 3.983679e+00 -1.194720e+01 -1.770708e+01 -1.315542e+01 -9.534908e+00 6.944339e+00 -6.563315e+00 -9.613025e-01 -3.773460e-01 -8.792655e-01 7.549108e-01 -4.995440e-01 2.804423e+00 8.700173e-01 2.182409e+00 7.601362e-01 -4.438064e-01 -7.407174e-02 -2.081602e+00 -1.462167e+00 -4.343729e-01 4.632369e-01 1.957898e-01 -7.919689e-02 -4.861214e-01 7.366420e-01 -9.738173e-01 6.072386e-01 1.262590e+00 8.376173e-01 6.048564e-01 -6.560071e-01 5.526592e-01 -2.139210e-01 -6.301838e-01 -4.850702e-01 -2.739405e-02
<VARIANCE> 39
 8.339952e+00 1.897266e+01 3.055181e+01 2.998595e+01 4.534822e+01 4.523615e+01 5.057236e+01 4.213659e+01 4.638155e+01 3.317069e+01 4.669624e+01 2.574016e+01 7.714071e-03 1.117766e+00 2.146155e+00 2.975148e+00 2.305312e+00 3.704023e+00 2.995180e+00 3.895731e+00 3.473738e+00 5.183232e+00 2.469263e+00 3.141513e+00 2.597011e+00 1.198122e-03 2.878100e-01 2.591234e-01 3.220174e-01 4.292075e-01 5.345266e-01 6.741601e-01 5.744636e-01 7.105528e-01 6.537818e-01 5.412058e-01 5.535430e-01 4.378009e-01 2.461413e-04
<GCONST> 9.689355e+01
<MIXTURE> 14 4.194790e-02
<MEAN> 39
 -7.922833e+00 -5.341705e+00 3.573185e+00 -1.547174e+01 -2.006975e+01 -1.211606e+01 -2.435159e+00 -7.530302e+00 -9.068954e+00 2.129728e+00 -5.933963e+00 -3.787717e-01 6.096761e-01 -1.204010e+00 2.952118e+00 -2.505274e-01 3.920491e+00 1.982373e+00 9.338054e-01 -1.132834e+00 -1.103852e+00 1.098568e-01 -1.014971e+00 8.661267e-01 -5.681996e-01 -1.219270e-01 -6.350191e-01 -2.733701e-01 -1.042756e+00 7.277044e-01 1.499855e+00 7.916085e-01 2.901385e-01 9.217721e-01 5.569982e-01 -5.329283e-01 1.136109e-01 -1.373718e-01 -2.203804e-02
<VARIANCE> 39
 7.755366e+00 2.353184e+01 3.311249e+01 3.975017e+01 3.406264e+01 3.843849e+01 4.392882e+01 4.916816e+01 3.785915e+01 4.076295e+01 4.597903e+01 2.625868e+01 1.885956e-02 2.007887e+00 3.052919e+00 4.344987e+00 4.031371e+00 4.393375e+00 4.654734e+00 4.383967e+00 4.759434e+00 4.273275e+00 5.387811e+00 3.678390e+00 2.585340e+00 2.608380e-03 3.139166e-01 4.207103e-01 4.558245e-01 6.503237e-01 7.087772e-01 6.825244e-01 7.423678e-01 6.894732e-01 8.730569e-01 8.580386e-01 7.681057e-01 5.199074e-01 4.248354e-04
<GCONST> 1.059539e+02
<MIXTURE> 15 7.413676e-02
<MEAN> 39
 -5.464734e+00 -1.645283e+01 -5.960781e+00 -1.432286e+01 -1.037469e+01 -9.301463e+00 9.515803e-01 2.841311e+00 -4.821684e+00 -6.846711e+00 -8.006023e+00 -7.646730e-01 8.058451e-01 -1.386486e-01 7.113894e-01 9.365935e-01 -3.123436e-01 -1.290778e+00 -7.255953e-01 5.256392e-01 2.852162e-01 -4.119961e-01 4.460372e-01 6.266764e-01 -1.748538e-01 -1.070277e-02 8.527766e-02 1.054081e-01 -1.770753e-01 5.313846e-02 1.563970e-01 3.856964e-02 -3.438194e-01 -1.728835e-01 1.110181e-01 1.840184e-01 -5.040494e-02 -1.249081e-01 -1.422248e-03
<VARIANCE> 39
 5.615626e+00 2.021445e+01 2.878981e+01 3.230283e+01 3.438687e+01 4.349442e+01 3.810514e+01 3.929598e+01 6.396383e+01 3.165275e+01 2.683585e+01 1.939034e+01 1.377726e-02 1.659895e-01 3.166322e-01 6.391468e-01 5.084310e-01 8.901750e-01 9.806936e-01 1.141009e+00 7.253870e-01 1.004336e+00 9.192981e-01 8.548023e-01 8.954347e-01 9.839128e-05 1.965162e-02 5.305486e-02 7.618196e-02 8.196197e-02 1.022843e-01 1.234756e-01 1.523819e-01 1.337528e-01 1.252850e-01 1.402191e-01 1.275011e-01 1.174185e-01 1.376216e-05
<GCONST> 5.383652e+01
<MIXTURE> 16 4.941115e-02
<MEAN> 39
 -7.281076e+00 -1.110168e+01 4.864098e-02 -1.509994e+01 -1.964203e+01 -8.378315e+00 -1.067131e+00 -1.076778e-01 -6.091183e+00 -4.161068e+00 -1.147972e+00 -4.696981e+00 7.488782e-01 -3.697316e-02 7.947108e-01 6.779809e-01 -1.733607e-02 -4.387851e-01 -4.925859e-01 -3.517215e-01 -5.250345e-01 -5.268114e-01 5.474765e-01 1.746591e-01 -1.106241e-01 -1.611812e-02 1.709202e-01 -1.685727e-01 -4.233339e-01 3.204694e-01 5.307315e-01 -5.155250e-02 -1.553870e-01 1.593503e-01 1.577887e-01 -1.562345e-01 -3.745991e-01 1.929855e-01 -1.217309e-03
<VARIANCE> 39
 8.316261e+00 2.725323e+01 4.240570e+01 4.410999e+01 2.521746e+01 3.781154e+01 5.513941e+01 5.532963e+01 5.926118e+01 5.526278e+01 5.877611e+01 1.871810e+01 1.511274e-02 3.004884e-01 1.049022e+00 1.094767e+00 1.075260e+00 1.311752e+00 1.460738e+00 1.497269e+00 2.017947e+00 1.937525e+00 1.671269e+00 1.297307e+00 9.098867e-01 3.058030e-04 5.291339e-02 1.615733e-01 1.289880e-01 1.487098e-01 2.385946e-01 2.165102e-01 3.325374e-01 3.097814e-01 3.592816e-01 3.194372e-01 2.688220e-01 1.739320e-01 5.276317e-05
<GCONST> 7.540683e+01
<TRANSP> 5
 0.000000e+00 1.000000e+00 0.000000e+00 0.000000e+00 0.000000e+00
 0.000000e+00 7.391585e-01 2.608415e-01 0.000000e+00 0.000000e+00
 0.000000e+00 0.000000e+00 8.328941e-01 1.671058e-01 0.000000e+00
 0.000000e+00 0.000000e+00 0.000000e+00 8.023329e-01 1.976671e-01
 0.000000e+00 0.000000e+00 0.000000e+00 0.000000e+00 0.000000e+00
<ENDHMM>
