~o
<STREAMINFO> 1 39
<VECSIZE> 39<NULLD><MFCC_E_D_A><DIAGC>
~h "dh"
<BEGINHMM>
<NUMSTATES> 5
<STATE> 2
<NUMMIXES> 16
<MIXTURE> 1 5.548795e-02
<MEAN> 39
 -1.019633e+01 3.331335e+00 -2.532484e+00 -1.245770e+00 -3.356299e+00 -6.763794e+00 -7.884366e+00 -5.059052e+00 -3.399233e+00 -2.756647e+00 -5.422889e+00 -3.985676e+00 2.125170e-01 -3.086944e+00 1.607766e+00 3.455002e-01 2.385408e+00 2.371030e+00 2.562648e+00 1.957495e+00 4.482592e-02 -2.163055e-01 -3.084291e-01 2.663734e-01 -1.305605e-01 -1.598997e-01 6.323964e-02 -1.415798e+00 -3.735002e-01 -1.132505e+00 -7.716022e-01 -1.850686e-01 1.626912e-01 6.600298e-01 2.703814e-01 3.312004e-01 3.817611e-01 3.630012e-01 4.084655e-02
<VARIANCE> 39
 1.834525e+01 1.296108e+01 1.307635e+01 1.837190e+01 2.233169e+01 2.405988e+01 1.689930e+01 1.793034e+01 2.413712e+01 2.171980e+01 1.882630e+01 2.079215e+01 3.570253e-02 1.910877e+00 3.025525e+00 3.870585e+00 3.718870e+00 4.242962e+00 4.541213e+00 4.073501e+00 4.682698e+00 5.323443e+00 4.191866e+00 3.992077e+00 4.511264e+00 3.875240e-03 3.524318e-01 3.565109e-01 5.023354e-01 6.255367e-01 5.590240e-01 6.283587e-01 5.582653e-01 5.039741e-01 6.490155e-01 4.251868e-01 3.964930e-01 4.289585e-01 6.737316e-04
<GCONST> 9.839307e+01
<MIXTURE> 2 6.908330e-02
<MEAN> 39
 -1.910938e+01 -1.581788e+00 -4.898548e+00 -6.514357e-01 -1.257753e+00 1.035271e-01 -1.277561e+00 3.636235e-02 -1.276478e-01 7.413654e-01 1.431436e-01 -2.330072e-01 -1.471503e-01 -7.544375e-01 -9.215214e-01 -3.094156e-01 -8.236507e-03 2.115134e-01 7.880275e-01 6.722735e-01 6.255207e-01 5.361342e-01 4.257293e-01 6.486918e-01 5.230173e-01 -2.278435e-02 6.846468e-01 -2.863854e-01 -3.278159e-01 -7.905189e-01 -6.307343e-01 -8.275847e-01 -3.911529e-01 -2.416524e-01 -1.757379e-01 -1.817464e-01 -2.453156e-01 -7.117357e-02 6.189845e-02
<VARIANCE> 39
 1.819894e+00 3.454541e+00 3.951521e+00 5.166634e+00 5.859918e+00 7.129726e+00 8.920270e+00 8.211804e+00 9.581171e+00 8.833401e+00 7.870688e+00 7.623543e+00 1.578379e-04 2.731456e+00 2.107584e+00 2.508626e+00 2.234899e+00 2.385142e+00 2.335040e+00 1.984854e+00 1.796373e+00 2.134223e+00 1.912189e+00 1.918732e+00 1.502572e+00 5.204994e-03 4.140042e-01 3.124080e-01 3.193314e-01 4.404076e-01 5.215089e-01 5.037737e-01 4.341471e-01 4.009372e-01 4.621277e-01 3.982895e-01 3.537640e-01 3.212004e-01 8.236610e-04
<GCONST> 6.994612e+01
<MIXTURE> 3 6.014224e-02
<MEAN> 39
 -2.155129e+01 6.189851e-01 -6.882314e+00 -4.470965e+00 -8.609504e-01 -5.115189e+00 2.233806e-01 -2.426530e+00 -1.028061e+00 -8.808185e-01 -1.874137e+00 -4.143665e-02 2.156486e-01 9.891249e-01 -3.063660e-01 -2.660969e-01 -1.514839e-02 -6.103798e-01 -5.069556e-01 -2.092317e-01 -3.022448e-02 6.759394e-01 1.176149e-01 -4.451293e-02 5.528081e-02 3.534599e-02 1.290723e+00 -5.503686e-01 1.940981e-01 -4.368879e-01 -7.133434e-01 -1.570482e-01 -9.640412e-01 2.036940e-02 9.384855e-03 1.691323e-01 -2.857765e-03 -3.556516e-01 3.112638e-02
<VARIANCE> 39
 2.948457e+01 2.944770e+01 2.396778e+01 2.218417e+01 2.470428e+01 2.354383e+01 2.206128e+01 2.177980e+01 1.604137e+01 1.418622e+01 1.483080e+01 1.187644e+01 3.451638e-02 5.440171e+00 2.323590e+00 3.002459e+00 2.867412e+00 3.137212e+00 4.311368e+00 4.211565e+00 2.942965e+00 2.281231e+00 2.546337e+00 1.548485e+00 1.865661e+00 7.825995e-03 6.743903e-01 6.927369e-01 7.758311e-01 7.991897e-01 7.247194e-01 8.372301e-01 8.347080e-01 7.242905e-01 6.649699e-01 5.522243e-01 4.625348e-01 3.922793e-01 7.348496e-04
<GCONST> 1.001080e+02
<MIXTURE> 4 6.664262e-02
<MEAN> 39
 -7.873854e+00 2.159630e+00 -3.583472e+00 -1.325032e+00 -4.410370e+00 -7.435871e+00 -8.149977e+00 -5.700801e+00 -2.514200e+00 -1.828563e+00 -5.001400e+00 -5.184067e+00 2.270016e-01 -4.863243e-01 2.102645e-01 2.041306e-01 2.854642e-01 3.103562e-01 5.312030e-01 -6.615780e-02 -1.230130e-01 1.810786e-02 7.734795e-02 1.501442e-01 -6.805012e-03 -4.681056e-03 -5.060505e-01 -4.001938e-01 -6.283330e-02 -1.272203e-01 -7.455459e-02 1.898054e-01 3.272925e-01 3.359177e-01 4.210687e-02 -4.798453e-02 2.427156e-01 3.348798e-01 5.426886e-03
<VARIANCE> 39
 1.508496e+01 2.233681e+01 2.076118e+01 1.988843e+01 1.596179e+01 2.815517e+01 2.079300e+01 2.449049e+01 2.690083e+01 1.806644e+01 2.277648e+01 1.662745e+01 4.065195e-02 1.845005e+00 1.935444e+00 1.294851e+00 1.725245e+00 2.123569e+00 2.351968e+00 2.058803e+00 2.062925e+00 2.114375e+00 1.363159e+00 1.666692e+00 1.482829e+00 3.692276e-03 4.287696e-01 3.147154e-01 2.941256e-01 3.648164e-01 4.049972e-01 4.667465e-01 4.276510e-01 4.055021e-01 4.079382e-01 2.710835e-01 3.484528e-01 2.875309e-01 5.012159e-04
<GCONST> 8.652045e+01
<MIXTURE> 5 6.330575e-02
<MEAN> 39
 -1.865068e+01 -1.586824e+00 -5.818829e+00 -2.201609e+00 -1.431342e+00 -8.157079e-01 -8.454939e-01 -8.047570e-02 -1.005928e+00 -2.698733e-01 -1.597259e+00 -1.440989e+00 -8.364786e-02 1.661199e+00 4.763860e-01 -2.037368e-02 -3.923672e-01 -1.001610e+00 -1.321078e+00 -8.290247e-01 -4.684246e-01 4.229514e-01 -3.830498e-01 -4.228393e-01 -2.166050e-01 1.209797e-01 9.440107e-01 -2.594608e-01 1.431762e-01 -4.249327e-01 -7.891168e-01 -7.424511e-01 -7.620080e-01 -2.210849e-01 8.488028e-02 4.254116e-03 -8.111726e-02 -4.879580e-02 5.198228e-02
<VARIANCE> 39
 6.880022e+00 7.354861e+00 8.684609e+00 1.287933e+01 1.142458e+01 1.281070e+01 1.280999e+01 1.415062e+01 1.623091e+01 1.276724e+01 1.149563e+01 1.112837e+01 4.993985e-03 1.574151e+00 1.578189e+00 1.908491e+00 1.967755e+00 1.801145e+00 2.100977e+00 2.127048e+00 1.915609e+00 2.148780e+00 1.640895e+00 1.777781e+00 1.670976e+00 2.255751e-03 1.657827e-01 2.368289e-01 3.292010e-01 3.541818e-01 3.101852e-01 4.072333e-01 3.942476e-01 4.603070e-01 4.998274e-01 3.967510e-01 3.589973e-01 3.657531e-01 1.787989e-04
<GCONST> 7.517403e+01
<MIXTURE> 6 5.253455e-02
<MEAN> 39
 -5.698770e+00 -1.586451e+00 -3.011867e+00 -4.789598e+00 -9.262701e+00 -9.091867e+00 -5.349484e+00 -9.212316e+00 -9.424614e+00 -7.446647e-01 -6.114587e+00 -5.046256e+00 4.841920e-01 -4.764729e-01 -5.779472e-01 -1.389285e+00 -1.478342e+00 8.302366e-01 -5.844583e-01 -1.386647e+00 2.412187e+00 2.365626e+00 -5.841168e-01 5.639572e-01 1.180120e-01 3.591590e-02 1.281365e-01 -5.587669e-01 -1.629525e-02 -5.852727e-01 -2.330322e-01 1.853785e-02 -2.375800e-01 6.868486e-01 4.452794e-01 8.360641e-02 8.105987e-02 1.148549e-01 1.440283e-02
<VARIANCE> 39
 9.819839e+00 1.971669e+01 2.951573e+01 3.635543e+01 3.751956e+01 4.248656e+01 3.715944e+01 3.643328e+01 3.908951e+01 3.657258e+01 4.933304e+01 4.343426e+01 1.548804e-02 1.018371e+00 1.463652e+00 3.398969e+00 3.183683e+00 3.047576e+00 3.868390e+00 4.110328e+00 4.605856e+00 4.637253e+00 3.701252e+00 3.258122e+00 3.756273e+00 6.557608e-04 1.478370e-01 1.990646e-01 3.656767e-01 3.424599e-01 5.309177e-01 3.884952e-01 5.101550e-01 5.610439e-01 5.443127e-01 6.163089e-01 4.873903e-01 4.421611e-01 1.053299e-04
<GCONST> 9.526132e+01
<MIXTURE> 7 5.513009e-02
<MEAN> 39
 -1.199759e+01 3.621012e+00 -1.634283e+00 9.248236e-01 -1.537653e+00 -2.815623e+00 -4.598103e+00 -3.505504e+00 -4.023788e+00 -2.425999e+00 -4.548642e+00 -4.273969e+00 8.215405e-02 2.827839e+00 5.660338e-01 3.602899e-01 -4.282005e-01 -8.761894e-01 -1.595143e+00 -2.097585e+00 -1.457838e+00 -5.323032e-01 -4.817460e-01 -7.005270e-01 -9.348513e-01 1.057846e-01 -1.013185e-01 -8.362402e-01 -4.561064e-01 -6.745665e-01 -5.065750e-01 -3.725831e-01 -1.764963e-01 1.879182e-01 3.825091e-01 2.530663e-01 2.212561e-01 2.309823e-01 1.886798e-02
<VARIANCE> 39
 2.076602e+01 9.228289e+00 9.948666e+00 1.319576e+01 1.365138e+01 1.650768e+01 1.848537e+01 2.051501e+01 1.791579e+01 1.689748e+01 1.466737e+01 1.063188e+01 2.564624e-02 2.214131e+00 1.999341e+00 1.594200e+00 1.936811e+00 1.810452e+00 2.526428e+00 2.967060e+00 2.506115e+00 2.538723e+00 2.182486e+00 1.980936e+00 2.489368e+00 3.825610e-03 5.270327e-01 2.262415e-01 2.326324e-01 2.983779e-01 4.321195e-01 3.693662e-01 4.958440e-01 4.600325e-01 3.761456e-01 3.888793e-01 3.208252e-01 3.130348e-01 4.984990e-04
<GCONST> 8.421657e+01
<MIXTURE> 8 4.668795e-02
<MEAN> 39
 -1.388114e+01 4.196489e+00 1.547017e-01 2.841837e+00 -9.962894e-02 -1.510967e+00 -4.182185e+00 -3.772145e+00 -4.423591e+00 -3.538064e+00 -5.000412e+00 -3.832526e+00 1.187495e-04 -2.113207e+00 -1.373707e+00 -9.113887e-01 -7.202308e-01 2.242846e-01 8.261086e-01 1.506067e+00 1.089356e+00 4.728545e-01 2.661911e-01 8.294085e-01 9.447203e-01 -7.916953e-03 4.187691e-01 -9.655312e-01 -7.783740e-01 -1.195277e+00 -9.111263e-01 -8.252174e-01 -3.009240e-01 8.467010e-02 4.364755e-01 3.673048e-01 2.988269e-01 2.190745e-01 5.617734e-02
<VARIANCE> 39
 1.568732e+01 9.969547e+00 1.072467e+01 9.065932e+00 1.020245e+01 1.179880e+01 1.391650e+01 1.115871e+01 9.741645e+00 1.121822e+01 8.857056e+00 9.489773e+00 1.481464e-02 2.342206e+00 3.229391e+00 3.035546e+00 3.595924e+00 2.239914e+00 3.030348e+00 2.367579e+00 2.492825e+00 2.397995e+00 2.315085e+00 2.003559e+00 1.807152e+00 7.440468e-03 4.784539e-01 4.031717e-01 4.607433e-01 4.381386e-01 5.685847e-01 5.853629e-01 4.585776e-01 4.629789e-01 4.829182e-01 4.020552e-01 3.545136e-01 3.329663e-01 7.444914e-04
<GCONST> 8.538557e+01
<MIXTURE> 9 4.294857e-02
<MEAN> 39
 -1.904666e+01 -3.565173e+00 -7.378040e+00 -3.773113e+00 -2.845610e+00 -9.540771e-01 -7.370937e-01 1.710569e-01 -3.819737e-01 6.570002e-01 1.522389e-01 8.862438e-01 3.660599e-02 9.076719e-01 -1.274513e+00 -1.368576e+00 -2.064778e+00 -1.740191e+00 -1.451084e+00 -4.352814e-01 -5.262992e-01 -2.591652e-01 -7.276458e-01 -9.778691e-02 2.510343e-01 1.188708e-01 7.821627e-01 2.600481e-01 3.233992e-01 -1.170754e-01 -5.130338e-01 -7.003270e-01 -4.971846e-01 -2.857110e-01 -1.122570e-01 -2.415536e-01 -3.904881e-01 -2.485115e-01 3.700331e-02
<VARIANCE> 39
 1.021723e+01 1.245912e+01 7.509080e+00 7.741172e+00 6.815594e+00 7.099997e+00 8.154716e+00 5.762243e+00 6.250268e+00 6.162924e+00 5.895322e+00 4.828841e+00 1.890835e-02 8.234785e-01 1.561448e+00 1.369024e+00 1.335421e+00 1.330890e+00 1.458477e+00 1.421385e+00 1.472895e+00 1.414419e+00 1.657821e+00 1.223642e+00 1.024562e+00 2.317627e-03 2.785299e-01 3.667433e-01 3.173756e-01 2.927267e-01 3.199159e-01 3.607224e-01 4.191444e-01 2.893346e-01 3.508038e-01 2.857976e-01 3.088476e-01 2.245912e-01 4.233249e-04
<GCONST> 6.695305e+01
<MIXTURE> 10 7.836132e-02
<MEAN> 39
 -4.126905e+00 -3.438803e+00 -6.354032e+00 -9.576311e+00 -5.764537e+00 -7.024349e+00 -1.344506e+01 -9.729059e+00 -2.419182e-01 2.095045e+00 -2.256572e+00 -6.710795e+00 6.074867e-01 -8.495085e-01 1.818119e+00 1.818287e-01 1.894803e+00 1.117772e+00 3.358893e-01 4.272912e-01 -8.621920e-01 -9.300928e-01 -5.113307e-01 -3.776157e-01 -1.391308e-01 -7.549598e-02 -2.618293e-02 -5.783979e-01 2.724526e-02 -2.897974e-01 -3.754422e-01 -1.439011e-01 1.737295e-01 8.495095e-01 2.125072e-01 -3.600241e-02 -8.167896e-02 3.114893e-01 1.422044e-02
<VARIANCE> 39
 6.640244e+00 1.948254e+01 2.089796e+01 3.664014e+01 2.366343e+01 4.798824e+01 3.435260e+01 4.185964e+01 3.502695e+01 3.153254e+01 4.025070e+01 3.028330e+01 1.633983e-02 7.299435e-01 1.639964e+00 1.674447e+00 2.679807e+00 1.922976e+00 2.931652e+00 3.661108e+00 2.755374e+00 2.794368e+00 2.067171e+00 2.053711e+00 1.781906e+00 1.591061e-03 1.015219e-01 1.947993e-01 1.977403e-01 4.863723e-01 2.691319e-01 3.368984e-01 3.781723e-01 3.652006e-01 4.760076e-01 3.184846e-01 3.833506e-01 3.744997e-01 3.315898e-04
<GCONST> 8.733073e+01
<MIXTURE> 11 8.259778e-02
<MEAN> 39
 -2.066586e+01 -2.653197e+00 -8.079737e+00 -4.213248e+00 -3.813186e+00 -1.804360e+00 -2.200265e+00 -7.969347e-02 -3.788247e-01 1.820069e-01 -8.321136e-01 -1.429136e-01 6.439584e-02 2.908667e-01 -1.419563e-01 1.298094e-01 -3.052557e-01 -2.208865e-01 -1.996472e-01 -4.098686e-02 -6.384727e-02 -5.961271e-02 -1.204360e-01 -8.513080e-02 4.251922e-02 8.972095e-03 5.430441e-01 1.154765e-01 1.463508e-01 -7.074391e-02 -1.247417e-01 -4.563003e-01 -1.304215e-01 -2.265264e-01 -8.941723e-02 -1.480510e-01 -1.687825e-01 -5.203981e-02 3.512992e-02
<VARIANCE> 39
 1.594257e+01 1.668806e+01 1.251432e+01 1.524990e+01 1.137673e+01 1.365386e+01 9.504417e+00 1.069435e+01 1.194290e+01 9.190164e+00 8.310867e+00 7.839383e+00 2.591551e-02 2.195760e+00 2.021584e+00 1.939092e+00 1.870525e+00 1.341353e+00 1.572785e+00 1.477622e+00 1.560149e+00 1.495196e+00 1.132936e+00 1.151626e+00 1.000083e+00 5.643826e-03 4.628501e-01 4.310844e-01 3.818853e-01 4.823530e-01 3.285627e-01 3.994038e-01 3.479542e-01 3.169147e-01 3.885760e-01 2.877727e-01 2.659594e-01 2.142781e-01 6.056344e-04
<GCONST> 7.724906e+01
<MIXTURE> 12 3.162231e-02
<MEAN> 39
 -8.219416e+00 3.149800e+00 -1.517199e+00 -1.460997e+00 -6.582180e+00 -1.022096e+01 -1.161010e+01 -9.023626e+00 -8.953730e+00 -9.256758e+00 -1.142694e+01 -6.201241e+00 2.496667e-01 -6.667968e-01 7.381500e-01 2.207343e-01 8.535714e-01 8.480239e-01 8.643768e-01 1.543134e-01 -3.822649e-01 -5.059603e-01 -7.640316e-01 -6.075418e-02 -8.560154e-01 -2.527422e-02 -3.720792e-01 -9.739756e-01 -5.171574e-01 -9.317023e-01 -2.607286e-01 5.064314e-02 7.602758e-01 8.282021e-01 6.162506e-01 7.726166e-01 7.529256e-01 7.366215e-01 2.544947e-02
<VARIANCE> 39
 1.238905e+01 2.100630e+01 2.036129e+01 1.679139e+01 2.660398e+01 2.653866e+01 3.837580e+01 2.888947e+01 3.477053e+01 2.371527e+01 2.073269e+01 2.773085e+01 2.875388e-02 2.033785e+00 2.279129e+00 2.079102e+00 2.683267e+00 3.027652e+00 3.033782e+00 3.365063e+00 2.813181e+00 2.274368e+00 2.893706e+00 2.576920e+00 2.848047e+00 4.564578e-03 4.457138e-01 5.153445e-01 5.510175e-01 8.106669e-01 8.144503e-01 7.332312e-01 7.942778e-01 6.644309e-01 4.781568e-01 4.764377e-01 5.694287e-01 5.981686e-01 9.909318e-04
<GCONST> 9.946550e+01
<MIXTURE> 13 5.138684e-02
<MEAN> 39
 -1.686546e+01 -3.967398e+00 -7.123251e+00 -4.925348e+00 -2.465225e+00 -1.967882e+00 -2.530801e+00 -2.571092e+00 -3.489708e+00 -2.054066e+00 -2.535390e+00 -1.916637e+00 1.773051e-01 -4.169532e-01 -1.724421e+00 -1.613599e+00 -1.958647e+00 -1.205236e+00 -7.476031e-01 2.622507e-01 8.947372e-01 8.421150e-01 4.076035e-01 7.776800e-01 8.636374e-01 9.517926e-02 1.041484e+00 1.801542e-01 4.712532e-01 -2.465082e-01 -8.367463e-01 -9.321560e-01 -6.193663e-01 -6.206194e-02 1.345529e-01 6.529567e-02 -1.794697e-01 7.322374e-03 3.771113e-02
<VARIANCE> 39
 2.152742e+01 2.274010e+01 3.617980e+01 3.002403e+01 2.453392e+01 1.679558e+01 1.835078e+01 2.095858e+01 2.512216e+01 1.758764e+01 1.585412e+01 1.288958e+01 2.725663e-02 2.397065e+00 2.203086e+00 2.563454e+00 2.256180e+00 2.109956e+00 2.205495e+00 2.652175e+00 3.262967e+00 2.363805e+00 2.435842e+00 2.661657e+00 2.134656e+00 2.780845e-03 7.863557e-01 7.626242e-01 1.064860e+00 1.168639e+00 9.522063e-01 8.342386e-01 9.934490e-01 9.860291e-01 9.445667e-01 6.503866e-01 6.618992e-01 4.634978e-01 9.001809e-04
<GCONST> 1.001353e+02
<MIXTURE> 14 7.088760e-02
<MEAN> 39
 -7.099985e+00 -8.671826e-01 -5.192499e+00 -4.576594e+00 -4.600568e+00 -7.236444e+00 -1.152487e+01 -8.798542e+00 -2.448806e+00 -8.339157e-01 -4.004369e+00 -5.904548e+00 4.278793e-01 -5.508286e-01 1.710645e-01 3.263547e-02 9.415624e-02 -2.961976e-02 -4.879655e-01 1.373721e-01 4.114320e-01 4.307242e-01 1.722694e-01 -2.027059e-01 5.345737e-01 -1.908755e-03 3.302017e-01 -9.452103e-01 1.933310e-01 -8.780677e-01 -9.156979e-01 -4.055560e-01 -2.433960e-01 6.470085e-01 3.266403e-01 1.147195e-01 2.211598e-01 3.026450e-01 4.173531e-02
<VARIANCE> 39
 9.131948e+00 1.909534e+01 1.971654e+01 2.851690e+01 2.346402e+01 3.517726e+01 2.302457e+01 3.288383e+01 2.661855e+01 2.922404e+01 3.106953e+01 2.716031e+01 1.745278e-02 5.915407e-01 8.433557e-01 1.139331e+00 1.525190e+00 1.433089e+00 1.840055e+00 1.803355e+00 1.824765e+00 1.482684e+00 1.644735e+00 1.444120e+00 1.212875e+00 1.430510e-03 1.635322e-01 3.558044e-01 4.273214e-01 5.073163e-01 4.405306e-01 5.836143e-01 7.431088e-01 6.040363e-01 7.476558e-01 4.577755e-01 4.093424e-01 4.113277e-01 2.378731e-04
<GCONST> 8.505241e+01
<MIXTURE> 15 5.873749e-02
<MEAN> 39
 -1.178286e+01 3.032264e+00 -2.782248e+00 -1.166188e+00 -2.950052e+00 -5.743495e+00 -8.380733e+00 -7.459566e+00 -6.687702e+00 -4.726722e+00 -6.806705e+00 -5.725272e+00 2.183972e-01 -1.292100e+00 -8.269403e-01 -9.075074e-01 -8.392271e-01 -3.427829e-01 1.142096e-01 1.060661e+00 8.835773e-01 8.426790e-01 2.760458e-01 1.134641e+00 7.045583e-01 2.922175e-02 8.001881e-01 -1.169544e+00 -2.699583e-01 -1.381488e+00 -1.110500e+00 -8.318298e-01 -2.995178e-01 5.655695e-01 4.566264e-01 4.901986e-01 1.389568e-01 5.693192e-01 5.984550e-02
<VARIANCE> 39
 1.839223e+01 1.633125e+01 1.903465e+01 1.694366e+01 1.975932e+01 2.193214e+01 2.066933e+01 1.916709e+01 2.437653e+01 3.089826e+01 1.889501e+01 1.700350e+01 2.412774e-02 1.802491e+00 2.450894e+00 2.635731e+00 2.580067e+00 2.782285e+00 4.052311e+00 2.993522e+00 2.700735e+00 2.786968e+00 2.492874e+00 2.707917e+00 2.523840e+00 3.383332e-03 4.864736e-01 4.667096e-01 7.344444e-01 7.475656e-01 7.343870e-01 7.683795e-01 9.163460e-01 6.897627e-01 7.972427e-01 7.506805e-01 6.279650e-01 7.434959e-01 4.534165e-04
<GCONST> 9.788374e+01
<MIXTURE> 16 1.144285e-01
<MEAN> 39
 -1.938541e+01 -1.813069e+00 -4.985012e+00 -1.170752e+00 -1.538433e+00 -2.833014e-02 -1.023469e+00 2.124381e-01 -5.106828e-01 7.232058e-01 -1.940070e-01 7.573396e-03 -1.497311e-01 5.842690e-01 -1.191801e+00 -1.267214e+00 -1.651208e+00 -1.180656e+00 -9.802981e-01 -2.026569e-01 -3.362178e-01 -7.761921e-02 -3.241128e-01 -4.945079e-02 1.620270e-01 9.542004e-02 5.843467e-01 -1.172553e-01 -1.609012e-01 -5.409932e-01 -6.002631e-01 -6.581316e-01 -3.165998e-01 -2.431179e-01 -8.608492e-02 -2.200676e-01 -2.008595e-01 -5.944300e-02 4.929085e-02
<VARIANCE> 39
 1.066847e+00 2.583858e+00 2.687452e+00 5.779934e+00 5.861679e+00 6.876907e+00 7.525445e+00 9.213682e+00 9.143482e+00 8.977104e+00 7.963513e+00 7.704685e+00 1.097022e-04 7.481700e-01 1.248259e+00 1.214971e+00 1.503735e+00 1.331554e+00 1.436822e+00 1.362515e+00 1.634792e+00 1.590795e+00 1.418198e+00 1.323366e+00 1.066170e+00 2.713566e-03 1.581285e-01 1.656093e-01 2.102499e-01 2.472979e-01 2.652791e-01 2.891220e-01 2.868363e-01 2.911718e-01 3.354377e-01 2.734384e-01 2.726532e-01 2.487263e-01 2.492792e-04
<GCONST> 5.498222e+01
<STATE> 3
<NUMMIXES> 16
<MIXTURE> 1 4.408557e-02
<MEAN> 39
 -1.399155e+01 -3.103385e-01 -5.703786e+00 -2.606328e+00 -4.031497e+00 -3.647898e+00 -2.115305e+00 8.905681e-01 3.205615e+00 8.865254e-01 -3.623015e+00 -2.814717e+00 1.864696e-01 3.564798e+00 -2.488173e-01 1.197109e+00 -6.309608e-01 -1.672259e+00 -1.694181e+00 -2.324342e+00 -1.890423e-01 1.371544e-01 2.230485e-01 -1.695850e-01 -9.734259e-01 1.621646e-01 3.290219e-01 -6.656387e-01 2.529873e-01 -4.969107e-01 -4.273275e-01 -3.199195e-01 -6.453917e-01 -8.453487e-02 -5.485713e-01 -1.121235e-01 3.478007e-01 1.449380e-01 1.934783e-02
<VARIANCE> 39
 9.679790e+00 9.817261e+00 1.268172e+01 1.272393e+01 1.722801e+01 1.469147e+01 1.470788e+01 1.998944e+01 1.617803e+01 1.238832e+01 1.498562e+01 1.336677e+01 3.466830e-02 1.849050e+00 2.606815e+00 3.127984e+00 2.851048e+00 2.539569e+00 4.081098e+00 3.426651e+00 3.371994e+00 3.501409e+00 2.822206e+00 2.228290e+00 2.171730e+00 2.924382e-03 1.769141e-01 2.970387e-01 2.524979e-01 2.441777e-01 4.173343e-01 3.367928e-01 3.462090e-01 4.218217e-01 3.868242e-01 3.196785e-01 3.661741e-01 2.821401e-01 4.234498e-04
<GCONST> 8.460432e+01
<MIXTURE> 2 6.828848e-02
<MEAN> 39
 -1.555916e+01 -4.710346e+00 -1.113209e+01 -8.121094e+00 -7.838865e+00 -6.308460e+00 -2.340523e+00 -1.147357e+00 5.457168e-01 -1.780833e+00 -2.054111e+00 9.411921e-01 3.117976e-01 3.173750e+00 8.085454e-01 1.166559e+00 1.046323e-01 -8.981389e-01 -1.510075e+00 -1.819796e+00 -5.521443e-01 7.417732e-01 3.589117e-01 -4.145823e-01 -1.308329e+00 1.207888e-01 5.732189e-01 3.345015e-02 1.017597e+00 3.699224e-01 2.458471e-01 1.371270e-01 -6.581510e-01 -6.101572e-02 -2.049224e-01 3.784576e-01 1.907600e-01 -4.799039e-01 -3.641356e-03
<VARIANCE> 39
 5.969959e+00 1.026719e+01 7.973845e+00 9.731084e+00 1.048064e+01 1.250054e+01 1.046742e+01 1.114069e+01 1.273890e+01 1.070189e+01 7.149916e+00 7.893574e+00 2.170731e-02 1.256499e+00 1.948312e+00 2.784399e+00 2.142109e+00 2.111109e+00 2.352696e+00 3.006540e+00 2.059915e+00 2.596780e+00 2.301746e+00 1.514774e+00 1.561778e+00 2.545251e-03 2.248441e-01 3.548492e-01 2.800159e-01 3.742383e-01 3.834822e-01 5.299773e-01 4.103475e-01 4.300252e-01 5.537038e-01 4.281258e-01 3.216088e-01 3.375202e-01 5.111796e-04
<GCONST> 7.832851e+01
<MIXTURE> 3 6.853937e-02
<MEAN> 39
 -6.714891e+00 -8.515676e-01 -7.507340e+00 -8.924891e+00 -4.830586e+00 -6.798831e+00 -1.010000e+01 -9.157380e+00 -1.567748e+00 2.101658e+00 -1.644392e+00 -5.465976e+00 5.666525e-01 7.905048e-01 -1.911104e+00 -7.034850e-01 -2.228158e+00 -4.135388e-01 -6.225901e-01 -1.805262e+00 1.831723e+00 2.392961e+00 9.985651e-01 5.469039e-02 -1.433713e-01 7.787037e-02 4.450318e-01 -6.505564e-01 2.776314e-01 -2.716383e-01 -4.789534e-01 2.485737e-01 -5.638542e-02 3.918117e-01 -3.967096e-02 -1.310845e-02 -7.627457e-02 3.563210e-02 9.448770e-03
<VARIANCE> 39
 1.229866e+01 1.550904e+01 1.777308e+01 2.404556e+01 1.976842e+01 2.805257e+01 2.324434e+01 2.750130e+01 3.052791e+01 2.025322e+01 2.349964e+01 1.824450e+01 1.441362e-02 1.099955e+00 1.592895e+00 3.306967e+00 2.917802e+00 3.441109e+00 3.718567e+00 3.952290e+00 3.859662e+00 3.981418e+00 3.250106e+00 3.350712e+00 2.598788e+00 1.248276e-03 2.327784e-01 2.859946e-01 4.542759e-01 6.033337e-01 4.991821e-01 4.850163e-01 5.603821e-01 6.024066e-01 7.927197e-01 5.100843e-01 4.576054e-01 3.609131e-01 2.516375e-04
<GCONST> 9.265073e+01
<MIXTURE> 4 5.255496e-02
<MEAN> 39
 -1.715361e+01 -6.263282e+00 -8.796052e+00 -6.964924e+00 -5.939613e+00 -1.704135e+00 1.920272e-01 6.805683e-01 -1.009089e+00 -4.601579e-01 1.229321e+00 9.049916e-01 3.457957e-01 1.571237e+00 -1.103083e+00 -3.835156e-01 -1.901096e+00 -2.882140e+00 -1.731467e+00 -2.625751e-01 3.608220e-01 2.632544e-01 -1.902026e-02 4.583871e-01 9.571044e-01 1.629941e-01 1.124039e+00 3.947068e-01 7.916970e-01 -1.517303e-01 -7.211304e-01 -1.103462e+00 -1.003121e+00 -5.007757e-01 -4.468302e-01 -1.933111e-01 -9.270080e-01 -2.796142e-01 1.678268e-02
<VARIANCE> 39
 9.696092e+00 1.595915e+01 1.198008e+01 9.377617e+00 1.276133e+01 1.056256e+01 1.130262e+01 1.550868e+01 1.503772e+01 1.313625e+01 1.315800e+01 1.099367e+01 1.419084e-02 1.714602e+00 2.374982e+00 2.882008e+00 2.412645e+00 2.312898e+00 2.308817e+00 2.309212e+00 2.716148e+00 3.395556e+00 2.766824e+00 2.099657e+00 1.645362e+00 1.706199e-03 3.728997e-01 6.269994e-01 6.124213e-01 4.228910e-01 4.872523e-01 6.341919e-01 5.020939e-01 6.674902e-01 7.180597e-01 6.429613e-01 6.980193e-01 5.746174e-01 4.601386e-04
<GCONST> 8.703478e+01
<MIXTURE> 5 3.047865e-02
<MEAN> 39
 -1.887368e+01 -7.096789e+00 -1.135888e+01 -8.035366e+00 -7.844459e+00 -4.283489e+00 -3.364951e+00 -1.504496e+00 -1.468957e+00 -5.804475e-01 -4.583330e-01 1.211611e+00 2.690868e-01 1.004824e+00 5.028235e-01 3.445934e-01 -9.732810e-02 -6.330241e-01 -5.152653e-01 4.503761e-01 6.073256e-01 8.673050e-01 2.256743e-01 8.496240e-02 3.289695e-01 7.365435e-02 9.206032e-01 6.979629e-01 9.837278e-01 5.055547e-01 1.205656e-01 -3.244574e-01 -2.264266e-01 -1.941332e-01 -5.071631e-02 -1.404620e-02 -2.537283e-01 -3.812699e-01 8.197042e-03
<VARIANCE> 39
 8.952102e+00 1.153442e+01 8.512348e+00 8.569038e+00 8.868136e+00 8.699141e+00 5.460843e+00 7.479200e+00 8.728241e+00 6.435866e+00 7.651420e+00 6.739579e+00 2.355227e-02 1.582303e+00 2.602779e+00 2.153890e+00 2.111113e+00 1.312582e+00 1.706594e+00 1.128296e+00 1.339983e+00 1.723268e+00 1.058546e+00 1.166159e+00 8.396276e-01 2.785687e-03 2.813725e-01 4.035772e-01 3.425192e-01 3.489356e-01 3.607754e-01 3.847388e-01 3.164508e-01 4.423761e-01 7.016076e-01 3.466613e-01 4.080122e-01 3.056313e-01 6.834902e-04
<GCONST> 7.270435e+01
<MIXTURE> 6 1.121135e-01
<MEAN> 39
 -1.141890e+01 1.835900e-01 -4.477990e+00 -3.537017e+00 -5.986156e+00 -9.412797e+00 -7.392828e+00 -4.944086e+00 -2.440114e+00 -3.257512e+00 -4.478174e+00 -2.582823e+00 4.271471e-01 5.111291e-01 -1.804960e+00 1.062851e-01 -1.742633e+00 -2.075625e+00 -1.629533e+00 -3.529782e-01 1.320519e+00 8.349113e-01 2.567509e-01 6.101577e-01 1.262336e+00 1.004627e-01 7.570626e-01 -7.222248e-01 3.676743e-01 -6.236054e-01 -6.401895e-01 -1.451657e-01 -4.024606e-01 2.687635e-01 -1.913005e-01 2.639807e-01 5.834443e-02 -3.326273e-02 2.301907e-02
<VARIANCE> 39
 1.064711e+01 1.812848e+01 1.283837e+01 1.656082e+01 2.341223e+01 2.351977e+01 2.204807e+01 1.617999e+01 2.116083e+01 2.202808e+01 1.499936e+01 1.531804e+01 1.768932e-02 1.782171e+00 1.603001e+00 2.641652e+00 2.733054e+00 2.543262e+00 2.796073e+00 2.982895e+00 2.456761e+00 3.386460e+00 2.926098e+00 2.289834e+00 2.249434e+00 1.875731e-03 2.478193e-01 4.532367e-01 5.038263e-01 5.912039e-01 5.296397e-01 7.559811e-01 7.185947e-01 5.899814e-01 6.444121e-01 5.247306e-01 6.198933e-01 4.484843e-01 2.726018e-04
<GCONST> 9.092525e+01
<MIXTURE> 7 7.420855e-02
<MEAN> 39
 -1.539263e+01 -6.498482e+00 -1.058595e+01 -8.476782e+00 -8.789454e+00 -4.028673e+00 -2.232947e+00 -1.839409e+00 -2.607241e+00 -1.838732e+00 5.185387e-01 3.013271e-01 4.277753e-01 3.094851e+00 -2.686606e-01 5.947377e-01 -2.376331e+00 -3.413386e+00 -3.739180e+00 -1.656308e+00 -5.457489e-01 -9.515653e-01 -9.712764e-01 -1.664442e+00 2.283770e-01 1.851127e-01 3.922219e-01 1.534108e-01 9.680251e-01 -9.027647e-02 4.657226e-02 -6.156276e-01 -2.732440e-01 1.105181e-01 -1.741007e-01 2.038836e-01 -7.759987e-01 -1.338688e-02 -1.463079e-02
<VARIANCE> 39
 7.384393e+00 1.281499e+01 1.268038e+01 1.254427e+01 1.583673e+01 1.517558e+01 1.618831e+01 1.847092e+01 1.277144e+01 1.709344e+01 1.504182e+01 1.285871e+01 1.473160e-02 8.346708e-01 2.106071e+00 2.583448e+00 3.067165e+00 2.160892e+00 2.792107e+00 3.306934e+00 3.351086e+00 2.772177e+00 2.640497e+00 2.922580e+00 1.830504e+00 2.234833e-03 2.125367e-01 3.811834e-01 5.626166e-01 5.735207e-01 5.348055e-01 5.771258e-01 7.220700e-01 7.600139e-01 5.403062e-01 6.973047e-01 5.118103e-01 4.140612e-01 3.077858e-04
<GCONST> 8.727905e+01
<MIXTURE> 8 6.377733e-02
<MEAN> 39
 -1.263623e+01 5.442649e-01 -5.997975e+00 -4.868624e+00 -5.404625e+00 -8.508930e+00 -4.876871e+00 -3.239259e+00 2.941996e-01 -1.072041e+00 -3.385262e+00 -6.713588e-01 4.939761e-01 3.828287e+00 -1.599108e+00 9.839160e-01 -9.380310e-01 -2.920800e+00 -2.102009e+00 -3.569517e+00 -2.390140e-01 1.192702e+00 1.261113e-01 3.091232e-01 -8.547642e-01 1.592601e-01 2.418698e-01 -8.226262e-01 3.912933e-01 -8.167631e-02 -3.859513e-01 3.463166e-01 -5.459642e-01 3.493567e-01 -8.093290e-02 3.399105e-02 2.890568e-01 -2.911748e-01 -1.114034e-02
<VARIANCE> 39
 9.184820e+00 1.231587e+01 7.738463e+00 1.159087e+01 1.243752e+01 1.696259e+01 1.885769e+01 1.641552e+01 1.134662e+01 1.291384e+01 1.150971e+01 1.161388e+01 1.257228e-02 1.925021e+00 2.900084e+00 3.453602e+00 3.328270e+00 2.574668e+00 2.880193e+00 3.844580e+00 4.551258e+00 3.709891e+00 2.825396e+00 2.214568e+00 3.289268e+00 2.355582e-03 2.351120e-01 3.418184e-01 3.841808e-01 3.478337e-01 3.640040e-01 4.207939e-01 5.341922e-01 5.512939e-01 4.198819e-01 3.762969e-01 3.614484e-01 3.667821e-01 2.859626e-04
<GCONST> 8.514893e+01
<MIXTURE> 9 6.385048e-02
<MEAN> 39
 -1.686500e+01 -8.058126e+00 -1.159639e+01 -8.521825e+00 -7.257020e+00 -3.857416e+00 -2.933163e+00 -1.730090e+00 -2.148367e+00 -1.584938e+00 -4.144502e-01 3.147484e-01 2.508798e-01 1.934698e+00 -3.872066e-01 -8.338431e-01 -1.560360e+00 -2.212451e+00 -2.011913e+00 -9.923105e-01 -6.886526e-01 -2.621452e-01 -1.039389e+00 -6.724116e-01 -1.668867e-01 1.593286e-01 7.153133e-01 5.821539e-01 9.811107e-01 2.029302e-01 -1.368123e-01 -5.218186e-01 -4.076279e-01 -4.116375e-02 2.486990e-02 1.353080e-01 -4.438387e-01 -1.712830e-01 9.967955e-03
<VARIANCE> 39
 6.705712e+00 9.336529e+00 5.485912e+00 6.858282e+00 7.193854e+00 4.907976e+00 5.411665e+00 3.765750e+00 4.347464e+00 5.097237e+00 3.705093e+00 3.750154e+00 1.390513e-02 1.239187e+00 1.593758e+00 1.750417e+00 1.853653e+00 1.585359e+00 1.483694e+00 1.491219e+00 1.439349e+00 1.748857e+00 1.726107e+00 1.343255e+00 1.035975e+00 1.556814e-03 1.729682e-01 2.656773e-01 3.208159e-01 3.784277e-01 3.394253e-01 4.366150e-01 3.373404e-01 2.787513e-01 3.420786e-01 3.943438e-01 3.866007e-01 2.700533e-01 2.478948e-04
<GCONST> 6.389420e+01
<MIXTURE> 10 6.968543e-02
<MEAN> 39
 -4.990102e+00 -4.153941e+00 -5.280962e+00 -9.280466e+00 -5.941017e+00 -7.853518e+00 -1.447834e+01 -8.207479e+00 1.394770e-01 2.815875e+00 -2.725259e+00 -6.290323e+00 6.084778e-01 -4.093394e-03 -8.829593e-01 3.003771e-01 -6.866306e-01 -8.224923e-01 -9.080557e-01 -2.876321e-01 1.198595e+00 1.052227e+00 1.963345e-01 -3.262148e-01 4.116140e-01 3.737716e-02 9.022980e-02 -4.637536e-01 9.643677e-02 -2.494221e-01 -4.023626e-01 -1.413974e-01 1.805826e-01 5.380337e-01 2.851590e-02 -1.232408e-01 -1.016863e-02 1.463316e-01 1.234910e-02
<VARIANCE> 39
 1.188745e+01 1.992077e+01 2.753902e+01 4.430210e+01 2.706556e+01 3.922309e+01 3.702896e+01 3.904633e+01 3.017355e+01 3.595560e+01 3.420844e+01 2.293086e+01 1.764986e-02 4.215414e-01 6.198149e-01 9.070766e-01 1.425159e+00 1.186401e+00 1.737030e+00 1.247585e+00 2.086730e+00 1.763702e+00 1.554324e+00 1.193169e+00 1.315821e+00 1.090965e-03 9.228180e-02 1.081860e-01 1.541090e-01 2.601412e-01 2.514242e-01 2.275832e-01 2.557814e-01 3.163858e-01 3.069358e-01 2.391757e-01 2.218480e-01 2.178172e-01 1.065804e-04
<GCONST> 7.535892e+01
<MIXTURE> 11 7.849315e-02
<MEAN> 39
 -1.959449e+01 -4.640904e+00 -8.704329e+00 -8.467146e+00 -3.528204e+00 -6.135975e+00 9.644781e-01 2.235161e-01 8.152088e-01 -5.960269e-01 -2.034200e+00 1.968301e+00 3.028657e-01 2.576869e+00 7.524189e-02 7.762583e-01 -7.070976e-01 -1.595798e+00 -2.136690e+00 -1.741062e+00 -6.712123e-01 4.277562e-02 -3.633209e-01 -6.941933e-01 -3.291883e-01 1.326158e-01 1.169948e+00 2.687556e-02 8.121639e-01 3.785175e-01 -6.256942e-01 6.690275e-02 -1.251287e+00 -2.929774e-01 -4.093199e-01 4.224588e-02 9.273282e-02 -6.476596e-01 5.995427e-03
<VARIANCE> 39
 1.108162e+01 1.596444e+01 1.540878e+01 1.665724e+01 1.927144e+01 2.005094e+01 1.910212e+01 2.254011e+01 1.744319e+01 1.872570e+01 1.859754e+01 1.299408e+01 1.999978e-02 2.099092e+00 2.572176e+00 4.198050e+00 2.612428e+00 2.690090e+00 2.265593e+00 3.361409e+00 2.785313e+00 3.387705e+00 1.932265e+00 1.902084e+00 1.724204e+00 3.140842e-03 2.260089e-01 5.677510e-01 7.312374e-01 6.473411e-01 5.677254e-01 6.748567e-01 6.989024e-01 9.381036e-01 7.633963e-01 6.257704e-01 6.842098e-01 3.921452e-01 5.466529e-04
<GCONST> 9.346682e+01
<MIXTURE> 12 6.012060e-02
<MEAN> 39
 -7.295428e+00 1.142355e+00 -4.725127e+00 -3.682411e+00 -6.313117e+00 -8.682185e+00 -1.026885e+01 -4.852317e+00 -3.355803e+00 -1.848540e+00 -4.632391e+00 -5.317432e+00 4.197475e-01 3.082779e+00 -1.454327e+00 1.987480e-01 -1.748800e+00 -2.175524e+00 -2.777640e+00 -2.603221e+00 -6.192806e-01 4.754705e-01 2.878175e-01 -2.742900e-01 -3.965662e-01 1.641724e-01 -6.725363e-01 -8.717427e-01 -4.482676e-02 -4.272658e-01 -1.777338e-01 1.596261e-01 4.694315e-01 5.394475e-01 4.487303e-01 2.544606e-01 3.126901e-01 4.771459e-01 -8.254222e-03
<VARIANCE> 39
 1.516951e+01 1.258146e+01 1.891654e+01 1.741147e+01 2.062085e+01 2.450717e+01 2.657610e+01 2.532226e+01 2.654459e+01 2.174932e+01 2.062226e+01 2.208304e+01 2.333730e-02 2.780212e+00 2.292520e+00 2.738878e+00 2.722349e+00 2.785380e+00 3.667206e+00 2.964283e+00 2.687741e+00 2.823732e+00 2.772759e+00 2.671672e+00 2.908534e+00 2.781142e-03 2.837063e-01 2.672490e-01 2.766201e-01 2.316232e-01 4.594424e-01 3.102650e-01 5.124024e-01 4.331607e-01 5.515784e-01 3.878761e-01 3.286320e-01 3.772016e-01 2.729401e-04
<GCONST> 9.005186e+01
<MIXTURE> 13 6.521173e-02
<MEAN> 39
 -6.468347e+00 -4.248685e+00 -6.477002e+00 -8.389541e+00 -9.800945e+00 -1.266403e+01 -8.883455e+00 -2.181134e+00 -3.798164e+00 -4.079394e+00 -7.157449e+00 -2.427627e+00 6.043257e-01 -1.751653e-01 -1.559520e+00 -7.897733e-01 -2.223697e+00 -5.433602e-01 -5.733469e-01 -3.227996e-01 2.956734e+00 1.605835e+00 -6.354598e-01 5.277761e-01 6.698232e-01 5.999195e-02 1.593762e-01 -2.862275e-01 4.187020e-01 -2.485540e-01 -2.848094e-01 1.146854e-01 3.700296e-01 -2.940481e-01 -3.468378e-01 2.751983e-01 -1.441751e-01 1.643140e-02 2.703996e-03
<VARIANCE> 39
 8.096952e+00 1.864347e+01 3.044197e+01 2.866439e+01 2.516069e+01 2.841269e+01 3.331831e+01 2.935476e+01 3.901062e+01 3.459428e+01 3.270732e+01 3.887349e+01 9.360921e-03 1.158544e+00 2.111631e+00 3.681367e+00 2.899400e+00 4.265436e+00 3.845710e+00 4.630451e+00 4.151202e+00 4.219050e+00 3.742439e+00 3.010799e+00 4.112795e+00 1.384643e-03 1.448499e-01 2.011205e-01 3.630942e-01 4.029843e-01 3.842769e-01 3.541216e-01 4.553942e-01 4.623338e-01 4.270582e-01 4.651303e-01 3.934146e-01 3.412362e-01 8.659993e-05
<GCONST> 9.232790e+01
<MIXTURE> 14 4.381717e-02
<MEAN> 39
 -1.657227e+01 -2.804966e+00 -8.519492e+00 -5.954265e+00 -3.409115e+00 -6.491971e+00 -2.817184e+00 -1.251354e+00 9.387881e-01 -8.601602e-01 -2.535983e+00 -3.706285e-01 3.385228e-01 4.046625e+00 -7.449290e-01 -2.664809e-03 -1.953038e+00 -1.668167e+00 -8.291684e-01 -3.429518e+00 -1.349394e+00 1.330923e+00 1.004772e+00 1.968894e-01 -1.359213e+00 1.546458e-01 9.351891e-01 -3.415103e-01 3.643677e-01 -5.060696e-01 -4.047116e-01 6.475613e-01 -8.056736e-01 -3.191114e-01 -1.181132e-01 4.009377e-01 3.594178e-01 -4.987932e-01 7.945171e-03
<VARIANCE> 39
 1.180514e+01 1.665784e+01 1.335132e+01 1.749243e+01 1.316304e+01 1.773243e+01 1.270782e+01 1.379633e+01 1.551546e+01 1.423468e+01 1.212555e+01 1.083367e+01 2.502123e-02 2.200989e+00 2.236652e+00 2.128078e+00 3.668216e+00 2.164918e+00 3.109744e+00 2.910254e+00 3.291989e+00 4.468136e+00 2.328353e+00 2.855257e+00 1.716252e+00 2.962698e-03 2.469098e-01 5.125239e-01 4.162985e-01 8.714721e-01 4.094666e-01 6.572735e-01 5.982666e-01 6.407782e-01 6.802037e-01 5.651155e-01 4.439997e-01 4.049281e-01 6.557524e-04
<GCONST> 9.018996e+01
<MIXTURE> 15 6.449177e-02
<MEAN> 39
 -1.771394e+01 -2.334894e+00 -7.410668e+00 -4.444467e+00 -5.614623e+00 -2.408871e+00 -9.490904e-01 2.503257e-01 -1.263316e+00 -2.330165e+00 -6.207534e-01 5.951772e-01 2.049523e-01 3.467959e+00 -1.528112e-01 4.303388e-01 -1.717831e+00 -2.664615e+00 -3.675008e+00 -1.554745e+00 -1.006937e+00 -6.407585e-01 -9.721720e-01 -1.715623e+00 -6.500638e-02 1.749920e-01 6.901489e-01 -5.288446e-01 2.929131e-01 -6.902388e-01 -4.321856e-01 -1.042022e+00 -4.553509e-01 -1.854114e-01 -1.042900e-01 2.802144e-01 -6.330692e-01 4.498290e-02 2.709068e-02
<VARIANCE> 39
 1.464216e+01 1.265581e+01 1.330714e+01 1.077635e+01 1.009676e+01 1.266708e+01 1.404315e+01 1.414411e+01 1.527916e+01 1.301933e+01 1.301953e+01 1.086316e+01 2.920873e-02 1.355378e+00 2.241051e+00 2.373758e+00 2.335606e+00 2.309341e+00 2.121329e+00 2.942302e+00 2.731346e+00 3.482762e+00 2.569704e+00 2.404491e+00 1.709175e+00 2.902042e-03 3.124922e-01 3.303211e-01 4.945898e-01 3.402269e-01 4.302571e-01 4.258220e-01 5.448113e-01 5.614541e-01 6.900260e-01 4.758987e-01 4.376755e-01 3.076494e-01 5.230590e-04
<GCONST> 8.536925e+01
<MIXTURE> 16 4.027777e-02
<MEAN> 39
 -1.756820e+01 -9.528304e+00 -1.078561e+01 -1.165984e+01 -6.459675e+00 -6.083598e+00 -3.389899e+00 -3.179989e+00 -2.216679e+00 -1.966195e+00 -1.386805e+00 3.381667e-01 3.329577e-01 6.787922e-01 -5.182756e-01 -8.660727e-01 -1.694380e+00 -1.206748e+00 -1.817102e+00 -4.274093e-01 -5.579891e-01 2.263972e-01 -5.121397e-01 -2.111555e-01 2.453420e-01 1.310368e-01 6.971974e-01 1.173594e+00 1.042053e+00 1.134274e+00 9.928399e-02 -5.561561e-02 -2.565904e-01 8.397700e-02 1.417196e-01 2.115519e-01 -9.234703e-02 -3.675788e-01 -1.036845e-02
<VARIANCE> 39
 1.494439e+01 1.190464e+01 1.792902e+01 1.086400e+01 1.749033e+01 1.488554e+01 1.307402e+01 9.416051e+00 9.471541e+00 8.688583e+00 8.349450e+00 5.295322e+00 1.497227e-02 1.366808e+00 2.391138e+00 2.118242e+00 2.274991e+00 1.535615e+00 1.377574e+00 1.450073e+00 1.553956e+00 1.545137e+00 1.452037e+00 1.345829e+00 1.815003e+00 2.002358e-03 3.878879e-01 3.580816e-01 6.781805e-01 4.192492e-01 6.614330e-01 3.734244e-01 5.425087e-01 3.934677e-01 4.640575e-01 3.670357e-01 3.518572e-01 2.909722e-01 3.409050e-04
<GCONST> 7.810207e+01
<STATE> 4
<NUMMIXES> 16
<MIXTURE> 1 6.681470e-02
<MEAN> 39
 -9.408405e+00 1.761602e-01 -6.439324e+00 -6.483019e+00 -4.785493e+00 -8.358846e+00 -8.372242e+00 -3.833363e+00 9.523376e-01 2.453316e+00 -3.597775e+00 -4.236479e+00 5.188711e-01 3.793480e+00 -1.249120e-02 9.599928e-01 -8.615545e-01 -9.003364e-01 -7.716954e-01 -2.780586e+00 -1.308023e+00 -1.314924e-01 1.516935e+00 2.544997e-01 -1.459731e+00 1.005148e-01 -3.315058e-01 -3.636762e-01 6.901013e-02 2.454038e-02 7.812983e-02 5.441412e-01 3.843658e-01 2.532404e-02 -4.196936e-01 -1.875947e-01 3.350616e-01 3.240851e-01 -2.718555e-02
<VARIANCE> 39
 1.345505e+01 1.357723e+01 1.210369e+01 1.816408e+01 1.488271e+01 1.687207e+01 2.260373e+01 2.544787e+01 1.910505e+01 1.783487e+01 1.474900e+01 1.074022e+01 1.509289e-02 2.313956e+00 2.853344e+00 2.963777e+00 4.350052e+00 2.655711e+00 4.072855e+00 3.689661e+00 4.563078e+00 4.159975e+00 2.914317e+00 3.225595e+00 2.132248e+00 2.399563e-03 4.074396e-01 3.908916e-01 3.233095e-01 6.490332e-01 3.781360e-01 3.820893e-01 4.230275e-01 5.610095e-01 4.535407e-01 4.717707e-01 3.154959e-01 2.736056e-01 3.774695e-04
<GCONST> 9.025575e+01
<MIXTURE> 2 6.364347e-02
<MEAN> 39
 -8.735410e+00 -2.164304e+00 -6.279006e+00 -5.573127e+00 -1.031087e+01 -1.173123e+01 -8.521898e+00 -2.233974e+00 8.884938e-01 -2.340714e+00 -4.235762e+00 -1.999423e-02 6.249271e-01 2.783836e+00 -2.038790e+00 1.056895e+00 -1.614403e+00 -2.602536e+00 -2.550695e+00 -2.132097e+00 1.002354e+00 8.254496e-01 5.870866e-01 -1.383944e-01 2.004537e-01 1.271855e-01 -1.004533e-01 -1.796224e-01 5.470610e-01 9.782401e-02 3.759504e-01 4.607464e-01 5.874230e-02 9.482163e-02 -4.839213e-01 1.194437e-01 6.919296e-02 -3.329631e-01 -2.888298e-02
<VARIANCE> 39
 6.416883e+00 1.017416e+01 1.143389e+01 1.115257e+01 1.579176e+01 1.616339e+01 1.694342e+01 1.817430e+01 1.256551e+01 1.112936e+01 1.529853e+01 1.143001e+01 9.667561e-03 1.759428e+00 3.160243e+00 4.561094e+00 3.128419e+00 3.176381e+00 3.484311e+00 5.551150e+00 3.686730e+00 4.099341e+00 2.851641e+00 3.220630e+00 3.549028e+00 1.754466e-03 2.704719e-01 4.050694e-01 2.542841e-01 3.033672e-01 3.124462e-01 3.764639e-01 4.336121e-01 3.612356e-01 4.626484e-01 2.890444e-01 3.966984e-01 3.087188e-01 1.882445e-04
<GCONST> 8.433069e+01
<MIXTURE> 3 4.668604e-02
<MEAN> 39
 -3.369493e+00 -1.079639e+01 -2.669465e+00 -1.004134e+01 -1.323396e+01 -8.459935e+00 -1.455791e+01 -4.423235e+00 5.539177e+00 8.901192e-01 -1.603473e+00 -3.816281e+00 7.429557e-01 1.373357e+00 -2.277146e+00 2.448007e-01 1.030250e+00 -1.460453e+00 -9.049779e-03 -7.719944e-01 1.419182e+00 5.107044e-02 -8.826172e-01 8.276324e-01 6.332893e-01 2.121571e-02 -1.502773e-01 6.633940e-01 -5.054938e-01 7.892578e-01 8.141555e-01 1.045139e-02 2.692096e-01 1.517193e-01 -7.148681e-01 -3.077509e-01 -6.797748e-02 2.427443e-01 -2.528946e-02
<VARIANCE> 39
 7.790374e+00 1.483897e+01 2.007564e+01 2.474793e+01 2.556718e+01 3.641257e+01 4.725859e+01 5.245903e+01 4.070760e+01 2.889433e+01 1.972303e+01 1.782269e+01 1.189512e-02 8.002424e-01 1.170893e+00 1.551885e+00 3.687045e+00 2.019079e+00 1.914282e+00 3.032247e+00 3.428011e+00 3.029394e+00 2.658974e+00 2.158335e+00 2.245203e+00 8.202324e-04 2.313289e-01 2.454242e-01 2.892170e-01 3.388982e-01 3.723601e-01 4.242460e-01 6.403284e-01 7.119642e-01 6.782904e-01 4.613257e-01 3.007819e-01 3.120338e-01 1.762146e-04
<GCONST> 8.772540e+01
<MIXTURE> 4 5.721586e-02
<MEAN> 39
 -4.920203e+00 -6.098695e+00 -2.695539e+00 -1.112211e+01 -1.251494e+01 -1.589918e+01 -1.179309e+01 1.274697e+00 -3.957641e+00 1.179324e+00 -7.563054e+00 1.037237e+00 7.064678e-01 2.384548e+00 -2.336072e+00 1.658970e+00 -2.375453e+00 -2.070477e+00 -2.941215e+00 -2.030875e+00 1.449755e+00 -8.386444e-01 1.242130e+00 -1.353633e+00 6.271904e-01 1.156958e-01 -1.003565e+00 -9.705168e-02 -1.803632e-01 3.526560e-01 6.375633e-01 1.052142e+00 9.293143e-01 1.518584e-02 3.143774e-03 -1.644237e-01 4.972761e-01 -9.419563e-02 -4.369633e-02
<VARIANCE> 39
 5.341615e+00 1.394390e+01 2.346621e+01 2.017719e+01 3.982657e+01 2.100439e+01 2.313881e+01 2.096189e+01 3.551263e+01 2.053676e+01 1.461509e+01 1.568239e+01 1.168339e-02 1.513873e+00 1.797057e+00 3.037813e+00 2.462814e+00 3.248940e+00 2.967176e+00 3.849371e+00 3.514757e+00 3.418915e+00 2.375997e+00 2.437998e+00 1.962236e+00 1.954601e-03 1.659432e-01 3.274739e-01 3.628090e-01 3.674148e-01 4.550482e-01 3.590890e-01 4.165928e-01 3.825497e-01 4.682480e-01 3.021888e-01 2.875039e-01 2.846523e-01 1.929094e-04
<GCONST> 8.635756e+01
<MIXTURE> 5 7.234665e-02
<MEAN> 39
 -4.313150e+00 -5.402160e+00 -9.466880e+00 -1.291113e+01 -6.087513e+00 -8.212488e+00 -1.231363e+01 -1.447700e+00 2.824096e-01 2.322490e+00 -3.817942e+00 -7.044274e+00 6.797806e-01 6.771221e-01 -1.810778e+00 -6.663156e-01 -1.609742e+00 -1.116409e-01 -3.777632e-02 -8.546911e-01 2.514191e+00 1.559789e+00 4.593351e-02 -4.251484e-01 -2.208318e-02 4.491707e-02 -3.696212e-02 1.574375e-01 6.672736e-01 6.434731e-01 -2.992556e-01 2.492741e-01 6.720602e-01 -6.670886e-01 -6.620211e-01 -2.505961e-01 -7.170856e-02 3.210447e-01 -1.725527e-02
<VARIANCE> 39
 8.121323e+00 1.724390e+01 2.922009e+01 4.043464e+01 2.801336e+01 4.391951e+01 3.669201e+01 4.461450e+01 4.281540e+01 5.651635e+01 4.398401e+01 2.812662e+01 1.170755e-02 1.104946e+00 1.424691e+00 2.411607e+00 2.739625e+00 2.679332e+00 3.965373e+00 3.673203e+00 3.310943e+00 3.851674e+00 4.405393e+00 3.008331e+00 2.574039e+00 7.623386e-04 2.161925e-01 2.335382e-01 4.745580e-01 4.068090e-01 4.390657e-01 4.638916e-01 6.109367e-01 7.053652e-01 7.594498e-01 7.574630e-01 5.060788e-01 4.230754e-01 1.032097e-04
<GCONST> 9.523947e+01
<MIXTURE> 6 6.783728e-02
<MEAN> 39
 -4.397933e+00 -4.527009e+00 -8.789841e+00 -7.175534e+00 -1.057561e+01 -1.040477e+01 -9.532730e+00 -7.174577e+00 6.894146e+00 9.801768e-01 -3.882733e+00 -4.622307e+00 7.082028e-01 2.885920e+00 -1.980352e+00 -5.772397e-02 -1.045949e+00 -1.832218e+00 -1.160135e+00 -1.468627e+00 -9.908717e-01 2.055492e+00 2.699193e-01 -1.421801e-01 -9.726728e-01 1.094836e-01 -8.789723e-01 -6.261016e-02 2.614497e-01 2.022399e-01 6.081444e-01 7.179568e-01 6.036016e-01 4.992263e-01 -8.570427e-01 -2.494304e-01 2.605380e-01 2.583368e-01 -4.263889e-02
<VARIANCE> 39
 6.383955e+00 1.735200e+01 1.755451e+01 2.058086e+01 1.510902e+01 2.864889e+01 2.863084e+01 2.861091e+01 1.785437e+01 2.487401e+01 2.027189e+01 1.326663e+01 9.930859e-03 1.821842e+00 2.690837e+00 2.912840e+00 3.252398e+00 2.687691e+00 4.374286e+00 5.076177e+00 4.676511e+00 3.092501e+00 3.045901e+00 2.969394e+00 2.157805e+00 2.076152e-03 2.673665e-01 3.083586e-01 2.969249e-01 3.361409e-01 2.820067e-01 3.687049e-01 4.419342e-01 4.342391e-01 3.899366e-01 4.509972e-01 3.577709e-01 2.616246e-01 2.729377e-04
<GCONST> 8.849674e+01
<MIXTURE> 7 4.914129e-02
<MEAN> 39
 -8.571446e+00 -3.421921e+00 3.355186e-01 -3.569034e+00 -1.312883e+01 -1.360061e+01 -8.101798e+00 -1.306110e+00 -3.708440e+00 -6.531621e+00 -1.311506e+00 -5.223473e-03 5.845649e-01 2.007861e-01 -1.465270e+00 2.276777e+00 -9.321414e-01 -3.133414e+00 -5.763630e-01 -2.412033e-01 1.237618e+00 -8.126718e-01 -5.739274e-01 1.591839e+00 9.232614e-01 6.474841e-02 2.181959e-01 4.443523e-03 3.967143e-01 -2.506185e-01 -3.660747e-02 6.892940e-01 8.224681e-02 -5.138070e-01 -4.702820e-01 4.350207e-01 5.966751e-03 -5.914048e-01 -7.041580e-03
<VARIANCE> 39
 8.710631e+00 1.992712e+01 1.987742e+01 2.670836e+01 3.485296e+01 3.201899e+01 2.715524e+01 3.265856e+01 3.689939e+01 2.603603e+01 2.419579e+01 1.507048e+01 1.300827e-02 1.118792e+00 1.968663e+00 2.365318e+00 3.209540e+00 3.280462e+00 2.743882e+00 3.590805e+00 4.234879e+00 4.774038e+00 3.779772e+00 3.107004e+00 2.209218e+00 1.515362e-03 1.680263e-01 2.028016e-01 3.273052e-01 4.137809e-01 3.946942e-01 4.781003e-01 4.270496e-01 6.455573e-01 5.734344e-01 4.928882e-01 4.404795e-01 2.627535e-01 1.163699e-04
<GCONST> 9.058747e+01
<MIXTURE> 8 7.728324e-02
<MEAN> 39
 -1.042746e+01 -7.084167e-01 -5.852675e+00 -8.196634e+00 -1.347750e+01 -1.077754e+01 -5.328698e+00 -4.320134e+00 -4.992450e+00 -4.872921e+00 -3.459066e+00 -5.427524e-01 6.262422e-01 3.304734e+00 -7.086501e-01 1.547212e+00 -2.753674e+00 -3.137729e+00 -4.243502e+00 -1.716875e+00 -6.112925e-01 -1.344378e+00 1.012569e-01 -2.596054e+00 4.567353e-01 1.486385e-01 -3.135835e-01 -4.669009e-01 2.983728e-01 -6.804667e-02 6.947591e-01 3.398860e-01 1.626335e-01 3.133184e-01 6.619174e-02 5.907362e-01 -2.580364e-01 4.233937e-02 -3.336753e-02
<VARIANCE> 39
 8.726631e+00 1.014044e+01 1.520693e+01 1.172133e+01 2.134572e+01 1.975254e+01 1.558359e+01 1.957416e+01 1.636361e+01 1.455880e+01 1.623921e+01 1.134138e+01 1.255487e-02 1.233388e+00 2.913752e+00 4.103580e+00 3.441255e+00 4.089796e+00 3.358469e+00 4.949160e+00 4.765150e+00 3.808662e+00 3.656505e+00 3.192258e+00 2.872505e+00 2.016234e-03 2.131369e-01 3.423613e-01 3.107043e-01 4.256631e-01 3.279150e-01 4.192506e-01 3.228785e-01 4.439417e-01 3.474833e-01 4.344985e-01 4.081650e-01 3.050764e-01 2.907138e-04
<GCONST> 8.708534e+01
<MIXTURE> 9 9.141554e-02
<MEAN> 39
 -5.800193e+00 -5.840549e+00 -3.812504e+00 -6.895650e+00 -1.010798e+01 -1.074943e+01 -1.520647e+01 -4.940159e+00 2.311753e+00 -2.839088e-01 -1.635621e+00 -5.658991e+00 6.950619e-01 5.861968e-01 -1.862535e+00 5.372498e-01 -1.265446e+00 -1.708380e+00 -7.857528e-01 -8.702624e-01 1.657177e+00 9.167520e-01 6.602195e-02 3.044945e-01 5.720878e-01 6.954183e-02 -5.482659e-02 4.821391e-02 5.359299e-02 8.857837e-02 1.646391e-01 3.459614e-01 4.691425e-01 1.604427e-01 -4.831500e-01 -1.157404e-01 -9.844791e-02 8.691031e-02 -1.529672e-02
<VARIANCE> 39
 8.306710e+00 1.609332e+01 1.998564e+01 1.984666e+01 1.672873e+01 2.363956e+01 2.723275e+01 3.799524e+01 3.124710e+01 2.822128e+01 2.715393e+01 2.458639e+01 1.113871e-02 8.849104e-01 1.156929e+00 1.140360e+00 1.717895e+00 1.967604e+00 1.712045e+00 2.773141e+00 2.424041e+00 2.247226e+00 2.179861e+00 1.746304e+00 1.877837e+00 1.121124e-03 1.241079e-01 1.252806e-01 1.556842e-01 2.161144e-01 2.149040e-01 2.165490e-01 2.961400e-01 3.008981e-01 2.783149e-01 2.463266e-01 2.314440e-01 2.452940e-01 1.605608e-04
<GCONST> 7.673832e+01
<MIXTURE> 10 7.598046e-02
<MEAN> 39
 -6.882965e+00 -8.719887e+00 -6.408702e+00 -1.536892e+01 -1.292555e+01 -1.638965e+01 -6.125899e+00 1.006694e+00 -1.538891e+00 -3.832349e+00 -8.833669e+00 2.281442e+00 7.499989e-01 3.355692e-01 -2.172451e+00 4.603007e-01 -2.192638e+00 -8.672560e-01 -5.382802e-01 1.201048e+00 1.337638e+00 -1.980014e-01 4.380926e-01 -1.978274e-01 2.274009e-01 5.408267e-02 4.749402e-03 3.663634e-01 2.667594e-01 7.819573e-01 4.152413e-01 5.666386e-01 -4.237242e-02 -5.856776e-01 -5.779954e-01 1.407558e-01 1.101172e-01 -5.343491e-01 -2.661309e-02
<VARIANCE> 39
 5.576583e+00 1.794094e+01 3.046588e+01 3.419017e+01 3.410762e+01 2.868131e+01 4.290308e+01 2.945844e+01 3.442624e+01 4.169423e+01 2.453298e+01 2.343165e+01 1.189238e-02 1.092593e+00 1.361282e+00 1.986083e+00 2.291472e+00 2.861559e+00 2.665935e+00 2.556954e+00 2.160355e+00 2.518522e+00 2.309924e+00 2.070687e+00 2.182511e+00 1.059556e-03 1.735007e-01 2.317425e-01 2.923530e-01 4.817490e-01 4.526530e-01 4.625865e-01 4.481807e-01 4.458119e-01 3.438952e-01 5.387602e-01 4.448711e-01 3.495404e-01 2.066424e-04
<GCONST> 8.814391e+01
<MIXTURE> 11 5.330462e-02
<MEAN> 39
 -6.396903e+00 -2.298336e+00 -6.760993e+00 -1.231828e+01 -5.343137e+00 -6.436916e+00 -1.204582e+01 -7.196448e+00 1.763299e+00 3.661318e+00 -1.835714e+00 -4.345898e+00 6.373511e-01 2.993490e+00 -2.468057e+00 3.551193e-01 -3.018607e+00 -1.546048e+00 4.326808e-01 -2.883072e+00 2.102353e-01 8.685622e-01 1.685506e+00 5.077206e-01 -7.006350e-01 1.069757e-01 -8.532362e-02 -1.891856e-01 1.963783e-01 4.143378e-01 -3.756434e-02 4.983308e-01 3.839052e-01 3.246861e-01 -5.965059e-01 -2.986197e-01 3.526495e-02 6.216981e-03 -2.310505e-02
<VARIANCE> 39
 8.314239e+00 1.235612e+01 2.026136e+01 1.962656e+01 1.940892e+01 3.238824e+01 3.850334e+01 1.950585e+01 2.488401e+01 1.435013e+01 2.310363e+01 1.795918e+01 1.215147e-02 2.313706e+00 2.019605e+00 3.706849e+00 3.323266e+00 3.331582e+00 4.828902e+00 5.111346e+00 4.837296e+00 3.866440e+00 2.659034e+00 4.474048e+00 2.806716e+00 1.573424e-03 4.140876e-01 2.452209e-01 2.494664e-01 4.749304e-01 2.948617e-01 3.997888e-01 6.206443e-01 4.315430e-01 5.418636e-01 3.083591e-01 2.996551e-01 3.611856e-01 2.856505e-04
<GCONST> 9.125137e+01
<MIXTURE> 12 7.046372e-02
<MEAN> 39
 -4.232146e+00 -6.273861e+00 -3.246856e+00 -7.249632e+00 -1.130075e+01 -8.599436e+00 -1.606814e+01 -1.533102e+00 1.842578e+00 -1.186687e-01 1.729644e-01 -7.652318e+00 6.833733e-01 2.819108e+00 -2.710207e+00 1.222538e+00 -1.220493e+00 -2.331355e+00 -6.563657e-01 -3.658715e+00 8.967624e-01 3.003272e-01 2.159780e-02 1.143923e+00 -1.448038e+00 1.167753e-01 -1.010968e+00 -6.523417e-03 -2.151385e-01 1.381053e-01 5.768177e-01 4.232099e-01 1.054409e+00 2.449749e-01 -3.561424e-01 -1.055380e-01 -8.140016e-02 6.445080e-01 -4.060641e-02
<VARIANCE> 39
 7.057745e+00 2.015920e+01 1.316827e+01 1.487756e+01 1.965884e+01 2.497540e+01 2.468126e+01 2.933683e+01 2.422771e+01 1.860378e+01 2.013122e+01 1.966803e+01 1.405007e-02 1.675191e+00 2.261649e+00 2.080375e+00 2.001066e+00 2.707444e+00 3.054165e+00 3.107607e+00 3.242351e+00 3.245164e+00 2.536418e+00 2.410952e+00 2.985982e+00 1.879241e-03 2.343938e-01 3.618539e-01 2.951663e-01 2.548514e-01 2.856549e-01 3.504242e-01 4.387389e-01 4.360746e-01 4.274149e-01 2.483238e-01 2.945881e-01 3.579390e-01 2.091687e-04
<GCONST> 8.553199e+01
<MIXTURE> 13 4.378724e-02
<MEAN> 39
 -8.559727e+00 -1.092998e+00 -4.732837e-01 -2.322068e+00 -9.817723e+00 -1.429432e+01 -6.429565e+00 -3.050824e+00 -2.851717e+00 -3.715486e+00 -3.740389e+00 -8.762369e-04 6.017922e-01 2.971018e+00 -1.180518e+00 2.742765e+00 2.251213e-01 -3.241770e+00 -2.400056e+00 -2.570489e+00 -2.623372e-01 -9.585019e-01 -9.638764e-01 4.700572e-01 -1.346355e-01 1.179875e-01 -6.181070e-01 -4.939686e-01 -1.921260e-01 -3.368791e-01 -1.309832e-02 9.069678e-01 8.729289e-02 2.385273e-01 -4.784523e-02 1.938569e-01 3.879597e-01 -8.873669e-02 -2.684804e-02
<VARIANCE> 39
 6.178196e+00 1.021442e+01 1.654160e+01 1.357344e+01 1.819291e+01 2.532878e+01 2.226514e+01 2.272533e+01 2.545201e+01 1.431409e+01 1.261046e+01 1.285026e+01 1.266360e-02 1.972344e+00 2.832806e+00 3.534779e+00 2.909844e+00 4.722485e+00 3.444071e+00 5.748897e+00 2.894647e+00 6.258678e+00 2.558444e+00 2.935780e+00 2.792641e+00 1.806679e-03 1.634571e-01 2.083620e-01 3.070540e-01 2.740037e-01 3.248509e-01 4.011811e-01 3.842753e-01 3.730592e-01 3.858427e-01 2.909713e-01 2.400299e-01 2.669781e-01 2.360504e-04
<GCONST> 8.530450e+01
<MIXTURE> 14 6.057559e-02
<MEAN> 39
 -6.096730e+00 -6.332783e+00 -7.380061e+00 -1.477675e+01 -1.586422e+01 -1.675603e+01 -5.747136e+00 -1.282084e+00 -3.034091e+00 -5.124065e+00 -8.355467e+00 2.466004e+00 7.618021e-01 2.282675e+00 -1.923200e+00 6.364043e-01 -3.370384e+00 -1.810941e+00 -3.505995e+00 -3.395711e-01 4.502348e-01 -2.286856e-01 -2.771828e-01 -2.665687e+00 5.635286e-01 1.230656e-01 -8.830708e-01 1.538028e-02 1.933571e-01 6.889118e-01 1.173046e+00 1.327445e+00 3.816402e-01 9.077166e-03 -3.966033e-03 4.617477e-01 4.108858e-01 -4.150408e-01 -5.023900e-02
<VARIANCE> 39
 4.648733e+00 1.232247e+01 1.473669e+01 2.018712e+01 2.506395e+01 2.326548e+01 3.197357e+01 2.353897e+01 2.849796e+01 2.262789e+01 2.372315e+01 1.718691e+01 9.400576e-03 1.527392e+00 2.039032e+00 2.839382e+00 2.524133e+00 3.629641e+00 3.953017e+00 5.143185e+00 3.745510e+00 3.512313e+00 3.956938e+00 3.510883e+00 2.701038e+00 2.073665e-03 1.507287e-01 3.271716e-01 2.176609e-01 3.243931e-01 3.420331e-01 3.492970e-01 4.381796e-01 3.987866e-01 4.400203e-01 3.894201e-01 5.158569e-01 2.636987e-01 2.612234e-04
<GCONST> 8.811704e+01
<MIXTURE> 15 5.535288e-02
<MEAN> 39
 -1.436718e+01 -1.204752e+00 -2.768095e+00 -6.061230e+00 -7.996939e+00 -6.038676e+00 -9.014806e-01 -3.584946e+00 -3.826120e+00 -1.314780e+00 -1.074317e+00 -1.222849e-01 4.189264e-01 2.304523e+00 5.943817e-01 3.170196e+00 -8.140256e-02 -2.531646e+00 -1.785937e+00 -1.750631e+00 -1.079214e+00 -1.751483e+00 -4.936415e-01 -7.565007e-01 -4.158647e-01 9.620497e-02 5.925978e-02 -1.499952e-01 4.028564e-01 5.581424e-02 -1.431345e-01 5.048266e-02 -6.150882e-01 4.647446e-02 -2.303783e-01 -7.880867e-02 -1.879218e-01 -5.805879e-02 -1.347918e-02
<VARIANCE> 39
 1.736903e+01 1.579190e+01 2.784268e+01 2.998562e+01 3.741805e+01 2.609082e+01 2.186720e+01 2.987946e+01 2.508091e+01 1.490789e+01 1.699581e+01 1.141632e+01 2.662043e-02 3.133933e+00 3.404562e+00 6.240040e+00 5.981465e+00 5.972167e+00 5.534896e+00 4.187542e+00 5.950895e+00 5.329627e+00 3.637290e+00 3.151588e+00 2.183169e+00 3.246779e-03 3.839018e-01 5.534178e-01 6.571108e-01 7.732476e-01 7.313004e-01 6.244010e-01 4.806840e-01 6.061576e-01 5.069647e-01 3.772632e-01 4.785635e-01 3.611953e-01 4.113457e-04
<GCONST> 1.013659e+02
<MIXTURE> 16 4.814723e-02
<MEAN> 39
 -4.223049e+00 -9.507767e+00 -1.786410e+00 -1.565818e+01 -6.780965e+00 -1.223499e+01 -1.569925e+01 7.731416e-01 1.393301e+00 6.750204e+00 -7.400623e+00 -2.864436e+00 7.557828e-01 3.346739e-01 -1.847623e+00 1.096960e+00 -1.178825e-01 -1.171297e+00 -4.398550e-01 1.023278e-01 1.717394e+00 -1.291030e-01 -3.905946e-01 -1.947208e-01 8.766139e-01 1.977454e-02 -6.759041e-03 2.561799e-01 -2.439751e-01 8.814067e-01 -9.259555e-02 4.237485e-01 3.721570e-01 -4.239684e-01 -2.775055e-01 -5.558171e-01 4.598966e-01 -4.345188e-02 -1.706229e-02
<VARIANCE> 39
 7.354030e+00 1.594839e+01 2.542734e+01 2.515804e+01 3.068474e+01 4.013503e+01 4.068924e+01 3.190226e+01 2.667441e+01 2.159644e+01 1.447620e+01 2.704233e+01 1.091165e-02 5.863794e-01 7.168886e-01 8.488855e-01 2.394626e+00 1.281171e+00 1.298195e+00 1.373475e+00 2.168610e+00 1.327298e+00 1.489602e+00 1.434631e+00 1.285962e+00 4.379411e-04 2.095752e-01 1.983658e-01 1.802396e-01 3.702771e-01 2.966899e-01 2.953285e-01 4.000040e-01 3.204598e-01 2.237647e-01 2.000985e-01 2.224744e-01 2.874864e-01 1.734665e-04
<GCONST> 7.510781e+01
<TRANSP> 5
 0.000000e+00 1.000000e+00 0.000000e+00 0.000000e+00 0.000000e+00
 0.000000e+00 6.292331e-01 3.707668e-01 0.000000e+00 0.000000e+00
 0.000000e+00 0.000000e+00 4.130048e-01 5.869952e-01 0.000000e+00
 0.000000e+00 0.000000e+00 0.000000e+00 3.642969e-01 6.357030e-01
 0.000000e+00 0.000000e+00 0.000000e+00 0.000000e+00 0.000000e+00
<ENDHMM>
