~o
<STREAMINFO> 1 39
<VECSIZE> 39<NULLD><MFCC_E_D_A><DIAGC>
~h "en"
<BEGINHMM>
<NUMSTATES> 5
<STATE> 2
<NUMMIXES> 16
<MIXTURE> 1 6.230737e-02
<MEAN> 39
 -4.680588e+00 -3.402210e+00 -1.802631e+00 -5.433411e+00 -9.163014e+00 -8.029175e+00 -3.293648e+00 -6.275351e+00 -7.459953e+00 -6.832086e-01 -7.842831e+00 -3.459445e+00 4.186242e-01 -1.730374e-01 1.819231e+00 -4.152108e-01 1.802842e+00 1.765787e-01 -1.871267e-01 2.234383e+00 -3.118010e+00 -2.058542e+00 2.093271e+00 -5.716622e-01 -5.965962e-01 -3.121789e-02 -4.514420e-01 -6.484661e-02 1.364773e-01 -4.060462e-02 -6.253598e-03 1.978844e-01 -1.022646e-01 3.476481e-01 3.223501e-01 -2.194810e-01 2.167512e-01 1.000949e-01 -2.668339e-04
<VARIANCE> 39
 5.063543e+00 1.818252e+01 1.622262e+01 3.709029e+01 2.907096e+01 3.237372e+01 3.023195e+01 3.122095e+01 3.737083e+01 3.976959e+01 2.990392e+01 2.273396e+01 1.618384e-02 6.955010e-01 2.028512e+00 2.821783e+00 2.684868e+00 4.730965e+00 3.700887e+00 3.331398e+00 2.889455e+00 4.344354e+00 2.819045e+00 3.713084e+00 2.213242e+00 6.468116e-04 2.840526e-01 1.829509e-01 2.717396e-01 2.491613e-01 3.544619e-01 3.025120e-01 2.435866e-01 3.528317e-01 3.117484e-01 4.149876e-01 2.366374e-01 2.651643e-01 9.347445e-05
<GCONST> 8.633510e+01
<MIXTURE> 2 5.446687e-02
<MEAN> 39
 -6.847097e+00 1.204866e-01 -1.807147e+00 1.827683e+00 -3.708791e+00 -9.660113e+00 -7.192987e+00 -5.950020e+00 -6.646592e+00 -2.760526e+00 -7.580389e+00 -5.237766e+00 2.578096e-01 -9.283836e-01 2.399967e+00 2.342533e-01 -3.453169e-01 -2.094972e-01 1.699258e+00 3.384717e+00 -2.881641e+00 -2.880973e+00 1.703440e+00 6.205312e-01 -1.303909e+00 -5.636854e-02 6.337928e-01 -9.971782e-01 -2.618474e-01 -8.104394e-01 -9.127212e-01 1.419070e-03 -5.374333e-01 3.764471e-01 2.898968e-01 1.560324e-01 6.657227e-01 2.398786e-01 4.286155e-02
<VARIANCE> 39
 9.811121e+00 1.934825e+01 2.180825e+01 3.963886e+01 3.327397e+01 2.707306e+01 3.771613e+01 3.680603e+01 5.716229e+01 3.877739e+01 3.128729e+01 2.262787e+01 1.875602e-02 1.589703e+00 2.326005e+00 3.349048e+00 4.402761e+00 5.767107e+00 3.588370e+00 5.869105e+00 4.865020e+00 7.242979e+00 3.875664e+00 4.064436e+00 3.448035e+00 2.622576e-03 1.827236e-01 4.332530e-01 4.154914e-01 8.155960e-01 7.826990e-01 5.790338e-01 1.046857e+00 7.951059e-01 1.242465e+00 8.393031e-01 7.495972e-01 5.136573e-01 2.721250e-04
<GCONST> 1.047109e+02
<MIXTURE> 3 6.265009e-02
<MEAN> 39
 -3.255676e+00 -7.466455e+00 -6.420158e-01 -9.832729e+00 -8.883111e+00 -2.000326e+00 -1.488499e+01 -2.290626e-01 -1.965764e+00 -3.259842e+00 -2.061491e+00 -7.135744e+00 4.961187e-01 1.235296e+00 -2.526504e-01 3.116342e-01 4.574862e-01 -9.855286e-01 4.210002e-01 -2.669516e-01 -7.090788e-01 -1.312685e+00 1.002505e-01 2.525042e-01 -7.234179e-01 7.426815e-03 -1.053323e+00 6.059276e-01 -3.135109e-01 3.790338e-01 4.518822e-01 -4.256469e-01 1.421028e+00 -4.113044e-01 -4.805053e-01 3.962011e-01 -1.012431e-01 4.481759e-01 -1.458782e-02
<VARIANCE> 39
 8.105002e+00 1.813633e+01 2.235376e+01 2.622764e+01 3.549343e+01 3.013861e+01 2.785552e+01 5.418700e+01 4.847202e+01 3.687069e+01 3.606556e+01 2.145337e+01 1.122073e-02 2.845443e+00 2.611409e+00 2.437240e+00 3.810382e+00 4.688878e+00 3.066826e+00 4.612650e+00 5.177649e+00 3.274717e+00 3.423481e+00 4.046004e+00 1.965649e+00 1.675907e-03 5.754179e-01 4.218473e-01 3.868148e-01 5.376821e-01 6.897303e-01 4.733253e-01 6.365848e-01 7.973724e-01 7.023456e-01 5.232334e-01 4.916968e-01 3.336653e-01 2.282686e-04
<GCONST> 9.918079e+01
<MIXTURE> 4 8.414504e-02
<MEAN> 39
 -4.543993e+00 -1.222937e+00 -2.805951e+00 -2.558704e+00 -1.058619e+01 -7.842338e+00 -3.047884e+00 -6.755541e+00 -6.579562e+00 -2.127324e-01 -5.562468e+00 -4.711772e+00 4.139964e-01 3.741470e+00 2.790051e-02 -1.235615e+00 1.295181e+00 -1.797899e+00 -8.651850e-01 3.884193e-01 -2.121744e+00 -1.943866e+00 1.346945e+00 -4.201071e-01 -1.165812e+00 1.866267e-02 -1.434388e+00 -4.100878e-01 1.332906e-01 -5.227321e-01 3.911130e-01 3.192568e-01 -3.477960e-02 4.929065e-01 3.404648e-01 -4.109933e-02 2.815985e-01 2.972722e-01 8.590165e-03
<VARIANCE> 39
 1.043106e+01 2.143839e+01 3.192673e+01 2.155841e+01 3.389110e+01 2.627659e+01 2.597614e+01 2.991071e+01 3.113045e+01 4.056036e+01 2.949351e+01 2.703539e+01 1.285998e-02 3.456931e+00 3.287474e+00 3.741619e+00 3.264884e+00 5.091959e+00 4.398447e+00 6.670920e+00 5.315099e+00 4.889667e+00 4.167713e+00 4.397037e+00 2.463911e+00 1.120656e-03 3.467438e-01 4.007061e-01 5.637174e-01 3.878985e-01 5.444235e-01 5.144024e-01 4.857909e-01 5.079987e-01 4.164702e-01 4.939928e-01 4.524668e-01 3.484862e-01 2.027310e-04
<GCONST> 9.865315e+01
<MIXTURE> 5 9.196308e-02
<MEAN> 39
 -7.396967e+00 -3.207241e+00 3.098255e-01 -4.887022e+00 -8.601886e+00 -6.837600e+00 -6.123540e+00 1.765453e+00 2.117346e-01 -5.286378e+00 -5.583961e+00 -1.575831e+00 3.820161e-01 4.158378e+00 1.076378e+00 -1.021601e+00 1.128073e+00 -5.100697e-01 -9.556280e-01 -2.858626e-01 -1.212540e+00 -1.000244e+00 -8.033805e-02 -9.133628e-01 -1.253875e+00 5.769785e-03 -1.019330e+00 -2.315681e-01 -2.884464e-01 -5.328570e-02 1.103261e-01 3.201386e-02 4.928567e-01 -6.447814e-01 -6.648878e-01 5.930288e-01 3.432382e-01 -8.349020e-02 8.430710e-03
<VARIANCE> 39
 1.200760e+01 1.973890e+01 2.381170e+01 2.769535e+01 2.366862e+01 2.538791e+01 2.872713e+01 2.509216e+01 3.008751e+01 1.873537e+01 2.084952e+01 2.168619e+01 1.281549e-02 2.082219e+00 2.491498e+00 3.171643e+00 2.476054e+00 2.313991e+00 2.741710e+00 4.177537e+00 4.536604e+00 5.063321e+00 3.098251e+00 3.148056e+00 2.237021e+00 1.232284e-03 3.457510e-01 2.915746e-01 3.945222e-01 4.003827e-01 3.177837e-01 5.104489e-01 3.989003e-01 4.871268e-01 5.459998e-01 3.586518e-01 3.633918e-01 3.827179e-01 1.701134e-04
<GCONST> 9.133029e+01
<MIXTURE> 6 6.506968e-02
<MEAN> 39
 -5.341350e+00 -3.610857e+00 -2.318404e+00 -8.700709e+00 -4.926159e+00 -6.990921e+00 -8.789578e+00 3.181269e+00 -3.399336e+00 -5.169647e+00 -4.044294e+00 -6.506252e+00 3.632262e-01 -4.428791e-01 1.657781e+00 -2.835331e-01 1.117073e+00 8.769595e-01 -3.601634e-01 2.033268e+00 -1.722240e+00 -2.060573e+00 8.494675e-01 -2.284793e-01 -2.636925e-01 -4.121336e-02 -2.525821e-01 9.136631e-02 1.700249e-01 4.302688e-01 -3.876906e-01 2.198090e-01 6.373370e-01 -8.164016e-01 -2.385105e-01 3.995132e-01 -1.220161e-01 2.871766e-01 -6.825812e-03
<VARIANCE> 39
 9.410841e+00 1.523264e+01 2.681939e+01 3.003388e+01 3.511962e+01 3.078435e+01 2.231510e+01 3.154485e+01 4.218214e+01 3.867829e+01 2.786767e+01 3.278311e+01 1.240732e-02 8.067062e-01 1.488360e+00 1.964166e+00 2.800730e+00 2.788244e+00 2.549339e+00 2.435051e+00 4.609986e+00 2.987762e+00 1.855216e+00 3.060796e+00 1.362483e+00 5.354682e-04 2.414950e-01 2.472209e-01 3.320757e-01 3.343070e-01 5.311707e-01 4.923593e-01 3.769801e-01 5.464744e-01 5.536258e-01 3.036877e-01 4.322740e-01 3.194993e-01 1.051565e-04
<GCONST> 8.771669e+01
<MIXTURE> 7 6.127942e-02
<MEAN> 39
 -1.718892e+01 -1.826436e+00 1.162189e+00 -8.237369e+00 -2.374114e+00 -3.554650e+00 -5.166500e+00 -9.956774e-01 -2.455001e+00 -2.557104e+00 -2.788602e+00 -1.259889e+00 2.898833e-01 4.135635e+00 1.394595e+00 1.339013e-01 1.768934e+00 -1.277490e+00 -2.920503e-01 4.013768e-01 -1.861091e+00 -1.858649e+00 5.344559e-03 -9.334840e-01 -9.684057e-01 -2.751328e-02 4.994881e-01 -4.071649e-01 -5.269241e-01 2.418091e-01 -8.070321e-01 -3.394487e-01 2.933750e-01 -2.366897e-01 -3.204626e-01 1.029437e-01 -1.788649e-01 -1.377464e-01 2.170284e-02
<VARIANCE> 39
 2.197928e+01 1.928971e+01 3.282747e+01 2.967236e+01 2.863373e+01 5.171036e+01 3.820972e+01 4.011988e+01 2.570154e+01 3.089295e+01 2.436584e+01 2.632668e+01 2.720586e-02 7.722589e+00 2.510980e+00 5.247025e+00 3.750757e+00 4.659440e+00 5.785268e+00 4.786963e+00 4.411504e+00 4.501684e+00 5.774936e+00 3.376673e+00 2.845272e+00 2.826919e-03 6.389936e-01 3.382571e-01 6.922203e-01 5.968050e-01 6.310210e-01 9.081254e-01 1.025073e+00 1.122298e+00 6.072372e-01 9.044615e-01 5.668087e-01 4.045109e-01 4.102575e-04
<GCONST> 1.080175e+02
<MIXTURE> 8 4.932484e-02
<MEAN> 39
 -5.738521e+00 -3.147312e+00 -4.800530e+00 -1.345804e+01 -1.167157e+01 -1.757660e+01 -7.116145e+00 -6.738882e+00 -1.077906e+01 -7.899560e+00 -1.131572e+01 -1.001155e+00 5.331636e-01 3.011281e+00 -1.094020e+00 -1.011982e+00 1.776418e-01 -1.541114e+00 -1.343705e+00 1.234522e+00 -1.665452e+00 -5.194873e-01 9.657186e-01 -1.938397e+00 1.092412e+00 1.535758e-02 -1.544047e+00 1.499110e-01 1.623621e-01 4.330301e-01 5.366155e-01 1.380417e+00 6.074089e-01 2.221578e-01 7.457847e-01 6.071037e-01 7.919148e-01 1.526692e-01 -3.173856e-03
<VARIANCE> 39
 6.668151e+00 1.908115e+01 3.172265e+01 2.738604e+01 1.935451e+01 3.577633e+01 3.583733e+01 4.395011e+01 4.587788e+01 7.402508e+01 1.911748e+01 1.630486e+01 9.570220e-03 2.511871e+00 2.437408e+00 3.305806e+00 3.173939e+00 3.704034e+00 7.178718e+00 6.062125e+00 6.549105e+00 4.643073e+00 4.677336e+00 2.324311e+00 2.612997e+00 6.885125e-04 2.046643e-01 3.785219e-01 5.191051e-01 4.303669e-01 2.844028e-01 6.888285e-01 4.725739e-01 9.233091e-01 4.101520e-01 1.035886e+00 3.203260e-01 4.089387e-01 2.177202e-04
<GCONST> 9.730456e+01
<MIXTURE> 9 6.581903e-02
<MEAN> 39
 -4.020856e+00 -9.578766e+00 1.632869e+00 -1.000574e+01 -1.282439e+01 -8.205201e+00 -8.992095e+00 2.064671e+00 -2.611383e+00 -4.092835e+00 -8.223586e+00 7.206259e-01 4.600852e-01 9.892124e-01 3.499745e-01 -8.404852e-01 2.776208e-01 6.018564e-01 -1.365960e-01 4.066908e-01 -9.215817e-01 -9.290479e-01 4.416924e-01 -3.272454e-01 -2.349738e-01 -7.824165e-03 -1.319525e+00 8.647305e-01 -2.215266e-01 4.663037e-01 7.015723e-01 2.155652e-01 8.892146e-01 -7.544352e-01 -4.833858e-01 3.211707e-01 5.499442e-01 -3.280717e-01 -1.379923e-02
<VARIANCE> 39
 5.236187e+00 1.256628e+01 2.506727e+01 5.065175e+01 3.108618e+01 2.849327e+01 3.862253e+01 4.028377e+01 4.330850e+01 2.871675e+01 1.821437e+01 1.395671e+01 9.591409e-03 2.032542e+00 2.425871e+00 1.535082e+00 2.012384e+00 2.881226e+00 1.196383e+00 3.202133e+00 3.540857e+00 3.093218e+00 1.635093e+00 2.099229e+00 1.763520e+00 1.061902e-03 3.262300e-01 3.545020e-01 4.017065e-01 5.297198e-01 5.204005e-01 3.792768e-01 5.158429e-01 5.155778e-01 6.787136e-01 3.626782e-01 3.818515e-01 2.931137e-01 2.033534e-04
<GCONST> 8.889088e+01
<MIXTURE> 10 6.452058e-02
<MEAN> 39
 -5.737843e+00 -3.404458e+00 3.215558e-01 -1.157515e+01 -5.573391e+00 -1.132791e+01 -1.087294e+01 4.175196e+00 -6.628693e+00 -3.285353e+00 -4.011546e+00 -4.971215e+00 4.644550e-01 3.380990e+00 -7.865320e-01 -3.960489e-01 3.387799e-01 -9.850076e-01 -7.387754e-01 -3.103890e-01 -4.970963e-01 -2.308738e+00 1.134364e+00 -5.791941e-01 -1.604022e+00 6.470897e-03 -1.350127e+00 -3.253917e-02 -2.184618e-01 4.612430e-01 -9.685995e-02 7.317072e-01 1.156955e+00 -9.229643e-01 1.132231e-01 4.565263e-01 -1.840573e-02 3.249274e-01 -1.300969e-03
<VARIANCE> 39
 7.658285e+00 1.748869e+01 2.250932e+01 2.177350e+01 2.750199e+01 1.980110e+01 2.988492e+01 1.880779e+01 3.201322e+01 2.819617e+01 1.123616e+01 3.506973e+01 1.065317e-02 3.634483e+00 2.280609e+00 3.317736e+00 2.703095e+00 4.389804e+00 5.646652e+00 4.969232e+00 5.481373e+00 4.073292e+00 4.574978e+00 3.758780e+00 3.398589e+00 1.035443e-03 2.671840e-01 2.938057e-01 3.411163e-01 3.440873e-01 5.214520e-01 4.001665e-01 5.472394e-01 4.424857e-01 5.391130e-01 4.728634e-01 3.268637e-01 6.597149e-01 2.087823e-04
<GCONST> 9.401642e+01
<MIXTURE> 11 4.802115e-02
<MEAN> 39
 -3.413979e+00 -5.013842e+00 -2.844101e+00 -7.591441e+00 -6.095452e+00 -1.059872e+01 -9.534372e+00 2.500898e+00 -1.252509e+01 -1.728057e-01 -2.018193e+00 -9.173696e+00 4.867427e-01 4.330761e-01 3.003233e-01 -3.682762e-01 1.434868e+00 -6.735160e-01 9.540333e-01 1.333227e+00 -2.326157e+00 -9.557988e-01 1.317414e+00 -5.533268e-01 -1.127097e+00 -1.816013e-02 -1.097959e+00 4.474187e-01 3.247769e-01 5.230860e-02 3.509351e-02 4.075046e-01 6.566793e-01 -6.772625e-01 9.443421e-01 -9.960482e-02 -4.372969e-01 8.010908e-01 -1.082624e-02
<VARIANCE> 39
 3.521744e+00 1.639841e+01 2.799826e+01 3.382289e+01 2.824844e+01 2.840657e+01 2.068440e+01 2.472919e+01 3.521776e+01 4.172380e+01 2.521322e+01 3.546657e+01 1.567819e-02 7.317200e-01 1.748619e+00 1.788271e+00 1.208326e+00 1.992271e+00 2.445678e+00 2.848651e+00 3.398109e+00 4.659390e+00 2.060377e+00 3.779724e+00 2.765502e+00 5.271178e-04 3.428621e-01 2.798026e-01 3.645875e-01 3.492179e-01 3.307155e-01 5.031069e-01 4.329668e-01 5.087532e-01 5.721870e-01 5.516857e-01 4.676693e-01 3.912530e-01 8.939602e-05
<GCONST> 8.749058e+01
<MIXTURE> 12 6.685473e-02
<MEAN> 39
 -2.884051e+00 -6.316394e+00 -9.437925e+00 -3.573925e+00 -7.681078e+00 -1.029856e+01 -5.893149e+00 -4.093829e+00 2.421206e+00 -1.027080e+00 -6.150677e+00 -5.837786e+00 4.390491e-01 -4.524927e-02 6.259691e-01 2.676499e-01 3.600526e-01 1.933922e-01 4.835903e-03 4.451570e-01 -1.108788e+00 -3.319647e-01 5.480687e-01 -6.725423e-01 -6.035236e-01 -2.165521e-02 -7.687725e-01 4.749934e-01 5.910934e-01 -1.315487e-01 1.200880e-01 3.003098e-01 2.868265e-01 -9.967366e-02 -7.025724e-01 -2.334779e-02 2.865966e-01 3.116286e-01 -1.409219e-02
<VARIANCE> 39
 7.794086e+00 1.260310e+01 2.101264e+01 3.496756e+01 3.294074e+01 4.188516e+01 3.729848e+01 3.106080e+01 2.958471e+01 5.099126e+01 4.519833e+01 5.311330e+01 1.681451e-02 1.782679e+00 1.668770e+00 2.267821e+00 2.141039e+00 2.698620e+00 1.876264e+00 1.885778e+00 3.683533e+00 3.381762e+00 2.407205e+00 2.606536e+00 1.509774e+00 1.041135e-03 4.210818e-01 2.483409e-01 2.837361e-01 3.045527e-01 3.653246e-01 4.445871e-01 4.364433e-01 4.617776e-01 4.891646e-01 5.336592e-01 6.086189e-01 4.355793e-01 1.375470e-04
<GCONST> 9.130733e+01
<MIXTURE> 13 5.727269e-02
<MEAN> 39
 -7.259228e+00 2.110779e+00 6.884269e-02 -3.550470e+00 -1.102137e+01 -1.085911e+01 -6.248799e+00 -7.095958e+00 -1.117860e+01 -6.374612e+00 -8.696206e+00 -4.358060e+00 2.956736e-01 3.755744e-01 1.581916e+00 -1.214343e+00 9.711877e-01 4.519539e-01 6.727471e-01 7.200590e-01 -2.077899e+00 -1.149132e+00 -1.247766e-01 -1.089475e+00 -5.337147e-01 -2.541886e-02 5.588956e-02 -9.641728e-01 -1.029883e-01 -9.059355e-01 -2.485408e-01 -1.953051e-01 3.405094e-01 1.970221e-01 1.068935e-01 7.043870e-01 1.824558e-01 2.767252e-01 3.256506e-02
<VARIANCE> 39
 4.119738e+00 1.744426e+01 2.530132e+01 2.658214e+01 3.577446e+01 3.804866e+01 3.334521e+01 2.923012e+01 2.798990e+01 2.936916e+01 3.356215e+01 2.016733e+01 2.695026e-02 1.668724e+00 4.319721e+00 3.206909e+00 5.015800e+00 4.599281e+00 5.650324e+00 5.476065e+00 5.250971e+00 3.267431e+00 5.021829e+00 4.239922e+00 2.909895e+00 4.971973e-03 1.417597e-01 6.121388e-01 6.327404e-01 6.620967e-01 6.370172e-01 6.686575e-01 8.606965e-01 7.211320e-01 3.418307e-01 6.860226e-01 5.993724e-01 5.362468e-01 3.233046e-04
<GCONST> 1.022858e+02
<MIXTURE> 14 7.688390e-02
<MEAN> 39
 -5.387265e+00 9.447860e-01 -3.851689e+00 -8.920860e+00 -1.321254e+01 -9.185081e+00 -1.614943e+00 -1.298288e+01 -1.011104e+01 -3.542200e+00 -1.005874e+01 1.199427e+00 4.636844e-01 1.094033e+00 -2.874463e-01 -4.167747e-01 -7.379199e-01 -1.080285e+00 2.492037e-01 8.184192e-01 -1.939691e+00 -4.612699e-01 7.747554e-01 -1.067877e+00 9.527075e-01 3.405767e-02 -3.865140e-01 -3.604629e-01 2.602455e-01 1.022676e-01 5.052696e-01 -8.518764e-02 -3.844860e-01 7.113227e-01 2.347895e-01 8.491487e-02 2.507522e-01 -2.540090e-01 -2.618029e-03
<VARIANCE> 39
 7.983883e+00 1.773669e+01 2.216941e+01 3.524781e+01 3.841784e+01 4.791151e+01 3.566362e+01 4.539991e+01 3.464470e+01 3.941850e+01 5.291334e+01 4.337434e+01 1.675937e-02 1.101338e+00 2.169183e+00 2.007037e+00 3.092296e+00 3.608938e+00 5.696814e+00 3.102420e+00 5.057098e+00 3.144279e+00 3.658330e+00 3.457429e+00 2.844710e+00 1.337431e-03 2.842362e-01 2.788837e-01 3.094866e-01 3.527504e-01 5.718579e-01 6.783028e-01 6.617341e-01 5.424084e-01 4.035380e-01 4.307351e-01 6.006982e-01 3.834758e-01 2.503493e-04
<GCONST> 9.742038e+01
<MIXTURE> 15 4.621986e-02
<MEAN> 39
 -1.369118e+01 -2.270153e+00 -5.346421e+00 -4.154463e+00 -6.172159e+00 -5.109464e+00 -7.203462e-01 -2.220418e+00 -6.245454e+00 -1.881524e+00 -4.924886e+00 -2.369146e+00 5.315728e-02 1.471122e+00 1.168254e-04 -1.891737e-01 -8.070558e-01 -6.914510e-01 -4.113306e-01 6.331471e-01 -5.264775e-01 -1.153046e+00 3.923282e-01 -8.802522e-01 -5.048932e-01 4.353466e-02 7.070364e-01 -1.090123e-01 4.338927e-01 -1.828075e-01 -2.845655e-01 -7.050260e-01 -7.862614e-01 -2.471245e-01 -1.501783e-02 3.802173e-02 -1.819145e-01 -1.655939e-01 3.991317e-02
<VARIANCE> 39
 1.338329e+01 2.259989e+01 1.912087e+01 4.939365e+01 3.135210e+01 3.240480e+01 2.542710e+01 6.028839e+01 4.011320e+01 2.278926e+01 3.534863e+01 3.595531e+01 2.871156e-02 3.096634e+00 1.914644e+00 2.649312e+00 6.724096e+00 3.967074e+00 3.477827e+00 6.689558e+00 5.676282e+00 4.487743e+00 5.334134e+00 3.232783e+00 4.198030e+00 3.737781e-03 4.306341e-01 6.194713e-01 7.471715e-01 1.376755e+00 9.820333e-01 9.822037e-01 8.533518e-01 9.217421e-01 1.365900e+00 6.086406e-01 4.646113e-01 7.559623e-01 4.771762e-04
<GCONST> 1.095807e+02
<MIXTURE> 16 4.320197e-02
<MEAN> 39
 -1.095489e+01 -4.826547e-01 -6.109079e-01 -1.295708e+01 -8.031153e+00 -1.014201e+01 -8.234060e+00 -4.233204e+00 -1.339004e+01 -8.092336e+00 -7.991333e+00 -5.154216e+00 4.778160e-01 4.618142e+00 3.340369e-02 -9.165856e-01 -1.755669e-02 -2.419396e+00 -1.384014e+00 -1.497041e+00 -2.608611e+00 -2.085888e+00 -1.045578e+00 -2.261115e+00 -8.626868e-01 3.727246e-02 -5.309783e-01 -3.910879e-01 -3.669631e-01 4.707933e-01 -5.182213e-02 4.059770e-01 6.450812e-01 -1.758810e-01 7.815098e-01 8.287261e-01 1.270105e-01 5.010331e-01 4.393692e-03
<VARIANCE> 39
 2.545430e+01 2.280366e+01 2.293829e+01 3.780718e+01 2.881718e+01 3.997462e+01 1.860515e+01 3.813330e+01 3.831810e+01 4.230006e+01 3.176283e+01 1.919965e+01 1.220769e-02 2.846172e+00 2.224352e+00 3.252940e+00 3.704077e+00 4.481316e+00 3.865968e+00 3.749632e+00 4.742049e+00 4.250064e+00 5.953756e+00 3.859657e+00 4.062900e+00 3.191947e-03 3.901145e-01 3.393209e-01 4.835579e-01 6.695470e-01 8.336546e-01 9.114394e-01 3.775146e-01 9.579774e-01 4.078162e-01 7.757397e-01 5.824678e-01 4.582806e-01 3.528725e-04
<GCONST> 1.032566e+02
<STATE> 3
<NUMMIXES> 16
<MIXTURE> 1 6.049479e-02
<MEAN> 39
 -6.790144e+00 1.751154e+00 -2.184454e+00 -2.780423e+00 -4.973475e+00 -8.391755e+00 -8.495528e-02 -6.992989e+00 -1.223918e+01 5.387300e-01 -3.316609e+00 -5.290994e+00 2.644669e-01 3.021076e-02 8.096759e-01 -5.877831e-02 5.545479e-01 1.406891e-01 3.636367e-01 1.200730e+00 -1.250594e+00 -1.295322e+00 7.900193e-01 7.221946e-01 3.754150e-02 -1.352635e-02 -3.136913e-02 -8.426384e-01 1.829079e-01 -3.738441e-02 -4.639881e-01 1.935441e-01 -5.810292e-01 6.527827e-01 9.184806e-01 -3.672939e-01 -2.257420e-01 2.357564e-01 8.960756e-03
<VARIANCE> 39
 9.708460e+00 8.499814e+00 1.858686e+01 4.113222e+01 2.527512e+01 3.046489e+01 3.619831e+01 4.068674e+01 4.039075e+01 3.058363e+01 3.376593e+01 2.446964e+01 1.348639e-02 1.202077e+00 1.849974e+00 1.444689e+00 3.171060e+00 2.897532e+00 2.548206e+00 3.080864e+00 4.064241e+00 4.143756e+00 1.826557e+00 2.538756e+00 1.720676e+00 1.204967e-03 2.293586e-01 2.632999e-01 4.411534e-01 4.257655e-01 5.211329e-01 4.525632e-01 7.082409e-01 4.503302e-01 8.412794e-01 4.114893e-01 4.270032e-01 3.659034e-01 1.805348e-04
<GCONST> 9.122244e+01
<MIXTURE> 2 6.581755e-02
<MEAN> 39
 -3.264185e+00 -2.827535e+00 -3.271428e+00 -4.267610e+00 -6.292490e+00 -7.150519e+00 -5.165554e+00 -4.185921e+00 -1.522896e+01 5.195851e+00 -2.892152e+00 -8.768539e+00 4.273396e-01 3.821593e-03 4.034878e-01 -6.690998e-02 -1.097813e-01 1.921572e-01 -5.087259e-02 1.457348e-01 3.967335e-02 -6.696071e-03 -2.370355e-01 -1.308114e-01 3.923756e-01 -4.747811e-03 -1.041475e-01 1.191157e-01 4.512890e-02 1.689253e-02 -1.438630e-01 9.864388e-02 -6.287816e-02 -1.104178e-02 3.920555e-01 -4.243540e-01 -1.525180e-01 3.111057e-01 -3.002099e-03
<VARIANCE> 39
 5.658208e+00 2.199978e+01 2.378625e+01 2.981681e+01 2.761777e+01 1.685551e+01 4.823696e+01 4.427444e+01 5.745153e+01 5.348001e+01 2.583733e+01 3.450949e+01 1.069069e-02 1.504581e-01 8.992298e-01 4.736027e-01 7.213864e-01 7.851371e-01 5.892655e-01 1.043402e+00 1.111469e+00 9.763117e-01 1.254781e+00 6.105812e-01 1.065473e+00 2.107611e-04 4.909014e-02 1.273387e-01 1.419905e-01 1.875051e-01 1.534479e-01 1.202667e-01 2.368088e-01 2.171136e-01 2.348306e-01 2.327173e-01 1.002768e-01 1.950586e-01 4.735092e-05
<GCONST> 6.231129e+01
<MIXTURE> 3 6.785631e-02
<MEAN> 39
 -3.981290e+00 -1.049443e+00 -3.714611e+00 -9.072763e+00 -8.718461e+00 -6.035621e+00 -3.998942e+00 -1.460675e+01 -8.948614e+00 4.483525e+00 -1.120822e+01 -1.554291e-01 4.523751e-01 -8.717442e-02 3.414285e-01 -1.540809e-01 1.664627e-01 2.333021e-01 1.973553e-01 2.162434e-01 -6.542230e-01 1.636052e-01 2.660429e-02 1.029655e-01 8.052275e-02 -3.633167e-03 -3.585437e-01 1.232324e-01 1.204068e-02 1.677798e-01 9.644249e-02 -1.627197e-01 -6.860144e-02 6.656035e-01 1.077110e-01 -6.514855e-01 4.183683e-01 -1.829800e-01 -4.464140e-03
<VARIANCE> 39
 4.962488e+00 1.855865e+01 1.907829e+01 2.482586e+01 6.451163e+01 4.943145e+01 4.080693e+01 3.704461e+01 3.228354e+01 2.701291e+01 2.320770e+01 1.613698e+01 1.517912e-02 3.871858e-01 1.015354e+00 9.181437e-01 8.977466e-01 1.461612e+00 1.346694e+00 1.820266e+00 1.879808e+00 1.359485e+00 2.184221e+00 1.110599e+00 8.788236e-01 1.654984e-04 2.224446e-01 2.307342e-01 2.904567e-01 2.440363e-01 3.773334e-01 3.537481e-01 4.058602e-01 3.541418e-01 3.520137e-01 2.676898e-01 1.890866e-01 1.931477e-01 5.984024e-05
<GCONST> 7.442994e+01
<MIXTURE> 4 5.123105e-02
<MEAN> 39
 -3.041511e+00 -3.397483e+00 -1.213505e+00 -2.665975e+00 -1.294676e+01 -5.746357e+00 -1.502894e+00 -1.093615e+01 -1.260853e+01 5.525990e+00 -7.685796e+00 -4.637755e+00 4.665174e-01 -1.148696e-01 5.690373e-01 1.157361e-01 2.956861e-01 6.167135e-02 5.556331e-01 4.960136e-01 -8.465417e-01 -4.721745e-02 2.522618e-01 -4.085731e-01 2.514538e-01 -1.177852e-02 -9.173476e-01 3.282843e-01 -9.472681e-02 -7.104799e-01 1.146957e+00 -3.136960e-01 -5.807867e-01 1.209952e+00 8.151903e-01 -9.968383e-01 4.075095e-01 3.034833e-01 -2.513178e-03
<VARIANCE> 39
 2.929877e+00 1.805143e+01 1.839087e+01 2.092596e+01 2.066854e+01 3.156547e+01 2.399405e+01 4.843414e+01 4.684967e+01 3.210779e+01 6.358478e+01 3.668369e+01 1.398887e-02 3.638975e-01 1.093311e+00 1.154206e+00 1.488213e+00 1.835244e+00 1.704340e+00 1.719769e+00 2.636752e+00 2.152459e+00 2.301925e+00 1.262124e+00 1.246345e+00 3.067255e-04 2.917682e-01 3.514703e-01 3.383566e-01 2.286217e-01 3.332922e-01 6.416584e-01 5.599857e-01 5.883637e-01 6.657497e-01 4.662352e-01 9.022159e-01 4.827444e-01 1.500662e-04
<GCONST> 8.387845e+01
<MIXTURE> 5 4.391487e-02
<MEAN> 39
 -5.631597e+00 3.048014e-01 -3.033569e+00 -1.932557e+00 -9.960814e+00 -5.727702e+00 -4.709161e-02 -7.997073e+00 -8.449624e+00 -4.968169e-01 -5.723176e+00 -4.911553e+00 2.656655e-01 -2.854641e-01 1.172317e-01 3.859845e-01 5.083482e-01 3.958928e-01 -9.991965e-02 -7.684608e-02 3.421133e-01 2.196382e-01 -1.984889e-01 -2.985729e-02 -3.857908e-02 -1.650939e-02 -1.224927e-01 -2.364962e-02 8.750154e-02 7.932113e-02 1.709271e-01 -9.839168e-03 -1.525986e-01 2.051954e-01 1.121073e-01 -2.236621e-01 -2.049883e-02 1.359730e-01 -2.064226e-03
<VARIANCE> 39
 5.641461e+00 1.125622e+01 1.014843e+01 2.109164e+01 1.507873e+01 3.581443e+01 5.064551e+01 5.265114e+01 2.767900e+01 3.795374e+01 2.691444e+01 1.957423e+01 9.076968e-03 2.047593e-01 4.454785e-01 5.243704e-01 3.750044e-01 6.114122e-01 7.570804e-01 9.671046e-01 8.816913e-01 7.951861e-01 6.447091e-01 7.447087e-01 6.685491e-01 7.242839e-05 4.805001e-02 1.269004e-01 9.060029e-02 8.305536e-02 1.130921e-01 1.886499e-01 2.204252e-01 3.216189e-01 1.481884e-01 1.005707e-01 1.216836e-01 1.180916e-01 2.288442e-05
<GCONST> 5.243029e+01
<MIXTURE> 6 7.308199e-02
<MEAN> 39
 -6.268753e+00 -6.050621e-01 -4.330840e+00 -1.012428e+01 -1.488189e+01 -1.351722e+01 1.336242e+00 -1.727697e+01 -6.101641e+00 -4.972426e+00 -1.169377e+01 2.995366e+00 4.839768e-01 -1.469386e-01 1.446415e-01 2.201030e-01 8.393313e-03 1.949451e-01 3.168326e-01 -4.617959e-01 -2.378759e-02 4.079304e-02 -1.456916e-01 3.068077e-01 -2.560001e-01 -1.020436e-02 -5.007099e-02 -2.004843e-01 -2.379457e-02 7.976395e-02 3.520851e-01 4.540010e-02 -5.803781e-01 7.435409e-01 -1.666134e-01 -7.678057e-02 2.992294e-01 -3.956916e-01 -1.028109e-03
<VARIANCE> 39
 7.087905e+00 1.937351e+01 1.596395e+01 2.689017e+01 3.643513e+01 3.541240e+01 3.277422e+01 5.508110e+01 7.294733e+01 6.274633e+01 4.029567e+01 4.048030e+01 1.729904e-02 4.533435e-01 8.484969e-01 9.138183e-01 1.009189e+00 1.348368e+00 1.437833e+00 2.196785e+00 3.438497e+00 1.811157e+00 1.620405e+00 1.432208e+00 1.985463e+00 4.575288e-04 1.287045e-01 2.632698e-01 1.538517e-01 2.165162e-01 3.151621e-01 4.334646e-01 3.670399e-01 6.254609e-01 2.932800e-01 3.884342e-01 4.275357e-01 3.097265e-01 1.113851e-04
<GCONST> 8.162574e+01
<MIXTURE> 7 4.134770e-02
<MEAN> 39
 -3.162571e+00 -4.940984e+00 -5.047380e+00 -8.156898e+00 -1.580760e+01 -6.925790e+00 -8.367676e+00 -8.409070e+00 -7.605626e+00 -3.869326e+00 -9.782384e+00 -3.767089e+00 5.552257e-01 5.768818e-01 7.469688e-02 -6.120340e-01 1.973061e-01 -3.168346e-01 9.099007e-02 9.295325e-02 -3.611951e-01 -7.912464e-03 1.463299e-01 -8.966871e-02 4.156533e-01 1.382631e-02 -1.585442e+00 3.854650e-01 2.867821e-01 -2.381758e-01 1.380463e+00 -6.363600e-02 4.945699e-01 7.619199e-01 2.636150e-01 1.832181e-02 6.091133e-01 2.978890e-01 -1.004269e-02
<VARIANCE> 39
 8.803881e+00 3.086388e+01 3.592443e+01 4.936685e+01 6.267348e+01 5.824802e+01 4.927540e+01 5.778888e+01 4.718362e+01 3.930081e+01 3.261771e+01 2.595242e+01 9.808766e-03 3.141885e+00 5.198534e+00 3.075259e+00 3.112474e+00 4.683599e+00 3.138805e+00 5.714253e+00 5.190748e+00 2.289541e+00 2.616838e+00 2.390623e+00 1.617327e+00 1.463461e-03 5.665153e-01 7.392537e-01 8.481607e-01 9.036135e-01 1.049867e+00 1.672214e+00 8.381358e-01 9.063604e-01 6.555516e-01 8.862985e-01 5.594929e-01 4.448624e-01 2.497394e-04
<GCONST> 1.072297e+02
<MIXTURE> 8 5.944363e-02
<MEAN> 39
 -3.042779e+00 -1.621299e+00 -5.701581e+00 8.530949e-01 -1.279176e+01 -8.656544e+00 1.376284e+00 -1.089798e+01 -1.049222e+01 -2.363336e-01 4.312867e-01 -7.225015e+00 4.274784e-01 5.187185e-01 -1.134342e-01 -3.237922e-01 8.764734e-01 -1.078329e+00 -7.380509e-02 1.756459e+00 -1.779512e+00 -1.221800e+00 1.026325e+00 7.005348e-01 -5.523938e-01 8.362029e-03 -6.168450e-01 -1.968575e-01 4.172401e-01 -5.394967e-01 7.070730e-01 2.601387e-01 -8.095871e-01 8.296986e-01 7.525189e-01 -2.846043e-01 -4.061309e-01 4.421391e-01 -4.447873e-03
<VARIANCE> 39
 4.873123e+00 1.606637e+01 2.066154e+01 2.128798e+01 2.325958e+01 1.839232e+01 2.446542e+01 3.796509e+01 6.716499e+01 3.502939e+01 2.010467e+01 2.677876e+01 1.319498e-02 5.600117e-01 1.650614e+00 1.392106e+00 2.155024e+00 2.283997e+00 2.288271e+00 2.453507e+00 3.879576e+00 4.541863e+00 1.624718e+00 1.657818e+00 1.670913e+00 7.217398e-04 3.267834e-01 2.458599e-01 4.116448e-01 4.266372e-01 4.133305e-01 3.033819e-01 3.857362e-01 4.415185e-01 6.400985e-01 3.271015e-01 2.590303e-01 2.556372e-01 1.425847e-04
<GCONST> 8.420999e+01
<MIXTURE> 9 8.520198e-02
<MEAN> 39
 -5.961820e+00 -1.828684e+00 -2.634397e+00 -8.035079e+00 -1.244322e+01 -1.109745e+01 -1.834300e+00 -1.447174e+01 -8.961897e+00 -1.976126e+00 -1.158670e+01 1.230530e-01 4.999649e-01 2.110751e-02 7.125957e-02 5.664571e-02 5.769726e-02 -5.951790e-02 1.123555e-01 -2.441123e-01 1.973318e-01 1.185121e-02 -1.414253e-01 -4.786007e-02 2.643782e-02 -2.164124e-03 3.132286e-02 1.362152e-01 -6.399444e-02 1.328382e-01 -2.410141e-02 2.663763e-02 -3.704679e-02 1.648515e-01 -1.024086e-01 -5.785698e-02 1.515889e-02 -1.265063e-01 -2.681813e-03
<VARIANCE> 39
 5.704281e+00 1.348127e+01 3.396349e+01 3.821021e+01 3.484312e+01 4.852229e+01 4.723981e+01 5.201417e+01 6.112359e+01 4.708674e+01 4.863666e+01 5.828797e+01 9.184156e-03 2.333498e-01 3.721873e-01 4.074657e-01 4.659518e-01 4.761099e-01 6.929832e-01 9.075060e-01 8.310794e-01 9.997473e-01 6.859988e-01 8.045706e-01 4.756373e-01 1.318854e-04 3.937765e-02 6.622558e-02 8.948231e-02 1.137139e-01 1.605946e-01 1.323440e-01 2.108133e-01 2.209889e-01 2.379834e-01 1.296899e-01 1.878486e-01 1.239532e-01 2.644518e-05
<GCONST> 5.865165e+01
<MIXTURE> 10 9.133493e-02
<MEAN> 39
 -3.485696e+00 -2.701349e+00 -3.030617e+00 -2.412399e+00 -1.287283e+01 -5.451999e+00 -4.234276e+00 -1.057644e+01 -1.065125e+01 7.465069e-01 -1.907240e+00 -1.015994e+01 4.930151e-01 6.312755e-02 4.337654e-06 -5.683485e-02 -3.031169e-01 4.220195e-01 1.754112e-01 -1.115980e-01 2.449650e-01 -9.422971e-02 1.540008e-01 1.097682e-02 -2.488868e-02 7.643751e-04 -2.542039e-01 2.036466e-01 -1.904399e-02 -8.768208e-02 4.990480e-01 -2.434679e-01 -9.862807e-02 4.068243e-01 2.271951e-01 -1.917032e-01 -2.708205e-01 3.626698e-01 -7.231946e-03
<VARIANCE> 39
 5.727057e+00 1.720341e+01 1.649991e+01 3.265388e+01 2.883555e+01 4.321402e+01 3.995681e+01 3.671991e+01 3.883992e+01 4.888535e+01 5.149821e+01 3.806592e+01 1.352192e-02 2.666605e-01 1.313138e+00 6.857994e-01 9.962861e-01 1.137807e+00 1.456058e+00 1.481445e+00 1.958949e+00 1.529224e+00 1.898656e+00 1.342113e+00 1.538428e+00 4.064002e-04 1.022403e-01 1.735888e-01 1.701845e-01 3.159963e-01 2.897594e-01 3.177804e-01 4.589005e-01 2.946817e-01 3.232459e-01 3.945893e-01 3.748825e-01 3.212247e-01 5.439491e-05
<GCONST> 7.658932e+01
<MIXTURE> 11 6.137837e-02
<MEAN> 39
 -4.780451e+00 -1.546920e+00 -2.237734e-01 -2.704064e+00 -1.021028e+01 -1.019331e+01 -1.808524e+00 -8.108452e+00 -1.390362e+01 6.627881e+00 -6.362247e+00 -8.304793e+00 3.917176e-01 9.843426e-01 -6.680313e-01 -1.869552e-02 -4.238642e-02 -7.582101e-01 -2.740038e-02 2.334443e-01 -2.494268e-01 -1.014634e+00 9.727611e-01 -1.734327e-01 -4.421100e-01 2.675595e-02 -7.460220e-01 -7.077260e-01 2.765087e-02 -6.323530e-01 2.989066e-01 6.864495e-01 -7.933370e-01 9.226284e-01 1.400781e+00 -1.163079e+00 3.055232e-01 6.835725e-01 1.029105e-02
<VARIANCE> 39
 9.394835e+00 2.040190e+01 1.874427e+01 5.002927e+01 3.532011e+01 3.979351e+01 3.612499e+01 4.717393e+01 6.663081e+01 4.407409e+01 3.117807e+01 4.270249e+01 8.911040e-03 2.407364e+00 2.891641e+00 3.118420e+00 3.314570e+00 4.466267e+00 3.321740e+00 3.510690e+00 3.787776e+00 5.684990e+00 5.138249e+00 2.797172e+00 2.885799e+00 1.562094e-03 8.586153e-01 5.963529e-01 6.110272e-01 8.218865e-01 7.630872e-01 9.848831e-01 8.895329e-01 8.738080e-01 1.089409e+00 5.891962e-01 7.523625e-01 6.693408e-01 2.037126e-04
<GCONST> 1.059620e+02
<MIXTURE> 12 6.645476e-02
<MEAN> 39
 -5.310276e+00 -1.205402e+00 -2.607538e+00 -3.342987e+00 -6.197298e+00 -6.901119e+00 -4.150428e+00 -6.556258e+00 -8.424450e+00 2.428240e+00 -6.132424e+00 -8.700159e+00 2.960415e-01 -9.520451e-01 1.478312e+00 8.509359e-01 1.214378e+00 -2.263017e-01 2.378233e-01 1.666026e+00 -1.819827e+00 -6.088845e-01 6.519917e-02 -6.512845e-01 8.070717e-01 -4.346005e-02 -4.130161e-01 -1.188103e-01 4.091889e-02 -2.217210e-01 1.653872e-01 1.545258e-01 -1.631269e-01 5.176854e-01 5.758614e-01 -4.653185e-01 2.305313e-01 4.999362e-01 5.477871e-05
<VARIANCE> 39
 8.493041e+00 1.672386e+01 2.833849e+01 3.889117e+01 1.654857e+01 3.759480e+01 3.996243e+01 4.920592e+01 5.836376e+01 3.894315e+01 2.507686e+01 2.500838e+01 1.829196e-02 6.449156e-01 1.324446e+00 1.779411e+00 2.519448e+00 2.061935e+00 2.569130e+00 2.410732e+00 2.756784e+00 3.550843e+00 2.855149e+00 1.771594e+00 2.369038e+00 5.449497e-04 3.321587e-01 2.301940e-01 3.806742e-01 3.989772e-01 2.625662e-01 5.039433e-01 4.225016e-01 6.072320e-01 6.064948e-01 3.519025e-01 3.900508e-01 2.751453e-01 1.103757e-04
<GCONST> 8.823718e+01
<MIXTURE> 13 5.534596e-02
<MEAN> 39
 -5.194593e+00 2.312393e+00 -4.365019e+00 -7.258606e-01 -1.291506e+01 -6.266751e+00 6.205353e-01 -1.801881e+01 -8.140590e+00 -1.311367e+00 -4.133858e+00 -5.044362e+00 4.196658e-01 -3.558397e-01 7.789050e-01 3.141381e-01 -4.936078e-02 3.679762e-01 5.218535e-01 -5.419334e-02 -4.910250e-01 -2.496440e-01 -3.105443e-02 -4.049422e-01 3.650478e-01 -1.373176e-02 -5.855467e-01 -5.935461e-01 2.107662e-01 -7.654576e-01 9.671807e-01 -1.320928e-01 -8.259794e-01 1.795451e+00 4.190225e-01 -3.667957e-01 -9.954286e-02 1.895964e-01 -1.492949e-03
<VARIANCE> 39
 8.798415e+00 1.541507e+01 3.329620e+01 3.120619e+01 3.237113e+01 3.166732e+01 4.622811e+01 5.245282e+01 5.250758e+01 5.040895e+01 3.237884e+01 3.398133e+01 2.584038e-02 3.937798e-01 1.479863e+00 1.261601e+00 2.349835e+00 2.618051e+00 1.768366e+00 3.052439e+00 5.307101e+00 1.417255e+00 2.263623e+00 1.648778e+00 1.516557e+00 4.990308e-04 3.759544e-01 2.765229e-01 6.490095e-01 7.019942e-01 5.875385e-01 6.117172e-01 8.821687e-01 9.521325e-01 8.160862e-01 6.802107e-01 6.663480e-01 4.148999e-01 2.253258e-04
<GCONST> 9.431156e+01
<MIXTURE> 14 6.612308e-02
<MEAN> 39
 -5.690705e+00 -4.940767e+00 -1.382112e+00 -1.206911e+01 -8.923344e+00 -1.658033e+01 -1.010818e+00 -7.142333e+00 -1.557648e+01 3.212381e+00 -1.658033e+01 -3.396809e+00 4.789387e-01 8.491966e-02 3.066004e-01 -5.691542e-02 4.336013e-01 6.288067e-02 2.821625e-01 4.255596e-02 -7.487610e-01 2.854993e-01 3.469439e-01 -7.092941e-01 1.317856e-02 -5.729421e-03 -3.459298e-01 1.884540e-01 -2.784251e-02 2.315105e-01 -8.401895e-02 7.086611e-01 -4.717632e-01 2.082752e-01 6.389334e-01 -7.581250e-01 7.885188e-01 -1.143152e-02 -5.529761e-03
<VARIANCE> 39
 4.638518e+00 1.731039e+01 3.106862e+01 2.752275e+01 2.924399e+01 4.455115e+01 2.750668e+01 4.542932e+01 5.211983e+01 4.992386e+01 3.865905e+01 5.169966e+01 9.344826e-03 3.488288e-01 1.240356e+00 1.479042e+00 1.517199e+00 1.789849e+00 2.654179e+00 1.828168e+00 3.695179e+00 2.586972e+00 2.727157e+00 2.043872e+00 2.010739e+00 5.318911e-04 2.037902e-01 2.533366e-01 4.039166e-01 3.707957e-01 3.513609e-01 5.861033e-01 3.343366e-01 6.977984e-01 5.088838e-01 4.389575e-01 3.859975e-01 4.163626e-01 1.232361e-04
<GCONST> 8.694904e+01
<MIXTURE> 15 5.832662e-02
<MEAN> 39
 -5.515911e+00 -2.723174e+00 -4.125252e+00 -1.127704e+01 -1.493934e+01 -1.253880e+01 -5.315854e+00 -1.274926e+01 -8.384865e+00 -7.934501e+00 -1.338055e+01 1.167748e+00 5.534720e-01 2.702450e-02 2.233484e-01 -2.908566e-01 6.623375e-01 6.105404e-01 6.534023e-01 -6.165252e-01 -6.809286e-02 -2.884342e-01 3.301100e-01 2.246712e-01 -6.718885e-01 -8.069324e-03 -5.500687e-01 1.058354e-01 -1.027639e-01 1.038260e-01 6.969734e-01 2.757712e-01 5.683613e-03 6.024885e-01 -8.659793e-02 2.361147e-01 6.089665e-01 -3.850888e-01 -9.863411e-03
<VARIANCE> 39
 5.901113e+00 2.561382e+01 2.187230e+01 3.385061e+01 4.357593e+01 3.243324e+01 4.748439e+01 9.974917e+01 6.896894e+01 7.856766e+01 9.809811e+01 4.870683e+01 1.315367e-02 6.009831e-01 2.692868e+00 2.094716e+00 2.307724e+00 3.782703e+00 2.345867e+00 4.362653e+00 9.283495e+00 3.826326e+00 4.770097e+00 5.194948e+00 3.743793e+00 8.500791e-04 3.405895e-01 4.895642e-01 4.371365e-01 5.587810e-01 7.565010e-01 5.343580e-01 7.496677e-01 2.127398e+00 9.336710e-01 1.272271e+00 1.553317e+00 7.527899e-01 2.155011e-04
<GCONST> 1.067474e+02
<MIXTURE> 16 5.264521e-02
<MEAN> 39
 -3.661541e+00 -5.673502e+00 -2.424293e+00 8.227701e-01 -1.331273e+01 -7.096478e+00 -4.105834e-01 -1.225869e+01 -8.402553e+00 2.138765e+00 -4.938786e+00 -7.608651e+00 4.244646e-01 -1.635076e-01 3.927234e-01 5.813506e-02 2.253416e-02 2.918999e-01 1.350764e-01 2.651305e-01 -1.871405e-01 1.380782e-01 1.209645e-01 -2.625477e-01 7.483912e-02 -9.254174e-03 -1.604590e-01 2.701636e-01 -5.129769e-02 -2.316509e-01 3.571359e-01 -9.393793e-02 -2.373758e-01 3.571418e-01 -6.097070e-02 -2.194710e-01 5.389712e-02 7.491649e-02 -2.091052e-03
<VARIANCE> 39
 2.504007e+00 2.257364e+01 3.445576e+01 2.326295e+01 2.325856e+01 2.211397e+01 1.936555e+01 3.097319e+01 7.589538e+01 2.391521e+01 4.436916e+01 2.621863e+01 1.100664e-02 1.745885e-01 8.341701e-01 4.942080e-01 3.774778e-01 8.892605e-01 4.890234e-01 7.590801e-01 7.388739e-01 5.146355e-01 6.368721e-01 6.976165e-01 4.033886e-01 1.674398e-04 7.225768e-02 1.582932e-01 9.999780e-02 1.482977e-01 1.344812e-01 1.203038e-01 1.716065e-01 2.184301e-01 1.503292e-01 2.204631e-01 1.716678e-01 1.211298e-01 2.259504e-05
<GCONST> 5.492887e+01
<STATE> 4
<NUMMIXES> 16
<MIXTURE> 1 5.274295e-02
<MEAN> 39
 -5.339410e+00 9.489396e-01 -3.554351e+00 -7.307802e+00 -5.748033e+00 -9.612988e+00 -5.652895e+00 -3.992453e+00 -8.494944e+00 2.539316e-01 -7.907326e+00 -4.216800e+00 4.256488e-01 -3.681244e+00 2.218591e+00 -5.081818e-01 -4.449533e-01 2.408327e+00 -6.435893e-01 4.493649e-01 8.255860e-01 1.657374e+00 -1.117410e+00 8.635668e-01 7.569565e-01 -8.453549e-03 -1.647682e+00 -3.699727e-02 -3.467541e-02 -8.516839e-02 4.020474e-01 3.204005e-01 3.022938e-01 2.654788e-01 4.579167e-01 -6.385448e-03 4.150873e-01 2.996794e-01 1.415167e-02
<VARIANCE> 39
 7.627057e+00 1.724708e+01 2.711646e+01 2.459120e+01 5.268573e+01 2.821008e+01 4.214995e+01 4.597729e+01 3.629972e+01 2.582998e+01 1.878737e+01 2.608164e+01 9.948313e-03 2.308770e+00 3.091051e+00 3.079588e+00 2.512594e+00 5.554482e+00 5.982250e+00 3.374287e+00 3.847773e+00 3.159708e+00 3.261269e+00 2.622694e+00 2.846276e+00 7.973776e-04 1.824792e-01 4.811023e-01 2.172612e-01 2.540155e-01 7.227607e-01 3.614269e-01 5.630077e-01 3.964590e-01 4.706035e-01 4.085755e-01 2.449368e-01 2.805639e-01 1.497951e-04
<GCONST> 9.234235e+01
<MIXTURE> 2 7.799219e-02
<MEAN> 39
 -4.419062e+00 -5.351689e+00 -3.590961e+00 -4.851638e+00 -1.058824e+01 -8.805143e+00 -3.582736e+00 -8.409693e+00 -5.164508e+00 4.783134e-01 -9.270026e+00 -2.394751e+00 4.873965e-01 4.434213e-01 -1.769901e+00 -7.304870e-01 -1.240806e+00 6.642948e-01 9.816067e-01 -1.453527e+00 1.998629e+00 1.219989e+00 -1.338066e+00 1.246844e+00 2.326872e-01 3.289781e-02 1.493613e-02 -4.227823e-03 -1.412768e-01 -4.808469e-01 1.428749e-01 1.120697e-01 -2.953800e-01 6.168184e-01 -5.150344e-02 -1.773335e-01 4.376525e-01 -1.663637e-01 5.780193e-03
<VARIANCE> 39
 7.342986e+00 2.569373e+01 3.107747e+01 3.798974e+01 3.036352e+01 3.789138e+01 2.997216e+01 4.219590e+01 4.374153e+01 5.765959e+01 3.024373e+01 3.865814e+01 1.000673e-02 9.812561e-01 2.072752e+00 3.329314e+00 3.045315e+00 3.243224e+00 4.134454e+00 2.965092e+00 4.490505e+00 4.829611e+00 3.510453e+00 2.781781e+00 3.198334e+00 6.490992e-04 1.102028e-01 3.914059e-01 3.375308e-01 4.119063e-01 4.881827e-01 4.920044e-01 5.386770e-01 5.924129e-01 4.789060e-01 4.557215e-01 3.577436e-01 4.767456e-01 8.543633e-05
<GCONST> 9.401778e+01
<MIXTURE> 3 5.307045e-02
<MEAN> 39
 -6.211040e+00 1.619073e+00 -1.880867e+00 2.350690e-01 -5.132979e+00 -4.333760e+00 -6.625839e-01 -7.755377e+00 -8.452735e+00 -1.873783e+00 -2.621072e+00 -1.475560e+00 2.117127e-01 -1.088244e+00 7.477765e-02 7.694888e-01 1.140894e+00 1.324244e+00 9.210262e-01 5.561984e-01 8.245289e-01 5.337195e-01 -4.913226e-01 -3.672627e-01 3.835479e-01 -4.165601e-02 -2.114969e-01 -3.083684e-01 -1.604755e-01 -9.554809e-02 -1.541699e-03 2.745426e-02 1.438021e-01 2.241556e-01 1.858142e-01 8.083665e-02 -1.533944e-01 -8.350959e-02 -5.403841e-03
<VARIANCE> 39
 5.735595e+00 9.053725e+00 8.400908e+00 2.016306e+01 1.935420e+01 2.169816e+01 2.512070e+01 4.065510e+01 2.457901e+01 2.341402e+01 4.333317e+01 1.883559e+01 1.091967e-02 2.286094e-01 6.799549e-01 7.537695e-01 9.471456e-01 1.220458e+00 1.853386e+00 1.164550e+00 1.582672e+00 8.405465e-01 1.076601e+00 1.313902e+00 9.019737e-01 2.484652e-04 3.957112e-02 1.071475e-01 1.592513e-01 2.211455e-01 1.888544e-01 1.904366e-01 1.555490e-01 2.057180e-01 2.218987e-01 1.498052e-01 1.794322e-01 2.001937e-01 2.242607e-05
<GCONST> 6.025756e+01
<MIXTURE> 4 5.024067e-02
<MEAN> 39
 -5.675370e+00 -6.706385e+00 -5.421669e+00 -7.149605e+00 -6.294555e+00 -3.710207e+00 -1.266442e+01 -6.071876e+00 -5.296252e+00 -3.241075e+00 -3.739306e+00 -6.441437e+00 4.882919e-01 -1.041292e+00 8.213263e-01 -6.666294e-01 -4.556328e-01 1.708449e+00 1.931459e-01 -4.628162e-01 1.131967e+00 7.745057e-01 -3.686561e-01 6.496593e-01 2.990191e-01 -1.570287e-02 -6.747025e-01 6.020682e-01 2.348046e-01 9.986003e-02 -1.970344e-01 -2.443840e-01 1.145231e+00 -7.849082e-02 -8.385494e-02 2.184893e-01 -1.630941e-01 3.957736e-01 -1.333479e-02
<VARIANCE> 39
 2.054107e+01 3.032324e+01 2.559598e+01 4.865318e+01 4.327999e+01 4.381310e+01 6.080579e+01 5.214633e+01 3.521527e+01 3.612697e+01 4.309082e+01 3.956248e+01 1.192966e-02 4.363657e+00 4.450195e+00 3.655334e+00 3.998948e+00 5.675312e+00 3.541336e+00 1.099168e+01 6.444367e+00 5.819830e+00 2.803938e+00 5.341977e+00 4.424645e+00 3.063109e-03 4.520177e-01 7.737490e-01 5.325350e-01 5.020807e-01 6.626316e-01 7.408996e-01 1.284825e+00 9.177970e-01 9.966130e-01 5.919293e-01 6.732226e-01 6.745434e-01 2.899476e-04
<GCONST> 1.117060e+02
<MIXTURE> 5 3.725346e-02
<MEAN> 39
 -8.832464e+00 6.333318e-01 -7.437210e-01 -7.046999e+00 -4.803104e+00 -3.606387e+00 -6.262209e+00 1.842673e+00 -6.803515e+00 -3.301790e+00 -1.902624e+00 -5.471424e+00 2.758735e-01 -1.500524e-01 -9.203291e-01 -2.967278e-02 -8.635619e-01 -1.055766e+00 1.276353e-01 -2.056983e-01 4.034583e-01 1.214175e+00 -4.081025e-01 -5.874992e-02 5.172080e-01 2.167885e-02 -3.185385e-02 -3.112363e-01 1.602258e-02 4.141910e-02 -2.884255e-01 -1.439652e-01 1.067475e-01 -4.733006e-01 -1.706581e-02 2.604161e-01 -1.593616e-01 6.072005e-02 8.897990e-03
<VARIANCE> 39
 2.254146e+01 1.775797e+01 2.110651e+01 2.289892e+01 4.322182e+01 1.589798e+01 4.615588e+01 4.106597e+01 1.383590e+01 1.826846e+01 2.297245e+01 3.201193e+01 1.823799e-02 1.014393e+00 1.927547e+00 1.214828e+00 2.446661e+00 3.513382e+00 1.526667e+00 2.602012e+00 2.419454e+00 1.800860e+00 1.930200e+00 8.115852e-01 1.575540e+00 6.707191e-04 2.458441e-01 3.420641e-01 1.584966e-01 2.980750e-01 4.655425e-01 2.510291e-01 4.113964e-01 3.265711e-01 3.210324e-01 3.973835e-01 2.013317e-01 2.620451e-01 1.654379e-04
<GCONST> 8.213200e+01
<MIXTURE> 6 4.465644e-02
<MEAN> 39
 -7.986716e+00 1.814115e+00 -1.345266e-01 6.085534e-01 -9.762014e+00 -1.154708e+01 2.524255e+00 -1.016830e+01 -7.574635e+00 -1.233916e+00 -1.171846e+01 -6.376965e+00 2.094552e-01 -9.224578e-01 -1.639722e-01 -2.271772e-01 2.867272e-02 8.441097e-01 1.142506e+00 -2.665519e-01 1.217077e+00 6.597986e-01 -9.475703e-01 6.890928e-01 4.621196e-01 -2.930975e-02 -5.044245e-01 -6.562701e-01 -4.388699e-01 -9.163752e-01 6.576768e-01 4.161941e-01 -8.035697e-01 1.007613e+00 4.598905e-01 1.268594e-01 8.703936e-01 3.511070e-01 7.680076e-03
<VARIANCE> 39
 5.441221e+00 1.512436e+01 7.352824e+00 3.654852e+01 2.183923e+01 2.576709e+01 5.240912e+01 4.386261e+01 5.489471e+01 4.189265e+01 3.826035e+01 3.059333e+01 1.856028e-02 1.481203e+00 1.743397e+00 1.408219e+00 2.828300e+00 1.382104e+00 1.368719e+00 3.872129e+00 3.429042e+00 2.862036e+00 2.320059e+00 1.822808e+00 2.268788e+00 1.346844e-03 2.992727e-01 2.816612e-01 2.792833e-01 4.616738e-01 3.904240e-01 6.691500e-01 8.544689e-01 3.963984e-01 5.365433e-01 7.668404e-01 3.746841e-01 3.003981e-01 2.910534e-04
<GCONST> 9.066904e+01
<MIXTURE> 7 6.806353e-02
<MEAN> 39
 -4.478492e+00 3.757771e+00 -3.951995e+00 -3.895781e+00 -1.176270e+01 -6.263171e+00 -2.396072e+00 -1.528747e+01 -1.136654e+01 -3.222661e+00 -7.047021e+00 -4.677554e+00 4.618305e-01 -1.861264e+00 -3.413540e-01 9.988816e-01 -5.486200e-01 2.787322e+00 5.064969e-01 -1.171685e+00 2.659256e+00 6.135225e-01 -8.589116e-01 2.850018e-01 5.927082e-01 -4.192458e-02 -1.007613e+00 -1.009106e+00 5.031119e-02 -4.818032e-01 4.024431e-01 -9.495343e-02 -8.221476e-03 1.137172e+00 6.848767e-01 2.115964e-01 4.814069e-01 2.619427e-01 2.588016e-03
<VARIANCE> 39
 8.109985e+00 1.037485e+01 2.116219e+01 4.573148e+01 4.224319e+01 3.681495e+01 6.334011e+01 3.980442e+01 3.931188e+01 6.718767e+01 5.551855e+01 4.119143e+01 1.263625e-02 1.406241e+00 3.480636e+00 2.013447e+00 4.475001e+00 3.813038e+00 3.950861e+00 5.150455e+00 5.891822e+00 3.745111e+00 5.152151e+00 5.900499e+00 3.041340e+00 1.252573e-03 3.070154e-01 4.916299e-01 3.427329e-01 5.563523e-01 7.635691e-01 5.414092e-01 1.305685e+00 7.863694e-01 6.430693e-01 9.021211e-01 8.421666e-01 5.522585e-01 3.439578e-04
<GCONST> 1.047955e+02
<MIXTURE> 8 1.021410e-01
<MEAN> 39
 -5.462020e+00 -1.011599e+01 -9.122847e-01 -1.317736e+01 -9.499607e+00 -8.904753e+00 -1.032989e+01 2.078343e+00 -5.551725e+00 -4.907737e+00 -6.553214e+00 -2.027240e+00 6.056357e-01 1.781081e-01 -1.775190e+00 -6.774121e-01 -1.605542e+00 2.378532e-01 4.540358e-01 -1.086755e+00 3.222790e+00 1.326680e+00 -1.016543e+00 6.661038e-01 -1.886226e-01 4.163160e-02 1.444046e-01 4.473295e-01 -2.652833e-01 4.038556e-01 -2.594499e-01 8.394657e-02 5.136046e-01 -6.920427e-01 -2.075133e-01 3.043343e-01 -7.844504e-02 -8.611462e-02 -3.783196e-03
<VARIANCE> 39
 6.622106e+00 2.072509e+01 3.577743e+01 3.504015e+01 4.427649e+01 3.603632e+01 3.908107e+01 4.635578e+01 6.161507e+01 3.468021e+01 2.291233e+01 2.432983e+01 9.281050e-03 6.612823e-01 1.907853e+00 2.259215e+00 1.978908e+00 3.574956e+00 4.298125e+00 4.759971e+00 4.475843e+00 7.304844e+00 3.098694e+00 2.832558e+00 2.512154e+00 4.900027e-04 8.232100e-02 2.278597e-01 2.651687e-01 3.223121e-01 3.976544e-01 5.176381e-01 3.718923e-01 7.116130e-01 8.132012e-01 5.492511e-01 4.026735e-01 3.062385e-01 5.046545e-05
<GCONST> 9.076318e+01
<MIXTURE> 9 6.119305e-02
<MEAN> 39
 -7.229295e+00 2.641162e+00 -1.396449e+00 -1.648275e+00 -5.883438e+00 -3.040431e+00 -1.773131e+00 -8.267035e+00 -1.102896e+01 6.937663e-02 -2.608824e+00 -3.521621e+00 1.981244e-01 -1.322298e+00 4.252328e-01 2.241352e-01 3.237108e-01 9.409714e-01 4.731815e-01 1.040506e-01 5.451539e-01 5.725387e-01 -8.517889e-01 -9.821151e-02 9.984287e-01 -4.464393e-02 -3.591931e-01 -8.448897e-01 -2.617775e-01 -6.816664e-01 1.156856e-01 -1.610066e-01 -3.089054e-01 9.049067e-01 6.779697e-01 -3.192846e-02 -1.044093e-01 -1.625939e-03 9.174172e-03
<VARIANCE> 39
 1.225163e+01 1.096603e+01 1.633004e+01 2.358197e+01 1.795513e+01 2.369890e+01 2.867081e+01 1.905719e+01 3.229683e+01 1.948901e+01 1.197456e+01 2.212907e+01 2.008538e-02 8.526479e-01 1.224914e+00 1.226701e+00 1.481480e+00 1.649779e+00 1.233208e+00 1.368439e+00 2.870311e+00 2.110341e+00 2.015894e+00 1.211126e+00 1.491751e+00 6.120372e-04 2.884364e-01 3.599668e-01 2.337349e-01 4.364452e-01 4.773780e-01 4.371542e-01 3.394340e-01 3.436979e-01 4.654700e-01 3.211400e-01 4.342104e-01 3.593914e-01 1.286266e-04
<GCONST> 7.938458e+01
<MIXTURE> 10 6.256577e-02
<MEAN> 39
 -1.012485e+01 3.174731e+00 -1.320154e+00 -3.734657e+00 -5.627846e+00 -7.743364e+00 -5.167452e+00 -7.245531e+00 -9.179394e+00 -2.585431e+00 -4.309790e+00 -2.425322e+00 1.988577e-01 -2.779141e+00 -1.320825e+00 -8.382084e-01 -4.950570e-01 1.276534e+00 9.540085e-01 3.079360e-01 1.999803e+00 1.805246e+00 -2.635407e-02 1.292417e+00 5.192581e-01 -4.555884e-02 -2.067323e-01 -8.833192e-01 -5.963051e-01 -3.166711e-01 -2.888429e-01 2.836156e-01 3.031979e-01 4.024877e-01 5.294326e-01 3.147601e-01 5.454610e-02 -5.595650e-02 2.093837e-02
<VARIANCE> 39
 1.636106e+01 8.883046e+00 1.436135e+01 1.319758e+01 2.394981e+01 1.621146e+01 2.938211e+01 2.475398e+01 4.018897e+01 3.239179e+01 2.738286e+01 2.014816e+01 3.391629e-02 2.404294e+00 3.276108e+00 3.360240e+00 2.988032e+00 2.299719e+00 3.175193e+00 4.306856e+00 4.607686e+00 3.766044e+00 4.225700e+00 4.763933e+00 3.736592e+00 2.777013e-03 4.399648e-01 4.875901e-01 2.971249e-01 4.515249e-01 5.290306e-01 4.204383e-01 6.220278e-01 6.006373e-01 5.300205e-01 5.748239e-01 5.515860e-01 5.278469e-01 3.518731e-04
<GCONST> 9.724882e+01
<MIXTURE> 11 9.128185e-02
<MEAN> 39
 -1.055502e+01 -8.093857e-01 -3.564980e-01 3.191094e+00 -1.914147e+00 -4.218289e+00 2.535237e+00 -3.792648e+00 -6.255422e+00 -2.859153e+00 -8.172558e+00 -3.242067e+00 6.254041e-02 -1.544463e+00 -7.219395e-01 -7.099441e-01 -6.617409e-01 7.122044e-01 7.448849e-01 2.807504e-01 1.592774e+00 1.108360e+00 9.915794e-02 3.982013e-01 5.877659e-01 -5.128670e-02 -5.634743e-02 -1.553627e-01 -4.370981e-01 -6.588681e-01 -4.674082e-01 -2.840416e-01 -2.775507e-01 -8.446861e-02 4.894657e-02 2.339507e-01 3.888854e-01 6.396791e-02 5.178576e-03
<VARIANCE> 39
 5.735746e+00 8.562042e+00 9.909075e+00 1.814169e+01 1.830226e+01 3.121320e+01 2.851499e+01 2.382102e+01 4.043957e+01 2.280774e+01 2.846692e+01 2.257937e+01 1.105021e-02 6.283821e-01 9.390419e-01 9.125134e-01 1.992258e+00 1.585249e+00 2.051458e+00 2.394198e+00 1.333528e+00 1.895069e+00 1.578930e+00 1.868109e+00 1.217389e+00 4.665543e-04 7.928558e-02 1.594137e-01 1.698542e-01 2.544395e-01 2.236856e-01 2.990061e-01 4.077542e-01 2.988704e-01 3.316080e-01 2.805552e-01 2.091766e-01 2.127994e-01 8.093935e-05
<GCONST> 7.184637e+01
<MIXTURE> 12 7.077155e-02
<MEAN> 39
 -3.821329e+00 -3.775298e+00 -1.378738e+00 -4.073979e+00 -1.047614e+01 -8.531035e+00 -3.751810e+00 -7.280456e+00 -1.335977e+01 2.554541e+00 -4.169932e+00 -5.999367e+00 4.770815e-01 -4.106549e-01 -1.102773e+00 3.495900e-01 -1.161473e+00 2.883581e-01 4.445676e-01 -1.598166e+00 1.988125e+00 1.933353e+00 -1.296393e+00 -1.096570e-01 5.715520e-01 2.241177e-02 -1.709893e-01 -3.931122e-01 -7.184879e-02 -4.255423e-01 5.353982e-03 2.057084e-01 -5.384393e-01 6.978900e-01 1.145362e+00 -5.480703e-01 -3.903360e-02 2.372120e-01 8.324780e-03
<VARIANCE> 39
 5.469447e+00 1.953355e+01 2.996133e+01 3.448001e+01 3.982972e+01 3.441563e+01 3.385386e+01 5.861794e+01 4.840747e+01 4.135494e+01 3.341190e+01 4.234253e+01 8.974751e-03 3.560816e-01 2.128449e+00 1.949728e+00 2.343489e+00 3.154156e+00 2.805748e+00 2.714845e+00 3.681317e+00 3.993972e+00 2.346516e+00 2.213731e+00 1.670370e+00 4.257564e-04 1.636817e-01 3.622521e-01 3.101369e-01 2.615291e-01 6.149703e-01 4.609935e-01 5.724846e-01 6.669981e-01 7.721937e-01 3.978580e-01 4.633175e-01 3.181939e-01 9.732859e-05
<GCONST> 8.986404e+01
<MIXTURE> 13 8.180469e-02
<MEAN> 39
 -6.253198e+00 2.096501e-01 -1.336278e+00 -1.705432e-01 -7.174128e+00 -8.455683e+00 -2.289484e+00 -5.752257e+00 -1.071273e+01 -2.561228e+00 -8.808208e+00 -4.272812e+00 2.898095e-01 -7.472392e-01 5.438808e-01 3.489231e-01 8.189585e-01 9.403992e-01 6.575890e-01 -1.382222e-01 3.914056e-01 3.325664e-01 -1.026308e+00 1.674188e-02 3.745544e-01 -3.382933e-02 -3.727815e-01 -2.621688e-01 -5.015385e-02 -2.254049e-01 1.922050e-01 2.815300e-01 9.914536e-03 2.292981e-01 2.763369e-01 6.380267e-02 2.586700e-01 1.006381e-01 -8.923226e-03
<VARIANCE> 39
 9.528412e+00 2.103215e+01 2.611708e+01 2.555726e+01 1.782973e+01 2.248480e+01 4.142541e+01 4.323814e+01 5.658827e+01 4.587141e+01 3.503870e+01 2.635891e+01 1.319121e-02 3.756643e-01 1.109700e+00 9.628369e-01 5.810878e-01 1.220202e+00 1.264718e+00 1.216272e+00 1.163849e+00 1.597641e+00 1.591348e+00 1.359337e+00 1.684057e+00 3.141561e-04 1.212714e-01 2.755240e-01 2.300332e-01 1.766049e-01 1.677712e-01 2.562051e-01 3.619960e-01 3.508275e-01 4.015419e-01 4.512734e-01 2.264811e-01 1.819248e-01 7.609936e-05
<GCONST> 7.415492e+01
<MIXTURE> 14 5.229532e-02
<MEAN> 39
 -5.938361e+00 1.148093e+00 -2.936319e+00 -9.008683e+00 -1.215240e+01 -1.286459e+01 -4.704547e+00 -1.207308e+01 -1.214717e+01 -2.991965e+00 -1.309582e+01 -7.513957e-01 3.893182e-01 -2.352214e+00 1.024180e+00 -8.645195e-01 1.808318e+00 1.652295e+00 1.594084e+00 -4.109988e-01 1.431655e+00 1.343424e+00 -1.163715e+00 1.924868e+00 -9.022813e-01 -4.239641e-02 -1.147780e+00 -3.436027e-01 -4.419084e-01 2.294154e-01 6.162330e-01 7.040465e-01 3.110556e-01 7.721608e-01 7.848294e-01 1.120818e-01 8.377355e-01 -1.110292e-01 -1.150358e-04
<VARIANCE> 39
 8.188119e+00 1.308562e+01 3.077101e+01 1.495496e+01 3.370871e+01 4.412592e+01 3.067469e+01 6.400688e+01 5.001741e+01 6.356092e+01 4.273896e+01 5.461250e+01 2.434566e-02 2.073795e+00 2.791813e+00 2.274388e+00 2.180308e+00 3.047450e+00 5.050365e+00 2.954092e+00 3.704909e+00 3.166585e+00 6.334797e+00 3.603650e+00 2.830875e+00 1.160982e-03 3.132527e-01 3.111145e-01 4.782029e-01 3.487085e-01 4.496735e-01 6.690471e-01 5.189106e-01 8.601292e-01 5.361623e-01 6.445665e-01 3.757324e-01 6.910871e-01 2.204271e-04
<GCONST> 9.956298e+01
<MIXTURE> 15 5.665689e-02
<MEAN> 39
 -6.518173e+00 2.232559e+00 -4.818015e-01 -2.649464e+00 -7.290928e+00 -4.513923e+00 3.094998e-01 -9.811763e+00 -9.429580e+00 2.820192e-01 -6.195740e+00 -4.243663e+00 2.744804e-01 -3.472987e+00 -1.398519e-01 -5.331184e-01 -2.266620e+00 2.889565e+00 -5.302966e-01 -9.190562e-01 2.587751e+00 1.600414e+00 -9.792917e-01 7.551280e-01 1.393189e+00 6.359434e-03 -1.406717e+00 -1.887476e-01 -5.859670e-01 -6.578951e-01 5.887093e-01 -3.448320e-01 -1.504574e-01 7.366989e-01 5.554677e-01 4.073367e-02 2.702191e-01 1.186623e-01 2.388524e-02
<VARIANCE> 39
 7.296331e+00 1.295558e+01 2.014085e+01 2.770932e+01 2.904999e+01 1.916073e+01 2.353438e+01 4.259806e+01 4.491425e+01 2.960482e+01 3.385101e+01 2.671636e+01 2.134502e-02 1.959686e+00 4.294452e+00 2.806345e+00 3.849905e+00 1.748846e+00 4.239187e+00 4.041693e+00 4.716241e+00 4.075255e+00 4.424521e+00 3.804706e+00 2.551560e+00 8.413101e-04 1.617627e-01 2.878250e-01 3.780577e-01 4.904386e-01 4.370024e-01 3.485810e-01 4.494696e-01 5.062096e-01 3.988277e-01 3.794091e-01 3.560850e-01 2.841544e-01 1.506646e-04
<GCONST> 9.238726e+01
<MIXTURE> 16 3.727118e-02
<MEAN> 39
 -9.797884e+00 -6.794519e+00 -1.299244e+00 -3.946771e+00 -1.149572e+01 -7.677441e+00 -5.236190e+00 -1.716093e+00 -4.330249e+00 -4.392435e+00 -4.429321e+00 -2.017257e+00 4.134068e-01 -5.656360e-01 -2.006386e+00 3.859799e-02 -9.053606e-01 3.553100e-02 8.428202e-01 -1.014606e+00 1.570673e+00 9.048513e-01 -7.656491e-01 6.298457e-01 3.597481e-01 1.096150e-02 -5.846810e-02 4.949197e-01 -3.858432e-01 -2.294027e-01 6.117411e-01 2.361005e-01 1.952192e-01 -3.854849e-01 -1.301980e-01 3.561101e-01 -2.618199e-02 -9.202696e-02 -6.532473e-03
<VARIANCE> 39
 3.089588e+01 4.334808e+01 6.844231e+01 5.224094e+01 3.410373e+01 5.129821e+01 3.105201e+01 3.020592e+01 3.251357e+01 2.567722e+01 3.078758e+01 1.619176e+01 3.485744e-02 4.251507e+00 4.981318e+00 7.121702e+00 4.596934e+00 5.533256e+00 3.214318e+00 2.664514e+00 9.282784e+00 4.697813e+00 4.412627e+00 2.624726e+00 4.413432e+00 2.921313e-03 1.069802e+00 7.825485e-01 1.425414e+00 9.221811e-01 1.261232e+00 8.859622e-01 5.934877e-01 8.824412e-01 6.151907e-01 6.644086e-01 6.388364e-01 4.675977e-01 3.187087e-04
<GCONST> 1.126314e+02
<TRANSP> 5
 0.000000e+00 1.000000e+00 0.000000e+00 0.000000e+00 0.000000e+00
 0.000000e+00 6.811547e-01 3.188452e-01 0.000000e+00 0.000000e+00
 0.000000e+00 0.000000e+00 7.288960e-01 2.711040e-01 0.000000e+00
 0.000000e+00 0.000000e+00 0.000000e+00 6.338664e-01 3.661336e-01
 0.000000e+00 0.000000e+00 0.000000e+00 0.000000e+00 0.000000e+00
<ENDHMM>
