~o
<STREAMINFO> 1 39
<VECSIZE> 39<NULLD><MFCC_E_D_A><DIAGC>
~h "g"
<BEGINHMM>
<NUMSTATES> 5
<STATE> 2
<NUMMIXES> 16
<MIXTURE> 1 6.513869e-02
<MEAN> 39
 -8.495165e+00 6.050122e+00 3.759877e+00 2.769217e+00 -6.062508e+00 -6.415105e+00 -6.614897e+00 -6.142638e+00 -8.288590e+00 -4.284604e+00 -3.083942e+00 -4.790632e+00 9.839788e-02 -6.339344e-01 2.072126e-01 -4.414232e-01 2.751732e-01 1.223183e+00 9.335358e-01 1.369794e-04 -2.000045e-01 7.096515e-01 -1.741705e-01 -4.471567e-01 3.983680e-01 -2.847509e-02 -2.777106e-01 -1.436822e+00 -3.555490e-01 -7.332036e-01 -1.666245e-01 -9.096441e-02 9.370242e-02 5.123686e-01 -2.736279e-02 3.310845e-01 1.239142e-01 2.191156e-01 3.280355e-02
<VARIANCE> 39
 5.373475e+00 4.543831e+00 9.531463e+00 1.205958e+01 1.975099e+01 1.630477e+01 1.435070e+01 2.269529e+01 1.950168e+01 2.098705e+01 1.392158e+01 1.454770e+01 1.581466e-02 1.211918e+00 3.128676e+00 1.814991e+00 1.715517e+00 2.994666e+00 2.568213e+00 1.977536e+00 2.935235e+00 2.418318e+00 2.073502e+00 1.705069e+00 1.483190e+00 2.043896e-03 2.369743e-01 7.647492e-01 5.553505e-01 5.288373e-01 6.246649e-01 4.854347e-01 5.039164e-01 4.875767e-01 5.496888e-01 5.198376e-01 3.781332e-01 3.334199e-01 4.895091e-04
<GCONST> 8.449472e+01
<MIXTURE> 2 7.662489e-02
<MEAN> 39
 -7.045317e+00 -4.060693e+00 7.519946e+00 -3.077220e-01 -1.532701e+01 -1.140765e+01 -3.951420e+00 2.696139e+00 -1.681336e+01 -6.045521e+00 4.827872e+00 -6.535264e+00 4.257143e-01 -6.179507e-01 2.909317e+00 -6.689106e-01 1.711990e+00 2.137584e+00 7.061672e-01 1.443979e+00 -1.520127e+00 3.329056e-01 1.064333e-01 -1.186244e+00 -3.473051e-01 -1.124871e-01 -1.516794e-01 -4.170768e-01 -6.329706e-01 -5.085012e-01 5.068063e-01 2.691960e-01 -5.841668e-01 -2.397498e-01 1.274190e+00 3.098038e-01 -6.622096e-01 4.646441e-01 1.041533e-02
<VARIANCE> 39
 7.616489e+00 1.855352e+01 2.519206e+01 2.659300e+01 2.930149e+01 3.334242e+01 3.200893e+01 4.620496e+01 3.544389e+01 4.465351e+01 2.729811e+01 2.581294e+01 2.694835e-02 1.107530e+00 2.897354e+00 3.226488e+00 2.862163e+00 4.655466e+00 4.080298e+00 4.076025e+00 5.362806e+00 5.555882e+00 3.485542e+00 3.329521e+00 2.479944e+00 2.026900e-03 1.545922e-01 4.521864e-01 4.306932e-01 3.409646e-01 4.995367e-01 4.893143e-01 5.075797e-01 6.441960e-01 7.041914e-01 6.866286e-01 5.128592e-01 3.918388e-01 3.915495e-04
<GCONST> 9.863832e+01
<MIXTURE> 3 4.589235e-02
<MEAN> 39
 -1.719293e+01 1.774839e-01 -1.602991e+00 2.223576e+00 -3.121766e-01 -1.954766e+00 -4.219014e+00 -4.243424e+00 -4.401175e+00 -2.643893e+00 -4.375175e+00 -2.486305e+00 -7.630184e-02 -1.391930e+00 -2.872777e+00 -2.369371e+00 -8.990048e-01 1.153854e+00 1.133270e+00 1.610718e+00 2.080868e+00 2.059139e+00 1.423651e+00 1.358338e+00 9.818475e-01 3.849956e-03 9.243510e-01 -8.728392e-01 -3.535107e-01 -1.458583e+00 -9.542812e-01 -9.619331e-01 -2.187983e-01 -5.682201e-02 -2.586164e-01 5.087981e-01 -7.849466e-02 1.480945e-01 7.229867e-02
<VARIANCE> 39
 8.563621e+00 1.323721e+01 1.967769e+01 1.540738e+01 1.887178e+01 2.157961e+01 2.427744e+01 2.888343e+01 1.749757e+01 1.454110e+01 1.757793e+01 1.002804e+01 7.730490e-03 2.427398e+00 4.900934e+00 4.171696e+00 4.139963e+00 4.216101e+00 4.023792e+00 3.189627e+00 4.121100e+00 3.335908e+00 3.976460e+00 2.859526e+00 2.105177e+00 7.242537e-03 4.750427e-01 6.880291e-01 1.010650e+00 8.221438e-01 8.549269e-01 7.720739e-01 6.730937e-01 8.818657e-01 6.602825e-01 7.140524e-01 7.542795e-01 3.750412e-01 6.194619e-04
<GCONST> 9.907585e+01
<MIXTURE> 4 7.023053e-02
<MEAN> 39
 -5.454489e+00 1.438583e+00 -4.026556e+00 -2.108033e+00 -2.568299e+00 -5.561118e+00 -1.018896e+01 -8.454367e+00 -9.426364e+00 -3.624290e+00 -3.458174e+00 -4.539865e+00 2.269949e-01 -1.452578e+00 1.346246e+00 1.041967e+00 1.852390e+00 3.267002e-01 1.512008e-01 8.612666e-01 -1.343281e-01 3.804740e-01 -5.920817e-01 -7.270722e-01 3.062840e-01 -7.713019e-02 8.610402e-03 -1.260461e+00 -3.388278e-01 -8.833780e-01 -3.355584e-01 -1.222042e-01 -8.988028e-02 9.233969e-01 2.827115e-01 4.147906e-01 3.142472e-01 1.680260e-01 3.906545e-02
<VARIANCE> 39
 1.062976e+01 1.487596e+01 2.204982e+01 2.313691e+01 3.508930e+01 3.143927e+01 3.465417e+01 3.323303e+01 3.240129e+01 3.084162e+01 3.050491e+01 2.223281e+01 1.561979e-02 2.206379e+00 5.068614e+00 3.631408e+00 4.939072e+00 4.489512e+00 7.439516e+00 5.828300e+00 6.012743e+00 4.778409e+00 4.130069e+00 2.856140e+00 3.023492e+00 3.716564e-03 2.931717e-01 6.135147e-01 7.211444e-01 7.216522e-01 8.722785e-01 6.370159e-01 9.751416e-01 7.337631e-01 7.317739e-01 4.644956e-01 6.661033e-01 4.832387e-01 3.601142e-04
<GCONST> 1.047745e+02
<MIXTURE> 5 5.405588e-02
<MEAN> 39
 -1.946982e+01 -2.663585e+00 -4.881061e+00 -5.542390e-01 -1.677348e+00 -4.340097e-01 -1.128479e+00 4.963996e-01 -8.941001e-02 8.060134e-01 -4.169397e-01 -3.684919e-01 -1.484623e-01 -2.164584e-02 1.398734e-01 -2.221601e-01 9.992115e-03 4.872355e-02 6.920945e-01 3.768285e-01 3.618208e-02 9.177400e-02 2.197273e-01 4.453968e-03 -3.707273e-02 -3.232086e-02 2.386629e-01 -5.654595e-01 1.117105e-02 -5.039725e-01 -3.704810e-01 -6.519399e-01 -3.870746e-01 -2.146395e-01 -3.712019e-01 -1.067987e-01 -2.059846e-01 -1.006258e-01 5.507101e-02
<VARIANCE> 39
 1.958587e+00 4.787323e+00 5.847840e+00 5.816827e+00 9.935636e+00 1.286531e+01 1.030517e+01 1.504915e+01 1.044897e+01 1.226995e+01 9.655205e+00 6.833856e+00 1.097022e-04 1.317266e+00 2.509417e+00 2.073720e+00 2.437342e+00 3.809189e+00 2.611788e+00 2.233943e+00 2.859121e+00 2.995965e+00 2.103567e+00 1.637491e+00 1.267632e+00 4.228066e-03 3.735033e-01 6.016616e-01 3.792952e-01 3.773057e-01 4.993363e-01 4.122486e-01 4.655088e-01 5.541198e-01 4.898379e-01 4.485487e-01 3.736215e-01 3.138989e-01 1.462487e-03
<GCONST> 7.477612e+01
<MIXTURE> 6 8.081660e-02
<MEAN> 39
 -1.049694e+01 5.224994e+00 2.292577e+00 3.473557e+00 -2.196591e+00 -3.900119e+00 -5.717667e+00 -5.578193e+00 -7.529645e+00 -4.616191e+00 -3.573413e+00 -3.517552e+00 2.336963e-02 -1.030495e+00 -4.662984e+00 -2.824875e+00 -2.534855e+00 8.551581e-01 6.208571e-01 -3.963559e-02 1.368689e+00 1.025810e+00 1.723374e+00 -1.847461e-01 6.889523e-01 7.674640e-02 2.743837e-01 -1.311120e+00 -3.316356e-01 -1.055126e+00 -7.835312e-01 -7.430856e-01 -4.028822e-01 5.795386e-01 -2.184890e-01 3.539410e-01 4.024051e-01 1.495705e-01 5.901047e-02
<VARIANCE> 39
 8.113043e+00 5.398409e+00 8.033384e+00 8.483140e+00 1.577631e+01 1.772885e+01 1.548620e+01 1.853176e+01 1.267343e+01 1.229187e+01 1.149477e+01 1.119021e+01 1.322684e-02 2.406894e+00 3.790059e+00 4.286155e+00 4.023894e+00 5.311873e+00 4.806367e+00 4.313137e+00 4.564719e+00 3.916973e+00 3.724128e+00 2.571223e+00 2.199832e+00 2.042848e-03 3.760747e-01 5.998682e-01 6.402533e-01 4.198762e-01 6.118840e-01 5.990788e-01 6.108691e-01 7.301595e-01 5.550961e-01 5.181542e-01 4.489596e-01 3.107922e-01 3.430165e-04
<GCONST> 9.024232e+01
<MIXTURE> 7 6.621809e-02
<MEAN> 39
 -9.533467e+00 -3.084684e-01 9.741947e-01 5.586070e+00 -3.521940e+00 -1.471466e+01 -1.057777e+01 1.271587e+00 -7.825374e+00 -8.888316e+00 -3.508409e+00 -1.603349e+00 2.142306e-01 -1.180762e+00 5.089456e-01 -7.329007e-01 4.961119e-01 1.570497e+00 1.238750e+00 9.449899e-01 -8.215569e-01 4.148677e-01 6.294833e-01 -6.042504e-01 6.799666e-02 -6.040644e-02 3.166226e-01 -1.245437e+00 -4.799208e-01 -1.545277e+00 -6.139363e-01 8.115882e-01 -4.298251e-02 -1.488564e-01 2.228353e-01 9.923267e-01 4.097498e-01 -7.513932e-02 4.354639e-02
<VARIANCE> 39
 2.550889e+01 2.730090e+01 1.996464e+01 3.461950e+01 2.978605e+01 2.243777e+01 4.700877e+01 3.744695e+01 3.504166e+01 3.577760e+01 3.384761e+01 1.968611e+01 1.802133e-02 2.202687e+00 8.452803e+00 5.368697e+00 6.699927e+00 7.813286e+00 5.848168e+00 6.768414e+00 5.597868e+00 6.441114e+00 6.186452e+00 3.818854e+00 2.751245e+00 5.059678e-03 5.373055e-01 9.335458e-01 5.692727e-01 9.510077e-01 1.076538e+00 8.141878e-01 1.053025e+00 9.505838e-01 8.570853e-01 1.062924e+00 7.250720e-01 4.902554e-01 4.546610e-04
<GCONST> 1.128152e+02
<MIXTURE> 8 4.511791e-02
<MEAN> 39
 -1.110346e+01 2.873528e+00 9.280590e+00 -5.033668e+00 -1.415985e+01 -6.513740e+00 -1.265171e+00 -1.137767e+01 -1.145272e+01 3.638720e+00 -7.512100e+00 -6.569719e+00 3.258390e-01 -4.447722e-01 1.197773e+00 -1.912253e+00 2.840721e+00 2.934212e+00 4.760130e-01 -6.382733e-02 4.356963e-01 1.650015e+00 -1.212591e+00 2.470119e-01 4.562793e-02 -1.070505e-01 -3.548873e-02 -9.834324e-01 -7.180942e-01 -3.488947e-01 2.524550e-01 -1.764047e-01 -4.715620e-01 8.478439e-01 2.040379e-01 -4.193561e-01 5.270470e-01 3.941424e-01 2.007060e-02
<VARIANCE> 39
 1.328714e+01 1.328230e+01 2.614778e+01 4.051974e+01 2.552168e+01 1.672323e+01 1.619744e+01 2.569182e+01 3.573597e+01 1.964237e+01 2.911586e+01 2.532373e+01 2.249983e-02 1.855796e+00 3.570899e+00 3.067140e+00 5.249034e+00 3.357029e+00 3.344628e+00 2.861207e+00 4.732913e+00 3.190129e+00 4.186304e+00 3.187776e+00 2.527886e+00 3.261903e-03 2.528701e-01 5.331912e-01 4.535574e-01 8.979720e-01 5.751640e-01 4.211470e-01 4.614034e-01 5.648213e-01 7.472886e-01 3.816636e-01 4.249929e-01 4.229060e-01 6.579795e-04
<GCONST> 9.795147e+01
<MIXTURE> 9 4.356496e-02
<MEAN> 39
 -1.063165e+01 4.835458e+00 8.718074e-01 3.041133e-01 -5.417909e+00 -6.724864e+00 -8.641298e+00 -9.861667e+00 -1.029771e+01 -6.866048e+00 -8.630259e+00 -6.499411e+00 9.134437e-02 -1.855791e+00 -4.217765e+00 -2.594329e+00 -6.220383e-01 2.333626e+00 2.596112e-01 1.268374e+00 2.651824e+00 2.069675e+00 4.334618e-01 1.369465e+00 1.768457e+00 3.139525e-02 1.488927e-01 -1.322730e+00 -4.124019e-01 -1.560810e+00 -7.724383e-01 -6.568158e-01 4.297357e-01 2.922289e-01 3.445745e-01 1.097730e+00 1.861107e-01 6.280218e-01 5.943118e-02
<VARIANCE> 39
 1.206135e+01 7.245595e+00 1.190446e+01 1.435785e+01 2.376456e+01 1.763754e+01 1.970871e+01 1.380576e+01 1.801402e+01 1.720452e+01 1.530000e+01 1.566795e+01 1.941351e-02 1.552597e+00 3.190744e+00 4.728841e+00 5.574985e+00 4.822750e+00 4.735518e+00 4.412992e+00 3.743491e+00 4.047287e+00 4.329557e+00 3.000622e+00 2.896389e+00 3.333544e-03 4.214343e-01 6.436495e-01 7.098558e-01 7.216726e-01 7.198340e-01 5.447880e-01 7.552478e-01 8.533474e-01 6.062889e-01 5.325361e-01 5.040404e-01 4.768128e-01 5.170907e-04
<GCONST> 9.686192e+01
<MIXTURE> 10 9.269062e-02
<MEAN> 39
 -6.627889e+00 2.123460e+00 3.606391e+00 1.930305e+00 -1.145131e+01 -1.098148e+01 -1.464874e+00 -1.017004e+00 -1.404496e+01 -6.537606e+00 1.211795e+00 -5.381288e+00 2.309461e-01 -1.284706e+00 -5.311986e-02 -1.289086e+00 -2.858917e-01 2.587050e+00 1.512515e+00 -6.096928e-01 -1.134122e+00 1.956587e+00 1.017815e+00 -1.793313e+00 5.421211e-01 -3.625120e-02 -1.644233e-01 -1.520590e+00 -3.021303e-01 -9.689812e-01 3.874075e-02 -9.673576e-03 -8.761405e-01 2.989882e-01 5.735575e-01 5.339423e-01 -2.139543e-02 4.089791e-01 4.510406e-02
<VARIANCE> 39
 9.045574e+00 1.057685e+01 3.022782e+01 2.230945e+01 1.832967e+01 2.834909e+01 2.288857e+01 3.740113e+01 2.219656e+01 3.045782e+01 2.049636e+01 2.312494e+01 1.502155e-02 1.811508e+00 7.425673e+00 4.376359e+00 4.778899e+00 5.516105e+00 4.852710e+00 5.110578e+00 6.528939e+00 4.805437e+00 4.545031e+00 3.018926e+00 2.910991e+00 4.361311e-03 2.960427e-01 5.691566e-01 5.291520e-01 4.798431e-01 7.897277e-01 6.964982e-01 6.603103e-01 7.648270e-01 7.874237e-01 6.280243e-01 5.449191e-01 4.434225e-01 3.506081e-04
<GCONST> 1.019802e+02
<MIXTURE> 11 7.483560e-02
<MEAN> 39
 -1.917675e+01 -1.988690e+00 -4.864898e+00 -2.495764e-01 -8.358618e-01 2.706258e-01 -1.163342e+00 1.062954e-01 -6.105419e-01 4.855912e-01 -5.689561e-01 -6.334934e-01 -1.496142e-01 1.015344e+00 -3.483332e+00 -1.636983e+00 -2.075053e+00 -6.675773e-01 -1.061622e+00 -4.695804e-01 4.193071e-02 -2.454088e-01 9.105837e-01 -1.988964e-01 3.681291e-01 1.284057e-01 6.817992e-01 -5.855249e-01 -2.334654e-02 -8.162864e-01 -5.300999e-01 -1.003305e+00 -7.047424e-01 -2.934488e-01 -4.971769e-01 -6.977071e-02 -3.037937e-01 -6.296536e-02 7.015906e-02
<VARIANCE> 39
 1.574497e+00 4.426214e+00 5.988183e+00 6.074700e+00 6.494130e+00 7.810658e+00 7.467236e+00 9.788751e+00 1.010631e+01 9.543550e+00 8.153149e+00 7.954261e+00 1.097022e-04 2.861044e+00 3.316668e+00 4.573273e+00 4.431610e+00 5.402768e+00 4.614648e+00 5.084491e+00 4.407457e+00 3.871506e+00 3.157794e+00 2.681498e+00 2.564989e+00 3.815447e-03 4.205897e-01 5.961010e-01 5.957195e-01 4.265213e-01 6.444165e-01 7.935379e-01 6.299574e-01 6.947511e-01 5.069073e-01 4.558427e-01 4.263732e-01 3.160388e-01 6.066859e-04
<GCONST> 8.037471e+01
<MIXTURE> 12 5.611783e-02
<MEAN> 39
 -1.449108e+01 -8.613433e+00 -1.894304e+00 -2.089792e+00 -1.826298e+00 -8.548447e+00 -6.993373e+00 -4.037603e+00 -6.221854e+00 -4.542943e+00 -4.328630e+00 -2.382397e+00 3.237581e-01 -5.209829e-01 -4.122608e-01 -2.944517e-01 7.959281e-01 1.406509e+00 1.647742e-01 -1.906530e-01 1.029957e+00 2.621310e-01 -3.093588e-01 4.747002e-01 1.478624e-01 -2.817964e-02 5.171867e-01 6.768081e-01 -2.200182e-01 -4.354534e-01 -8.419081e-01 6.555891e-02 3.448000e-01 -2.266026e-02 -6.628737e-02 5.060205e-01 6.964528e-03 1.138015e-02 9.035327e-03
<VARIANCE> 39
 4.709410e+01 6.784721e+01 7.145714e+01 4.972779e+01 7.183533e+01 8.747783e+01 4.998561e+01 8.980103e+01 4.483643e+01 3.980942e+01 3.267523e+01 2.463260e+01 2.450047e-02 3.546786e+00 1.043626e+01 5.839393e+00 4.566261e+00 6.207311e+00 7.832145e+00 6.364665e+00 8.029964e+00 5.796887e+00 5.212984e+00 3.645913e+00 2.936475e+00 5.618895e-03 6.235962e-01 1.574880e+00 1.261203e+00 1.699004e+00 1.221220e+00 1.764763e+00 1.228432e+00 1.621464e+00 1.124930e+00 8.982465e-01 8.517258e-01 7.313517e-01 1.100549e-03
<GCONST> 1.257824e+02
<MIXTURE> 13 6.644332e-02
<MEAN> 39
 -7.991844e+00 5.098163e+00 1.138332e+00 -3.494006e+00 -1.153998e+01 -1.006970e+01 -8.793463e+00 -1.199673e+01 -1.036558e+01 -5.464068e+00 -1.048675e+01 -7.778263e+00 1.945027e-01 -1.260648e+00 3.525093e-01 -7.557127e-01 1.947054e+00 2.250657e+00 1.411791e+00 -7.030577e-01 6.050256e-01 7.376275e-01 -1.761875e+00 7.544160e-01 -2.486237e-01 -7.124037e-02 -3.980126e-01 -1.765999e+00 -5.952882e-01 -9.721085e-01 2.570904e-01 -1.451370e-01 6.883720e-01 8.205035e-01 4.799836e-01 8.173538e-01 4.591535e-01 8.952819e-01 4.241639e-02
<VARIANCE> 39
 7.124190e+00 6.972266e+00 1.471780e+01 1.808417e+01 3.016376e+01 2.444256e+01 2.329445e+01 1.742011e+01 2.873894e+01 2.503282e+01 2.319114e+01 1.977663e+01 1.593915e-02 2.344363e+00 4.960814e+00 5.213350e+00 4.069210e+00 4.908435e+00 4.821022e+00 4.498497e+00 5.472947e+00 5.116318e+00 4.533047e+00 2.925084e+00 3.633386e+00 4.660861e-03 2.520424e-01 6.280252e-01 7.062879e-01 8.185772e-01 8.770656e-01 8.255682e-01 6.784893e-01 8.834147e-01 9.549821e-01 6.624299e-01 5.352564e-01 4.812342e-01 5.212002e-04
<GCONST> 1.017582e+02
<MIXTURE> 14 5.903411e-02
<MEAN> 39
 -1.045310e+01 5.286931e+00 1.240284e+00 2.498817e+00 -3.311516e+00 -6.377185e+00 -8.501255e+00 -7.622941e+00 -8.019322e+00 -5.203892e+00 -4.588779e+00 -3.574246e+00 3.320582e-02 -2.066281e+00 -6.816030e-01 -1.099833e+00 5.754807e-01 1.945570e+00 2.471338e+00 1.180027e+00 2.935081e-02 1.139165e+00 5.514783e-01 -6.947241e-02 2.343542e-01 -6.841224e-02 3.692349e-01 -2.524539e+00 -1.099166e+00 -1.570537e+00 -3.642910e-01 -5.958723e-01 -1.188430e-01 1.200765e+00 1.788735e-01 7.884235e-01 3.333866e-01 3.233658e-01 7.485286e-02
<VARIANCE> 39
 9.187685e+00 4.458437e+00 1.091802e+01 1.159286e+01 1.556556e+01 1.775224e+01 2.069604e+01 2.231779e+01 1.474505e+01 1.466288e+01 1.529090e+01 1.322822e+01 1.256327e-02 1.668423e+00 4.684937e+00 4.167770e+00 4.783758e+00 4.339926e+00 3.534444e+00 4.123695e+00 5.745339e+00 4.819752e+00 4.568477e+00 4.392743e+00 2.560341e+00 4.060775e-03 3.750025e-01 4.837919e-01 8.476965e-01 7.682424e-01 8.636678e-01 8.881778e-01 1.115047e+00 9.040448e-01 7.393884e-01 8.163806e-01 6.237109e-01 4.985555e-01 3.229727e-04
<GCONST> 9.714266e+01
<MIXTURE> 15 6.875333e-02
<MEAN> 39
 -1.939784e+01 -5.822890e+00 -5.874239e+00 -8.593092e-02 5.917904e-01 -1.973308e+00 -2.632582e+00 8.025734e-01 -1.476971e-02 1.005567e+00 -6.638774e-01 -3.831082e-01 3.508940e-02 1.185001e+00 -9.307173e-01 -9.021307e-01 -7.828718e-01 -6.516825e-01 2.222410e-01 -5.230309e-02 -4.846720e-01 -5.142087e-01 2.968436e-01 -3.061775e-01 -1.036216e-01 -3.639920e-03 2.616652e-01 -8.863491e-02 1.159060e-01 -6.349233e-01 -5.646072e-01 -6.415255e-01 -3.250762e-01 -1.188994e-01 -4.045653e-01 -1.588563e-01 -1.578195e-01 -7.127058e-02 5.276236e-02
<VARIANCE> 39
 2.213334e+01 2.580603e+01 2.683774e+01 3.003176e+01 3.599000e+01 3.321268e+01 3.528721e+01 2.890342e+01 2.470511e+01 2.097106e+01 2.070412e+01 1.500233e+01 2.037664e-02 2.964613e+00 7.266369e+00 6.063666e+00 5.307293e+00 5.745394e+00 6.220868e+00 4.440554e+00 5.080891e+00 3.222585e+00 3.437783e+00 2.922742e+00 1.894346e+00 1.662556e-02 7.159930e-01 8.745256e-01 7.920451e-01 7.797714e-01 8.434535e-01 7.220005e-01 7.113144e-01 7.375650e-01 5.945311e-01 5.307750e-01 5.001521e-01 3.607169e-01 1.153301e-03
<GCONST> 1.083574e+02
<MIXTURE> 16 3.445330e-02
<MEAN> 39
 -7.880562e+00 -2.218144e+00 5.477260e+00 -1.018440e+01 -1.659265e+01 -1.117342e+01 -1.286650e+00 -1.359523e+01 -1.274492e+01 3.689885e+00 -1.424719e+01 -4.834091e+00 4.610653e-01 -1.008615e-01 2.724265e+00 -7.569605e-01 3.849501e+00 2.081885e+00 1.204642e+00 -1.402361e+00 -6.647165e-01 3.287658e-01 -3.261852e+00 7.965583e-02 -1.644043e+00 -1.263425e-01 -3.319458e-01 -7.421071e-01 -8.571733e-01 -2.449087e-01 6.614873e-01 -2.938833e-02 -3.248966e-01 1.152743e+00 5.612947e-01 -6.054599e-01 8.686581e-01 2.748629e-01 1.254881e-02
<VARIANCE> 39
 7.273038e+00 2.097321e+01 2.444283e+01 3.943467e+01 2.863607e+01 5.656012e+01 3.858646e+01 4.274245e+01 5.291595e+01 5.708812e+01 3.335851e+01 6.181395e+01 2.065093e-02 1.411469e+00 2.907019e+00 2.433697e+00 4.681086e+00 4.763824e+00 5.004039e+00 4.730258e+00 6.060553e+00 5.405441e+00 4.362295e+00 5.232609e+00 3.125533e+00 2.466829e-03 1.794770e-01 5.451447e-01 4.648842e-01 7.965885e-01 4.155403e-01 8.117762e-01 7.173029e-01 6.208951e-01 7.321458e-01 1.263888e+00 5.722718e-01 1.005287e+00 5.194417e-04
<GCONST> 1.070537e+02
<STATE> 3
<NUMMIXES> 16
<MIXTURE> 1 4.321416e-02
<MEAN> 39
 -8.961052e+00 -1.342796e+01 -1.536742e+01 -1.089649e+01 5.428312e-01 -3.544019e+00 -1.275172e+01 6.087326e-01 -4.385662e+00 5.859278e+00 -6.499590e-01 -1.927670e+00 4.994748e-01 1.298998e+00 2.519146e+00 1.797061e+00 1.575642e+00 -1.355895e-01 -1.127560e+00 -6.485104e-01 -9.150398e-01 5.352752e-01 -1.487809e-01 7.784577e-01 8.157837e-01 2.356528e-02 5.109915e-01 1.248704e+00 1.295474e+00 1.221217e+00 -3.184835e-01 -3.390119e-01 1.584595e-02 -2.185355e-01 1.643326e-01 -1.269702e+00 6.828027e-02 1.479730e-01 -1.457067e-02
<VARIANCE> 39
 1.281049e+01 2.591741e+01 2.405340e+01 3.646215e+01 4.725008e+01 3.533214e+01 4.695355e+01 2.573785e+01 3.811822e+01 3.198980e+01 2.336625e+01 2.340939e+01 1.789711e-02 2.104587e+00 2.324187e+00 2.684526e+00 2.032135e+00 3.071431e+00 2.111160e+00 2.453425e+00 3.562591e+00 2.786743e+00 2.914958e+00 1.406374e+00 1.612951e+00 1.016726e-03 2.800260e-01 8.721476e-01 7.509068e-01 7.191013e-01 6.071122e-01 7.223994e-01 1.132735e+00 5.869217e-01 6.180310e-01 6.915004e-01 6.466206e-01 5.272071e-01 4.797167e-04
<GCONST> 9.868086e+01
<MIXTURE> 2 4.488256e-02
<MEAN> 39
 -1.041892e+01 -1.498999e+01 -1.223759e+01 -3.362739e+00 -1.918581e+00 -5.036573e+00 -9.175157e+00 3.188455e-01 -1.178890e+00 -3.571028e+00 -3.231794e+00 -2.218335e+00 4.024179e-01 -1.562469e+00 -3.045430e+00 -2.523257e+00 -1.833596e+00 4.196244e-01 7.686286e-02 -4.576651e-02 1.668851e+00 2.204983e+00 1.129626e+00 7.654446e-01 1.078227e+00 8.834351e-02 -2.130761e-01 1.841148e+00 1.678638e+00 4.718142e-02 -8.234767e-01 -8.887718e-01 3.321614e-01 -1.908988e-01 -1.001437e+00 -6.135445e-02 1.647299e-01 -3.530927e-02 9.312607e-03
<VARIANCE> 39
 1.399630e+01 3.010549e+01 4.137066e+01 2.777887e+01 2.666416e+01 3.971071e+01 4.281842e+01 2.332537e+01 2.128434e+01 2.453090e+01 1.621639e+01 1.255273e+01 8.973231e-03 5.008467e+00 4.870663e+00 2.567557e+00 3.659720e+00 4.299349e+00 4.880101e+00 4.590365e+00 4.153721e+00 2.325362e+00 3.271306e+00 2.750178e+00 1.652760e+00 1.434492e-03 9.422054e-01 5.317985e-01 6.441901e-01 6.910483e-01 5.424908e-01 1.041370e+00 8.113403e-01 8.676300e-01 4.723689e-01 9.061375e-01 4.708856e-01 4.274805e-01 3.329293e-04
<GCONST> 1.010403e+02
<MIXTURE> 3 4.842243e-02
<MEAN> 39
 -1.693137e+01 -6.465458e+00 3.740981e+00 -1.109131e+01 -7.883314e+00 -3.156468e+00 -3.247870e+00 -5.178850e+00 -5.820429e+00 2.955156e+00 -4.275444e+00 -4.429078e-01 4.677663e-01 1.844471e+00 8.634223e-01 2.474728e+00 -2.591478e-01 -2.661199e+00 -1.858391e+00 -1.663198e+00 -2.000645e-04 -5.205684e-01 -1.455820e+00 1.359231e+00 6.812582e-01 9.228389e-02 1.162210e+00 3.857030e-01 2.476532e-01 1.112916e+00 -9.721743e-01 -6.163251e-01 -3.440576e-01 5.160908e-01 -2.435336e-01 -1.090318e+00 9.004517e-01 -3.250566e-01 -3.749740e-03
<VARIANCE> 39
 1.013536e+01 1.822222e+01 2.157121e+01 1.716729e+01 1.327355e+01 1.773251e+01 1.885056e+01 1.616988e+01 2.292416e+01 1.727212e+01 1.419835e+01 1.291063e+01 1.413892e-02 2.534460e+00 4.163635e+00 2.421613e+00 4.074625e+00 3.757350e+00 2.064622e+00 3.078993e+00 2.526787e+00 2.535853e+00 2.655449e+00 2.063582e+00 2.043613e+00 1.478719e-03 2.905739e-01 6.093376e-01 5.760278e-01 5.338871e-01 6.361266e-01 5.331542e-01 7.245457e-01 5.221530e-01 6.921980e-01 5.297496e-01 4.521411e-01 4.980882e-01 3.276979e-04
<GCONST> 9.101910e+01
<MIXTURE> 4 7.049496e-02
<MEAN> 39
 -6.407390e+00 -6.383451e+00 -1.373037e+00 -2.387519e+00 -6.681656e+00 -1.104447e+01 -1.134923e+01 2.154481e-01 -9.329558e+00 -4.384270e+00 -9.808877e-01 -2.051096e+00 4.530516e-01 5.711631e-01 -2.438249e+00 2.954966e-02 -1.312178e+00 -7.438450e-01 -4.197735e-01 -1.934250e+00 1.599289e+00 1.010093e+00 2.970180e-01 9.493125e-01 6.512756e-01 8.424112e-02 5.069242e-01 -3.465405e-01 3.672316e-02 -4.646720e-01 -7.684505e-01 1.969817e-02 -3.163182e-02 4.624975e-02 1.235843e-01 1.396055e-01 2.485838e-01 -2.879049e-01 2.332941e-02
<VARIANCE> 39
 1.221910e+01 2.673660e+01 4.359918e+01 2.476101e+01 4.775420e+01 5.269648e+01 5.685975e+01 5.132566e+01 4.591087e+01 3.063388e+01 3.277800e+01 2.329128e+01 1.616172e-02 1.220817e+00 2.478846e+00 2.908799e+00 2.601159e+00 4.670977e+00 3.647289e+00 5.077642e+00 4.059595e+00 5.046679e+00 2.447919e+00 3.892606e+00 1.883369e+00 1.599240e-03 1.582579e-01 6.871760e-01 3.219270e-01 6.507540e-01 6.894143e-01 9.373230e-01 7.860182e-01 1.042265e+00 1.042748e+00 6.007912e-01 6.566117e-01 4.141494e-01 3.309841e-04
<GCONST> 1.028806e+02
<MIXTURE> 5 6.227476e-02
<MEAN> 39
 -1.511639e+01 -1.253177e+01 -7.838673e+00 -1.701262e+00 -1.713860e+00 -1.292835e+01 -1.904037e+00 1.850696e+00 -5.426278e+00 -1.574798e+00 -2.706730e+00 1.621742e+00 3.625709e-01 6.551014e-01 -2.186227e+00 -9.133437e-01 -1.782917e+00 -9.678559e-01 -2.484892e+00 -4.891185e-02 1.096271e+00 2.177825e-01 7.721391e-01 1.327755e-01 8.672577e-01 1.258553e-01 9.741986e-01 1.072218e+00 7.592655e-01 -7.715774e-01 -9.708843e-01 2.522787e-01 -8.450463e-01 -5.347632e-01 -8.436503e-02 6.750938e-02 -2.082590e-01 -5.532415e-01 1.686723e-02
<VARIANCE> 39
 2.014070e+01 2.054710e+01 2.490446e+01 2.879375e+01 3.968922e+01 2.681408e+01 3.959049e+01 4.313815e+01 2.757934e+01 2.003792e+01 1.934074e+01 8.065167e+00 2.392243e-02 3.971448e+00 5.830899e+00 4.099661e+00 3.245454e+00 3.934067e+00 4.545559e+00 7.652367e+00 4.847473e+00 3.338520e+00 3.983487e+00 2.519876e+00 2.582673e+00 2.477383e-03 5.175675e-01 7.612392e-01 7.332612e-01 7.964512e-01 1.081124e+00 8.023694e-01 9.829828e-01 1.478809e+00 8.285139e-01 6.266555e-01 1.159704e+00 3.618305e-01 4.759780e-04
<GCONST> 1.065989e+02
<MIXTURE> 6 7.025262e-02
<MEAN> 39
 -1.218747e+01 -5.726301e+00 -2.110337e+00 -3.478852e+00 -2.967020e+00 -4.940564e+00 -4.231700e+00 -2.587184e+00 -9.645567e+00 1.172470e+00 -4.763217e+00 -3.486024e+00 2.920729e-01 -3.071775e-01 -1.765961e+00 -8.717420e-01 -2.214087e+00 -3.247668e-01 2.749513e-01 -1.984916e-01 -1.580195e-01 4.244801e-01 1.662813e+00 -2.946298e-01 6.072178e-01 7.677972e-02 1.003253e+00 -1.879506e-01 3.864224e-01 -2.073232e-01 -1.166147e+00 -9.259765e-01 -9.546774e-01 4.210388e-01 2.212215e-01 -9.154581e-01 7.466511e-01 3.996663e-01 4.395664e-02
<VARIANCE> 39
 2.143340e+01 3.744610e+01 9.856807e+01 6.566679e+01 5.945764e+01 3.802348e+01 4.022219e+01 3.805351e+01 3.076755e+01 2.150851e+01 2.125013e+01 1.612188e+01 1.521111e-02 2.641214e+00 3.983895e+00 4.328907e+00 3.762980e+00 4.911734e+00 4.849303e+00 4.073125e+00 4.377616e+00 4.098398e+00 4.049166e+00 2.860400e+00 2.001606e+00 2.463310e-03 3.527310e-01 8.669427e-01 9.853880e-01 1.442932e+00 1.157239e+00 8.827958e-01 1.434187e+00 1.175155e+00 1.071257e+00 9.158499e-01 6.379259e-01 4.600135e-01 3.185223e-04
<GCONST> 1.104997e+02
<MIXTURE> 7 6.751189e-02
<MEAN> 39
 -1.974500e+01 -1.107630e+01 -2.716706e+00 -1.486089e+01 -7.952589e+00 -2.565142e+00 -2.793099e+00 -6.030001e+00 1.335630e+00 -1.040323e+00 -4.042656e+00 1.810394e+00 4.592623e-01 3.543803e-01 -3.287238e-01 5.807042e-01 -3.953932e+00 -2.421181e+00 -1.326220e+00 -9.720568e-01 -1.079496e+00 -1.283787e-01 3.496223e-01 -4.195986e-01 3.030413e-01 1.396326e-01 1.138038e+00 1.475977e+00 7.478938e-01 6.345864e-01 -7.201844e-01 -7.687253e-01 -3.327001e-01 -3.075784e-01 -1.255885e+00 1.028929e-01 -2.671419e-01 -6.332313e-01 -8.640297e-03
<VARIANCE> 39
 9.674535e+00 1.436071e+01 1.294157e+01 2.110382e+01 2.280691e+01 1.804117e+01 2.443537e+01 2.262736e+01 1.909161e+01 1.941228e+01 1.758601e+01 1.282204e+01 8.203402e-03 2.179754e+00 4.632323e+00 1.903039e+00 2.637832e+00 2.438395e+00 2.352203e+00 2.387678e+00 3.077255e+00 2.781797e+00 2.945078e+00 1.897038e+00 1.441088e+00 2.635847e-03 4.158209e-01 6.243318e-01 5.098895e-01 8.661107e-01 8.751786e-01 4.994590e-01 9.574569e-01 7.890602e-01 7.700117e-01 7.119904e-01 8.130229e-01 4.407459e-01 4.465636e-04
<GCONST> 9.330827e+01
<MIXTURE> 8 8.430331e-02
<MEAN> 39
 -7.285956e+00 -1.462733e+01 -1.757647e+01 -1.065710e+01 -1.502399e+00 1.428328e+00 -9.685172e+00 -1.793162e+00 -5.248811e+00 2.414067e+00 -8.713691e-01 -1.054242e+00 4.523323e-01 2.372597e+00 -2.362767e+00 -2.305480e+00 -2.293728e+00 -7.724450e-01 -1.772232e-01 -1.878725e+00 2.745020e-02 -7.349562e-01 1.061080e+00 7.787440e-01 3.336100e-01 1.331297e-01 9.197955e-02 1.421216e+00 1.643833e+00 1.027622e+00 -3.498070e-01 -1.056605e+00 -2.167148e-01 -1.781074e-01 -5.509886e-03 -6.104918e-01 6.378694e-02 -8.440212e-02 -1.203788e-02
<VARIANCE> 39
 1.415054e+01 4.474290e+01 2.504476e+01 6.165587e+01 5.576497e+01 3.085059e+01 5.673346e+01 5.127183e+01 4.273633e+01 2.987974e+01 2.442846e+01 1.793688e+01 1.707097e-02 2.189940e+00 4.097014e+00 4.104934e+00 4.614490e+00 3.181190e+00 3.975423e+00 4.030753e+00 3.767579e+00 4.710385e+00 3.375037e+00 2.683849e+00 2.286158e+00 2.418960e-03 4.877954e-01 9.235098e-01 6.786720e-01 1.138102e+00 1.411306e+00 1.013246e+00 1.436643e+00 1.510613e+00 9.481086e-01 9.393185e-01 7.333654e-01 4.879017e-01 6.357820e-04
<GCONST> 1.105821e+02
<MIXTURE> 9 9.093220e-02
<MEAN> 39
 -1.484100e+01 -1.493363e+01 -3.473374e+00 -5.112490e+00 -8.117539e+00 -8.566223e+00 -1.200349e+00 1.298618e+00 -8.316486e+00 1.964277e+00 -1.258280e+00 -1.014134e+00 4.467952e-01 9.468384e-01 -2.448053e+00 7.225909e-01 -2.503337e+00 -3.103222e+00 -2.272318e+00 -4.751444e-01 4.383762e-01 -1.283503e+00 9.628318e-01 2.460765e-01 3.479181e-01 1.581588e-01 7.824768e-01 1.407159e+00 7.690147e-01 -3.754411e-02 -3.009371e-01 -2.335464e-01 -7.910812e-01 -1.725584e-01 6.702796e-02 -5.251845e-01 -7.785136e-02 -1.660971e-01 1.656697e-04
<VARIANCE> 39
 1.173480e+01 1.542636e+01 2.571019e+01 1.742109e+01 1.947800e+01 2.864452e+01 3.621118e+01 2.971929e+01 2.845233e+01 2.138192e+01 1.519366e+01 1.626108e+01 1.136373e-02 2.359875e+00 3.706896e+00 2.750978e+00 2.641807e+00 2.795883e+00 3.636420e+00 3.222099e+00 3.773495e+00 3.455366e+00 3.280764e+00 2.690090e+00 1.358047e+00 2.104061e-03 3.685339e-01 5.652026e-01 6.104050e-01 4.763474e-01 7.793518e-01 7.634674e-01 6.541539e-01 7.375053e-01 1.057840e+00 6.708081e-01 6.795704e-01 3.986384e-01 5.526007e-04
<GCONST> 9.705608e+01
<MIXTURE> 10 6.601994e-02
<MEAN> 39
 -1.159956e+01 -1.544362e+01 -1.662009e+01 -9.001028e+00 4.657771e+00 -9.102344e+00 -9.788184e+00 -8.614609e-02 -2.334173e+00 5.723557e+00 -4.702012e+00 -1.127136e+00 5.026483e-01 2.249443e+00 -1.834880e+00 -2.143101e+00 -2.991652e+00 4.044035e-02 -2.376865e+00 -2.098190e+00 -1.179474e-01 -3.833034e-01 1.631485e+00 -7.427694e-01 -2.714273e-01 1.510509e-01 4.802062e-01 1.721911e+00 1.568205e+00 5.258353e-01 -1.242748e+00 1.786947e-01 1.124829e-01 -3.902936e-01 -5.049266e-01 -8.655021e-01 3.700704e-01 -1.492192e-01 -1.901244e-02
<VARIANCE> 39
 8.963768e+00 1.622668e+01 2.095947e+01 2.463597e+01 2.279247e+01 2.859482e+01 3.858965e+01 3.987143e+01 2.477033e+01 2.751706e+01 2.207541e+01 2.459625e+01 1.359927e-02 1.657010e+00 3.726761e+00 4.170317e+00 3.567744e+00 3.115809e+00 4.185725e+00 3.046597e+00 4.266577e+00 2.550570e+00 4.452440e+00 3.587093e+00 1.654820e+00 2.014462e-03 2.866418e-01 6.088296e-01 5.648620e-01 1.192827e+00 7.443615e-01 8.358527e-01 1.078204e+00 9.536933e-01 8.985897e-01 8.221206e-01 7.459654e-01 6.862794e-01 5.326870e-04
<GCONST> 1.018057e+02
<MIXTURE> 11 6.044307e-02
<MEAN> 39
 -1.330081e+01 -1.823926e+01 -1.156520e+01 -5.674901e+00 2.264555e+00 -1.184473e+01 -6.742519e+00 4.563069e+00 -2.959404e+00 -3.873315e-01 -6.322277e+00 2.225327e+00 4.844887e-01 1.059328e+00 -2.646121e+00 -1.659600e+00 -2.032057e+00 -5.542527e-01 -2.737350e+00 -1.344961e+00 1.623619e+00 7.591130e-01 1.260720e+00 -3.790767e-01 8.459534e-01 1.284080e-01 1.045145e+00 2.079005e+00 1.219924e+00 -2.633300e-02 -1.524957e+00 5.053004e-02 -4.330674e-01 -1.145601e+00 -7.035484e-01 -4.817034e-02 1.579208e-01 -9.160184e-01 -3.156175e-03
<VARIANCE> 39
 8.588929e+00 1.546866e+01 2.259069e+01 1.659978e+01 3.780317e+01 4.043970e+01 4.534630e+01 3.873188e+01 2.979264e+01 2.162189e+01 2.069703e+01 2.315861e+01 1.198884e-02 1.542443e+00 5.239830e+00 3.292655e+00 2.537886e+00 4.245932e+00 2.665329e+00 3.349346e+00 4.641366e+00 3.799115e+00 3.252316e+00 2.670132e+00 2.859982e+00 2.323694e-03 3.015995e-01 6.010499e-01 5.235209e-01 1.365808e+00 1.012426e+00 1.260358e+00 7.856231e-01 1.259031e+00 9.837812e-01 1.007369e+00 1.131781e+00 7.217202e-01 6.042269e-04
<GCONST> 1.039451e+02
<MIXTURE> 12 6.720732e-02
<MEAN> 39
 -9.209002e+00 -6.441695e+00 -7.476027e+00 -9.420694e-01 2.072133e+00 -7.088602e+00 -8.893387e+00 -3.668949e+00 -6.620789e+00 -3.416214e+00 -6.658851e+00 -4.561257e+00 3.328501e-01 -1.202767e+00 -3.048759e+00 -3.269363e+00 -1.502886e+00 2.701667e+00 3.978390e-01 -1.057387e+00 9.361891e-01 2.383961e+00 1.607454e+00 8.546217e-02 1.121233e+00 5.072644e-02 9.848157e-02 2.657550e-01 6.869889e-01 -6.705223e-01 -1.421449e+00 -4.953783e-01 2.278480e-01 1.706940e-01 -4.061285e-01 1.974443e-01 6.370313e-01 1.062409e-01 3.283662e-02
<VARIANCE> 39
 1.328404e+01 2.286538e+01 4.524479e+01 3.050518e+01 4.181200e+01 3.851062e+01 3.269031e+01 3.351954e+01 2.424743e+01 3.512748e+01 2.388049e+01 1.833661e+01 1.249259e-02 2.978669e+00 4.403069e+00 5.163051e+00 4.528461e+00 5.127011e+00 7.961578e+00 6.333904e+00 7.967420e+00 3.748498e+00 4.974902e+00 5.168671e+00 3.489617e+00 1.691616e-03 9.595068e-01 5.148900e-01 5.755019e-01 7.443801e-01 1.201599e+00 9.384676e-01 9.419135e-01 1.004320e+00 8.116128e-01 1.067174e+00 9.671044e-01 4.189277e-01 3.046245e-04
<GCONST> 1.096137e+02
<MIXTURE> 13 6.614043e-02
<MEAN> 39
 -1.591054e+01 -8.283322e+00 2.236182e+00 -8.449498e+00 -6.048723e+00 -2.358604e+00 -1.500565e+00 -6.865420e+00 -4.578569e+00 -9.669039e-01 -6.213106e+00 -2.098794e+00 3.906879e-01 -1.933981e+00 -3.088104e+00 -1.442703e-01 -3.291332e+00 -4.446451e-01 3.581427e-03 1.680656e-01 1.874546e-01 1.543294e+00 1.206196e+00 3.794796e-01 1.617025e+00 1.091577e-01 1.056378e+00 8.324853e-01 5.771515e-01 -1.564865e-01 -1.480177e+00 -1.001247e+00 -3.259937e-01 3.172789e-03 -8.353175e-01 -8.978942e-03 4.292631e-01 -2.312555e-01 2.564968e-02
<VARIANCE> 39
 1.150915e+01 2.038924e+01 1.885769e+01 3.409334e+01 1.904532e+01 2.167331e+01 2.105176e+01 2.790439e+01 2.495430e+01 2.410584e+01 1.454711e+01 1.723546e+01 1.093136e-02 1.417479e+00 3.259006e+00 3.198731e+00 3.266504e+00 3.685081e+00 2.501395e+00 3.654695e+00 2.661814e+00 3.655588e+00 2.674944e+00 4.129273e+00 2.141656e+00 1.725806e-03 3.755394e-01 5.520355e-01 6.050885e-01 1.112019e+00 7.609380e-01 5.204704e-01 6.958543e-01 9.784978e-01 6.457373e-01 1.063145e+00 1.279589e+00 5.491303e-01 3.047188e-04
<GCONST> 9.777306e+01
<MIXTURE> 14 6.127377e-02
<MEAN> 39
 -9.845125e+00 -9.392358e+00 -1.147984e+01 -4.267170e+00 4.173327e+00 -2.620622e+00 -5.740921e+00 -7.828275e-01 -3.700677e+00 6.864443e-01 -3.098990e+00 -1.500482e+00 3.545431e-01 6.033703e-01 -4.753896e+00 -4.389515e+00 -3.898353e+00 1.318207e+00 -4.618389e-01 -6.441095e-01 1.206470e+00 7.654154e-01 2.072149e+00 3.272815e-01 8.456241e-01 1.324502e-01 6.191081e-01 7.811572e-01 8.253519e-01 -9.500573e-02 -1.134832e+00 -8.977836e-01 -6.343094e-01 -3.545240e-01 -4.730364e-01 -1.102341e-01 1.015437e-01 -2.436699e-01 1.810918e-02
<VARIANCE> 39
 1.370981e+01 3.187993e+01 4.119451e+01 4.846326e+01 2.181863e+01 2.786594e+01 2.571375e+01 2.788811e+01 2.796922e+01 2.416056e+01 1.422190e+01 1.056398e+01 1.419942e-02 1.789993e+00 3.997108e+00 3.660705e+00 3.888791e+00 4.109509e+00 3.712332e+00 6.136128e+00 5.147243e+00 5.300323e+00 3.610178e+00 3.487740e+00 2.851137e+00 2.309070e-03 3.971038e-01 4.924276e-01 4.527389e-01 9.328032e-01 6.474414e-01 6.157534e-01 5.906695e-01 7.267399e-01 6.003939e-01 6.336067e-01 4.949161e-01 4.145490e-01 2.844142e-04
<GCONST> 1.006193e+02
<MIXTURE> 15 4.991733e-02
<MEAN> 39
 -9.977579e+00 -1.352011e+01 -1.642647e+01 -9.186510e+00 2.109840e+00 -7.491725e+00 -8.933269e+00 -1.204789e+00 -2.327215e+00 4.709896e+00 -5.203749e+00 -1.080897e-01 5.095709e-01 2.178408e+00 2.375694e+00 1.742215e+00 -1.263324e-01 -2.628410e+00 -1.196781e+00 -1.281378e+00 -1.061905e+00 -9.299429e-01 -4.396334e-01 5.147744e-01 -8.500123e-01 4.803723e-02 4.842341e-01 1.418733e+00 1.531970e+00 7.971273e-01 -1.143342e+00 5.147981e-02 -1.065947e-01 -2.128305e-01 -5.569701e-01 -9.308681e-01 4.783727e-01 -4.211032e-01 -1.858791e-02
<VARIANCE> 39
 1.187824e+01 1.757107e+01 3.960141e+01 3.316890e+01 3.653890e+01 6.991951e+01 4.145387e+01 6.634857e+01 4.141689e+01 2.610220e+01 2.402125e+01 2.127846e+01 1.453470e-02 1.513315e+00 2.027466e+00 2.068999e+00 4.173013e+00 3.136756e+00 4.953347e+00 3.134247e+00 3.197264e+00 2.417897e+00 3.118885e+00 3.020203e+00 2.174675e+00 1.313950e-03 2.569601e-01 5.422685e-01 6.312333e-01 6.082892e-01 7.985709e-01 1.555191e+00 1.037923e+00 1.424024e+00 9.969077e-01 7.389816e-01 5.411929e-01 4.594696e-01 4.131267e-04
<GCONST> 1.027379e+02
<MIXTURE> 16 4.670348e-02
<MEAN> 39
 -1.725979e+01 -1.320258e+01 -2.600732e+00 -1.012744e+01 -1.219839e+01 -5.723256e+00 -1.888197e+00 -3.457169e+00 -8.194113e+00 4.954378e+00 -3.126511e+00 -2.055624e+00 4.908758e-01 1.460954e+00 3.550681e-01 2.205831e+00 -1.790547e+00 -2.659339e+00 -1.594737e+00 -1.334967e+00 -6.198131e-01 -1.186671e+00 -2.634329e-01 2.858792e-01 1.590020e-01 1.211269e-01 8.981612e-01 1.318078e+00 8.875309e-01 8.883626e-01 1.090911e-01 -4.586396e-01 -6.556628e-01 5.006740e-01 5.968863e-02 -1.113674e+00 5.848248e-01 7.167210e-02 -1.960018e-02
<VARIANCE> 39
 7.950638e+00 1.167976e+01 1.315659e+01 1.523599e+01 1.471303e+01 2.178259e+01 1.725225e+01 2.633155e+01 1.845134e+01 1.750797e+01 2.167270e+01 1.733579e+01 8.919329e-03 1.957302e+00 4.377626e+00 2.225178e+00 2.335999e+00 2.776719e+00 1.868800e+00 2.130313e+00 2.223961e+00 2.795933e+00 2.473292e+00 1.518220e+00 1.355921e+00 3.638149e-03 3.902794e-01 6.241563e-01 3.500874e-01 5.489542e-01 6.139268e-01 5.574868e-01 6.101828e-01 7.915664e-01 8.284910e-01 6.929352e-01 4.533837e-01 4.666371e-01 3.410612e-04
<GCONST> 8.946935e+01
<STATE> 4
<NUMMIXES> 16
<MIXTURE> 1 6.989355e-02
<MEAN> 39
 -5.037544e+00 -6.757216e+00 -5.566257e+00 -1.482082e+00 -3.274557e+00 -1.072099e+01 -1.320833e+01 -2.721459e+00 -4.631299e+00 3.948718e-01 -2.458052e+00 -3.758042e-01 5.764300e-01 2.899103e+00 1.458934e+00 1.295332e+00 9.673744e-01 -1.700480e+00 -1.937912e+00 -1.959052e+00 -1.833184e-01 -2.434145e-01 -1.750325e+00 1.097692e+00 3.069745e-01 6.761130e-02 2.273503e-02 -5.759545e-01 -5.185310e-01 -3.654136e-01 -2.277623e-02 3.169042e-01 -3.722259e-02 5.270884e-01 1.591043e-01 -2.861764e-01 1.538970e-01 -2.649130e-02 -1.726973e-03
<VARIANCE> 39
 1.834828e+01 1.626766e+01 2.436142e+01 2.507238e+01 3.851801e+01 5.355689e+01 3.588449e+01 3.894149e+01 2.736125e+01 3.048355e+01 2.239870e+01 1.595770e+01 9.594518e-03 1.276801e+00 2.081471e+00 3.729727e+00 2.743776e+00 4.222842e+00 4.976626e+00 5.416191e+00 4.573297e+00 4.359863e+00 4.195932e+00 2.729748e+00 3.134758e+00 1.018965e-03 2.567309e-01 5.799918e-01 3.375262e-01 3.945913e-01 5.505487e-01 6.110373e-01 5.607604e-01 7.832112e-01 4.961912e-01 5.614240e-01 4.186037e-01 2.892571e-01 1.751488e-04
<GCONST> 9.647402e+01
<MIXTURE> 2 7.536668e-02
<MEAN> 39
 -5.544381e+00 -8.549073e+00 -1.894466e-01 -4.802331e+00 -1.113000e+01 -1.764038e+01 -9.896244e+00 4.165752e+00 -7.951959e+00 -1.683542e+00 5.873476e-02 6.016325e-01 6.891655e-01 2.852376e+00 -5.634172e-01 3.561265e-01 -1.363226e+00 -2.667989e+00 -7.843777e-01 -1.999012e+00 5.463789e-01 1.781037e+00 -6.535728e-02 1.205783e+00 -8.342915e-01 9.573422e-02 -1.097113e-01 -9.498218e-02 -7.007903e-01 -5.476352e-02 5.169961e-01 1.220480e+00 2.491089e-01 -3.221152e-01 5.960240e-01 6.761151e-02 -1.870616e-01 -6.249287e-01 -2.150707e-02
<VARIANCE> 39
 1.172484e+01 1.589563e+01 2.266268e+01 2.204732e+01 3.367880e+01 2.786500e+01 3.846195e+01 2.857594e+01 3.392712e+01 3.069090e+01 1.831728e+01 1.810496e+01 8.966305e-03 1.277980e+00 2.919873e+00 4.091287e+00 3.018930e+00 4.873657e+00 5.120577e+00 5.376233e+00 6.112671e+00 6.077511e+00 5.513719e+00 4.187442e+00 3.717052e+00 8.495969e-04 2.907270e-01 5.359325e-01 2.929494e-01 3.644109e-01 5.256494e-01 4.518029e-01 4.918462e-01 6.165482e-01 5.986066e-01 5.186862e-01 4.598389e-01 3.500687e-01 1.465057e-04
<GCONST> 9.617769e+01
<MIXTURE> 3 4.701879e-02
<MEAN> 39
 -1.610297e+01 -6.681628e+00 -1.090368e+01 -4.294780e+00 6.112981e-01 -1.220525e+01 -6.238130e+00 2.190743e-01 -5.731009e-01 -1.612255e+00 -2.767370e+00 -1.744862e-01 4.522693e-01 -4.142032e+00 1.674118e+00 9.142522e-01 -8.531997e-01 1.576243e-01 -1.019737e+00 1.452236e+00 1.002749e+00 8.888178e-01 1.918421e-02 3.457471e-01 9.236070e-01 6.017078e-02 -1.717037e-01 1.298296e+00 1.284187e+00 2.478143e-01 -6.726723e-01 3.020838e-01 4.265119e-01 -2.799710e-01 -8.772077e-01 -3.500731e-01 -6.917044e-02 -2.316981e-01 -6.522724e-03
<VARIANCE> 39
 2.409932e+01 3.060539e+01 4.572406e+01 2.614012e+01 3.920959e+01 3.121156e+01 2.289583e+01 2.584016e+01 1.907006e+01 2.736830e+01 1.617058e+01 1.908398e+01 1.095333e-02 2.648412e+00 3.305024e+00 3.308233e+00 2.477113e+00 2.862540e+00 3.414150e+00 2.134750e+00 2.884391e+00 2.678682e+00 2.284338e+00 2.005239e+00 1.827262e+00 1.705175e-03 4.909043e-01 6.590911e-01 6.987104e-01 5.105533e-01 7.471291e-01 6.927931e-01 5.679648e-01 6.243855e-01 4.144522e-01 6.390128e-01 3.808759e-01 4.631802e-01 1.966608e-04
<GCONST> 9.598883e+01
<MIXTURE> 4 6.920329e-02
<MEAN> 39
 -6.483963e+00 -4.087164e+00 -1.224331e+00 -1.791202e+01 -1.493321e+01 -1.270384e+01 -8.689668e+00 -9.546437e+00 -8.739367e+00 4.154137e+00 -6.978138e+00 -2.659111e+00 6.928512e-01 2.296194e+00 3.192276e-01 1.159976e+00 -2.469970e+00 -2.986847e+00 -9.855081e-01 1.025668e-01 -5.791027e-02 -1.581444e+00 1.304570e+00 -3.912355e-01 -5.243536e-01 7.665192e-02 -5.480676e-01 -9.141109e-01 -6.522718e-01 5.202673e-01 9.481786e-01 7.685185e-01 8.284211e-01 9.749533e-01 4.932268e-01 -3.629045e-01 2.115536e-01 1.930644e-01 -1.773004e-02
<VARIANCE> 39
 2.486178e+01 1.947627e+01 6.660561e+01 3.897258e+01 5.666423e+01 4.373913e+01 4.377650e+01 3.163127e+01 3.966137e+01 3.211678e+01 4.182852e+01 2.807917e+01 1.039344e-02 1.008086e+00 2.875521e+00 2.474714e+00 3.230676e+00 3.778887e+00 6.046589e+00 4.466125e+00 4.236885e+00 4.333776e+00 4.884404e+00 4.880293e+00 2.548245e+00 7.217530e-04 1.663018e-01 2.716526e-01 2.411895e-01 3.643022e-01 4.251926e-01 2.872021e-01 4.219514e-01 4.259637e-01 5.161383e-01 4.646620e-01 4.650854e-01 4.336242e-01 1.694857e-04
<GCONST> 9.691360e+01
<MIXTURE> 5 5.879435e-02
<MEAN> 39
 -1.129045e+01 -3.904938e+00 7.957001e+00 -6.240039e+00 -1.342247e+01 -9.650533e+00 -6.426141e+00 -3.643946e+00 -9.210086e+00 -2.933404e+00 -6.523514e-01 3.806892e-01 5.973706e-01 2.675820e+00 7.264797e-04 1.989375e+00 6.027131e-01 -3.886632e+00 -1.610329e+00 -2.335947e+00 6.034011e-01 2.585765e-01 -2.899193e+00 2.476155e+00 2.343367e-01 9.216024e-02 3.182697e-01 -3.945016e-01 -6.785575e-01 3.305408e-01 -1.415071e-01 2.401731e-01 -6.276512e-02 4.498478e-01 4.659003e-01 -2.602537e-01 3.915402e-01 -4.289165e-01 -1.333727e-02
<VARIANCE> 39
 6.883905e+00 1.848553e+01 2.162531e+01 1.771148e+01 2.029642e+01 2.296997e+01 2.754859e+01 2.122444e+01 1.839214e+01 3.119133e+01 1.797087e+01 1.351784e+01 1.067895e-02 1.015334e+00 3.175198e+00 3.128228e+00 2.850390e+00 3.422646e+00 3.333128e+00 4.423851e+00 3.646217e+00 5.050632e+00 2.996009e+00 2.608367e+00 2.860643e+00 1.143395e-03 3.218354e-01 5.480473e-01 4.029631e-01 3.545990e-01 4.645742e-01 3.943204e-01 5.715110e-01 4.924937e-01 4.447474e-01 5.949765e-01 3.429098e-01 3.382849e-01 1.946436e-04
<GCONST> 9.014516e+01
<MIXTURE> 6 4.610102e-02
<MEAN> 39
 -6.041446e+00 -6.804543e+00 -1.024115e+01 -9.569309e+00 1.901314e-01 -8.153251e+00 -1.443859e+01 -3.049091e+00 -6.138683e+00 4.914012e+00 -2.295085e+00 -4.331202e+00 5.823512e-01 2.872315e+00 1.416052e+00 1.658136e+00 -2.042019e+00 -3.795522e+00 -2.515146e-01 -7.063265e-01 -1.543211e+00 -1.217456e+00 -2.950647e-01 1.967021e+00 -4.760626e-01 8.634900e-02 9.069283e-03 3.060558e-01 4.996817e-01 1.345668e-01 -9.206933e-01 7.315996e-01 8.769595e-01 -7.413146e-02 -1.563899e-01 -7.896513e-01 4.827439e-01 9.721949e-02 -1.516090e-02
<VARIANCE> 39
 1.247435e+01 2.708042e+01 2.663809e+01 3.564910e+01 2.162290e+01 4.444310e+01 3.436054e+01 4.231292e+01 3.812821e+01 2.924704e+01 5.948215e+01 2.682187e+01 1.169383e-02 8.889797e-01 2.649367e+00 2.480764e+00 5.395633e+00 3.957795e+00 6.167302e+00 5.015542e+00 4.485290e+00 3.931050e+00 5.131316e+00 6.807436e+00 3.701228e+00 1.033088e-03 2.493976e-01 4.290013e-01 4.369189e-01 6.854825e-01 8.183329e-01 7.058833e-01 1.025853e+00 7.026683e-01 6.970046e-01 6.779875e-01 8.672775e-01 5.310203e-01 2.646310e-04
<GCONST> 1.034846e+02
<MIXTURE> 7 7.707871e-02
<MEAN> 39
 -7.169502e+00 -1.164862e+01 9.983958e+00 -1.167930e+01 -2.235601e+01 -1.047172e+01 -1.219323e+01 4.945965e+00 -1.375818e+01 1.180172e+00 4.048489e+00 -1.976307e+00 7.948280e-01 9.027303e-01 -1.774325e+00 -7.842867e-01 -1.129691e+00 -1.049760e+00 -4.382816e-01 -7.020352e-01 2.472254e+00 9.598230e-01 5.474865e-01 1.942060e-01 2.340482e-01 4.775731e-02 -3.841607e-01 5.908386e-02 -1.050528e+00 2.458422e-01 1.160748e+00 3.985789e-01 6.876379e-01 -2.631369e-01 8.818834e-01 -1.943111e-02 -8.389024e-01 -9.808595e-02 -2.246970e-02
<VARIANCE> 39
 7.648759e+00 1.641815e+01 2.307965e+01 2.050226e+01 2.664604e+01 3.282653e+01 4.174657e+01 4.502672e+01 2.893558e+01 2.459542e+01 2.228285e+01 1.824673e+01 7.232033e-03 5.012631e-01 9.035475e-01 2.244122e+00 1.467206e+00 2.480182e+00 1.766579e+00 2.591744e+00 1.973975e+00 3.070192e+00 1.607834e+00 2.061243e+00 1.188900e+00 5.482284e-04 1.507673e-01 2.197725e-01 3.549289e-01 2.579038e-01 2.963542e-01 3.537060e-01 3.812683e-01 4.479850e-01 3.397393e-01 3.904964e-01 2.380512e-01 3.128175e-01 7.772664e-05
<GCONST> 7.922157e+01
<MIXTURE> 8 4.969792e-02
<MEAN> 39
 -7.893419e+00 -1.111316e+01 3.266078e+00 -2.264750e+01 -1.545840e+01 -1.747431e+01 -6.257751e-01 -3.029304e+00 -7.348175e+00 6.023394e+00 -8.184983e+00 6.234841e-01 8.097378e-01 9.714800e-01 -2.014481e+00 -5.296743e-01 -1.813857e+00 3.040548e-01 -3.066913e-01 2.106995e+00 1.887577e+00 7.105119e-01 1.787025e-01 -5.611047e-01 -8.553576e-02 5.144940e-02 -5.041707e-01 -1.935252e-01 -8.676847e-01 1.127943e+00 9.106255e-01 9.747940e-01 1.878940e-01 1.329564e-01 3.122610e-01 -9.473104e-01 2.590776e-01 -1.511724e-01 -2.484405e-02
<VARIANCE> 39
 7.458148e+00 2.949393e+01 2.644048e+01 4.864578e+01 2.873761e+01 3.712161e+01 4.144102e+01 6.480491e+01 4.518348e+01 2.976243e+01 2.546984e+01 1.559754e+01 7.261791e-03 6.599848e-01 1.252648e+00 2.147208e+00 3.578256e+00 2.351228e+00 2.346035e+00 2.144041e+00 2.392456e+00 2.850655e+00 3.770343e+00 2.742799e+00 2.012048e+00 7.086894e-04 1.489223e-01 3.705710e-01 2.325411e-01 4.510766e-01 2.890281e-01 3.747317e-01 6.165259e-01 6.024593e-01 7.030714e-01 6.322521e-01 3.871251e-01 4.264307e-01 7.945159e-05
<GCONST> 8.896644e+01
<MIXTURE> 9 6.998469e-02
<MEAN> 39
 -4.672072e+00 -1.176517e+01 3.730119e+00 -5.096654e+00 -2.263934e+01 -1.122212e+01 -1.177924e+01 1.528900e+00 -1.502889e+00 -8.970417e+00 7.284016e+00 -1.506337e+00 7.942984e-01 1.393015e+00 -1.770597e+00 -1.425799e+00 -5.789784e-01 -1.601337e+00 4.104416e-01 -7.162783e-01 9.097942e-01 2.879130e+00 -7.759543e-01 8.006079e-01 -1.093530e+00 5.141543e-02 -6.005346e-01 2.847127e-02 -7.970212e-01 -2.057079e-01 1.479226e+00 5.384539e-01 7.816771e-01 -1.229472e-01 -2.116492e-01 9.495290e-01 -1.044189e+00 -3.177297e-01 -2.338502e-02
<VARIANCE> 39
 9.587534e+00 2.401270e+01 3.192402e+01 2.671482e+01 1.853676e+01 3.314640e+01 5.027754e+01 4.131241e+01 3.528709e+01 2.628345e+01 2.572714e+01 2.409297e+01 8.996010e-03 9.366241e-01 1.230866e+00 1.887900e+00 1.610551e+00 4.281358e+00 3.040916e+00 3.798659e+00 3.169535e+00 3.548131e+00 2.920434e+00 3.932669e+00 2.332706e+00 5.975242e-04 1.191342e-01 3.482018e-01 3.385657e-01 2.521941e-01 2.968232e-01 4.384164e-01 4.730530e-01 4.708592e-01 4.378179e-01 3.536688e-01 3.982456e-01 4.148219e-01 6.354127e-05
<GCONST> 8.740214e+01
<MIXTURE> 10 7.754816e-02
<MEAN> 39
 -9.766256e+00 -4.733045e+00 9.900223e+00 -9.395539e+00 -1.797305e+01 -1.020723e+01 -6.186222e+00 -4.031595e+00 -1.322955e+01 8.364633e-01 1.490547e-01 -2.481220e+00 6.619472e-01 2.092695e+00 -6.661929e-01 1.696119e+00 -8.029851e-01 -3.115242e+00 -1.890132e+00 -1.334380e+00 1.534662e+00 -1.336203e+00 -2.070200e-01 1.670854e+00 8.212882e-02 8.281355e-02 -1.166165e-01 -4.873232e-01 -9.238757e-01 1.180737e-01 5.485024e-01 2.128794e-01 2.447544e-01 5.631127e-01 7.356647e-01 -3.332545e-02 -1.686149e-01 7.195913e-02 -1.743379e-02
<VARIANCE> 39
 6.074883e+00 1.943950e+01 2.058433e+01 2.486375e+01 1.995210e+01 2.045859e+01 2.384928e+01 3.734135e+01 2.347561e+01 1.709442e+01 1.572346e+01 1.519536e+01 8.924589e-03 1.784279e+00 2.827719e+00 3.791648e+00 2.969268e+00 2.980648e+00 3.117671e+00 3.835275e+00 3.788144e+00 3.931534e+00 2.945940e+00 2.126797e+00 2.068765e+00 8.667185e-04 2.456540e-01 5.528781e-01 3.351763e-01 2.702836e-01 3.608286e-01 2.710759e-01 3.836413e-01 3.922244e-01 3.953877e-01 2.991670e-01 2.762778e-01 2.549093e-01 1.615358e-04
<GCONST> 8.593215e+01
<MIXTURE> 11 5.177632e-02
<MEAN> 39
 -5.270206e+00 -7.101738e+00 -1.209116e+01 -6.043464e+00 3.765140e+00 -6.687303e+00 -1.144319e+01 -4.344121e+00 -5.309569e+00 2.771396e+00 -2.430526e+00 2.686293e-01 4.428709e-01 2.826168e+00 1.917754e-01 7.897588e-01 6.372490e-01 -6.817778e-01 -2.572324e+00 -3.241697e+00 9.216997e-01 4.136520e-01 -1.248147e+00 5.071640e-01 4.145214e-01 9.346922e-02 2.737091e-01 -1.166442e-01 3.019681e-01 1.875308e-01 -6.917363e-01 -3.536009e-01 -4.824583e-01 6.928304e-01 1.420573e-01 -6.631643e-01 1.715532e-01 -1.577832e-01 6.041348e-03
<VARIANCE> 39
 1.615649e+01 2.152062e+01 2.073290e+01 2.737213e+01 3.092286e+01 6.360555e+01 3.893748e+01 4.056582e+01 4.926167e+01 2.598784e+01 2.207038e+01 2.445879e+01 1.464666e-02 1.123295e+00 3.760702e+00 3.038799e+00 2.764609e+00 4.320973e+00 4.103726e+00 6.168667e+00 5.687458e+00 4.697167e+00 3.397150e+00 3.470356e+00 2.282923e+00 9.901227e-04 3.026415e-01 6.335064e-01 6.658776e-01 5.562285e-01 4.950450e-01 7.377269e-01 8.974520e-01 1.046754e+00 1.262968e+00 6.842662e-01 4.550834e-01 6.214066e-01 2.869506e-04
<GCONST> 1.026857e+02
<MIXTURE> 12 5.207483e-02
<MEAN> 39
 -1.593825e+01 -1.941299e+00 1.883438e+00 -1.401370e+01 -1.025815e+01 -6.820461e+00 -5.197663e+00 -9.897203e+00 -4.127917e+00 -2.963187e+00 -5.957046e+00 -1.304478e+00 5.578032e-01 2.389099e+00 2.112967e+00 2.518738e+00 -1.639602e+00 -3.379235e+00 -2.254428e+00 -1.348490e+00 -9.366187e-01 -2.636915e+00 1.184229e+00 -3.971590e-01 -6.589437e-01 8.291641e-02 6.296555e-01 -2.245989e-01 7.997350e-02 5.376943e-01 -3.077283e-01 -8.281488e-02 1.626812e-01 6.068053e-01 -5.270474e-01 5.187613e-01 4.892818e-02 -1.961728e-01 -1.379309e-02
<VARIANCE> 39
 1.240973e+01 2.678333e+01 2.038457e+01 2.604521e+01 2.778770e+01 2.741027e+01 2.728793e+01 2.307257e+01 2.568987e+01 2.101369e+01 1.743377e+01 1.231815e+01 1.017074e-02 1.727616e+00 2.610725e+00 1.759882e+00 4.272441e+00 3.211596e+00 2.682642e+00 4.123600e+00 4.578227e+00 3.418755e+00 3.253752e+00 4.427311e+00 1.770901e+00 1.207563e-03 2.386776e-01 8.254680e-01 4.263409e-01 4.234868e-01 5.683823e-01 3.993601e-01 6.636502e-01 5.136320e-01 5.024863e-01 4.896486e-01 5.488227e-01 3.970138e-01 3.261280e-04
<GCONST> 9.342627e+01
<MIXTURE> 13 9.112456e-02
<MEAN> 39
 -1.007626e+00 -1.057890e+01 -3.045615e+00 -5.949772e+00 -8.945426e+00 -1.086734e+01 -1.799484e+01 2.868691e+00 -7.107011e+00 -4.285883e+00 5.591146e+00 -1.963006e+00 6.900288e-01 1.879291e+00 -1.128129e+00 -1.644587e-01 -9.133179e-01 -1.427439e+00 -4.071440e-01 -2.064158e+00 1.372543e+00 8.642536e-01 -4.468002e-01 1.384117e+00 -1.578232e-01 6.989241e-02 -4.957719e-01 -2.101017e-01 -7.648733e-01 -9.562465e-02 4.317513e-01 4.582339e-01 6.504378e-01 -8.217196e-02 4.069483e-01 4.543884e-01 -7.133993e-01 -1.001060e-01 -1.354080e-02
<VARIANCE> 39
 1.587077e+01 1.868745e+01 6.956598e+01 4.231791e+01 5.319633e+01 5.781550e+01 4.852351e+01 3.419332e+01 4.632616e+01 4.252427e+01 2.942303e+01 3.499580e+01 1.071549e-02 1.176424e+00 1.873299e+00 3.571827e+00 2.643508e+00 4.111737e+00 4.170269e+00 4.654214e+00 3.508844e+00 3.682994e+00 4.422416e+00 4.279679e+00 2.708875e+00 5.730008e-04 1.798311e-01 4.749036e-01 3.655771e-01 3.772575e-01 4.772244e-01 5.417360e-01 5.559373e-01 5.530726e-01 5.599781e-01 5.524814e-01 3.683205e-01 4.470723e-01 1.203493e-04
<GCONST> 9.825980e+01
<MIXTURE> 14 7.051057e-02
<MEAN> 39
 -1.117242e+01 -8.144067e+00 -1.125865e+01 -5.420525e+00 -5.390894e+00 -6.281825e+00 -5.224174e+00 -2.377636e+00 -4.368699e+00 -2.411194e+00 1.388046e-01 -1.626287e+00 4.445089e-01 7.005047e-01 1.879391e+00 1.644933e+00 -4.451988e-02 -8.606120e-01 -8.343893e-01 -6.145222e-01 -7.232366e-01 -8.029095e-01 -3.749711e-01 1.108139e-01 7.688154e-02 3.589002e-02 3.227152e-01 8.281749e-01 8.921842e-01 2.517502e-01 7.276050e-03 -9.646145e-02 -3.410453e-01 -3.470363e-01 -1.564072e-01 1.045937e-02 -3.069689e-01 -7.557143e-02 -1.031570e-02
<VARIANCE> 39
 4.304128e+01 4.935185e+01 9.477922e+01 5.854360e+01 3.888680e+01 6.849139e+01 3.934967e+01 5.339692e+01 5.166164e+01 3.333299e+01 2.820752e+01 1.884581e+01 1.565682e-02 4.253490e+00 3.667241e+00 4.982774e+00 3.902514e+00 3.321081e+00 5.604712e+00 3.172700e+00 3.651133e+00 3.177006e+00 2.613021e+00 2.315730e+00 2.294763e+00 2.417099e-03 6.911832e-01 1.057286e+00 1.299507e+00 8.268150e-01 7.670083e-01 1.234535e+00 7.808576e-01 9.646131e-01 1.064387e+00 7.728311e-01 7.172593e-01 3.953396e-01 6.140870e-04
<GCONST> 1.124867e+02
<MIXTURE> 15 3.194338e-02
<MEAN> 39
 -6.746369e+00 -9.996007e+00 -3.025771e+00 -1.738799e+01 -2.153350e+01 -1.208189e+01 -6.947330e+00 8.053384e-01 -8.920847e+00 4.330984e+00 -7.749643e+00 -2.945173e+00 8.285050e-01 1.446499e+00 -1.532062e+00 -1.198222e+00 -1.879177e+00 -8.759506e-01 1.187637e+00 6.259538e-02 2.615647e+00 -1.295154e-01 4.247432e-01 -1.562035e+00 -9.369448e-01 6.031818e-02 -6.822686e-01 -4.422600e-01 -5.939320e-01 8.390532e-01 1.923461e+00 8.739876e-01 5.761803e-01 -1.134370e-01 6.163849e-01 -6.775219e-01 5.607892e-02 2.359131e-01 -2.831187e-02
<VARIANCE> 39
 1.188640e+01 2.104937e+01 2.881343e+01 2.518115e+01 4.629280e+01 4.202802e+01 3.850781e+01 7.243852e+01 2.700270e+01 3.205469e+01 2.386578e+01 1.531545e+01 5.950690e-03 1.281807e+00 1.593480e+00 2.417839e+00 2.900339e+00 4.839962e+00 3.466846e+00 4.222222e+00 3.620503e+00 4.706833e+00 5.046956e+00 3.828035e+00 2.015884e+00 8.034792e-04 1.387213e-01 2.597519e-01 2.776306e-01 3.577385e-01 3.236220e-01 5.043121e-01 4.752828e-01 1.144035e+00 4.245736e-01 4.403539e-01 4.944959e-01 3.665687e-01 9.692467e-05
<GCONST> 9.244647e+01
<MIXTURE> 16 6.187888e-02
<MEAN> 39
 -9.418041e+00 -1.008104e+01 -8.413018e+00 -6.749073e+00 -4.600731e+00 -1.566024e+01 -6.522254e+00 -8.330524e-01 -4.239008e+00 -6.807286e-01 -6.024206e+00 5.729800e-02 6.017244e-01 2.538643e+00 8.102055e-01 9.436734e-01 -3.035173e+00 -2.664096e+00 -1.244094e+00 -1.755124e+00 8.589116e-02 -9.227248e-01 1.088935e+00 -9.283073e-01 -1.058418e+00 9.358321e-02 2.964886e-01 6.886455e-01 4.345037e-01 -2.378599e-01 -2.103234e-01 9.625438e-01 -1.491975e-01 -2.251811e-01 -4.183512e-01 1.732563e-01 7.821715e-03 -5.465937e-01 -1.806954e-02
<VARIANCE> 39
 1.476449e+01 2.448054e+01 3.374760e+01 1.995896e+01 4.093742e+01 4.519640e+01 6.349664e+01 3.860109e+01 3.873611e+01 2.376990e+01 3.291573e+01 2.573663e+01 1.231798e-02 1.566370e+00 5.451875e+00 3.435700e+00 5.759916e+00 5.571142e+00 5.748106e+00 5.939848e+00 8.213378e+00 6.031578e+00 4.148123e+00 6.129014e+00 2.743305e+00 1.367374e-03 2.380806e-01 5.393361e-01 4.064099e-01 5.637927e-01 9.000337e-01 1.054029e+00 1.189117e+00 1.100704e+00 1.045993e+00 6.095916e-01 6.628161e-01 6.743298e-01 2.984246e-04
<GCONST> 1.078265e+02
<TRANSP> 5
 0.000000e+00 1.000000e+00 0.000000e+00 0.000000e+00 0.000000e+00
 0.000000e+00 7.262835e-01 2.737165e-01 0.000000e+00 0.000000e+00
 0.000000e+00 0.000000e+00 5.563092e-01 4.436908e-01 0.000000e+00
 0.000000e+00 0.000000e+00 0.000000e+00 5.791686e-01 4.208314e-01
 0.000000e+00 0.000000e+00 0.000000e+00 0.000000e+00 0.000000e+00
<ENDHMM>
