~o
<STREAMINFO> 1 39
<VECSIZE> 39<NULLD><MFCC_E_D_A><DIAGC>
~h "hh"
<BEGINHMM>
<NUMSTATES> 5
<STATE> 2
<NUMMIXES> 16
<MIXTURE> 1 6.930517e-02
<MEAN> 39
 -5.548462e+00 -7.945292e+00 -2.219893e+00 -5.197853e+00 -7.178270e+00 -7.022490e+00 -1.853933e+00 5.061140e+00 1.616331e-01 -1.081287e+00 -5.420811e+00 -5.688123e-01 5.502349e-01 -9.617469e-01 9.877668e-02 9.297393e-02 9.840955e-01 1.070070e+00 7.998855e-01 2.274058e+00 1.122884e+00 4.606374e-01 -5.924572e-01 -4.872606e-01 8.198528e-01 -2.914426e-02 -2.859807e-03 -3.231047e-01 -7.939597e-02 -3.231367e-01 -1.140323e-01 2.502222e-01 -2.788391e-01 -4.842645e-01 -3.578281e-01 4.600488e-02 3.712651e-01 -2.692887e-01 8.206795e-03
<VARIANCE> 39
 6.123025e+00 1.334651e+01 3.131197e+01 2.656713e+01 3.869208e+01 3.700837e+01 4.397022e+01 3.320484e+01 3.800095e+01 2.886331e+01 2.715883e+01 2.373195e+01 1.106036e-02 8.966514e-01 1.729842e+00 3.864920e+00 2.108807e+00 4.053068e+00 3.485348e+00 3.793870e+00 4.782182e+00 4.871953e+00 3.821932e+00 2.694551e+00 2.033396e+00 1.089654e-03 1.114465e-01 2.072409e-01 2.941472e-01 3.108784e-01 4.283042e-01 4.350693e-01 6.323124e-01 5.733239e-01 5.545160e-01 4.991911e-01 3.806327e-01 3.741193e-01 1.136204e-04
<GCONST> 9.103701e+01
<MIXTURE> 2 5.271122e-02
<MEAN> 39
 -1.421209e+01 -1.375064e+01 -8.806443e+00 -9.315136e+00 -9.256727e+00 -7.545118e+00 2.491708e+00 5.152490e+00 -2.891486e+00 -2.591434e+00 -4.604323e+00 2.381899e-01 3.064028e-01 8.181610e-01 -2.898666e-01 2.033710e-02 3.941401e-01 -2.280027e-01 -1.019151e-01 6.754210e-01 2.265524e-01 -9.440713e-02 -3.749250e-02 -6.481940e-01 -4.543801e-01 3.780344e-02 3.602160e-01 7.674075e-01 3.896675e-01 4.134062e-01 4.104902e-01 3.989643e-01 -3.845534e-01 -3.887668e-01 9.095581e-02 6.733550e-02 1.806811e-01 -1.914434e-01 1.222805e-02
<VARIANCE> 39
 1.007373e+01 1.742427e+01 3.955334e+01 3.394690e+01 3.343510e+01 3.365677e+01 4.026406e+01 2.142142e+01 2.195662e+01 2.250878e+01 2.611496e+01 2.155481e+01 2.750298e-02 1.905091e+00 1.902483e+00 1.889799e+00 2.147149e+00 3.074379e+00 2.882292e+00 2.194711e+00 2.045299e+00 1.787792e+00 1.823797e+00 1.937416e+00 1.442236e+00 1.446476e-03 3.773447e-01 2.393045e-01 3.749329e-01 4.058644e-01 3.678567e-01 4.712140e-01 5.216346e-01 3.581015e-01 3.739230e-01 3.807574e-01 4.712263e-01 3.140751e-01 3.243026e-04
<GCONST> 8.920688e+01
<MIXTURE> 3 5.536861e-02
<MEAN> 39
 -1.002837e+01 -4.394124e+00 6.326695e+00 -6.001102e+00 -1.225800e+01 -3.865610e+00 2.322096e+00 2.187306e+00 -8.272389e+00 -5.473343e-01 9.043017e-01 3.890758e-01 4.668564e-01 -8.874367e-01 5.289257e-01 8.997256e-01 -4.588086e-01 -8.470584e-02 1.645108e+00 1.157242e+00 -4.685552e-01 1.846008e-01 7.295305e-01 -8.037897e-03 -2.959621e-01 -1.337466e-02 3.075758e-01 -2.074912e-01 -4.796394e-01 -1.019535e-01 9.811313e-02 -2.434730e-01 -6.683215e-01 -2.831794e-01 1.954394e-01 -8.765636e-02 -4.493485e-01 -2.514023e-01 1.075284e-02
<VARIANCE> 39
 8.702768e+00 1.832070e+01 1.844919e+01 2.550829e+01 2.781543e+01 4.167460e+01 2.761500e+01 3.613272e+01 2.918103e+01 2.588286e+01 2.273718e+01 2.509791e+01 1.692147e-02 1.020748e+00 1.514522e+00 2.352373e+00 2.585296e+00 2.755709e+00 2.356780e+00 3.127833e+00 3.288630e+00 2.832732e+00 2.022065e+00 2.322128e+00 1.703268e+00 6.534586e-04 1.151035e-01 2.527103e-01 2.376995e-01 3.635276e-01 4.294274e-01 5.810601e-01 4.924908e-01 5.012069e-01 3.903894e-01 4.826894e-01 3.541237e-01 3.357917e-01 1.035179e-04
<GCONST> 8.624107e+01
<MIXTURE> 4 6.035892e-02
<MEAN> 39
 -1.320832e+01 -1.075612e+01 -9.839833e+00 -1.375728e+01 -1.012601e+00 7.400478e+00 2.361784e+00 -3.054670e+00 -3.127911e+00 -1.224206e+00 -1.533552e+00 -1.853854e+00 4.135707e-01 2.420360e-03 2.899252e-01 1.378368e-01 -5.902775e-01 -2.923830e-01 4.979766e-01 3.215913e-01 -2.535658e-01 5.938285e-02 -2.355683e-01 -2.284439e-01 -2.044476e-01 2.285561e-03 7.836986e-01 5.267830e-01 7.561148e-02 8.330543e-02 -4.797468e-01 -6.056379e-01 -3.393090e-01 -8.247303e-03 -3.806695e-02 -2.657440e-01 -1.464818e-01 -4.520221e-02 1.607735e-02
<VARIANCE> 39
 2.045673e+01 3.403918e+01 4.599850e+01 4.108417e+01 4.624479e+01 2.506972e+01 3.031739e+01 3.277531e+01 3.674369e+01 2.653279e+01 3.304394e+01 2.727016e+01 1.456138e-02 8.193024e-01 9.145381e-01 9.181668e-01 1.622986e+00 2.064611e+00 2.487345e+00 1.899714e+00 1.838699e+00 1.858959e+00 2.045887e+00 1.954795e+00 1.887228e+00 4.769696e-04 2.263459e-01 1.742262e-01 3.428136e-01 4.202906e-01 5.373419e-01 4.219915e-01 5.872124e-01 4.765566e-01 5.228335e-01 4.337832e-01 4.160656e-01 3.630743e-01 2.300690e-04
<GCONST> 8.749243e+01
<MIXTURE> 5 6.047208e-02
<MEAN> 39
 -8.275883e+00 -8.831814e+00 -9.609347e+00 -8.899598e+00 2.237177e+00 2.904399e+00 -2.322281e+00 -4.874272e+00 -2.416587e+00 -4.173952e+00 -5.641774e+00 -3.898869e+00 5.327207e-01 -1.652438e+00 -4.827432e-01 3.718392e-01 5.683010e-01 1.756482e+00 1.283817e+00 6.889518e-01 1.551720e-01 3.268177e-01 -1.412512e-01 3.488585e-01 2.506579e-01 -3.688749e-02 1.999238e-01 -1.873117e-01 -8.528934e-02 -4.560144e-01 -7.128624e-01 -5.185739e-01 -1.286845e-01 1.421628e-01 2.991863e-02 1.489137e-01 9.877697e-02 4.857685e-02 1.232366e-02
<VARIANCE> 39
 1.782451e+01 1.818149e+01 2.338210e+01 3.474645e+01 3.682848e+01 4.750027e+01 4.778221e+01 3.589803e+01 5.905932e+01 6.313522e+01 4.664339e+01 2.741196e+01 1.343100e-02 9.972800e-01 1.277789e+00 2.827641e+00 3.374221e+00 2.480467e+00 2.958986e+00 3.149357e+00 3.480106e+00 3.780058e+00 3.337528e+00 2.923604e+00 2.274174e+00 8.376204e-04 2.296372e-01 2.119883e-01 3.901098e-01 2.857828e-01 3.792785e-01 3.313237e-01 4.946026e-01 4.679143e-01 5.615594e-01 5.731859e-01 5.037720e-01 3.665295e-01 1.343143e-04
<GCONST> 9.387760e+01
<MIXTURE> 6 4.410573e-02
<MEAN> 39
 -1.482520e+01 -7.032184e+00 2.513466e-01 -1.142677e+01 -9.584935e+00 -3.421234e+00 1.192868e+00 -2.528181e+00 -6.113947e+00 -7.939776e-01 -2.908725e+00 4.871303e-01 1.314199e-01 -8.030502e-01 -1.964381e-01 6.923312e-01 -8.498566e-01 -6.257156e-01 -5.185775e-01 -2.588633e-01 -4.950524e-01 -4.983423e-01 3.097417e-01 -4.679880e-01 -1.375210e-01 5.137386e-02 1.309739e-01 6.465288e-01 7.197575e-02 7.262293e-01 7.355074e-02 2.570308e-01 -1.693702e-01 2.567188e-01 1.890988e-01 2.454842e-02 1.193701e-01 -1.144106e-01 5.414723e-03
<VARIANCE> 39
 6.164363e+00 1.225177e+01 1.373176e+01 1.343444e+01 2.233254e+01 1.922953e+01 2.851019e+01 2.327448e+01 2.544878e+01 2.650991e+01 1.542587e+01 1.717180e+01 9.775010e-03 3.563434e-01 7.973884e-01 8.602614e-01 1.830683e+00 1.399033e+00 1.674298e+00 1.694704e+00 1.794032e+00 1.646039e+00 1.966193e+00 1.373686e+00 1.332870e+00 8.725877e-04 1.767519e-01 1.808576e-01 2.191796e-01 2.438081e-01 3.340139e-01 3.062774e-01 5.274536e-01 2.952062e-01 4.294760e-01 5.308246e-01 2.868423e-01 2.668386e-01 1.691614e-04
<GCONST> 7.389418e+01
<MIXTURE> 7 5.882744e-02
<MEAN> 39
 -1.427086e+01 -7.777236e+00 -4.552442e+00 -5.699687e+00 -3.928694e+00 -6.151324e+00 -8.575886e-01 2.881203e+00 6.193560e-01 -1.694551e+00 -4.411353e+00 -1.758932e-01 4.512899e-01 2.094142e+00 -1.057456e+00 -4.301500e-01 4.785545e-01 1.582138e-01 5.809803e-01 2.637742e-01 3.899803e-01 4.977934e-01 1.449647e-01 -8.069255e-01 -8.281896e-01 -5.567295e-03 3.843505e-01 5.952453e-02 -1.126229e-01 -4.623474e-01 -2.646571e-01 4.694828e-02 -3.740949e-01 -2.145974e-01 -3.831498e-01 6.694214e-02 2.832676e-01 -1.768311e-01 2.442598e-02
<VARIANCE> 39
 2.389782e+01 1.630225e+01 2.088789e+01 2.583869e+01 2.173836e+01 2.973997e+01 3.161362e+01 2.539910e+01 2.759358e+01 2.085223e+01 1.731625e+01 1.509910e+01 1.039418e-02 4.967453e+00 1.828896e+00 3.075908e+00 2.414450e+00 5.195114e+00 4.585485e+00 4.080202e+00 3.625962e+00 2.691175e+00 2.823631e+00 2.273488e+00 1.870567e+00 1.012132e-03 4.143221e-01 3.542742e-01 5.448034e-01 4.564412e-01 5.641378e-01 6.379198e-01 8.030013e-01 6.489255e-01 7.987290e-01 4.555175e-01 4.517743e-01 4.436110e-01 2.182021e-04
<GCONST> 9.507169e+01
<MIXTURE> 8 4.724552e-02
<MEAN> 39
 -1.891294e+01 -5.493469e+00 -1.504883e+00 -1.334431e+01 -6.805226e+00 -1.448877e+00 2.761066e+00 -4.271310e+00 -8.323715e-01 -9.691598e-01 -2.201433e+00 1.648536e+00 3.070104e-01 8.891066e-01 5.636845e-01 1.430584e+00 -2.390381e-01 -8.367153e-01 -3.698485e-01 -5.415810e-01 -1.466675e+00 -1.380708e+00 -8.684555e-01 -1.396775e+00 -5.779388e-01 3.064929e-02 8.035659e-01 3.948617e-01 2.874715e-01 3.377566e-02 -6.629190e-01 -6.161534e-01 -7.910935e-01 -3.606848e-01 -8.809758e-01 -3.430662e-01 -4.718065e-01 -4.740501e-01 2.355740e-02
<VARIANCE> 39
 1.090717e+01 1.824344e+01 2.164909e+01 3.005293e+01 1.810854e+01 2.278908e+01 4.135420e+01 2.970192e+01 2.161417e+01 2.218419e+01 1.645841e+01 1.553819e+01 2.539589e-02 2.283775e+00 1.794241e+00 1.641610e+00 1.984896e+00 2.250365e+00 2.020255e+00 3.469481e+00 2.085898e+00 2.269605e+00 2.313061e+00 2.055437e+00 1.574860e+00 1.895213e-03 1.905693e-01 2.561393e-01 4.253674e-01 4.983467e-01 3.746948e-01 4.299991e-01 5.363632e-01 5.363315e-01 4.551175e-01 4.669239e-01 4.243123e-01 3.100829e-01 1.406007e-04
<GCONST> 8.718852e+01
<MIXTURE> 9 7.478034e-02
<MEAN> 39
 -1.246288e+01 -5.736055e+00 -3.228035e+00 -7.530455e+00 -8.177047e+00 -4.062252e-01 2.458338e+00 4.272086e-01 -2.681405e+00 -1.107932e+00 -9.973485e-01 6.302316e-01 6.534534e-03 2.952635e-01 -1.810480e+00 9.580704e-01 -1.964743e+00 -1.150020e+00 -5.908027e-01 3.955005e-01 -6.367396e-01 -8.127412e-01 -2.787895e-01 -5.468572e-01 1.248371e-01 6.973485e-02 -6.083115e-01 1.582109e-01 6.359041e-02 2.148880e-01 2.539111e-01 -2.230248e-01 -3.131916e-01 -1.736747e-01 -9.100528e-03 4.085639e-02 -1.659048e-01 -1.056990e-01 9.142417e-03
<VARIANCE> 39
 7.124361e+00 2.096070e+01 1.994752e+01 1.631762e+01 1.702965e+01 2.054960e+01 2.181805e+01 2.032466e+01 1.526865e+01 1.751584e+01 1.128901e+01 1.247403e+01 1.020413e-02 9.929035e-01 1.447026e+00 1.163144e+00 1.870120e+00 2.603154e+00 2.197973e+00 2.424186e+00 2.321133e+00 1.985091e+00 1.885190e+00 1.585600e+00 1.462804e+00 6.192215e-04 1.155274e-01 2.642174e-01 2.195192e-01 2.640365e-01 2.600409e-01 2.944316e-01 3.754683e-01 3.334549e-01 3.226589e-01 3.636829e-01 2.408082e-01 2.362988e-01 1.223062e-04
<GCONST> 7.475510e+01
<MIXTURE> 10 6.169834e-02
<MEAN> 39
 -1.269089e+01 -7.136064e+00 7.785428e-01 -7.841246e+00 -6.702651e+00 3.611065e-01 6.037559e+00 -1.360433e+00 -5.621264e+00 -3.013864e+00 -4.077633e+00 -8.833407e-01 4.265653e-01 -6.209147e-01 -7.352551e-01 -5.592113e-01 2.131883e-02 8.448724e-01 7.999796e-01 7.940751e-01 1.291745e-01 4.535831e-01 -1.875823e-01 -1.302712e-02 2.100464e-01 -8.365083e-03 3.954051e-01 1.294301e-01 -4.676600e-02 -3.206148e-01 -5.328553e-01 -7.150617e-01 -8.227400e-01 -6.438060e-02 -1.508461e-01 4.002441e-02 -8.500274e-02 -1.027430e-01 1.348870e-02
<VARIANCE> 39
 1.203920e+01 3.740722e+01 4.100742e+01 3.873697e+01 2.958052e+01 2.870088e+01 3.429868e+01 6.087010e+01 3.858009e+01 4.201441e+01 2.857058e+01 2.095670e+01 1.306438e-02 4.403796e-01 7.433723e-01 1.053483e+00 1.408603e+00 1.576829e+00 2.189630e+00 2.011053e+00 1.886030e+00 2.011930e+00 1.734860e+00 1.742957e+00 1.782061e+00 3.196348e-04 9.871276e-02 1.661277e-01 2.031886e-01 2.008066e-01 2.869359e-01 3.161196e-01 3.864388e-01 3.296272e-01 3.405076e-01 3.366930e-01 3.224301e-01 2.948954e-01 1.068262e-04
<GCONST> 7.974524e+01
<MIXTURE> 11 6.274224e-02
<MEAN> 39
 -1.105535e+01 -7.208042e+00 -2.158769e-01 -1.144127e+01 -1.027647e+01 -5.114277e+00 -1.950262e+00 -7.853977e+00 -1.433653e+01 -9.847285e+00 -1.154897e+01 -5.778675e+00 5.320809e-01 -1.224522e+00 -7.356727e-01 2.586468e-01 2.167751e-01 1.090477e+00 1.685432e+00 1.153242e+00 -2.792438e-01 2.603626e-01 -5.338793e-01 -2.861739e-01 -3.840972e-01 -1.618722e-02 1.609127e-01 -9.136689e-02 -4.454190e-01 -1.267135e-01 2.116307e-02 -2.316865e-01 -1.071710e-01 1.348395e-01 4.806954e-01 4.239600e-01 2.504083e-01 3.771676e-01 6.103469e-03
<VARIANCE> 39
 1.280798e+01 3.069971e+01 2.766948e+01 3.993293e+01 2.933458e+01 4.672962e+01 4.683539e+01 4.398107e+01 3.735071e+01 3.352708e+01 2.773391e+01 3.017979e+01 1.605892e-02 1.290931e+00 2.186557e+00 2.872046e+00 3.089967e+00 3.218075e+00 3.010906e+00 3.029793e+00 4.364719e+00 4.075549e+00 3.029187e+00 3.111477e+00 2.589987e+00 9.236036e-04 2.257495e-01 2.850225e-01 3.758422e-01 4.018668e-01 4.976631e-01 5.425141e-01 7.188384e-01 7.313566e-01 5.541537e-01 4.581047e-01 6.510307e-01 4.599012e-01 1.512347e-04
<GCONST> 9.697076e+01
<MIXTURE> 12 1.191649e-01
<MEAN> 39
 -1.314643e+01 -1.588885e+01 -1.183658e+01 -7.836956e+00 1.322435e-01 -1.953173e+00 -2.610199e+00 1.085325e+00 -2.090821e-01 -3.124979e+00 -4.631769e+00 -1.359867e+00 3.440877e-01 -1.549868e-01 -9.472406e-01 -4.309492e-01 -4.926823e-01 4.391913e-01 1.929560e-02 -7.167354e-02 -4.534387e-01 -1.992068e-01 1.552768e-01 -1.571609e-01 -9.510414e-02 3.441856e-02 1.393713e-01 6.830258e-01 2.124706e-01 2.061625e-01 -1.119910e-01 8.818022e-02 6.467493e-02 -1.086763e-01 -1.121178e-01 1.631010e-02 6.553484e-02 -8.101837e-02 -2.092362e-04
<VARIANCE> 39
 1.457925e+01 1.549512e+01 1.850802e+01 2.732363e+01 3.288784e+01 4.094275e+01 4.178249e+01 4.482902e+01 3.667733e+01 3.269371e+01 3.177879e+01 2.116277e+01 2.953575e-02 5.978530e-01 1.359544e+00 1.200720e+00 1.462571e+00 1.872900e+00 2.403548e+00 2.382828e+00 2.227351e+00 2.127807e+00 2.300917e+00 1.982762e+00 1.470801e+00 1.482213e-03 2.564247e-01 2.843377e-01 2.465624e-01 2.492166e-01 3.552145e-01 3.594652e-01 4.220298e-01 4.628332e-01 4.225922e-01 4.051991e-01 4.031212e-01 2.938169e-01 1.278593e-04
<GCONST> 8.585405e+01
<MIXTURE> 13 6.229027e-02
<MEAN> 39
 -7.109301e+00 -1.081534e+01 -4.664114e+00 -1.037851e+00 -4.179593e+00 -4.425309e+00 8.147476e-01 8.260176e+00 -1.616086e+00 -5.643701e+00 -4.417745e+00 8.911445e-01 4.789440e-01 -1.448543e+00 -6.085768e-01 1.148994e+00 -1.725222e-01 -2.188501e-01 1.158735e+00 2.441817e+00 1.027592e-01 -1.143466e+00 -2.475314e-01 7.359161e-01 1.844591e-01 -1.920999e-02 3.111288e-01 1.537898e-01 -2.953025e-01 -8.142230e-01 -1.298023e-01 -1.498029e-01 -6.718612e-01 -9.198231e-01 -3.910386e-02 4.442716e-01 1.261458e-01 -3.521915e-01 1.395884e-02
<VARIANCE> 39
 1.231252e+01 1.300435e+01 3.666534e+01 2.699782e+01 4.694327e+01 4.564055e+01 4.257333e+01 3.875657e+01 4.554025e+01 3.570292e+01 3.398980e+01 2.248696e+01 1.042578e-02 9.926695e-01 1.084087e+00 3.967576e+00 2.479270e+00 4.150557e+00 3.675596e+00 3.982145e+00 3.775818e+00 3.593778e+00 3.003014e+00 2.446754e+00 1.681309e+00 7.381157e-04 1.571043e-01 2.167810e-01 3.545948e-01 3.653920e-01 4.945335e-01 6.626483e-01 6.419985e-01 4.907337e-01 6.672941e-01 5.433760e-01 4.379068e-01 3.191413e-01 1.239019e-04
<GCONST> 9.290263e+01
<MIXTURE> 14 5.676721e-02
<MEAN> 39
 -1.374437e+01 -9.909453e+00 -6.056587e+00 -9.041451e+00 -3.803848e+00 -1.164228e-01 2.272120e+00 7.340498e-01 -2.994184e+00 -4.929948e+00 -2.963375e+00 6.798950e-01 4.021247e-01 8.819122e-02 -1.799789e+00 -9.385867e-01 -6.689025e-01 4.130195e-01 6.154550e-01 9.689745e-01 5.345315e-01 2.853401e-01 -2.683663e-01 -5.228199e-01 5.263048e-01 7.144259e-03 2.730876e-01 3.280591e-01 -5.312712e-02 4.396427e-02 -2.907029e-01 -4.750102e-01 -5.086209e-01 -4.874970e-01 -1.844296e-01 1.720237e-01 -2.397990e-01 -4.410125e-01 1.311871e-02
<VARIANCE> 39
 1.590620e+01 2.327547e+01 3.897890e+01 3.021380e+01 3.592045e+01 3.892819e+01 4.040042e+01 3.373644e+01 3.924297e+01 3.115519e+01 2.975393e+01 2.034535e+01 1.544474e-02 3.072939e+00 2.212202e+00 3.852314e+00 3.898029e+00 4.185098e+00 3.338314e+00 4.975535e+00 4.611516e+00 5.801010e+00 3.805854e+00 4.346657e+00 2.722240e+00 1.127236e-03 4.119219e-01 4.223297e-01 5.837710e-01 5.703315e-01 6.885435e-01 5.451903e-01 8.215255e-01 6.330946e-01 7.534773e-01 6.199023e-01 6.761909e-01 4.854512e-01 2.598399e-04
<GCONST> 1.030276e+02
<MIXTURE> 15 6.917264e-02
<MEAN> 39
 -1.668381e+01 -7.145752e+00 -1.311706e+00 -1.274868e+01 -8.955922e+00 -8.545648e-01 1.777803e+00 -2.416438e+00 -2.127188e+00 -1.772958e+00 -2.651654e+00 -5.071194e-01 2.716641e-01 -2.717628e-01 -2.050051e-01 1.530377e-01 -7.211529e-01 -3.332494e-01 5.331906e-02 1.202587e-01 -5.509073e-01 -1.520918e-01 -2.683936e-01 -3.239934e-01 -6.670198e-02 1.488410e-02 5.513989e-02 1.684682e-01 -3.862041e-03 2.865029e-01 7.495332e-02 -5.361546e-02 -5.660026e-02 9.202984e-02 -6.889494e-02 -7.624738e-02 -3.064195e-02 -1.390818e-02 1.524306e-03
<VARIANCE> 39
 1.393538e+01 2.067137e+01 1.852975e+01 2.362480e+01 2.156613e+01 2.613997e+01 2.657796e+01 3.811317e+01 1.543335e+01 1.727915e+01 1.581735e+01 1.283538e+01 2.568073e-02 6.651464e-01 6.236677e-01 9.632387e-01 1.518066e+00 1.310981e+00 1.454377e+00 1.630289e+00 1.528726e+00 1.598767e+00 1.041190e+00 1.233758e+00 1.072721e+00 8.868611e-04 1.222625e-01 1.114390e-01 1.967287e-01 2.794926e-01 2.629076e-01 2.123712e-01 3.076899e-01 3.477578e-01 2.556632e-01 1.756004e-01 2.684473e-01 1.996846e-01 8.670144e-05
<GCONST> 7.103585e+01
<MIXTURE> 16 4.497973e-02
<MEAN> 39
 -1.999223e+01 -4.013807e+00 -1.628841e-01 -1.488703e+01 -4.724004e+00 -6.744926e-01 -6.914541e-01 -4.354664e+00 -7.230546e-01 -1.672943e+00 -2.292584e+00 3.157030e-01 3.571224e-01 -3.804269e-01 -1.460087e-01 -2.603841e-01 -3.203392e-01 -9.237928e-02 -6.690013e-02 -2.747057e-01 6.278659e-02 2.785215e-01 4.404289e-02 1.884449e-01 9.849243e-02 4.260000e-03 6.941756e-01 3.222103e-01 4.598279e-01 1.502892e-01 -5.782322e-01 -2.249772e-01 -3.402520e-01 -4.540193e-01 -6.002779e-01 -1.754565e-01 -3.638655e-01 -2.833741e-01 9.816612e-03
<VARIANCE> 39
 1.142368e+01 3.148882e+01 2.965269e+01 2.088088e+01 2.458799e+01 1.917300e+01 3.811810e+01 1.850300e+01 1.689984e+01 2.206613e+01 1.463659e+01 1.452086e+01 1.698693e-02 6.953441e-01 8.829232e-01 1.309357e+00 1.105194e+00 1.389374e+00 1.436432e+00 1.687026e+00 1.751476e+00 1.682148e+00 1.324562e+00 1.518654e+00 1.092132e+00 3.172734e-04 1.101823e-01 1.219022e-01 2.730423e-01 2.975979e-01 3.278039e-01 3.504312e-01 3.993628e-01 3.524510e-01 3.384575e-01 3.561876e-01 3.829952e-01 2.474973e-01 1.036787e-04
<GCONST> 7.422701e+01
<STATE> 3
<NUMMIXES> 16
<MIXTURE> 1 3.808005e-02
<MEAN> 39
 -1.528972e+01 -7.531786e+00 -5.143887e+00 -1.030542e+01 -1.232888e+01 -2.080356e+00 -9.251823e-02 -1.495735e+00 -4.677713e+00 -1.660495e+00 -2.677863e+00 -2.966039e+00 1.948179e-01 1.178900e+00 2.002439e+00 1.624325e+00 1.381923e+00 -3.949713e-01 4.463056e-01 -2.139334e-01 -3.411996e-01 -3.991203e-02 -5.301946e-02 3.755668e-01 -4.621317e-01 7.155549e-02 9.197574e-01 3.642637e-01 4.980767e-01 1.250143e-01 -2.025965e-02 9.471805e-03 -4.749129e-01 1.139062e-02 -1.300756e-01 -1.984334e-01 3.521357e-01 1.787548e-01 2.726950e-02
<VARIANCE> 39
 1.403930e+01 1.903904e+01 6.791209e+01 5.493632e+01 6.153510e+01 2.171012e+01 4.716884e+01 4.301458e+01 2.386135e+01 3.042031e+01 2.611467e+01 1.878977e+01 1.889757e-02 1.289649e+00 1.175963e+00 1.287369e+00 1.416385e+00 1.943045e+00 2.001531e+00 1.948747e+00 1.280254e+00 1.860152e+00 2.027265e+00 1.897973e+00 1.147594e+00 1.377645e-03 1.522756e-01 2.900145e-01 4.200084e-01 4.109204e-01 8.302003e-01 3.345872e-01 5.603381e-01 4.302686e-01 4.725955e-01 3.968835e-01 4.645274e-01 2.618808e-01 2.257977e-04
<GCONST> 8.816872e+01
<MIXTURE> 2 5.319711e-02
<MEAN> 39
 -6.038557e+00 -8.641938e+00 -9.386404e+00 -7.432565e+00 2.297898e+00 1.903103e+00 -8.032358e-01 -2.183641e+00 3.387911e+00 2.322498e-01 -5.335387e+00 -3.714294e-01 5.424848e-01 7.705669e-01 2.794299e-01 -6.518379e-01 -7.316540e-01 -2.236425e-01 -2.859854e-01 -6.295379e-01 -3.524379e-01 -2.937080e-01 -2.914187e-01 2.181174e-01 1.429626e-02 2.488229e-02 3.214333e-01 -1.274198e-01 -1.770112e-01 -2.833235e-01 -6.207216e-01 -2.387400e-01 -1.942921e-01 -2.590256e-03 -2.090823e-01 -5.555119e-02 1.292085e-01 -2.199002e-01 1.486579e-02
<VARIANCE> 39
 6.865401e+00 1.732260e+01 1.647854e+01 6.163850e+01 3.650908e+01 4.852567e+01 3.019823e+01 4.202025e+01 3.275750e+01 3.183748e+01 3.789089e+01 2.875749e+01 1.553109e-02 5.348408e-01 8.286104e-01 1.124141e+00 1.196697e+00 2.222059e+00 2.657766e+00 2.371202e+00 1.862417e+00 1.939536e+00 1.841675e+00 1.394869e+00 1.162153e+00 5.686887e-04 5.868476e-02 1.891689e-01 2.362090e-01 1.819839e-01 3.650801e-01 4.066647e-01 3.458153e-01 2.507322e-01 3.435152e-01 3.161579e-01 3.089808e-01 2.411253e-01 8.399518e-05
<GCONST> 7.860924e+01
<MIXTURE> 3 6.540993e-02
<MEAN> 39
 -1.174507e+01 -1.210995e+01 -6.725031e+00 -6.625722e+00 -1.501760e+00 -3.484479e+00 -1.493865e+00 -5.843147e+00 -1.058608e+01 -1.081015e+01 -1.044872e+01 -5.125831e+00 5.356444e-01 2.569461e+00 5.030938e-01 -1.071539e+00 -1.077965e+00 -1.215543e+00 -1.640425e+00 -1.976805e+00 -8.786441e-01 -1.223196e+00 -8.663253e-01 -1.483058e+00 -9.799431e-01 6.224381e-02 3.336324e-01 -1.447810e-01 -5.032035e-01 -5.418487e-01 -3.229832e-01 -1.396086e-01 -8.197628e-02 4.718782e-01 5.140640e-01 6.089658e-01 3.395776e-01 3.936946e-01 1.436878e-02
<VARIANCE> 39
 1.147712e+01 1.439532e+01 1.818560e+01 2.520509e+01 5.265790e+01 4.515474e+01 7.719198e+01 4.451121e+01 4.016831e+01 3.217987e+01 3.014625e+01 2.714394e+01 1.070902e-02 1.514188e+00 1.582220e+00 2.546431e+00 2.360443e+00 2.565925e+00 2.724248e+00 2.687292e+00 3.270212e+00 3.251898e+00 2.861449e+00 2.627404e+00 2.459440e+00 1.233185e-03 1.430668e-01 2.472990e-01 2.423998e-01 3.269494e-01 3.580105e-01 4.051597e-01 5.849640e-01 4.184225e-01 4.363652e-01 3.693303e-01 3.380114e-01 3.609498e-01 7.873495e-05
<GCONST> 8.975323e+01
<MIXTURE> 4 6.135187e-02
<MEAN> 39
 -1.003174e+01 -1.068354e+01 -7.779339e+00 -4.835660e+00 -2.404292e+00 -5.305975e+00 -2.124398e+00 5.314885e+00 1.374872e+00 -2.459877e+00 -7.680849e+00 -2.894250e+00 4.481460e-01 3.050892e+00 6.894947e-02 -6.322535e-01 3.732175e-02 5.083233e-02 5.383039e-01 -1.069675e+00 -6.351357e-01 3.386908e-01 5.859461e-01 2.984298e-01 -1.000118e+00 6.157478e-02 1.626062e-01 1.074117e-01 -9.020869e-03 -5.984373e-01 -4.749981e-01 -4.260778e-03 -3.920430e-01 -4.600303e-01 -2.424348e-01 1.531223e-01 7.580950e-01 8.779503e-02 2.459063e-02
<VARIANCE> 39
 1.438181e+01 1.793832e+01 3.064874e+01 2.381998e+01 3.016653e+01 2.950464e+01 4.711900e+01 2.497727e+01 1.980419e+01 2.630024e+01 2.363454e+01 2.289785e+01 2.021762e-02 3.517211e+00 2.194361e+00 2.370035e+00 2.754719e+00 4.764861e+00 3.595913e+00 4.210861e+00 3.803238e+00 3.284691e+00 2.137352e+00 2.420312e+00 2.627595e+00 1.804472e-03 3.365735e-01 2.581170e-01 4.442939e-01 3.581658e-01 5.206395e-01 5.269869e-01 6.456134e-01 4.270254e-01 6.181749e-01 4.607342e-01 3.931579e-01 3.617499e-01 2.254326e-04
<GCONST> 9.488206e+01
<MIXTURE> 5 7.507908e-02
<MEAN> 39
 -1.198512e+01 -3.705730e-02 9.096117e+00 -1.008357e+01 -1.237515e+01 3.742779e-01 1.672400e+00 -4.771457e+00 -8.007277e+00 1.738724e+00 -4.014800e+00 -2.098556e+00 4.723915e-01 5.526951e-01 3.791440e-01 2.717803e-01 -7.669057e-01 -1.123763e+00 -6.011221e-01 -8.835753e-01 -5.889598e-01 -4.083484e-01 -2.500988e-02 -2.681434e-01 -1.090088e-01 3.118142e-02 3.018476e-01 -4.791201e-01 -2.741544e-01 -6.649208e-02 -2.638265e-01 -6.231304e-01 -3.870626e-01 2.753562e-01 -2.567709e-01 -1.540996e-01 1.343960e-01 6.523154e-02 1.184285e-02
<VARIANCE> 39
 5.442782e+00 1.961349e+01 1.554153e+01 3.000478e+01 3.215853e+01 5.083510e+01 3.789637e+01 5.019537e+01 2.658743e+01 2.765782e+01 4.388730e+01 3.036124e+01 1.246674e-02 4.297201e-01 9.844585e-01 9.004703e-01 9.968408e-01 1.639441e+00 2.656471e+00 1.949179e+00 1.945123e+00 1.693744e+00 1.470041e+00 1.712916e+00 1.418817e+00 4.156939e-04 6.790274e-02 2.083594e-01 1.616203e-01 2.194487e-01 3.113647e-01 3.569279e-01 4.609311e-01 3.666568e-01 2.671523e-01 3.910185e-01 3.327675e-01 2.996782e-01 5.298666e-05
<GCONST> 7.672166e+01
<MIXTURE> 6 5.137954e-02
<MEAN> 39
 -1.671944e+01 -2.948583e+00 4.466273e+00 -9.646523e+00 -9.848387e+00 -4.592050e-01 7.216653e-01 -2.810665e+00 -4.722422e+00 5.472426e-01 -2.794932e+00 -1.280841e+00 2.852890e-01 2.215293e+00 1.097803e+00 2.509753e+00 1.135737e+00 -1.752157e+00 -3.282609e-01 -1.424306e+00 -1.966997e-01 -1.315145e+00 -9.314414e-01 6.031413e-01 -7.009362e-01 8.058160e-02 6.051599e-01 -3.824530e-01 3.262373e-01 4.039888e-02 -7.376230e-01 -3.624273e-01 -7.235063e-01 3.381406e-03 -3.567499e-01 -6.062341e-01 4.065480e-01 -6.272808e-02 2.187950e-02
<VARIANCE> 39
 9.821939e+00 9.979986e+00 2.073502e+01 2.548278e+01 2.362367e+01 2.475901e+01 2.230103e+01 3.111661e+01 2.190560e+01 1.910314e+01 1.430728e+01 1.847460e+01 1.454315e-02 1.502774e+00 1.510775e+00 2.321573e+00 2.527061e+00 2.929631e+00 2.479412e+00 3.222847e+00 1.953860e+00 2.498255e+00 2.347093e+00 1.979026e+00 1.693917e+00 2.160412e-03 1.406745e-01 1.907098e-01 3.225851e-01 3.625837e-01 3.432553e-01 4.140213e-01 3.935808e-01 4.738261e-01 4.479726e-01 3.076990e-01 2.971281e-01 2.510413e-01 1.305172e-04
<GCONST> 8.316623e+01
<MIXTURE> 7 7.949434e-02
<MEAN> 39
 -1.081045e+01 -1.081545e+01 -1.113980e+01 -1.256417e+01 1.992261e+00 7.634770e+00 4.595477e-01 -3.638058e+00 -8.624152e-01 -6.932628e-01 -2.658045e+00 -2.907630e+00 4.349968e-01 2.409753e+00 1.248497e+00 -2.606987e-01 -8.655915e-01 -7.716089e-01 7.965462e-02 3.892756e-01 -5.953812e-01 -5.247149e-01 -1.747464e-01 2.317831e-01 -3.333176e-01 6.403311e-02 6.785198e-01 -3.150097e-02 -1.840538e-01 -4.434401e-01 -8.234882e-01 -5.568519e-01 -2.211034e-01 1.213114e-01 -1.254820e-01 -1.349375e-01 8.428120e-02 -2.310179e-02 2.995398e-02
<VARIANCE> 39
 1.262129e+01 2.331764e+01 2.053147e+01 3.884005e+01 2.841993e+01 2.483580e+01 2.426211e+01 2.758567e+01 3.539114e+01 3.130341e+01 2.887666e+01 2.797062e+01 1.315165e-02 1.506111e+00 1.559817e+00 1.774564e+00 2.111209e+00 2.279636e+00 2.991523e+00 2.367591e+00 2.701652e+00 2.052294e+00 2.405316e+00 2.079687e+00 1.531219e+00 1.233627e-03 1.793004e-01 2.885904e-01 4.218713e-01 4.065368e-01 4.134929e-01 4.222455e-01 4.605024e-01 4.120001e-01 4.776877e-01 5.030737e-01 4.171330e-01 4.490738e-01 1.428950e-04
<GCONST> 8.840337e+01
<MIXTURE> 8 3.983183e-02
<MEAN> 39
 -1.756839e+01 -2.247297e+00 2.850211e+00 -1.461832e+01 -7.017905e+00 -5.230770e-01 9.874611e-01 -9.697098e+00 -3.309427e+00 -4.336483e+00 -7.483918e+00 -9.177979e-01 3.698100e-01 1.838902e+00 1.297875e+00 1.577377e+00 -1.402169e+00 -2.245327e+00 -1.627917e+00 -2.492192e+00 -1.965729e+00 -2.470405e+00 -7.946211e-01 -2.341530e+00 -1.023103e+00 7.531796e-02 6.094018e-01 -2.020789e-01 -5.064974e-02 -4.658653e-01 -7.158477e-01 -6.247547e-01 -5.530179e-01 1.655564e-01 -5.988286e-01 3.719947e-01 -5.594074e-02 -5.836771e-02 2.078976e-02
<VARIANCE> 39
 7.730879e+00 2.183748e+01 1.090199e+01 1.815159e+01 1.544059e+01 2.471473e+01 4.769687e+01 2.179638e+01 2.764692e+01 3.268783e+01 2.808198e+01 1.898422e+01 1.514493e-02 1.044866e+00 1.074975e+00 1.601526e+00 1.847947e+00 1.885771e+00 2.350588e+00 2.601532e+00 2.959208e+00 2.581098e+00 2.269242e+00 1.963675e+00 1.779940e+00 1.459153e-03 1.688170e-01 2.188174e-01 2.579702e-01 2.469395e-01 3.742340e-01 3.968667e-01 4.404185e-01 4.595153e-01 4.017416e-01 3.620580e-01 4.176548e-01 3.116823e-01 6.811356e-05
<GCONST> 8.198260e+01
<MIXTURE> 9 7.537998e-02
<MEAN> 39
 -1.254229e+01 -7.203394e+00 -1.836308e+00 -1.451273e+01 -8.274691e+00 -2.283437e+00 -1.462817e+00 -1.175231e+01 -1.252145e+01 -1.157010e+01 -1.194811e+01 -5.690168e+00 5.769571e-01 5.254428e-01 2.380157e-01 -5.009945e-01 -6.893857e-01 -7.537606e-01 -3.975420e-01 -9.741745e-02 -4.173702e-01 1.385576e-01 -8.091318e-02 -1.666669e-01 -4.569130e-02 2.294530e-02 4.079343e-01 -6.406493e-02 -3.472467e-01 -1.350543e-01 -2.909603e-01 -3.891889e-01 -3.725865e-02 4.034041e-01 3.129768e-01 2.665041e-01 1.504529e-01 1.854601e-01 1.052355e-02
<VARIANCE> 39
 9.706887e+00 2.173277e+01 3.836517e+01 3.480204e+01 4.937239e+01 5.218139e+01 4.626823e+01 3.496575e+01 3.345056e+01 2.751346e+01 1.812612e+01 1.826346e+01 9.945005e-03 6.214465e-01 8.448897e-01 1.085304e+00 1.458477e+00 1.572152e+00 2.353858e+00 1.701349e+00 2.037202e+00 1.842593e+00 1.667557e+00 1.604546e+00 1.043810e+00 4.363731e-04 7.963954e-02 1.877042e-01 1.913551e-01 2.573419e-01 3.480237e-01 4.022142e-01 3.634083e-01 3.663957e-01 3.065380e-01 3.613181e-01 3.209257e-01 2.930227e-01 5.243667e-05
<GCONST> 7.813567e+01
<MIXTURE> 10 7.487370e-02
<MEAN> 39
 -8.951131e+00 -6.793206e+00 2.370584e+00 -3.253550e+00 -1.155079e+01 -3.822936e+00 5.101103e+00 4.875844e+00 -3.610398e+00 -3.686484e+00 -1.831058e+00 -3.858153e-01 4.912989e-01 5.546646e-01 1.032782e-01 -2.162546e-02 -4.181611e-01 -9.486411e-01 -7.966849e-01 -5.670314e-01 -4.326857e-01 -1.240659e-01 2.096197e-02 2.516870e-01 -1.336001e-01 2.923812e-02 3.196380e-01 -1.590343e-01 -2.947453e-01 -3.371125e-01 -1.776531e-01 -4.164250e-01 -7.047498e-01 -1.746518e-01 6.623697e-02 3.672303e-02 3.341191e-02 -7.561411e-02 1.285182e-02
<VARIANCE> 39
 4.053248e+00 8.508397e+00 1.695163e+01 2.598069e+01 2.292863e+01 2.296738e+01 2.931498e+01 2.825868e+01 3.227497e+01 3.134962e+01 2.964663e+01 1.680700e+01 1.008153e-02 3.368428e-01 7.841197e-01 1.608032e+00 1.544817e+00 1.228307e+00 1.669239e+00 2.163518e+00 2.115759e+00 1.646167e+00 1.881717e+00 1.513846e+00 9.194984e-01 3.063020e-04 5.686298e-02 1.391248e-01 2.133463e-01 2.219952e-01 3.109168e-01 3.599703e-01 3.397475e-01 3.136966e-01 3.566246e-01 3.556285e-01 2.887354e-01 1.987887e-01 6.290044e-05
<GCONST> 7.109827e+01
<MIXTURE> 11 7.056015e-02
<MEAN> 39
 -9.162281e+00 -7.964294e+00 -2.778045e+00 -3.283130e+00 -7.211346e+00 -7.692707e+00 4.617105e+00 4.791068e+00 -3.053411e+00 -3.858719e+00 -3.344677e+00 1.399100e-01 5.023015e-01 2.409373e+00 -8.544312e-02 -3.092925e-01 -4.695740e-01 -8.687577e-01 -1.294524e+00 -1.143164e+00 2.683166e-01 1.453184e-01 -2.443556e-01 -3.188679e-01 -4.506039e-01 6.814043e-02 1.103075e-01 -3.645367e-01 -3.044306e-01 -6.898663e-01 -2.077185e-01 -7.217722e-02 -9.993935e-01 -1.311652e-01 1.299704e-01 2.221760e-01 4.724795e-02 -2.102412e-01 1.683815e-02
<VARIANCE> 39
 1.248346e+01 1.930161e+01 3.671802e+01 2.247316e+01 3.547215e+01 2.933408e+01 4.142213e+01 2.715642e+01 2.735863e+01 1.585436e+01 2.530657e+01 2.052482e+01 1.234604e-02 2.303160e+00 2.237263e+00 4.790541e+00 2.059749e+00 3.248011e+00 3.641565e+00 4.245590e+00 4.097341e+00 3.842945e+00 1.870190e+00 2.467272e+00 2.365245e+00 1.132563e-03 2.878764e-01 2.836007e-01 4.052154e-01 2.590021e-01 5.068778e-01 5.378523e-01 4.908957e-01 4.186371e-01 3.232138e-01 3.387491e-01 3.134762e-01 3.300844e-01 1.632766e-04
<GCONST> 9.114747e+01
<MIXTURE> 12 8.407786e-02
<MEAN> 39
 -1.516203e+01 -1.744997e+01 -1.171420e+01 -7.129162e+00 6.994212e-01 -2.618413e+00 1.145900e-01 2.411062e-01 -1.120630e+00 -3.589811e+00 -3.648676e+00 -3.265193e-01 4.002834e-01 1.988379e+00 1.330216e+00 -1.233931e-01 1.148348e-01 -4.452613e-02 -4.767441e-01 -9.597207e-01 -1.160018e+00 -7.472247e-01 -6.694022e-01 -9.581093e-01 -9.633233e-01 5.833732e-02 1.009355e+00 4.825175e-01 -1.178583e-01 -4.080842e-01 -4.412137e-01 -2.624087e-01 -4.901077e-01 -1.957194e-01 -2.671261e-01 -1.062469e-01 -2.242440e-01 -3.333041e-01 2.143578e-02
<VARIANCE> 39
 1.443027e+01 1.193977e+01 2.197279e+01 2.526415e+01 4.043265e+01 4.483992e+01 6.219352e+01 4.206033e+01 4.227065e+01 3.534963e+01 3.450803e+01 2.702755e+01 1.929869e-02 1.546558e+00 1.454409e+00 1.521051e+00 1.763331e+00 1.890912e+00 2.343180e+00 4.012070e+00 2.453279e+00 2.884283e+00 2.179961e+00 2.058620e+00 1.606896e+00 1.857608e-03 1.274965e-01 2.943198e-01 3.851281e-01 3.592964e-01 3.616616e-01 3.702143e-01 5.246851e-01 4.807237e-01 5.287266e-01 3.652928e-01 4.086111e-01 3.109248e-01 1.764391e-04
<GCONST> 9.003766e+01
<MIXTURE> 13 7.283974e-02
<MEAN> 39
 -5.972902e+00 -9.118774e+00 -7.252734e-01 -7.826480e+00 -6.769878e+00 -7.431650e+00 2.419891e+00 5.875360e+00 -3.272293e+00 -1.583469e+00 -6.519506e+00 1.491987e+00 6.248545e-01 7.111118e-01 -5.282981e-01 -8.973566e-01 -1.478850e+00 -2.400437e-01 -7.143143e-01 -5.867642e-01 -3.885158e-01 -2.490830e-01 -3.037304e-02 -3.003776e-01 -5.889062e-01 4.308721e-02 1.796382e-01 -4.060614e-01 -2.478492e-01 -2.227964e-01 -1.420484e-01 -6.116927e-02 -6.487769e-01 -2.520823e-02 1.419361e-01 -4.550942e-03 1.399584e-01 -3.827182e-01 1.067990e-02
<VARIANCE> 39
 6.150569e+00 1.111099e+01 2.418239e+01 2.028633e+01 3.209100e+01 3.820247e+01 4.036096e+01 2.696590e+01 4.217609e+01 3.724386e+01 2.089447e+01 2.434949e+01 9.488536e-03 4.710257e-01 8.436158e-01 1.700170e+00 1.303343e+00 2.165507e+00 2.215879e+00 2.058077e+00 1.799358e+00 2.489275e+00 1.666173e+00 1.837631e+00 1.291956e+00 4.232296e-04 5.887694e-02 1.847651e-01 2.157882e-01 2.279265e-01 3.014884e-01 3.201166e-01 3.165277e-01 3.797484e-01 3.962742e-01 3.415501e-01 2.378470e-01 2.074968e-01 6.624254e-05
<GCONST> 7.578394e+01
<MIXTURE> 14 4.442242e-02
<MEAN> 39
 -1.498666e+01 -8.319307e+00 -7.755800e-01 -8.370831e+00 -1.208810e+01 -3.973182e+00 2.777852e+00 2.703654e+00 -7.071932e+00 2.358935e-01 -3.667618e+00 4.996229e-01 1.778748e-01 1.321858e+00 1.120913e+00 1.660582e+00 8.033396e-01 -8.795431e-01 -3.141985e-01 -1.354028e+00 1.714858e-01 -5.754102e-01 8.799858e-03 -1.412388e-01 -2.843544e-01 9.885228e-02 7.624923e-01 3.219333e-01 3.016500e-01 1.900934e-01 -1.662867e-01 -2.380087e-01 -1.036030e+00 -1.798626e-01 1.013681e-01 -3.876511e-01 4.151453e-01 -1.208346e-01 2.660046e-02
<VARIANCE> 39
 7.221529e+00 1.053113e+01 1.972048e+01 2.215371e+01 2.221152e+01 2.986866e+01 1.890291e+01 2.273721e+01 1.981078e+01 2.288731e+01 2.104727e+01 1.738589e+01 1.804386e-02 1.475926e+00 1.059806e+00 1.455268e+00 1.470041e+00 1.791925e+00 1.707865e+00 2.346888e+00 2.114964e+00 2.335232e+00 2.080392e+00 1.388255e+00 1.352826e+00 2.180058e-03 1.204613e-01 3.097045e-01 2.312179e-01 4.278110e-01 2.928020e-01 3.402550e-01 3.167178e-01 2.860109e-01 3.705792e-01 3.426120e-01 3.097810e-01 2.136754e-01 1.985008e-04
<GCONST> 7.905076e+01
<MIXTURE> 15 8.172387e-02
<MEAN> 39
 -9.991496e+00 -1.198220e+01 -5.651994e+00 -2.957680e+00 -1.626694e+00 -2.189445e+00 2.981756e+00 3.592500e+00 -1.920669e+00 -5.424754e+00 -5.406005e+00 -1.626347e+00 5.159911e-01 2.329175e-01 1.237606e-01 -8.346359e-02 -1.642543e-01 -7.954001e-02 -4.063290e-01 -6.109653e-02 -7.087394e-01 -2.904375e-01 -4.469597e-01 -1.266952e-01 -1.878558e-01 1.375233e-02 6.095243e-01 2.472284e-01 -2.980193e-01 -4.691176e-01 -5.300294e-01 -4.864880e-01 -7.200500e-01 -3.604752e-01 -6.425563e-02 2.440015e-02 -9.359415e-02 -9.234175e-02 1.450837e-02
<VARIANCE> 39
 1.312663e+01 1.267798e+01 2.207464e+01 1.891771e+01 3.760580e+01 4.387607e+01 8.077328e+01 5.654459e+01 6.300521e+01 4.536563e+01 3.643482e+01 2.594078e+01 1.013097e-02 4.902019e-01 5.985506e-01 1.213899e+00 1.177232e+00 1.433278e+00 1.390947e+00 1.890718e+00 1.973732e+00 1.544027e+00 1.576427e+00 1.707569e+00 1.161856e+00 2.604534e-04 9.027717e-02 1.514715e-01 3.373542e-01 2.971028e-01 2.976981e-01 3.158936e-01 4.435839e-01 4.729867e-01 4.483720e-01 4.238324e-01 4.314385e-01 2.949812e-01 9.214105e-05
<GCONST> 7.980551e+01
<MIXTURE> 16 3.229672e-02
<MEAN> 39
 -1.729033e+01 -6.398439e+00 -9.690862e-01 -9.853354e+00 -8.720638e+00 -4.730708e-01 3.334321e+00 -3.280234e+00 -5.527762e+00 -1.799690e+00 -3.387797e+00 7.614075e-01 2.905090e-01 2.649506e+00 1.014927e+00 9.119340e-01 -7.223922e-01 -2.918793e+00 -2.294029e+00 -2.210866e+00 -1.692270e+00 -2.557912e+00 -1.204307e+00 -1.798981e+00 -1.274423e+00 9.693920e-02 6.329099e-01 3.004512e-02 -2.427079e-01 -4.677372e-01 -5.236258e-01 -9.120905e-01 -7.488864e-01 5.936626e-02 -1.131494e-01 -1.004189e-03 -1.243211e-01 -2.278674e-01 2.616074e-02
<VARIANCE> 39
 9.294095e+00 2.050481e+01 1.971817e+01 4.630871e+01 2.714709e+01 4.768313e+01 5.756200e+01 2.603410e+01 3.023333e+01 2.596045e+01 1.926405e+01 1.602402e+01 2.283906e-02 1.900638e+00 1.597245e+00 2.896347e+00 2.349375e+00 2.612362e+00 3.092543e+00 3.632995e+00 3.070431e+00 2.518847e+00 2.546785e+00 2.368160e+00 1.776814e+00 2.693843e-03 2.142866e-01 2.814201e-01 3.688266e-01 2.638388e-01 5.671326e-01 5.163695e-01 6.532677e-01 4.074492e-01 4.532380e-01 3.975241e-01 2.488178e-01 3.320635e-01 1.573422e-04
<GCONST> 9.109447e+01
<STATE> 4
<NUMMIXES> 16
<MIXTURE> 1 4.316995e-02
<MEAN> 39
 -4.310084e+00 -1.376354e+01 -1.481819e+01 -1.322125e+01 -6.057940e+00 -5.564500e+00 -6.817195e+00 -5.132361e+00 -1.082576e+01 -8.074655e+00 -1.234457e+01 -3.286274e+00 7.805222e-01 1.549630e+00 -1.409377e+00 -1.962327e+00 -1.439698e+00 -4.197851e-01 1.391431e-01 -2.378078e-01 1.398826e+00 1.062593e+00 1.527550e+00 1.361940e-02 8.156438e-01 7.077780e-02 -7.138422e-01 -2.418448e-01 5.322949e-01 2.217757e-01 5.638601e-01 4.296355e-01 4.980824e-01 4.715745e-01 4.977537e-01 4.304848e-01 4.205143e-01 1.450532e-01 -1.265571e-02
<VARIANCE> 39
 6.848844e+00 2.157751e+01 2.619625e+01 3.759523e+01 6.194336e+01 4.330806e+01 7.207030e+01 5.820550e+01 4.188327e+01 3.507198e+01 3.664680e+01 2.859204e+01 6.293340e-03 5.908468e-01 1.321557e+00 1.757697e+00 2.517657e+00 3.247715e+00 2.625117e+00 2.364241e+00 2.833352e+00 2.258754e+00 2.289647e+00 1.979759e+00 1.555005e+00 3.110293e-04 1.268836e-01 1.756215e-01 2.240361e-01 3.368246e-01 2.873147e-01 3.618312e-01 3.244514e-01 4.057333e-01 4.681917e-01 3.314257e-01 3.721783e-01 3.336762e-01 8.600790e-05
<GCONST> 8.496732e+01
<MIXTURE> 2 5.841774e-02
<MEAN> 39
 -7.966736e+00 -6.575390e+00 -9.664923e+00 -6.497709e+00 -4.531152e-01 -3.834274e-01 -3.332448e+00 3.210016e-01 -1.874699e+00 -6.364394e-01 -3.643950e+00 -2.555939e+00 4.044843e-01 2.986472e+00 1.090291e+00 9.577640e-02 -1.291823e+00 -1.566628e+00 3.112621e-01 -1.085454e+00 -1.071796e+00 -9.819428e-01 -1.247922e-01 8.094627e-01 -5.154573e-01 9.953133e-02 2.379565e-01 -4.581295e-01 -9.035081e-02 -6.388757e-01 -6.760053e-01 -2.983973e-02 -3.956978e-01 -1.216621e-01 -8.247856e-02 -1.700673e-01 3.697698e-01 4.568096e-02 1.848292e-02
<VARIANCE> 39
 2.146397e+01 3.110452e+01 2.784897e+01 5.414846e+01 3.771876e+01 5.388281e+01 4.540564e+01 4.149094e+01 4.524169e+01 4.126952e+01 3.157945e+01 2.650751e+01 3.014733e-02 2.528503e+00 2.436434e+00 3.324112e+00 3.175671e+00 4.129996e+00 3.986656e+00 3.366785e+00 4.193121e+00 4.783458e+00 2.844467e+00 4.045755e+00 2.250251e+00 3.332568e-03 2.245116e-01 3.746473e-01 3.318408e-01 3.708945e-01 4.697619e-01 4.768052e-01 5.373515e-01 4.973440e-01 5.139740e-01 5.859332e-01 5.607077e-01 3.734085e-01 2.116414e-04
<GCONST> 1.015460e+02
<MIXTURE> 3 5.907159e-02
<MEAN> 39
 -1.054352e+01 -9.497342e-01 5.197466e+00 -2.500707e+00 -1.366557e+01 -5.121423e+00 -5.412575e-01 -1.580019e+00 -5.588430e+00 -3.696841e+00 -1.080295e+00 -1.779165e+00 4.906126e-01 2.508424e+00 4.169419e-01 1.464694e+00 5.719235e-01 -2.296641e+00 -1.365083e+00 -2.400317e+00 -8.131596e-01 -4.083733e-01 -1.656708e+00 9.503107e-01 -3.206002e-01 1.148440e-01 -9.559298e-02 -7.419992e-01 -3.467343e-01 -5.349482e-01 -1.256059e-01 -2.003242e-01 -4.302081e-01 -1.067246e-02 1.010567e-01 -1.285809e-01 1.609031e-01 1.364203e-01 -2.380459e-03
<VARIANCE> 39
 1.289566e+01 1.947443e+01 2.135435e+01 1.995844e+01 3.538570e+01 3.532017e+01 3.610869e+01 3.502583e+01 1.970454e+01 2.149715e+01 1.983522e+01 1.931163e+01 1.250843e-02 1.181627e+00 1.801945e+00 3.122303e+00 2.736099e+00 3.063750e+00 3.003401e+00 3.038014e+00 2.571162e+00 2.416148e+00 3.198467e+00 2.334702e+00 1.785267e+00 1.984255e-03 1.959314e-01 1.990517e-01 1.762745e-01 1.977854e-01 3.841937e-01 2.808433e-01 2.870455e-01 2.489395e-01 3.867710e-01 3.307723e-01 2.660292e-01 1.646282e-01 1.885715e-04
<GCONST> 8.434647e+01
<MIXTURE> 4 6.636714e-02
<MEAN> 39
 -4.150647e+00 -1.451357e+01 -2.258532e+00 -1.223708e+01 -1.041404e+01 -9.342596e+00 -1.169288e+00 6.991297e+00 -3.447507e+00 -1.821135e+00 -5.871585e+00 -1.839959e+00 7.721289e-01 6.084067e-01 -2.174940e+00 -7.143375e-02 -9.106890e-01 -1.096377e+00 -1.711727e-01 -1.792378e+00 7.276124e-01 5.570060e-01 -1.906865e-01 3.628715e-01 -8.529715e-01 4.987491e-02 -2.615530e-01 1.917721e-01 1.093320e-01 3.119941e-01 4.722198e-02 3.965046e-01 6.677948e-02 -2.929162e-02 1.992396e-01 2.659961e-02 8.441635e-02 -1.139172e-02 -1.186607e-02
<VARIANCE> 39
 5.691061e+00 1.554859e+01 2.572508e+01 1.739962e+01 2.931527e+01 2.682966e+01 3.205181e+01 2.112562e+01 3.523807e+01 1.916112e+01 2.040639e+01 1.934778e+01 8.039626e-03 3.956744e-01 1.186600e+00 1.516755e+00 1.484839e+00 1.680801e+00 1.476401e+00 1.729120e+00 1.523109e+00 1.733161e+00 1.202670e+00 1.119872e+00 1.228446e+00 3.867101e-04 8.887987e-02 1.914184e-01 1.572568e-01 1.394789e-01 1.874283e-01 1.573383e-01 2.557027e-01 2.094816e-01 1.671628e-01 1.892884e-01 1.904822e-01 1.296461e-01 5.120525e-05
<GCONST> 6.687005e+01
<MIXTURE> 5 6.593709e-02
<MEAN> 39
 -7.572458e+00 -5.325769e+00 6.107697e+00 -1.119431e+01 -1.557922e+01 -4.975143e+00 -9.158865e-01 2.717404e+00 -1.061050e+01 1.967908e+00 -2.741697e+00 -7.833381e-01 6.259730e-01 7.619692e-01 -1.355218e+00 -1.321376e-01 -7.796109e-01 -1.084111e+00 -1.106987e+00 -1.981738e+00 2.483252e-01 -7.695626e-01 -2.521062e-01 3.564697e-01 -2.743549e-01 4.609505e-02 -1.382991e-01 -3.578392e-01 -1.925026e-02 3.229625e-01 1.292430e-01 9.421930e-02 -8.772345e-02 1.323422e-01 2.869313e-01 -3.233454e-01 4.698954e-02 -4.130349e-02 -3.539258e-03
<VARIANCE> 39
 5.593203e+00 2.032937e+01 1.636082e+01 2.811464e+01 2.337174e+01 4.278163e+01 3.771259e+01 3.665890e+01 2.918976e+01 1.627237e+01 2.446316e+01 2.669086e+01 7.667341e-03 5.007303e-01 1.005346e+00 1.246898e+00 1.221407e+00 1.579378e+00 1.342393e+00 2.159814e+00 1.664051e+00 1.249057e+00 1.829831e+00 1.313353e+00 9.926289e-01 3.155936e-04 5.594662e-02 1.620577e-01 1.669859e-01 1.545743e-01 2.455624e-01 2.266224e-01 3.264725e-01 2.419557e-01 1.940082e-01 2.036645e-01 1.828118e-01 1.351528e-01 5.324604e-05
<GCONST> 6.869156e+01
<MIXTURE> 6 8.222349e-02
<MEAN> 39
 -3.082534e+00 -9.705864e+00 -6.413630e+00 -6.143997e+00 -6.465958e+00 -7.564931e+00 -5.368508e+00 6.536332e+00 -1.385684e+00 -1.533754e+00 -5.372431e+00 -2.052775e+00 6.589103e-01 2.780439e+00 -1.019475e+00 -5.517247e-01 -1.208942e+00 -1.149963e+00 -3.768430e-01 -3.082011e+00 1.081261e-02 3.692045e-01 3.136352e-01 4.842234e-01 -9.833019e-01 9.739410e-02 -5.760176e-01 -4.268463e-01 -1.318444e-01 -3.939497e-01 -9.170560e-02 1.493810e-01 -1.902967e-01 -2.717896e-01 2.196799e-01 3.882916e-02 2.668327e-01 -3.452705e-02 -3.350890e-03
<VARIANCE> 39
 8.929176e+00 1.633036e+01 3.758438e+01 2.470488e+01 4.032784e+01 3.753925e+01 3.997989e+01 2.831601e+01 2.909625e+01 2.555700e+01 2.120288e+01 2.758924e+01 9.909844e-03 1.824683e+00 1.901591e+00 4.064454e+00 2.214058e+00 3.867976e+00 3.457919e+00 2.828607e+00 3.239542e+00 2.426078e+00 2.010256e+00 2.705334e+00 2.575028e+00 1.433664e-03 2.863676e-01 2.432023e-01 2.284409e-01 2.292033e-01 3.260169e-01 3.872400e-01 4.206566e-01 3.743953e-01 3.162709e-01 3.153094e-01 2.774210e-01 2.351938e-01 1.569184e-04
<GCONST> 8.811763e+01
<MIXTURE> 7 5.384763e-02
<MEAN> 39
 -9.500422e+00 -1.352981e+00 2.727684e+00 -2.032206e+01 -1.796585e+01 -7.659585e+00 -7.390729e+00 -1.197353e+01 -1.270135e+01 -5.094544e+00 -1.223326e+01 -4.292544e+00 6.526445e-01 1.594802e+00 -7.164881e-01 9.405714e-02 -1.864371e+00 -2.479972e+00 -2.213220e+00 -1.802379e+00 3.603143e-01 -1.264770e+00 1.078092e+00 -4.414907e-01 -2.992402e-01 8.510619e-02 -6.161610e-01 -6.828073e-01 -2.174001e-01 4.774743e-01 7.352242e-01 3.884395e-01 9.033547e-01 8.167527e-01 8.649182e-01 6.104227e-01 7.818307e-01 4.830953e-01 -1.819273e-02
<VARIANCE> 39
 6.004838e+00 2.590272e+01 1.724047e+01 3.063815e+01 2.169571e+01 3.561019e+01 5.803691e+01 4.048532e+01 3.824837e+01 3.149168e+01 2.517322e+01 1.793454e+01 7.873958e-03 8.906368e-01 1.432663e+00 1.400743e+00 1.814523e+00 2.561275e+00 3.751897e+00 3.726996e+00 3.869909e+00 2.288940e+00 2.886289e+00 3.224292e+00 2.807440e+00 1.331184e-03 1.190827e-01 1.695605e-01 2.053751e-01 2.330384e-01 3.264290e-01 3.026160e-01 3.594856e-01 3.543337e-01 4.306659e-01 3.577925e-01 3.300237e-01 2.675063e-01 1.559277e-04
<GCONST> 8.496413e+01
<MIXTURE> 8 7.219540e-02
<MEAN> 39
 -9.282239e-01 -1.213836e+01 -1.312559e+01 -1.490910e+01 -1.536826e+00 2.458235e+00 -4.623045e+00 -7.947438e-01 -3.557128e+00 9.415821e-01 -5.559156e+00 -2.386623e+00 7.615040e-01 1.003434e+00 -1.660324e+00 -5.853032e-01 -1.644553e+00 -1.229389e+00 5.910316e-01 -1.198446e+00 2.669382e-01 -3.931482e-01 6.168287e-03 5.852596e-01 -5.979450e-01 6.255208e-02 -4.635370e-01 -1.473882e-01 3.341520e-01 2.734933e-01 -8.396599e-02 5.108007e-02 1.047780e-01 1.454910e-01 3.490949e-01 -1.942133e-01 1.416669e-01 -1.030621e-01 -1.064284e-02
<VARIANCE> 39
 6.522444e+00 2.001660e+01 2.308100e+01 4.661453e+01 3.357776e+01 5.422038e+01 3.943321e+01 3.799668e+01 3.372517e+01 3.617306e+01 3.821428e+01 2.490004e+01 1.046089e-02 5.288261e-01 1.026675e+00 1.671958e+00 2.148352e+00 1.613138e+00 1.442524e+00 1.915298e+00 1.583510e+00 1.801740e+00 1.640140e+00 1.501479e+00 1.175564e+00 5.249100e-04 1.256211e-01 1.565405e-01 2.253422e-01 2.205358e-01 2.607214e-01 2.308803e-01 1.888927e-01 2.023710e-01 2.561986e-01 1.844171e-01 2.344837e-01 1.961201e-01 1.072173e-04
<GCONST> 7.619740e+01
<MIXTURE> 9 6.375225e-02
<MEAN> 39
 -6.211002e+00 -6.814614e+00 -2.046749e+00 -5.222366e+00 -1.532588e+01 -9.352187e+00 6.620381e-01 7.562492e-01 -1.743856e-01 -7.645015e+00 1.875625e+00 -2.828622e+00 6.686507e-01 8.356225e-01 -1.359876e+00 -9.558650e-01 -7.220020e-01 -1.312948e+00 -1.353890e+00 -1.261459e+00 -4.192548e-01 1.106556e+00 -6.427972e-01 4.797505e-01 -3.390017e-01 5.344761e-02 -1.863712e-01 -3.409442e-01 1.372898e-01 2.740284e-02 2.794540e-01 1.414403e-01 -8.702766e-02 1.839936e-01 5.017308e-02 1.471619e-01 -1.464905e-01 8.327304e-02 -5.191190e-03
<VARIANCE> 39
 5.771000e+00 1.707281e+01 2.513219e+01 1.911832e+01 2.313056e+01 2.779982e+01 4.124142e+01 3.044519e+01 2.975593e+01 2.612978e+01 2.564054e+01 1.816785e+01 9.488793e-03 3.727210e-01 9.291065e-01 1.763631e+00 1.089136e+00 2.085026e+00 1.426049e+00 1.921396e+00 1.848503e+00 1.670476e+00 1.318323e+00 1.900311e+00 1.128411e+00 4.876972e-04 7.972674e-02 1.873167e-01 2.544826e-01 2.009760e-01 2.674733e-01 2.269107e-01 2.024312e-01 2.914889e-01 1.981609e-01 1.977686e-01 2.043355e-01 1.430032e-01 8.515325e-05
<GCONST> 7.110957e+01
<MIXTURE> 10 7.689327e-02
<MEAN> 39
 -9.304454e+00 -4.746859e+00 7.379696e-01 -2.043986e+01 -1.643264e+01 -7.166365e+00 3.429962e-01 -1.202257e+01 -8.479212e+00 -5.335239e+00 -1.107928e+01 -4.132680e+00 6.780221e-01 5.613099e-01 -1.188397e+00 -7.545038e-01 -3.605431e-01 -5.749741e-01 -1.331888e+00 4.563881e-01 1.187052e+00 1.549568e-01 9.743310e-01 5.643563e-01 4.511299e-01 3.187370e-02 -1.183001e-01 -2.333866e-01 -3.484225e-02 3.874753e-01 3.767187e-01 -1.934611e-02 -1.662519e-02 4.395710e-01 -1.952275e-02 4.010969e-02 1.968658e-01 1.485627e-01 -4.793733e-03
<VARIANCE> 39
 5.504397e+00 2.029385e+01 3.631837e+01 3.310572e+01 2.038787e+01 6.128729e+01 3.906227e+01 3.660883e+01 2.734103e+01 3.916471e+01 3.748127e+01 2.269456e+01 7.193340e-03 4.692964e-01 1.114808e+00 1.355257e+00 2.273045e+00 1.931252e+00 2.072815e+00 2.231462e+00 2.447045e+00 2.161773e+00 2.432457e+00 1.786413e+00 1.730729e+00 4.344213e-04 9.479854e-02 1.811240e-01 1.880597e-01 2.187456e-01 2.303978e-01 2.857767e-01 3.428831e-01 3.110525e-01 3.009412e-01 3.486054e-01 3.567849e-01 2.397461e-01 5.189955e-05
<GCONST> 7.848381e+01
<MIXTURE> 11 8.377606e-02
<MEAN> 39
 -3.837430e+00 -7.313181e+00 -1.170669e+01 -1.328878e+01 -5.150732e-01 3.635629e+00 4.327951e-01 -4.409499e+00 -1.221273e+00 -9.954427e-01 -3.148227e+00 -2.939301e+00 6.488847e-01 2.770054e+00 -2.511021e-02 -9.907720e-01 -2.009498e+00 -1.720974e+00 -5.498784e-01 -1.549608e-01 -6.388991e-01 -5.698249e-01 -1.018565e-01 1.620100e-01 -2.639527e-01 1.012334e-01 -3.423392e-01 -7.556521e-01 -5.777788e-02 -3.277795e-01 -3.582792e-01 -2.871716e-02 -2.300440e-01 2.754653e-01 2.999351e-02 -5.404339e-02 1.260492e-01 1.066957e-02 2.758109e-03
<VARIANCE> 39
 8.579762e+00 2.218435e+01 1.680065e+01 5.371967e+01 3.107245e+01 3.793899e+01 2.943791e+01 2.891606e+01 3.509566e+01 3.226987e+01 2.764874e+01 2.456796e+01 9.637984e-03 1.360261e+00 1.767643e+00 2.645970e+00 2.552228e+00 2.976982e+00 2.887925e+00 3.269944e+00 2.922186e+00 2.669448e+00 2.617189e+00 2.159584e+00 2.336915e+00 8.677367e-04 1.564260e-01 1.522619e-01 1.977490e-01 2.761127e-01 3.119839e-01 3.004315e-01 2.696454e-01 3.557328e-01 2.914341e-01 2.641209e-01 2.405328e-01 2.196410e-01 1.341232e-04
<GCONST> 8.439207e+01
<MIXTURE> 12 5.154317e-02
<MEAN> 39
 -5.805865e+00 -1.004312e+01 -1.088069e+01 -1.013977e+01 -5.797769e+00 -7.993773e+00 -5.998960e+00 -5.881971e+00 -1.053254e+01 -9.889387e+00 -1.092323e+01 -5.172409e+00 6.464049e-01 3.103682e+00 -7.114407e-02 -1.756080e+00 -2.121687e+00 -1.385250e+00 -1.725173e+00 -1.736359e+00 -1.386417e-01 -7.545974e-01 -1.013738e-01 -1.079973e+00 -5.070705e-01 1.024076e-01 -5.575482e-01 -5.859953e-01 -1.323905e-01 -1.879356e-01 3.680759e-01 3.663566e-01 5.202751e-01 7.513380e-01 8.081266e-01 8.561750e-01 6.649290e-01 5.289633e-01 -2.035244e-03
<VARIANCE> 39
 1.227741e+01 1.796911e+01 2.861291e+01 3.699290e+01 6.091608e+01 6.323230e+01 7.676159e+01 5.223491e+01 2.907832e+01 4.081738e+01 3.110255e+01 2.654640e+01 1.260195e-02 9.915369e-01 1.835367e+00 2.853788e+00 3.045895e+00 3.431185e+00 4.275682e+00 2.942096e+00 3.691986e+00 2.978857e+00 3.496281e+00 2.165910e+00 2.434803e+00 1.694797e-03 1.598187e-01 2.216167e-01 2.378439e-01 2.919255e-01 3.694619e-01 2.989568e-01 5.330854e-01 3.943160e-01 3.897906e-01 4.055034e-01 2.741408e-01 3.470714e-01 1.579704e-04
<GCONST> 9.274944e+01
<MIXTURE> 13 5.758870e-02
<MEAN> 39
 -3.907573e+00 -1.118091e+01 -1.356963e+01 -8.310139e+00 -3.821744e+00 -9.447060e+00 6.788269e+00 -4.487153e+00 2.956692e+00 -4.623879e+00 -4.951126e+00 -3.882566e+00 7.735184e-01 1.286772e+00 -1.493752e+00 -1.284705e+00 -1.370790e+00 -6.773815e-01 -1.129266e+00 -3.639933e-01 -8.641113e-01 7.299354e-01 -1.831219e-02 -2.704435e-02 -8.567216e-01 7.581978e-02 -5.417581e-01 -4.110445e-01 4.968903e-01 -9.592111e-02 -6.251607e-02 4.443335e-01 -3.850015e-01 4.616470e-01 3.592295e-02 8.964310e-02 1.627440e-01 3.190299e-02 -1.271530e-02
<VARIANCE> 39
 8.680532e+00 1.750612e+01 2.793821e+01 2.738502e+01 4.832252e+01 4.779713e+01 2.592695e+01 4.202108e+01 2.941534e+01 2.683739e+01 2.074342e+01 1.685979e+01 7.236029e-03 1.135566e+00 1.483610e+00 1.964623e+00 1.469666e+00 2.576756e+00 2.227984e+00 1.970045e+00 1.764695e+00 2.201558e+00 1.268607e+00 9.673766e-01 1.143100e+00 7.293599e-04 1.973594e-01 2.772935e-01 2.644527e-01 2.726880e-01 2.458854e-01 2.251900e-01 2.180899e-01 2.572696e-01 2.184364e-01 2.385234e-01 1.773161e-01 1.738570e-01 9.825976e-05
<GCONST> 7.718796e+01
<MIXTURE> 14 5.615281e-02
<MEAN> 39
 -9.482264e+00 -7.215451e-01 1.077549e+01 -1.045272e+01 -1.486137e+01 -3.753649e+00 -4.383199e+00 -2.764349e+00 -1.091693e+01 -1.619478e-02 -2.600998e+00 -1.885432e+00 5.501238e-01 2.032905e+00 -6.895709e-01 2.125043e+00 -6.202284e-01 -2.161842e+00 -9.926918e-01 -2.999936e+00 1.077614e-01 -2.311772e+00 -6.679973e-01 4.834468e-01 -6.677108e-01 9.613645e-02 -3.804943e-01 -7.599167e-01 -4.542381e-01 -1.524652e-02 1.076358e-02 -8.183613e-02 8.843125e-03 2.010472e-01 1.223052e-01 -1.873431e-01 2.057722e-01 -3.339053e-02 -9.764151e-03
<VARIANCE> 39
 6.412882e+00 1.816738e+01 1.963173e+01 2.401364e+01 2.434654e+01 3.704104e+01 2.789842e+01 3.674387e+01 2.422148e+01 2.665135e+01 2.399231e+01 2.064446e+01 1.125305e-02 1.450661e+00 1.782278e+00 2.865482e+00 1.911312e+00 2.850712e+00 2.806236e+00 2.327969e+00 2.923608e+00 2.709060e+00 2.750046e+00 1.727303e+00 1.556035e+00 1.666184e-03 1.623727e-01 1.652678e-01 2.568563e-01 3.580986e-01 3.061047e-01 2.957841e-01 4.460986e-01 3.294382e-01 3.876657e-01 2.157887e-01 2.694622e-01 1.902262e-01 2.041023e-04
<GCONST> 8.349080e+01
<MIXTURE> 15 6.677620e-02
<MEAN> 39
 -7.225874e+00 -1.128608e+01 -1.002706e+01 -1.165666e+01 -8.792827e+00 -5.052745e+00 -3.828026e+00 -6.180194e+00 -1.064933e+01 -1.231226e+01 -1.039002e+01 -4.692912e+00 7.259729e-01 1.020116e+00 -1.077209e+00 -1.515486e+00 -5.484945e-01 -4.957319e-02 -1.837558e-01 2.582733e-01 9.076983e-01 1.028638e+00 6.571009e-01 5.249004e-01 7.181680e-01 4.519655e-02 -1.134919e-01 -2.470734e-01 7.933830e-02 1.644091e-02 2.370684e-01 1.491233e-01 8.716840e-02 2.820658e-01 2.128968e-01 3.577080e-01 8.127286e-02 1.350619e-01 -2.730231e-04
<VARIANCE> 39
 6.811783e+00 1.562807e+01 2.316187e+01 3.479940e+01 7.631561e+01 4.544426e+01 6.613065e+01 3.425770e+01 4.763202e+01 3.273507e+01 3.097576e+01 2.610149e+01 1.145500e-02 6.720654e-01 1.133884e+00 1.336697e+00 1.655756e+00 2.402403e+00 2.207455e+00 2.389251e+00 2.463908e+00 2.130530e+00 1.304055e+00 2.061175e+00 1.740892e+00 2.753281e-04 7.343628e-02 1.370409e-01 1.880662e-01 2.366698e-01 3.233379e-01 3.174501e-01 3.202439e-01 3.143406e-01 3.138786e-01 2.904048e-01 3.354885e-01 2.441355e-01 7.561363e-05
<GCONST> 7.988687e+01
<MIXTURE> 16 4.228452e-02
<MEAN> 39
 -1.331156e+01 1.072334e+00 5.335825e+00 -1.552432e+01 -1.163546e+01 -4.468094e+00 -4.178728e+00 -1.362972e+01 -7.861770e+00 -6.448663e+00 -1.039709e+01 -3.204564e+00 5.334792e-01 2.581054e+00 4.244746e-01 1.083756e+00 -2.092991e+00 -3.161290e+00 -2.539115e+00 -2.826764e+00 -1.583764e+00 -2.818715e+00 -4.620599e-01 -2.023114e+00 -1.063425e+00 1.049504e-01 -1.290070e-01 -7.627692e-01 -4.048755e-01 -2.498900e-01 -2.933131e-02 -1.308600e-01 2.336074e-01 8.106463e-01 2.238069e-01 7.162591e-01 5.525314e-01 2.639500e-01 1.186770e-03
<VARIANCE> 39
 7.303511e+00 1.993648e+01 1.536489e+01 2.950457e+01 1.817191e+01 3.090345e+01 5.065419e+01 2.314312e+01 2.251720e+01 2.627980e+01 2.624693e+01 1.929254e+01 8.125373e-03 1.018485e+00 1.574741e+00 2.655695e+00 2.159818e+00 2.702215e+00 2.880973e+00 2.279032e+00 3.339353e+00 3.039848e+00 2.754288e+00 2.468754e+00 2.045914e+00 1.563944e-03 1.524169e-01 1.721530e-01 2.048466e-01 1.537652e-01 2.933909e-01 3.887349e-01 4.811846e-01 4.081144e-01 3.275027e-01 3.570325e-01 3.871204e-01 3.410494e-01 8.791040e-05
<GCONST> 8.314738e+01
<TRANSP> 5
 0.000000e+00 1.000000e+00 0.000000e+00 0.000000e+00 0.000000e+00
 0.000000e+00 7.100520e-01 2.899480e-01 0.000000e+00 0.000000e+00
 0.000000e+00 0.000000e+00 5.281228e-01 4.718772e-01 0.000000e+00
 0.000000e+00 0.000000e+00 0.000000e+00 5.190251e-01 4.809749e-01
 0.000000e+00 0.000000e+00 0.000000e+00 0.000000e+00 0.000000e+00
<ENDHMM>
