~o
<STREAMINFO> 1 39
<VECSIZE> 39<NULLD><MFCC_E_D_A><DIAGC>
~h "jh"
<BEGINHMM>
<NUMSTATES> 5
<STATE> 2
<NUMMIXES> 16
<MIXTURE> 1 4.572997e-02
<MEAN> 39
 -2.557840e+01 8.947332e-01 3.230575e+00 -1.073552e+01 1.718652e+00 -3.381371e+00 -7.361763e+00 -1.183176e+00 -7.891003e+00 -5.311278e+00 -4.560833e+00 -4.742872e+00 4.610946e-01 -4.631586e+00 -4.824150e-01 -7.523741e-01 -1.300796e+00 1.510515e+00 1.735273e+00 1.796968e+00 2.283698e+00 1.760463e+00 1.961360e+00 1.983707e+00 1.127312e+00 6.892619e-02 1.228642e+00 -4.774798e-01 -3.159381e-01 -1.975178e-01 -1.450949e+00 -7.225085e-01 6.478152e-02 -1.722782e-01 2.029110e-01 1.662159e-01 8.903107e-02 4.943934e-01 2.038825e-02
<VARIANCE> 39
 2.110200e+01 2.395547e+01 3.270752e+01 1.890748e+01 1.335158e+01 2.744363e+01 2.159737e+01 1.690704e+01 1.882099e+01 2.017844e+01 1.639689e+01 1.097509e+01 1.319322e-02 2.609132e+00 2.800174e+00 2.797462e+00 2.971481e+00 2.963661e+00 2.163746e+00 1.847512e+00 2.467132e+00 2.330362e+00 2.292121e+00 2.004102e+00 2.219361e+00 1.617227e-03 5.103593e-01 6.946374e-01 6.323046e-01 5.178435e-01 5.296144e-01 6.721672e-01 4.362903e-01 6.355760e-01 3.232326e-01 4.401397e-01 4.029423e-01 2.804995e-01 2.758816e-04
<GCONST> 9.036604e+01
<MIXTURE> 2 7.145149e-02
<MEAN> 39
 -9.174305e+00 2.357391e+00 5.271499e+00 -1.991514e+00 -7.228909e+00 -6.904504e+00 -6.628057e+00 -2.439289e+00 -8.256309e+00 -5.871698e+00 -4.201501e+00 -5.234669e+00 2.408934e-01 -8.562021e-01 1.225343e+00 -7.731703e-02 8.124776e-01 1.436646e+00 1.279553e+00 2.076305e-01 -1.240779e-02 7.033702e-01 3.023453e-01 -1.814151e-01 1.320053e-01 -6.222768e-02 -5.138029e-01 -5.732579e-01 -3.080833e-02 -3.525115e-01 2.833715e-02 1.728123e-01 -1.161363e-01 -3.480838e-02 1.671462e-01 1.917423e-01 1.743247e-01 2.644270e-01 1.623951e-02
<VARIANCE> 39
 1.250238e+01 2.052961e+01 2.581612e+01 3.472972e+01 1.579811e+01 2.182519e+01 2.156678e+01 2.966505e+01 3.112340e+01 1.643657e+01 3.005333e+01 2.068564e+01 2.885064e-02 2.116263e+00 2.162197e+00 1.637028e+00 2.660397e+00 2.434131e+00 2.300404e+00 2.429930e+00 2.218086e+00 1.890087e+00 2.013529e+00 1.676267e+00 2.078387e+00 2.624753e-03 3.434677e-01 4.189872e-01 3.406878e-01 4.218857e-01 4.050326e-01 3.576322e-01 4.730675e-01 3.657588e-01 3.024051e-01 3.407537e-01 3.024374e-01 3.518112e-01 4.420289e-04
<GCONST> 8.869113e+01
<MIXTURE> 3 4.723328e-02
<MEAN> 39
 -1.753167e+01 -3.599247e+00 -3.868875e+00 -7.025866e-01 2.643200e-02 -3.580408e-01 -2.049484e+00 -3.301740e+00 -5.022480e+00 -1.108065e+00 -2.445169e+00 -2.735342e+00 4.621702e-02 -1.614249e+00 -2.007891e+00 -3.551928e-01 -1.519930e+00 -1.448030e-01 7.427599e-01 7.120234e-01 6.995160e-01 1.066384e+00 8.200256e-01 8.829550e-01 4.426847e-01 2.732159e-02 -7.241905e-02 8.612937e-02 5.921329e-01 -8.846020e-01 -7.874302e-01 -5.197684e-01 -4.738418e-01 1.336256e-01 2.969766e-01 -2.371766e-01 1.433309e-02 1.726803e-01 4.321649e-02
<VARIANCE> 39
 2.890492e+01 5.060426e+01 3.091111e+01 4.286984e+01 3.680355e+01 2.611769e+01 3.402240e+01 3.443237e+01 2.494495e+01 2.009832e+01 2.401266e+01 2.297596e+01 2.484257e-02 5.214461e+00 5.132979e+00 4.055714e+00 4.861203e+00 4.221592e+00 2.747661e+00 4.544289e+00 3.268887e+00 3.304800e+00 2.225259e+00 2.810064e+00 2.169676e+00 5.669019e-03 9.082172e-01 1.151376e+00 8.497910e-01 1.170735e+00 1.006200e+00 7.329114e-01 9.287952e-01 8.340496e-01 5.922658e-01 5.690907e-01 6.987469e-01 5.431713e-01 1.067357e-03
<GCONST> 1.095528e+02
<MIXTURE> 4 7.749292e-02
<MEAN> 39
 -8.347432e+00 -4.032954e+00 4.383282e+00 -8.403398e+00 -1.023024e+01 -1.034679e+01 -1.081274e+01 -1.272753e+00 -4.554380e+00 -6.600749e+00 -4.396831e+00 6.922711e-01 5.303844e-01 -2.755420e+00 2.987355e+00 6.479074e-01 1.846780e+00 2.631310e+00 2.675976e+00 1.237510e+00 -1.379959e+00 -2.089898e-01 -8.611475e-01 -5.018677e-01 -9.167367e-01 -1.244866e-01 -6.723494e-01 -4.950171e-01 -5.086313e-01 -3.033015e-01 3.333257e-01 4.725143e-01 3.728724e-01 3.920456e-01 2.628254e-01 5.762134e-01 2.038290e-01 -2.961738e-01 1.042463e-02
<VARIANCE> 39
 1.224199e+01 2.002590e+01 2.275451e+01 2.230051e+01 2.550827e+01 2.779197e+01 2.341562e+01 2.207615e+01 2.872767e+01 1.879773e+01 1.379637e+01 1.355148e+01 1.646139e-02 4.220022e+00 3.072035e+00 3.774292e+00 4.253903e+00 4.189428e+00 3.916251e+00 4.408516e+00 3.729441e+00 3.250567e+00 3.651561e+00 2.981900e+00 3.111347e+00 1.715656e-03 3.148910e-01 3.755192e-01 4.867609e-01 3.960678e-01 4.388446e-01 6.045226e-01 4.976830e-01 4.993530e-01 3.835496e-01 3.792152e-01 3.422409e-01 3.663505e-01 3.590680e-04
<GCONST> 9.446865e+01
<MIXTURE> 5 3.734472e-02
<MEAN> 39
 -2.464953e+01 -2.573095e+00 9.436840e-01 -7.233281e+00 -2.715145e-01 1.132744e+00 -4.264698e+00 2.057040e+00 -5.326928e-01 -2.890787e-01 9.560312e-01 -5.279136e-01 1.243812e-01 -1.816985e-01 -9.623525e-01 4.709946e-01 -1.100499e+00 -8.059783e-01 3.979127e-01 -3.937582e-01 -1.441320e-01 1.726733e-01 -5.835229e-01 2.720823e-01 9.576242e-02 5.315971e-02 -3.426363e-01 1.340760e-01 -4.540064e-02 -2.317143e-01 -3.105939e-01 -2.290993e-01 2.056302e-01 -1.832907e-01 -1.550563e-01 -1.354310e-01 -1.912578e-01 4.899728e-02 4.029468e-02
<VARIANCE> 39
 3.101732e+01 1.410709e+01 2.561329e+01 1.805917e+01 1.330766e+01 1.435872e+01 1.146654e+01 1.530673e+01 1.319948e+01 1.564044e+01 1.023949e+01 8.224092e+00 3.188334e-02 2.461943e+00 2.509411e+00 1.860909e+00 5.290036e+00 1.657242e+00 2.064768e+00 2.029555e+00 1.490244e+00 1.485281e+00 1.781605e+00 1.452162e+00 9.879936e-01 9.699587e-03 4.482700e-01 3.153923e-01 3.728692e-01 4.169559e-01 1.989692e-01 3.159505e-01 2.579114e-01 2.984547e-01 3.557326e-01 3.072077e-01 2.201958e-01 2.271452e-01 6.716210e-04
<GCONST> 8.211288e+01
<MIXTURE> 6 5.087066e-02
<MEAN> 39
 -8.636752e+00 1.944928e+00 1.185564e+00 2.483892e+00 -2.221927e+00 -6.465985e+00 -1.109914e+01 -6.463356e+00 -6.133317e+00 -6.991425e+00 -8.696881e+00 -4.090323e+00 1.857977e-01 -3.615548e+00 -3.177245e-01 9.178636e-01 -6.864418e-01 9.837152e-01 2.618341e+00 2.240452e+00 -2.395243e-01 -3.595471e-01 1.334539e-01 1.034685e+00 3.068031e-01 -5.639756e-02 -7.285205e-01 -1.535261e+00 -4.123644e-01 -1.921820e+00 -8.897027e-01 1.515948e-02 1.837610e-01 7.149198e-01 1.062383e+00 7.585188e-01 9.155647e-01 4.469250e-01 6.448241e-02
<VARIANCE> 39
 1.279700e+01 1.735384e+01 1.614268e+01 2.328409e+01 1.676568e+01 2.620653e+01 2.737041e+01 3.005635e+01 4.224473e+01 2.692033e+01 1.330077e+01 2.198007e+01 1.107658e-02 2.292787e+00 3.804294e+00 3.503378e+00 4.309689e+00 4.347196e+00 3.995923e+00 3.390108e+00 3.969250e+00 4.396938e+00 4.585612e+00 2.478873e+00 2.584328e+00 2.385208e-03 3.535260e-01 5.995737e-01 5.503900e-01 6.476176e-01 4.515851e-01 6.317819e-01 9.192655e-01 9.286095e-01 6.180624e-01 6.227598e-01 3.840217e-01 6.592107e-01 2.342932e-04
<GCONST> 9.849329e+01
<MIXTURE> 7 9.345044e-02
<MEAN> 39
 -1.827439e+01 -2.010816e+00 7.672297e+00 -6.933691e+00 -7.185701e+00 -2.403704e+00 -7.600815e+00 -4.128755e+00 -2.165827e+00 -6.405261e+00 -3.378095e+00 8.487640e-01 3.921954e-01 -4.428808e+00 -4.073682e-03 1.095996e+00 -4.137332e-01 4.323393e-01 1.223814e+00 8.544118e-01 2.960865e-01 1.101073e+00 4.550142e-01 5.808582e-01 4.965650e-01 2.730312e-02 5.654218e-01 -4.566393e-01 -4.099909e-01 8.208316e-02 -3.887443e-01 -4.782244e-01 -3.913334e-02 3.053950e-01 -8.242634e-02 3.825373e-01 6.907506e-02 -2.433074e-01 2.577936e-02
<VARIANCE> 39
 2.949970e+01 1.785166e+01 1.716830e+01 2.235909e+01 2.361962e+01 2.422941e+01 2.250397e+01 1.844244e+01 1.798013e+01 1.443933e+01 1.396324e+01 1.068242e+01 1.692821e-02 2.545118e+00 2.686906e+00 2.466449e+00 2.231123e+00 2.947030e+00 4.353895e+00 2.464195e+00 2.983296e+00 3.254062e+00 2.816966e+00 2.157171e+00 1.859730e+00 1.849486e-03 6.960367e-01 4.617882e-01 3.927685e-01 4.540439e-01 4.439216e-01 6.375026e-01 6.158554e-01 5.115579e-01 4.172444e-01 4.870956e-01 3.927613e-01 3.287001e-01 3.855739e-04
<GCONST> 9.146623e+01
<MIXTURE> 8 5.906710e-02
<MEAN> 39
 -9.206147e+00 4.915273e+00 1.410511e+00 -5.259212e+00 -9.107381e+00 -8.514272e+00 -1.031225e+01 -9.663207e+00 -1.155524e+01 -9.236113e+00 -1.069897e+01 -7.425742e+00 2.644493e-01 -2.024467e+00 1.002732e+00 -3.488803e-01 1.983179e+00 2.912676e+00 1.777293e+00 -2.766694e-01 -4.379658e-02 1.533473e-01 -8.523459e-01 -7.712320e-02 -1.362359e+00 -7.848857e-02 -8.719332e-01 -1.537425e+00 -3.944320e-01 -1.252186e+00 1.651058e-01 -4.586539e-02 6.769807e-01 9.991334e-01 7.220393e-01 1.091981e+00 7.630025e-01 8.208107e-01 3.765727e-02
<VARIANCE> 39
 1.652446e+01 1.155022e+01 2.137428e+01 4.450574e+01 2.199382e+01 2.405788e+01 2.009138e+01 2.375829e+01 2.175931e+01 2.523166e+01 2.917354e+01 1.789420e+01 1.818748e-02 3.995763e+00 4.669086e+00 3.637357e+00 6.259595e+00 4.694451e+00 3.579169e+00 2.778317e+00 4.005281e+00 2.821867e+00 3.384155e+00 3.170758e+00 3.279410e+00 3.142552e-03 4.365609e-01 5.396729e-01 6.543423e-01 1.104243e+00 5.704349e-01 5.535536e-01 6.353820e-01 5.648115e-01 5.823288e-01 5.541396e-01 6.363976e-01 5.209843e-01 6.174335e-04
<GCONST> 1.013297e+02
<MIXTURE> 9 7.713903e-02
<MEAN> 39
 -1.063252e+01 5.809779e+00 3.637942e+00 2.887356e+00 -2.077937e+00 -3.034366e+00 -6.058537e+00 -4.907361e+00 -5.424507e+00 -4.482761e+00 -4.664136e+00 -3.424909e+00 3.707904e-02 -2.166602e+00 -1.174146e+00 -8.474941e-01 -4.225425e-01 1.641791e+00 2.342427e+00 9.709435e-01 -2.032806e-01 4.774542e-01 3.751894e-01 1.807218e-01 -6.234472e-02 -3.970461e-02 -5.648803e-01 -1.862127e+00 -2.720970e-01 -1.631418e+00 -9.442057e-01 -2.700044e-01 -1.005441e-01 4.641528e-01 4.012296e-01 1.957169e-01 3.951632e-01 3.702503e-01 5.947416e-02
<VARIANCE> 39
 7.508483e+00 4.350710e+00 1.046649e+01 1.053907e+01 1.587797e+01 1.369693e+01 1.237597e+01 1.411442e+01 1.348269e+01 1.065049e+01 1.098812e+01 8.879377e+00 1.257067e-02 2.477756e+00 5.868314e+00 2.557853e+00 5.099193e+00 4.465952e+00 2.775776e+00 2.331254e+00 2.337100e+00 1.970067e+00 1.942739e+00 1.988551e+00 1.425310e+00 4.454026e-03 3.718308e-01 5.033062e-01 3.739283e-01 5.882698e-01 7.046127e-01 4.557218e-01 4.932453e-01 5.092630e-01 3.770104e-01 4.179290e-01 3.066581e-01 2.933730e-01 4.759204e-04
<GCONST> 8.439683e+01
<MIXTURE> 10 5.543679e-02
<MEAN> 39
 -1.457458e+01 -2.863023e+00 6.224563e+00 -4.958199e+00 -6.979451e+00 -3.543219e+00 -9.559674e+00 -7.450673e+00 -7.612937e+00 -8.428188e+00 -6.707268e+00 -5.062816e+00 2.931924e-01 -5.330441e+00 1.415236e-01 7.076036e-01 -1.738000e+00 2.184596e+00 3.113430e+00 7.526806e-01 4.303860e-01 1.346671e+00 1.145568e+00 9.167345e-01 -1.144944e-01 -2.444994e-04 -1.327280e-01 -5.692660e-01 -7.569155e-01 -6.560404e-01 -4.067695e-01 -7.633497e-01 9.843437e-02 1.051444e+00 4.210743e-01 5.901870e-01 5.774601e-01 6.650441e-01 5.046970e-02
<VARIANCE> 39
 2.374034e+01 2.482444e+01 2.647778e+01 4.659726e+01 3.539895e+01 3.172682e+01 3.508629e+01 2.019404e+01 2.351768e+01 2.152704e+01 1.735621e+01 1.854721e+01 1.529875e-02 2.279765e+00 5.330283e+00 6.102906e+00 4.005777e+00 4.754970e+00 4.006753e+00 3.273170e+00 4.600485e+00 2.766587e+00 2.641344e+00 3.117426e+00 2.297256e+00 2.104324e-03 7.506432e-01 5.549083e-01 8.159504e-01 5.965183e-01 6.861010e-01 7.101592e-01 1.116769e+00 6.171054e-01 4.730646e-01 7.606804e-01 4.274905e-01 4.522198e-01 3.651261e-04
<GCONST> 1.024615e+02
<MIXTURE> 11 6.413157e-02
<MEAN> 39
 -7.709151e+00 -1.091179e+00 6.881780e+00 1.442986e+00 -9.291319e+00 -4.626764e+00 -6.850723e+00 -2.876558e+00 -3.375338e+00 -7.759004e+00 -7.435195e+00 -2.018804e+00 2.342190e-01 -2.599865e+00 1.544138e+00 -3.994588e-01 4.239082e-01 2.392255e+00 2.954121e+00 1.707105e+00 -1.399041e+00 3.450265e-01 5.832459e-01 -2.123074e-01 -4.346777e-01 -8.721443e-02 -8.629248e-01 -1.266842e+00 -4.065051e-01 -1.458798e+00 -1.881340e-01 -1.161636e-01 -4.803593e-01 4.588553e-01 1.545495e-01 5.187206e-01 8.029815e-01 2.338194e-01 5.172227e-02
<VARIANCE> 39
 5.477633e+00 2.717839e+01 1.566852e+01 2.320318e+01 2.150745e+01 3.031259e+01 2.412513e+01 2.382320e+01 2.250813e+01 1.703522e+01 1.863804e+01 1.481115e+01 1.278684e-02 2.792772e+00 3.692540e+00 3.161073e+00 3.907269e+00 3.471036e+00 3.288483e+00 3.273271e+00 2.424787e+00 2.627225e+00 2.856515e+00 2.489105e+00 1.750191e+00 2.143277e-03 2.643642e-01 8.187827e-01 4.636314e-01 5.955831e-01 5.230163e-01 6.439121e-01 5.274405e-01 5.942215e-01 4.361959e-01 5.183884e-01 4.266004e-01 3.512006e-01 2.328376e-04
<GCONST> 9.249983e+01
<MIXTURE> 12 9.141264e-02
<MEAN> 39
 -1.539181e+01 -8.333568e+00 2.644950e+00 -5.494068e+00 -2.685929e+00 2.474458e+00 -4.853711e+00 -3.189915e+00 -2.915842e+00 -5.006028e+00 -4.009638e+00 -2.613189e+00 2.571621e-01 -4.254025e+00 -3.045689e+00 -1.015917e+00 -3.526312e+00 -3.660671e-01 1.612188e+00 1.066558e+00 8.429675e-01 1.609435e+00 9.920983e-01 1.766214e+00 1.017002e+00 8.221973e-02 -1.708483e-01 4.600747e-01 2.396404e-01 -1.315319e-01 -8.874638e-01 -1.042373e+00 -2.064216e-01 1.783175e-01 4.948332e-02 1.288275e-01 1.386656e-01 1.911758e-01 3.866575e-02
<VARIANCE> 39
 1.494685e+01 2.428552e+01 2.285663e+01 3.530645e+01 2.456399e+01 2.445806e+01 1.910968e+01 1.715829e+01 1.473212e+01 1.404936e+01 1.098856e+01 7.497544e+00 1.991893e-02 2.408461e+00 3.619464e+00 3.788568e+00 3.042161e+00 3.794907e+00 2.826962e+00 3.086027e+00 3.358564e+00 3.168245e+00 2.411855e+00 2.426460e+00 1.835954e+00 1.609181e-03 3.903480e-01 5.212390e-01 5.598797e-01 6.169036e-01 5.526821e-01 5.689854e-01 5.292951e-01 4.463102e-01 4.683359e-01 3.885573e-01 3.317327e-01 2.327128e-01 2.989779e-04
<GCONST> 9.106487e+01
<MIXTURE> 13 5.397123e-02
<MEAN> 39
 -1.923672e+01 1.311243e+00 4.246893e+00 -8.459350e+00 1.617018e+00 -5.410653e+00 -7.892180e+00 -1.583479e+00 -6.880303e+00 -4.742603e+00 -4.300838e+00 -3.155894e+00 2.629397e-01 -4.509053e+00 -1.944601e-01 -5.982869e-01 -1.288861e+00 2.401441e+00 2.201239e+00 1.035048e+00 8.393168e-01 6.078280e-01 1.079331e+00 8.702877e-01 1.524417e-01 8.747139e-03 4.180980e-01 -9.345104e-01 -3.199897e-01 -5.117166e-01 -1.443045e+00 -3.622051e-01 4.363617e-02 2.313801e-01 3.171524e-01 3.130566e-01 2.902482e-01 3.359781e-01 5.224561e-02
<VARIANCE> 39
 1.677839e+01 4.091047e+01 2.257461e+01 1.677213e+01 1.831995e+01 3.376891e+01 2.156695e+01 1.429701e+01 1.880848e+01 1.419451e+01 1.647649e+01 9.724783e+00 1.774701e-02 2.974490e+00 4.768116e+00 3.119688e+00 4.008739e+00 4.583518e+00 3.790037e+00 2.539712e+00 3.598513e+00 2.318171e+00 2.257218e+00 1.914154e+00 1.872092e+00 4.051687e-03 4.483789e-01 9.759576e-01 5.825846e-01 5.938197e-01 5.688814e-01 5.744288e-01 6.340876e-01 3.416080e-01 5.469109e-01 4.875162e-01 4.385878e-01 3.525727e-01 2.698397e-04
<GCONST> 9.466216e+01
<MIXTURE> 14 5.613142e-02
<MEAN> 39
 -5.245705e+00 -3.430520e+00 7.077518e-01 1.206755e-01 -8.301259e+00 -9.978317e+00 -8.888603e+00 -2.373046e+00 -4.675513e+00 -7.060781e+00 -7.573058e+00 -2.476852e+00 3.926856e-01 -2.596784e+00 3.328494e+00 1.368070e+00 2.113060e+00 2.377340e+00 2.564834e+00 1.341155e+00 -1.506264e+00 -1.269813e+00 -8.073647e-01 -5.629746e-01 -7.861598e-01 -1.408947e-01 -9.041812e-01 -9.727367e-01 -5.012030e-01 -1.522773e+00 1.729833e-01 6.379625e-01 6.028483e-02 3.998325e-01 5.880910e-01 6.161565e-01 6.433972e-01 1.243435e-02 3.012338e-02
<VARIANCE> 39
 6.605294e+00 2.677662e+01 1.949726e+01 4.003240e+01 4.427496e+01 3.063833e+01 3.855932e+01 3.409184e+01 3.549881e+01 2.259207e+01 2.808654e+01 2.190613e+01 1.737859e-02 2.428458e+00 3.585308e+00 2.742124e+00 5.373863e+00 3.521013e+00 4.550903e+00 5.450838e+00 4.858104e+00 5.211978e+00 4.190844e+00 2.059255e+00 3.767322e+00 1.237951e-03 3.227666e-01 6.679341e-01 4.763855e-01 5.572265e-01 8.416386e-01 6.643540e-01 1.314477e+00 8.660177e-01 5.815708e-01 4.460949e-01 5.880662e-01 4.932120e-01 2.633634e-04
<GCONST> 1.021649e+02
<MIXTURE> 15 6.198525e-02
<MEAN> 39
 -1.921144e+01 -1.779497e+00 -4.551050e+00 -5.662937e-01 -9.401051e-01 4.955660e-01 -1.125486e+00 5.032880e-02 -2.742288e-01 -3.918459e-02 -6.347393e-01 -4.813210e-01 -1.428428e-01 -5.830688e-03 -1.759850e+00 -7.952393e-02 -1.500846e+00 -6.023827e-01 -7.225137e-02 -4.817242e-01 -1.301963e-01 1.747733e-01 -9.697596e-02 2.193672e-01 1.687364e-01 4.676424e-02 -3.672511e-01 -1.395516e-01 3.636494e-01 -8.263612e-01 -3.116753e-01 -2.785026e-01 -3.719286e-01 -1.904449e-01 -2.421064e-01 -2.148694e-01 -3.227684e-02 -4.604469e-02 5.254323e-02
<VARIANCE> 39
 1.697946e+00 3.717479e+00 4.134375e+00 6.154083e+00 6.239447e+00 6.617347e+00 8.401010e+00 9.297910e+00 8.441808e+00 8.492174e+00 7.631033e+00 6.447991e+00 5.229301e-04 2.189761e+00 4.531847e+00 2.254986e+00 5.293529e+00 2.551685e+00 1.665605e+00 2.137148e+00 2.333622e+00 1.782623e+00 2.139836e+00 1.957237e+00 1.165243e+00 7.018594e-03 5.051411e-01 4.402287e-01 3.718233e-01 5.519149e-01 3.227792e-01 3.454917e-01 3.210825e-01 3.533989e-01 2.851363e-01 2.797844e-01 2.912803e-01 2.174950e-01 1.048904e-03
<GCONST> 7.087516e+01
<MIXTURE> 16 5.713987e-02
<MEAN> 39
 -1.148566e+01 3.879523e+00 2.940128e+00 1.656756e+00 -2.665563e+00 -2.661294e+00 -6.913662e+00 -6.706003e+00 -8.163938e+00 -6.953889e+00 -7.154761e+00 -4.948422e+00 7.981528e-02 -3.330289e+00 -3.710441e+00 -1.344946e+00 -3.409089e+00 8.452618e-01 1.944465e+00 8.129025e-01 1.257092e+00 1.969681e+00 1.331610e+00 1.887200e+00 9.895342e-01 4.597962e-02 -8.523574e-01 -9.466915e-01 -1.148381e-01 -1.473571e+00 -8.301576e-01 -4.448055e-01 7.945943e-02 5.667434e-01 5.251333e-01 4.439186e-01 5.731162e-01 5.959406e-01 6.179048e-02
<VARIANCE> 39
 1.117464e+01 1.250138e+01 1.859166e+01 1.276452e+01 1.934578e+01 2.099327e+01 1.705706e+01 1.991295e+01 2.312883e+01 1.614279e+01 1.659406e+01 1.589153e+01 1.732290e-02 1.654957e+00 2.574136e+00 2.001081e+00 3.370095e+00 4.604391e+00 3.235271e+00 2.875495e+00 4.377677e+00 2.546531e+00 2.489384e+00 1.845586e+00 2.067255e+00 1.825776e-03 2.429544e-01 4.820106e-01 4.176895e-01 5.582978e-01 5.947786e-01 4.953967e-01 4.195923e-01 4.673353e-01 4.629695e-01 4.630513e-01 3.836927e-01 4.481139e-01 4.072826e-04
<GCONST> 8.927581e+01
<STATE> 3
<NUMMIXES> 16
<MIXTURE> 1 7.925226e-02
<MEAN> 39
 -2.797576e+01 -4.719045e+00 7.573359e+00 -6.922009e+00 -4.868078e+00 3.616955e+00 -3.852301e+00 -1.356114e+00 6.425166e-01 -3.561139e+00 -1.921255e+00 6.434229e-03 4.852758e-01 -2.961483e+00 -7.642063e-01 -2.857059e-01 -1.179496e+00 -8.787853e-01 4.055226e-01 1.155076e+00 6.125922e-01 1.069134e+00 9.219558e-01 6.067262e-01 5.364003e-01 8.057258e-02 1.792824e+00 7.437732e-02 -4.231452e-01 2.670896e-01 -6.367268e-01 -1.313760e+00 -3.839600e-01 -1.198133e-01 -5.305209e-01 -1.440359e-01 -1.562357e-01 -1.038162e-01 -6.284795e-04
<VARIANCE> 39
 1.599198e+01 1.736730e+01 1.172144e+01 2.142264e+01 1.497054e+01 1.658238e+01 1.749106e+01 1.493263e+01 1.488941e+01 1.434500e+01 1.071547e+01 9.501978e+00 1.910797e-02 2.895953e+00 2.704078e+00 2.708670e+00 3.511689e+00 2.452909e+00 2.470260e+00 1.886949e+00 2.281705e+00 1.860846e+00 1.942777e+00 1.695343e+00 1.316188e+00 1.385764e-03 5.078596e-01 4.084700e-01 4.230239e-01 4.635574e-01 4.228036e-01 4.766957e-01 4.237297e-01 4.060258e-01 4.981587e-01 3.905962e-01 2.918363e-01 2.776603e-01 4.078947e-04
<GCONST> 8.449930e+01
<MIXTURE> 2 5.899983e-02
<MEAN> 39
 -2.993950e+01 -6.278671e+00 2.667992e+00 -1.192804e+01 -8.377522e+00 1.812748e+00 -2.729483e+00 -2.420233e+00 1.476161e+00 -1.376211e+00 1.059805e+00 8.587024e-02 6.005326e-01 -1.835685e+00 1.251628e+00 1.876573e+00 8.825979e-01 -4.686318e-01 -1.853231e-01 1.084415e+00 2.314496e-01 -8.671506e-02 8.078840e-02 -2.811480e-02 4.697455e-04 4.385331e-02 1.555245e+00 2.118917e-01 1.427299e-01 9.976655e-01 2.195833e-01 -5.578718e-01 -2.217753e-01 2.126220e-02 -4.964401e-01 -3.898935e-01 -4.737597e-01 -1.751898e-01 -3.143094e-02
<VARIANCE> 39
 1.111158e+01 1.242729e+01 2.494110e+01 2.175131e+01 1.177712e+01 1.784533e+01 1.546052e+01 1.643283e+01 1.390581e+01 1.134992e+01 9.471282e+00 7.223424e+00 1.491377e-02 2.607872e+00 1.390931e+00 1.486961e+00 2.217631e+00 2.128734e+00 2.173555e+00 1.757004e+00 2.126868e+00 1.339919e+00 1.490830e+00 1.338342e+00 9.225623e-01 1.477825e-03 5.983223e-01 3.027565e-01 4.862999e-01 3.674893e-01 2.397015e-01 4.323450e-01 3.365535e-01 2.741697e-01 3.105034e-01 2.257523e-01 2.394991e-01 2.141506e-01 2.054335e-04
<GCONST> 7.638692e+01
<MIXTURE> 3 6.158181e-02
<MEAN> 39
 -2.188297e+01 -8.481848e+00 -4.002162e+00 -1.406448e+01 -1.436674e+00 -2.166990e+00 -5.301165e+00 3.840857e-01 -1.763524e+00 -1.295307e+00 2.587769e-01 -1.221603e+00 4.331574e-01 -4.375323e+00 -7.661854e-01 -5.975685e-01 -2.931974e+00 -1.471844e-01 8.014618e-01 1.165253e+00 1.618362e+00 1.719107e+00 1.515381e+00 1.954333e+00 1.241168e+00 1.127269e-01 8.190315e-01 1.255291e+00 9.329151e-01 8.804689e-01 -9.669001e-01 -6.712425e-01 -2.105425e-01 -6.365498e-01 -6.258684e-01 -4.618567e-01 -6.699738e-01 -1.537203e-01 6.501840e-03
<VARIANCE> 39
 1.038036e+01 1.468318e+01 1.849983e+01 1.618969e+01 1.722171e+01 2.520355e+01 1.446939e+01 1.448580e+01 1.890544e+01 1.468657e+01 1.195721e+01 9.244511e+00 1.633772e-02 2.192807e+00 2.719681e+00 3.443062e+00 2.697937e+00 2.952983e+00 2.171434e+00 2.046176e+00 2.596221e+00 2.127513e+00 2.258848e+00 1.764347e+00 1.830754e+00 1.772408e-03 4.636686e-01 4.638927e-01 5.005198e-01 5.554929e-01 5.668460e-01 8.072641e-01 5.740555e-01 6.061575e-01 5.915203e-01 5.030192e-01 3.757913e-01 3.570530e-01 3.966017e-04
<GCONST> 8.828399e+01
<MIXTURE> 4 8.505225e-02
<MEAN> 39
 -2.541742e+01 -6.113439e+00 6.307465e+00 -7.094530e+00 -9.813088e+00 -2.515095e+00 -2.265031e+00 -4.475087e+00 -1.107129e+00 -3.026837e+00 -1.825531e+00 -4.014789e-01 5.178866e-01 -2.901859e-01 6.096711e-01 1.052209e+00 6.710505e-01 -1.332899e+00 -2.064495e+00 -1.729163e-02 4.922387e-01 -8.741342e-02 6.849097e-02 3.745796e-01 2.781256e-01 4.810807e-02 2.239030e+00 1.157982e-02 -4.562619e-01 5.507529e-01 1.458777e-01 -7.292443e-01 -8.923118e-01 2.293276e-01 -2.675453e-01 -3.019941e-01 -2.203407e-01 -1.469246e-01 -1.185152e-02
<VARIANCE> 39
 2.834279e+01 2.853593e+01 2.951580e+01 2.701066e+01 2.119429e+01 2.614576e+01 3.666228e+01 2.126563e+01 2.075929e+01 1.924205e+01 1.649343e+01 1.428543e+01 1.580146e-02 3.895811e+00 2.399744e+00 2.687297e+00 3.373850e+00 2.079444e+00 2.224125e+00 2.367641e+00 1.676376e+00 2.221761e+00 1.433572e+00 1.579223e+00 1.399921e+00 8.939447e-04 5.092196e-01 6.794788e-01 6.840093e-01 6.583644e-01 6.566350e-01 6.590948e-01 7.335449e-01 6.051092e-01 5.162474e-01 4.523738e-01 4.165473e-01 4.057361e-01 4.487638e-04
<GCONST> 9.316656e+01
<MIXTURE> 5 4.853902e-02
<MEAN> 39
 -3.080956e+01 -5.881335e+00 7.342169e+00 -8.562047e+00 -7.574495e+00 1.855067e+00 -2.804176e+00 -2.508624e+00 1.816509e+00 -3.517891e+00 -2.823539e+00 4.286672e-01 6.210181e-01 -2.497555e-01 -2.800167e-02 2.682312e-01 2.749108e-01 -1.504648e-02 1.105359e-01 6.995588e-02 1.657335e-01 4.503523e-01 4.978044e-02 -1.824542e-01 -3.987021e-02 1.904054e-03 6.440882e-01 3.857421e-04 -3.367568e-01 5.427215e-02 1.420140e-01 -8.014143e-03 -9.109684e-02 1.289414e-01 -1.243405e-01 1.222596e-01 1.465414e-01 -7.651697e-02 -2.013830e-02
<VARIANCE> 39
 9.084228e+00 1.376386e+01 1.848575e+01 1.860588e+01 1.227981e+01 1.660782e+01 1.907804e+01 1.907889e+01 1.781788e+01 1.279754e+01 1.180329e+01 1.205603e+01 2.023886e-02 1.014298e+00 7.314959e-01 1.009790e+00 1.384174e+00 1.160042e+00 1.371094e+00 1.639038e+00 1.506412e+00 1.780341e+00 1.128125e+00 1.073774e+00 8.056807e-01 1.767064e-03 2.160920e-01 1.741754e-01 2.660525e-01 2.694440e-01 2.506199e-01 2.780818e-01 2.431620e-01 3.593624e-01 3.945289e-01 2.576290e-01 1.841625e-01 2.319581e-01 3.012309e-04
<GCONST> 7.110345e+01
<MIXTURE> 6 5.879360e-02
<MEAN> 39
 -2.353970e+01 -9.937724e+00 -1.698125e+00 -1.310223e+01 -8.920312e+00 2.253558e+00 -4.655357e+00 -3.697020e+00 1.357800e+00 -2.185044e+00 -1.579697e-01 8.673887e-01 5.161747e-01 -3.130838e+00 8.419672e-01 9.025290e-01 -6.948685e-01 -1.201614e+00 -8.958437e-01 8.118154e-01 4.027191e-01 3.475261e-01 3.886409e-01 6.740119e-01 2.834151e-01 8.418032e-02 1.178416e+00 1.148520e+00 7.721775e-01 1.595425e+00 2.535970e-01 -9.597849e-01 -9.554851e-02 1.342756e-01 -6.532174e-01 -3.233152e-01 -4.794325e-01 -3.317038e-01 -2.358690e-02
<VARIANCE> 39
 1.157679e+01 1.258820e+01 1.344169e+01 1.466838e+01 2.113133e+01 1.297935e+01 1.997278e+01 1.923739e+01 1.099478e+01 1.170549e+01 1.152024e+01 8.619096e+00 1.396802e-02 2.766398e+00 2.952464e+00 2.636463e+00 3.070163e+00 2.273069e+00 2.555894e+00 1.755092e+00 2.294676e+00 1.869887e+00 1.733971e+00 1.538463e+00 1.376969e+00 1.901365e-03 5.756889e-01 3.702822e-01 3.890716e-01 4.349739e-01 5.017857e-01 5.143909e-01 6.335403e-01 5.401917e-01 4.003007e-01 3.393424e-01 3.687521e-01 2.977719e-01 2.874191e-04
<GCONST> 8.359008e+01
<MIXTURE> 7 6.639963e-02
<MEAN> 39
 -3.121675e+01 -1.586040e+00 3.680273e+00 -1.315219e+01 -2.887332e+00 1.051134e+00 -3.644749e+00 1.046096e+00 -9.742500e-01 -2.250983e+00 6.544061e-01 -2.206260e-01 6.190169e-01 4.930562e-01 7.903830e-01 1.687353e+00 5.362886e-01 -1.821194e+00 -1.206799e+00 -5.825836e-02 -9.161896e-01 -5.643407e-01 -5.538028e-01 -6.170790e-01 2.435433e-02 2.736101e-02 2.486039e+00 -4.266129e-01 -6.401150e-02 4.381083e-01 -7.889932e-01 -1.197432e+00 -7.257432e-01 -5.743417e-01 -6.931714e-01 -3.584924e-01 -5.287623e-01 -2.381716e-01 -2.341075e-02
<VARIANCE> 39
 1.270954e+01 1.386945e+01 2.114612e+01 1.506460e+01 1.639211e+01 1.803178e+01 1.401920e+01 1.429463e+01 1.674122e+01 1.555720e+01 1.195953e+01 9.359241e+00 9.379916e-03 2.476379e+00 2.231434e+00 2.222518e+00 1.582069e+00 1.725159e+00 2.266161e+00 1.768637e+00 1.799907e+00 1.661518e+00 1.025672e+00 1.122682e+00 1.127181e+00 9.331435e-04 4.470094e-01 4.135786e-01 4.381315e-01 4.565421e-01 3.981541e-01 4.668414e-01 3.652028e-01 3.793816e-01 4.706963e-01 4.256745e-01 3.652492e-01 2.919029e-01 2.104991e-04
<GCONST> 7.922440e+01
<MIXTURE> 8 5.989672e-02
<MEAN> 39
 -2.985102e+01 1.263522e+00 6.576129e-01 -1.226964e+01 2.320045e+00 -1.873115e+00 -3.659906e+00 2.578428e+00 -3.978697e+00 -8.103919e-01 -1.391487e-01 -1.200107e+00 5.668035e-01 -2.424394e+00 6.908180e-01 2.088466e-01 -8.163391e-01 -4.190561e-01 6.164309e-01 8.156103e-01 7.543385e-01 7.330575e-01 6.342514e-01 8.193970e-01 5.552697e-01 7.739937e-02 1.574717e+00 -1.970839e-01 1.810928e-01 4.709590e-01 -1.061161e+00 -5.489138e-01 -3.995568e-01 -7.289671e-01 -2.033145e-01 -4.347599e-01 -4.900886e-01 -1.601156e-01 -1.859016e-02
<VARIANCE> 39
 1.431763e+01 1.426251e+01 2.689504e+01 1.135681e+01 1.624706e+01 2.246165e+01 1.793072e+01 1.349508e+01 1.274178e+01 1.478064e+01 9.566997e+00 8.816905e+00 1.458423e-02 2.399434e+00 3.407029e+00 3.597258e+00 2.208296e+00 2.093491e+00 2.361052e+00 1.850940e+00 1.650468e+00 1.922541e+00 1.903034e+00 1.717372e+00 1.494273e+00 1.749844e-03 3.701495e-01 3.560015e-01 4.787577e-01 4.720288e-01 4.793690e-01 3.848244e-01 4.254917e-01 3.790915e-01 3.913563e-01 3.269225e-01 2.771471e-01 2.835172e-01 4.219784e-04
<GCONST> 8.293240e+01
<MIXTURE> 9 5.615803e-02
<MEAN> 39
 -3.101571e+01 -7.319861e+00 7.294933e+00 -6.451543e+00 -8.780791e+00 1.874252e+00 -3.007926e-01 -6.121013e-01 2.024481e+00 -1.553120e+00 -1.598159e+00 2.726226e-01 6.153671e-01 7.980217e-01 -4.805547e-01 -4.723296e-01 3.224563e-02 -1.235976e+00 -1.316297e+00 3.154536e-01 2.251434e-01 -3.334282e-01 2.360469e-02 -6.201433e-02 -1.569994e-01 1.297920e-02 1.721725e+00 1.158262e-01 -3.824802e-01 3.948512e-02 -4.686359e-02 -6.986588e-01 -6.902882e-01 -2.754549e-01 -5.494744e-01 -3.138833e-01 -7.427450e-02 -8.428861e-02 -2.345073e-02
<VARIANCE> 39
 9.721821e+00 1.538150e+01 1.328684e+01 2.236431e+01 1.416788e+01 1.425127e+01 2.034356e+01 1.512368e+01 1.049201e+01 1.355851e+01 1.079617e+01 1.149051e+01 1.199590e-02 1.813628e+00 1.097715e+00 1.268922e+00 1.863606e+00 1.731351e+00 1.504620e+00 1.781836e+00 1.609928e+00 1.472538e+00 1.340434e+00 1.387236e+00 1.222861e+00 1.067497e-03 5.759152e-01 2.696969e-01 2.801171e-01 3.096358e-01 2.741040e-01 3.101678e-01 4.066443e-01 2.933809e-01 2.963974e-01 2.543340e-01 2.617027e-01 2.657737e-01 1.425111e-04
<GCONST> 7.369252e+01
<MIXTURE> 10 8.243707e-02
<MEAN> 39
 -3.172817e+01 -1.352335e-01 1.876300e+00 -1.319103e+01 -5.730262e-01 1.087035e-01 -3.385526e+00 2.767321e+00 -2.661477e+00 -1.191653e+00 8.578302e-01 -5.754415e-01 6.434121e-01 1.648541e-01 -1.143521e-01 3.192008e-01 2.039415e-01 -3.587302e-01 9.204843e-02 1.452809e-01 1.921301e-02 2.115126e-01 -9.828405e-02 -6.755565e-02 1.310838e-01 -6.456053e-03 8.174951e-01 -2.964040e-01 -1.180891e-01 2.943309e-01 -1.704537e-01 -2.426835e-01 -1.243236e-01 -2.302689e-01 -4.067589e-02 -1.069044e-01 -2.225650e-01 -3.351492e-02 -2.333764e-02
<VARIANCE> 39
 7.900953e+00 1.606240e+01 2.503523e+01 1.031523e+01 1.347110e+01 1.827841e+01 1.640391e+01 1.156573e+01 1.314593e+01 1.958763e+01 1.146190e+01 9.635678e+00 1.175378e-02 1.416671e+00 1.333836e+00 1.987713e+00 1.415612e+00 1.546731e+00 1.567132e+00 1.475350e+00 1.106637e+00 1.393128e+00 1.486692e+00 7.750802e-01 9.296098e-01 2.460607e-03 3.162122e-01 2.811512e-01 3.758503e-01 3.428082e-01 2.278257e-01 3.561012e-01 3.078787e-01 2.403218e-01 3.290837e-01 3.565322e-01 1.814415e-01 1.972312e-01 2.781559e-04
<GCONST> 7.283266e+01
<MIXTURE> 11 7.849592e-02
<MEAN> 39
 -2.760601e+01 -5.698244e+00 5.227354e+00 -9.783523e+00 -1.018075e+01 5.907487e-01 -1.208693e+00 -2.589962e+00 1.405180e-01 -2.136365e+00 -1.425871e+00 -3.655619e-01 6.095816e-01 4.268858e+00 4.680328e-01 7.879078e-01 1.274120e+00 -1.938257e+00 -3.418677e+00 -1.278139e+00 -6.131313e-01 -1.332797e+00 -8.915311e-01 -6.308826e-01 -1.646658e-01 7.230553e-03 2.021927e+00 -5.003614e-01 -3.727448e-01 1.900104e-01 -5.553920e-04 -8.529566e-01 -1.092824e+00 2.329609e-01 -4.301416e-01 -2.849777e-01 5.624837e-02 -4.683473e-02 -6.673251e-03
<VARIANCE> 39
 1.226490e+01 1.257012e+01 2.126627e+01 2.822246e+01 1.659063e+01 1.438609e+01 1.888159e+01 1.756058e+01 1.490926e+01 1.312035e+01 1.319619e+01 1.077577e+01 1.158076e-02 2.266341e+00 1.347499e+00 2.208189e+00 2.164042e+00 1.934181e+00 1.760048e+00 2.132755e+00 1.981353e+00 1.775235e+00 1.333846e+00 1.340943e+00 1.227542e+00 8.396077e-04 4.688765e-01 3.739934e-01 6.775609e-01 6.038481e-01 5.735481e-01 5.310351e-01 5.673265e-01 4.778715e-01 5.221427e-01 4.119597e-01 3.910290e-01 3.177977e-01 1.842716e-04
<GCONST> 8.244125e+01
<MIXTURE> 12 5.939600e-02
<MEAN> 39
 -1.750633e+01 -1.462768e+01 -1.068199e+00 -1.065054e+01 -8.482965e+00 2.759254e+00 -5.022715e+00 -3.926120e+00 7.628354e-01 -2.667713e+00 -1.969300e+00 6.020045e-02 3.636913e-01 -3.575442e+00 -2.470337e+00 8.266913e-02 -3.285259e+00 -1.803091e+00 4.462367e-01 1.350787e-01 3.063964e-01 1.444214e+00 5.843101e-01 1.065181e+00 7.561871e-01 1.346778e-01 -1.690717e-01 1.598685e+00 6.897232e-01 9.295890e-01 6.073247e-02 -8.759903e-01 9.961171e-02 2.080628e-01 -4.283584e-01 -1.732099e-01 -1.059848e-01 -1.420280e-01 4.912693e-03
<VARIANCE> 39
 9.765882e+00 1.248737e+01 1.077482e+01 1.761326e+01 1.860221e+01 1.429315e+01 1.744508e+01 1.713490e+01 1.059291e+01 9.500304e+00 9.503246e+00 7.719085e+00 1.243484e-02 2.770103e+00 2.306399e+00 3.429985e+00 2.510036e+00 2.419189e+00 2.393630e+00 2.536112e+00 2.984864e+00 2.286117e+00 2.325969e+00 1.667242e+00 1.422349e+00 1.973521e-03 5.893974e-01 4.434939e-01 4.544465e-01 5.813059e-01 5.755084e-01 7.243509e-01 5.650089e-01 5.060300e-01 4.462896e-01 3.781805e-01 3.472707e-01 2.924495e-01 3.963731e-04
<GCONST> 8.492452e+01
<MIXTURE> 13 5.779696e-02
<MEAN> 39
 -2.776855e+01 -2.754416e+00 -3.784524e+00 -1.679008e+01 -2.388666e+00 -1.690509e+00 -4.756062e+00 1.004846e+00 -1.854211e+00 -2.700274e-01 2.879766e-01 -1.241536e-01 5.802407e-01 -1.330883e+00 9.926032e-01 6.909987e-01 -5.306112e-01 -1.602139e+00 -3.799905e-01 4.399350e-01 -1.899722e-01 1.339370e-01 2.999570e-01 2.603078e-01 5.707995e-01 5.602498e-02 1.997774e+00 2.909848e-01 9.693133e-01 1.147539e+00 -8.748049e-01 -1.000761e+00 -4.633200e-01 -8.178267e-01 -8.908868e-01 -7.828396e-01 -7.897556e-01 -3.530598e-01 -2.145719e-02
<VARIANCE> 39
 1.412671e+01 1.126966e+01 2.469070e+01 1.628443e+01 1.856537e+01 2.629851e+01 1.504747e+01 2.050472e+01 1.769915e+01 1.319982e+01 1.209362e+01 1.275163e+01 1.210190e-02 3.722345e+00 2.978614e+00 3.202018e+00 2.536937e+00 2.304032e+00 2.686742e+00 1.724188e+00 2.049427e+00 2.028314e+00 1.859188e+00 1.815688e+00 1.278434e+00 8.646186e-04 4.861717e-01 5.407279e-01 4.734160e-01 5.937837e-01 7.170406e-01 6.759266e-01 5.008171e-01 6.071448e-01 4.635406e-01 4.577465e-01 3.881819e-01 4.884323e-01 4.045058e-04
<GCONST> 8.790062e+01
<MIXTURE> 14 3.673129e-02
<MEAN> 39
 -2.226927e+01 -9.349374e+00 -4.767971e+00 -1.514095e+01 -1.964259e+00 -2.530799e+00 -6.343748e+00 2.956129e-01 -2.850338e+00 -2.111514e+00 4.513104e-01 -1.314629e+00 3.988122e-01 -2.655597e+00 2.241109e-01 3.659612e-01 -2.690031e+00 -9.132450e-01 -1.563415e-01 -5.631828e-01 -8.174273e-02 1.728113e-01 -2.243606e-01 4.603043e-01 1.057476e-01 1.466798e-01 -3.006319e-02 1.170453e+00 6.717770e-01 1.214771e+00 -3.102145e-01 4.610419e-02 3.923879e-01 -2.089549e-01 2.466126e-02 9.727237e-02 -2.241804e-01 -1.590409e-02 -1.482648e-02
<VARIANCE> 39
 7.026922e+00 1.487747e+01 1.301656e+01 1.301907e+01 2.407644e+01 1.484106e+01 1.515917e+01 1.521926e+01 1.292716e+01 1.652654e+01 1.062983e+01 7.147451e+00 2.075043e-02 1.948427e+00 2.631926e+00 2.221693e+00 3.531790e+00 2.277392e+00 1.816129e+00 2.338955e+00 1.889457e+00 1.515646e+00 1.707101e+00 1.363955e+00 9.792686e-01 2.589022e-03 5.533783e-01 4.199040e-01 5.375506e-01 5.262579e-01 5.971134e-01 4.291691e-01 4.547675e-01 3.615526e-01 3.086363e-01 4.324114e-01 2.890636e-01 2.287505e-01 4.587147e-04
<GCONST> 8.217662e+01
<MIXTURE> 15 6.715465e-02
<MEAN> 39
 -2.488695e+01 -1.019812e+01 3.334984e+00 -7.661402e+00 -1.148791e+01 -3.563363e+00 -3.383014e-02 -1.539392e+00 -8.806225e-01 -1.203022e+00 -1.345170e+00 -5.375835e-01 4.788089e-01 1.174855e+00 -2.815066e-01 -4.649482e-01 6.227510e-02 -2.782542e-01 -8.050146e-01 3.893016e-02 -4.592410e-04 -4.517899e-01 -2.653775e-01 -9.188684e-02 -5.957756e-02 -2.159015e-02 2.300660e-01 6.280237e-04 -9.239893e-02 -2.748998e-02 1.908864e-01 1.114300e-01 -1.105547e-01 5.815733e-02 2.904201e-02 -1.478021e-01 -3.259636e-02 7.506394e-02 -9.685376e-03
<VARIANCE> 39
 1.499141e+01 9.423891e+00 1.451112e+01 2.274721e+01 1.681717e+01 1.649559e+01 1.918832e+01 1.689174e+01 1.823434e+01 1.822945e+01 1.300190e+01 1.236440e+01 1.151392e-02 6.970296e-01 4.117389e-01 7.239254e-01 8.622193e-01 1.063288e+00 1.221415e+00 1.352755e+00 1.236747e+00 1.340481e+00 1.193064e+00 1.324854e+00 1.031433e+00 7.207019e-04 1.209002e-01 7.273684e-02 1.417484e-01 1.597121e-01 2.016104e-01 2.518275e-01 2.313149e-01 2.630764e-01 2.969456e-01 2.740049e-01 3.134327e-01 2.327196e-01 5.269307e-05
<GCONST> 6.357948e+01
<MIXTURE> 16 4.329965e-02
<MEAN> 39
 -2.994087e+01 -4.766328e-01 1.186158e+00 -1.468763e+01 -2.205269e+00 -2.043380e+00 -2.871089e+00 9.192356e-01 -3.500931e+00 -8.458957e-01 -8.228244e-02 -1.149851e+00 6.098505e-01 3.537194e+00 1.984267e-01 1.106442e+00 -4.092571e-01 -3.336509e+00 -2.858555e+00 -1.664864e+00 -1.841434e+00 -1.669587e+00 -1.327816e+00 -1.192834e+00 -4.747310e-01 6.116414e-03 2.020614e+00 -7.412212e-01 -3.145841e-02 -2.432822e-03 -8.889562e-01 -9.800700e-01 -5.133124e-01 -4.211661e-01 -4.528618e-01 -1.672719e-01 -5.426857e-01 5.714728e-03 -8.696868e-03
<VARIANCE> 39
 1.039354e+01 1.225405e+01 2.455213e+01 1.198912e+01 1.766426e+01 1.732123e+01 1.378514e+01 1.857141e+01 2.049050e+01 1.759774e+01 1.057166e+01 1.202965e+01 1.239136e-02 2.195132e+00 1.989822e+00 2.314727e+00 1.750371e+00 3.239214e+00 2.173624e+00 1.788413e+00 2.002932e+00 1.318206e+00 1.797276e+00 1.309533e+00 1.428188e+00 1.108507e-03 3.671091e-01 5.397841e-01 6.049187e-01 4.644743e-01 4.189814e-01 5.752139e-01 3.676822e-01 5.628606e-01 4.797272e-01 5.437056e-01 3.772318e-01 4.224669e-01 2.489989e-04
<GCONST> 8.324035e+01
<STATE> 4
<NUMMIXES> 16
<MIXTURE> 1 6.054434e-02
<MEAN> 39
 -2.318140e+01 -6.584599e+00 4.213243e+00 -7.484756e+00 -6.925796e+00 -2.992482e+00 -5.829670e+00 4.616227e-01 8.578956e-01 -3.951517e+00 -2.847381e+00 7.644768e-01 4.646771e-01 2.547722e+00 2.401488e-01 -1.271059e+00 1.571985e+00 1.029492e+00 -2.112151e-02 4.285581e-02 -1.958842e-01 9.029614e-03 4.735288e-01 -3.549947e-01 -3.625778e-01 -1.016687e-01 1.833781e-01 3.116215e-01 -5.885864e-01 1.699722e-01 4.481747e-01 2.824840e-01 3.568007e-01 -2.093707e-01 -2.952828e-01 3.708241e-01 2.117060e-01 -1.403059e-01 -1.975132e-02
<VARIANCE> 39
 4.261084e+01 1.676203e+01 1.647568e+01 4.300553e+01 3.238596e+01 3.177637e+01 4.240531e+01 5.025488e+01 2.974717e+01 2.305261e+01 2.490211e+01 1.706926e+01 3.034473e-02 2.047961e+00 2.506577e+00 2.358990e+00 3.022203e+00 2.674572e+00 4.021726e+00 3.872102e+00 3.336138e+00 2.932351e+00 2.590811e+00 2.513451e+00 2.704129e+00 4.004590e-03 8.908328e-01 3.328046e-01 3.288822e-01 8.104627e-01 5.976354e-01 7.235873e-01 7.487668e-01 9.524332e-01 7.264196e-01 5.427349e-01 5.286760e-01 4.916343e-01 7.014491e-04
<GCONST> 1.022032e+02
<MIXTURE> 2 7.783481e-02
<MEAN> 39
 -1.128184e+01 -5.846818e+00 8.321581e+00 -3.789621e+00 -1.533944e+01 -1.104976e+01 -8.338379e+00 -3.959035e+00 -4.553073e+00 -7.633135e+00 -1.517538e+00 1.140179e+00 6.502250e-01 4.891035e+00 -2.367142e+00 -1.485175e-01 7.739749e-01 -2.229907e+00 -1.817632e+00 -2.892350e+00 1.117062e+00 -3.253631e-01 -1.201873e+00 9.770041e-01 -8.404236e-02 3.976077e-02 -5.931761e-01 -5.122663e-01 -4.686555e-01 -5.476124e-01 3.602234e-01 1.044941e+00 -6.851654e-02 4.853013e-01 4.880019e-01 3.772870e-01 2.708265e-01 -3.432315e-01 1.791974e-03
<VARIANCE> 39
 1.082992e+01 9.976157e+00 1.406680e+01 1.676202e+01 1.565055e+01 1.592676e+01 1.558777e+01 1.503349e+01 2.221106e+01 1.900597e+01 1.392223e+01 9.629573e+00 1.101381e-02 2.352170e+00 1.811292e+00 2.696099e+00 1.712666e+00 3.122303e+00 3.435699e+00 3.573424e+00 2.655312e+00 3.954950e+00 2.353394e+00 2.060613e+00 1.863668e+00 4.759865e-04 3.623798e-01 2.161638e-01 2.159659e-01 2.280445e-01 2.328787e-01 2.984154e-01 3.482718e-01 2.756429e-01 3.822427e-01 3.218769e-01 3.021332e-01 2.505569e-01 9.420569e-05
<GCONST> 7.824752e+01
<MIXTURE> 3 3.481711e-02
<MEAN> 39
 -1.748006e+01 -2.166835e+00 7.497122e+00 -8.828599e+00 -1.549740e+01 -7.689451e+00 -5.971062e+00 -6.900293e+00 -3.157845e+00 -4.450390e+00 -3.924227e+00 -1.228063e+00 5.927026e-01 6.628629e+00 -1.525412e+00 -1.366212e+00 5.445556e-02 -1.796999e+00 -5.076422e+00 -2.160026e+00 1.000890e+00 -1.947285e+00 -5.027860e-02 -1.884812e-01 -5.925015e-02 2.962494e-02 3.385684e-01 -9.642309e-01 -1.072171e+00 -3.122325e-01 9.727980e-01 7.521944e-02 -1.678604e-01 1.135637e+00 2.486363e-02 4.666493e-01 2.571391e-01 -2.898916e-02 6.301047e-03
<VARIANCE> 39
 1.782777e+01 7.261033e+00 1.415017e+01 1.624642e+01 1.178350e+01 2.301083e+01 3.041283e+01 1.700364e+01 2.122573e+01 1.395636e+01 1.769820e+01 1.335150e+01 1.224542e-02 1.623350e+00 1.995185e+00 4.901634e+00 2.938059e+00 3.693013e+00 4.060116e+00 3.521116e+00 4.568866e+00 4.182417e+00 2.882909e+00 2.798434e+00 2.173243e+00 1.091503e-03 6.046149e-01 2.552879e-01 4.299192e-01 4.216497e-01 4.467175e-01 7.044992e-01 6.120068e-01 5.504871e-01 4.069844e-01 4.225042e-01 5.455760e-01 3.047984e-01 9.329540e-05
<GCONST> 8.873109e+01
<MIXTURE> 4 7.117399e-02
<MEAN> 39
 -3.257394e+00 -1.282120e+01 6.338738e-01 -5.537216e+00 -1.439967e+01 -1.253469e+01 -1.643467e+01 1.561079e+00 4.656426e-01 -4.809781e+00 2.121569e-01 -4.267795e-01 7.697532e-01 3.655955e+00 -2.465320e+00 -2.694967e+00 -1.173939e+00 -7.555497e-02 3.138360e-01 -2.407449e+00 1.261304e+00 9.824700e-01 1.031890e+00 9.478208e-01 -1.144851e+00 5.080726e-02 -1.467767e+00 3.577402e-01 -2.564354e-01 -7.139701e-01 5.115915e-01 1.437495e+00 1.352837e+00 -4.099779e-01 -1.177553e-01 5.259014e-01 -3.230506e-02 -2.521068e-01 -6.799765e-03
<VARIANCE> 39
 7.213892e+00 1.330944e+01 2.534035e+01 1.903467e+01 3.088201e+01 2.600113e+01 2.518757e+01 2.963337e+01 2.401136e+01 2.559100e+01 1.936565e+01 1.515341e+01 7.677610e-03 2.731142e+00 1.758034e+00 1.965446e+00 1.906721e+00 3.047475e+00 4.682895e+00 5.070241e+00 4.331509e+00 3.364663e+00 3.639289e+00 2.897888e+00 2.240854e+00 3.181859e-04 1.699335e-01 2.588663e-01 2.997553e-01 3.319163e-01 6.379234e-01 5.587133e-01 5.679072e-01 4.465230e-01 5.132757e-01 4.379076e-01 4.741562e-01 3.585942e-01 7.181834e-05
<GCONST> 8.727658e+01
<MIXTURE> 5 5.898662e-02
<MEAN> 39
 -2.004143e+01 -5.886343e+00 7.763951e+00 -2.821627e+00 -1.340240e+01 -6.625256e+00 -1.685924e+00 -4.176190e+00 -3.658970e+00 -3.206564e+00 -2.022668e+00 -1.698709e+00 5.732667e-01 5.156158e+00 -2.315998e-01 -4.688609e-01 1.513502e+00 -5.240368e-01 -3.860411e+00 -2.724007e+00 8.175386e-01 -8.215272e-01 -1.308837e+00 2.516813e-01 2.208420e-01 2.222936e-02 1.119723e+00 -5.841956e-01 -7.882122e-01 -2.511111e-01 5.199053e-01 1.956233e-01 -1.140730e+00 4.170106e-01 3.648323e-01 -2.427877e-01 1.675652e-01 1.386108e-01 -2.036449e-03
<VARIANCE> 39
 1.463965e+01 1.111570e+01 1.545072e+01 1.623817e+01 1.332069e+01 1.858047e+01 1.846081e+01 1.917100e+01 1.751391e+01 1.246494e+01 9.308343e+00 9.147651e+00 8.879148e-03 3.034448e+00 1.404626e+00 2.745873e+00 2.602963e+00 2.199167e+00 2.161182e+00 3.124326e+00 1.670820e+00 2.755292e+00 1.942859e+00 1.448334e+00 1.297142e+00 8.002121e-04 6.229725e-01 2.734800e-01 4.530431e-01 3.371282e-01 4.049734e-01 4.813184e-01 5.338306e-01 5.159137e-01 5.027832e-01 3.019055e-01 2.782178e-01 2.730157e-01 1.397548e-04
<GCONST> 8.067458e+01
<MIXTURE> 6 4.069845e-02
<MEAN> 39
 -2.239239e+01 -5.378656e+00 -4.467422e+00 -5.878909e+00 -2.496448e+00 -6.019930e+00 -1.929118e+00 1.683051e+00 2.797298e-01 1.494223e+00 -1.996866e+00 -6.939366e-01 3.427495e-01 2.228329e+00 6.821706e-01 -1.362740e+00 1.392893e+00 1.128974e+00 -1.185022e-01 1.579467e-01 -1.289153e+00 1.240272e-02 7.867128e-01 -1.762985e-01 -5.184634e-01 -6.303634e-02 3.332244e-01 1.831966e-01 4.337326e-01 -3.565328e-01 -4.522690e-01 3.893356e-01 -2.783237e-01 -5.572214e-01 -2.835099e-01 -4.612821e-01 1.328061e-01 3.803102e-02 1.137179e-02
<VARIANCE> 39
 3.897349e+01 4.965812e+01 2.167623e+01 3.757484e+01 3.451368e+01 2.256446e+01 3.743361e+01 1.985947e+01 2.633242e+01 2.090903e+01 1.472788e+01 1.722471e+01 5.699833e-02 4.681580e+00 2.496203e+00 2.747743e+00 4.760055e+00 5.850290e+00 3.722673e+00 3.673887e+00 3.475291e+00 3.104943e+00 2.916412e+00 2.908144e+00 2.412094e+00 6.449196e-03 7.876994e-01 7.765051e-01 4.345787e-01 1.031455e+00 7.326768e-01 5.900074e-01 7.878494e-01 4.810942e-01 7.596955e-01 5.242155e-01 4.339731e-01 4.796145e-01 1.115674e-03
<GCONST> 1.055726e+02
<MIXTURE> 7 5.001832e-02
<MEAN> 39
 -1.403608e+01 -6.779920e+00 1.906340e+00 -1.384231e+00 -9.436095e+00 -1.314339e+01 -6.194069e+00 -1.450611e+00 -1.187131e+00 -4.549693e+00 -2.226572e+00 -1.497975e+00 5.563706e-01 5.908453e+00 -2.940534e-01 -2.150387e+00 3.452141e-01 9.822669e-01 -2.149540e+00 -4.012832e+00 -4.967726e-01 1.523072e-01 -2.286624e-01 -9.937613e-02 -4.247150e-01 2.445774e-02 1.417862e-01 -3.220043e-01 -6.347196e-01 -1.004500e+00 2.930988e-01 1.206014e+00 -2.948309e-01 -3.556518e-01 -5.976693e-02 4.419163e-01 3.129780e-01 3.035658e-02 4.933758e-03
<VARIANCE> 39
 3.027328e+01 1.213947e+01 1.471957e+01 2.049129e+01 1.608584e+01 2.111049e+01 3.407963e+01 1.647891e+01 2.142611e+01 1.373324e+01 1.286419e+01 1.040754e+01 1.390884e-02 2.528894e+00 2.591354e+00 2.705577e+00 2.983831e+00 3.431842e+00 4.136887e+00 4.721199e+00 4.506924e+00 4.262183e+00 3.341017e+00 3.103736e+00 2.557370e+00 1.413737e-03 8.926671e-01 3.183623e-01 4.636644e-01 4.121557e-01 5.200096e-01 6.476458e-01 9.219879e-01 6.611024e-01 6.476209e-01 3.348514e-01 4.951395e-01 2.697681e-01 2.364881e-04
<GCONST> 9.321542e+01
<MIXTURE> 8 4.711631e-02
<MEAN> 39
 -2.000718e+01 2.343096e+00 3.093028e+00 -1.485647e+01 -7.882313e+00 -1.129579e+01 -8.476942e+00 -2.794930e+00 -8.400808e+00 -4.819252e+00 -1.675373e+00 -2.479260e+00 5.860492e-01 4.955171e+00 -1.727650e+00 4.944072e-01 -6.878456e-01 -3.730933e+00 -3.103367e+00 -1.183027e+00 -8.202658e-01 -7.367463e-01 -5.865440e-01 -6.349921e-01 6.464647e-01 2.804935e-02 6.201239e-01 -1.080317e+00 -2.817490e-01 8.808333e-02 2.586185e-02 3.045736e-01 3.677170e-01 1.924225e-01 2.501903e-01 1.935583e-01 -2.893452e-01 2.420921e-01 3.837044e-04
<VARIANCE> 39
 9.860203e+00 7.122480e+00 1.793205e+01 1.925848e+01 1.956776e+01 2.152693e+01 2.137986e+01 1.696088e+01 1.819618e+01 1.766504e+01 1.594370e+01 9.825043e+00 9.769108e-03 3.079499e+00 2.773589e+00 2.943336e+00 2.771425e+00 2.847609e+00 2.609140e+00 2.548997e+00 2.253665e+00 2.645610e+00 2.661823e+00 1.992039e+00 1.808742e+00 1.324984e-03 4.639534e-01 3.498865e-01 4.552594e-01 5.433626e-01 5.995876e-01 4.959710e-01 5.714660e-01 4.871555e-01 4.120449e-01 5.046496e-01 2.749825e-01 2.659888e-01 1.502746e-04
<GCONST> 8.581788e+01
<MIXTURE> 9 9.316547e-02
<MEAN> 39
 -1.863810e+01 -2.596422e-01 8.753426e+00 -7.575946e+00 -9.411047e+00 -7.434348e+00 -9.194840e+00 -3.821874e+00 -3.329710e+00 -6.778422e+00 -2.635945e+00 1.130867e+00 5.626886e-01 2.717451e+00 -7.071255e-01 3.078445e-04 7.158389e-01 -1.363726e+00 -1.899006e+00 -5.844741e-01 -2.950748e-01 -5.096033e-01 -4.135844e-01 -9.665006e-02 3.499757e-03 1.743073e-02 5.498796e-01 -4.344498e-01 -3.770333e-01 3.341741e-02 1.507978e-01 2.207715e-01 9.493195e-02 8.717337e-02 -1.537013e-01 1.015564e-01 8.175556e-02 -3.596273e-01 -5.699368e-03
<VARIANCE> 39
 1.815782e+01 1.234048e+01 1.694256e+01 1.675101e+01 2.087267e+01 1.614640e+01 1.664411e+01 1.713575e+01 2.070286e+01 1.195843e+01 1.192944e+01 8.687398e+00 1.213559e-02 2.073637e+00 1.300450e+00 1.863921e+00 1.302216e+00 1.710796e+00 1.917457e+00 1.636137e+00 1.868086e+00 2.149430e+00 1.508773e+00 1.460567e+00 1.495302e+00 6.472511e-04 6.585388e-01 2.144182e-01 2.243601e-01 2.544556e-01 2.451844e-01 3.131032e-01 3.117267e-01 2.922846e-01 2.945526e-01 2.594985e-01 3.376543e-01 1.998432e-01 9.744637e-05
<GCONST> 7.446390e+01
<MIXTURE> 10 7.496002e-02
<MEAN> 39
 -1.031057e+01 -6.667612e+00 7.029904e+00 -8.574606e+00 -1.360926e+01 -1.142605e+01 -1.168215e+01 -9.668007e-01 -3.859434e+00 -5.832064e+00 -1.476396e+00 1.094288e+00 6.468794e-01 4.352524e+00 -3.004148e+00 2.987331e-01 -7.285856e-01 -1.528533e+00 -1.649794e+00 -2.228701e+00 1.603828e+00 -3.895850e-01 5.709420e-01 -1.649395e-01 8.602846e-03 4.609017e-02 -6.041608e-01 -2.399784e-01 -4.493177e-01 -3.774922e-01 6.737916e-01 7.517797e-01 2.592108e-01 2.845030e-01 1.602068e-01 4.414286e-01 -1.293373e-01 -2.600693e-01 -4.106545e-03
<VARIANCE> 39
 9.895141e+00 1.360822e+01 1.904772e+01 1.390831e+01 1.687017e+01 1.332576e+01 1.603963e+01 1.288886e+01 2.607115e+01 9.125775e+00 1.128840e+01 8.828097e+00 1.021663e-02 2.371607e+00 1.867182e+00 3.355319e+00 2.308543e+00 2.664883e+00 2.381405e+00 3.961317e+00 2.470958e+00 3.290575e+00 1.789033e+00 1.694682e+00 1.481410e+00 1.023612e-03 5.450966e-01 4.408681e-01 3.175206e-01 3.204144e-01 2.782502e-01 2.675198e-01 3.401642e-01 2.644147e-01 3.539382e-01 2.141562e-01 1.807130e-01 1.629336e-01 8.060037e-05
<GCONST> 7.762050e+01
<MIXTURE> 11 4.773851e-02
<MEAN> 39
 -2.712494e+01 -3.800762e+00 4.975293e+00 -6.826834e+00 -3.352505e+00 3.947182e+00 -4.282290e+00 2.401192e-02 2.159219e+00 -1.665579e+00 -4.820763e-01 7.978370e-01 3.807923e-01 2.615221e+00 -3.135576e-01 -1.655642e+00 1.289505e+00 4.776649e-01 -1.118373e-02 1.266508e-01 -1.208570e-01 -4.065287e-01 6.144798e-01 1.632693e-01 -1.839937e-01 -1.326506e-01 2.367914e-01 -3.304833e-01 -5.500940e-01 -2.614561e-01 -2.527633e-01 -5.959012e-01 1.814205e-01 -1.278440e-01 -4.420450e-01 -1.089798e-02 -1.237916e-01 -1.253276e-01 1.282501e-02
<VARIANCE> 39
 1.859690e+01 2.687139e+01 1.203209e+01 1.638694e+01 2.023344e+01 1.244307e+01 1.230050e+01 1.958173e+01 1.482246e+01 1.181145e+01 1.249339e+01 8.006510e+00 4.531281e-02 1.803435e+00 2.493865e+00 2.353963e+00 2.585357e+00 2.471722e+00 1.930658e+00 1.362499e+00 1.788164e+00 2.569659e+00 1.607384e+00 1.525114e+00 9.598418e-01 4.984325e-03 4.696424e-01 4.537589e-01 2.952417e-01 4.100352e-01 2.947761e-01 3.240623e-01 2.780743e-01 3.083304e-01 3.092358e-01 3.299396e-01 2.965351e-01 1.843222e-01 1.027847e-03
<GCONST> 8.259365e+01
<MIXTURE> 12 9.557063e-02
<MEAN> 39
 -2.426046e+01 -1.040341e+01 1.990895e+00 -6.444570e+00 -1.113163e+01 -6.052776e+00 -3.328276e-01 1.070938e+00 -2.196088e+00 -2.264211e+00 3.549675e-01 6.685127e-01 4.842612e-01 2.379075e+00 -2.153899e-01 -8.591021e-01 1.114114e+00 4.046781e-01 -1.393149e+00 -4.505755e-01 7.523241e-01 -1.460925e-01 -5.892518e-01 -2.430255e-01 1.251224e-01 -4.905418e-02 6.393296e-01 3.849489e-01 -2.761603e-01 1.309613e-01 6.598202e-01 4.188610e-01 -4.339103e-01 -2.320975e-01 2.021291e-01 -7.376220e-03 -2.862752e-01 -1.396552e-01 -2.022128e-02
<VARIANCE> 39
 2.120548e+01 1.433516e+01 1.621174e+01 2.611500e+01 2.104032e+01 2.217928e+01 1.926198e+01 1.871716e+01 1.869668e+01 1.501874e+01 1.493003e+01 1.134946e+01 1.944137e-02 1.614723e+00 1.601310e+00 2.074080e+00 2.906144e+00 2.524917e+00 2.807084e+00 2.417338e+00 2.178517e+00 2.326297e+00 1.951777e+00 2.006458e+00 1.333392e+00 1.579050e-03 7.154720e-01 3.099499e-01 2.996059e-01 3.492409e-01 5.051012e-01 4.548960e-01 5.602460e-01 5.047645e-01 4.256542e-01 3.570015e-01 3.424503e-01 3.210090e-01 4.771271e-04
<GCONST> 8.648066e+01
<MIXTURE> 13 8.071189e-02
<MEAN> 39
 -6.403229e+00 -1.175469e+01 3.003236e+00 -1.594428e+01 -1.726502e+01 -1.548965e+01 -8.580315e+00 1.530032e+00 -8.022885e+00 -1.524087e+00 -3.604621e+00 7.072248e-01 7.806081e-01 2.875859e+00 -3.424056e+00 -1.410081e+00 -9.701363e-01 5.441380e-04 -1.059726e+00 3.511621e-01 2.675431e+00 -7.500509e-02 1.070717e+00 -1.024416e+00 3.069081e-01 4.753220e-02 -1.495979e+00 4.037386e-01 -4.983428e-01 1.962485e-01 1.306550e+00 1.300699e+00 5.095190e-01 3.399897e-02 5.639161e-01 7.650290e-04 -5.340504e-02 -2.401530e-01 -9.854913e-03
<VARIANCE> 39
 6.705397e+00 1.886645e+01 3.976427e+01 3.630254e+01 2.255264e+01 3.838725e+01 4.432409e+01 3.129894e+01 3.464953e+01 2.782304e+01 2.740517e+01 1.511792e+01 1.056654e-02 2.033413e+00 1.633538e+00 3.040682e+00 2.300592e+00 4.325078e+00 5.498351e+00 5.564493e+00 3.576274e+00 3.005485e+00 3.522393e+00 2.554665e+00 2.161776e+00 4.290755e-04 1.542556e-01 2.862645e-01 4.116252e-01 4.204248e-01 4.604169e-01 6.020868e-01 5.301373e-01 6.100183e-01 4.628442e-01 5.207735e-01 4.341226e-01 3.653682e-01 7.327749e-05
<GCONST> 9.168731e+01
<MIXTURE> 14 6.087248e-02
<MEAN> 39
 -2.083321e+01 -8.500271e-01 7.766232e+00 -8.028070e+00 -9.368108e+00 -5.041837e+00 -6.248752e+00 -3.901373e+00 -4.037102e+00 -4.972913e+00 -1.658391e+00 6.576357e-01 5.902435e-01 4.960081e+00 -1.140678e+00 1.392554e+00 1.045410e+00 -2.924623e+00 -3.021847e+00 -2.168699e+00 -1.074072e-01 -1.019147e+00 -8.560691e-01 -6.606437e-02 2.178389e-01 3.872317e-02 9.726603e-01 -1.314639e+00 -3.757170e-01 -3.323610e-01 -2.698250e-01 2.144416e-01 -6.485697e-01 6.161955e-01 1.922395e-01 1.570043e-01 1.638022e-01 -2.272119e-01 4.275877e-03
<VARIANCE> 39
 1.190522e+01 6.633110e+00 1.309873e+01 1.043747e+01 1.666100e+01 1.966675e+01 1.237842e+01 1.530461e+01 1.610097e+01 1.345748e+01 1.246432e+01 9.084982e+00 9.920873e-03 3.021732e+00 1.586062e+00 2.880355e+00 2.318283e+00 1.690983e+00 1.520983e+00 2.697264e+00 2.236452e+00 2.598256e+00 1.796497e+00 1.632410e+00 1.031591e+00 1.060129e-03 5.374253e-01 2.002104e-01 3.580074e-01 4.414381e-01 2.912681e-01 4.511605e-01 3.294677e-01 3.506776e-01 3.163713e-01 3.025789e-01 3.865453e-01 2.304169e-01 9.016788e-05
<GCONST> 7.657485e+01
<MIXTURE> 15 6.582829e-02
<MEAN> 39
 -1.293721e+01 -1.711382e+00 3.106258e+00 -1.737149e+01 -1.708343e+01 -1.372200e+01 -9.580288e+00 -6.761686e+00 -9.123469e+00 -4.734584e+00 -3.858656e+00 -2.461047e+00 6.710144e-01 5.385850e+00 -2.561812e+00 -2.683069e-01 -1.295277e+00 -3.045552e+00 -3.064181e+00 -3.046867e-01 1.831979e-01 -1.163139e+00 5.331953e-01 -1.082728e+00 6.119965e-01 4.011168e-02 -7.988284e-01 -6.359403e-01 -5.993638e-01 1.019172e-01 1.273070e+00 8.888919e-01 8.022799e-01 1.027448e+00 5.210769e-01 5.275713e-01 5.045550e-02 2.635183e-01 3.000837e-03
<VARIANCE> 39
 1.287087e+01 1.340312e+01 1.581611e+01 1.606527e+01 1.321102e+01 1.757491e+01 1.849398e+01 2.270864e+01 1.285435e+01 1.521721e+01 1.207748e+01 1.046451e+01 1.048221e-02 1.504929e+00 2.084990e+00 3.538225e+00 2.623826e+00 3.884612e+00 5.047626e+00 3.650182e+00 4.359697e+00 3.063877e+00 4.106837e+00 3.217498e+00 2.707344e+00 9.268883e-04 3.201965e-01 2.683135e-01 3.179131e-01 2.908955e-01 5.002918e-01 4.050742e-01 4.434492e-01 4.728230e-01 2.595269e-01 4.582481e-01 2.380454e-01 3.158710e-01 9.963708e-05
<GCONST> 8.431399e+01
<MIXTURE> 16 3.995616e-02
<MEAN> 39
 -2.442405e+01 6.827341e-01 4.474731e+00 -1.403304e+01 -7.214438e+00 -5.293690e+00 -7.966506e+00 -5.582831e+00 -6.737807e+00 -5.186637e+00 -3.718376e+00 -3.460978e+00 5.984823e-01 5.347618e+00 -4.130807e-01 1.129140e+00 -6.109546e-01 -4.339572e+00 -3.769816e+00 -1.885606e+00 -2.259989e+00 -2.593146e+00 -9.922419e-01 -1.718587e+00 -6.459574e-01 1.224115e-02 9.548924e-01 -9.091706e-01 -3.699861e-01 -2.126653e-01 -1.250883e-01 -3.387990e-01 2.517959e-01 5.732474e-01 -1.281351e-01 5.937793e-01 -4.195580e-02 2.456178e-01 4.381160e-03
<VARIANCE> 39
 9.928212e+00 1.362691e+01 2.004916e+01 1.557252e+01 1.943840e+01 2.287290e+01 1.756666e+01 2.209566e+01 1.540155e+01 1.246657e+01 1.393127e+01 1.181349e+01 9.903233e-03 1.803174e+00 1.895722e+00 2.923132e+00 2.373439e+00 2.061835e+00 3.353387e+00 1.763321e+00 2.640229e+00 1.771154e+00 2.657036e+00 1.416020e+00 2.097920e+00 9.581210e-04 3.495901e-01 3.712263e-01 4.885313e-01 5.108438e-01 4.105144e-01 6.318601e-01 3.909910e-01 6.110663e-01 4.862253e-01 4.870898e-01 4.080293e-01 4.972919e-01 1.788291e-04
<GCONST> 8.458228e+01
<TRANSP> 5
 0.000000e+00 1.000000e+00 0.000000e+00 0.000000e+00 0.000000e+00
 0.000000e+00 7.299476e-01 2.700524e-01 0.000000e+00 0.000000e+00
 0.000000e+00 0.000000e+00 7.720786e-01 2.279214e-01 0.000000e+00
 0.000000e+00 0.000000e+00 0.000000e+00 6.570197e-01 3.429803e-01
 0.000000e+00 0.000000e+00 0.000000e+00 0.000000e+00 0.000000e+00
<ENDHMM>
