~o
<STREAMINFO> 1 39
<VECSIZE> 39<NULLD><MFCC_E_D_A><DIAGC>
~h "k"
<BEGINHMM>
<NUMSTATES> 5
<STATE> 2
<NUMMIXES> 16
<MIXTURE> 1 6.107858e-02
<MEAN> 39
 -1.108604e+01 2.024826e-01 4.903386e+00 -7.189023e+00 -1.464328e+01 -1.004397e+01 -3.560259e-01 -8.596949e+00 -1.108914e+01 2.250101e+00 -5.013466e+00 -3.496457e+00 4.045652e-01 -2.826022e+00 1.197409e+00 -1.851925e+00 3.464861e+00 4.399009e+00 2.735951e+00 -2.001902e-02 9.184667e-01 2.288928e+00 -4.081762e-01 7.227756e-01 3.830601e-01 -1.884795e-01 -3.013258e-01 -1.337778e+00 -1.020850e+00 -3.278355e-01 5.776367e-01 3.234318e-01 -1.859870e-01 1.064549e+00 8.432032e-01 -2.977538e-01 3.131950e-01 4.354809e-01 7.107477e-03
<VARIANCE> 39
 1.132791e+01 2.246650e+01 3.727374e+01 3.138562e+01 2.908468e+01 3.389540e+01 3.558236e+01 4.262392e+01 4.001640e+01 2.856211e+01 3.772575e+01 2.796926e+01 2.321849e-02 1.396437e+00 3.256446e+00 5.093506e+00 5.456572e+00 3.752023e+00 4.705184e+00 5.705184e+00 6.209702e+00 4.262318e+00 4.952982e+00 6.231078e+00 2.841207e+00 2.112918e-03 2.570982e-01 4.509482e-01 4.593540e-01 6.747916e-01 6.090487e-01 5.958921e-01 7.185230e-01 5.893429e-01 7.100844e-01 6.182581e-01 6.389031e-01 5.181871e-01 7.506129e-04
<GCONST> 1.054585e+02
<MIXTURE> 2 5.428695e-02
<MEAN> 39
 -1.789301e+01 -2.808661e+00 -4.774447e+00 6.845721e-01 -7.938416e-01 -3.143765e+00 -2.973383e+00 1.088682e+00 -6.428066e-01 1.026388e+00 -9.021474e-01 -3.924594e-01 -9.467120e-02 -3.389323e+00 4.172154e-01 -1.001954e-03 7.723859e-01 1.205171e+00 3.354538e+00 1.956379e+00 -4.511099e-01 1.491789e+00 6.059184e-01 5.711928e-01 2.236328e-01 -1.423225e-01 1.265123e+00 -1.174521e+00 -5.415732e-01 -1.155831e+00 -6.194922e-01 -7.527895e-01 -4.856586e-01 2.001607e-01 -5.068323e-01 -1.368924e-01 -2.148444e-01 -1.624168e-01 8.140954e-02
<VARIANCE> 39
 4.883203e+00 6.494523e+00 8.844284e+00 8.196291e+00 1.708938e+01 1.530114e+01 2.287946e+01 2.345152e+01 1.778422e+01 1.554692e+01 1.514392e+01 1.185063e+01 4.150302e-03 1.559797e+00 2.337801e+00 3.814338e+00 3.111431e+00 5.917718e+00 5.088179e+00 6.418730e+00 5.610471e+00 3.866377e+00 4.379645e+00 3.828177e+00 2.552062e+00 2.228062e-03 2.444486e-01 4.633101e-01 5.752720e-01 4.990098e-01 5.891620e-01 6.657625e-01 7.082835e-01 7.835392e-01 6.668779e-01 5.448935e-01 6.563802e-01 3.055300e-01 5.395656e-04
<GCONST> 9.126023e+01
<MIXTURE> 3 6.012686e-02
<MEAN> 39
 -1.652698e+01 -6.969568e+00 -1.120836e+01 -2.561167e+00 6.577158e+00 9.139451e-01 -8.079562e+00 -1.933273e+00 1.260439e+00 4.501965e+00 -6.958511e-01 -3.254335e+00 1.486428e-01 -6.850514e-01 3.590177e-01 6.529773e-01 9.894386e-01 -6.454222e-01 1.391781e+00 1.347064e+00 6.983668e-02 -8.221335e-03 -7.501663e-02 2.013239e-01 4.662170e-01 -1.340705e-01 8.158327e-02 -5.957425e-02 2.207077e-01 -5.318670e-01 -1.125932e+00 -8.023238e-01 2.790535e-01 4.826039e-01 -4.564129e-01 -5.867523e-01 -8.715277e-02 2.317852e-01 3.824857e-02
<VARIANCE> 39
 1.974656e+01 1.785153e+01 2.346496e+01 2.345390e+01 2.330397e+01 3.062286e+01 2.936339e+01 2.976489e+01 3.232033e+01 2.003172e+01 2.150979e+01 1.565298e+01 3.270716e-02 7.327817e+00 3.447567e+00 3.550478e+00 3.850591e+00 4.852176e+00 4.876490e+00 5.270780e+00 3.748918e+00 4.039664e+00 2.850526e+00 2.976569e+00 1.951926e+00 4.859381e-03 6.778244e-01 5.006579e-01 5.076659e-01 5.073283e-01 6.035721e-01 7.010173e-01 8.062713e-01 6.388629e-01 6.955464e-01 3.680255e-01 5.146276e-01 3.882258e-01 9.655687e-04
<GCONST> 1.030602e+02
<MIXTURE> 4 6.535401e-02
<MEAN> 39
 -1.662362e+01 -9.359460e+00 -5.904121e+00 -1.244642e+00 3.350477e-01 -7.121803e+00 -3.808558e+00 6.887701e-01 -5.370609e+00 -3.165297e-01 -2.484662e+00 -1.132038e+00 2.500951e-01 -2.787897e+00 -5.098542e-01 -1.131167e+00 1.108649e+00 2.290937e+00 2.166465e+00 7.579352e-01 2.244145e-01 1.591802e+00 8.452436e-01 2.907564e-01 4.302244e-01 -1.142127e-01 6.561055e-01 1.832179e-01 1.604774e-02 -8.702191e-01 -9.877018e-01 5.875679e-02 -4.249050e-02 -8.450983e-02 1.747164e-01 3.107565e-03 8.837786e-02 -6.600787e-02 2.471390e-02
<VARIANCE> 39
 3.412077e+01 3.556753e+01 6.617152e+01 6.819391e+01 6.144832e+01 6.965785e+01 6.597495e+01 5.354087e+01 4.296350e+01 4.058997e+01 3.323661e+01 2.270723e+01 2.676325e-02 3.073144e+00 4.200921e+00 5.528677e+00 5.884969e+00 6.282872e+00 6.013808e+00 4.910903e+00 6.032473e+00 5.150021e+00 3.915094e+00 4.677001e+00 2.792148e+00 4.015205e-03 7.209206e-01 9.287715e-01 1.127129e+00 1.607633e+00 1.205511e+00 1.488924e+00 1.386148e+00 1.071351e+00 1.114807e+00 9.579068e-01 8.834338e-01 6.068590e-01 9.632114e-04
<GCONST> 1.209815e+02
<MIXTURE> 5 6.126561e-02
<MEAN> 39
 -1.919528e+01 -2.346686e+00 -4.631569e+00 -3.658453e-01 -1.312585e+00 7.195411e-02 -7.196423e-01 7.316819e-01 2.022682e-01 8.482277e-01 -1.974606e-02 -9.089427e-02 -1.498181e-01 -1.747155e+00 -2.501262e-01 -5.106544e-01 1.834899e-01 7.797658e-01 1.923620e+00 1.127542e+00 3.444684e-01 1.260722e+00 3.897571e-01 5.309862e-01 2.702416e-01 -6.413835e-02 1.406197e+00 -1.107189e+00 -4.150066e-01 -1.132927e+00 -6.285415e-01 -1.349236e+00 -7.494057e-01 -5.943491e-02 -8.297387e-01 4.903632e-04 -4.709497e-01 -1.075502e-01 9.346244e-02
<VARIANCE> 39
 9.204534e-01 2.438225e+00 2.996440e+00 4.260683e+00 5.461939e+00 7.491086e+00 8.091382e+00 9.146942e+00 8.060694e+00 8.605684e+00 7.094079e+00 7.530616e+00 1.097022e-04 1.317382e+00 2.239436e+00 2.565170e+00 2.176440e+00 3.153934e+00 3.469919e+00 3.712077e+00 3.918091e+00 3.220561e+00 3.056245e+00 2.685344e+00 1.933321e+00 2.448904e-03 3.624207e-01 4.588844e-01 9.664114e-01 6.475353e-01 8.660305e-01 8.589930e-01 1.034805e+00 8.856190e-01 5.837654e-01 5.325938e-01 6.271119e-01 3.608786e-01 5.755850e-04
<GCONST> 7.518140e+01
<MIXTURE> 6 8.693744e-02
<MEAN> 39
 -2.021856e+01 -4.980760e+00 -5.245138e+00 -2.411898e-01 1.028897e-01 -2.865983e+00 -1.816874e+00 -1.023065e-01 -2.995172e+00 9.095392e-01 -1.757191e+00 -8.791620e-01 -4.272002e-02 -1.040445e+00 -2.044186e+00 -2.074118e+00 -7.118088e-01 1.215832e+00 1.044927e+00 3.468426e-01 5.580357e-01 1.429068e+00 9.744779e-01 6.909890e-02 4.474385e-01 -8.093162e-05 1.352294e+00 -5.445415e-01 -1.927173e-01 -1.296874e+00 -9.864766e-01 -7.601755e-01 -5.425572e-01 -4.007105e-02 -4.302742e-01 -8.070054e-02 -3.650231e-02 -1.232787e-01 8.238751e-02
<VARIANCE> 39
 1.721768e+01 1.851710e+01 3.351907e+01 3.438827e+01 3.367190e+01 4.108578e+01 4.150493e+01 3.728778e+01 3.640051e+01 2.922577e+01 2.853554e+01 2.538114e+01 1.028500e-02 3.298197e+00 3.644890e+00 5.546284e+00 5.653064e+00 4.469038e+00 5.380130e+00 4.524293e+00 5.455298e+00 4.761940e+00 4.101311e+00 3.798536e+00 2.617189e+00 6.699190e-03 4.994794e-01 6.332874e-01 9.977983e-01 1.096944e+00 9.528423e-01 1.049241e+00 1.044716e+00 1.111129e+00 9.060774e-01 9.273648e-01 9.548631e-01 7.035734e-01 4.702394e-04
<GCONST> 1.114812e+02
<MIXTURE> 7 7.032143e-02
<MEAN> 39
 -1.458091e+01 2.095477e+00 1.281625e+00 3.574451e-01 -4.995679e+00 -5.025044e+00 -4.281797e+00 -6.119029e+00 -8.699131e+00 -3.071932e+00 -4.013145e+00 -3.970807e+00 4.367926e-02 -2.841999e+00 -9.444799e-01 -2.991546e+00 1.167459e+00 3.741663e+00 2.605662e+00 4.918146e-01 9.331900e-01 3.040128e+00 3.620818e-01 1.277067e-02 9.585351e-01 -1.262315e-01 3.277235e-01 -1.711239e+00 -3.710236e-01 -1.333002e+00 -8.155743e-01 -4.556955e-01 -8.374055e-02 7.118469e-01 2.384236e-01 4.517440e-01 2.926183e-01 3.326775e-01 6.625822e-02
<VARIANCE> 39
 1.144297e+01 1.089769e+01 1.588145e+01 1.648024e+01 2.006595e+01 1.860170e+01 2.770471e+01 2.484805e+01 2.121192e+01 2.798932e+01 2.199145e+01 1.547352e+01 1.487669e-02 1.371740e+00 4.106402e+00 3.800934e+00 5.465163e+00 3.440189e+00 4.070436e+00 4.334919e+00 6.417883e+00 4.387609e+00 4.704680e+00 5.321781e+00 3.019985e+00 4.694582e-03 3.223551e-01 5.835226e-01 6.344977e-01 6.853768e-01 5.915840e-01 5.717814e-01 8.449996e-01 6.366058e-01 5.937703e-01 8.027203e-01 6.665813e-01 4.724421e-01 6.139196e-04
<GCONST> 1.002062e+02
<MIXTURE> 8 5.572350e-02
<MEAN> 39
 -7.026289e+00 -4.703331e+00 -5.157581e+00 -1.440606e+00 -4.811563e+00 -1.631702e+01 -7.366274e+00 6.483050e+00 -5.632496e+00 -3.442558e+00 -2.990488e+00 8.109072e-01 4.214706e-01 -4.281333e+00 2.392712e+00 7.000504e-01 2.105763e+00 2.164310e+00 3.782920e+00 1.324048e+00 -1.696040e+00 1.089860e+00 7.759518e-01 4.749646e-01 5.188896e-01 -2.106807e-01 -4.302163e-01 -8.955132e-01 -4.400661e-01 -7.423514e-01 -1.683278e-02 1.200787e+00 3.708936e-01 -4.590307e-01 5.418382e-01 5.102008e-01 6.922670e-02 -4.084377e-01 9.999756e-04
<VARIANCE> 39
 9.960334e+00 1.608926e+01 2.012836e+01 1.524744e+01 3.017035e+01 4.023178e+01 5.825446e+01 4.271332e+01 3.237710e+01 3.329870e+01 3.047212e+01 2.200547e+01 1.819361e-02 1.310176e+00 2.902634e+00 4.122416e+00 2.998254e+00 4.039665e+00 5.961197e+00 7.052809e+00 5.691112e+00 6.026413e+00 3.615381e+00 4.910148e+00 3.165765e+00 1.332562e-03 2.154840e-01 4.683417e-01 3.873413e-01 4.388953e-01 5.510117e-01 7.749276e-01 7.739198e-01 7.795806e-01 5.986184e-01 6.459555e-01 5.004295e-01 4.424283e-01 5.110230e-04
<GCONST> 1.013555e+02
<MIXTURE> 9 5.812761e-02
<MEAN> 39
 -1.905853e+01 -1.886297e+00 -4.325275e+00 -1.242730e-02 -1.229084e+00 -2.807854e-01 -1.438618e+00 -3.258368e-01 -9.146543e-01 2.157817e-01 -6.687284e-01 -4.470396e-01 -1.497260e-01 -6.393450e-01 -3.450317e+00 -2.019495e+00 -1.562968e+00 6.735026e-01 5.110431e-01 6.346487e-01 9.675609e-01 1.124591e+00 1.066699e+00 1.033549e-02 6.607348e-01 6.658458e-02 1.204890e+00 -1.082665e+00 7.694075e-04 -1.344661e+00 -1.104827e+00 -1.509980e+00 -4.905866e-01 5.415739e-03 -8.945487e-01 5.265927e-02 -2.971213e-01 -5.403455e-02 1.027440e-01
<VARIANCE> 39
 1.082624e+00 2.619024e+00 4.006351e+00 5.415739e+00 6.409190e+00 8.210509e+00 8.240702e+00 8.931213e+00 1.031424e+01 1.120437e+01 8.281447e+00 7.679845e+00 1.097022e-04 1.560310e+00 2.669510e+00 4.065982e+00 2.812228e+00 3.600756e+00 4.015244e+00 3.481564e+00 4.281439e+00 3.101518e+00 2.988869e+00 2.787226e+00 2.459320e+00 2.789675e-03 3.731735e-01 5.453312e-01 1.062355e+00 6.826427e-01 8.675200e-01 9.193251e-01 1.123973e+00 1.098323e+00 8.205899e-01 6.044113e-01 7.909514e-01 4.161561e-01 3.450343e-04
<GCONST> 7.963614e+01
<MIXTURE> 10 4.761449e-02
<MEAN> 39
 -1.737872e+01 -2.276080e-02 -2.471001e+00 3.226218e-01 -2.374438e+00 -2.424217e+00 -3.856518e+00 -3.262238e+00 -4.566378e+00 -2.805983e+00 -2.893613e+00 -2.219884e+00 -1.446846e-01 -2.431223e+00 -1.604780e+00 -2.165467e+00 2.034112e-01 2.275577e+00 2.422658e+00 1.104525e+00 1.092767e+00 2.651362e+00 1.029309e+00 5.461045e-01 8.342144e-01 -6.620947e-02 8.605888e-01 -1.432256e+00 -1.634548e-01 -1.322751e+00 -9.686964e-01 -9.618106e-01 -1.419402e-01 3.766037e-01 -3.474967e-01 4.652357e-01 9.325673e-02 9.419814e-02 8.965348e-02
<VARIANCE> 39
 2.753051e+00 3.426275e+00 4.610410e+00 5.981420e+00 8.608585e+00 9.501435e+00 1.119890e+01 1.224341e+01 1.019831e+01 1.159697e+01 9.877202e+00 1.184096e+01 2.159648e-04 1.502579e+00 3.987234e+00 3.737710e+00 4.074371e+00 4.482884e+00 4.310831e+00 3.776739e+00 5.694596e+00 3.723440e+00 3.630105e+00 3.874900e+00 2.474665e+00 5.469308e-03 3.295561e-01 5.414132e-01 9.020541e-01 6.779956e-01 7.790349e-01 7.174591e-01 8.476602e-01 8.161995e-01 6.668967e-01 5.691693e-01 6.271568e-01 4.796194e-01 6.441355e-04
<GCONST> 8.517391e+01
<MIXTURE> 11 6.076085e-02
<MEAN> 39
 -1.332626e+01 -1.259122e+00 -3.466439e+00 1.115612e+00 -1.523781e+00 -8.126416e+00 -7.161653e+00 -6.869822e-03 -4.121303e+00 -2.478489e+00 -3.623278e+00 -1.141251e+00 8.374365e-02 -4.329407e+00 9.815915e-01 4.263306e-01 1.345181e+00 1.453579e+00 3.788540e+00 2.281894e+00 -1.021657e+00 1.532966e+00 1.011033e+00 5.164192e-01 3.627467e-01 -1.806852e-01 5.954918e-01 -1.515621e+00 -7.719450e-01 -1.300519e+00 -4.129950e-01 -5.919550e-02 1.274503e-02 3.069951e-01 6.832021e-02 3.783740e-01 1.382084e-01 -1.201926e-01 5.789091e-02
<VARIANCE> 39
 1.087589e+01 1.683714e+01 1.912302e+01 1.584594e+01 2.450015e+01 2.872344e+01 3.943143e+01 4.325801e+01 2.838655e+01 2.507468e+01 2.421973e+01 2.061210e+01 1.632172e-02 1.285087e+00 2.552465e+00 4.193237e+00 3.988978e+00 5.060960e+00 5.921296e+00 7.308105e+00 6.636140e+00 4.537845e+00 5.270613e+00 5.601771e+00 2.943023e+00 2.299581e-03 2.538085e-01 5.918000e-01 4.855410e-01 5.964636e-01 6.022666e-01 7.622674e-01 7.808095e-01 8.755631e-01 7.191527e-01 5.990863e-01 6.882791e-01 4.838723e-01 5.612156e-04
<GCONST> 1.027327e+02
<MIXTURE> 12 5.735989e-02
<MEAN> 39
 -1.230950e+01 -1.742063e+00 -5.933924e+00 -4.104935e+00 -4.864503e+00 -5.162124e+00 -3.745347e+00 -6.113235e+00 -1.026314e+01 -4.044871e+00 -5.620573e+00 -4.678841e+00 1.081292e-01 -1.449869e+00 -2.384193e+00 -1.752526e+00 -4.522947e-01 1.029384e+00 5.366707e-01 -2.477713e-01 1.086215e+00 1.467660e+00 8.320495e-01 2.474389e-01 7.360918e-01 -4.469500e-04 7.069588e-02 -7.994422e-01 -3.665930e-02 -4.306359e-01 -2.412979e-01 -2.859805e-01 -3.379164e-02 7.207050e-01 5.781752e-01 5.529042e-01 4.544587e-01 3.423882e-01 4.665914e-02
<VARIANCE> 39
 1.264613e+01 1.688387e+01 3.041771e+01 2.481201e+01 3.385149e+01 3.361661e+01 3.640558e+01 4.381530e+01 2.994157e+01 2.778010e+01 2.937051e+01 2.602201e+01 2.945933e-02 3.020455e+00 5.575540e+00 5.056529e+00 5.364616e+00 5.403217e+00 4.774695e+00 6.108479e+00 7.750877e+00 5.862514e+00 4.002582e+00 5.606757e+00 3.250687e+00 5.964628e-03 4.187620e-01 6.308439e-01 7.643320e-01 6.849064e-01 1.027463e+00 9.734393e-01 9.577936e-01 1.381903e+00 8.112416e-01 8.088990e-01 7.805869e-01 6.345099e-01 5.710734e-04
<GCONST> 1.117956e+02
<MIXTURE> 13 6.310122e-02
<MEAN> 39
 -1.968122e+01 -7.296047e+00 -4.655717e+00 1.112751e+00 3.401435e-01 -4.498929e+00 -3.443587e+00 5.524827e+00 -3.178055e-01 -1.066858e+00 -1.704305e-01 1.342651e+00 1.527764e-01 8.138061e-01 -1.414769e-01 -4.318174e-01 2.650603e-01 -2.690310e-01 2.068436e+00 2.655665e-01 -9.909024e-01 -3.478117e-01 9.571283e-01 6.872449e-02 -4.025266e-01 -1.173355e-01 -6.533059e-02 -9.079910e-02 -2.551107e-01 -1.066551e+00 -4.840448e-01 -2.889212e-01 -5.773981e-02 -4.496081e-01 -2.640585e-01 1.379539e-01 -2.269466e-01 -2.490549e-01 4.699528e-02
<VARIANCE> 39
 1.214068e+01 2.283764e+01 3.291893e+01 2.113330e+01 2.953934e+01 3.623078e+01 4.021131e+01 2.954925e+01 3.359156e+01 1.850179e+01 1.994905e+01 1.283672e+01 3.344800e-02 3.755351e+00 4.310136e+00 4.243221e+00 3.210239e+00 5.106504e+00 4.216754e+00 4.251125e+00 3.865695e+00 3.964810e+00 2.797061e+00 2.413010e+00 1.611240e+00 5.853113e-03 4.988361e-01 5.401040e-01 6.101801e-01 4.974828e-01 6.229661e-01 7.677737e-01 6.141015e-01 6.146809e-01 6.707630e-01 4.512679e-01 4.596738e-01 3.081006e-01 9.289341e-04
<GCONST> 1.020241e+02
<MIXTURE> 14 5.004403e-02
<MEAN> 39
 -1.006333e+01 -3.294098e+00 3.099322e+00 9.078652e-01 -1.094229e+01 -1.349693e+01 -4.548499e+00 4.934013e+00 -1.275631e+01 -4.860181e+00 3.902317e+00 -1.564157e+00 3.287513e-01 -3.439740e+00 1.516916e+00 -2.291723e+00 1.030227e+00 3.950459e+00 3.124562e+00 1.547515e+00 -1.611529e+00 1.997437e+00 1.662064e+00 -1.626524e+00 2.530853e-01 -1.745362e-01 -1.939630e-01 -1.098893e+00 -8.100511e-01 -9.207789e-01 1.757699e-01 7.008777e-01 -2.633997e-01 -2.187888e-01 1.296322e+00 3.992098e-01 -4.624831e-01 3.255862e-02 1.949961e-02
<VARIANCE> 39
 1.174661e+01 1.252334e+01 2.544745e+01 1.856751e+01 2.419835e+01 2.790140e+01 3.763218e+01 2.251044e+01 3.677964e+01 3.052898e+01 2.373310e+01 2.215141e+01 2.600707e-02 1.580457e+00 3.669155e+00 4.184232e+00 2.882415e+00 3.419153e+00 3.750531e+00 3.563047e+00 4.907363e+00 5.156807e+00 3.898418e+00 3.285401e+00 2.687605e+00 2.758841e-03 2.961447e-01 4.625890e-01 4.604225e-01 4.046032e-01 4.795424e-01 5.629644e-01 5.987988e-01 5.154341e-01 6.884882e-01 5.656281e-01 4.567828e-01 5.049449e-01 6.550260e-04
<GCONST> 9.877449e+01
<MIXTURE> 15 8.283663e-02
<MEAN> 39
 -1.964125e+01 -4.097976e+00 -6.292541e+00 -7.887040e-01 3.455273e-01 -3.694043e-01 -2.716046e+00 4.056323e-02 -6.793678e-01 1.954803e+00 -2.807370e-01 -9.666085e-01 -1.498716e-01 4.613511e-01 -8.497289e-01 -4.797687e-01 -7.448864e-01 -1.012637e+00 5.070622e-01 6.513371e-01 -2.743508e-01 -5.898619e-01 1.679470e-01 6.325772e-02 5.979623e-02 9.959560e-03 5.468689e-01 -6.981005e-01 -3.074780e-01 -8.947973e-01 -3.600570e-01 -9.135371e-01 -4.234361e-01 2.354191e-01 -3.181553e-01 -1.811166e-01 -2.022028e-01 5.106839e-03 8.225586e-02
<VARIANCE> 39
 3.731488e+00 6.146877e+00 1.108822e+01 1.056376e+01 1.838910e+01 1.806894e+01 1.788184e+01 2.188638e+01 1.681312e+01 1.646258e+01 1.388366e+01 1.154334e+01 1.097022e-04 2.459737e+00 3.749872e+00 4.271692e+00 4.490256e+00 4.950621e+00 5.013976e+00 3.953204e+00 4.379509e+00 3.896061e+00 3.038496e+00 2.407575e+00 2.052900e+00 8.806816e-03 7.606133e-01 4.538572e-01 5.799493e-01 5.560996e-01 7.430953e-01 8.038742e-01 8.667091e-01 6.956455e-01 6.213568e-01 5.782038e-01 4.666923e-01 3.859888e-01 7.166665e-04
<GCONST> 9.031202e+01
<MIXTURE> 16 6.503429e-02
<MEAN> 39
 -1.960251e+01 -2.475202e+00 -5.106739e+00 -8.870471e-01 -1.642390e+00 -3.888674e-02 -1.252478e+00 1.986952e-01 -1.270707e-01 1.079042e+00 -9.908897e-02 2.154285e-02 -1.496105e-01 -1.613861e-01 -8.717817e-03 -7.974607e-02 -3.342666e-02 -7.096992e-02 2.192456e-01 7.759339e-02 1.283492e-01 2.730839e-01 1.058265e-01 6.342164e-02 3.880006e-02 -2.975362e-03 6.164719e-01 -6.647658e-01 -2.111273e-01 -4.374804e-01 -1.611085e-01 -7.113795e-01 -3.343362e-01 -5.790843e-02 -4.524677e-01 -2.430030e-02 -2.486885e-01 -1.035703e-01 5.243933e-02
<VARIANCE> 39
 1.020775e+00 2.880516e+00 3.378951e+00 5.854198e+00 6.375219e+00 7.726829e+00 8.353753e+00 9.524141e+00 8.550901e+00 9.660528e+00 8.311299e+00 7.462708e+00 1.097022e-04 4.487116e-01 7.622204e-01 1.022462e+00 8.809887e-01 1.424612e+00 1.529401e+00 1.453249e+00 1.642195e+00 1.606279e+00 1.636601e+00 1.289220e+00 1.073239e+00 8.256975e-04 3.432151e-01 3.931705e-01 6.210248e-01 3.681418e-01 5.885870e-01 5.817173e-01 5.323448e-01 6.175130e-01 4.844139e-01 4.766141e-01 4.307369e-01 3.300520e-01 6.834166e-04
<GCONST> 6.173326e+01
<STATE> 3
<NUMMIXES> 16
<MIXTURE> 1 8.106548e-02
<MEAN> 39
 -1.111821e+01 -1.178762e+01 -1.919892e+01 -1.147410e+01 4.204755e+00 -3.297400e+00 -9.158129e+00 -1.110632e+00 -2.154605e+00 7.656673e+00 -2.453730e+00 -2.966461e+00 5.278437e-01 -3.656788e-01 1.123891e+00 1.114152e+00 -3.228298e-01 -5.251729e-01 -3.268796e-02 6.879888e-01 -4.462517e-01 3.195189e-01 1.857964e-01 4.922935e-01 1.382600e-02 6.734198e-03 -4.066778e-01 9.014431e-01 1.478825e+00 8.386457e-01 -6.589345e-01 1.547121e-01 7.029105e-01 -9.725223e-02 -6.121995e-02 -1.007100e+00 2.000597e-01 2.370364e-01 -4.287011e-02
<VARIANCE> 39
 8.871343e+00 1.718590e+01 1.864463e+01 2.690029e+01 2.107759e+01 3.993241e+01 3.770640e+01 3.467469e+01 4.100094e+01 2.873469e+01 3.489580e+01 2.066403e+01 1.511912e-02 2.087567e+00 2.069653e+00 2.290923e+00 3.147782e+00 2.923513e+00 3.710789e+00 2.981772e+00 2.782173e+00 3.230689e+00 2.637436e+00 2.539340e+00 2.041397e+00 2.224591e-03 4.651949e-01 4.303071e-01 4.935925e-01 6.958752e-01 6.172582e-01 7.482093e-01 9.370638e-01 7.969318e-01 9.588535e-01 6.591316e-01 6.942891e-01 5.337200e-01 5.828348e-04
<GCONST> 9.927148e+01
<MIXTURE> 2 5.238793e-02
<MEAN> 39
 -1.970839e+01 -1.857946e+00 -4.520782e+00 6.520601e-01 -4.918485e-01 3.505536e-01 -1.043308e+00 1.021043e+00 2.583536e-01 9.996569e-01 -2.064943e-01 -1.630017e-02 -8.011708e-02 7.611671e-01 -1.683400e+00 -1.004930e+00 -1.593397e+00 -6.459075e-01 -5.149887e-02 -2.676252e-01 -1.024434e-01 -6.604093e-01 3.503672e-01 -1.688797e-01 -1.169229e-02 6.370823e-02 4.734302e-01 -7.773505e-01 -2.873008e-01 -9.050450e-01 -4.817355e-01 -9.201505e-01 -4.757522e-01 -4.007141e-02 -4.579864e-01 -1.832695e-02 -1.737400e-01 -1.050200e-01 7.021075e-02
<VARIANCE> 39
 2.144735e+00 4.835855e+00 4.969264e+00 7.393580e+00 8.519479e+00 8.554472e+00 1.084318e+01 1.192873e+01 1.104743e+01 9.575296e+00 8.071453e+00 7.496072e+00 2.937739e-03 2.360721e+00 5.884004e+00 5.075368e+00 5.764535e+00 4.784358e+00 4.202857e+00 3.850517e+00 3.933537e+00 3.903787e+00 3.041330e+00 2.432845e+00 1.678761e+00 8.410689e-03 4.580220e-01 5.061989e-01 6.082726e-01 4.827030e-01 6.029779e-01 5.521771e-01 6.143880e-01 5.873344e-01 5.643737e-01 3.767263e-01 3.442745e-01 2.772416e-01 8.197050e-04
<GCONST> 8.472453e+01
<MIXTURE> 3 6.160397e-02
<MEAN> 39
 -1.409823e+01 -5.995394e+00 -8.266326e+00 -2.063337e+00 -5.483178e-02 -1.144764e+00 -2.741257e+00 3.578979e-01 -1.244786e+00 1.044976e+00 -7.770835e-01 -4.677025e-01 1.842703e-01 1.619304e+00 -3.040205e+00 -2.304707e+00 -2.592667e+00 -5.793816e-01 -1.165065e+00 -9.482622e-01 1.282896e-01 -7.802260e-01 5.804937e-01 -5.354840e-01 -6.130745e-02 1.570456e-01 3.941700e-02 4.739510e-02 2.480668e-01 -3.916618e-01 -2.951678e-01 -6.132541e-01 -2.600268e-01 3.960484e-02 -2.065221e-01 -8.444794e-03 -1.153493e-01 -6.694397e-02 2.447669e-02
<VARIANCE> 39
 1.841599e+01 2.066964e+01 3.988623e+01 2.345033e+01 2.646479e+01 2.297270e+01 1.953088e+01 2.007692e+01 1.508236e+01 1.208273e+01 9.441421e+00 8.112581e+00 3.600542e-02 2.295275e+00 3.609051e+00 5.212170e+00 4.139946e+00 5.281929e+00 5.176102e+00 4.916114e+00 4.700240e+00 4.650970e+00 3.209779e+00 3.273673e+00 2.524482e+00 2.432045e-03 4.421689e-01 3.521465e-01 5.107314e-01 4.133958e-01 5.868759e-01 5.775698e-01 5.449763e-01 4.722119e-01 5.039679e-01 3.980405e-01 3.711008e-01 2.526491e-01 7.252037e-04
<GCONST> 9.643532e+01
<MIXTURE> 4 4.002929e-02
<MEAN> 39
 -1.445400e+01 -1.451654e+01 -1.568926e+01 -3.044150e+00 -2.954484e+00 -1.280992e+01 -3.236050e+00 1.430569e+00 -1.154269e+00 -1.101581e+00 -3.444886e+00 1.245088e+00 4.611560e-01 -4.020369e-01 -2.381231e-01 -9.514695e-01 -8.699635e-01 -4.469295e-01 -1.874273e+00 3.510042e-01 4.121415e-01 5.644041e-01 -3.015015e-01 -4.003279e-01 3.169864e-01 1.128664e-01 -5.732533e-01 1.613166e+00 1.440060e+00 6.568691e-02 4.910943e-02 9.585502e-01 2.526067e-01 -1.814056e-01 -1.524131e-01 6.489185e-02 1.912210e-01 -2.421807e-01 -3.446196e-02
<VARIANCE> 39
 8.831061e+00 1.045935e+01 1.964935e+01 1.343600e+01 2.449337e+01 1.630188e+01 2.553884e+01 1.922877e+01 2.552653e+01 1.941566e+01 1.622292e+01 1.284877e+01 1.929958e-02 3.261061e+00 2.870260e+00 2.898817e+00 2.007552e+00 2.386707e+00 2.956917e+00 2.436402e+00 1.909384e+00 2.139102e+00 1.796548e+00 2.111069e+00 1.553059e+00 4.138139e-03 5.261432e-01 3.959321e-01 4.600337e-01 4.383322e-01 6.467960e-01 5.684549e-01 5.595354e-01 4.864688e-01 6.910738e-01 5.305076e-01 4.734806e-01 4.187802e-01 7.644755e-04
<GCONST> 9.082873e+01
<MIXTURE> 5 7.898167e-02
<MEAN> 39
 -1.534297e+01 -1.753577e+01 -7.871744e+00 -4.766354e+00 -5.057688e+00 -7.777592e+00 -6.099232e+00 6.592187e+00 -5.946598e+00 -4.216644e-01 -2.972910e-01 1.538334e-01 4.287485e-01 1.162808e+00 -2.434722e+00 -3.987468e-01 -1.742506e+00 -1.693626e+00 -2.522808e+00 -8.339009e-01 1.371894e+00 -1.122575e+00 2.547964e-02 4.082102e-02 1.178430e-01 1.498794e-01 1.739043e-01 1.533045e+00 5.760771e-01 9.842881e-02 1.689616e-01 -3.670972e-02 9.348140e-02 -5.349761e-01 4.218726e-01 -4.126164e-02 -1.607209e-01 -1.741997e-01 -1.171694e-02
<VARIANCE> 39
 1.154974e+01 1.754066e+01 1.576533e+01 2.016799e+01 2.613783e+01 2.640688e+01 4.692543e+01 2.031449e+01 2.578418e+01 1.934262e+01 1.894131e+01 1.536915e+01 1.538106e-02 1.565810e+00 3.361392e+00 2.602394e+00 1.698385e+00 2.680620e+00 2.376174e+00 3.935558e+00 2.865529e+00 2.893628e+00 2.462755e+00 2.077305e+00 1.960679e+00 2.505323e-03 5.451353e-01 5.554810e-01 3.992968e-01 5.975645e-01 6.730520e-01 6.623308e-01 8.678882e-01 5.958505e-01 6.569386e-01 5.668617e-01 5.385780e-01 4.033703e-01 9.344495e-04
<GCONST> 9.507333e+01
<MIXTURE> 6 6.637985e-02
<MEAN> 39
 -1.956638e+01 -2.394153e+00 -5.197714e+00 -7.356212e-01 -1.296195e+00 1.966267e-01 -9.162945e-01 7.390344e-01 -3.536694e-02 9.593868e-01 1.251554e-01 2.671925e-01 -1.501536e-01 1.886795e+00 -2.488483e+00 -2.605944e+00 -2.101904e+00 5.533412e-01 -5.745999e-01 -1.072330e+00 4.015502e-01 -7.844762e-01 5.341161e-01 -4.113923e-01 -1.201197e-01 1.344917e-01 1.083431e+00 -8.563076e-01 -9.075633e-01 -8.840278e-01 1.799419e-01 -8.888019e-01 -1.005161e+00 3.526630e-02 -5.069680e-01 1.508526e-01 -3.764701e-01 -2.273112e-01 7.646412e-02
<VARIANCE> 39
 1.002032e+00 2.784931e+00 3.097515e+00 5.811724e+00 6.029531e+00 7.544988e+00 9.311306e+00 9.287560e+00 9.868825e+00 1.100521e+01 8.927929e+00 7.646438e+00 1.097022e-04 1.130121e+00 2.485751e+00 2.711967e+00 3.778779e+00 3.114787e+00 3.887872e+00 3.465601e+00 3.336226e+00 3.276867e+00 2.736325e+00 2.268743e+00 1.832484e+00 2.113928e-03 3.545253e-01 3.525467e-01 4.937286e-01 4.891266e-01 5.531973e-01 8.807295e-01 7.783154e-01 6.202326e-01 6.162474e-01 5.662846e-01 5.752149e-01 3.597021e-01 4.392511e-04
<GCONST> 7.411929e+01
<MIXTURE> 7 9.230228e-02
<MEAN> 39
 -1.438619e+01 -1.405935e+01 -1.089805e+01 -5.223090e+00 -5.091191e+00 -4.970306e+00 -5.206340e+00 -5.120931e-01 -1.177258e+00 6.797237e-01 -2.252843e+00 -7.241264e-01 3.475163e-01 -1.166915e+00 -1.296960e+00 -9.823917e-01 -9.958903e-01 3.790085e-01 -1.506458e-01 2.781454e-02 7.947120e-01 1.579060e+00 8.653070e-01 3.710855e-01 6.145911e-01 5.294065e-02 3.556038e-02 1.138318e+00 9.481897e-01 -6.654320e-02 -1.430730e-01 -3.604510e-01 1.177899e-01 -1.951846e-02 -5.209749e-01 -2.679954e-01 4.426822e-02 -1.284855e-01 1.192405e-02
<VARIANCE> 39
 1.813304e+01 4.008717e+01 4.363103e+01 3.679265e+01 5.139658e+01 4.893255e+01 4.688303e+01 4.016031e+01 3.627129e+01 3.140512e+01 2.548492e+01 1.746592e+01 2.469169e-02 4.476110e+00 7.077358e+00 5.982756e+00 4.605965e+00 5.606362e+00 4.992485e+00 4.737633e+00 5.772447e+00 4.429268e+00 4.359911e+00 3.555864e+00 3.084253e+00 5.337169e-03 6.997534e-01 9.672239e-01 8.074735e-01 8.561462e-01 1.344619e+00 9.748935e-01 9.634612e-01 9.935335e-01 7.972888e-01 8.026261e-01 8.467607e-01 4.748614e-01 1.221064e-03
<GCONST> 1.153895e+02
<MIXTURE> 8 6.134873e-02
<MEAN> 39
 -2.178585e+01 -7.588923e+00 -2.134324e+00 -4.907333e+00 -4.551592e+00 -1.516373e+00 5.771441e-01 6.334097e-01 -2.966749e+00 3.227732e+00 -5.729175e-01 -3.988740e-01 1.005998e-01 -3.063623e-01 -1.420208e+00 -4.546656e-01 -2.206939e+00 -8.142878e-01 1.645418e-01 1.975227e-02 -4.547460e-01 4.232227e-01 4.814259e-01 -3.203925e-01 1.682707e-01 6.971727e-02 9.161086e-01 2.683292e-01 1.056141e-01 -3.265060e-01 -4.260055e-01 -8.727727e-01 -5.453640e-01 -1.107034e-01 -3.137937e-01 -4.952146e-01 -1.676157e-01 -8.964416e-02 4.740167e-02
<VARIANCE> 39
 2.086310e+01 2.328142e+01 3.563041e+01 2.843496e+01 2.719835e+01 2.569868e+01 2.646257e+01 3.593184e+01 2.911201e+01 1.991262e+01 1.674026e+01 1.276006e+01 2.660437e-02 2.784312e+00 3.902993e+00 3.775736e+00 4.257273e+00 3.620386e+00 3.604727e+00 3.047665e+00 4.050199e+00 3.896850e+00 2.859369e+00 2.186558e+00 1.815885e+00 5.419151e-03 5.365660e-01 4.531217e-01 7.888778e-01 5.291587e-01 7.727179e-01 6.070237e-01 5.367661e-01 8.124779e-01 7.398049e-01 5.402106e-01 4.991761e-01 3.143857e-01 6.595100e-04
<GCONST> 1.011396e+02
<MIXTURE> 9 5.425822e-02
<MEAN> 39
 -1.168276e+01 -1.525766e+01 -1.818156e+01 -9.446735e+00 3.676998e+00 -4.793025e+00 -1.208434e+01 1.081971e+00 -2.896786e+00 5.774568e+00 -4.190733e+00 -3.173895e+00 4.882052e-01 1.219689e+00 -1.414331e+00 -2.121959e+00 -2.309057e+00 5.565134e-01 -8.549475e-01 -1.501193e+00 -4.298684e-02 5.636743e-02 1.684202e+00 -3.917850e-01 -6.651000e-01 1.346196e-01 -4.527026e-01 1.397218e+00 1.557907e+00 6.100270e-01 -7.025852e-01 1.065095e-01 9.666981e-01 -2.813547e-01 1.420621e-02 -6.665024e-01 4.547310e-01 2.282193e-01 -3.629724e-02
<VARIANCE> 39
 9.709992e+00 1.273018e+01 1.556706e+01 1.844864e+01 2.160611e+01 3.139102e+01 2.860341e+01 3.408009e+01 2.790215e+01 2.571593e+01 2.354406e+01 1.804009e+01 1.698014e-02 1.951882e+00 1.669128e+00 2.510810e+00 2.203324e+00 2.512197e+00 3.127180e+00 2.933464e+00 2.829232e+00 2.847351e+00 2.518911e+00 2.665905e+00 1.733770e+00 1.987716e-03 6.744484e-01 3.543507e-01 4.269866e-01 6.322969e-01 6.653793e-01 8.082998e-01 7.876249e-01 8.740970e-01 8.319760e-01 6.628214e-01 6.044694e-01 5.684743e-01 1.027925e-03
<GCONST> 9.617937e+01
<MIXTURE> 10 7.359517e-02
<MEAN> 39
 -1.803512e+01 -1.549303e+01 -3.267050e+00 -7.623285e+00 -8.074533e+00 -5.233116e+00 1.925220e+00 -1.707395e+00 -5.798868e+00 4.559013e+00 -2.661472e+00 -5.183748e-01 4.240526e-01 5.168876e-01 -2.237994e+00 3.936070e-01 -2.969615e+00 -2.608039e+00 -1.476204e+00 3.245291e-01 -8.834835e-01 -9.688977e-01 1.150331e+00 -7.550225e-01 2.866374e-02 1.582117e-01 4.176425e-01 1.423530e+00 4.136327e-01 1.882887e-01 -2.969423e-02 -3.262297e-01 -4.418598e-01 1.791683e-01 5.202615e-02 -6.016231e-01 7.497402e-02 -1.873673e-02 -7.732260e-03
<VARIANCE> 39
 8.465969e+00 1.416905e+01 1.744039e+01 1.928466e+01 2.061401e+01 3.258470e+01 2.699485e+01 2.807475e+01 2.446390e+01 1.670514e+01 1.628121e+01 1.553116e+01 1.552623e-02 1.495733e+00 3.573206e+00 2.185467e+00 2.432014e+00 2.172519e+00 3.353297e+00 3.039793e+00 3.096458e+00 2.965653e+00 2.521667e+00 2.052144e+00 1.816123e+00 2.364685e-03 4.600768e-01 3.976418e-01 5.770771e-01 4.530647e-01 6.489252e-01 7.434458e-01 5.889131e-01 6.551189e-01 7.360007e-01 5.565189e-01 5.030131e-01 4.431387e-01 8.343122e-04
<GCONST> 9.345443e+01
<MIXTURE> 11 4.823155e-02
<MEAN> 39
 -1.950532e+01 -2.531279e+00 -5.134693e+00 -7.584389e-01 -1.566175e+00 -4.191899e-01 -1.431623e+00 3.076761e-01 -6.313976e-01 5.914851e-01 -6.605543e-01 -4.218933e-01 -1.497273e-01 1.591654e+00 -3.641515e+00 -2.106135e+00 -1.926049e+00 -1.231028e-01 -2.100949e+00 -8.098573e-01 2.629931e-01 -7.097070e-01 5.289499e-01 -8.725105e-01 2.667800e-01 1.818104e-01 3.454838e-01 -3.522732e-01 -2.598140e-01 -4.207762e-01 -9.453916e-02 -6.771351e-01 -2.238386e-01 4.641290e-02 -1.411575e-01 8.328740e-02 -1.771456e-01 3.961860e-02 4.429986e-02
<VARIANCE> 39
 1.068127e+00 2.983150e+00 2.945272e+00 5.169042e+00 7.349456e+00 7.391078e+00 8.242094e+00 9.009373e+00 9.497179e+00 8.991966e+00 7.550262e+00 7.415084e+00 1.097022e-04 1.599417e+00 1.894335e+00 4.489616e+00 3.056863e+00 4.408922e+00 4.164353e+00 4.436561e+00 4.203564e+00 3.610770e+00 3.029908e+00 2.623784e+00 2.285487e+00 1.565266e-03 1.664540e-01 2.044454e-01 2.245370e-01 2.097930e-01 2.682486e-01 3.788300e-01 3.905301e-01 3.256913e-01 3.392952e-01 3.352071e-01 2.644057e-01 2.472782e-01 1.841106e-04
<GCONST> 6.621792e+01
<MIXTURE> 12 6.371736e-02
<MEAN> 39
 -2.051352e+01 -1.215100e+01 -9.534704e+00 1.869017e-01 4.782038e+00 -3.832792e+00 -5.117314e+00 2.522642e+00 -2.163887e-01 2.037628e-01 -1.868624e+00 -2.040106e-01 1.813399e-01 1.184323e+00 -1.540492e+00 -1.863958e+00 -2.069835e+00 -5.202035e-01 -3.046456e-01 -2.944134e-01 -2.417885e-01 -1.924859e-01 6.352462e-01 -2.393351e-01 -1.017095e-01 8.498693e-02 1.104881e+00 7.558770e-01 3.895674e-01 -1.060424e+00 -1.259701e+00 -5.039873e-01 -1.801836e-01 -3.730243e-01 -5.629538e-01 1.148970e-02 -9.296737e-03 -2.387047e-01 4.152625e-02
<VARIANCE> 39
 2.403101e+01 3.331409e+01 4.354308e+01 6.489188e+01 4.890636e+01 5.641715e+01 6.228011e+01 4.249937e+01 4.320713e+01 3.403505e+01 2.771112e+01 2.231496e+01 3.534142e-02 3.126060e+00 5.318306e+00 4.669425e+00 5.431487e+00 5.684190e+00 5.793384e+00 5.119507e+00 4.027643e+00 4.538159e+00 3.723215e+00 2.967699e+00 2.765461e+00 5.377183e-03 5.877773e-01 7.754161e-01 9.849032e-01 1.412744e+00 1.063173e+00 1.260500e+00 1.246429e+00 9.382524e-01 1.288698e+00 8.397948e-01 8.339664e-01 6.612946e-01 8.714887e-04
<GCONST> 1.171944e+02
<MIXTURE> 13 8.015305e-02
<MEAN> 39
 -9.084021e+00 -9.700377e+00 -1.995972e+01 -1.451322e+01 6.760324e-01 2.060683e+00 -4.969119e+00 -1.468196e+00 -6.729747e+00 2.365106e+00 -2.680511e-01 -1.095256e+00 4.414009e-01 2.232174e+00 -9.817815e-01 -2.771912e+00 -3.616723e+00 -4.247347e-01 3.838543e-01 -4.821794e-01 -3.537911e-02 -1.332762e+00 6.252840e-01 3.324994e-01 -5.944890e-03 1.392911e-01 -5.915096e-01 6.096932e-01 1.531737e+00 1.064811e+00 -2.736014e-01 -5.524763e-01 2.115943e-02 -4.783301e-02 4.353307e-01 -2.664162e-01 -3.673997e-02 -1.724796e-03 -2.475928e-02
<VARIANCE> 39
 1.267560e+01 3.031676e+01 2.084420e+01 4.358004e+01 4.252279e+01 3.602847e+01 4.364595e+01 4.031528e+01 4.451971e+01 2.397558e+01 2.465722e+01 2.098589e+01 1.852059e-02 2.015402e+00 2.817900e+00 3.487384e+00 4.429284e+00 4.063879e+00 3.328838e+00 4.252481e+00 4.302324e+00 4.474145e+00 3.161393e+00 2.908904e+00 2.277152e+00 2.852862e-03 5.859844e-01 5.723389e-01 6.406612e-01 9.903157e-01 1.066578e+00 8.200626e-01 9.258826e-01 9.920777e-01 1.006315e+00 6.654673e-01 6.031160e-01 5.417390e-01 9.165051e-04
<GCONST> 1.068658e+02
<MIXTURE> 14 4.762392e-02
<MEAN> 39
 -1.230574e+01 -1.387568e+01 -1.425581e+01 -4.656336e+00 4.824142e+00 -5.719283e+00 -7.064514e+00 2.745161e+00 -1.492890e+00 3.221811e+00 -3.966458e+00 -5.052251e-01 4.391408e-01 2.007947e+00 -3.453232e+00 -3.417487e+00 -2.381091e+00 1.069555e+00 -2.337531e+00 -2.235216e+00 4.991426e-01 -2.104725e-01 1.206235e+00 -1.475033e+00 -2.911305e-01 1.935248e-01 -8.158938e-02 9.665992e-01 6.970046e-01 -2.617973e-02 -5.766305e-01 -3.886264e-02 1.327122e-01 -2.620590e-01 -1.478339e-02 -1.238066e-01 1.552905e-01 -1.523563e-01 -1.154680e-02
<VARIANCE> 39
 1.087222e+01 1.400532e+01 1.848654e+01 2.179838e+01 2.040122e+01 2.996823e+01 2.941516e+01 2.487820e+01 1.903003e+01 1.826231e+01 1.795132e+01 1.764557e+01 1.461103e-02 8.624332e-01 1.587210e+00 2.081939e+00 2.257195e+00 2.277689e+00 3.414730e+00 3.852882e+00 3.723186e+00 3.173592e+00 3.351695e+00 2.866745e+00 2.669618e+00 1.332382e-03 4.309436e-01 3.116804e-01 3.356451e-01 3.946820e-01 5.252954e-01 5.455017e-01 5.311069e-01 4.707716e-01 5.041861e-01 3.789138e-01 4.699576e-01 4.265727e-01 5.471742e-04
<GCONST> 9.001269e+01
<MIXTURE> 15 4.093109e-02
<MEAN> 39
 -1.346036e+01 -1.847444e+01 -1.291393e+01 -7.725881e+00 1.096176e+00 -1.392543e+01 -5.233243e+00 4.476624e+00 -2.537958e+00 1.704478e+00 -6.658777e+00 2.766065e+00 5.279518e-01 1.100896e+00 -1.483510e+00 -9.185771e-01 -1.356580e+00 -1.719097e-01 -2.671755e+00 -7.098474e-01 8.505632e-01 1.164654e-01 2.618273e-01 -1.149706e+00 3.643509e-01 1.245890e-01 -1.516730e-01 1.822150e+00 9.928946e-01 6.071571e-01 -4.380971e-01 1.110327e+00 1.724131e-01 -6.680837e-01 2.357509e-02 -2.920921e-01 4.966578e-01 -5.991694e-01 -4.787765e-02
<VARIANCE> 39
 6.572051e+00 9.008355e+00 1.611825e+01 1.258256e+01 2.280911e+01 2.193190e+01 5.083923e+01 2.781088e+01 3.145023e+01 2.164902e+01 2.062247e+01 2.280043e+01 1.174830e-02 9.803308e-01 2.235196e+00 1.856141e+00 1.414800e+00 2.587424e+00 2.700478e+00 2.934124e+00 2.813934e+00 2.760653e+00 2.150928e+00 1.866876e+00 1.933350e+00 3.134493e-03 3.496653e-01 3.560954e-01 3.735285e-01 4.446789e-01 7.237067e-01 5.923291e-01 1.149155e+00 8.406677e-01 8.407952e-01 4.791449e-01 6.046916e-01 6.061662e-01 5.278313e-04
<GCONST> 9.165712e+01
<MIXTURE> 16 5.736593e-02
<MEAN> 39
 -1.957658e+01 -2.473411e+00 -4.947941e+00 -6.681614e-01 -1.388477e+00 5.575055e-01 -6.559405e-01 7.076178e-01 2.816150e-01 1.473390e+00 1.141024e-01 -1.241185e-02 -1.499792e-01 1.336734e-01 -3.434163e+00 6.828717e-02 -2.510406e+00 -1.585378e+00 -9.891770e-01 3.621653e-01 -4.026306e-01 -3.937270e-01 5.937776e-01 -5.090553e-01 3.111980e-01 1.451491e-01 4.234157e-01 -4.641420e-01 3.685696e-01 -8.974302e-01 -9.251332e-01 -1.070479e+00 -1.402565e-01 -3.816936e-01 -6.954556e-01 -7.156795e-02 -3.733308e-01 -5.679826e-02 6.947518e-02
<VARIANCE> 39
 8.637307e-01 3.072300e+00 3.664830e+00 5.007839e+00 6.394361e+00 7.532630e+00 8.309942e+00 8.684678e+00 8.211531e+00 9.024087e+00 8.411499e+00 7.038682e+00 1.097022e-04 1.073093e+00 2.069985e+00 1.917310e+00 3.287736e+00 2.426748e+00 3.206234e+00 2.794782e+00 3.568123e+00 3.704164e+00 2.413861e+00 2.099653e+00 1.941809e+00 2.082559e-03 2.735735e-01 4.469007e-01 3.873765e-01 3.754956e-01 4.935133e-01 5.746634e-01 4.801168e-01 6.450836e-01 5.145063e-01 4.363972e-01 3.641782e-01 2.981975e-01 4.844034e-04
<GCONST> 6.958970e+01
<STATE> 4
<NUMMIXES> 16
<MIXTURE> 1 4.422908e-02
<MEAN> 39
 -2.212782e+01 -7.360108e+00 -9.791419e+00 -5.039160e+00 -1.360301e+00 -1.091641e+01 -2.740429e+00 3.220958e+00 6.746929e-01 -7.984076e-01 -1.544102e+00 4.451332e-01 5.202404e-01 -3.772442e+00 2.739991e+00 1.664498e+00 -3.028932e-01 3.832360e-01 -2.822250e-01 1.408370e+00 4.373438e-01 4.907081e-01 -6.142865e-01 2.171328e-01 6.029940e-01 5.785583e-02 8.634717e-02 6.546829e-01 5.414968e-01 1.698532e-01 -4.402581e-02 6.958156e-01 8.967760e-02 -2.541571e-01 -5.249959e-01 -5.585889e-02 8.701367e-03 -1.113466e-01 -2.185772e-02
<VARIANCE> 39
 2.024365e+01 1.676929e+01 3.503726e+01 2.353916e+01 3.389709e+01 2.654493e+01 3.196414e+01 2.433946e+01 2.020149e+01 2.160836e+01 1.675908e+01 1.242491e+01 1.593737e-02 1.766258e+00 2.582673e+00 2.701951e+00 2.328673e+00 2.883982e+00 3.336477e+00 2.700494e+00 2.551388e+00 2.515424e+00 2.132819e+00 1.922269e+00 1.859770e+00 2.579248e-03 5.576342e-01 4.499137e-01 6.072781e-01 4.078796e-01 4.724770e-01 5.181296e-01 5.554658e-01 5.275465e-01 4.634882e-01 4.666740e-01 4.096684e-01 3.455605e-01 4.203806e-04
<GCONST> 9.282813e+01
<MIXTURE> 2 5.702300e-02
<MEAN> 39
 -9.888710e+00 -6.833616e+00 -1.185661e+01 -1.007546e+01 2.105243e+00 1.425953e-01 -4.168913e+00 -2.174763e+00 -3.310508e+00 2.580205e+00 -5.409333e-01 -3.571232e+00 4.624507e-01 3.733706e+00 9.757004e-01 3.069010e-01 -1.803701e+00 -2.442120e+00 6.328789e-01 3.549835e-01 -9.683237e-01 -9.006923e-01 -1.185506e+00 8.573272e-01 -3.441318e-01 8.751421e-02 4.930876e-01 -5.325812e-01 -3.031696e-01 -6.035081e-01 -7.846370e-01 -1.419266e-01 -3.979250e-01 6.591154e-02 7.177071e-03 -6.282418e-02 1.108286e-01 1.100842e-01 2.585747e-02
<VARIANCE> 39
 1.420903e+01 2.275047e+01 1.448904e+01 2.951760e+01 2.147603e+01 2.610457e+01 3.111616e+01 2.299758e+01 3.045868e+01 2.364899e+01 2.726840e+01 2.056525e+01 2.025504e-02 1.112316e+00 2.192533e+00 3.490016e+00 3.886586e+00 3.740833e+00 4.764929e+00 5.318958e+00 4.659575e+00 3.939539e+00 3.865051e+00 3.451275e+00 2.922528e+00 1.152657e-03 2.838420e-01 3.142307e-01 3.909594e-01 4.655627e-01 3.938442e-01 5.701225e-01 5.640409e-01 5.334119e-01 5.468772e-01 5.587296e-01 5.499295e-01 4.276983e-01 2.823597e-04
<GCONST> 9.566350e+01
<MIXTURE> 3 9.701002e-02
<MEAN> 39
 -2.042815e+01 -7.549150e+00 -1.807560e+00 -1.398094e+01 -9.068438e+00 -3.202463e+00 -8.698200e-01 -3.120198e+00 -1.132031e+00 3.296368e+00 -2.712648e+00 6.513298e-01 4.962369e-01 2.851908e-01 2.165898e+00 1.130358e+00 2.496684e-01 1.192410e-01 -1.298070e-02 4.781642e-01 1.466784e-01 9.692603e-02 -6.653528e-01 2.490624e-01 8.968818e-02 -1.891352e-03 6.369907e-01 1.908499e-01 2.664184e-01 1.023312e+00 1.833116e-01 -5.559228e-02 6.660809e-02 2.032045e-01 -4.495469e-01 -5.236927e-01 6.675671e-02 -2.223291e-01 -2.462797e-02
<VARIANCE> 39
 8.853771e+00 1.359911e+01 1.372180e+01 2.039008e+01 2.018379e+01 1.832814e+01 2.564215e+01 2.075508e+01 2.848774e+01 2.281660e+01 1.454279e+01 1.198651e+01 1.430512e-02 1.362190e+00 2.339158e+00 1.762863e+00 2.102063e+00 2.037624e+00 2.271330e+00 2.295545e+00 2.276565e+00 2.348486e+00 2.109991e+00 1.755129e+00 1.589887e+00 1.086112e-03 2.823454e-01 5.106621e-01 3.572238e-01 4.551030e-01 4.650456e-01 4.606871e-01 5.418125e-01 5.687110e-01 6.257908e-01 5.590056e-01 4.222806e-01 3.325644e-01 4.777460e-04
<GCONST> 8.600823e+01
<MIXTURE> 4 6.659220e-02
<MEAN> 39
 -1.576558e+01 -7.985440e+00 -1.087693e+01 -1.317512e+01 -2.790392e+00 4.033611e-03 -6.580595e-01 -1.845270e+00 -4.216122e+00 1.382377e+00 -1.027981e+00 -3.270164e-01 3.409563e-01 1.918126e+00 1.398850e+00 1.327763e+00 -2.462860e-01 -1.381084e+00 -3.939762e-01 9.110261e-02 -2.039284e-01 -2.677450e-01 -1.207173e+00 -2.735012e-01 -1.391728e-01 3.083719e-02 1.268066e+00 2.500613e-02 4.132072e-03 -9.921335e-02 -4.474373e-01 -3.359113e-01 -7.569541e-01 6.485175e-02 -1.688916e-01 -1.481376e-01 1.630406e-01 -2.341619e-01 3.310907e-02
<VARIANCE> 39
 1.940271e+01 2.042821e+01 5.231422e+01 2.918246e+01 4.229489e+01 4.576251e+01 2.727863e+01 2.745306e+01 2.834619e+01 3.058760e+01 2.326241e+01 1.874034e+01 1.616181e-02 2.664342e+00 2.128224e+00 2.484427e+00 3.566959e+00 2.711545e+00 3.103358e+00 3.879220e+00 2.893460e+00 3.462282e+00 2.964682e+00 2.493951e+00 1.760144e+00 2.413238e-03 2.643301e-01 4.385658e-01 5.534081e-01 6.255785e-01 7.126256e-01 8.917086e-01 7.360986e-01 7.248033e-01 7.578800e-01 9.212461e-01 7.036917e-01 4.588849e-01 3.247714e-04
<GCONST> 1.003216e+02
<MIXTURE> 5 5.028881e-02
<MEAN> 39
 -1.832992e+01 -1.515353e+01 -3.839421e+00 -1.210624e+01 -1.136511e+01 -5.417022e+00 -6.063603e-01 -2.947111e+00 -5.769407e+00 5.329223e+00 -3.736613e+00 -1.122270e+00 4.960345e-01 -1.247806e-01 5.681462e-01 6.394158e-01 -1.951710e+00 -1.294792e+00 -7.335001e-01 3.864131e-02 -3.926367e-01 4.574249e-02 3.911539e-01 -2.468911e-01 2.962820e-01 8.372827e-02 1.841934e-01 1.643075e+00 4.576338e-01 1.168659e+00 7.993696e-01 1.992844e-01 1.115442e-02 3.873451e-01 2.688097e-01 -8.312547e-01 3.381636e-01 5.799760e-02 -4.565531e-02
<VARIANCE> 39
 6.539146e+00 1.501699e+01 1.233979e+01 1.757686e+01 1.517734e+01 2.300744e+01 2.989504e+01 2.575889e+01 2.735131e+01 1.913439e+01 1.730878e+01 1.648275e+01 1.395411e-02 1.274069e+00 3.220712e+00 1.524134e+00 1.993641e+00 2.030673e+00 2.038330e+00 1.908677e+00 1.916003e+00 2.143977e+00 2.094155e+00 1.505876e+00 1.278603e+00 3.694634e-03 3.063402e-01 4.478934e-01 3.820408e-01 4.155446e-01 4.718848e-01 5.737639e-01 6.281536e-01 6.471366e-01 7.219759e-01 6.181453e-01 4.807947e-01 5.395575e-01 4.720714e-04
<GCONST> 8.773606e+01
<MIXTURE> 6 8.059405e-02
<MEAN> 39
 -1.208632e+01 -5.302397e+00 3.140385e+00 -6.725701e+00 -1.146300e+01 -8.701536e+00 1.425330e-01 1.123421e-01 -6.961008e+00 -1.174846e-01 -1.666735e+00 -1.382484e+00 5.356401e-01 3.572889e+00 -1.646191e-01 1.133737e+00 3.298896e-01 -2.342639e+00 -1.740336e+00 -1.530105e+00 9.242634e-01 -5.379518e-01 -1.901344e+00 7.437639e-01 -6.293474e-01 8.127815e-02 3.784531e-02 -8.593395e-01 -6.606843e-01 -2.641162e-01 -2.658135e-02 1.355042e-01 -6.089980e-01 1.824455e-01 3.450890e-01 5.275105e-03 9.970551e-02 -4.878341e-02 4.613467e-03
<VARIANCE> 39
 1.732952e+01 1.490351e+01 2.229058e+01 1.832435e+01 2.214083e+01 3.471545e+01 3.575927e+01 3.462752e+01 2.354699e+01 2.012126e+01 1.497513e+01 1.325204e+01 1.767829e-02 1.074646e+00 3.316295e+00 3.929595e+00 3.248490e+00 3.686746e+00 4.208937e+00 4.931377e+00 4.977758e+00 5.121187e+00 4.127462e+00 2.989533e+00 2.880680e+00 1.236269e-03 2.913130e-01 3.673646e-01 3.105761e-01 3.571596e-01 4.881872e-01 5.276247e-01 4.767204e-01 5.338529e-01 5.053362e-01 4.361232e-01 3.925745e-01 3.179749e-01 4.393458e-04
<GCONST> 9.421229e+01
<MIXTURE> 7 5.837374e-02
<MEAN> 39
 -1.375607e+01 -1.113091e+01 -1.082883e+01 -5.484672e+00 6.056987e-02 -1.137987e+01 -6.895175e+00 5.214836e+00 6.809195e-01 3.024144e+00 -5.588367e+00 4.204451e-01 4.927540e-01 2.365576e-01 1.402526e+00 1.326810e+00 3.999459e-01 2.449181e-01 7.258137e-01 4.761450e-01 -8.728268e-01 5.952784e-01 -4.528619e-01 7.720487e-02 -6.709967e-01 -1.111929e-02 2.647740e-01 2.650685e-01 2.244965e-01 2.733256e-02 -5.055997e-02 9.408564e-01 2.818680e-01 -7.210184e-01 -4.317374e-01 -4.096816e-01 3.506878e-01 -3.854746e-01 -1.747828e-02
<VARIANCE> 39
 5.482674e+00 8.337225e+00 1.723228e+01 1.242765e+01 2.413175e+01 2.297479e+01 3.658498e+01 2.210176e+01 1.705924e+01 2.214673e+01 2.027013e+01 2.145015e+01 1.380291e-02 1.230780e+00 1.555195e+00 1.721154e+00 1.977251e+00 3.103707e+00 2.927269e+00 2.800332e+00 2.607604e+00 2.632001e+00 2.599802e+00 2.442636e+00 2.650303e+00 1.264896e-03 3.032838e-01 3.951538e-01 4.330773e-01 3.588478e-01 5.905480e-01 5.454598e-01 6.255834e-01 5.373000e-01 5.690121e-01 4.774683e-01 4.706879e-01 4.973108e-01 4.864875e-04
<GCONST> 8.820293e+01
<MIXTURE> 8 4.466826e-02
<MEAN> 39
 -1.327540e+01 -6.693395e+00 -3.021426e+00 -1.032125e+01 -5.064789e+00 -5.436849e+00 5.692164e-02 -6.817997e+00 -6.463533e+00 -4.182737e+00 -8.420764e+00 -2.010233e+00 5.105532e-01 3.167047e+00 -1.447704e-01 -5.290878e-01 -2.044200e+00 -2.359850e+00 -1.521055e+00 -1.720934e+00 -1.712079e+00 -3.129295e+00 -1.564745e+00 -2.526434e+00 -1.678949e+00 7.791239e-02 3.028839e-01 -6.246400e-01 -6.795795e-01 -4.749491e-01 -2.867324e-01 -2.908940e-01 -3.247431e-01 6.799526e-01 2.612751e-01 5.297225e-01 2.028302e-01 1.144429e-01 1.872255e-02
<VARIANCE> 39
 1.825076e+01 3.361154e+01 4.564894e+01 3.839374e+01 5.992597e+01 4.686996e+01 5.114592e+01 3.448227e+01 3.553107e+01 2.639944e+01 2.589743e+01 2.263245e+01 1.411784e-02 9.101001e-01 2.341220e+00 3.295256e+00 2.954170e+00 3.650486e+00 4.376496e+00 3.930108e+00 3.818314e+00 3.921093e+00 3.688513e+00 2.693130e+00 2.442500e+00 9.605243e-04 2.076327e-01 4.092069e-01 3.485794e-01 4.310873e-01 5.486474e-01 5.597543e-01 6.466482e-01 5.838077e-01 6.923290e-01 4.960971e-01 5.383849e-01 4.998930e-01 2.553011e-04
<GCONST> 9.888697e+01
<MIXTURE> 9 6.645785e-02
<MEAN> 39
 -1.388822e+01 -1.219822e+01 -1.334615e+01 -7.960112e+00 1.461289e+00 -3.136317e+00 -7.838098e+00 -3.961235e+00 -1.435620e+00 4.190566e+00 -4.498521e-01 -2.248545e+00 4.667102e-01 2.571439e-01 5.398270e-01 1.030280e+00 2.109713e-01 -3.957223e-01 1.376745e-01 7.124292e-01 -6.531926e-01 4.752731e-02 -9.019755e-01 3.251373e-01 1.552848e-02 -5.920524e-03 8.725591e-01 2.461294e-01 -7.479705e-02 -2.371618e-01 -3.868254e-01 4.822024e-02 2.975529e-02 4.012248e-01 -2.740424e-01 -3.871640e-01 -1.473405e-01 9.461407e-02 9.888032e-03
<VARIANCE> 39
 9.803045e+00 1.475036e+01 1.013625e+01 1.969238e+01 2.163252e+01 2.731197e+01 2.328258e+01 1.737311e+01 2.352662e+01 2.024950e+01 2.101167e+01 1.530063e+01 1.328857e-02 2.512915e+00 1.569445e+00 2.022239e+00 3.045542e+00 2.187593e+00 3.928446e+00 3.475845e+00 2.915375e+00 3.189162e+00 2.709243e+00 2.437448e+00 2.206082e+00 1.104631e-03 4.198648e-01 3.034324e-01 3.157757e-01 4.399720e-01 5.488690e-01 5.573015e-01 5.753994e-01 4.863878e-01 5.160232e-01 5.005935e-01 4.748632e-01 3.793297e-01 3.750873e-04
<GCONST> 8.918916e+01
<MIXTURE> 10 8.301163e-02
<MEAN> 39
 -1.360059e+01 -1.009777e+01 -4.330228e+00 -3.536744e+00 -4.040723e+00 -1.036318e+01 -1.531832e+00 5.136947e+00 -2.741751e+00 -2.362045e+00 -3.206159e+00 6.205549e-01 4.596323e-01 2.088212e+00 3.033698e-01 3.553788e-02 6.003722e-02 6.589292e-01 5.052746e-01 -5.288816e-01 -4.282405e-01 4.641237e-01 -1.281329e+00 -7.571793e-01 -8.744932e-01 2.959368e-02 5.681363e-01 -5.131143e-01 -6.632441e-01 -5.225621e-01 -1.662512e-01 2.548043e-01 -5.596430e-01 -4.203498e-01 -1.029831e-01 2.267763e-01 1.826608e-02 -3.973950e-01 1.773829e-02
<VARIANCE> 39
 1.054718e+01 1.183031e+01 1.350567e+01 1.230604e+01 2.473180e+01 2.400416e+01 3.966961e+01 1.988803e+01 2.269622e+01 1.927021e+01 1.987116e+01 1.632703e+01 1.504461e-02 2.491498e+00 2.449616e+00 2.895592e+00 2.545544e+00 3.323998e+00 3.537648e+00 3.961572e+00 3.610834e+00 3.959729e+00 2.945964e+00 2.781832e+00 2.640703e+00 2.007750e-03 2.583861e-01 3.793949e-01 3.186261e-01 3.843694e-01 5.114563e-01 5.489467e-01 5.791636e-01 5.490329e-01 5.391223e-01 5.110207e-01 5.384541e-01 3.956544e-01 3.003896e-04
<GCONST> 9.172742e+01
<MIXTURE> 11 7.224721e-02
<MEAN> 39
 -1.513819e+01 -1.425591e+01 -7.601599e+00 -6.902705e+00 -7.248840e+00 -1.071433e+01 -3.466247e+00 5.650076e+00 -5.769528e+00 1.844818e+00 -4.177429e-01 3.454840e-01 5.082779e-01 6.753728e-01 2.129961e+00 1.318233e+00 1.871970e-02 -5.280924e-01 -7.483714e-01 1.824871e-01 -6.762891e-02 5.731957e-01 -3.655089e-01 -1.785514e-01 -7.732973e-02 1.325288e-02 2.982307e-01 1.073739e+00 4.264053e-01 6.006716e-01 4.957902e-01 7.005326e-01 -2.997605e-02 -5.758398e-01 4.549987e-01 -4.879241e-01 -2.079404e-01 -2.301777e-01 -3.317056e-02
<VARIANCE> 39
 7.284390e+00 1.314734e+01 1.766921e+01 1.241926e+01 2.121564e+01 2.227927e+01 5.586332e+01 2.700282e+01 2.747106e+01 2.407335e+01 2.168280e+01 1.731774e+01 1.527152e-02 2.317113e+00 1.935856e+00 2.176408e+00 2.315709e+00 3.211405e+00 2.851629e+00 3.301962e+00 2.773905e+00 3.183175e+00 2.760965e+00 2.209974e+00 1.656938e+00 2.070315e-03 4.060040e-01 5.447127e-01 4.349326e-01 3.978971e-01 5.508508e-01 6.135147e-01 1.029518e+00 7.217638e-01 6.821032e-01 6.383245e-01 5.723656e-01 5.156552e-01 5.495159e-04
<GCONST> 9.398416e+01
<MIXTURE> 12 5.232704e-02
<MEAN> 39
 -9.821629e+00 -6.545105e+00 -1.847092e+01 -1.728908e+01 -1.259085e+00 3.087725e+00 -2.730349e+00 8.420554e-01 -7.990734e+00 2.669388e+00 1.003389e+00 -1.415118e-01 4.637712e-01 -2.451926e-01 5.737107e-01 1.658770e+00 6.660188e-01 -1.002779e+00 -4.809099e-01 6.605300e-01 -4.366591e-01 5.572589e-01 -7.542545e-01 6.681811e-02 3.017386e-01 -4.197120e-03 -1.733376e-01 1.712775e-01 1.017255e+00 1.060661e+00 -1.445698e-01 -4.484673e-01 -1.440082e-01 -3.699515e-01 5.080355e-01 -3.140238e-01 -1.946366e-01 -1.453161e-01 -2.100638e-02
<VARIANCE> 39
 1.815004e+01 2.036860e+01 1.836627e+01 2.994625e+01 3.219689e+01 2.491463e+01 3.359307e+01 4.140602e+01 3.557088e+01 2.806975e+01 3.146056e+01 1.959599e+01 1.758727e-02 2.940676e+00 2.759383e+00 2.341019e+00 4.122629e+00 3.250157e+00 3.417849e+00 3.693039e+00 3.577081e+00 3.860404e+00 3.125540e+00 2.659044e+00 2.248185e+00 2.400036e-03 5.270953e-01 3.832610e-01 6.465565e-01 9.043127e-01 6.140961e-01 5.931174e-01 7.102188e-01 8.553801e-01 8.446067e-01 6.875106e-01 6.617274e-01 4.858069e-01 6.660827e-04
<GCONST> 1.020732e+02
<MIXTURE> 13 8.732660e-02
<MEAN> 39
 -2.069222e+01 -3.825750e+00 1.087571e+00 -1.343769e+01 -6.899519e+00 -1.482970e+00 1.918858e-01 -4.197296e+00 -7.349965e-01 7.569886e-01 -2.844982e+00 1.080929e+00 4.418708e-01 1.810085e+00 8.029187e-01 1.580847e+00 7.685808e-01 -1.174751e+00 -6.198677e-01 3.126391e-01 -3.254774e-01 -1.637801e+00 -1.133223e+00 -2.626470e-01 -7.175202e-01 1.258574e-02 8.740313e-01 -7.389678e-01 -6.463613e-02 1.161427e-01 -7.549431e-01 -5.615149e-01 -3.506714e-01 8.113033e-02 -6.447351e-01 -2.274028e-01 -1.075468e-01 -3.308355e-01 1.363333e-02
<VARIANCE> 39
 1.076024e+01 1.142763e+01 1.263792e+01 1.673371e+01 1.936054e+01 1.714583e+01 2.658546e+01 1.582975e+01 2.042403e+01 1.873158e+01 1.445875e+01 1.103037e+01 1.130542e-02 1.985518e+00 2.657753e+00 2.068305e+00 2.231148e+00 2.848711e+00 2.810710e+00 3.176888e+00 3.398712e+00 3.059100e+00 2.375734e+00 2.564246e+00 1.802582e+00 1.398343e-03 2.389799e-01 4.083670e-01 5.202206e-01 4.794901e-01 5.024734e-01 4.798460e-01 5.161785e-01 6.386414e-01 5.668755e-01 4.624088e-01 6.133275e-01 3.403829e-01 3.137763e-04
<GCONST> 8.760093e+01
<MIXTURE> 14 4.368584e-02
<MEAN> 39
 -2.063071e+01 -1.251453e+01 -1.813401e+00 -1.541882e+01 -6.811033e+00 -2.018513e+00 -1.817683e+00 -5.175235e+00 1.229467e+00 9.187213e-01 -4.010374e+00 2.121113e+00 4.723534e-01 -1.738477e-01 -6.131437e-01 1.867047e-01 -3.769142e+00 -1.435608e+00 -7.495361e-01 -5.551769e-01 -9.808148e-01 6.050344e-01 -3.402052e-01 -5.438474e-01 4.279687e-01 1.435366e-01 3.721061e-01 1.441064e+00 2.009729e-01 1.100544e+00 3.691018e-02 -2.284886e-01 5.966726e-02 1.643975e-01 -6.346107e-01 -2.309506e-01 1.863528e-01 -4.075648e-01 -2.958606e-02
<VARIANCE> 39
 1.050855e+01 1.742060e+01 1.325440e+01 2.211428e+01 2.322452e+01 1.851211e+01 2.621794e+01 2.192250e+01 2.359692e+01 2.224621e+01 1.624790e+01 1.103174e+01 1.469722e-02 1.660109e+00 3.262636e+00 1.778724e+00 2.662331e+00 2.573045e+00 2.184351e+00 2.490769e+00 2.273664e+00 2.885112e+00 2.090477e+00 1.854313e+00 1.339426e+00 2.780759e-03 3.331132e-01 4.996711e-01 4.710645e-01 7.047111e-01 5.937268e-01 5.925125e-01 6.316689e-01 6.609488e-01 6.775203e-01 5.572993e-01 4.971117e-01 3.737928e-01 6.583313e-04
<GCONST> 9.094695e+01
<MIXTURE> 15 5.275652e-02
<MEAN> 39
 -1.162695e+01 -1.032799e+01 -1.203369e+01 -6.258169e+00 1.312506e+00 -7.686844e+00 -7.919356e+00 1.968220e-01 -1.748327e-02 3.347129e+00 -4.642042e+00 -2.503263e+00 4.712920e-01 3.080327e+00 1.598677e+00 1.189107e+00 -1.959516e+00 -2.249149e+00 -4.840143e-01 -1.041927e+00 -1.513910e+00 -1.324842e+00 -6.149145e-01 7.047787e-02 -1.014444e+00 8.006503e-02 3.331619e-01 2.335973e-01 4.015284e-01 -4.634352e-01 -7.447285e-01 4.145311e-01 1.043503e-01 -1.702524e-01 -4.834996e-01 -3.685338e-01 4.540264e-01 5.986132e-02 -1.972878e-03
<VARIANCE> 39
 1.443970e+01 2.310550e+01 4.071808e+01 2.914585e+01 3.344471e+01 3.933741e+01 3.812878e+01 4.333334e+01 3.222463e+01 3.791166e+01 3.466168e+01 2.541563e+01 2.053588e-02 1.376596e+00 2.883130e+00 4.054358e+00 5.943755e+00 4.429841e+00 6.992735e+00 5.122217e+00 4.888194e+00 5.103074e+00 4.155369e+00 5.831016e+00 3.289313e+00 2.541180e-03 3.396166e-01 5.847700e-01 8.873551e-01 7.740917e-01 7.365288e-01 1.024614e+00 7.938584e-01 9.274579e-01 9.038789e-01 8.622571e-01 8.954839e-01 7.074209e-01 6.425178e-04
<GCONST> 1.097733e+02
<MIXTURE> 16 4.337768e-02
<MEAN> 39
 -1.476350e+01 -1.056073e+01 -1.073679e+01 -6.315736e+00 2.930544e+00 -5.177351e+00 -2.259690e+00 -2.082151e-01 1.267398e+00 1.724236e+00 -3.289511e+00 -3.907782e-01 4.408542e-01 5.267445e-01 4.181051e-01 6.973892e-01 -5.099546e-01 -3.254145e-02 6.038786e-01 -9.711976e-02 -1.264073e+00 -1.206601e+00 -1.022206e+00 -4.500365e-01 -7.685073e-01 -7.150243e-03 9.735422e-01 -3.244801e-02 -4.572015e-01 -6.502210e-01 -7.024236e-01 -2.666454e-01 -5.488190e-01 -3.098139e-01 -8.496481e-01 -2.634188e-01 -3.742180e-01 -2.724305e-01 2.217033e-02
<VARIANCE> 39
 9.675575e+00 2.661875e+01 1.745913e+01 2.260149e+01 2.764332e+01 3.659607e+01 3.306087e+01 2.280596e+01 2.481921e+01 2.380738e+01 2.579145e+01 1.987517e+01 1.120438e-02 1.657679e+00 1.708923e+00 2.601511e+00 2.494424e+00 3.219293e+00 3.485760e+00 3.936903e+00 3.803600e+00 3.486964e+00 3.138671e+00 2.766869e+00 2.670739e+00 1.319928e-03 2.273444e-01 3.886310e-01 3.371133e-01 4.961872e-01 5.568498e-01 6.122966e-01 6.011911e-01 5.359721e-01 5.982204e-01 5.903699e-01 6.065455e-01 4.998109e-01 3.037381e-04
<GCONST> 9.392231e+01
<TRANSP> 5
 0.000000e+00 1.000000e+00 0.000000e+00 0.000000e+00 0.000000e+00
 0.000000e+00 6.628143e-01 3.371856e-01 0.000000e+00 0.000000e+00
 0.000000e+00 0.000000e+00 6.594622e-01 3.405379e-01 0.000000e+00
 0.000000e+00 0.000000e+00 0.000000e+00 7.257388e-01 2.742612e-01
 0.000000e+00 0.000000e+00 0.000000e+00 0.000000e+00 0.000000e+00
<ENDHMM>
