~o
<STREAMINFO> 1 39
<VECSIZE> 39<NULLD><MFCC_E_D_A><DIAGC>
~h "l"
<BEGINHMM>
<NUMSTATES> 5
<STATE> 2
<NUMMIXES> 16
<MIXTURE> 1 5.760244e-02
<MEAN> 39
 -2.224698e+00 -1.230024e+01 -1.076963e+01 -1.783699e+01 -7.881961e+00 -2.093330e-01 -1.237100e+01 -3.787098e+00 3.381354e+00 5.550928e+00 -6.530156e-01 -1.033198e+01 8.743832e-01 6.079142e-01 1.089503e+00 -9.630919e-01 -2.643494e+00 6.423930e-01 3.162647e+00 8.815050e-01 -2.544209e+00 -1.302697e+00 5.510253e-01 1.872474e+00 6.025721e-01 -2.252448e-03 2.679532e-02 3.222762e-01 4.696728e-01 -7.691589e-02 -4.860637e-01 -3.111358e-01 4.470675e-01 3.548833e-01 -6.410152e-01 -8.278584e-01 1.364184e-01 1.009361e+00 -5.671364e-03
<VARIANCE> 39
 7.180713e+00 2.461429e+01 3.154423e+01 3.269667e+01 3.093332e+01 4.412628e+01 5.370063e+01 5.067377e+01 4.895705e+01 3.870403e+01 4.349432e+01 2.761343e+01 9.190143e-03 3.353237e-01 7.443842e-01 9.587163e-01 1.362688e+00 1.425549e+00 1.962337e+00 1.789027e+00 1.847773e+00 1.918958e+00 2.201226e+00 1.775187e+00 1.947988e+00 1.426657e-04 5.739053e-02 1.232778e-01 1.861344e-01 2.205786e-01 2.557300e-01 3.825518e-01 2.974499e-01 3.628540e-01 4.340239e-01 3.854907e-01 3.351403e-01 2.371812e-01 3.072737e-05
<GCONST> 7.639163e+01
<MIXTURE> 2 4.902262e-02
<MEAN> 39
 -3.948787e+00 1.997951e+00 -7.178892e+00 -1.934850e+01 -8.342082e+00 -2.802037e-02 -2.701151e+00 -6.788007e+00 -5.699708e+00 -2.881427e+00 -1.192780e+00 -3.136268e-02 6.211251e-01 4.185610e+00 3.788832e-01 -5.269289e-01 -3.523251e+00 -2.178652e+00 1.573432e+00 -1.138932e+00 -1.310355e+00 -1.106881e+00 -6.165248e-01 7.885500e-01 -7.240743e-02 1.122733e-01 -7.702934e-01 -1.112267e+00 -3.586604e-01 3.510439e-01 3.432034e-01 1.061352e-01 -4.063661e-01 2.134006e-01 5.650089e-01 5.238386e-01 2.875481e-01 -3.001505e-01 -3.083904e-03
<VARIANCE> 39
 1.262493e+01 1.718960e+01 2.086903e+01 2.680389e+01 3.264477e+01 2.278327e+01 2.644353e+01 2.847216e+01 2.156255e+01 2.504019e+01 2.119933e+01 1.329328e+01 1.363723e-02 1.722968e+00 2.939548e+00 3.738305e+00 3.984135e+00 3.750858e+00 4.151596e+00 3.970975e+00 4.854209e+00 4.601252e+00 4.435895e+00 3.877443e+00 3.093741e+00 1.558315e-03 2.810873e-01 3.555173e-01 2.614783e-01 4.557216e-01 5.141127e-01 5.006120e-01 4.891817e-01 5.779713e-01 5.606472e-01 4.954002e-01 4.649814e-01 3.683315e-01 2.655620e-04
<GCONST> 9.499117e+01
<MIXTURE> 3 6.538132e-02
<MEAN> 39
 -6.281109e-01 -1.156743e+01 -1.395439e+01 -2.075399e+01 -8.124147e+00 5.658309e+00 -6.227862e+00 -7.456185e+00 1.408299e+00 2.166061e+00 2.673586e+00 -8.640791e+00 8.848950e-01 3.957235e-01 1.140358e+00 -2.305794e-01 -1.729148e+00 -3.329310e-01 1.489290e+00 9.723611e-01 -8.238542e-01 -1.170974e+00 -7.621832e-01 1.112986e+00 1.526603e+00 -4.907375e-03 -3.727431e-02 1.613527e-01 2.540078e-01 1.604725e-01 -2.265135e-01 -5.320086e-01 -7.365977e-02 4.915219e-01 -2.359712e-02 -3.484553e-01 -3.425873e-01 2.804693e-01 -4.120496e-03
<VARIANCE> 39
 5.905967e+00 2.192542e+01 3.169161e+01 3.205778e+01 3.060885e+01 4.199067e+01 5.443628e+01 5.012119e+01 5.165006e+01 4.463713e+01 4.263346e+01 2.928754e+01 7.560066e-03 2.120616e-01 6.323587e-01 6.205415e-01 1.051103e+00 1.030255e+00 1.357686e+00 1.617619e+00 1.364499e+00 1.461508e+00 1.607009e+00 1.209620e+00 1.288112e+00 1.060276e-04 3.399206e-02 7.685255e-02 9.635554e-02 1.520893e-01 1.399544e-01 2.312984e-01 2.060900e-01 2.671774e-01 1.971189e-01 2.136846e-01 2.270352e-01 1.524472e-01 1.906548e-05
<GCONST> 6.546027e+01
<MIXTURE> 4 6.079591e-02
<MEAN> 39
 -1.119554e+01 -1.181560e+00 -3.403861e+00 -1.055515e+01 -5.777126e+00 -3.146426e+00 -6.158584e+00 -9.620183e+00 -4.557487e+00 -1.049952e+00 -1.284625e+00 -2.256710e+00 4.792968e-01 2.819668e+00 1.255979e+00 -1.126925e-01 -2.975126e+00 -4.062878e-01 1.363060e+00 -1.310812e+00 -1.675837e+00 -1.246923e+00 -3.431821e-01 3.549728e-01 3.201052e-02 5.094449e-02 3.721457e-01 -3.586868e-01 -4.036765e-01 -5.212869e-01 2.670101e-02 -1.023493e-02 -4.590585e-01 6.282694e-01 1.094793e-01 5.925881e-02 -2.769431e-02 8.162047e-03 1.748397e-02
<VARIANCE> 39
 2.430002e+01 2.317341e+01 2.542237e+01 3.230949e+01 3.241260e+01 3.446388e+01 4.355281e+01 4.025731e+01 3.339029e+01 2.479319e+01 2.323330e+01 1.689388e+01 1.857306e-02 4.802886e+00 2.673944e+00 3.256315e+00 4.742308e+00 4.695816e+00 5.498734e+00 6.887238e+00 5.158420e+00 4.687643e+00 4.521607e+00 3.456815e+00 3.052223e+00 2.369815e-03 4.384680e-01 5.216676e-01 5.717924e-01 7.657847e-01 8.477768e-01 8.645563e-01 9.982237e-01 8.563634e-01 9.849216e-01 8.136059e-01 6.537325e-01 5.187510e-01 3.597836e-04
<GCONST> 1.073898e+02
<MIXTURE> 5 8.858085e-02
<MEAN> 39
 -5.544865e-01 -7.021540e+00 -1.209132e+01 -3.192395e+01 -4.570288e+00 5.781399e+00 -8.111547e+00 5.494396e-01 -8.037778e+00 1.676949e+00 -2.154910e+00 -1.605121e+00 8.580882e-01 1.780510e-01 9.902528e-01 2.111010e-01 -2.967176e-01 -4.446340e-01 -5.742992e-01 8.347807e-02 1.167230e-01 -3.838921e-01 -3.036430e-01 1.060781e-01 4.265088e-01 -1.462128e-02 -9.793097e-02 2.010236e-02 3.060761e-02 6.389755e-01 -6.475270e-02 -2.903683e-01 4.765271e-03 -3.648139e-01 3.005461e-01 -9.472221e-02 -2.088755e-02 -1.571439e-01 -6.211285e-03
<VARIANCE> 39
 7.844321e+00 3.190703e+01 4.224295e+01 4.516722e+01 4.974899e+01 4.146943e+01 5.485731e+01 2.959214e+01 3.428151e+01 4.213453e+01 4.108808e+01 3.232907e+01 9.129141e-03 2.687027e-01 8.093506e-01 6.978905e-01 1.452487e+00 1.501107e+00 1.440089e+00 1.816244e+00 1.592412e+00 1.603607e+00 1.657137e+00 1.434609e+00 1.317997e+00 1.465508e-04 5.675422e-02 1.446895e-01 1.387481e-01 2.610135e-01 2.354245e-01 2.413089e-01 2.579533e-01 2.362382e-01 2.745669e-01 2.585764e-01 2.476596e-01 2.303511e-01 5.146191e-05
<GCONST> 7.348573e+01
<MIXTURE> 6 8.122709e-02
<MEAN> 39
 -1.412526e+00 -8.608505e+00 -9.538144e+00 -1.902456e+01 -7.206655e+00 3.978817e-02 -1.156364e+01 -8.845116e+00 -2.215921e+00 4.850731e+00 1.740781e+00 -5.925815e+00 7.833553e-01 3.305322e-01 1.817253e+00 4.126034e-02 -2.378161e+00 2.145917e-01 2.029468e+00 1.108776e+00 -1.795779e+00 -2.013508e+00 -2.309043e-01 8.842423e-01 1.274440e+00 -1.653176e-02 -9.508777e-02 5.076618e-02 2.283605e-01 4.126697e-01 -3.392829e-01 -6.710567e-01 1.081251e-01 9.036701e-01 -1.984612e-03 -8.076838e-01 -3.928558e-01 4.486603e-01 -1.543295e-03
<VARIANCE> 39
 8.906481e+00 2.924119e+01 4.349599e+01 5.008415e+01 3.471933e+01 5.533826e+01 7.240823e+01 5.341035e+01 5.333856e+01 4.373026e+01 5.243287e+01 2.937412e+01 1.457229e-02 9.518406e-01 1.547530e+00 2.015022e+00 2.949500e+00 2.751343e+00 3.963829e+00 4.660958e+00 4.211609e+00 3.976768e+00 4.139080e+00 3.443318e+00 3.091721e+00 3.695551e-04 1.280018e-01 2.828127e-01 3.724391e-01 4.125160e-01 5.431331e-01 6.320537e-01 7.516720e-01 6.930363e-01 7.431562e-01 5.518631e-01 5.540942e-01 3.994339e-01 8.742852e-05
<GCONST> 9.775430e+01
<MIXTURE> 7 4.030554e-02
<MEAN> 39
 -6.624420e-01 -2.584164e+00 -5.033624e+00 -2.476155e+01 -1.371885e+01 7.162351e+00 -7.596309e+00 -1.187045e+01 -3.962966e+00 -4.140245e+00 1.045460e-01 1.574332e+00 7.306046e-01 1.563453e+00 -1.244279e+00 -3.808920e-01 -2.544793e+00 -8.105487e-01 1.825300e+00 -1.937855e+00 -9.037234e-01 4.974841e-01 3.152063e-01 1.045788e+00 -3.893194e-02 6.850118e-02 -1.080490e+00 -6.237710e-01 -2.518176e-01 1.319804e+00 9.428455e-01 -9.141623e-01 -1.062062e-01 8.436304e-01 4.932360e-01 7.533899e-01 2.541524e-02 -6.318470e-01 -1.950756e-02
<VARIANCE> 39
 8.002534e+00 2.672023e+01 2.913198e+01 4.222869e+01 3.991576e+01 2.851336e+01 5.262663e+01 4.871797e+01 3.985483e+01 4.560843e+01 3.388945e+01 2.136833e+01 1.201871e-02 2.173570e+00 2.743872e+00 2.363484e+00 3.974295e+00 4.265628e+00 3.524390e+00 4.449482e+00 5.353705e+00 3.951923e+00 4.855657e+00 3.217952e+00 2.567075e+00 1.618869e-03 3.338671e-01 4.526106e-01 3.626342e-01 6.864037e-01 6.197280e-01 6.369295e-01 7.814179e-01 8.572642e-01 7.346849e-01 7.333539e-01 6.440033e-01 4.662286e-01 2.626032e-04
<GCONST> 1.025822e+02
<MIXTURE> 8 4.389289e-02
<MEAN> 39
 -4.881790e+00 1.255199e-01 -1.178598e+01 -1.710533e+01 -4.273463e+00 -7.222228e+00 -1.048528e+01 -1.102682e+01 -5.989336e+00 -2.214947e+00 -4.716024e+00 -4.063230e+00 6.340150e-01 3.451158e+00 -4.801998e-01 -1.195546e+00 -3.321442e+00 -4.866683e-01 -7.797060e-01 -2.305292e+00 -1.089684e+00 -6.579127e-01 4.806977e-01 -1.000498e+00 -2.888194e-01 1.067672e-01 -8.421882e-01 -9.110320e-01 1.712781e-01 4.371767e-01 8.434459e-02 1.685080e-01 4.787013e-01 1.148013e+00 6.200793e-01 2.897835e-01 2.345036e-02 3.147161e-01 -7.036198e-03
<VARIANCE> 39
 1.405376e+01 1.955589e+01 3.271309e+01 4.671278e+01 2.473369e+01 3.853984e+01 4.593191e+01 3.495812e+01 3.763456e+01 3.191578e+01 3.671289e+01 1.826432e+01 1.576316e-02 1.949685e+00 3.035362e+00 3.973630e+00 6.204466e+00 5.542390e+00 5.202059e+00 6.395888e+00 6.038555e+00 6.024378e+00 4.667735e+00 5.084689e+00 3.375386e+00 2.003026e-03 3.611869e-01 3.416872e-01 4.140349e-01 6.144659e-01 6.363299e-01 7.443863e-01 7.451690e-01 6.989808e-01 7.108378e-01 6.470870e-01 5.834635e-01 4.116234e-01 3.059752e-04
<GCONST> 1.051242e+02
<MIXTURE> 9 7.448895e-02
<MEAN> 39
 9.666097e-01 -6.126362e+00 -1.490823e+01 -2.406915e+01 -1.351276e+01 6.594001e+00 1.200474e+00 -9.772905e+00 9.487128e-01 -4.834168e+00 2.565193e+00 -2.021394e+00 8.516756e-01 1.759593e-01 1.074756e+00 5.989881e-01 -6.352033e-01 -7.155483e-01 -2.664904e-01 -1.782790e-01 5.123627e-01 -2.960531e-01 -5.029676e-01 -2.686833e-01 5.715479e-01 -1.566121e-02 -1.314027e-01 -4.335215e-02 2.173887e-01 3.115144e-01 2.441844e-01 -2.869704e-01 -4.838969e-01 2.236404e-01 -1.326093e-01 2.348882e-01 -1.052360e-01 -2.420810e-01 -5.915828e-03
<VARIANCE> 39
 7.860260e+00 2.641094e+01 2.861124e+01 3.987634e+01 5.407657e+01 4.896313e+01 4.735902e+01 5.063942e+01 4.107271e+01 3.178238e+01 4.330344e+01 3.545774e+01 9.898384e-03 2.941408e-01 8.640006e-01 8.799860e-01 1.141513e+00 1.521246e+00 1.621295e+00 2.163900e+00 1.671256e+00 1.594350e+00 1.555874e+00 1.677540e+00 1.417113e+00 1.758523e-04 6.730533e-02 1.246960e-01 1.293307e-01 2.168983e-01 2.631952e-01 2.455341e-01 2.993638e-01 2.910759e-01 2.837641e-01 2.189138e-01 2.557350e-01 2.505637e-01 4.341536e-05
<GCONST> 7.445868e+01
<MIXTURE> 10 7.827418e-02
<MEAN> 39
 -2.980825e+00 -1.128575e+01 -1.744788e+01 -2.434756e+01 2.784421e+00 -2.443832e-01 -9.093348e+00 -4.818449e+00 -4.458860e-01 -2.366989e+00 -7.499916e+00 -4.948050e+00 8.593896e-01 4.008548e-01 1.382284e+00 -4.992788e-01 -1.358126e+00 -5.082289e-03 8.243592e-01 -2.539270e-01 -5.983249e-01 -7.864547e-01 2.501566e-01 1.450969e+00 -2.160668e-01 -1.085411e-02 -2.020852e-02 1.024656e-01 2.374914e-01 2.224579e-01 -4.716993e-01 -3.628295e-01 2.488380e-01 1.802514e-01 -2.303964e-01 -2.043944e-01 -3.220813e-02 2.681806e-01 -4.153139e-03
<VARIANCE> 39
 7.049854e+00 2.727326e+01 2.210763e+01 4.124913e+01 3.420823e+01 4.510603e+01 4.647541e+01 3.558108e+01 3.522735e+01 4.219000e+01 3.352865e+01 2.226483e+01 1.078498e-02 2.261360e-01 6.702417e-01 5.497010e-01 1.051790e+00 1.230964e+00 1.701855e+00 1.478797e+00 1.624586e+00 1.897295e+00 1.561777e+00 1.450719e+00 1.527242e+00 1.357677e-04 4.377128e-02 1.062401e-01 1.061452e-01 1.967307e-01 2.161386e-01 2.227660e-01 2.474224e-01 2.091954e-01 2.380569e-01 2.299125e-01 2.277913e-01 2.140472e-01 2.491915e-05
<GCONST> 6.829190e+01
<MIXTURE> 11 6.842882e-02
<MEAN> 39
 -4.213036e+00 -1.334819e+01 -1.186644e+01 -1.688061e+01 -4.222013e+00 -7.443206e+00 -1.008909e+01 7.662549e-01 1.977439e+00 -1.475562e+00 -1.069885e+01 -4.155594e+00 8.589436e-01 6.256936e-01 8.901050e-01 -1.585498e+00 -1.743718e+00 1.963988e+00 2.433326e+00 -1.469302e+00 -1.992332e+00 5.819819e-01 1.308121e+00 7.527032e-01 -1.404535e+00 -2.907010e-03 6.693752e-02 3.223655e-01 2.674192e-01 -3.526398e-01 -4.497126e-01 2.150494e-01 4.113248e-01 -2.632560e-01 -8.309118e-01 9.503558e-03 8.221561e-01 2.015026e-01 -3.292142e-03
<VARIANCE> 39
 7.524883e+00 2.476159e+01 3.626131e+01 3.819765e+01 4.879562e+01 5.364678e+01 5.188421e+01 4.383167e+01 4.214997e+01 5.996947e+01 3.959134e+01 3.123128e+01 9.825111e-03 3.511780e-01 8.291821e-01 1.057769e+00 1.328611e+00 1.620238e+00 2.214953e+00 2.511391e+00 2.482727e+00 2.773759e+00 1.857427e+00 2.289310e+00 1.579103e+00 1.537185e-04 5.905014e-02 1.243924e-01 1.700057e-01 2.212126e-01 3.328624e-01 3.618047e-01 3.664985e-01 3.840338e-01 4.237852e-01 4.166191e-01 3.041486e-01 3.928383e-01 2.236621e-05
<GCONST> 7.959023e+01
<MIXTURE> 12 6.818339e-02
<MEAN> 39
 -3.697472e+00 2.277975e+00 -7.810452e+00 -1.981076e+01 -8.991501e+00 -6.447561e-01 -4.491820e+00 -8.507387e+00 -7.985398e+00 -4.299334e+00 -1.637339e+00 1.124463e+00 5.686439e-01 4.497566e-01 6.317260e-01 1.000927e-01 -9.750525e-01 -2.422077e-01 1.081330e-01 2.107252e-01 4.809300e-01 -2.023834e-01 -6.306245e-01 -3.755975e-01 2.924334e-01 9.760359e-03 5.777896e-02 -7.626986e-01 -1.723422e-01 1.257902e-01 2.568690e-01 -4.769464e-02 -4.549436e-01 1.804985e-01 4.961544e-01 5.913700e-01 1.847145e-01 -4.402201e-01 1.149668e-02
<VARIANCE> 39
 1.396341e+01 2.736586e+01 2.954256e+01 4.772494e+01 3.855336e+01 3.789015e+01 3.558585e+01 4.423955e+01 2.818678e+01 3.840673e+01 3.132156e+01 2.124355e+01 1.507866e-02 1.299749e+00 2.235977e+00 1.866696e+00 4.086827e+00 3.051671e+00 2.733481e+00 2.910619e+00 3.477319e+00 3.378256e+00 3.773201e+00 2.580948e+00 1.884467e+00 1.308392e-03 2.639105e-01 3.696416e-01 3.942111e-01 7.709824e-01 6.415892e-01 7.468508e-01 6.736218e-01 7.705752e-01 7.043023e-01 6.458148e-01 5.673982e-01 4.035524e-01 1.952128e-04
<GCONST> 9.812523e+01
<MIXTURE> 13 4.553808e-02
<MEAN> 39
 -4.090762e-01 -1.462097e+00 -8.731942e+00 -2.356796e+01 -7.003001e+00 3.459203e-01 -7.898743e+00 -5.019633e+00 -1.147888e+01 -6.150147e-01 3.514315e+00 -3.660568e+00 7.057022e-01 1.949391e+00 -1.158870e+00 -9.340582e-01 -2.224398e+00 -2.868317e-01 6.376577e-01 -1.553930e+00 1.166151e-01 -7.118472e-01 8.225421e-01 1.098691e+00 -1.038321e+00 7.434051e-02 -1.277869e+00 -7.989509e-01 -3.588523e-02 1.182173e+00 3.827249e-01 -2.310422e-01 6.855928e-02 1.940287e-01 1.421123e+00 3.798311e-01 -5.768540e-01 -8.049211e-02 -1.725868e-02
<VARIANCE> 39
 7.218342e+00 2.416146e+01 3.186245e+01 4.584092e+01 3.438729e+01 2.919697e+01 5.042889e+01 4.158857e+01 2.741692e+01 3.777623e+01 3.705671e+01 2.424065e+01 1.348749e-02 2.312506e+00 2.364382e+00 2.597100e+00 3.743370e+00 3.324976e+00 3.380834e+00 4.401703e+00 4.219190e+00 4.683367e+00 3.331553e+00 3.047718e+00 2.858948e+00 1.421365e-03 2.616282e-01 3.589419e-01 3.997936e-01 6.456878e-01 6.254364e-01 5.817677e-01 6.775180e-01 8.482134e-01 5.287570e-01 6.044609e-01 5.767906e-01 5.123218e-01 2.000074e-04
<GCONST> 9.963180e+01
<MIXTURE> 14 4.564108e-02
<MEAN> 39
 -7.208441e-01 -8.838339e+00 -8.774566e+00 -2.883477e+01 -8.513778e+00 8.686096e+00 -8.032200e+00 -6.237577e+00 -3.987425e+00 3.344852e+00 8.889840e-01 -5.243830e-01 8.556250e-01 2.527742e-01 1.328877e+00 2.086205e-01 -1.632032e+00 -6.135721e-01 6.380697e-01 8.001032e-01 3.924725e-01 -8.172259e-01 -1.631593e+00 -1.135930e-01 1.577516e+00 -7.984557e-03 -6.868162e-02 3.077622e-02 7.150296e-02 5.877655e-01 -6.709760e-02 -7.211419e-01 -2.091332e-01 3.508259e-01 2.459311e-01 -4.852687e-02 -3.214476e-01 -3.538989e-01 -3.819059e-03
<VARIANCE> 39
 6.119236e+00 2.882659e+01 2.923778e+01 2.837203e+01 3.820943e+01 3.661846e+01 3.943203e+01 3.938803e+01 4.428226e+01 3.642032e+01 2.886669e+01 2.244032e+01 1.044576e-02 1.702207e-01 6.127020e-01 5.254174e-01 9.398985e-01 7.949061e-01 1.122225e+00 1.029588e+00 1.079453e+00 1.348701e+00 1.551507e+00 1.425826e+00 1.043553e+00 1.045542e-04 3.294357e-02 1.024633e-01 9.934701e-02 1.813307e-01 1.562929e-01 2.028594e-01 1.815238e-01 2.123564e-01 1.927194e-01 2.340884e-01 1.634095e-01 1.424848e-01 2.369653e-05
<GCONST> 6.253176e+01
<MIXTURE> 15 6.072406e-02
<MEAN> 39
 -5.603448e+00 -1.853112e+00 -7.942835e+00 -1.311378e+01 -4.098818e+00 -9.259092e+00 -1.389607e+01 -1.021302e+01 -3.836593e+00 -3.450147e-01 -5.550791e+00 -4.163053e+00 6.266732e-01 4.823627e-01 7.847155e-01 -8.725111e-01 -1.265037e+00 1.187220e+00 1.144313e+00 -5.431756e-01 -1.176153e+00 -1.117306e-01 7.259918e-01 4.590096e-01 -2.763531e-01 4.596894e-03 7.414271e-02 -4.869560e-01 1.966678e-01 -9.170077e-02 -5.768397e-01 -3.875349e-03 3.163247e-01 7.768940e-01 -9.248909e-02 -1.989152e-01 8.857022e-02 2.464671e-01 9.257611e-03
<VARIANCE> 39
 9.676548e+00 1.904557e+01 4.652239e+01 4.206438e+01 3.377179e+01 4.281151e+01 4.981305e+01 4.754777e+01 4.646098e+01 4.135872e+01 5.261678e+01 3.409881e+01 1.532849e-02 8.931968e-01 1.691819e+00 1.876235e+00 2.789087e+00 3.101331e+00 4.109867e+00 4.764362e+00 5.479733e+00 4.246597e+00 3.143472e+00 3.517837e+00 2.305936e+00 8.871339e-04 2.043606e-01 2.198504e-01 3.946617e-01 4.869437e-01 5.516557e-01 6.711514e-01 8.950006e-01 8.043307e-01 8.192184e-01 6.758041e-01 8.283277e-01 5.181053e-01 1.222577e-04
<GCONST> 9.940620e+01
<MIXTURE> 16 7.189111e-02
<MEAN> 39
 -1.033560e+00 -3.723973e+00 -1.193785e+01 -2.526604e+01 -7.121708e+00 4.165084e+00 -7.039752e+00 -8.625826e+00 -4.010072e+00 -2.124528e+00 4.117203e+00 -1.637148e+00 7.716931e-01 3.033596e-01 2.014233e+00 2.819420e-01 -1.170715e+00 -7.358984e-01 1.297515e-01 1.273597e+00 3.558630e-01 -1.427863e+00 -1.803233e+00 -1.464899e-01 1.416821e+00 -2.002566e-02 -1.198113e-01 -3.081389e-01 1.995453e-01 6.992819e-01 -1.125327e-01 -6.875092e-01 -2.165498e-01 4.810965e-01 3.876093e-01 1.812044e-01 -6.516734e-01 -3.898806e-01 -1.328758e-03
<VARIANCE> 39
 8.474162e+00 2.301429e+01 4.041875e+01 4.310984e+01 4.374818e+01 4.333120e+01 5.555373e+01 5.067377e+01 4.934988e+01 4.727153e+01 3.767801e+01 2.932098e+01 1.346399e-02 4.693881e-01 1.092166e+00 1.182687e+00 2.249358e+00 2.299245e+00 2.717544e+00 2.540656e+00 2.782520e+00 2.867580e+00 3.003325e+00 2.974083e+00 2.204437e+00 3.172346e-04 1.028861e-01 2.228611e-01 2.437257e-01 3.164241e-01 3.534737e-01 3.620373e-01 3.771815e-01 5.064609e-01 4.574233e-01 4.542755e-01 3.655379e-01 3.127836e-01 7.232246e-05
<GCONST> 8.711082e+01
<STATE> 3
<NUMMIXES> 16
<MIXTURE> 1 7.819841e-02
<MEAN> 39
 -6.965954e-01 1.447372e+00 -8.695686e+00 -2.506013e+01 -1.112982e+01 1.301622e-01 -5.333638e+00 -4.237639e+00 -6.004729e+00 -4.307151e+00 -9.282773e-01 -6.696031e-01 7.058421e-01 -7.605264e-02 -1.624934e+00 -1.092591e+00 -7.118302e-01 6.203187e-01 1.120972e+00 2.064722e-01 -1.008901e-02 8.259632e-01 5.915903e-01 4.864472e-01 7.662389e-02 3.631942e-02 -1.230451e-01 -6.567770e-01 -2.650080e-01 9.167778e-02 3.941419e-01 4.849462e-01 -1.003188e-01 -2.664902e-01 3.287044e-01 3.315395e-01 9.043551e-02 -1.730579e-01 6.051741e-03
<VARIANCE> 39
 8.066335e+00 2.382727e+01 3.059994e+01 4.506467e+01 3.884311e+01 3.993485e+01 4.682713e+01 4.856993e+01 4.048975e+01 3.605616e+01 2.898571e+01 2.487643e+01 1.018301e-02 5.703075e-01 1.317575e+00 1.449499e+00 1.939660e+00 2.380460e+00 2.671754e+00 2.447376e+00 2.948356e+00 2.767388e+00 3.072399e+00 2.263436e+00 1.870048e+00 4.549447e-04 9.055210e-02 2.032071e-01 2.144768e-01 3.448937e-01 3.325892e-01 4.248459e-01 4.467812e-01 4.345593e-01 4.441522e-01 4.634872e-01 3.613981e-01 3.715343e-01 5.966205e-05
<GCONST> 8.547234e+01
<MIXTURE> 2 4.829816e-02
<MEAN> 39
 -7.217466e-01 -3.754279e+00 -1.160797e+01 -2.719164e+01 -9.376900e+00 3.206079e+00 -5.049301e+00 -7.108870e+00 -4.963524e+00 3.097085e-01 3.499241e-01 1.348753e+00 8.286530e-01 7.744560e-02 -2.659047e+00 -1.256575e+00 -8.308263e-01 6.961185e-01 1.773676e+00 -5.384832e-01 1.566702e-01 1.604656e+00 1.540864e+00 5.445860e-01 -1.013626e+00 5.206950e-02 -5.766149e-01 -2.684669e-01 2.782664e-01 1.050419e+00 4.774739e-01 -2.283381e-01 -1.175564e-01 2.680959e-01 4.347605e-01 -2.481717e-02 -3.448746e-01 -6.796907e-01 -1.726853e-02
<VARIANCE> 39
 7.438519e+00 2.138568e+01 2.847413e+01 2.849731e+01 3.631621e+01 4.812125e+01 4.000896e+01 3.778942e+01 3.107772e+01 3.575808e+01 2.889418e+01 2.254779e+01 5.394345e-03 6.918034e-01 1.899908e+00 1.453585e+00 2.632291e+00 2.798584e+00 3.149658e+00 3.341770e+00 3.431587e+00 3.175813e+00 3.557007e+00 2.832877e+00 2.525310e+00 3.636116e-04 3.896226e-01 2.733830e-01 2.574189e-01 5.262524e-01 4.658657e-01 5.955703e-01 4.083339e-01 5.662594e-01 7.058552e-01 5.475594e-01 4.302064e-01 3.748568e-01 1.635104e-04
<GCONST> 9.072764e+01
<MIXTURE> 3 8.111006e-02
<MEAN> 39
 -1.063066e-02 2.237266e+00 -1.150541e+01 -2.627260e+01 -1.178911e+01 6.669388e-02 -1.058535e+00 -1.024269e+00 -4.587732e+00 -4.860366e+00 -7.696728e-01 -2.458683e+00 6.772039e-01 -1.034151e-01 5.626580e-01 3.137169e-01 3.385106e-01 -5.571210e-02 -4.957609e-01 -6.627978e-02 1.933378e-01 -1.517235e-01 -6.694097e-02 -1.521732e-01 -1.080171e-01 -1.608183e-02 -1.028298e-01 -3.331754e-01 -5.431300e-02 1.807638e-01 2.975720e-01 2.362116e-01 -1.069208e-01 -2.946862e-01 1.231525e-02 1.529529e-01 1.182849e-01 5.096227e-02 8.612806e-05
<VARIANCE> 39
 8.420355e+00 2.588643e+01 3.418498e+01 5.452640e+01 4.309329e+01 3.694911e+01 5.097235e+01 4.554296e+01 3.921210e+01 2.949438e+01 3.096755e+01 2.842894e+01 2.025937e-02 2.495134e-01 7.694100e-01 7.426414e-01 1.149299e+00 1.189834e+00 1.383901e+00 1.070702e+00 1.595820e+00 1.088949e+00 1.056861e+00 1.017312e+00 9.587766e-01 3.083473e-04 4.841555e-02 1.610885e-01 1.244789e-01 1.813578e-01 2.229204e-01 2.267720e-01 2.054806e-01 2.676479e-01 2.163642e-01 1.982251e-01 1.692791e-01 1.866801e-01 5.223332e-05
<GCONST> 6.991287e+01
<MIXTURE> 4 5.195962e-02
<MEAN> 39
 -3.657334e+00 -2.730592e+00 -8.553123e+00 -1.849374e+01 -3.776110e+00 -2.270468e+00 -1.069395e+01 -1.139763e+01 -5.741540e+00 2.587612e+00 2.526463e+00 -2.704339e+00 7.028226e-01 -2.054341e-01 -2.548815e+00 -5.312644e-01 6.793664e-01 -5.085684e-02 -1.149900e+00 -1.473265e+00 1.329187e+00 3.559142e+00 1.988044e+00 -9.053552e-01 -1.748727e+00 4.300236e-02 2.674093e-02 -4.133472e-01 3.440003e-01 2.246132e-01 -5.897298e-01 -1.843981e-01 2.670816e-02 9.420743e-01 4.915718e-01 -3.739471e-01 -7.175235e-01 -1.162515e-01 2.045057e-03
<VARIANCE> 39
 7.703823e+00 1.968816e+01 2.587235e+01 3.525597e+01 1.838560e+01 2.603538e+01 3.752376e+01 3.163875e+01 3.418084e+01 2.814162e+01 2.647715e+01 2.306629e+01 1.228787e-02 6.979098e-01 1.385463e+00 1.547024e+00 3.617929e+00 2.871308e+00 4.238760e+00 4.608921e+00 4.561666e+00 3.069614e+00 3.421479e+00 2.885009e+00 2.109029e+00 5.782225e-04 1.448684e-01 2.761146e-01 3.586981e-01 3.543236e-01 4.719758e-01 4.971412e-01 4.514270e-01 6.219512e-01 6.164768e-01 5.547488e-01 4.332040e-01 4.167503e-01 8.243642e-05
<GCONST> 8.939481e+01
<MIXTURE> 5 6.261414e-02
<MEAN> 39
 4.282266e-01 -2.009958e+00 -6.841543e+00 -3.134727e+01 -1.476455e+01 9.889128e+00 -7.179057e+00 -4.162003e+00 -9.431545e-01 -6.188751e+00 -1.020232e+00 2.832017e+00 7.869352e-01 2.454480e-02 6.882287e-01 3.172237e-01 -8.956551e-02 -8.925806e-02 -5.432289e-01 -1.296301e-01 3.138849e-01 -1.265655e-01 -4.097250e-01 -2.817405e-01 1.291935e-01 -1.146135e-02 -1.118033e-01 -3.674508e-01 -1.928557e-01 5.294724e-01 3.725375e-01 -1.517452e-01 -1.263762e-01 -2.241806e-01 -1.482373e-01 5.610825e-01 2.433366e-01 -3.710094e-01 -4.762499e-04
<VARIANCE> 39
 5.630308e+00 2.572137e+01 2.694141e+01 3.551091e+01 3.269608e+01 2.189623e+01 3.084224e+01 4.047268e+01 3.787963e+01 3.833753e+01 3.189135e+01 2.681422e+01 1.178232e-02 1.971319e-01 9.893118e-01 7.895806e-01 1.029982e+00 1.263972e+00 9.785168e-01 1.176112e+00 1.757343e+00 1.186050e+00 1.685840e+00 1.435095e+00 9.874282e-01 2.243708e-04 3.565468e-02 1.608353e-01 1.318450e-01 2.191734e-01 2.131514e-01 1.891427e-01 2.053539e-01 2.461624e-01 2.585448e-01 2.949470e-01 2.309005e-01 1.994480e-01 5.385231e-05
<GCONST> 6.816476e+01
<MIXTURE> 6 6.589278e-02
<MEAN> 39
 -1.311017e+00 -3.258728e-02 -1.356074e+01 -2.554466e+01 -6.552846e+00 -3.196960e+00 3.059862e+00 -7.299699e+00 -5.071899e+00 -2.812467e-01 -3.049997e+00 1.097846e+00 6.944106e-01 -1.709599e-01 7.085848e-01 6.028699e-01 7.602067e-01 -2.182002e-01 -3.954392e-01 -2.335243e-01 8.695388e-02 -5.862326e-01 -1.660577e-01 -1.540038e-01 6.372609e-02 -2.796553e-02 -2.430072e-01 -4.187227e-01 1.971431e-01 6.583312e-01 8.588488e-02 2.554229e-01 -6.073893e-01 1.583891e-01 1.623574e-01 -3.079625e-02 1.803721e-01 -3.607172e-01 -5.651181e-03
<VARIANCE> 39
 1.040718e+01 2.854621e+01 3.701809e+01 7.387486e+01 4.674967e+01 4.021722e+01 6.568282e+01 6.833820e+01 6.395132e+01 4.882459e+01 3.408868e+01 2.924742e+01 2.288386e-02 6.259157e-01 1.451285e+00 1.424777e+00 2.861211e+00 2.711552e+00 2.690822e+00 3.517640e+00 3.011544e+00 2.699065e+00 2.170936e+00 2.198926e+00 1.918981e+00 6.252603e-04 1.870059e-01 2.676755e-01 2.518912e-01 4.604193e-01 3.603371e-01 4.271296e-01 5.204700e-01 6.470546e-01 6.298876e-01 4.249832e-01 3.690652e-01 3.232324e-01 1.208105e-04
<GCONST> 9.332043e+01
<MIXTURE> 7 4.441388e-02
<MEAN> 39
 -1.060733e+00 -9.653418e+00 -7.912989e+00 -2.396082e+01 -9.125346e+00 7.748261e+00 -1.433270e+01 -8.279440e+00 -2.200452e+00 4.212351e+00 5.594818e+00 -5.231228e+00 8.390802e-01 -4.285687e-01 -2.312675e+00 1.088965e-01 1.799955e+00 6.637655e-01 -1.349132e+00 -2.370863e+00 1.088718e+00 2.668232e+00 2.085235e+00 -8.343884e-01 -2.533576e+00 2.087646e-02 -4.177087e-01 3.047804e-01 4.135455e-01 9.618325e-01 -1.768840e-01 -1.301000e+00 6.146069e-01 8.992497e-01 2.925575e-01 -7.142752e-01 -1.081292e+00 2.129415e-01 -1.584248e-02
<VARIANCE> 39
 6.389195e+00 2.190020e+01 3.268017e+01 3.199520e+01 2.728646e+01 2.869186e+01 3.779171e+01 4.358923e+01 3.644445e+01 3.827508e+01 3.927386e+01 2.790584e+01 1.008805e-02 4.637434e-01 1.494697e+00 1.199823e+00 2.782655e+00 2.068069e+00 3.062180e+00 2.583031e+00 3.055272e+00 2.623106e+00 2.483325e+00 2.712577e+00 2.261377e+00 4.849545e-04 2.381552e-01 2.253883e-01 3.105481e-01 4.163809e-01 5.136795e-01 4.210984e-01 4.162178e-01 5.366580e-01 4.051349e-01 5.643026e-01 3.967730e-01 3.292506e-01 1.500240e-04
<GCONST> 8.777512e+01
<MIXTURE> 8 5.025752e-02
<MEAN> 39
 -3.441162e+00 -4.267856e+00 -1.252589e+01 -2.341895e+01 -1.233374e+00 -9.094851e+00 -1.445344e+01 -7.305300e+00 -5.459301e+00 1.379975e+00 -8.054999e+00 -2.089604e+00 7.555650e-01 8.845688e-01 -1.956890e+00 -6.397262e-01 -1.525975e+00 2.974713e-01 -3.064082e-01 -5.214068e-01 1.823775e+00 7.560012e-01 6.797128e-01 -1.242372e+00 3.041883e-01 6.207320e-02 -9.578005e-01 -4.674932e-01 5.233264e-01 1.204643e+00 -3.999796e-01 2.774203e-01 1.009477e+00 7.587557e-01 3.722970e-01 -4.227773e-01 2.312211e-01 1.242976e-01 -1.845813e-02
<VARIANCE> 39
 8.123719e+00 2.862601e+01 4.374577e+01 7.154224e+01 4.510712e+01 4.817800e+01 6.534914e+01 5.434264e+01 5.208676e+01 5.109516e+01 4.886631e+01 3.202818e+01 1.169235e-02 1.435912e+00 2.546050e+00 3.149938e+00 5.017657e+00 5.202446e+00 5.499496e+00 5.614275e+00 4.682014e+00 4.507821e+00 4.444690e+00 3.731884e+00 2.832792e+00 1.278211e-03 3.561975e-01 3.659616e-01 4.756150e-01 9.283177e-01 8.702825e-01 7.718165e-01 1.123375e+00 1.031964e+00 1.068649e+00 7.733897e-01 7.898792e-01 6.180153e-01 2.710012e-04
<GCONST> 1.089741e+02
<MIXTURE> 9 7.762837e-02
<MEAN> 39
 -1.616908e+00 -3.342513e+00 -1.492102e+01 -2.489213e+01 -2.405360e+00 -2.154640e+00 -7.217056e+00 -7.195135e+00 -4.790150e+00 -4.707918e-01 -9.795318e-01 -3.901007e+00 7.821766e-01 -4.055175e-02 6.020368e-02 1.214965e-01 2.130242e-01 9.741248e-02 -3.436493e-01 -3.044705e-01 -1.035860e-01 2.348384e-01 1.594804e-01 -2.974443e-03 -1.526665e-01 -5.967551e-03 -1.180842e-01 -3.748993e-01 1.772659e-01 3.967201e-01 -1.502642e-02 -1.873658e-01 -2.022653e-01 2.123702e-01 4.023268e-01 4.727855e-02 -3.425460e-01 -8.547550e-02 5.327006e-04
<VARIANCE> 39
 8.091063e+00 2.757668e+01 4.032622e+01 6.643205e+01 4.197965e+01 5.030290e+01 7.875639e+01 5.861289e+01 5.836512e+01 5.261522e+01 5.210247e+01 3.139905e+01 1.271570e-02 1.734784e-01 7.509977e-01 5.560749e-01 9.825398e-01 1.045248e+00 1.352463e+00 1.540341e+00 1.420496e+00 1.821702e+00 1.508002e+00 1.277438e+00 9.032272e-01 1.621829e-04 4.359272e-02 1.422870e-01 1.142579e-01 1.689644e-01 2.066548e-01 2.946290e-01 2.877350e-01 3.122543e-01 3.573720e-01 2.982965e-01 2.907888e-01 2.044146e-01 2.894567e-05
<GCONST> 7.329895e+01
<MIXTURE> 10 6.383029e-02
<MEAN> 39
 -9.968172e-01 -6.980269e+00 -1.447005e+01 -2.932301e+01 -3.385327e+00 1.927392e+00 -8.511440e+00 -3.884376e+00 -5.235480e+00 -3.024406e-02 -2.362943e+00 -2.751437e+00 8.382579e-01 -2.633150e-02 1.599013e+00 5.572942e-01 9.615229e-01 -7.006292e-01 -8.965114e-01 -2.414250e-01 -8.983635e-01 -6.755863e-01 -3.755099e-01 2.497700e-01 3.955508e-01 -4.440110e-02 -6.293229e-01 2.665950e-01 4.342720e-01 1.566973e+00 1.273020e-02 -3.398814e-01 1.980706e-01 -2.017962e-01 7.742706e-02 -1.808515e-01 -2.212979e-01 -1.077428e-01 -2.506654e-02
<VARIANCE> 39
 8.476384e+00 3.060926e+01 3.991057e+01 5.191349e+01 4.379997e+01 5.108675e+01 5.540451e+01 4.173506e+01 5.064830e+01 5.292261e+01 4.610868e+01 3.556747e+01 8.955647e-03 5.119027e-01 1.170871e+00 1.284823e+00 2.621286e+00 2.259465e+00 2.342962e+00 2.576052e+00 2.508673e+00 2.385404e+00 2.886570e+00 2.221986e+00 1.927792e+00 2.837907e-04 2.090778e-01 2.897502e-01 3.333634e-01 5.399913e-01 4.351875e-01 4.523326e-01 4.828352e-01 5.265383e-01 4.967242e-01 4.896743e-01 4.249999e-01 4.112695e-01 1.559588e-04
<GCONST> 9.092661e+01
<MIXTURE> 11 1.169165e-01
<MEAN> 39
 -8.824134e-01 3.535390e-02 -8.884224e+00 -2.359746e+01 -7.940334e+00 1.067874e+00 -7.565749e+00 -8.591096e+00 -9.115642e+00 -2.307543e+00 1.357167e+00 -9.062328e-01 7.046644e-01 -1.135456e-01 -3.833966e-01 -2.352439e-01 1.522811e-01 4.167810e-01 -1.576944e-01 -2.482033e-01 3.075225e-02 1.877179e-01 3.304783e-01 1.861395e-01 -1.630853e-01 7.796832e-03 -2.117465e-01 -9.062903e-01 -1.777840e-01 4.557691e-01 1.855971e-01 -2.512220e-01 -3.866445e-01 1.713011e-01 1.019098e+00 5.745699e-01 -1.167436e-01 -5.313348e-01 9.295215e-03
<VARIANCE> 39
 8.121753e+00 2.867808e+01 3.905164e+01 5.467728e+01 4.403671e+01 4.411659e+01 6.698247e+01 6.579256e+01 5.015513e+01 5.949444e+01 4.749416e+01 3.318781e+01 1.151592e-02 4.409526e-01 1.293967e+00 9.140992e-01 1.805873e+00 1.659641e+00 1.603235e+00 2.316607e+00 2.376225e+00 2.401763e+00 2.319288e+00 1.670264e+00 1.476549e+00 3.541865e-04 1.118231e-01 1.935150e-01 2.368378e-01 5.152761e-01 4.809441e-01 6.769949e-01 6.809078e-01 7.898948e-01 6.009852e-01 7.280790e-01 6.822544e-01 4.985876e-01 5.552796e-05
<GCONST> 8.957320e+01
<MIXTURE> 12 6.301907e-02
<MEAN> 39
 7.327514e-01 -5.560410e+00 -7.685493e+00 -2.753789e+01 -1.728755e+01 1.031064e+01 -8.130802e+00 -5.344973e+00 -1.456324e+00 -6.625952e+00 4.572855e+00 -2.361112e+00 8.108318e-01 -1.195630e-02 8.175031e-01 4.658441e-01 4.088599e-01 2.729419e-01 -5.747730e-01 -2.908962e-01 -8.070144e-02 -8.750208e-01 -2.598178e-01 -3.114893e-01 2.832398e-01 -2.690533e-02 -4.034198e-01 -1.835962e-02 -1.969639e-01 8.906313e-01 8.450696e-01 -6.953263e-01 2.618035e-01 -1.817943e-01 -1.226652e-01 5.662780e-01 -3.020427e-01 -3.784258e-02 -1.102462e-02
<VARIANCE> 39
 7.081644e+00 3.415285e+01 3.727470e+01 4.961081e+01 3.731232e+01 3.259863e+01 4.894500e+01 6.137599e+01 4.813717e+01 4.227546e+01 4.908894e+01 3.150176e+01 1.063655e-02 5.077966e-01 1.564309e+00 1.288053e+00 2.437407e+00 3.095602e+00 2.221971e+00 2.910312e+00 2.925734e+00 2.186422e+00 2.627182e+00 2.492705e+00 2.126024e+00 4.902363e-04 1.663411e-01 3.160513e-01 2.888939e-01 5.284908e-01 3.512999e-01 4.165919e-01 4.916047e-01 6.018786e-01 4.570814e-01 4.542558e-01 5.272855e-01 4.426765e-01 1.766270e-04
<GCONST> 9.136414e+01
<MIXTURE> 13 5.925406e-02
<MEAN> 39
 -1.434721e+00 -3.058692e+00 -8.229997e+00 -2.604941e+01 -7.952895e+00 4.925403e+00 -8.691823e+00 -8.617865e+00 -7.171469e+00 -1.012054e+00 3.055424e+00 6.244908e-01 7.587027e-01 -4.674133e-01 -2.080216e+00 -5.641505e-01 1.622051e+00 1.555077e+00 -7.332888e-01 -1.899227e+00 -8.491955e-01 1.805832e+00 2.784203e+00 5.733641e-01 -1.635367e+00 1.650862e-02 -2.052100e-01 -3.925501e-01 2.221003e-01 8.390007e-01 -1.807221e-01 -8.726914e-01 -3.060441e-01 6.883715e-01 9.533210e-01 1.936253e-01 -7.047251e-01 -6.563972e-01 -1.568811e-03
<VARIANCE> 39
 7.564932e+00 2.222100e+01 3.379878e+01 4.340653e+01 3.206516e+01 3.410394e+01 4.204508e+01 4.864896e+01 4.313868e+01 4.917479e+01 2.831861e+01 2.328207e+01 1.297175e-02 4.187489e-01 1.457888e+00 1.418515e+00 2.211521e+00 2.084440e+00 2.902406e+00 2.504693e+00 3.599941e+00 3.121842e+00 2.573258e+00 2.945951e+00 2.308264e+00 6.017469e-04 1.081864e-01 2.293530e-01 2.540707e-01 4.090151e-01 3.520772e-01 4.275753e-01 3.958403e-01 5.756146e-01 4.377553e-01 5.634172e-01 3.713313e-01 2.462610e-01 8.817933e-05
<GCONST> 8.729201e+01
<MIXTURE> 14 5.571985e-02
<MEAN> 39
 -2.335428e+00 -3.369864e+00 -1.298121e+01 -2.209615e+01 -2.150050e-01 -5.156250e+00 -1.344722e+01 -7.362252e+00 -5.404792e+00 3.053014e+00 -2.020415e+00 -4.463543e+00 7.486324e-01 -6.270028e-01 -1.323617e+00 2.773410e-01 1.399170e+00 -5.828730e-03 -1.564292e+00 -8.152521e-01 1.386436e+00 2.321566e+00 -1.754058e-01 -1.539850e+00 -5.860945e-01 9.106850e-03 -2.543355e-01 -5.089743e-01 4.979325e-01 4.997916e-01 -7.875291e-01 -4.738109e-01 3.956184e-01 8.205437e-01 3.880847e-01 -7.393878e-01 -5.738114e-01 3.557523e-01 1.557027e-03
<VARIANCE> 39
 8.050214e+00 2.422566e+01 3.809581e+01 5.451419e+01 3.033478e+01 4.533894e+01 6.157217e+01 4.855369e+01 4.807550e+01 4.798825e+01 4.129653e+01 3.520176e+01 1.184196e-02 3.743480e-01 1.259229e+00 1.167448e+00 2.116510e+00 2.401626e+00 2.554062e+00 3.146326e+00 3.018423e+00 2.883760e+00 2.842961e+00 2.253101e+00 2.002369e+00 4.080085e-04 9.113939e-02 2.085220e-01 2.387209e-01 3.495445e-01 4.356930e-01 4.195379e-01 5.262313e-01 4.786016e-01 5.660337e-01 3.490935e-01 4.431466e-01 3.262552e-01 6.155153e-05
<GCONST> 8.765535e+01
<MIXTURE> 15 3.160683e-02
<MEAN> 39
 -9.931356e-01 -6.899265e+00 -1.270611e+01 -1.659073e+01 -9.409627e+00 -2.037320e-01 -6.651455e+00 -1.283373e+01 8.423129e-02 1.090833e-01 5.671967e+00 -7.759440e+00 8.070714e-01 7.210980e-01 -2.222181e+00 -4.084739e-01 -9.597988e-02 -6.828747e-01 -2.316306e-01 -1.652361e+00 4.293328e-01 2.224777e+00 4.197968e-01 7.996888e-02 -2.033341e+00 5.899047e-02 -1.101161e+00 -1.737950e-01 4.996801e-01 7.296391e-01 3.710708e-01 -5.327500e-01 1.105017e-01 1.306395e+00 1.852325e-01 -1.665652e-01 -1.000474e+00 3.852248e-01 -2.518026e-02
<VARIANCE> 39
 7.519676e+00 2.078624e+01 3.812051e+01 4.037287e+01 3.763783e+01 4.868106e+01 7.411697e+01 5.640651e+01 4.920780e+01 3.757859e+01 3.809315e+01 2.638333e+01 1.127799e-02 2.179310e+00 2.056160e+00 2.238205e+00 2.748243e+00 4.840141e+00 4.464682e+00 4.251826e+00 4.939620e+00 3.761106e+00 3.308190e+00 3.407409e+00 2.531788e+00 1.287014e-03 3.021517e-01 2.808299e-01 4.216951e-01 5.055611e-01 6.638137e-01 7.152641e-01 8.082366e-01 7.814159e-01 7.176442e-01 6.700192e-01 5.520080e-01 5.212754e-01 1.987199e-04
<GCONST> 1.016064e+02
<MIXTURE> 16 4.926809e-02
<MEAN> 39
 -4.511195e+00 -3.987289e+00 -1.089926e+00 -1.591512e+01 -7.481204e+00 1.275425e+00 -1.776108e+01 -1.359215e+01 -3.467367e+00 1.364790e+00 -1.633965e+00 -5.251201e+00 6.496021e-01 -7.923587e-02 -6.802531e-01 -1.633078e-01 -2.578691e-02 -2.995258e-01 -1.086168e+00 -4.315597e-01 1.821382e+00 7.143928e-01 -4.850919e-02 -2.152888e-01 5.144886e-02 2.255499e-02 -7.920932e-02 -5.441592e-01 -2.758828e-01 4.848513e-01 -3.838065e-01 -1.129798e+00 7.341554e-01 1.273644e+00 1.647834e-01 -2.456002e-01 -6.603701e-02 2.674803e-01 6.906014e-03
<VARIANCE> 39
 1.199974e+01 2.358320e+01 4.843658e+01 5.756330e+01 3.798689e+01 8.377967e+01 5.726780e+01 5.124163e+01 6.410509e+01 5.752343e+01 3.979955e+01 4.054799e+01 1.316325e-02 1.171726e+00 1.672068e+00 2.143093e+00 4.760079e+00 2.762601e+00 6.745320e+00 4.723576e+00 5.985776e+00 4.043659e+00 3.544913e+00 3.157230e+00 3.183000e+00 7.296128e-04 2.041096e-01 2.352556e-01 4.219255e-01 8.873226e-01 6.614677e-01 9.353413e-01 8.816339e-01 9.574396e-01 9.459614e-01 8.968177e-01 5.552619e-01 6.460247e-01 1.186796e-04
<GCONST> 1.046864e+02
<STATE> 4
<NUMMIXES> 16
<MIXTURE> 1 5.278447e-02
<MEAN> 39
 -3.204826e+00 -1.389227e+01 -8.008141e+00 -1.498455e+01 -8.296206e+00 -3.906168e+00 -1.124183e+01 1.847547e+00 5.010810e+00 1.126854e+00 -7.647056e+00 -7.826269e+00 8.600528e-01 -2.513631e-01 -4.959713e-01 1.005789e+00 1.178963e+00 -9.549466e-01 -1.615819e+00 5.291007e-01 1.826943e+00 -3.701802e-01 -1.309056e+00 -5.754849e-01 1.047381e+00 -4.864243e-03 6.839371e-02 2.963715e-01 4.988610e-03 -2.429684e-01 -3.596430e-02 1.105010e-01 1.425553e-01 -3.377171e-01 -5.579315e-01 -1.380052e-02 6.459333e-01 2.702499e-01 -3.593918e-03
<VARIANCE> 39
 7.251618e+00 2.733666e+01 3.407221e+01 3.181922e+01 2.957843e+01 5.531526e+01 5.689793e+01 4.701714e+01 3.858665e+01 5.559276e+01 3.967668e+01 3.391233e+01 1.177479e-02 1.811334e-01 4.294321e-01 6.093031e-01 5.634785e-01 8.101400e-01 1.184336e+00 1.041592e+00 9.289720e-01 1.205498e+00 1.249367e+00 1.172025e+00 1.054915e+00 9.699431e-05 2.585921e-02 6.476969e-02 9.692973e-02 1.034163e-01 1.193605e-01 1.886729e-01 1.773759e-01 2.115268e-01 1.965494e-01 2.290347e-01 1.911075e-01 2.186532e-01 1.752353e-05
<GCONST> 6.206558e+01
<MIXTURE> 2 9.392825e-02
<MEAN> 39
 -7.487502e-01 -5.709868e+00 -1.403005e+01 -2.711561e+01 -7.672259e+00 5.645555e+00 -4.118221e+00 -6.383258e+00 -2.292789e+00 -1.573139e+00 1.650993e+00 -1.593308e+00 8.470001e-01 -1.602382e-01 -1.695110e+00 -6.803902e-01 4.498862e-01 1.074844e+00 9.207522e-01 -3.587619e-01 -1.603073e-01 8.529319e-01 7.084909e-01 1.247234e-02 -8.683637e-01 1.822225e-02 -2.452401e-02 8.298009e-02 3.066809e-01 5.285496e-01 -7.372927e-02 -3.408624e-01 -2.149315e-01 -1.988028e-02 8.854706e-03 -5.956883e-02 -2.775333e-01 -1.454908e-01 -8.341354e-03
<VARIANCE> 39
 6.968733e+00 1.983756e+01 3.092832e+01 4.187376e+01 5.600648e+01 5.129967e+01 5.546759e+01 4.864289e+01 4.362842e+01 4.886687e+01 4.331148e+01 3.115369e+01 8.397904e-03 3.553048e-01 1.027678e+00 1.244517e+00 1.596790e+00 2.056416e+00 2.757346e+00 2.695807e+00 2.247820e+00 2.252854e+00 2.421016e+00 2.069925e+00 2.297714e+00 3.833974e-04 7.332445e-02 1.519531e-01 1.621005e-01 2.060289e-01 2.915574e-01 3.465376e-01 2.876992e-01 2.976806e-01 3.326034e-01 3.751327e-01 3.027581e-01 2.656625e-01 5.282857e-05
<GCONST> 8.123765e+01
<MIXTURE> 3 5.581655e-02
<MEAN> 39
 -1.343947e+00 -1.081338e+01 -6.498322e+00 -1.963763e+01 -9.764691e+00 2.322563e+00 -1.463298e+01 -5.951757e+00 -5.314826e-01 6.561908e+00 2.765947e+00 -7.172718e+00 8.201299e-01 3.701546e-01 -1.846489e+00 -1.963046e-01 8.702219e-01 -5.197653e-01 -7.464696e-01 -8.421901e-01 1.979844e+00 1.717553e+00 6.759144e-01 -9.078886e-01 -1.033449e+00 2.277590e-02 -1.413146e-01 5.122272e-01 4.542172e-02 3.822280e-01 2.246049e-01 -3.481356e-01 4.295953e-01 1.307145e-01 -3.168013e-01 -8.069003e-01 -3.515952e-01 5.024732e-01 -1.282552e-02
<VARIANCE> 39
 6.299459e+00 2.171034e+01 2.469341e+01 5.036104e+01 2.962523e+01 5.094393e+01 5.453455e+01 4.193036e+01 4.163864e+01 3.445821e+01 4.186256e+01 3.223003e+01 1.006533e-02 6.382003e-01 1.444739e+00 1.718101e+00 3.871329e+00 2.879614e+00 3.985411e+00 4.700820e+00 3.883502e+00 3.339572e+00 3.904225e+00 3.218917e+00 2.564440e+00 7.871677e-04 1.873863e-01 1.795595e-01 2.203753e-01 3.445846e-01 3.670972e-01 5.030150e-01 5.353668e-01 5.256092e-01 4.709653e-01 3.965074e-01 4.010901e-01 3.813336e-01 1.176666e-04
<GCONST> 9.181258e+01
<MIXTURE> 4 5.870822e-02
<MEAN> 39
 -4.195809e+00 2.886879e+00 -9.458777e+00 -1.855269e+01 -6.689348e+00 6.316459e-01 -3.728398e-02 -2.460698e+00 -6.001258e+00 -4.468122e+00 -1.918645e+00 3.335296e-01 4.623702e-01 -3.129401e+00 -1.844406e-01 8.863597e-01 4.399335e+00 2.441079e+00 -9.990261e-01 2.895116e-01 2.988113e-01 3.048179e-02 4.922642e-01 -2.138845e-01 -2.767191e-01 -9.953435e-02 -5.384833e-01 -7.208978e-01 -3.481987e-02 4.912585e-03 6.785619e-02 1.470079e-01 -2.971764e-01 7.157444e-03 4.212786e-01 3.581682e-01 1.421971e-01 -1.491825e-01 2.585916e-03
<VARIANCE> 39
 1.506880e+01 1.443058e+01 2.408850e+01 4.579464e+01 3.707239e+01 3.082998e+01 3.280318e+01 3.456552e+01 3.631409e+01 2.465561e+01 2.175834e+01 1.741903e+01 2.347018e-02 3.961890e+00 2.620456e+00 2.396395e+00 5.317321e+00 3.551224e+00 4.285017e+00 3.837027e+00 3.604886e+00 3.595973e+00 3.205331e+00 2.236810e+00 2.277733e+00 3.026669e-03 3.231266e-01 2.962184e-01 2.600960e-01 5.895412e-01 4.629959e-01 4.400578e-01 4.186240e-01 5.187807e-01 5.231141e-01 4.634750e-01 3.861853e-01 3.264371e-01 2.517432e-04
<GCONST> 9.651511e+01
<MIXTURE> 5 6.757028e-02
<MEAN> 39
 -5.112657e+00 -8.687616e+00 -9.665706e+00 -1.687855e+01 -5.140872e+00 -1.201498e+01 -1.410135e+01 -8.730636e-01 7.705941e-01 -3.406575e-01 -1.058069e+01 -2.188541e+00 7.836529e-01 -3.371031e-01 -2.048451e+00 1.066718e+00 5.082761e-01 -1.795310e+00 -1.664424e+00 1.394583e+00 3.303379e+00 1.695522e-01 -1.232179e+00 -8.828914e-01 1.227295e+00 3.141150e-02 -2.540715e-01 3.268793e-01 5.486825e-01 1.250400e-01 -4.295418e-01 4.278033e-01 7.704335e-01 -3.696695e-01 -9.773274e-01 -1.541813e-01 7.472916e-01 1.727097e-01 -1.267160e-02
<VARIANCE> 39
 7.300097e+00 2.659382e+01 5.142030e+01 5.106087e+01 4.173321e+01 4.696638e+01 5.129821e+01 5.151232e+01 3.764872e+01 5.156089e+01 3.584947e+01 2.722738e+01 1.419236e-02 9.202291e-01 1.776898e+00 3.250205e+00 3.751654e+00 4.089764e+00 5.046753e+00 5.240823e+00 4.418058e+00 4.408511e+00 4.289773e+00 3.901179e+00 2.629669e+00 7.919394e-04 2.846977e-01 3.503826e-01 3.809873e-01 6.908293e-01 6.560785e-01 6.675103e-01 7.993513e-01 8.470125e-01 7.078907e-01 6.641957e-01 5.531293e-01 4.775849e-01 2.317371e-04
<GCONST> 1.024562e+02
<MIXTURE> 6 5.427504e-02
<MEAN> 39
 -4.266091e+00 -1.143646e+01 -2.939798e+00 -1.201072e+01 -1.045055e+01 -1.078470e+01 -1.460001e+01 2.284297e+00 4.205918e+00 -1.778602e-01 -5.605054e+00 -3.909437e+00 7.761357e-01 -7.420716e-01 -3.454044e-01 2.638296e+00 1.883369e+00 -2.744265e+00 -2.478158e+00 1.458450e+00 2.625930e+00 -1.592736e+00 -2.580096e+00 2.321023e-01 2.216820e+00 -8.870440e-03 9.909876e-03 5.416471e-01 2.243574e-01 -4.429701e-01 -2.132222e-01 8.315052e-01 6.865448e-01 -8.351558e-01 -1.496882e+00 1.574376e-02 1.031865e+00 2.371798e-01 -7.051534e-03
<VARIANCE> 39
 7.004383e+00 2.323383e+01 3.560372e+01 3.561764e+01 3.042715e+01 3.876400e+01 4.959829e+01 5.199578e+01 3.853919e+01 3.638165e+01 3.743172e+01 2.552184e+01 1.331076e-02 2.950671e-01 7.364348e-01 1.271130e+00 1.361468e+00 1.708070e+00 1.981589e+00 2.194858e+00 2.122181e+00 2.212789e+00 1.774279e+00 1.748545e+00 1.337463e+00 2.697784e-04 6.414376e-02 1.605892e-01 2.148564e-01 2.302619e-01 2.647178e-01 3.353730e-01 4.603567e-01 4.362186e-01 4.527923e-01 3.678333e-01 2.967276e-01 2.950061e-01 4.064766e-05
<GCONST> 7.846274e+01
<MIXTURE> 7 5.805507e-02
<MEAN> 39
 2.038798e-02 -2.863806e+00 -9.131457e+00 -2.621430e+01 -1.156255e+01 6.500876e+00 -6.390481e+00 -6.020544e+00 -5.217826e+00 -3.443348e+00 1.246502e+00 4.826118e-01 7.162260e-01 -2.235740e+00 1.908196e+00 5.911840e-01 4.268046e+00 2.130687e+00 -2.110062e+00 9.876546e-01 -2.143730e-01 -9.103799e-01 -1.972257e-01 -6.813058e-01 2.680930e-01 -1.091899e-01 -1.291189e+00 -2.624903e-01 1.338852e-01 1.371538e+00 7.899613e-01 -4.937714e-01 2.086750e-01 3.133386e-01 3.977547e-01 3.595997e-01 -2.146824e-01 -3.441120e-01 -2.707137e-02
<VARIANCE> 39
 7.071289e+00 2.587950e+01 3.629383e+01 3.849878e+01 3.297304e+01 2.546476e+01 4.503820e+01 3.899829e+01 3.760002e+01 4.278347e+01 4.154630e+01 2.703073e+01 1.478105e-02 2.297255e+00 2.677450e+00 3.033145e+00 5.896050e+00 4.249452e+00 3.145475e+00 4.187126e+00 5.068010e+00 3.950918e+00 4.739875e+00 3.158494e+00 3.013184e+00 2.444167e-03 3.219642e-01 4.290614e-01 3.541165e-01 5.513589e-01 3.683968e-01 4.177470e-01 5.265468e-01 5.653449e-01 5.183040e-01 5.784335e-01 5.121469e-01 4.406990e-01 3.666906e-04
<GCONST> 1.007423e+02
<MIXTURE> 8 5.176952e-02
<MEAN> 39
 -1.218053e+01 -1.617444e+00 -7.358111e+00 -8.430565e+00 -2.835774e+00 -9.503922e-01 -2.792845e+00 -4.293715e+00 -4.370216e+00 -1.510358e+00 -1.654746e+00 -1.678028e+00 2.387910e-01 -2.448544e+00 -1.064608e+00 7.823446e-01 2.827529e+00 9.898061e-01 -9.018805e-01 -1.783162e-01 7.905242e-01 9.816846e-01 5.989202e-01 -3.260099e-01 -3.361657e-01 -6.359190e-02 5.929283e-01 -2.835034e-01 -3.371312e-01 -1.285187e+00 -5.084059e-01 5.189357e-02 -2.561497e-01 1.092317e-01 1.371144e-01 -7.449061e-02 9.305039e-03 6.765307e-02 3.623609e-02
<VARIANCE> 39
 2.942080e+01 2.380592e+01 3.951134e+01 4.260139e+01 4.521609e+01 4.457618e+01 4.495393e+01 4.126978e+01 4.830317e+01 4.505899e+01 3.134462e+01 2.363682e+01 4.603811e-02 6.055136e+00 2.825512e+00 3.255020e+00 8.273151e+00 4.394199e+00 4.587066e+00 4.451794e+00 4.612271e+00 4.777672e+00 4.957747e+00 3.877214e+00 2.870100e+00 7.931066e-03 4.769013e-01 5.279983e-01 8.094479e-01 1.059635e+00 9.901193e-01 8.842607e-01 1.023458e+00 9.175602e-01 1.006726e+00 1.045067e+00 7.245472e-01 5.761937e-01 6.762773e-04
<GCONST> 1.150525e+02
<MIXTURE> 9 4.774735e-02
<MEAN> 39
 -2.105604e+00 -3.285342e+00 -1.454708e+01 -2.486656e+01 -2.467122e+00 -3.981899e+00 -9.899009e+00 -7.228251e+00 -5.410422e+00 -5.365107e-01 -3.210858e+00 -3.290461e+00 7.154329e-01 -1.842168e+00 1.988825e+00 1.612849e+00 4.492559e+00 -4.849043e-01 -7.316653e-01 1.653773e-02 -8.522497e-01 -6.467376e-01 -4.395248e-01 9.036119e-02 -1.835445e-01 -1.009170e-01 -1.094569e+00 -1.627111e-01 5.287989e-01 1.293530e+00 7.643890e-02 2.544825e-01 6.100014e-01 4.037901e-01 2.554143e-01 -2.289775e-01 -1.330734e-01 3.243088e-02 -2.418215e-02
<VARIANCE> 39
 8.948874e+00 2.869593e+01 3.000660e+01 5.169977e+01 3.162605e+01 3.982035e+01 6.248566e+01 3.784897e+01 5.291965e+01 5.290730e+01 5.648189e+01 2.947168e+01 1.239401e-02 2.307081e+00 3.249731e+00 3.027996e+00 5.839982e+00 4.372044e+00 4.316243e+00 4.869689e+00 4.389647e+00 4.518526e+00 3.859095e+00 3.918222e+00 2.478058e+00 2.448118e-03 3.280838e-01 3.828313e-01 3.324091e-01 7.572924e-01 4.175517e-01 5.387570e-01 7.296818e-01 6.406436e-01 8.082031e-01 7.186738e-01 6.757741e-01 4.612623e-01 3.999064e-04
<GCONST> 1.052102e+02
<MIXTURE> 10 6.088692e-02
<MEAN> 39
 8.598561e-01 -3.508917e+00 -8.683986e+00 -2.406903e+01 -1.491656e+01 4.704164e+00 -4.530481e+00 -5.709292e+00 -4.263049e+00 -3.488215e+00 3.290931e-01 -1.083745e+00 7.062215e-01 -5.043876e-01 6.730760e-01 5.350471e-01 2.619835e+00 9.528983e-01 -1.105179e+00 -2.990012e-01 -3.922843e-01 -1.023237e+00 -9.722182e-03 -4.211205e-01 -2.537549e-01 -5.720020e-02 -4.797280e-01 1.399468e-02 -1.561820e-03 7.697580e-01 8.413846e-01 -3.187334e-01 4.919588e-03 5.375743e-03 -1.839988e-02 8.449104e-02 -1.066774e-01 -1.122834e-01 -1.404541e-02
<VARIANCE> 39
 8.396661e+00 3.117667e+01 3.435342e+01 5.911546e+01 4.990295e+01 4.134045e+01 6.066472e+01 6.517185e+01 5.309914e+01 4.228561e+01 3.919323e+01 3.457621e+01 1.571215e-02 7.205005e-01 2.021026e+00 2.227823e+00 4.322390e+00 3.905754e+00 3.180905e+00 3.758704e+00 3.771456e+00 3.345032e+00 2.899628e+00 2.803680e+00 2.832231e+00 7.985209e-04 1.713535e-01 2.866043e-01 3.078304e-01 7.211583e-01 3.991134e-01 4.918878e-01 6.471924e-01 7.755812e-01 6.078745e-01 4.321165e-01 4.617257e-01 4.224130e-01 2.011888e-04
<GCONST> 9.825452e+01
<MIXTURE> 11 7.970220e-02
<MEAN> 39
 -2.379849e+00 -1.095753e+01 -1.233375e+01 -1.885256e+01 -4.784347e+00 -1.716170e+00 -9.885605e+00 -5.313443e+00 5.037524e+00 3.086895e+00 -3.620145e+00 -9.509750e+00 8.605102e-01 -4.216270e-01 -1.085108e+00 7.746744e-01 1.651929e+00 -3.585455e-01 -1.825278e+00 -2.073447e-01 1.687432e+00 1.445308e+00 -7.175524e-01 -1.968858e+00 -3.388823e-01 1.164769e-03 2.243776e-02 3.283864e-01 3.481366e-01 5.198386e-02 -3.918144e-01 -2.162025e-01 2.732208e-01 2.124993e-01 -7.157236e-01 -5.201409e-01 2.257542e-01 7.489630e-01 -7.141197e-03
<VARIANCE> 39
 7.726785e+00 2.655622e+01 3.297439e+01 4.327699e+01 3.809302e+01 5.750026e+01 6.105167e+01 4.980498e+01 4.612414e+01 4.953316e+01 4.388640e+01 3.540889e+01 1.171292e-02 2.409676e-01 5.981454e-01 8.110680e-01 8.466292e-01 1.123782e+00 1.640122e+00 1.628921e+00 1.739469e+00 1.623604e+00 1.576894e+00 1.512817e+00 1.725384e+00 1.789007e-04 5.256523e-02 1.259081e-01 1.287475e-01 1.577886e-01 1.922346e-01 2.692414e-01 2.785304e-01 3.146895e-01 3.251891e-01 2.724042e-01 2.692267e-01 2.446126e-01 2.664415e-05
<GCONST> 7.323562e+01
<MIXTURE> 12 8.243127e-02
<MEAN> 39
 -2.798845e+00 -9.444295e+00 -9.448925e+00 -1.888804e+01 -5.320580e+00 -1.098804e+00 -1.501574e+01 -6.982992e+00 2.198662e+00 6.031209e+00 -2.054950e-01 -8.466583e+00 7.979227e-01 -6.396057e-01 -1.923511e+00 1.185175e+00 2.548953e+00 -6.506810e-01 -3.039208e+00 -1.466378e+00 2.740285e+00 2.913351e+00 -6.229785e-02 -2.335154e+00 -1.056240e+00 9.313908e-03 -1.503971e-01 4.412622e-01 7.503211e-01 2.676703e-01 -8.624268e-01 -4.739382e-01 9.584768e-01 7.519585e-01 -8.539248e-01 -1.283140e+00 -1.953709e-01 1.025349e+00 -1.113408e-02
<VARIANCE> 39
 6.996158e+00 2.503137e+01 3.874486e+01 3.720922e+01 3.401690e+01 4.364125e+01 5.402254e+01 4.929982e+01 4.598589e+01 4.252950e+01 3.942032e+01 2.910182e+01 1.446058e-02 4.306765e-01 1.456367e+00 1.381655e+00 2.308801e+00 2.227194e+00 2.816126e+00 2.669259e+00 3.072712e+00 3.195025e+00 2.821047e+00 2.247726e+00 2.417557e+00 5.673052e-04 1.221360e-01 2.178388e-01 2.659791e-01 3.921724e-01 4.704545e-01 5.129284e-01 5.248289e-01 5.660993e-01 4.881375e-01 5.343797e-01 4.456689e-01 3.686287e-01 1.049205e-04
<GCONST> 8.990989e+01
<MIXTURE> 13 7.239852e-02
<MEAN> 39
 -3.620959e+00 -1.071985e+01 -7.274067e+00 -1.535577e+01 -6.690476e+00 -6.494296e+00 -1.601236e+01 -2.303931e+00 5.563292e+00 2.866825e+00 -4.931489e+00 -7.578640e+00 7.887288e-01 -7.426064e-01 -1.233227e+00 2.157799e+00 2.404054e+00 -2.101273e+00 -3.262473e+00 2.485851e-01 3.446113e+00 9.917921e-01 -2.188797e+00 -1.669377e+00 1.088196e+00 2.738983e-04 -4.479554e-02 5.639663e-01 6.037098e-01 -2.272219e-01 -7.448638e-01 2.507081e-01 1.066531e+00 -7.124946e-02 -1.666180e+00 -7.441159e-01 7.654070e-01 9.768824e-01 -8.564493e-03
<VARIANCE> 39
 6.526763e+00 2.428258e+01 4.045746e+01 3.660460e+01 3.675710e+01 4.388163e+01 5.152583e+01 4.773323e+01 4.330944e+01 4.496358e+01 3.669086e+01 2.522217e+01 1.335807e-02 3.714958e-01 1.144638e+00 1.391906e+00 1.619642e+00 1.860351e+00 2.562735e+00 2.455661e+00 2.136122e+00 2.545125e+00 2.078114e+00 2.018682e+00 1.725503e+00 4.017841e-04 7.142002e-02 1.844820e-01 2.264413e-01 3.025971e-01 4.160258e-01 4.251420e-01 5.171595e-01 4.946516e-01 4.553774e-01 5.357518e-01 3.443986e-01 3.118879e-01 4.890465e-05
<GCONST> 8.392362e+01
<MIXTURE> 14 5.489689e-02
<MEAN> 39
 -6.306551e+00 -1.217908e+01 -1.211066e+01 -1.801290e+01 -3.412166e+00 -1.106656e+01 -9.152453e+00 4.174801e+00 -3.041487e-01 -8.436053e+00 -1.245292e+01 4.566011e-01 8.289275e-01 -7.534339e-01 -9.784164e-01 1.923247e+00 7.885812e-01 -2.199950e+00 -1.074065e+00 2.476654e+00 1.464598e+00 -1.491235e+00 -1.577309e+00 4.342024e-01 1.585628e+00 3.974570e-03 9.763230e-02 5.334449e-01 2.802064e-01 -2.942301e-01 -4.233571e-01 3.898576e-01 2.632494e-01 -1.002560e+00 -7.414855e-01 7.390354e-01 7.906339e-01 -3.408518e-01 -7.535528e-03
<VARIANCE> 39
 6.171873e+00 2.485533e+01 2.659981e+01 3.189712e+01 4.429918e+01 6.165401e+01 4.940748e+01 3.651214e+01 4.133443e+01 4.436002e+01 2.730665e+01 2.738509e+01 1.487408e-02 3.419989e-01 9.238779e-01 1.060264e+00 1.289182e+00 2.458885e+00 2.446891e+00 2.299866e+00 2.404764e+00 2.336278e+00 2.465033e+00 2.133005e+00 1.704335e+00 2.724778e-04 6.137265e-02 1.468393e-01 2.362352e-01 2.337721e-01 3.855627e-01 3.938079e-01 5.682625e-01 4.494043e-01 4.681731e-01 4.257925e-01 4.305885e-01 3.046740e-01 5.380758e-05
<GCONST> 8.195628e+01
<MIXTURE> 15 4.740452e-02
<MEAN> 39
 -4.993029e+00 3.082700e-01 -9.774623e+00 -1.408734e+01 -3.942204e+00 -1.092029e+00 -7.863692e+00 -1.047458e+01 -8.702768e+00 -2.350670e+00 -3.711106e-01 -2.489611e+00 4.818662e-01 -3.419625e+00 5.970058e-01 1.629230e+00 5.106741e+00 1.293171e+00 -1.394870e+00 8.163115e-01 4.253505e-01 4.754212e-01 -3.347994e-01 -9.486199e-01 -3.106168e-01 -1.219531e-01 -5.403963e-01 -7.150638e-01 -1.740673e-02 -4.666900e-01 -8.140058e-02 4.866394e-02 2.764579e-01 9.632404e-01 8.053408e-01 1.631114e-01 -1.053465e-01 9.787580e-02 1.007571e-02
<VARIANCE> 39
 1.213516e+01 1.990090e+01 3.089895e+01 3.863567e+01 3.462070e+01 4.162524e+01 4.087641e+01 2.984660e+01 3.358780e+01 4.166983e+01 4.115392e+01 3.503868e+01 2.358176e-02 3.481179e+00 3.259603e+00 4.167453e+00 5.862261e+00 5.548810e+00 4.327626e+00 5.816904e+00 5.353523e+00 5.233406e+00 4.540499e+00 4.978027e+00 3.569520e+00 4.272806e-03 3.350010e-01 4.096859e-01 4.586686e-01 7.316092e-01 7.577599e-01 7.164283e-01 7.981912e-01 6.822605e-01 6.761308e-01 7.689890e-01 6.689224e-01 5.808009e-01 3.456931e-04
<GCONST> 1.083652e+02
<MIXTURE> 16 6.160466e-02
<MEAN> 39
 -2.383181e+00 -9.862892e+00 -1.592410e+01 -2.412353e+01 -3.103427e+00 1.226871e+00 -7.962915e+00 -5.081900e+00 9.606933e-01 2.539586e+00 -3.160505e+00 -7.069041e+00 8.957670e-01 -3.724065e-01 -2.851938e+00 -4.573065e-01 8.940563e-01 9.464712e-01 6.618977e-01 1.685215e-01 1.502421e+00 2.209926e+00 -3.361863e-01 -2.001551e+00 -1.524297e+00 3.316545e-02 -3.850820e-02 2.887213e-01 5.736428e-01 4.572628e-01 -2.445293e-01 -4.161284e-01 5.474112e-02 -9.071200e-03 -5.092014e-01 -6.400315e-01 -1.283636e-01 4.678817e-01 -1.126339e-02
<VARIANCE> 39
 7.153972e+00 2.031437e+01 2.479254e+01 3.750185e+01 4.068023e+01 4.773677e+01 5.383110e+01 4.536639e+01 5.076234e+01 4.266890e+01 4.523270e+01 2.982928e+01 3.962750e-03 5.845190e-01 1.321164e+00 1.558874e+00 2.958578e+00 2.746644e+00 3.464942e+00 3.400111e+00 3.754133e+00 3.598439e+00 3.446856e+00 2.695610e+00 3.238858e+00 3.194587e-04 8.282270e-02 1.842343e-01 1.609637e-01 2.798274e-01 3.850675e-01 3.541245e-01 4.224957e-01 5.637746e-01 4.410900e-01 4.029306e-01 4.423263e-01 3.112165e-01 4.706306e-05
<GCONST> 8.654188e+01
<TRANSP> 5
 0.000000e+00 1.000000e+00 0.000000e+00 0.000000e+00 0.000000e+00
 0.000000e+00 6.865868e-01 3.134132e-01 0.000000e+00 0.000000e+00
 0.000000e+00 0.000000e+00 6.511326e-01 3.488674e-01 0.000000e+00
 0.000000e+00 0.000000e+00 0.000000e+00 6.324325e-01 3.675675e-01
 0.000000e+00 0.000000e+00 0.000000e+00 0.000000e+00 0.000000e+00
<ENDHMM>
