~o
<STREAMINFO> 1 39
<VECSIZE> 39<NULLD><MFCC_E_D_A><DIAGC>
~h "ow"
<BEGINHMM>
<NUMSTATES> 5
<STATE> 2
<NUMMIXES> 16
<MIXTURE> 1 6.709960e-02
<MEAN> 39
 -4.843225e-01 -1.371718e+01 -8.746464e+00 -1.308166e+01 -1.237151e+01 -3.043475e-01 -1.619564e+01 -2.304672e+00 1.532383e+00 3.711664e+00 5.878815e+00 -9.741772e+00 8.468452e-01 7.654517e-01 5.851981e-01 -1.283864e+00 -1.906635e+00 1.729118e-01 2.771641e+00 1.530163e+00 -2.089001e+00 -1.517021e+00 6.001220e-01 1.846801e+00 4.514024e-01 7.356997e-03 -2.094902e-01 4.816957e-01 4.775105e-01 7.957742e-02 -2.826654e-01 -1.594032e-01 6.031145e-01 6.863515e-03 -6.673818e-01 -7.133878e-01 -2.480057e-01 9.140877e-01 -9.658141e-03
<VARIANCE> 39
 6.468761e+00 2.047517e+01 1.798537e+01 2.316771e+01 2.731206e+01 4.317089e+01 3.424226e+01 4.066858e+01 4.290407e+01 4.343760e+01 4.758249e+01 2.326316e+01 9.814755e-03 3.122517e-01 6.644014e-01 1.031801e+00 1.860402e+00 1.742588e+00 2.240588e+00 1.976462e+00 2.158852e+00 2.163532e+00 2.522396e+00 1.607961e+00 1.762552e+00 2.196090e-04 9.213398e-02 1.603598e-01 1.831321e-01 2.188703e-01 3.291502e-01 3.600100e-01 4.313067e-01 5.205696e-01 4.127064e-01 5.399498e-01 4.278052e-01 2.475363e-01 5.465801e-05
<GCONST> 7.841089e+01
<MIXTURE> 2 4.997960e-02
<MEAN> 39
 -1.424356e+00 -1.164162e+01 -8.511552e+00 -1.150531e+01 -1.217515e+01 -4.554304e+00 -1.331054e+01 -4.924845e+00 4.759041e+00 2.563064e+00 2.724805e+00 -8.360716e+00 8.313044e-01 1.881777e+00 -1.417968e+00 -1.333312e+00 -1.679158e+00 -1.381209e+00 1.863298e+00 -2.862417e-01 -1.429471e+00 8.085119e-01 4.609528e-01 2.051327e+00 -9.732416e-01 5.318340e-02 -1.071060e+00 5.156773e-01 8.550481e-02 -1.465603e-01 6.591098e-01 3.190335e-01 9.797025e-01 1.812304e-01 -8.199058e-01 -2.711880e-01 -1.698381e-01 7.730983e-01 -2.204732e-02
<VARIANCE> 39
 6.550633e+00 1.955128e+01 2.421893e+01 3.311671e+01 3.481666e+01 4.987571e+01 4.963168e+01 4.540350e+01 3.717787e+01 3.455136e+01 2.957099e+01 2.842396e+01 8.305400e-03 1.893187e+00 2.034090e+00 2.158458e+00 2.232779e+00 3.963560e+00 4.390362e+00 4.938220e+00 3.051561e+00 3.676697e+00 2.687561e+00 2.711511e+00 2.822875e+00 9.479920e-04 3.463955e-01 3.590047e-01 3.549008e-01 4.072891e-01 4.871477e-01 6.786351e-01 7.843179e-01 6.289424e-01 5.351046e-01 6.186704e-01 4.096918e-01 5.074754e-01 1.331421e-04
<GCONST> 9.592059e+01
<MIXTURE> 3 8.199839e-02
<MEAN> 39
 6.671947e-01 -8.925822e+00 -1.089586e+01 -2.175002e+01 -1.588948e+01 8.688478e+00 -6.112286e+00 -6.229130e+00 6.954633e-01 -5.105015e+00 5.343013e+00 -1.392242e+00 8.550648e-01 6.128957e-02 -1.380891e-01 1.449590e-01 -7.123880e-01 -5.874602e-01 6.530763e-01 -1.106553e-01 -3.987231e-02 5.299804e-01 -4.715544e-01 1.640961e-01 1.067100e-01 1.555627e-02 -2.944790e-01 4.669574e-01 2.103074e-01 4.813595e-01 5.039834e-01 -5.642720e-01 5.414044e-02 1.312916e-02 -4.714987e-01 2.530707e-01 -3.321328e-01 -7.375317e-03 -1.664658e-02
<VARIANCE> 39
 6.934232e+00 3.064000e+01 2.728005e+01 6.421160e+01 5.457712e+01 5.533952e+01 6.153783e+01 5.883254e+01 3.552008e+01 3.619093e+01 4.629219e+01 3.927121e+01 9.088351e-03 3.408037e-01 7.579207e-01 8.319550e-01 1.344132e+00 1.379922e+00 1.059773e+00 1.435376e+00 1.539979e+00 1.463034e+00 1.529632e+00 1.339442e+00 1.172572e+00 2.777447e-04 8.576877e-02 1.318741e-01 2.035609e-01 2.623845e-01 3.709209e-01 3.099110e-01 3.272245e-01 3.828174e-01 3.258643e-01 2.429279e-01 2.806268e-01 3.096643e-01 5.443703e-05
<GCONST> 7.722498e+01
<MIXTURE> 4 5.108697e-02
<MEAN> 39
 -2.999202e+00 -1.289828e+01 -7.575115e+00 -1.031968e+01 -1.165647e+01 -1.040944e+01 -1.348283e+01 2.845070e+00 2.918934e+00 1.798463e+00 -3.051849e+00 -6.171737e+00 7.997834e-01 7.985966e-01 7.452323e-02 -2.404728e+00 -1.718612e+00 1.928033e+00 2.557886e+00 -3.372547e-01 -2.033384e+00 8.336653e-01 2.297082e+00 4.256918e-01 -1.961921e+00 1.226932e-02 -3.724061e-02 3.909295e-01 5.469726e-01 -3.927534e-01 -3.149036e-01 6.930305e-01 4.838310e-01 -6.720551e-01 -1.144842e+00 -1.249482e-01 7.797055e-01 4.163277e-01 -5.689577e-03
<VARIANCE> 39
 9.259437e+00 1.967011e+01 2.820444e+01 3.674505e+01 3.105532e+01 3.917528e+01 4.435659e+01 4.730138e+01 4.409263e+01 4.844738e+01 6.218142e+01 2.258440e+01 1.521418e-02 3.499322e-01 6.324031e-01 1.135511e+00 1.404783e+00 1.561493e+00 2.314708e+00 2.359248e+00 2.601077e+00 2.729645e+00 2.020628e+00 2.811061e+00 1.255524e+00 2.345211e-04 1.083928e-01 1.642948e-01 1.984157e-01 1.992459e-01 3.054281e-01 3.667130e-01 4.433805e-01 4.508680e-01 4.323786e-01 4.629037e-01 3.473746e-01 4.058844e-01 7.062691e-05
<GCONST> 8.179161e+01
<MIXTURE> 5 4.822093e-02
<MEAN> 39
 7.159938e-01 -7.763405e+00 -1.076486e+01 -2.076024e+01 -1.567919e+01 6.641700e+00 -5.133317e+00 -8.449630e+00 -1.367294e+00 -2.736678e+00 6.542580e+00 -1.876264e+00 8.197725e-01 1.138728e+00 -9.884592e-01 1.581536e-01 -2.223441e+00 -2.637910e+00 1.476105e+00 -2.909829e-01 -5.896553e-01 6.379053e-01 -1.049508e+00 1.194733e+00 2.320712e-01 6.022449e-02 -9.816184e-01 2.086409e-01 2.103840e-01 6.366095e-01 9.073985e-01 -4.647065e-01 2.455960e-02 4.938942e-01 8.158306e-02 1.704345e-01 -6.263900e-01 3.205952e-02 -3.002512e-02
<VARIANCE> 39
 6.162267e+00 3.017721e+01 2.544199e+01 4.300023e+01 3.648928e+01 5.066037e+01 4.859970e+01 4.907508e+01 5.067781e+01 3.328527e+01 4.284727e+01 3.482273e+01 1.038898e-02 1.156062e+00 1.554886e+00 1.381072e+00 2.426222e+00 2.929066e+00 3.057901e+00 3.461954e+00 2.569574e+00 2.197971e+00 2.261065e+00 2.690675e+00 2.464613e+00 1.093938e-03 2.426053e-01 3.304947e-01 3.231748e-01 3.382527e-01 3.417437e-01 5.288060e-01 4.861594e-01 5.451716e-01 5.015780e-01 3.480426e-01 4.618490e-01 4.217219e-01 1.989042e-04
<GCONST> 9.254207e+01
<MIXTURE> 6 6.937587e-02
<MEAN> 39
 -4.255038e-01 -8.173386e+00 -1.487639e+01 -1.618239e+01 -9.947335e+00 2.374687e-01 -4.219202e+00 -1.156629e+01 3.318967e-01 2.819439e+00 5.060295e+00 -4.299134e+00 8.373709e-01 5.383797e-01 8.806546e-01 -4.032484e-01 -1.942393e+00 -6.151409e-01 1.886359e+00 1.607034e+00 -8.653718e-01 -1.394912e+00 -1.203078e+00 7.383794e-01 1.884266e+00 7.026696e-03 -2.046650e-01 2.207923e-01 5.761197e-01 1.504409e-01 -1.996267e-01 -3.748661e-01 -2.146403e-01 7.612698e-01 -1.844464e-01 -5.541086e-01 -5.147461e-01 2.104562e-01 -8.511961e-03
<VARIANCE> 39
 8.521899e+00 2.065513e+01 2.354124e+01 4.128212e+01 3.025141e+01 4.979260e+01 4.795109e+01 3.681906e+01 5.742543e+01 4.189376e+01 4.754012e+01 3.105623e+01 1.325368e-02 3.603171e-01 1.222599e+00 1.154489e+00 2.472979e+00 1.589460e+00 2.465765e+00 2.967510e+00 2.276337e+00 2.829028e+00 2.648643e+00 2.249382e+00 1.884760e+00 3.794560e-04 9.078470e-02 1.554197e-01 1.854186e-01 3.043357e-01 3.540119e-01 4.720058e-01 4.137966e-01 3.812768e-01 4.645660e-01 4.710585e-01 5.071926e-01 3.490931e-01 6.405238e-05
<GCONST> 8.468931e+01
<MIXTURE> 7 4.727034e-02
<MEAN> 39
 -2.466062e+00 -1.254904e+01 -1.075443e+01 -2.393302e+01 -4.208734e+00 -7.149943e+00 -1.092090e+01 -1.583590e+00 -3.635008e+00 5.587074e+00 -1.018781e+01 -2.861734e+00 8.430316e-01 1.117897e+00 -1.936364e+00 -8.448802e-02 -2.914356e+00 2.878990e-01 8.789620e-01 -5.317661e-01 1.076314e+00 -4.070744e-01 1.819803e+00 -4.877787e-01 1.676363e-01 5.889154e-02 -1.114878e+00 6.058291e-01 2.192848e-01 1.136387e+00 2.099798e-01 4.860321e-01 6.878805e-01 4.503565e-02 1.069029e-01 -4.573829e-01 6.576436e-01 2.402055e-01 -3.230438e-02
<VARIANCE> 39
 1.001468e+01 2.021678e+01 3.525789e+01 3.617949e+01 2.688361e+01 5.880274e+01 3.973181e+01 3.879136e+01 4.841610e+01 6.648063e+01 5.890183e+01 2.795388e+01 6.203776e-03 1.558317e+00 2.354509e+00 1.981465e+00 2.643975e+00 2.461972e+00 3.511971e+00 3.528126e+00 3.505023e+00 3.260295e+00 4.373630e+00 3.086554e+00 2.316578e+00 8.353583e-04 2.963355e-01 3.257454e-01 3.437203e-01 3.762859e-01 4.235821e-01 6.146618e-01 5.803135e-01 5.966785e-01 5.804262e-01 7.713012e-01 5.987918e-01 3.434880e-01 2.374815e-04
<GCONST> 9.689062e+01
<MIXTURE> 8 6.363344e-02
<MEAN> 39
 -4.145907e+00 -1.409984e+01 -1.102177e+01 -2.139255e+01 -4.340715e+00 -7.930624e+00 -8.857172e+00 1.736963e+00 -1.537622e+00 1.873879e+00 -1.359441e+01 -2.499625e+00 8.817453e-01 6.253999e-02 -5.713297e-01 -2.137920e-01 -5.165438e-01 7.931075e-01 7.556868e-01 2.189530e-01 4.345262e-01 1.086894e-01 7.519453e-01 -2.866607e-01 -1.350634e-01 1.929535e-02 -1.803246e-01 7.154482e-01 1.260807e-01 6.229475e-01 -6.285105e-02 5.050749e-02 9.056572e-03 -6.558936e-01 -2.052069e-01 -1.801114e-01 6.208321e-01 -3.623440e-02 -1.785181e-02
<VARIANCE> 39
 9.064947e+00 1.845192e+01 4.271208e+01 4.200003e+01 4.662830e+01 6.773535e+01 5.037064e+01 4.131070e+01 4.907330e+01 5.428465e+01 3.500758e+01 3.288857e+01 6.470690e-03 3.838412e-01 8.262224e-01 1.360828e+00 1.349353e+00 2.049687e+00 2.169584e+00 1.696726e+00 1.588028e+00 1.902549e+00 2.954622e+00 1.774620e+00 1.694509e+00 2.289234e-04 1.463661e-01 1.610589e-01 2.301566e-01 2.664770e-01 3.392655e-01 4.765982e-01 3.601760e-01 5.248425e-01 4.412367e-01 4.024187e-01 3.085567e-01 3.122708e-01 6.105682e-05
<GCONST> 8.247236e+01
<MIXTURE> 9 8.077747e-02
<MEAN> 39
 -3.244050e-01 -1.194920e+01 -8.451886e+00 -2.414128e+01 -7.775839e+00 2.653008e+00 -1.124139e+01 -2.581340e+00 -5.423367e+00 7.929598e+00 8.898516e-01 -4.383823e+00 8.607548e-01 1.994967e-01 -4.786882e-01 2.600823e-01 -1.122778e+00 -4.430212e-01 8.363362e-01 -1.988813e-01 1.864967e-01 -1.874247e-01 2.751133e-01 4.839401e-01 1.688346e-01 2.223103e-02 -4.759490e-01 6.483933e-01 2.545692e-02 7.752016e-01 2.761220e-01 -2.909715e-01 4.178996e-01 -1.607159e-01 5.353195e-02 -5.667520e-01 -1.538813e-01 2.531031e-01 -2.304729e-02
<VARIANCE> 39
 5.649153e+00 2.259892e+01 2.965533e+01 5.495242e+01 4.187173e+01 4.612953e+01 4.345053e+01 2.757115e+01 4.314211e+01 3.268919e+01 4.561343e+01 2.714524e+01 7.844098e-03 3.700732e-01 7.961577e-01 9.935300e-01 1.849203e+00 1.321685e+00 1.432929e+00 1.750117e+00 1.673989e+00 1.593784e+00 1.749060e+00 1.907893e+00 1.311765e+00 3.179476e-04 1.636927e-01 1.897731e-01 2.290988e-01 3.081198e-01 4.012911e-01 2.995744e-01 2.958382e-01 3.091200e-01 3.596300e-01 3.123280e-01 3.200882e-01 2.289169e-01 1.051254e-04
<GCONST> 7.849755e+01
<MIXTURE> 10 1.076730e-01
<MEAN> 39
 -2.426550e-01 -1.117944e+01 -1.388252e+01 -1.708610e+01 -9.002377e+00 -4.108272e+00 -5.622924e+00 -3.017335e+00 -2.967051e+00 2.519715e+00 2.907048e+00 -7.011263e+00 8.650979e-01 -1.844396e-01 3.695694e-01 5.132629e-01 -9.997513e-01 -3.435135e-01 1.010207e+00 3.403494e-01 -7.496046e-01 -2.291283e-01 2.931108e-01 -2.911340e-02 -8.853988e-02 -8.338924e-04 5.730110e-02 2.216482e-01 2.895479e-02 1.790611e-01 1.902128e-02 -1.492240e-02 -4.113887e-01 -7.473813e-03 -5.212496e-02 -2.475388e-01 -1.164276e-01 3.542016e-01 -6.570991e-03
<VARIANCE> 39
 1.016127e+01 2.240339e+01 2.525929e+01 4.755270e+01 4.841768e+01 7.269276e+01 6.137455e+01 5.933839e+01 8.430536e+01 5.084455e+01 8.291273e+01 4.786845e+01 9.921096e-03 2.486792e-01 6.932492e-01 9.208389e-01 2.038792e+00 1.796978e+00 2.064037e+00 2.309698e+00 2.600551e+00 2.072295e+00 1.728301e+00 1.670440e+00 1.521231e+00 1.717715e-04 5.127004e-02 8.179940e-02 1.296836e-01 2.129447e-01 2.378136e-01 2.950112e-01 2.762710e-01 3.000526e-01 3.685468e-01 2.733728e-01 2.560248e-01 2.209357e-01 3.162160e-05
<GCONST> 7.837354e+01
<MIXTURE> 11 6.325160e-02
<MEAN> 39
 -1.673822e+00 -5.844073e+00 -1.146901e+01 -1.661611e+01 -7.450312e+00 1.522900e+00 -5.803913e+00 -3.299339e+00 -4.789567e+00 3.337171e+00 1.777213e+00 -4.540595e+00 6.735389e-01 2.704029e+00 -5.906610e-01 -1.077828e-01 -2.933197e+00 -2.571604e+00 1.419421e+00 -5.691962e-01 -9.068165e-01 -9.918934e-01 -2.195333e-01 1.520628e+00 -8.175629e-02 1.039330e-01 -6.958841e-01 -3.448029e-01 1.663885e-01 4.749485e-02 -6.983782e-02 -1.432912e-01 -1.180059e-01 1.669317e-01 3.114725e-01 -1.754004e-01 -1.349279e-03 3.473059e-01 -1.075381e-02
<VARIANCE> 39
 8.990867e+00 2.270136e+01 2.582863e+01 4.641568e+01 2.561955e+01 3.988240e+01 3.469373e+01 3.367231e+01 3.527690e+01 3.928682e+01 3.872199e+01 2.823239e+01 1.935713e-02 1.997562e+00 2.212713e+00 2.650387e+00 4.163628e+00 4.281068e+00 3.648321e+00 5.183798e+00 3.578968e+00 3.522942e+00 4.530119e+00 3.612800e+00 2.838395e+00 2.568986e-03 3.300045e-01 2.658185e-01 4.085320e-01 5.001040e-01 4.118864e-01 3.801343e-01 4.576091e-01 4.311030e-01 4.046856e-01 5.174258e-01 4.718683e-01 4.131876e-01 4.611361e-04
<GCONST> 9.867427e+01
<MIXTURE> 12 7.100252e-02
<MEAN> 39
 -3.013232e+00 -1.622975e+01 -8.346977e+00 -1.624032e+01 -7.340099e+00 -7.458843e+00 -1.069545e+01 4.187799e+00 1.052234e+00 1.909847e+00 -1.069305e+01 -5.055187e+00 8.559780e-01 5.063351e-01 2.526059e-01 -1.064115e+00 -9.157091e-01 1.204706e+00 1.355849e+00 -7.658868e-01 -1.599367e+00 3.377696e-01 1.593029e+00 3.234771e-01 -1.311340e+00 1.716003e-03 -2.355448e-02 3.496809e-01 1.745039e-01 -6.270254e-02 -3.569714e-01 6.886175e-02 2.153512e-02 -3.953964e-01 -5.114759e-01 -9.768520e-03 5.754144e-01 1.669487e-01 -6.083558e-03
<VARIANCE> 39
 7.955146e+00 1.809526e+01 3.335422e+01 3.861615e+01 4.699510e+01 5.335359e+01 5.949031e+01 4.921784e+01 4.105246e+01 5.154031e+01 4.771484e+01 2.866221e+01 1.225523e-02 1.791873e-01 4.768355e-01 6.369878e-01 7.484840e-01 1.183568e+00 1.448412e+00 1.977831e+00 1.308533e+00 1.708057e+00 1.734687e+00 1.601757e+00 1.194855e+00 1.602326e-04 3.183100e-02 6.620655e-02 9.856771e-02 1.203100e-01 2.177708e-01 2.350501e-01 2.532399e-01 2.693713e-01 2.682923e-01 2.771600e-01 2.128530e-01 2.106599e-01 2.135433e-05
<GCONST> 6.866645e+01
<MIXTURE> 13 6.160298e-02
<MEAN> 39
 -1.901123e+00 -1.389747e+01 -1.180566e+01 -2.141993e+01 -4.425846e+00 -1.004450e+00 -1.259775e+01 -2.531499e+00 -1.089806e+00 6.711768e+00 -6.492067e+00 -7.924733e+00 8.632000e-01 6.005999e-01 1.175202e+00 -8.207943e-01 -1.818802e+00 3.361003e-01 2.552339e+00 -1.522388e-01 -1.658314e+00 -1.730829e+00 6.608779e-01 1.986027e+00 6.018835e-01 -1.199761e-03 -5.961961e-02 3.507144e-01 3.331281e-01 2.296278e-01 -6.171840e-01 -4.159725e-01 4.110519e-01 3.257121e-01 -4.820686e-01 -7.836729e-01 1.934774e-01 8.075950e-01 -6.369604e-03
<VARIANCE> 39
 7.306855e+00 1.897663e+01 3.310052e+01 4.045758e+01 3.957881e+01 5.177472e+01 4.250192e+01 3.541970e+01 4.229834e+01 6.359560e+01 5.522469e+01 2.611521e+01 1.104807e-02 2.705398e-01 5.034402e-01 7.681903e-01 1.117219e+00 1.505101e+00 1.666198e+00 1.782601e+00 1.729202e+00 2.335665e+00 2.964398e+00 1.579465e+00 2.053736e+00 2.153588e-04 5.044700e-02 1.158113e-01 1.206015e-01 2.213715e-01 2.391744e-01 2.989176e-01 2.580431e-01 3.362376e-01 3.457194e-01 3.820660e-01 3.581732e-01 2.797855e-01 2.990240e-05
<GCONST> 7.539307e+01
<MIXTURE> 14 5.246377e-02
<MEAN> 39
 -5.726194e+00 -1.595957e+01 -6.776531e+00 -1.732385e+01 -1.094494e+01 -1.259113e+01 -3.152498e+00 6.015766e+00 -5.461414e+00 -4.520494e+00 -1.174663e+01 5.191124e-01 8.519729e-01 4.486105e-01 -5.432776e-01 -1.050767e+00 2.412272e-02 1.557315e+00 4.435229e-01 -6.998525e-01 3.104797e-01 1.139269e+00 2.487908e-01 -9.582255e-01 -3.991030e-01 1.250990e-02 4.546936e-02 4.294418e-01 6.082247e-02 -1.118617e-02 1.028124e-01 1.295414e-01 -3.981330e-01 -6.700797e-01 1.197199e-01 4.484241e-01 1.168486e-01 -2.552022e-01 -7.864868e-03
<VARIANCE> 39
 4.657534e+00 1.418691e+01 2.569937e+01 2.297771e+01 4.054773e+01 3.370424e+01 5.513117e+01 3.673386e+01 4.080396e+01 4.599804e+01 3.448276e+01 2.554092e+01 7.917989e-03 3.308577e-01 7.442029e-01 8.894560e-01 7.118558e-01 2.123605e+00 1.934925e+00 2.077304e+00 1.525784e+00 1.515351e+00 2.154917e+00 1.388618e+00 1.355096e+00 2.408571e-04 6.720011e-02 1.343216e-01 1.302920e-01 1.786920e-01 3.155509e-01 2.072333e-01 2.596548e-01 4.764913e-01 2.882558e-01 3.458383e-01 2.276411e-01 2.361853e-01 4.506649e-05
<GCONST> 7.223361e+01
<MIXTURE> 15 4.462751e-02
<MEAN> 39
 -2.915462e+00 -1.649024e+01 -2.594190e+00 -1.157532e+01 -1.498589e+01 -4.892944e+00 -1.910024e+01 5.895623e+00 2.243939e+00 6.983467e-01 -1.862402e+00 -6.424815e+00 8.459721e-01 9.085785e-01 -1.324325e+00 -1.502600e+00 -1.524242e+00 3.191431e-01 1.658080e+00 -5.301201e-01 1.098129e-01 9.427023e-01 1.444241e+00 6.551389e-01 -1.504061e+00 3.715930e-02 -4.309103e-01 8.786767e-01 -2.019389e-01 1.953973e-01 6.383996e-01 3.361671e-01 1.315679e+00 -1.228430e+00 -7.399568e-01 1.286193e-01 1.513851e-01 1.597123e-01 -2.150530e-02
<VARIANCE> 39
 8.159314e+00 1.413480e+01 2.357044e+01 2.411781e+01 2.352869e+01 4.292228e+01 3.400573e+01 2.888931e+01 3.780488e+01 3.291519e+01 3.844489e+01 2.619102e+01 8.095793e-03 8.048664e-01 1.463029e+00 1.731070e+00 1.796738e+00 2.618222e+00 1.995908e+00 2.988050e+00 3.678240e+00 2.652446e+00 2.536618e+00 2.428885e+00 1.817717e+00 4.123485e-04 4.226403e-01 1.843894e-01 3.122337e-01 3.509268e-01 4.133292e-01 5.265771e-01 5.006826e-01 6.532183e-01 6.986408e-01 5.032243e-01 2.736481e-01 5.017501e-01 7.813407e-05
<GCONST> 8.685304e+01
<MIXTURE> 16 3.992340e-02
<MEAN> 39
 -4.255564e+00 -9.240535e+00 -1.380061e+01 -1.868855e+01 -5.279556e+00 -8.844256e+00 -6.654284e+00 -4.223388e+00 -1.399301e+00 -2.132164e+00 -1.260826e+01 -2.843391e+00 7.237185e-01 2.543348e+00 -1.554194e+00 -1.185810e+00 -3.605403e+00 -2.701357e-02 -3.169237e-01 -1.265605e+00 -3.361691e-01 -5.941582e-01 1.042317e+00 -1.566975e+00 -5.693401e-01 9.786239e-02 -7.805240e-01 2.087328e-02 3.460278e-01 2.320069e-01 1.451675e-01 5.236503e-01 3.853851e-01 4.672045e-01 7.655580e-02 5.673764e-01 7.543567e-01 2.263796e-01 -1.097246e-02
<VARIANCE> 39
 1.013260e+01 2.139036e+01 2.408776e+01 5.057162e+01 5.154889e+01 5.229532e+01 4.691730e+01 3.645151e+01 6.412116e+01 5.211738e+01 3.479664e+01 3.173788e+01 1.536089e-02 2.607396e+00 2.944584e+00 2.146403e+00 3.556975e+00 5.008654e+00 4.173576e+00 3.896557e+00 4.377832e+00 3.885897e+00 5.138176e+00 4.254754e+00 2.383896e+00 3.207324e-03 5.650290e-01 3.040884e-01 3.134659e-01 5.714993e-01 7.673934e-01 7.812276e-01 7.196190e-01 7.363117e-01 9.766928e-01 6.494868e-01 5.581692e-01 5.312359e-01 3.963760e-04
<GCONST> 1.058347e+02
<STATE> 3
<NUMMIXES> 16
<MIXTURE> 1 4.425758e-02
<MEAN> 39
 1.419675e+00 -1.037433e+01 -1.197527e+01 -1.977261e+01 -1.331818e+01 4.551471e+00 -3.355485e+00 -1.115410e+01 1.473061e-01 -9.166957e-01 5.240553e+00 -1.978031e-01 8.585722e-01 1.636933e-01 3.945744e-01 1.139214e-01 -4.365454e-01 -3.577419e-01 4.490106e-01 1.023797e-02 1.211961e-01 -6.422647e-01 -5.546369e-01 1.392820e-01 6.852121e-01 -2.691543e-03 -2.775138e-02 1.228390e-01 1.667569e-02 1.417394e-01 -2.664960e-02 -1.037750e-01 -1.658724e-01 1.291347e-01 -1.111389e-01 -6.470252e-02 -1.391332e-02 -7.699645e-02 -3.260416e-03
<VARIANCE> 39
 6.569967e+00 2.175136e+01 1.563129e+01 3.268360e+01 3.269030e+01 4.244849e+01 4.538233e+01 2.244343e+01 3.418549e+01 3.564701e+01 5.652494e+01 5.409286e+01 4.459796e-03 1.280636e-01 2.512594e-01 4.003750e-01 5.961518e-01 5.213150e-01 4.473898e-01 8.249866e-01 7.539681e-01 9.242199e-01 8.204527e-01 8.360733e-01 6.568410e-01 1.022761e-04 1.761498e-02 4.351038e-02 5.048117e-02 6.778239e-02 7.229890e-02 7.809373e-02 1.121795e-01 1.192966e-01 1.379215e-01 1.068389e-01 1.256260e-01 1.212104e-01 1.553555e-05
<GCONST> 4.807521e+01
<MIXTURE> 2 7.110196e-02
<MEAN> 39
 -3.669766e-01 -1.071862e+01 -1.007555e+01 -2.430220e+01 -6.598372e+00 3.043186e+00 -1.165775e+01 -3.136992e+00 -8.269158e+00 8.498222e+00 6.949527e-01 -3.778078e+00 8.518255e-01 3.456858e-01 9.906687e-01 4.590266e-02 -7.652656e-01 -5.569971e-01 8.937025e-01 5.058902e-01 -6.369277e-01 -1.263088e+00 -8.653378e-01 7.763653e-01 1.330498e+00 -7.922443e-03 -1.830882e-02 1.267697e-01 6.862168e-02 3.078990e-01 -1.738780e-01 -3.632320e-01 7.319136e-02 1.117714e-01 1.182457e-01 -4.488512e-01 -2.801578e-01 -1.682175e-02 -5.076522e-03
<VARIANCE> 39
 7.228564e+00 2.093979e+01 3.287460e+01 3.536005e+01 3.401118e+01 3.861874e+01 4.967022e+01 3.045213e+01 3.924142e+01 3.589482e+01 6.024298e+01 2.303208e+01 7.930110e-03 1.916574e-01 4.391835e-01 5.257103e-01 1.088858e+00 7.150423e-01 1.080378e+00 1.192285e+00 9.067439e-01 1.731708e+00 1.333280e+00 1.231395e+00 8.490748e-01 1.629470e-04 2.952412e-02 7.318438e-02 8.140443e-02 1.387768e-01 1.159480e-01 1.810877e-01 1.583219e-01 2.163297e-01 1.783405e-01 2.152611e-01 2.284073e-01 1.463342e-01 2.429363e-05
<GCONST> 6.171025e+01
<MIXTURE> 3 5.059244e-02
<MEAN> 39
 5.424311e-01 -1.441473e+00 -6.387512e+00 -3.034471e+01 -2.079334e+01 8.840758e+00 -4.895344e+00 -5.326240e+00 2.179680e+00 -7.544127e+00 -6.850587e-01 1.549030e+00 8.139001e-01 -8.784541e-02 6.141014e-01 3.514690e-01 -3.989557e-01 4.827505e-02 -2.932498e-01 -3.565496e-01 3.686041e-01 2.246734e-01 -2.962257e-01 -5.270682e-01 3.341564e-03 -5.841575e-03 -1.936740e-02 -1.147737e-01 -9.081467e-02 2.048742e-01 2.787665e-01 -9.094851e-02 3.493243e-03 -1.333678e-01 -2.467065e-01 2.034975e-01 1.665583e-01 3.469727e-02 -1.883388e-03
<VARIANCE> 39
 7.024693e+00 2.152129e+01 2.382782e+01 5.172970e+01 2.937752e+01 3.106915e+01 3.728623e+01 5.483568e+01 3.304429e+01 2.045272e+01 3.054880e+01 2.101954e+01 9.669268e-03 1.309053e-01 4.722123e-01 3.729052e-01 5.419317e-01 7.605671e-01 8.086255e-01 7.386826e-01 1.054870e+00 9.442489e-01 8.156124e-01 9.089209e-01 7.025475e-01 9.608651e-05 2.562861e-02 9.201592e-02 7.678908e-02 9.110089e-02 1.117438e-01 1.374872e-01 1.230761e-01 1.534093e-01 1.079405e-01 1.733079e-01 1.267381e-01 1.308925e-01 2.136793e-05
<GCONST> 5.352652e+01
<MIXTURE> 4 5.635411e-02
<MEAN> 39
 7.425981e-01 -7.647597e+00 -8.039599e+00 -2.714470e+01 -1.042791e+01 5.564915e+00 -7.606525e+00 -4.905395e+00 -9.690116e+00 4.851734e+00 6.016186e-01 2.234562e+00 8.168678e-01 2.054081e-01 1.319751e+00 2.305419e-01 -8.359865e-01 -8.566552e-01 5.298220e-01 5.765794e-01 5.609486e-01 -8.091227e-01 -1.800162e+00 -6.035128e-01 1.036151e+00 -1.056411e-02 -1.728447e-01 1.622327e-01 -8.843597e-02 6.897303e-01 1.630038e-01 -6.264491e-01 -5.094722e-02 2.278891e-01 4.302580e-01 -2.220275e-01 -2.100941e-01 -5.597458e-01 -8.945390e-03
<VARIANCE> 39
 6.321087e+00 2.424738e+01 2.470520e+01 4.585983e+01 3.545668e+01 3.800396e+01 4.211105e+01 4.107651e+01 4.643343e+01 4.231643e+01 3.409888e+01 1.777420e+01 1.071634e-02 4.811811e-01 6.527117e-01 1.122427e+00 2.394200e+00 1.594300e+00 2.200539e+00 2.118552e+00 1.635514e+00 2.571615e+00 2.253904e+00 2.403838e+00 1.570304e+00 3.882252e-04 7.052164e-02 1.737217e-01 1.648986e-01 2.446315e-01 2.696748e-01 3.262743e-01 2.898812e-01 2.907198e-01 3.537056e-01 3.648823e-01 3.376302e-01 2.687316e-01 5.196508e-05
<GCONST> 7.858878e+01
<MIXTURE> 5 6.780481e-02
<MEAN> 39
 9.860745e-01 -4.989416e+00 -1.416771e+01 -1.542037e+01 -1.231637e+01 2.945170e+00 -2.411032e+00 -3.941133e+00 -4.828389e+00 -5.632392e+00 3.836919e+00 -8.011093e-01 7.132905e-01 -6.905693e-02 4.338661e-01 2.899321e-01 2.513499e-01 -1.986349e-01 -5.281758e-01 2.634804e-01 7.902439e-02 -1.440182e-01 -9.124605e-03 -2.475284e-01 -6.274494e-02 -1.313952e-02 -4.581229e-02 -5.510055e-02 1.241894e-01 4.863358e-02 1.134154e-01 -8.928557e-02 -1.189126e-01 -4.200752e-02 5.798191e-02 1.680698e-01 -6.461453e-02 -9.742370e-02 -1.701899e-03
<VARIANCE> 39
 6.390530e+00 1.726264e+01 2.190186e+01 4.345995e+01 5.481553e+01 4.986353e+01 6.449651e+01 4.114858e+01 4.517733e+01 4.275452e+01 3.775693e+01 3.133083e+01 1.491650e-02 1.638250e-01 2.938307e-01 4.704674e-01 6.674175e-01 7.292010e-01 8.116785e-01 9.309535e-01 7.840749e-01 9.299836e-01 7.403181e-01 8.933111e-01 7.427717e-01 1.043798e-04 3.158881e-02 3.513050e-02 6.072022e-02 6.991906e-02 1.051054e-01 1.127701e-01 1.331655e-01 1.212403e-01 1.210637e-01 1.160840e-01 1.176350e-01 1.120196e-01 1.323738e-05
<GCONST> 5.383690e+01
<MIXTURE> 6 6.765305e-02
<MEAN> 39
 1.469111e+00 -8.581416e+00 -1.182295e+01 -1.899753e+01 -1.499926e+01 6.988995e+00 -6.113089e+00 -9.014109e+00 -3.697324e+00 -1.313157e+00 7.212287e+00 -1.285098e+00 8.325199e-01 2.156721e-01 1.159157e+00 1.422411e-01 -9.499355e-01 -8.310152e-01 7.365922e-01 9.002429e-01 2.588701e-02 -8.459650e-01 -1.529806e+00 -2.608777e-01 1.204623e+00 -8.116513e-03 -1.068667e-01 -1.891038e-02 1.985054e-01 2.634879e-01 1.305654e-01 -5.376559e-01 -3.332147e-01 4.395753e-01 2.111612e-01 6.006968e-02 -4.629916e-01 -2.996592e-01 -3.367959e-03
<VARIANCE> 39
 7.070495e+00 2.648009e+01 2.266239e+01 3.783267e+01 2.772863e+01 2.778230e+01 4.981680e+01 4.118270e+01 4.646947e+01 4.403560e+01 4.423373e+01 2.654796e+01 1.163296e-02 1.423953e-01 4.726232e-01 7.192245e-01 1.142905e+00 1.095317e+00 1.291136e+00 1.678003e+00 1.372840e+00 1.971016e+00 1.459618e+00 1.994506e+00 1.179796e+00 1.320870e-04 3.024241e-02 8.957822e-02 1.082277e-01 2.031645e-01 1.621619e-01 2.183555e-01 3.087680e-01 1.897010e-01 2.176000e-01 2.168411e-01 2.006407e-01 1.761850e-01 2.027166e-05
<GCONST> 6.633271e+01
<MIXTURE> 7 4.534153e-02
<MEAN> 39
 -2.651583e+00 -1.281016e+01 -1.458813e+01 -1.983626e+01 -4.008492e+00 -2.343522e+00 -1.318679e+01 -1.173830e+00 -2.972633e+00 1.314989e+00 -8.392009e+00 -7.460752e+00 8.394240e-01 2.789526e-01 5.650341e-01 -1.954507e-01 -3.143962e-01 1.431564e-01 4.077524e-01 -9.344605e-02 -6.154850e-01 -3.929456e-01 5.002943e-01 9.358108e-01 -7.343829e-02 -6.967995e-03 4.397492e-02 1.348814e-01 1.684896e-01 5.358312e-03 -6.867030e-02 -1.374079e-02 1.151088e-01 1.899008e-02 -7.262050e-02 5.682498e-03 1.490598e-01 2.701447e-01 -2.369592e-03
<VARIANCE> 39
 7.462599e+00 1.893927e+01 2.977715e+01 4.109179e+01 4.106896e+01 5.253360e+01 4.415343e+01 2.899298e+01 6.066900e+01 8.074612e+01 5.291710e+01 3.296444e+01 9.106017e-03 1.195365e-01 2.689092e-01 4.126804e-01 6.611208e-01 4.981610e-01 9.251074e-01 9.306885e-01 9.186826e-01 9.929775e-01 9.608387e-01 9.833008e-01 1.079665e+00 8.854863e-05 2.118301e-02 3.596168e-02 3.544487e-02 7.654537e-02 1.023382e-01 9.663162e-02 1.335234e-01 1.110381e-01 1.751556e-01 1.363062e-01 1.405647e-01 1.083163e-01 9.426511e-06
<GCONST> 5.343563e+01
<MIXTURE> 8 6.896505e-02
<MEAN> 39
 -2.867224e+00 -1.234055e+01 -9.806695e+00 -2.282690e+01 -4.653161e+00 -9.191353e+00 -1.187033e+01 -6.501098e-01 -3.051723e+00 6.785004e+00 -1.159878e+01 -3.782378e+00 8.564469e-01 8.678146e-02 8.406923e-01 3.603286e-01 3.806297e-01 -2.867618e-01 -5.554900e-01 -7.162575e-01 -8.530105e-01 -6.949882e-01 -1.117204e-01 4.016068e-01 4.013782e-01 -2.201808e-02 -9.771939e-02 4.035642e-01 3.515332e-02 6.272847e-01 -1.218636e-01 2.199049e-02 2.142929e-01 -2.716591e-01 -1.711692e-01 -5.946220e-01 3.508093e-01 8.667204e-02 -1.219692e-02
<VARIANCE> 39
 7.829257e+00 1.656344e+01 3.295299e+01 4.194727e+01 3.802541e+01 6.528886e+01 4.708601e+01 4.198782e+01 4.672220e+01 5.800129e+01 5.306757e+01 3.791480e+01 9.288278e-03 3.867492e-01 8.493292e-01 1.028539e+00 1.529682e+00 1.749541e+00 2.154763e+00 2.066548e+00 2.690147e+00 2.574449e+00 2.713196e+00 2.117472e+00 2.048007e+00 2.647620e-04 8.102037e-02 1.485868e-01 1.814065e-01 2.552439e-01 2.484879e-01 3.678789e-01 3.275980e-01 4.035706e-01 4.042345e-01 4.439245e-01 3.109482e-01 3.038537e-01 5.498096e-05
<GCONST> 8.177571e+01
<MIXTURE> 9 6.796297e-02
<MEAN> 39
 -3.896813e+00 -1.396600e+01 -9.042846e+00 -2.040284e+01 -4.233295e+00 -1.132483e+01 -6.887959e+00 2.415911e+00 -3.585614e-01 1.885419e+00 -1.362874e+01 -1.200452e+00 8.638144e-01 6.740216e-02 4.043216e-01 1.091705e-01 -1.251274e-02 -8.297034e-02 -2.657331e-01 -5.683088e-01 -4.754107e-01 -8.676879e-02 4.100052e-01 1.916708e-01 1.238500e-02 -7.291764e-03 1.391329e-02 1.448302e-01 -3.776554e-02 6.558365e-02 -1.550029e-01 -1.074069e-01 -2.444800e-01 -2.414155e-01 -2.035775e-01 -8.362960e-02 1.419457e-01 -1.016387e-01 -4.486571e-03
<VARIANCE> 39
 6.283059e+00 1.794502e+01 3.141631e+01 2.953738e+01 4.732360e+01 4.603992e+01 4.071916e+01 3.316093e+01 3.306253e+01 5.296526e+01 2.562019e+01 2.585574e+01 8.867207e-03 1.747828e-01 4.516666e-01 5.728778e-01 6.775903e-01 7.207088e-01 1.077066e+00 1.052779e+00 1.025603e+00 1.338722e+00 1.187346e+00 9.244716e-01 1.041278e+00 1.440805e-04 2.984574e-02 6.313815e-02 6.191300e-02 1.112813e-01 9.541429e-02 1.373055e-01 1.306649e-01 1.391614e-01 2.137077e-01 1.695246e-01 1.231134e-01 1.271889e-01 2.000158e-05
<GCONST> 5.739833e+01
<MIXTURE> 10 8.730335e-02
<MEAN> 39
 1.368582e-01 -1.168750e+01 -8.574373e+00 -1.550090e+01 -1.068006e+01 -1.970728e+00 -1.289924e+01 -4.864660e+00 2.803446e-01 6.904885e+00 2.264824e+00 -7.218727e+00 7.941059e-01 2.221713e-01 7.728128e-01 -4.758960e-02 -1.180961e-01 3.690077e-02 5.870929e-01 -2.398006e-01 -9.922327e-01 -1.223711e+00 1.104084e-01 8.660658e-01 5.673064e-01 -1.414913e-02 -1.087540e-01 1.654777e-01 1.311747e-01 1.164873e-01 6.448016e-02 -1.153653e-01 6.981387e-02 1.002081e-01 -2.248740e-01 -3.695918e-01 -1.397294e-01 2.078759e-01 -5.349739e-03
<VARIANCE> 39
 6.997487e+00 2.283106e+01 3.337018e+01 4.053230e+01 2.502925e+01 4.886779e+01 4.880487e+01 4.701000e+01 3.770677e+01 3.093983e+01 4.748126e+01 2.230712e+01 1.864278e-02 2.084000e-01 5.031033e-01 8.427640e-01 1.128767e+00 9.150356e-01 1.605744e+00 1.444833e+00 1.081555e+00 1.366775e+00 1.132508e+00 1.069180e+00 9.742095e-01 1.745388e-04 3.798424e-02 1.112421e-01 1.290263e-01 1.603163e-01 1.491188e-01 2.155845e-01 1.899766e-01 1.990058e-01 2.357350e-01 1.892751e-01 1.747966e-01 1.421517e-01 2.785174e-05
<GCONST> 6.585223e+01
<MIXTURE> 11 7.655178e-02
<MEAN> 39
 -3.053155e-01 -4.870462e+00 -9.817026e+00 -3.161269e+01 -6.833555e+00 3.409451e+00 -6.656887e+00 -4.794126e-01 -8.975114e+00 9.663508e-01 -3.287616e+00 1.376452e+00 7.955344e-01 1.830828e-02 6.146925e-01 2.070748e-01 -1.368804e-01 -2.665251e-01 -2.466767e-01 -1.981151e-02 1.821242e-01 -9.643620e-02 -4.802518e-01 -2.478329e-02 9.329452e-02 -9.299342e-03 -2.637260e-03 -5.050522e-02 -3.299918e-02 2.318586e-01 -8.568229e-03 -1.139710e-01 -6.274899e-02 -1.207318e-01 7.932922e-02 5.780960e-02 1.058463e-02 -1.518020e-01 -1.887776e-03
<VARIANCE> 39
 6.826653e+00 3.497375e+01 3.325610e+01 4.754338e+01 5.808279e+01 3.492261e+01 3.419662e+01 3.619622e+01 2.815919e+01 4.849290e+01 4.042306e+01 2.217349e+01 1.344335e-02 9.131842e-02 2.746820e-01 2.611433e-01 5.786966e-01 6.684142e-01 6.025164e-01 6.044842e-01 7.323796e-01 7.903005e-01 8.268127e-01 7.076896e-01 6.172574e-01 8.437335e-05 1.621791e-02 3.614375e-02 4.602125e-02 8.469031e-02 9.194653e-02 1.086047e-01 8.986312e-02 1.060684e-01 1.114926e-01 1.058067e-01 1.155769e-01 7.762884e-02 1.199457e-05
<GCONST> 4.829574e+01
<MIXTURE> 12 6.559270e-02
<MEAN> 39
 -9.449564e-01 -6.981152e+00 -1.244818e+01 -2.173923e+01 -3.526972e+00 -1.506048e+00 -9.727481e+00 -4.284932e+00 -5.852800e+00 2.365247e+00 -1.447755e+00 -4.437761e+00 7.786591e-01 -1.615585e-01 2.713956e-01 4.491023e-01 3.049034e-01 -1.459327e-01 -6.538286e-01 -1.337359e-01 -3.475494e-01 -7.069250e-02 9.095286e-02 -5.627059e-01 5.020525e-02 -1.297899e-02 -9.810062e-02 -1.095543e-01 2.176127e-01 3.299219e-01 -2.155621e-01 -2.351600e-01 -9.091223e-02 -1.936151e-02 1.042855e-01 -8.543704e-02 -2.646284e-01 -6.013071e-02 -3.605511e-03
<VARIANCE> 39
 5.607507e+00 2.169220e+01 3.265482e+01 5.626096e+01 3.350727e+01 5.688766e+01 5.989404e+01 5.129734e+01 7.043700e+01 5.639483e+01 6.004565e+01 2.719437e+01 1.696398e-02 1.590154e-01 4.452111e-01 5.181503e-01 1.003814e+00 9.962772e-01 1.094834e+00 1.749163e+00 1.323163e+00 1.659979e+00 1.262402e+00 1.274963e+00 7.689590e-01 1.198511e-04 2.885628e-02 8.440299e-02 1.136205e-01 2.013655e-01 1.827291e-01 2.051537e-01 2.474891e-01 2.848992e-01 2.956754e-01 2.652794e-01 2.510729e-01 1.521865e-01 2.902080e-05
<GCONST> 6.851254e+01
<MIXTURE> 13 4.841451e-02
<MEAN> 39
 -2.788582e-01 -8.073715e+00 -1.355479e+01 -2.291749e+01 -7.533000e+00 8.397823e-01 -9.321018e+00 -3.807808e+00 -8.055438e+00 2.115432e+00 2.370325e+00 -3.237875e+00 8.163852e-01 2.156909e-01 1.422053e+00 2.742209e-01 -3.527138e-01 -5.175682e-01 3.839754e-01 5.887156e-01 -2.859395e-01 -1.479843e+00 -9.176415e-01 3.855949e-01 6.902657e-01 -2.402703e-02 -3.264248e-01 2.095071e-01 2.738864e-01 8.984132e-01 1.364864e-01 -5.276093e-01 2.157950e-01 5.200351e-02 4.106865e-01 -3.390000e-01 -6.571784e-01 -7.183115e-02 -1.635953e-02
<VARIANCE> 39
 1.095015e+01 2.689287e+01 3.124225e+01 7.327927e+01 5.027238e+01 4.810528e+01 7.639494e+01 5.305124e+01 7.013877e+01 8.083321e+01 9.340906e+01 3.790370e+01 1.399930e-02 4.883084e-01 1.199908e+00 1.104043e+00 2.324234e+00 2.512216e+00 2.531302e+00 3.353782e+00 2.958711e+00 3.478012e+00 3.047397e+00 2.880126e+00 2.926085e+00 5.580406e-04 1.963477e-01 2.790440e-01 3.071027e-01 4.820668e-01 5.165904e-01 5.092748e-01 5.612683e-01 5.462137e-01 6.953698e-01 8.607069e-01 5.696405e-01 5.389521e-01 1.565374e-04
<GCONST> 9.750789e+01
<MIXTURE> 14 7.912276e-02
<MEAN> 39
 7.437955e-01 -1.013061e+01 -7.865561e+00 -2.077608e+01 -1.820674e+01 1.086164e+01 -1.293955e+01 -6.327088e+00 -3.872676e+00 -1.817491e+00 9.517689e+00 -2.460141e+00 8.622940e-01 -2.541189e-02 5.599605e-01 3.693814e-01 2.126195e-01 2.166705e-01 -2.903889e-01 -3.173702e-01 -2.177249e-01 -7.186493e-01 -3.132973e-01 -1.184647e-01 2.166187e-01 -1.516240e-02 -1.155659e-01 1.401222e-01 -3.754888e-02 3.982469e-01 5.425621e-01 -6.227092e-01 4.227925e-02 2.875870e-02 -6.017699e-03 2.124181e-01 -3.641340e-01 -1.514345e-01 -7.868186e-03
<VARIANCE> 39
 7.967895e+00 2.118314e+01 1.813777e+01 4.273259e+01 3.057255e+01 3.228326e+01 4.284648e+01 3.398437e+01 4.359545e+01 4.340248e+01 3.483986e+01 3.387355e+01 6.281832e-03 2.471956e-01 5.292478e-01 6.437660e-01 1.077062e+00 1.131391e+00 1.059839e+00 1.482606e+00 1.377315e+00 1.327987e+00 1.803536e+00 1.150207e+00 1.053142e+00 1.513709e-04 5.467481e-02 1.234173e-01 1.237323e-01 1.741336e-01 1.954339e-01 1.984499e-01 2.818331e-01 2.358832e-01 2.750711e-01 2.797100e-01 2.308729e-01 2.202834e-01 3.940526e-05
<GCONST> 6.746876e+01
<MIXTURE> 15 4.391388e-02
<MEAN> 39
 -1.045025e+00 -7.147933e+00 -1.022401e+01 -2.243590e+01 -1.420370e+01 6.188581e+00 -5.750119e+00 -1.363960e+01 3.272345e+00 -2.998437e+00 7.559154e+00 -1.850761e+00 8.495039e-01 -1.008186e-02 1.949085e-01 2.876819e-01 3.038716e-01 -1.579375e-01 -6.924665e-02 -3.388315e-01 -5.049312e-02 -3.233077e-01 -3.434099e-02 -3.648339e-02 -8.552615e-03 -9.711585e-03 3.126147e-02 2.718527e-02 1.765044e-02 1.812909e-01 8.488547e-02 -1.478846e-01 -1.541849e-01 1.507283e-01 -1.767163e-01 8.198647e-02 -9.702073e-02 -3.273334e-02 -2.768309e-03
<VARIANCE> 39
 5.283996e+00 3.586953e+01 1.935130e+01 4.950339e+01 4.314439e+01 3.784157e+01 5.317312e+01 2.520834e+01 3.669205e+01 4.792461e+01 2.682354e+01 2.858987e+01 6.119678e-03 1.005294e-01 2.680757e-01 2.230754e-01 5.785901e-01 4.518225e-01 4.374989e-01 1.015775e+00 5.461399e-01 7.301994e-01 7.940742e-01 5.062093e-01 4.882631e-01 6.579018e-05 1.656136e-02 3.483080e-02 3.589434e-02 7.955074e-02 9.045941e-02 6.189874e-02 8.826228e-02 8.797888e-02 1.303010e-01 1.002780e-01 8.466633e-02 9.040304e-02 1.235663e-05
<GCONST> 4.408899e+01
<MIXTURE> 16 5.904693e-02
<MEAN> 39
 -1.815046e+00 -1.259170e+01 -1.038409e+01 -1.652776e+01 -8.645822e+00 -1.774067e+00 -1.228525e+01 1.666298e-03 -9.380387e-01 2.079361e+00 -1.104136e+00 -7.730652e+00 8.277590e-01 6.648239e-02 2.498179e-01 1.117506e-01 -5.698163e-02 -3.273331e-02 -3.906677e-02 -2.478712e-01 -3.967805e-01 -2.600097e-01 3.498214e-01 3.085105e-01 2.794573e-02 -6.316980e-03 1.328232e-02 8.027925e-02 5.080525e-02 7.975828e-03 -2.979730e-03 -1.340266e-01 1.314107e-02 -1.335597e-01 -1.572002e-01 1.394522e-02 -2.321675e-02 1.436108e-01 -2.418821e-03
<VARIANCE> 39
 7.457261e+00 1.626543e+01 2.909377e+01 4.854059e+01 4.309504e+01 5.188874e+01 3.510187e+01 3.269054e+01 4.745464e+01 8.275969e+01 7.916246e+01 3.232466e+01 1.385689e-02 1.051050e-01 2.462798e-01 3.968133e-01 4.217668e-01 3.843056e-01 8.682126e-01 6.291934e-01 7.175535e-01 7.570749e-01 5.982983e-01 6.606608e-01 6.076285e-01 9.205492e-05 1.467936e-02 3.483518e-02 4.138469e-02 6.281666e-02 6.660893e-02 9.501576e-02 7.331640e-02 7.492165e-02 8.679678e-02 8.337260e-02 8.837382e-02 7.337561e-02 1.213529e-05
<GCONST> 4.691389e+01
<STATE> 4
<NUMMIXES> 16
<MIXTURE> 1 4.125739e-02
<MEAN> 39
 -3.141228e+00 -5.074945e+00 -4.403314e+00 -1.507411e+01 -4.668906e+00 -1.043476e+00 -1.424453e+01 -8.799622e+00 -3.559654e+00 5.658922e+00 8.121404e-01 -4.954361e+00 6.751249e-01 -3.961424e+00 2.062934e+00 7.680514e-01 2.251437e+00 2.900888e+00 -2.245637e+00 1.262485e+00 1.810862e+00 1.246621e+00 -1.197304e+00 -1.443819e+00 3.951797e-01 -5.829883e-02 -1.475481e+00 3.012097e-02 -9.125917e-02 -5.818854e-02 3.103445e-02 8.973560e-02 6.400494e-01 8.861954e-01 1.992003e-01 -5.700195e-01 4.907110e-02 4.306558e-01 3.014412e-03
<VARIANCE> 39
 8.775310e+00 1.423476e+01 1.613796e+01 4.331074e+01 2.176677e+01 3.435748e+01 3.471784e+01 2.773948e+01 3.142622e+01 2.437559e+01 3.416127e+01 2.104298e+01 1.229305e-02 2.621731e+00 2.706912e+00 2.099745e+00 3.821286e+00 2.946018e+00 3.575741e+00 4.799721e+00 3.746230e+00 5.619339e+00 4.590527e+00 2.842242e+00 2.215055e+00 4.927797e-04 1.715679e-01 2.773784e-01 2.579477e-01 3.949851e-01 3.809729e-01 3.447452e-01 4.959577e-01 4.530741e-01 4.774617e-01 4.448624e-01 4.585942e-01 3.326055e-01 1.160813e-04
<GCONST> 9.077962e+01
<MIXTURE> 2 6.882433e-02
<MEAN> 39
 2.021780e+00 -5.539495e+00 -1.010588e+01 -2.382644e+01 -1.651382e+01 5.137730e+00 -2.941865e+00 -5.597253e+00 -6.298041e+00 -2.705376e+00 1.761708e+00 5.429550e-01 8.164020e-01 2.654158e-02 -6.166077e-01 -3.886446e-01 6.958632e-01 7.545832e-01 -1.882035e-03 -2.960086e-01 -4.778811e-01 -2.373821e-01 5.213846e-01 5.150347e-01 5.639205e-02 -2.496123e-04 -9.517805e-02 -4.087271e-01 -9.807308e-02 4.205899e-01 4.952361e-01 -2.124675e-01 -5.156196e-01 -1.304023e-01 2.559769e-01 3.778744e-01 1.652574e-01 -3.052589e-01 5.582673e-04
<VARIANCE> 39
 5.481707e+00 2.495694e+01 2.418670e+01 5.184829e+01 4.730455e+01 3.361539e+01 3.760274e+01 5.631444e+01 5.939700e+01 4.449073e+01 4.835691e+01 3.608735e+01 8.135418e-03 1.774991e-01 8.597478e-01 8.599361e-01 1.081169e+00 1.897888e+00 1.532763e+00 1.666459e+00 1.700556e+00 1.741362e+00 1.777692e+00 1.795438e+00 1.527678e+00 1.717703e-04 3.134727e-02 1.218195e-01 1.099538e-01 1.360396e-01 2.277348e-01 2.375756e-01 2.460460e-01 3.158097e-01 4.198531e-01 3.292991e-01 3.166254e-01 3.395359e-01 2.178670e-05
<GCONST> 7.273329e+01
<MIXTURE> 3 6.613201e-02
<MEAN> 39
 -6.897569e+00 -2.197203e+00 -8.129710e+00 -6.168200e+00 -3.630641e+00 -3.028249e+00 -7.811137e+00 -7.376800e+00 -4.790289e+00 -1.443243e-01 -1.101318e+00 -3.236894e+00 3.455435e-01 -3.158241e+00 2.568634e-01 7.165029e-01 3.057964e+00 1.786859e+00 -6.849837e-01 1.479276e+00 1.427130e+00 1.293649e+00 -6.416416e-01 -1.529114e+00 1.107734e-01 -1.080496e-01 -9.741748e-02 -5.800911e-01 8.872005e-02 -1.036771e+00 -6.042235e-01 2.708045e-01 8.447941e-02 4.415437e-01 -4.598276e-03 3.445136e-02 2.739018e-01 1.879958e-01 2.134857e-02
<VARIANCE> 39
 2.458500e+01 2.756230e+01 2.828454e+01 6.033044e+01 4.432053e+01 5.825023e+01 5.993738e+01 6.182802e+01 7.550013e+01 5.376029e+01 5.181808e+01 3.503704e+01 4.698886e-02 4.933404e+00 4.318332e+00 3.174850e+00 6.935593e+00 5.216991e+00 6.268427e+00 6.365294e+00 6.001305e+00 7.813939e+00 6.251959e+00 5.891188e+00 3.874080e+00 6.222589e-03 5.272744e-01 6.370704e-01 5.072062e-01 8.944812e-01 9.457713e-01 1.153546e+00 1.103183e+00 1.109124e+00 1.165463e+00 1.046589e+00 1.123012e+00 6.417412e-01 7.614747e-04
<GCONST> 1.207833e+02
<MIXTURE> 4 6.515323e-02
<MEAN> 39
 1.305627e+00 -6.254978e+00 -7.384551e+00 -2.078666e+01 -1.832081e+01 9.313713e+00 -1.007346e+01 -8.591861e+00 -5.936516e+00 -5.263626e+00 6.928175e+00 -3.978102e-01 7.929795e-01 -5.175285e-01 1.319420e+00 1.039743e-02 1.565798e+00 1.797138e+00 -1.763111e+00 8.237696e-01 -1.181411e-01 -9.498326e-01 -1.094114e-01 -1.291007e+00 1.641976e-01 -5.218192e-02 -6.978999e-01 2.186773e-01 -6.717044e-02 8.965902e-01 1.098497e+00 -8.167852e-01 3.551915e-01 3.191478e-01 2.589341e-01 4.686715e-01 -5.953154e-01 -2.325944e-01 -2.296967e-02
<VARIANCE> 39
 6.990925e+00 2.605280e+01 2.026268e+01 5.069677e+01 3.192478e+01 2.716495e+01 5.264424e+01 4.492889e+01 4.122968e+01 4.693916e+01 4.610791e+01 2.781331e+01 9.979952e-03 7.907376e-01 1.560265e+00 1.476959e+00 2.779030e+00 2.937804e+00 2.693386e+00 3.735728e+00 2.908076e+00 3.027189e+00 3.835915e+00 3.072842e+00 2.594867e+00 6.687599e-04 2.769576e-01 2.040719e-01 2.516114e-01 4.734872e-01 3.434288e-01 3.279510e-01 5.586265e-01 4.990737e-01 5.799690e-01 4.473637e-01 5.222453e-01 3.239844e-01 1.843614e-04
<GCONST> 9.157595e+01
<MIXTURE> 5 7.336823e-02
<MEAN> 39
 5.134505e-01 -8.650834e+00 -1.226089e+01 -1.813529e+01 -1.100587e+01 3.730023e+00 -8.880657e+00 -8.559106e+00 -5.645021e+00 1.136567e+00 5.881775e+00 -1.597903e+00 8.038580e-01 -3.667135e-01 -1.073919e+00 3.302557e-01 2.140218e+00 9.183302e-01 -1.317505e+00 -1.811544e+00 -4.791565e-01 1.479121e+00 1.302666e+00 -5.085714e-01 -1.586392e+00 -1.237052e-02 -1.983244e-01 -1.022556e-01 4.247104e-01 5.105266e-01 -5.052111e-02 -7.025132e-01 -2.839383e-02 5.471009e-01 4.582722e-01 -2.016711e-01 -7.955541e-01 -3.057956e-01 -5.639957e-03
<VARIANCE> 39
 8.115702e+00 2.241467e+01 2.823558e+01 5.482428e+01 3.983185e+01 4.250268e+01 5.405994e+01 5.368919e+01 6.591518e+01 5.276488e+01 6.046326e+01 3.800930e+01 8.356257e-03 2.857693e-01 1.027003e+00 9.897098e-01 1.527803e+00 2.400928e+00 2.054492e+00 2.205526e+00 2.280431e+00 2.615332e+00 2.730781e+00 2.296758e+00 2.046488e+00 3.426099e-04 6.176368e-02 1.680603e-01 1.545570e-01 2.526484e-01 3.242873e-01 3.611911e-01 3.560816e-01 4.722846e-01 5.038866e-01 4.598375e-01 3.133886e-01 3.520165e-01 4.701825e-05
<GCONST> 8.330608e+01
<MIXTURE> 6 3.351685e-02
<MEAN> 39
 -2.189991e+00 -3.837338e+00 -1.027999e+01 -1.587070e+01 -3.633581e+00 -8.092699e+00 -1.379074e+01 -9.215101e+00 -8.278481e+00 4.683952e+00 -5.321815e+00 -4.300266e+00 6.216055e-01 -2.668880e+00 2.441432e+00 1.032251e+00 4.430469e+00 7.375703e-01 7.298916e-01 1.593100e+00 -4.291832e-01 3.943262e-01 -2.471351e+00 7.771400e-01 -7.647986e-02 -1.392275e-01 -1.182500e+00 -5.027215e-01 3.193985e-01 5.182015e-01 -5.285543e-02 5.026278e-01 9.494554e-01 1.035776e+00 7.351052e-01 -3.001283e-01 7.569456e-02 2.470347e-01 -2.062857e-02
<VARIANCE> 39
 9.152802e+00 1.599992e+01 3.174570e+01 4.670200e+01 2.668863e+01 3.966099e+01 2.906207e+01 4.488612e+01 6.841484e+01 6.063443e+01 7.130192e+01 3.368084e+01 1.466180e-02 2.027506e+00 2.560846e+00 3.210024e+00 4.274950e+00 3.591326e+00 5.671653e+00 5.308216e+00 5.369949e+00 4.736920e+00 4.371311e+00 7.085576e+00 3.325002e+00 2.836207e-03 2.490592e-01 4.709803e-01 3.870392e-01 5.945516e-01 5.139987e-01 6.129535e-01 5.224347e-01 6.212302e-01 1.004147e+00 9.907297e-01 9.048147e-01 5.614833e-01 4.161721e-04
<GCONST> 1.065910e+02
<MIXTURE> 7 7.931995e-02
<MEAN> 39
 -6.442775e-01 -9.845487e+00 -4.774282e+00 -1.597743e+01 -1.005192e+01 3.602159e-01 -1.806001e+01 -7.009650e+00 -3.842809e+00 6.114597e+00 4.372276e+00 -5.646960e+00 7.671167e-01 -4.742656e-01 5.790088e-01 8.678399e-01 1.293405e+00 9.533491e-01 -1.107297e+00 -7.194515e-01 -1.222962e-01 -2.622921e-01 -5.278319e-01 -8.898833e-01 -3.604212e-01 -3.159408e-02 -5.434068e-01 4.552759e-01 -3.835037e-02 3.346984e-01 4.217874e-01 -3.504451e-01 7.005730e-01 1.967343e-01 1.845387e-01 -4.102755e-01 -4.091908e-01 1.876822e-01 -1.153372e-02
<VARIANCE> 39
 7.479466e+00 2.036649e+01 1.940303e+01 4.539050e+01 2.255642e+01 4.141631e+01 3.764634e+01 4.602094e+01 4.209392e+01 3.200896e+01 3.924311e+01 2.374448e+01 1.426638e-02 3.560235e-01 8.784623e-01 1.030519e+00 1.580007e+00 1.371560e+00 1.558963e+00 2.024156e+00 2.154425e+00 2.373295e+00 1.820696e+00 1.630681e+00 1.602946e+00 2.131019e-04 1.882834e-01 1.646715e-01 1.822408e-01 2.678008e-01 2.369160e-01 2.711293e-01 3.604397e-01 3.740707e-01 3.615074e-01 3.248857e-01 3.008600e-01 2.148588e-01 6.286877e-05
<GCONST> 7.730502e+01
<MIXTURE> 8 5.815043e-02
<MEAN> 39
 -3.666754e+00 -9.645619e+00 -7.424100e+00 -1.931877e+01 -6.630305e+00 -1.508468e+01 -1.281753e+01 -2.647514e+00 -3.968527e+00 2.777904e+00 -1.184169e+01 -5.658265e-01 7.701945e-01 -6.793962e-01 2.051906e+00 4.989452e-01 2.345513e+00 -4.555573e-01 -2.059060e-01 -8.779329e-02 -1.627235e+00 -7.892321e-01 -1.594458e+00 1.075446e+00 1.402808e-01 -5.706333e-02 -7.683176e-01 5.428387e-01 -7.490800e-02 8.461759e-01 2.129363e-01 7.769434e-01 6.802454e-01 -7.831060e-02 3.999247e-02 -4.547745e-01 4.936475e-01 -3.382646e-01 -1.886777e-02
<VARIANCE> 39
 8.153893e+00 1.982737e+01 4.211097e+01 4.019616e+01 4.636438e+01 4.514295e+01 4.204810e+01 4.521365e+01 5.466026e+01 6.223142e+01 4.198965e+01 4.609685e+01 1.297142e-02 1.137133e+00 1.761304e+00 2.004781e+00 2.604364e+00 2.673274e+00 3.736902e+00 2.893447e+00 3.465675e+00 3.967965e+00 4.306483e+00 2.637305e+00 2.833414e+00 6.809256e-04 3.191474e-01 2.565331e-01 4.265350e-01 4.271955e-01 4.971752e-01 4.897457e-01 5.198600e-01 6.470299e-01 7.206543e-01 6.305732e-01 4.726585e-01 5.601085e-01 2.179604e-04
<GCONST> 9.800399e+01
<MIXTURE> 9 6.682902e-02
<MEAN> 39
 1.080121e+00 -1.443710e+00 -1.331904e+01 -2.037708e+01 -1.463076e+01 7.603713e-01 2.889767e-01 -6.399541e+00 -6.617546e+00 -3.583495e+00 -3.706367e-01 1.727919e+00 7.004466e-01 -1.255927e-01 9.213259e-01 1.333643e-01 5.505295e-01 -1.596418e-02 -5.575443e-01 1.255681e-01 3.513100e-01 5.078543e-02 -5.975374e-01 -9.668756e-01 -1.521958e-01 -2.481648e-02 -1.966751e-01 -2.245163e-01 1.640907e-01 1.821569e-01 3.851449e-01 7.403901e-02 -4.640717e-01 2.041225e-02 8.936161e-02 2.916844e-01 1.589768e-01 -3.438972e-01 -3.309689e-03
<VARIANCE> 39
 8.612121e+00 2.018989e+01 2.545152e+01 4.930167e+01 3.352350e+01 2.689139e+01 4.027769e+01 4.461660e+01 4.110225e+01 3.658738e+01 4.240665e+01 2.595588e+01 1.840270e-02 4.775303e-01 1.154650e+00 9.865737e-01 1.728034e+00 2.319456e+00 1.804793e+00 2.054537e+00 1.866957e+00 2.151031e+00 2.166442e+00 1.913950e+00 1.522812e+00 5.551731e-04 1.182309e-01 1.783750e-01 1.673219e-01 2.476426e-01 2.459091e-01 2.213891e-01 3.238142e-01 3.179964e-01 3.020893e-01 3.053703e-01 2.633201e-01 2.229859e-01 1.175914e-04
<GCONST> 7.992616e+01
<MIXTURE> 10 7.951930e-02
<MEAN> 39
 -1.424435e+00 -2.525384e+00 -1.066481e+01 -1.473391e+01 -7.862412e+00 7.876567e-01 -5.898086e+00 -8.412611e+00 -7.265380e+00 -9.086666e-01 -1.922965e+00 -1.894400e+00 5.151492e-01 -8.553662e-01 3.663396e-01 9.160678e-01 1.628800e+00 6.471433e-01 -2.008632e-01 3.319801e-01 -5.730769e-01 -3.593039e-01 -5.845795e-01 -4.426817e-01 -1.516184e-01 -4.901652e-02 -2.421536e-01 -1.957761e-01 2.192438e-01 1.741424e-01 6.365149e-02 -1.504191e-01 -4.358355e-02 2.426965e-01 1.292886e-01 4.897672e-02 -9.679702e-02 -9.420781e-02 -3.415542e-03
<VARIANCE> 39
 5.989231e+00 2.373036e+01 2.510515e+01 3.802873e+01 3.466620e+01 4.814420e+01 5.369324e+01 4.775207e+01 3.992620e+01 5.061915e+01 6.529893e+01 2.950886e+01 2.416408e-02 4.012523e-01 1.252385e+00 1.446582e+00 1.536620e+00 2.392133e+00 2.760288e+00 3.047932e+00 3.046502e+00 2.611005e+00 3.190704e+00 2.419818e+00 1.958003e+00 4.023239e-04 7.747923e-02 1.903047e-01 1.865164e-01 2.215355e-01 2.916977e-01 3.321784e-01 3.649001e-01 3.338056e-01 3.491504e-01 4.218752e-01 4.475805e-01 3.025558e-01 7.147883e-05
<GCONST> 8.499722e+01
<MIXTURE> 11 6.388105e-02
<MEAN> 39
 -3.345391e-01 1.196931e-01 -1.003435e+01 -1.780412e+01 -1.067009e+01 1.687105e+00 -4.306850e+00 -6.365437e+00 -1.016943e+01 -4.882867e+00 1.122014e+00 6.508108e-01 5.923200e-01 -2.779766e+00 1.223490e+00 4.140318e-01 4.309696e+00 2.798957e+00 -1.210806e+00 1.272279e+00 2.465368e-01 5.600733e-01 -2.089798e-01 -1.538493e+00 -3.782943e-01 -1.335832e-01 -9.641498e-01 -6.860750e-01 2.226358e-01 6.486940e-01 4.426843e-01 -1.878432e-03 -2.602945e-01 2.313084e-01 6.725497e-01 5.843065e-01 1.073129e-02 -2.895285e-01 -1.708569e-02
<VARIANCE> 39
 9.632632e+00 1.518731e+01 2.237332e+01 3.865265e+01 3.431992e+01 2.685392e+01 2.883970e+01 3.977173e+01 4.668679e+01 3.304830e+01 4.601153e+01 2.662546e+01 2.051245e-02 2.553697e+00 3.188819e+00 3.794424e+00 4.530615e+00 4.302645e+00 4.447787e+00 4.720583e+00 4.606133e+00 5.519435e+00 5.241965e+00 5.011675e+00 3.491126e+00 2.553294e-03 2.949182e-01 3.679916e-01 3.430456e-01 5.664505e-01 4.862564e-01 4.083728e-01 5.308199e-01 5.678661e-01 7.704593e-01 5.987899e-01 6.574425e-01 5.437870e-01 3.976565e-04
<GCONST> 1.027840e+02
<MIXTURE> 12 4.124717e-02
<MEAN> 39
 -1.553615e+00 -1.146313e+01 -3.165871e+00 -8.819391e+00 -1.152844e+01 -2.772562e+00 -2.042892e+01 -5.656949e+00 -2.136492e+00 5.831528e-01 3.654194e+00 -7.377093e+00 7.010570e-01 -1.953821e+00 2.164702e+00 7.221342e-01 2.115249e+00 2.420149e+00 -2.134789e+00 1.849931e+00 1.864799e-02 -2.878751e-02 -6.059635e-01 -2.678502e+00 6.274634e-01 -7.393762e-02 -1.096837e+00 8.139979e-01 -2.261780e-01 -2.204735e-01 6.206771e-01 1.790189e-01 1.244454e+00 2.317623e-01 3.718328e-02 -1.437008e-02 -2.217507e-01 4.846401e-01 -1.804363e-02
<VARIANCE> 39
 9.695159e+00 2.222630e+01 2.470681e+01 5.474761e+01 3.073013e+01 5.311383e+01 3.353722e+01 5.611974e+01 3.809974e+01 2.623230e+01 3.642236e+01 2.012258e+01 1.742734e-02 1.693379e+00 2.287361e+00 2.171033e+00 3.993570e+00 3.332144e+00 2.716303e+00 4.078410e+00 4.147811e+00 4.309645e+00 3.693441e+00 3.353660e+00 3.014932e+00 1.460668e-03 2.903089e-01 3.333016e-01 3.222730e-01 5.214467e-01 4.444900e-01 7.200214e-01 6.061524e-01 7.193976e-01 5.038388e-01 4.901509e-01 4.728096e-01 3.929972e-01 2.976439e-04
<GCONST> 9.846017e+01
<MIXTURE> 13 8.433872e-02
<MEAN> 39
 -4.452587e-01 -3.508204e+00 -1.102893e+01 -2.808565e+01 -1.135528e+01 6.058974e+00 -7.483987e+00 -1.990306e+00 -4.743966e+00 -6.831733e+00 9.012883e-01 8.004776e-01 8.178357e-01 -1.433894e-02 7.112466e-01 2.119966e-01 3.394403e-01 -4.009644e-01 -7.600961e-01 4.018686e-02 3.262063e-01 -4.376519e-01 -3.359312e-01 -3.369054e-01 -3.011672e-01 -1.485297e-02 -4.340612e-02 -2.025973e-01 6.797383e-02 6.828631e-01 2.275844e-02 -3.398520e-01 -3.218699e-02 -3.676727e-01 1.060787e-01 4.939902e-01 -7.869293e-02 -4.040657e-01 -5.910384e-03
<VARIANCE> 39
 7.712799e+00 2.809594e+01 2.914502e+01 6.272132e+01 5.490978e+01 4.716940e+01 5.284638e+01 6.570105e+01 6.935426e+01 5.774146e+01 5.653351e+01 3.127558e+01 8.425907e-03 2.449814e-01 8.568247e-01 6.761060e-01 1.801728e+00 1.509056e+00 1.684082e+00 2.185107e+00 3.166628e+00 1.570404e+00 2.320769e+00 1.802122e+00 1.615210e+00 2.071446e-04 4.546585e-02 1.303962e-01 1.545419e-01 2.296942e-01 2.671758e-01 3.254904e-01 2.980969e-01 3.559497e-01 3.657732e-01 3.740002e-01 3.365684e-01 3.269013e-01 3.043255e-05
<GCONST> 7.920979e+01
<MIXTURE> 14 6.149127e-02
<MEAN> 39
 -9.921077e-01 -1.236630e+01 -1.128627e+01 -1.348713e+01 -9.191483e+00 -2.210602e+00 -1.482483e+01 -5.645055e+00 9.740156e-02 2.812981e+00 -7.819645e-01 -7.877602e+00 7.815784e-01 -6.783845e-01 -7.015631e-01 1.615116e+00 2.654908e+00 -4.116603e-01 -2.813173e+00 -3.489985e-01 1.427124e+00 1.195208e+00 -7.619226e-01 -2.434652e+00 -3.161028e-01 -2.410238e-02 -1.727295e-01 3.559287e-01 5.208190e-01 -6.116723e-02 -3.575026e-01 -1.488405e-01 8.915223e-01 4.666885e-01 -7.826958e-01 -6.946203e-01 -1.397390e-02 7.316792e-01 -6.390149e-03
<VARIANCE> 39
 7.303016e+00 2.270406e+01 3.168298e+01 6.605241e+01 4.911392e+01 5.767921e+01 5.062837e+01 6.197098e+01 5.358303e+01 5.909266e+01 9.525090e+01 2.798702e+01 1.000295e-02 5.113701e-01 1.112374e+00 1.539909e+00 2.134654e+00 2.782717e+00 2.520152e+00 3.090333e+00 4.903103e+00 3.699853e+00 4.170169e+00 2.349795e+00 3.798232e+00 5.155235e-04 8.880547e-02 1.982826e-01 2.123885e-01 3.897287e-01 6.527213e-01 4.409898e-01 4.005809e-01 6.451026e-01 4.904253e-01 5.049620e-01 7.571263e-01 3.708225e-01 8.877326e-05
<GCONST> 9.329976e+01
<MIXTURE> 15 6.153689e-02
<MEAN> 39
 -5.217611e-01 -5.569326e-01 -9.804367e+00 -2.256275e+01 -1.533716e+01 -8.304786e-01 -2.423281e+00 6.730389e-01 -6.825022e+00 -5.230389e+00 -2.672677e+00 -5.100159e+00 6.994781e-01 -3.069640e-01 3.099045e-01 7.526739e-01 1.588247e+00 -4.874868e-02 -1.084303e+00 -2.395305e-01 -7.375770e-01 -4.672264e-02 5.209133e-01 -4.685333e-01 -5.526929e-01 -3.427074e-02 -1.645090e-01 -2.499491e-01 3.412130e-04 4.678308e-01 6.028343e-01 1.784491e-01 -1.813887e-01 -6.924193e-01 -1.246999e-01 1.414419e-01 2.439130e-01 2.857400e-01 -6.418418e-03
<VARIANCE> 39
 9.387450e+00 2.835862e+01 3.362018e+01 4.748783e+01 4.294516e+01 5.796299e+01 4.922868e+01 4.148143e+01 5.565391e+01 4.222200e+01 5.273533e+01 3.376321e+01 1.535883e-02 4.793788e-01 8.576892e-01 2.051246e+00 1.726804e+00 2.546887e+00 2.363224e+00 2.706133e+00 2.832802e+00 2.868287e+00 2.921437e+00 2.444202e+00 2.331327e+00 4.432566e-04 1.074247e-01 1.725122e-01 2.917821e-01 3.126873e-01 3.387695e-01 3.609345e-01 5.153800e-01 3.837998e-01 5.320430e-01 3.719453e-01 3.349714e-01 2.750610e-01 6.867675e-05
<GCONST> 8.780634e+01
<MIXTURE> 16 5.542146e-02
<MEAN> 39
 4.665397e-01 -6.578711e+00 -7.686667e+00 -2.447333e+01 -7.585732e+00 8.278567e-01 -1.248488e+01 -3.889820e+00 -1.474382e+01 4.340165e+00 1.981007e+00 -2.249059e+00 7.473804e-01 -7.237275e-01 2.291832e+00 -8.161292e-02 2.320296e+00 8.343399e-01 -6.036196e-01 1.262053e+00 -8.217701e-01 -4.384402e-01 -1.946196e+00 -3.652751e-01 -2.684507e-02 -7.871551e-02 -9.761278e-01 1.172534e-01 -3.357616e-03 1.467272e+00 3.813833e-01 -2.359350e-01 5.381435e-01 3.422802e-02 1.169681e+00 -3.621193e-01 -4.880922e-01 -1.178237e-01 -3.107408e-02
<VARIANCE> 39
 6.763761e+00 2.273125e+01 4.143654e+01 6.039936e+01 2.995655e+01 4.100331e+01 5.489102e+01 3.677083e+01 4.426956e+01 4.853453e+01 6.429570e+01 2.942204e+01 1.108877e-02 1.244150e+00 1.549393e+00 1.684621e+00 4.007349e+00 3.732884e+00 3.199193e+00 3.710207e+00 3.038733e+00 4.889058e+00 4.339001e+00 3.560480e+00 2.870598e+00 1.149736e-03 2.451073e-01 2.464934e-01 4.743171e-01 5.360853e-01 3.581039e-01 3.392086e-01 6.132473e-01 4.781711e-01 5.845372e-01 6.567430e-01 6.020550e-01 4.959306e-01 2.295916e-04
<GCONST> 9.800056e+01
<TRANSP> 5
 0.000000e+00 1.000000e+00 0.000000e+00 0.000000e+00 0.000000e+00
 0.000000e+00 7.093558e-01 2.906442e-01 0.000000e+00 0.000000e+00
 0.000000e+00 0.000000e+00 8.036883e-01 1.963117e-01 0.000000e+00
 0.000000e+00 0.000000e+00 0.000000e+00 7.424819e-01 2.575181e-01
 0.000000e+00 0.000000e+00 0.000000e+00 0.000000e+00 0.000000e+00
<ENDHMM>
