~o
<STREAMINFO> 1 39
<VECSIZE> 39<NULLD><MFCC_E_D_A><DIAGC>
~h "oy"
<BEGINHMM>
<NUMSTATES> 5
<STATE> 2
<NUMMIXES> 16
<MIXTURE> 1 5.395828e-02
<MEAN> 39
 4.418583e+00 -9.565729e+00 -1.399499e+01 -1.601781e+01 -2.117323e+01 3.491673e+00 6.825685e-01 -7.321415e+00 -3.639019e+00 -4.683821e+00 7.984050e+00 2.658205e+00 8.635439e-01 -1.355419e-01 -4.844063e-01 1.137781e-01 -7.108080e-01 1.059221e-01 6.839738e-01 1.956808e-01 -3.895093e-02 5.679849e-01 2.706150e-01 8.135617e-02 -4.982454e-01 9.955822e-03 -9.637896e-02 -2.524962e-01 -2.574394e-02 3.676867e-01 5.767288e-01 -3.798516e-01 -6.398385e-01 -2.557172e-02 1.735200e-01 3.349488e-01 6.072210e-02 -3.205260e-01 -1.886265e-03
<VARIANCE> 39
 4.255840e+00 1.675945e+01 2.406226e+01 2.779149e+01 2.503794e+01 3.393188e+01 4.322759e+01 3.077653e+01 3.049158e+01 2.420706e+01 3.144906e+01 2.442891e+01 6.152052e-03 2.496678e-01 3.971364e-01 5.068926e-01 1.400346e+00 1.521891e+00 1.117306e+00 1.343544e+00 7.970001e-01 1.013841e+00 1.174388e+00 9.134054e-01 1.002169e+00 1.166874e-04 2.930360e-02 8.258197e-02 7.365381e-02 1.889554e-01 1.484987e-01 2.116001e-01 2.056454e-01 2.265023e-01 1.613199e-01 1.871491e-01 2.806976e-01 2.092358e-01 2.148639e-05
<GCONST> 5.961204e+01
<MIXTURE> 2 4.673574e-02
<MEAN> 39
 1.268361e+00 -1.129443e+01 -1.083935e+01 -1.138888e+01 -1.316523e+01 -4.825960e-01 -1.258653e+01 -6.914826e+00 -3.069803e+00 2.203687e+00 7.249413e+00 -3.673491e+00 7.793373e-01 8.924943e-01 4.750549e-01 -1.309486e+00 -2.765774e+00 -1.187059e+00 3.251426e+00 2.481439e+00 -8.101537e-01 -2.048464e+00 -3.833845e-01 1.455386e+00 1.252128e+00 1.933925e-02 -6.128730e-01 4.001784e-01 7.709422e-01 -4.382543e-02 -1.501219e-01 -2.799823e-01 7.739952e-01 4.097643e-01 -1.399501e-01 -5.279192e-01 -8.571847e-01 3.018923e-01 -7.613782e-03
<VARIANCE> 39
 1.008671e+01 2.395224e+01 2.053207e+01 4.535777e+01 2.374074e+01 6.011828e+01 4.855602e+01 4.151112e+01 4.382195e+01 4.274308e+01 2.554569e+01 3.081670e+01 6.178036e-03 5.241112e-01 1.155854e+00 1.044824e+00 1.557693e+00 1.825587e+00 2.531833e+00 2.436400e+00 2.480781e+00 2.615531e+00 3.452010e+00 3.087877e+00 1.677249e+00 2.401372e-04 2.937785e-01 2.401368e-01 1.931748e-01 2.597479e-01 5.395232e-01 5.680928e-01 5.625295e-01 5.437677e-01 8.253525e-01 4.322740e-01 3.018830e-01 3.405093e-01 8.085128e-05
<GCONST> 8.607758e+01
<MIXTURE> 3 6.720047e-02
<MEAN> 39
 1.525730e+00 -5.213877e+00 -7.370037e+00 -3.152575e+01 -1.559332e+01 3.907517e+00 -3.442034e+00 9.542750e-01 -1.170519e+01 2.804506e+00 -4.724855e+00 2.820719e-01 8.420526e-01 -6.324767e-02 -7.648193e-01 -1.822479e-01 -2.461783e-01 7.627085e-01 6.330484e-01 -3.267309e-02 -2.955566e-01 -5.766037e-02 2.558565e-01 5.006729e-01 4.537433e-01 1.811426e-02 -1.862798e-01 -3.717856e-01 -3.036300e-01 8.285885e-01 6.852700e-01 -3.131549e-01 -3.920873e-01 -6.507482e-01 1.676648e-01 3.251697e-01 6.846928e-01 -1.801081e-01 -4.137994e-03
<VARIANCE> 39
 7.486825e+00 2.132563e+01 3.652821e+01 1.954222e+01 1.961567e+01 2.916947e+01 3.252000e+01 3.326635e+01 2.856049e+01 2.095142e+01 2.558816e+01 2.940641e+01 6.878639e-03 2.347812e-01 1.021465e+00 7.504337e-01 1.183491e+00 1.132500e+00 1.247676e+00 1.015867e+00 1.701843e+00 1.817094e+00 1.734471e+00 2.342603e+00 9.378953e-01 2.917760e-04 5.756957e-02 1.640141e-01 1.522723e-01 2.392902e-01 2.552904e-01 3.438092e-01 2.555924e-01 2.899339e-01 3.930288e-01 2.994335e-01 2.398560e-01 3.069520e-01 6.493294e-05
<GCONST> 7.043655e+01
<MIXTURE> 4 5.864133e-02
<MEAN> 39
 9.275649e-01 -5.032769e+00 -7.741994e+00 -3.167213e+01 -1.132948e+01 4.453819e+00 -8.225601e+00 -1.106928e+00 -1.075819e+01 1.594337e+00 -2.685071e+00 2.086214e+00 8.158875e-01 1.081206e+00 -7.998998e-01 6.048459e-01 -2.926126e+00 -1.221598e+00 1.808595e+00 -5.371808e-01 1.298156e+00 -5.710354e-01 6.485284e-01 -2.335645e-01 8.642066e-01 4.968817e-02 -8.769512e-01 -7.890578e-03 -1.296497e-01 1.454002e+00 6.524637e-01 -4.858702e-01 2.534867e-01 -1.969976e-01 5.663122e-01 -1.229017e-01 -8.486729e-02 -4.236858e-01 -2.357670e-02
<VARIANCE> 39
 5.485289e+00 1.804355e+01 3.675128e+01 3.121367e+01 5.938032e+01 3.462411e+01 2.854772e+01 3.546330e+01 2.854272e+01 3.750180e+01 1.561905e+01 1.832809e+01 6.858539e-03 1.143186e+00 1.540034e+00 1.754245e+00 4.392509e+00 3.573418e+00 2.319855e+00 2.324704e+00 1.936853e+00 2.878329e+00 2.135760e+00 1.565398e+00 1.895482e+00 7.853645e-04 3.370945e-01 2.342135e-01 3.811971e-01 4.135510e-01 6.131089e-01 3.531430e-01 3.179749e-01 5.874839e-01 5.058850e-01 2.578952e-01 2.604285e-01 3.547832e-01 1.370610e-04
<GCONST> 8.659015e+01
<MIXTURE> 5 6.231703e-02
<MEAN> 39
 1.605440e+00 -8.936190e+00 -1.212721e+01 -1.871796e+01 -1.476968e+01 4.363954e+00 -5.344223e+00 -5.462793e+00 -8.210466e+00 -1.664609e+00 6.127199e+00 -1.357919e+00 8.209319e-01 1.828454e-01 6.637113e-01 1.655724e-01 -1.970947e+00 -1.189251e+00 1.271044e+00 1.945345e+00 2.853722e-01 -5.352355e-01 -8.424501e-01 -5.359972e-01 5.024217e-01 9.075924e-03 -1.430024e-01 -2.403731e-01 2.965273e-01 5.352965e-01 2.721739e-01 -6.898924e-01 -6.434221e-01 1.283175e-01 7.189804e-01 2.223333e-01 -4.050456e-01 -3.393095e-01 -9.169055e-04
<VARIANCE> 39
 5.837848e+00 2.104516e+01 2.733095e+01 4.071080e+01 2.622210e+01 7.005711e+01 6.054238e+01 4.216032e+01 4.735433e+01 6.026529e+01 5.747657e+01 4.022069e+01 5.690977e-03 2.520488e-01 5.758215e-01 5.139319e-01 1.474288e+00 9.631460e-01 1.632997e+00 1.520272e+00 1.533671e+00 2.160412e+00 1.938862e+00 2.331255e+00 1.818518e+00 1.574794e-04 4.614082e-02 7.900946e-02 9.488238e-02 1.362044e-01 2.023029e-01 2.547809e-01 2.442245e-01 2.841001e-01 3.353046e-01 5.088261e-01 3.926377e-01 2.622685e-01 1.463834e-05
<GCONST> 7.183935e+01
<MIXTURE> 6 7.197276e-02
<MEAN> 39
 3.828735e+00 -2.120152e+00 -8.296404e+00 -2.700617e+01 -2.078610e+01 4.414060e+00 -2.315872e+00 -2.606441e+00 -3.541795e+00 -1.863053e+00 -2.063341e+00 4.950834e-01 8.017492e-01 3.621944e-02 -1.891584e-02 1.946432e-01 -2.325328e-01 -2.833626e-01 3.796079e-02 1.307333e-01 1.124463e-01 4.207999e-01 1.140250e-01 -2.404059e-01 5.106523e-02 7.456963e-03 -1.784277e-01 -1.939540e-01 -1.028392e-01 3.342123e-01 4.516577e-01 -2.379402e-02 -1.248726e-02 -6.301270e-02 -2.527913e-01 8.251683e-02 2.359596e-01 1.060504e-02 -4.010151e-03
<VARIANCE> 39
 4.483755e+00 1.183574e+01 2.456344e+01 2.024944e+01 5.292130e+01 2.428685e+01 1.772486e+01 1.490672e+01 3.510939e+01 1.612679e+01 2.763415e+01 1.445009e+01 2.937871e-03 1.213536e-01 4.548926e-01 3.619631e-01 7.524056e-01 9.615961e-01 8.021677e-01 6.529111e-01 2.732254e-01 9.453595e-01 3.631978e-01 7.645090e-01 4.046129e-01 1.512529e-04 6.326015e-02 9.147342e-02 1.002227e-01 1.939949e-01 2.749857e-01 2.303051e-01 1.740047e-01 7.489051e-02 1.635803e-01 8.579452e-02 2.046066e-01 1.001831e-01 6.887318e-05
<GCONST> 4.994342e+01
<MIXTURE> 7 8.631492e-02
<MEAN> 39
 -7.325956e-01 1.190835e-01 -9.708561e+00 -1.977494e+01 -1.493363e+01 2.122987e+00 5.779114e-01 -2.944517e+00 -3.873061e+00 -3.570366e+00 -1.646179e+00 -6.888268e-01 6.407709e-01 3.498097e+00 3.910939e-01 4.129696e-01 -2.832280e+00 -3.763106e+00 9.479063e-01 1.391286e-01 -6.459256e-01 -1.753066e-01 -1.056067e+00 2.434447e-01 3.445379e-01 1.064035e-01 -6.652845e-01 -7.163374e-01 -1.471414e-02 2.462985e-01 4.004005e-01 5.413598e-02 -3.591057e-01 7.932605e-02 1.368608e-01 2.549311e-01 1.649497e-01 -5.946153e-02 -8.602515e-03
<VARIANCE> 39
 1.554658e+01 1.298397e+01 1.559463e+01 2.354222e+01 4.202068e+01 2.380873e+01 2.116212e+01 4.211354e+01 3.685460e+01 2.043435e+01 2.499616e+01 2.137239e+01 1.166352e-02 1.685643e+00 1.978964e+00 2.266031e+00 4.908751e+00 5.089539e+00 3.852190e+00 3.242047e+00 5.096175e+00 5.617646e+00 4.060836e+00 2.609269e+00 2.882433e+00 1.456684e-03 3.826960e-01 3.812576e-01 3.736799e-01 4.940526e-01 5.683318e-01 4.755694e-01 3.735241e-01 3.987556e-01 5.468445e-01 3.512749e-01 3.793284e-01 2.985305e-01 3.472469e-04
<GCONST> 9.443250e+01
<MIXTURE> 8 5.243146e-02
<MEAN> 39
 -5.760543e-01 -5.354715e+00 -1.576774e+01 -2.389173e+01 -7.848239e+00 -4.250376e+00 -7.991153e+00 -6.866205e+00 -9.643241e+00 -3.540335e-01 -7.308174e+00 -5.110769e+00 7.345724e-01 2.738448e+00 -7.675971e-01 -1.017547e+00 -3.720195e+00 -9.188386e-01 5.620838e-01 -6.988599e-01 1.654744e-01 -1.382981e+00 1.335559e+00 -6.606861e-01 7.302320e-02 9.849007e-02 -1.188155e+00 -5.076314e-01 4.091986e-01 7.626399e-01 4.955703e-01 3.124373e-01 5.441711e-01 9.373935e-01 6.663793e-01 3.127621e-01 4.648404e-01 4.853032e-01 -1.890628e-02
<VARIANCE> 39
 7.792282e+00 2.929644e+01 1.821760e+01 4.240836e+01 3.902291e+01 4.838139e+01 3.968755e+01 3.951929e+01 5.633133e+01 5.696223e+01 4.070581e+01 3.028687e+01 8.365647e-03 2.408836e+00 2.370026e+00 2.008297e+00 4.412353e+00 3.018600e+00 5.736865e+00 3.697690e+00 5.557545e+00 4.920581e+00 5.712887e+00 4.189532e+00 4.999759e+00 1.601526e-03 3.814889e-01 4.859141e-01 4.223299e-01 5.625702e-01 4.233291e-01 9.733323e-01 5.622777e-01 5.569069e-01 6.824378e-01 8.216466e-01 6.982350e-01 4.759219e-01 3.443905e-04
<GCONST> 1.039810e+02
<MIXTURE> 9 5.195765e-02
<MEAN> 39
 -9.132838e-01 -6.517198e+00 -1.458567e+01 -3.102496e+01 -3.148883e+00 -1.847757e+00 -2.474251e+00 -2.649757e+00 -8.618698e+00 -2.284996e+00 -6.381061e+00 -9.699712e-01 7.992833e-01 -1.741595e-01 -3.970584e-01 -1.625313e-01 1.471650e-01 2.551354e-01 1.947256e-01 -2.478311e-01 1.113476e-03 2.436911e-01 -1.171080e-01 -2.296583e-01 -1.973851e-01 2.884052e-03 -1.462182e-02 -1.560393e-01 -3.571554e-02 4.334981e-01 1.405409e-01 -6.434880e-02 -2.372205e-01 -2.743648e-01 1.600529e-01 1.367208e-01 2.346780e-02 -1.735718e-01 -2.831651e-03
<VARIANCE> 39
 4.225585e+00 2.924447e+01 5.561072e+00 3.032388e+01 3.702366e+01 6.357705e+01 4.109032e+01 7.089973e+01 4.827188e+01 3.651029e+01 1.760412e+01 3.392303e+01 1.397267e-02 8.917972e-02 3.914316e-01 3.106837e-01 8.983805e-01 7.554449e-01 7.278804e-01 1.167426e+00 1.032723e+00 1.292591e+00 8.471035e-01 6.914321e-01 7.711467e-01 1.109154e-04 1.492549e-02 6.348749e-02 8.587158e-02 1.460272e-01 1.458627e-01 1.221526e-01 1.350144e-01 2.156958e-01 2.138980e-01 2.978289e-01 1.583672e-01 1.779757e-01 2.287645e-05
<GCONST> 5.635934e+01
<MIXTURE> 10 6.665058e-02
<MEAN> 39
 9.442371e-01 -4.221471e+00 -8.149601e+00 -2.797508e+01 -2.038307e+01 6.218955e+00 -7.876464e+00 6.024017e+00 -4.701813e+00 -5.837581e+00 2.264821e+00 -5.439878e+00 7.974553e-01 6.150857e-02 -7.481723e-01 -2.034009e-01 -2.939691e-01 1.912413e-01 7.837586e-01 1.351557e-01 -8.260950e-03 -2.109843e-01 -1.762577e-01 2.768899e-01 5.076308e-02 2.382048e-02 -3.012793e-01 -1.551819e-01 -2.490532e-01 7.148871e-01 7.823541e-01 -9.222303e-02 2.567495e-01 -6.871878e-01 -2.330894e-01 3.849284e-01 -5.726559e-02 3.592599e-01 -1.190901e-02
<VARIANCE> 39
 8.416532e+00 2.611934e+01 2.796829e+01 4.245411e+01 4.115163e+01 5.018111e+01 3.540766e+01 2.962630e+01 3.273719e+01 2.961826e+01 3.151122e+01 2.415094e+01 8.808276e-03 3.113294e-01 7.083954e-01 1.041899e+00 1.476976e+00 1.789161e+00 2.525220e+00 9.868875e-01 1.261279e+00 1.570682e+00 1.589786e+00 1.149317e+00 1.104957e+00 3.639897e-04 1.674635e-01 1.933733e-01 2.275285e-01 3.925913e-01 3.673881e-01 4.142752e-01 3.141693e-01 2.483286e-01 3.592106e-01 3.692412e-01 2.517822e-01 2.236488e-01 1.267801e-04
<GCONST> 7.725061e+01
<MIXTURE> 11 7.298346e-02
<MEAN> 39
 2.619913e+00 -3.275868e+00 -9.165881e+00 -2.539113e+01 -2.244122e+01 5.341597e+00 -7.658997e-01 -2.569949e+00 -2.498886e-01 -8.238395e+00 6.867215e-01 -1.793005e+00 8.249081e-01 6.389448e-02 -1.216259e+00 -7.879518e-01 4.291429e-01 9.031901e-01 8.098502e-01 3.260986e-02 -8.184165e-01 -1.097200e+00 1.818192e-01 1.156657e+00 7.206967e-01 1.069884e-02 -4.144350e-02 -4.574181e-01 -2.275740e-01 5.166780e-01 6.254229e-01 1.357051e-02 -4.453771e-01 -3.785626e-01 -3.690972e-01 5.182330e-01 6.260598e-01 9.949356e-02 -1.700237e-03
<VARIANCE> 39
 6.631968e+00 1.971318e+01 2.466380e+01 3.190875e+01 5.544941e+01 3.491275e+01 5.799707e+01 8.245206e+01 3.910174e+01 4.037666e+01 4.642646e+01 2.950394e+01 4.496424e-03 1.575190e-01 3.647640e-01 7.486096e-01 7.463005e-01 7.831057e-01 8.013874e-01 9.248850e-01 8.574761e-01 1.079779e+00 9.260439e-01 1.072839e+00 8.299251e-01 1.243047e-04 2.636483e-02 4.294622e-02 7.731351e-02 1.046956e-01 2.093804e-01 1.495197e-01 2.037817e-01 1.405170e-01 1.795188e-01 1.566180e-01 2.428740e-01 1.698813e-01 1.759046e-05
<GCONST> 5.887168e+01
<MIXTURE> 12 5.406177e-02
<MEAN> 39
 5.084155e-01 -1.728420e+00 -9.542048e+00 -2.467223e+01 -2.135538e+01 3.480424e+00 4.365314e+00 -9.640612e+00 4.887844e+00 -6.475630e+00 -1.096189e+00 1.740567e+00 8.100693e-01 8.688156e-02 -4.634561e-02 -4.491718e-01 1.665379e-01 -1.366243e-01 -1.322432e-01 6.568377e-01 -1.661095e-01 1.346971e-01 -2.254982e-01 -6.200410e-02 -6.264211e-02 6.238968e-03 -3.859679e-02 -2.669799e-01 -9.289366e-02 3.930689e-01 4.387021e-01 7.424466e-02 -2.357486e-01 -3.765993e-02 -4.614243e-01 5.682109e-02 2.431370e-01 -9.984251e-02 -3.681266e-03
<VARIANCE> 39
 7.462636e+00 2.329684e+01 2.720013e+01 2.926940e+01 5.009620e+01 2.816527e+01 4.567799e+01 6.993258e+01 3.504196e+01 2.967563e+01 3.654609e+01 3.411074e+01 1.115191e-02 2.237298e-01 4.693117e-01 5.754359e-01 7.187365e-01 9.226024e-01 9.962675e-01 1.500385e+00 1.051508e+00 8.863835e-01 7.314561e-01 8.551050e-01 4.694596e-01 1.654850e-04 7.494198e-02 1.027222e-01 1.279060e-01 2.952063e-01 2.427880e-01 2.541431e-01 2.612763e-01 4.545344e-01 3.027030e-01 2.276623e-01 1.827163e-01 1.715710e-01 6.581309e-05
<GCONST> 6.677205e+01
<MIXTURE> 13 8.942524e-02
<MEAN> 39
 2.381305e+00 -3.508476e+00 -1.024103e+01 -2.267231e+01 -2.070498e+01 5.133712e+00 -1.964174e+00 -2.369321e+00 -3.128448e+00 -7.976501e+00 3.062202e+00 -1.946837e+00 7.825381e-01 1.299364e+00 -1.009502e+00 6.462532e-02 -1.751271e+00 -1.952402e+00 1.270737e+00 -7.454606e-01 1.653848e-01 8.152451e-02 -6.939650e-01 1.221695e+00 -3.281964e-02 5.857093e-02 -1.014586e+00 -4.140189e-01 7.897355e-03 9.311888e-01 1.385318e+00 -2.230122e-01 -2.374750e-01 -8.824842e-02 -9.316892e-02 7.754521e-01 -1.173037e-01 -7.552129e-02 -2.724361e-02
<VARIANCE> 39
 6.545791e+00 2.494811e+01 2.416195e+01 2.595157e+01 4.850817e+01 3.532800e+01 4.010162e+01 6.478195e+01 4.598432e+01 2.539881e+01 3.078443e+01 2.973404e+01 7.319097e-03 1.441125e+00 1.978992e+00 1.367929e+00 2.655362e+00 5.429220e+00 2.513876e+00 2.426486e+00 2.933964e+00 2.901184e+00 2.574420e+00 2.171320e+00 1.725975e+00 1.173364e-03 1.598320e-01 3.572627e-01 3.342136e-01 3.778847e-01 5.278528e-01 4.929003e-01 4.928034e-01 5.613259e-01 6.158396e-01 4.297181e-01 4.712761e-01 4.094461e-01 9.707236e-05
<GCONST> 9.120777e+01
<MIXTURE> 14 4.925875e-02
<MEAN> 39
 -1.758476e+00 -1.380906e+01 -1.075003e+01 -1.386283e+01 -7.377914e+00 -8.623761e+00 -1.220065e+01 -5.118231e-01 -2.877338e+00 4.039909e+00 -6.707169e+00 -5.650944e+00 8.022119e-01 7.538846e-01 -1.583913e-02 -1.895448e+00 -1.703434e+00 1.086046e+00 2.883451e+00 4.922057e-01 -9.159784e-01 -7.758418e-01 1.302088e+00 9.278429e-01 -4.573221e-01 1.778331e-02 -4.264479e-01 5.068837e-01 6.481542e-01 -7.678056e-02 -2.581059e-01 1.535989e-01 7.991146e-01 -2.638243e-01 -4.721109e-01 -5.167458e-01 3.068767e-01 4.538184e-01 -8.679111e-03
<VARIANCE> 39
 6.170985e+00 1.667835e+01 2.141144e+01 3.482280e+01 2.580358e+01 1.000335e+02 3.241975e+01 4.325231e+01 4.332280e+01 5.926765e+01 4.216569e+01 2.444184e+01 5.579396e-03 3.474281e-01 9.046647e-01 1.702456e+00 2.564638e+00 1.767977e+00 2.207263e+00 2.279656e+00 2.439446e+00 3.004328e+00 3.616277e+00 2.805469e+00 1.972515e+00 1.860602e-04 3.116970e-01 2.073315e-01 2.109745e-01 3.469844e-01 2.793418e-01 8.242507e-01 4.670327e-01 6.470863e-01 5.583074e-01 7.376907e-01 3.678449e-01 3.307134e-01 6.288388e-05
<GCONST> 8.584123e+01
<MIXTURE> 15 5.623602e-02
<MEAN> 39
 4.907495e-02 -8.240964e+00 -1.526195e+01 -2.731795e+01 -6.471820e+00 -8.817765e-01 -5.307863e+00 -2.448046e+00 -1.247856e+01 3.003111e+00 -5.137537e+00 -4.167744e+00 8.212984e-01 1.944090e-02 -1.478797e+00 1.294142e-01 -4.560119e-01 7.720200e-01 3.158732e-01 -8.983898e-02 1.190491e+00 1.804552e-01 1.425023e+00 -4.735619e-02 -1.254768e-01 3.253859e-02 -7.799592e-01 -6.730265e-02 3.281288e-01 1.338822e+00 4.081716e-01 -3.573590e-01 -2.465313e-02 1.753269e-02 8.654563e-01 -2.456316e-01 -2.532458e-01 -4.317494e-02 -2.448747e-02
<VARIANCE> 39
 6.442283e+00 2.599199e+01 1.717387e+01 2.453083e+01 3.290990e+01 3.814117e+01 3.699210e+01 8.108274e+01 5.122254e+01 7.863349e+01 4.401023e+01 3.140703e+01 7.972439e-03 7.985414e-01 1.323656e+00 1.319509e+00 3.455539e+00 1.870372e+00 3.105419e+00 2.320093e+00 2.258768e+00 2.913246e+00 2.468029e+00 2.219633e+00 2.157230e+00 3.031703e-04 1.546029e-01 2.214942e-01 2.853956e-01 3.684303e-01 3.575466e-01 6.913172e-01 3.299623e-01 1.226215e+00 5.439681e-01 8.985462e-01 5.302600e-01 3.860572e-01 1.195075e-04
<GCONST> 8.984586e+01
<MIXTURE> 16 5.985077e-02
<MEAN> 39
 -1.012366e-01 -1.259659e+01 -1.370325e+01 -1.818133e+01 -6.821357e+00 -3.162133e+00 -8.046471e+00 -3.507657e+00 -4.547528e+00 5.363276e+00 -4.438451e+00 -5.122309e+00 8.426006e-01 -3.696446e-03 -1.668499e-01 -1.259251e-01 -1.948085e-01 3.258292e-01 2.664807e-01 5.689313e-01 1.333694e-01 2.620366e-01 2.286663e-01 -2.114567e-01 -2.594619e-01 6.584155e-03 -1.928856e-01 -7.661224e-02 3.635409e-01 5.141419e-01 -1.459003e-01 -7.289919e-01 -2.318727e-01 4.526874e-01 3.034261e-01 -3.353767e-01 -4.384408e-01 3.642769e-02 -4.364013e-03
<VARIANCE> 39
 5.265399e+00 1.590194e+01 1.385797e+01 5.386755e+01 4.846116e+01 5.641812e+01 6.056008e+01 6.115006e+01 5.042583e+01 3.674059e+01 4.328637e+01 3.135157e+01 4.709312e-03 1.682205e-01 5.674559e-01 8.099138e-01 1.416119e+00 6.561311e-01 1.093034e+00 1.127381e+00 1.696986e+00 1.525827e+00 1.505075e+00 1.181296e+00 9.687902e-01 1.386639e-04 3.603518e-02 1.034623e-01 1.057540e-01 2.271037e-01 2.805908e-01 2.466057e-01 3.581633e-01 3.027646e-01 3.648805e-01 2.950708e-01 2.216994e-01 2.541663e-01 2.821243e-05
<GCONST> 6.862329e+01
<STATE> 3
<NUMMIXES> 16
<MIXTURE> 1 6.450702e-02
<MEAN> 39
 2.512532e+00 -5.497653e+00 -9.842893e+00 -2.416617e+01 -2.144869e+01 7.123233e+00 7.332258e-01 -6.995001e+00 -4.167138e+00 -3.942192e+00 2.275766e+00 1.838896e+00 8.587342e-01 -8.336443e-02 -1.864451e+00 -9.934325e-01 1.359218e+00 1.912865e+00 3.324656e-01 -1.054590e+00 -1.232038e+00 -1.021618e+00 1.308091e+00 2.637679e+00 7.133415e-02 1.048629e-02 -1.161320e-01 -2.658215e-01 9.841230e-03 6.951200e-01 5.222406e-01 -5.937052e-01 -8.976970e-01 9.488873e-02 4.674942e-01 5.881029e-01 2.468389e-01 -6.916239e-01 -3.140033e-03
<VARIANCE> 39
 8.508106e+00 1.611807e+01 3.051995e+01 3.834243e+01 3.457202e+01 2.972667e+01 6.043179e+01 6.627934e+01 3.908399e+01 3.267680e+01 2.482433e+01 1.980733e+01 4.340825e-03 1.284375e-01 3.709301e-01 5.262420e-01 7.529371e-01 8.407782e-01 1.352953e+00 1.125756e+00 7.641571e-01 1.414483e+00 8.204066e-01 1.335124e+00 1.596889e+00 1.203554e-04 2.107840e-02 5.860799e-02 9.874950e-02 1.358059e-01 1.373802e-01 1.659483e-01 1.926961e-01 1.475783e-01 1.736013e-01 1.768712e-01 2.520093e-01 1.347845e-01 1.407891e-05
<GCONST> 5.830777e+01
<MIXTURE> 2 5.394993e-02
<MEAN> 39
 2.013782e+00 -1.534142e+01 -1.189482e+01 -1.032166e+01 -1.569137e+01 2.416867e+00 -1.073282e+01 -6.818491e+00 4.730057e+00 1.199349e+00 7.279887e+00 -6.205855e+00 8.676177e-01 -5.333031e-01 -8.424760e-01 1.269840e+00 1.688486e+00 4.028460e-01 -2.508228e+00 -1.921320e+00 1.905782e+00 1.879782e+00 4.577723e-01 -1.979193e+00 -1.490059e+00 -8.287191e-03 -1.134133e-01 3.487893e-01 3.932884e-01 -1.692569e-01 -3.495036e-01 -3.465355e-01 4.420351e-01 4.324172e-01 -3.073695e-01 -7.286633e-01 -3.575944e-01 6.064090e-01 -3.620405e-03
<VARIANCE> 39
 5.559591e+00 2.476602e+01 2.169888e+01 2.397652e+01 3.057863e+01 4.555322e+01 6.543494e+01 5.554601e+01 3.429553e+01 2.804428e+01 3.224109e+01 2.705411e+01 7.642222e-03 9.490207e-02 4.410604e-01 6.685781e-01 6.830817e-01 7.316086e-01 1.171869e+00 1.445956e+00 1.408722e+00 9.328005e-01 1.621290e+00 9.230162e-01 9.195506e-01 9.272934e-05 2.323878e-02 5.364905e-02 9.216588e-02 1.228451e-01 1.606055e-01 2.227436e-01 1.599040e-01 2.659439e-01 2.004620e-01 1.332611e-01 2.041115e-01 1.345356e-01 1.285990e-05
<GCONST> 5.848858e+01
<MIXTURE> 3 6.288222e-02
<MEAN> 39
 8.740340e-01 -1.406946e+01 -9.483723e+00 -1.860615e+01 -1.063532e+01 2.231747e+00 -1.311266e+01 -3.699727e+00 -5.543607e+00 8.245117e+00 9.013914e+00 -6.910281e+00 8.899735e-01 -6.592634e-01 -1.466082e+00 8.240077e-01 3.257264e+00 1.414711e+00 -4.169637e+00 -3.310450e+00 2.204237e+00 2.830117e+00 9.557597e-01 -1.346315e+00 -2.501234e+00 -5.329188e-03 -1.662526e-01 5.209990e-01 8.203269e-01 5.372037e-02 -9.367068e-01 -7.954440e-01 4.835564e-01 9.904988e-01 8.084204e-02 -1.351018e+00 -1.123347e+00 7.837442e-01 -6.034318e-03
<VARIANCE> 39
 8.560549e+00 1.683855e+01 1.730953e+01 1.850199e+01 2.722265e+01 3.631612e+01 3.175356e+01 5.680424e+01 5.073579e+01 3.898556e+01 3.533367e+01 2.556613e+01 5.063052e-03 1.756445e-01 5.164112e-01 6.972144e-01 9.646468e-01 1.276000e+00 1.233341e+00 1.776948e+00 1.365744e+00 1.052771e+00 1.883197e+00 1.380765e+00 1.315439e+00 8.282914e-05 4.064749e-02 8.164558e-02 1.691559e-01 1.347124e-01 1.634030e-01 2.957621e-01 2.262756e-01 3.509495e-01 3.162987e-01 2.461806e-01 3.288094e-01 3.506502e-01 2.130342e-05
<GCONST> 6.582474e+01
<MIXTURE> 4 7.926151e-02
<MEAN> 39
 2.421907e+00 -1.284343e+01 -1.221829e+01 -1.661662e+01 -1.589322e+01 5.302650e+00 -6.169933e+00 -8.098644e+00 -2.047180e+00 3.344227e-01 9.491155e+00 -2.803273e+00 8.825437e-01 -3.112803e-01 -1.278812e+00 1.965664e-01 1.520777e+00 1.143665e+00 -1.348674e+00 -2.157203e+00 6.880247e-01 1.224955e+00 1.750187e+00 -2.229739e-01 -2.007412e+00 2.098740e-03 -1.266954e-01 5.778252e-02 3.316692e-01 3.545756e-01 -7.590072e-02 -7.379947e-01 -3.609476e-01 6.647679e-01 3.727277e-01 -1.776950e-01 -7.322289e-01 -1.745518e-01 -4.214558e-03
<VARIANCE> 39
 5.874047e+00 2.754043e+01 2.700646e+01 2.439409e+01 3.562371e+01 5.657999e+01 6.758700e+01 7.379768e+01 4.626589e+01 3.003671e+01 3.284172e+01 2.709214e+01 5.156913e-03 8.506388e-02 3.286363e-01 3.120934e-01 8.315881e-01 8.992388e-01 8.945406e-01 1.104509e+00 8.378359e-01 1.020665e+00 8.986611e-01 1.701022e+00 8.278739e-01 7.295573e-05 2.759020e-02 6.524602e-02 6.222810e-02 1.234035e-01 1.313057e-01 1.174440e-01 2.240186e-01 1.927094e-01 1.432561e-01 2.226817e-01 1.637989e-01 1.766010e-01 1.075022e-05
<GCONST> 5.671423e+01
<MIXTURE> 5 4.830268e-02
<MEAN> 39
 3.668116e-01 -1.338321e+01 -1.041389e+01 -1.790211e+01 -7.843984e+00 -3.502686e+00 -9.723452e+00 -2.839287e+00 -3.551890e+00 1.107323e+01 -1.871421e+00 -7.376208e+00 8.685196e-01 -2.958339e-01 -7.323759e-01 6.395073e-01 1.495621e+00 -8.158095e-03 -1.947697e+00 -8.245058e-01 1.347146e+00 1.373215e+00 -4.417884e-01 -1.299748e+00 -7.302878e-01 -5.955980e-03 -3.865022e-02 1.327954e-01 2.901301e-01 6.311868e-02 -3.990042e-01 -1.949346e-01 1.811811e-01 4.161484e-01 -6.812123e-02 -7.950613e-01 -7.677938e-02 4.896402e-01 -3.480762e-03
<VARIANCE> 39
 4.869737e+00 2.087585e+01 2.861581e+01 3.476008e+01 1.674093e+01 3.814313e+01 3.766137e+01 3.728826e+01 3.166583e+01 3.044989e+01 5.290295e+01 2.935513e+01 6.994359e-03 1.396368e-01 3.366119e-01 4.049236e-01 1.236333e+00 8.361108e-01 1.110302e+00 1.504803e+00 1.501072e+00 1.456778e+00 2.269452e+00 1.468483e+00 1.660115e+00 9.652561e-05 3.230967e-02 5.519599e-02 1.057171e-01 9.269374e-02 9.041046e-02 2.336596e-01 1.711016e-01 2.411673e-01 1.683431e-01 3.267131e-01 2.652118e-01 1.472333e-01 1.979040e-05
<GCONST> 6.102315e+01
<MIXTURE> 6 5.948252e-02
<MEAN> 39
 1.199477e-01 -1.052144e+01 -1.267744e+01 -2.693926e+01 -5.568494e+00 1.557482e+00 -5.263320e+00 -6.125583e+00 -9.187751e+00 9.444183e+00 -3.534020e+00 -9.226332e-01 8.561223e-01 -4.019318e-01 -1.633640e+00 1.134338e-01 1.849520e+00 1.310956e+00 -1.769982e+00 -1.183043e+00 -3.052086e-02 1.621275e+00 1.843038e+00 -4.708668e-01 -2.311871e+00 5.309314e-03 -1.486490e-01 -3.036130e-02 2.245450e-01 6.141092e-01 -3.161255e-01 -1.003017e+00 -1.494642e-01 6.230311e-01 5.699509e-01 -5.535002e-01 -6.071239e-01 -2.622900e-01 -3.489549e-03
<VARIANCE> 39
 6.299685e+00 1.527664e+01 2.404099e+01 3.334741e+01 2.397149e+01 4.382343e+01 2.262809e+01 3.700557e+01 3.295338e+01 2.743079e+01 3.900647e+01 2.852502e+01 9.337267e-03 1.054042e-01 3.551953e-01 3.529185e-01 9.480867e-01 6.955240e-01 1.215528e+00 1.372485e+00 2.084741e+00 1.306208e+00 1.997068e+00 1.490323e+00 1.251139e+00 1.436356e-04 2.000251e-02 6.701618e-02 6.801262e-02 1.634835e-01 1.152046e-01 2.249319e-01 1.665063e-01 2.420509e-01 1.962384e-01 2.799725e-01 1.676511e-01 2.292925e-01 1.401358e-05
<GCONST> 5.968894e+01
<MIXTURE> 7 7.909046e-02
<MEAN> 39
 1.945998e+00 -9.820696e+00 -1.012689e+01 -2.343313e+01 -1.813553e+01 8.583971e+00 -3.450630e+00 -3.756200e+00 -7.367550e+00 -4.089487e+00 7.296988e+00 7.174023e-01 8.686276e-01 -1.354894e-01 -2.042121e+00 -9.933558e-01 2.046722e+00 2.571400e+00 -3.603250e-01 -2.070427e+00 -1.407031e+00 -1.463538e-01 2.366158e+00 2.406231e+00 -4.934569e-01 8.423012e-03 -2.090500e-01 3.378922e-02 2.957965e-01 8.404130e-01 2.845543e-01 -1.229605e+00 -8.538381e-01 4.496108e-01 9.710943e-01 5.507120e-01 -6.622195e-01 -8.803561e-01 -8.338266e-03
<VARIANCE> 39
 9.350512e+00 1.866330e+01 2.438308e+01 3.578874e+01 2.941359e+01 2.888227e+01 3.711536e+01 5.431732e+01 4.461133e+01 4.171177e+01 3.216892e+01 2.997744e+01 5.814302e-03 2.606710e-01 7.637771e-01 8.608165e-01 1.228011e+00 1.359340e+00 2.047294e+00 1.954200e+00 1.748759e+00 2.321006e+00 1.832864e+00 2.435498e+00 2.159784e+00 1.749507e-04 4.365771e-02 1.168763e-01 1.170456e-01 1.806362e-01 2.404249e-01 2.432196e-01 2.083281e-01 3.517872e-01 2.136235e-01 3.768825e-01 2.975752e-01 1.772457e-01 3.718274e-05
<GCONST> 7.211971e+01
<MIXTURE> 8 4.824036e-02
<MEAN> 39
 -2.765218e+00 -1.707523e+01 -9.785073e+00 -1.868288e+01 -2.500431e+00 -1.101176e+01 -1.040184e+01 1.188465e+00 -5.402966e-01 7.444737e+00 -1.186386e+01 -7.043923e+00 8.647544e-01 -1.010430e+00 -8.552017e-01 2.364145e+00 2.649780e+00 -2.340103e+00 -4.377995e+00 9.313867e-01 3.504945e+00 2.618212e-01 -2.593618e+00 -1.387499e+00 1.115926e+00 -8.992744e-03 -1.200865e-01 7.092403e-01 6.231874e-01 -6.345751e-01 -1.146592e+00 5.336786e-01 1.068112e+00 -2.544671e-01 -1.557620e+00 -6.467693e-01 1.132841e+00 1.035792e+00 -4.793881e-03
<VARIANCE> 39
 5.523092e+00 1.484676e+01 3.418113e+01 2.186667e+01 1.985339e+01 3.667947e+01 4.419256e+01 2.644813e+01 3.481787e+01 4.468324e+01 4.893695e+01 1.690212e+01 9.798232e-03 1.852211e-01 3.260612e-01 9.498637e-01 9.078421e-01 9.408839e-01 1.495849e+00 2.605258e+00 1.603959e+00 1.915315e+00 1.165691e+00 1.112345e+00 1.616774e+00 8.072529e-05 2.964371e-02 7.714001e-02 1.124783e-01 1.351622e-01 2.105282e-01 2.212903e-01 2.937535e-01 3.207574e-01 2.206059e-01 4.455368e-01 2.675931e-01 2.852759e-01 2.140929e-05
<GCONST> 6.523992e+01
<MIXTURE> 9 8.970289e-02
<MEAN> 39
 1.524191e+00 -1.171179e+01 -1.162073e+01 -1.989946e+01 -1.374086e+01 6.130006e+00 -6.804612e+00 -7.068976e+00 -6.261230e+00 1.678541e+00 1.034433e+01 -1.461788e+00 8.718329e-01 -4.847201e-01 -1.829397e+00 -1.744017e-01 3.055304e+00 2.380232e+00 -2.448010e+00 -3.449057e+00 9.210270e-02 1.900759e+00 2.549654e+00 6.089704e-01 -2.400651e+00 -1.348732e-03 -2.007440e-01 3.064931e-01 7.469397e-01 3.841947e-01 -4.979923e-01 -1.242652e+00 -2.933389e-01 1.127778e+00 8.708932e-01 -5.826186e-01 -1.354145e+00 -3.534490e-01 -6.929794e-03
<VARIANCE> 39
 1.000325e+01 1.769643e+01 2.661959e+01 3.837873e+01 3.543992e+01 3.755436e+01 5.071376e+01 6.329583e+01 5.727807e+01 4.543094e+01 2.644452e+01 3.244593e+01 6.523689e-03 2.135696e-01 7.976132e-01 8.008315e-01 9.042377e-01 1.233703e+00 1.469780e+00 1.936965e+00 1.734854e+00 1.644057e+00 2.052006e+00 2.634532e+00 1.260075e+00 1.818199e-04 4.673950e-02 8.018818e-02 1.362453e-01 1.530196e-01 1.943714e-01 3.790951e-01 3.147517e-01 2.422599e-01 3.055370e-01 2.665117e-01 2.611837e-01 3.689015e-01 1.650081e-05
<GCONST> 7.165598e+01
<MIXTURE> 10 4.920552e-02
<MEAN> 39
 -1.055277e+00 -1.190049e+01 -1.488195e+01 -2.572465e+01 -2.349916e+00 6.177775e+00 -1.211152e+01 -4.931893e+00 -5.280029e+00 3.814509e+00 -2.830020e+00 -3.255871e+00 8.807921e-01 -5.283658e-01 -2.077288e+00 5.766767e-01 2.897579e+00 8.264617e-01 -2.537803e+00 -1.437302e+00 -4.041739e-02 2.798224e+00 1.946241e+00 -2.237769e+00 -1.885540e+00 -3.254960e-04 -1.446940e-01 9.633815e-02 5.797877e-01 3.723373e-01 -9.465388e-01 -1.334891e+00 6.127755e-01 1.212336e+00 -1.738471e-02 -9.739176e-01 -7.973945e-01 2.323537e-01 -4.059654e-03
<VARIANCE> 39
 6.629807e+00 1.170303e+01 2.355603e+01 3.963978e+01 3.114397e+01 6.468015e+01 6.738901e+01 4.513275e+01 6.342169e+01 5.161411e+01 3.785940e+01 3.368747e+01 9.584044e-03 1.821745e-01 4.088858e-01 1.172511e+00 9.463336e-01 1.178327e+00 2.316983e+00 2.565622e+00 2.172266e+00 1.452008e+00 2.349667e+00 1.358831e+00 2.096544e+00 2.003127e-04 3.771676e-02 6.494316e-02 1.764325e-01 1.849822e-01 2.218343e-01 2.258019e-01 3.941638e-01 5.260351e-01 3.860815e-01 3.608479e-01 3.650045e-01 3.075551e-01 1.200726e-05
<GCONST> 7.359122e+01
<MIXTURE> 11 7.569542e-02
<MEAN> 39
 -3.090565e-02 -1.564390e+01 -8.810594e+00 -1.314287e+01 -1.083179e+01 -2.803817e+00 -1.637049e+01 -1.602275e-01 1.092774e+00 5.975772e+00 3.982187e+00 -1.024065e+01 8.725997e-01 -7.797761e-01 -5.444428e-01 1.853925e+00 2.410962e+00 -2.253933e-01 -4.122916e+00 -1.645717e+00 2.957694e+00 1.865796e+00 -1.156235e+00 -2.395442e+00 -2.468784e-01 -1.128568e-02 -6.685952e-02 5.291701e-01 5.441157e-01 -3.824966e-01 -7.038208e-01 -1.121680e-02 9.398011e-01 1.677720e-01 -8.664584e-01 -1.092295e+00 4.384983e-02 1.303076e+00 -4.213736e-03
<VARIANCE> 39
 6.887626e+00 1.782924e+01 2.190608e+01 1.920114e+01 2.727328e+01 4.383357e+01 3.842961e+01 5.197540e+01 3.727573e+01 3.772674e+01 3.248960e+01 3.151630e+01 5.787275e-03 1.851261e-01 3.607958e-01 6.386488e-01 8.067781e-01 8.901544e-01 1.408163e+00 1.583543e+00 1.280499e+00 1.190977e+00 1.379069e+00 9.312994e-01 1.479285e+00 5.924950e-05 3.481130e-02 8.037322e-02 1.592384e-01 1.448276e-01 1.634681e-01 2.099225e-01 2.538884e-01 2.097283e-01 1.905919e-01 2.488571e-01 2.504912e-01 2.357272e-01 1.728286e-05
<GCONST> 6.209271e+01
<MIXTURE> 12 5.823233e-02
<MEAN> 39
 6.649813e-02 -5.583933e+00 -1.656838e+01 -2.582124e+01 -6.828462e+00 5.208623e+00 -5.795262e+00 2.978833e-01 -9.833335e+00 -5.784147e+00 2.959078e-01 -2.229139e-01 8.310012e-01 -2.781045e-01 -1.783019e+00 -2.041061e-01 1.628661e+00 1.917038e+00 4.190553e-01 -1.845792e+00 -2.249258e+00 4.934607e-01 2.001529e+00 5.311285e-01 -7.911632e-03 -4.386350e-03 -1.377805e-01 -2.998332e-01 5.706214e-01 7.003083e-01 -1.266081e-01 -8.870050e-01 -4.670399e-01 7.758181e-02 9.858364e-01 6.051415e-01 -5.950730e-01 -6.673535e-01 -5.780232e-03
<VARIANCE> 39
 5.134087e+00 1.476673e+01 2.517347e+01 4.238673e+01 3.012846e+01 5.970437e+01 4.997168e+01 3.659611e+01 5.543020e+01 3.982945e+01 8.459688e+01 4.176213e+01 1.280233e-02 1.873887e-01 7.152805e-01 9.991595e-01 1.327904e+00 1.052088e+00 2.441220e+00 2.869355e+00 1.372529e+00 3.377520e+00 3.075144e+00 1.958884e+00 2.019731e+00 2.276155e-04 4.079048e-02 1.458002e-01 1.597508e-01 1.528303e-01 2.384154e-01 3.475904e-01 3.908047e-01 4.852231e-01 3.612038e-01 2.646067e-01 3.969350e-01 3.227090e-01 3.062002e-05
<GCONST> 7.762374e+01
<MIXTURE> 13 8.464309e-02
<MEAN> 39
 1.196118e+00 -8.479886e+00 -1.088583e+01 -2.736185e+01 -1.264770e+01 5.905546e+00 -4.135868e+00 -4.807343e+00 -7.700737e+00 1.664619e+00 1.917086e+00 2.236612e-01 8.790380e-01 -1.638673e-01 -1.164948e+00 -6.337591e-02 7.383615e-01 1.094512e+00 -1.838540e-01 -7.371266e-01 -4.508294e-01 3.759581e-01 1.699249e+00 4.670250e-01 -8.551918e-01 8.546202e-03 -6.215912e-02 -2.345661e-01 -4.266533e-02 6.721693e-01 2.790357e-01 -6.708981e-01 -5.130364e-01 5.677178e-02 3.489847e-01 4.276396e-01 -1.865900e-01 -6.568695e-01 -3.281097e-03
<VARIANCE> 39
 5.074413e+00 2.656755e+01 3.062738e+01 3.219270e+01 2.655357e+01 4.817157e+01 2.816354e+01 3.815849e+01 5.333327e+01 4.332184e+01 4.815326e+01 2.425397e+01 5.483348e-03 1.373246e-01 2.979652e-01 3.598250e-01 8.324449e-01 6.657211e-01 1.148763e+00 9.815007e-01 1.022563e+00 1.214114e+00 1.039676e+00 1.282879e+00 8.206579e-01 8.608992e-05 2.218772e-02 5.645245e-02 4.224615e-02 8.974597e-02 1.519581e-01 1.979512e-01 1.530494e-01 1.695287e-01 2.608500e-01 2.458450e-01 1.975194e-01 1.568073e-01 1.146204e-05
<GCONST> 5.645743e+01
<MIXTURE> 14 4.429202e-02
<MEAN> 39
 -1.796687e+00 -1.285643e+01 -1.459205e+01 -2.014402e+01 -1.465300e+00 -6.504334e+00 -4.826658e+00 -5.803294e+00 -1.667166e+00 7.510825e+00 -8.445781e+00 -7.457772e+00 8.206140e-01 -6.166027e-01 -1.171408e+00 8.503241e-01 2.037883e+00 -9.010864e-02 -2.743809e+00 -3.744054e-01 2.129051e+00 1.773607e+00 -8.543492e-01 -1.848013e+00 -6.232752e-01 1.684525e-04 -1.209791e-01 1.430427e-01 4.788465e-01 7.836267e-02 -8.154952e-01 -4.252961e-01 3.631482e-01 5.202879e-01 -4.605818e-01 -9.828847e-01 1.472742e-01 7.520323e-01 -4.412340e-03
<VARIANCE> 39
 4.225563e+00 1.703156e+01 1.866967e+01 2.927164e+01 2.368185e+01 3.575199e+01 3.775576e+01 4.571659e+01 8.522475e+01 7.082838e+01 3.879594e+01 2.073430e+01 1.344818e-02 8.531110e-02 3.338234e-01 3.149146e-01 8.575363e-01 7.884439e-01 1.456148e+00 1.370054e+00 1.431007e+00 1.478360e+00 1.785624e+00 8.997132e-01 1.543649e+00 1.185355e-04 1.740477e-02 6.536165e-02 5.337572e-02 1.484506e-01 1.324611e-01 3.396895e-01 2.502872e-01 2.129214e-01 2.246650e-01 3.132270e-01 1.936882e-01 2.337273e-01 2.160618e-05
<GCONST> 6.159957e+01
<MIXTURE> 15 4.331947e-02
<MEAN> 39
 -2.254818e+00 -1.627953e+01 -1.316094e+01 -2.299474e+01 -5.946693e-01 -3.156713e+00 -1.256920e+01 -1.650008e+00 -1.619179e+00 6.128296e+00 -1.293156e+01 -7.024607e+00 8.807222e-01 -7.191057e-01 -1.464798e+00 1.436986e+00 2.577130e+00 -9.523503e-01 -4.072661e+00 6.552227e-01 2.318482e+00 1.719291e+00 -1.275420e+00 -2.751882e+00 2.665056e-01 -1.099596e-03 -1.634342e-01 4.849017e-01 5.926422e-01 -3.618805e-02 -1.212061e+00 -4.107850e-01 1.113849e+00 4.760371e-01 -1.046758e+00 -1.047616e+00 6.813700e-01 8.696038e-01 -6.625565e-03
<VARIANCE> 39
 6.447619e+00 1.250232e+01 1.903029e+01 2.058009e+01 2.913703e+01 6.362518e+01 4.767919e+01 4.521087e+01 4.454910e+01 8.019968e+01 2.655979e+01 2.425310e+01 1.168941e-02 2.839595e-01 4.262446e-01 1.013346e+00 1.628673e+00 1.498147e+00 2.340424e+00 1.556854e+00 1.484325e+00 2.971330e+00 1.889292e+00 1.348725e+00 2.833417e+00 1.047018e-04 3.762448e-02 8.237495e-02 1.606457e-01 2.259391e-01 1.979032e-01 2.432705e-01 3.583459e-01 5.264617e-01 3.975889e-01 6.477025e-01 2.236470e-01 2.810598e-01 4.013892e-05
<GCONST> 7.378030e+01
<MIXTURE> 16 5.919005e-02
<MEAN> 39
 7.149460e-01 -1.292730e+01 -1.399636e+01 -1.248283e+01 -6.758422e+00 -1.165635e+00 -1.238620e+01 -4.044325e+00 -1.456624e+00 3.418708e+00 5.401536e+00 -6.312026e+00 7.993225e-01 -9.985040e-01 -1.170943e+00 1.813220e+00 3.410696e+00 2.286244e-01 -4.110199e+00 -2.721179e+00 2.135107e+00 2.721187e+00 2.036209e-01 -2.541792e+00 -1.231910e+00 -1.836411e-02 -3.165994e-01 5.680333e-01 1.023859e+00 -3.950365e-01 -1.261373e+00 -3.333958e-01 1.000333e+00 9.415212e-01 -4.936416e-01 -1.379808e+00 -5.589510e-01 7.275290e-01 -5.427179e-03
<VARIANCE> 39
 1.040127e+01 1.524627e+01 2.572984e+01 2.705705e+01 3.223551e+01 4.601841e+01 7.091586e+01 5.189696e+01 6.034452e+01 5.278847e+01 5.854943e+01 2.250047e+01 1.375385e-02 3.731087e-01 1.068388e+00 1.347896e+00 9.216368e-01 1.916655e+00 3.121460e+00 2.385862e+00 4.454991e+00 1.974389e+00 3.030628e+00 1.755888e+00 1.998805e+00 2.405211e-04 1.163766e-01 1.655025e-01 1.521080e-01 1.515626e-01 4.180430e-01 5.010241e-01 7.688140e-01 5.552288e-01 7.521841e-01 5.269731e-01 5.437692e-01 4.087026e-01 3.209708e-05
<GCONST> 8.501649e+01
<STATE> 4
<NUMMIXES> 16
<MIXTURE> 1 4.716904e-02
<MEAN> 39
 -5.851919e-01 -1.321061e+01 -7.845022e+00 -1.332445e+01 -1.088571e+01 -6.582172e+00 -9.545708e+00 -3.218903e+00 4.160355e+00 7.213493e+00 -1.180077e+00 -9.292916e+00 8.364754e-01 -3.018274e-01 6.175860e-01 -1.167279e-02 -4.164685e-02 3.044262e-01 1.522344e-02 6.212438e-02 -3.002059e-01 2.083948e-01 -2.789987e-01 -5.834534e-01 -1.069861e-01 -1.310872e-02 5.903657e-02 3.366039e-01 -2.256746e-01 -4.752072e-01 6.779180e-02 6.715658e-01 4.186104e-01 -4.923858e-01 -5.637947e-01 -1.785708e-01 3.525532e-01 4.635636e-01 -1.489331e-03
<VARIANCE> 39
 4.877202e+00 2.792479e+01 1.483954e+01 2.564527e+01 4.338564e+01 5.768923e+01 5.963312e+01 5.885504e+01 2.697533e+01 3.635595e+01 2.509757e+01 1.890251e+01 4.849093e-03 2.281787e-01 6.535632e-01 8.660394e-01 1.939622e+00 1.577551e+00 2.443351e+00 1.467030e+00 2.196419e+00 1.009830e+00 2.759907e+00 1.369642e+00 1.754519e+00 1.720721e-04 2.639036e-02 5.097480e-02 1.216283e-01 9.670223e-02 1.647599e-01 1.455720e-01 2.893597e-01 1.385168e-01 2.342915e-01 2.906038e-01 9.890210e-02 2.209156e-01 2.313826e-05
<GCONST> 6.542610e+01
<MIXTURE> 2 8.074752e-02
<MEAN> 39
 -2.741416e+00 -1.365849e+01 3.852421e-01 -7.149103e+00 -1.547907e+01 -1.123666e+01 -1.626387e+01 5.697278e+00 -2.254375e+00 -4.282625e+00 2.246915e+00 -3.705627e+00 7.885526e-01 -9.869745e-01 1.679653e+00 2.089685e+00 8.498177e-01 2.209042e-01 -9.816064e-01 1.832919e+00 -5.466649e-01 -2.308753e+00 -9.317690e-01 -3.254980e-01 7.173929e-01 -4.686378e-02 -4.470915e-01 8.858661e-01 -7.007205e-01 -2.101073e-01 1.048737e+00 9.533057e-01 8.605278e-01 -9.873695e-01 -2.391995e-01 6.893474e-01 1.704915e-03 -1.038184e-01 -1.638017e-02
<VARIANCE> 39
 8.639977e+00 1.652925e+01 2.853661e+01 3.049044e+01 2.718738e+01 4.779507e+01 3.905535e+01 4.455536e+01 5.586739e+01 4.546451e+01 4.111818e+01 2.014425e+01 8.109637e-03 8.705381e-01 1.339292e+00 2.396081e+00 1.389588e+00 3.525426e+00 1.963756e+00 3.092699e+00 2.980496e+00 3.807603e+00 2.410074e+00 2.208932e+00 2.023280e+00 3.873826e-04 3.394213e-01 1.965843e-01 3.515598e-01 3.046683e-01 3.642946e-01 6.803787e-01 5.051245e-01 5.055758e-01 7.144092e-01 5.033010e-01 4.067918e-01 4.219257e-01 1.110476e-04
<GCONST> 8.956163e+01
<MIXTURE> 3 6.780558e-02
<MEAN> 39
 -2.495241e+00 -1.541987e+01 -5.462996e-01 -8.818847e+00 -1.582646e+01 -1.276665e+01 -1.533133e+01 8.235283e+00 -7.899306e-01 -1.125230e+00 2.337395e-01 -1.897556e+00 8.213215e-01 -8.363180e-01 7.064978e-01 2.904999e+00 6.154416e-01 -1.633078e+00 -1.813330e+00 1.021108e+00 1.038456e+00 -2.233371e+00 -2.206450e+00 5.162361e-01 2.189911e+00 -1.719853e-02 5.964546e-02 4.018570e-01 -2.820981e-01 -4.936020e-01 2.083538e-01 1.094020e+00 5.588524e-01 -1.283075e+00 -6.504223e-01 4.968998e-01 6.066496e-01 -3.087741e-01 -3.528382e-03
<VARIANCE> 39
 7.982129e+00 1.582590e+01 2.167105e+01 2.022519e+01 3.976017e+01 4.124781e+01 3.559461e+01 3.661659e+01 4.413473e+01 3.616026e+01 2.918227e+01 2.339661e+01 8.302125e-03 2.881581e-01 4.910291e-01 1.514759e+00 9.810439e-01 1.294934e+00 1.483248e+00 1.472027e+00 1.692697e+00 2.014866e+00 1.403232e+00 1.795164e+00 1.267158e+00 1.408743e-04 3.419668e-02 7.688522e-02 1.633270e-01 2.235329e-01 2.552418e-01 2.456244e-01 3.058027e-01 2.543362e-01 3.872768e-01 2.459184e-01 2.144151e-01 3.963210e-01 4.114151e-05
<GCONST> 6.979416e+01
<MIXTURE> 4 6.434293e-02
<MEAN> 39
 -2.557509e+00 -1.305038e+01 -5.976931e-01 -7.366593e+00 -1.639694e+01 -1.659178e+01 -8.531569e+00 2.291625e+00 2.094749e+00 -4.781544e+00 1.025946e+00 1.623158e-01 7.642712e-01 -2.027028e-01 4.157999e-01 6.229190e-01 2.012401e-02 -2.716185e-01 1.155779e-02 1.722194e-01 -2.263731e-01 -4.409212e-01 -3.156520e-01 2.855216e-01 2.866009e-01 -9.240820e-03 1.021167e-01 2.321199e-02 -4.616288e-01 -2.580591e-01 4.935920e-01 5.664697e-01 -1.645911e-01 -3.553028e-01 2.788743e-01 4.620083e-01 -1.118791e-01 -5.016621e-01 -5.154039e-04
<VARIANCE> 39
 5.170791e+00 1.839822e+01 2.790575e+01 3.112668e+01 2.139668e+01 2.020100e+01 3.683894e+01 5.163219e+01 3.206421e+01 4.573608e+01 6.127040e+01 3.465418e+01 1.446441e-02 1.808735e-01 4.106224e-01 1.831259e+00 9.410658e-01 8.436041e-01 1.007326e+00 1.088867e+00 1.309733e+00 2.093716e+00 2.258893e+00 1.425225e+00 1.630213e+00 1.974541e-04 3.936417e-02 6.601025e-02 1.915220e-01 1.445395e-01 1.214499e-01 2.226703e-01 1.667008e-01 3.208906e-01 2.301660e-01 2.374892e-01 2.410233e-01 2.047012e-01 5.058342e-05
<GCONST> 6.745171e+01
<MIXTURE> 5 6.185959e-02
<MEAN> 39
 -6.369708e+00 -8.295372e+00 1.349502e+00 -1.071176e+01 -1.632406e+01 -1.681629e+01 -5.828583e+00 -2.857750e+00 -8.572960e+00 1.237812e-01 -4.155663e+00 -1.184994e+00 6.673591e-01 -1.437814e+00 3.208384e+00 -8.228300e-01 2.685894e+00 1.873399e+00 1.873945e+00 -1.640719e-01 -1.527365e+00 8.913566e-01 -1.552099e+00 -3.014462e-02 -7.975972e-01 -8.785930e-02 -6.848981e-01 2.762319e-01 -5.931438e-01 3.483188e-01 9.706008e-01 9.284188e-01 1.999811e-01 4.946400e-01 4.200221e-01 3.945660e-02 1.387620e-01 -1.875068e-01 -1.304951e-02
<VARIANCE> 39
 2.567949e+01 2.792197e+01 3.898432e+01 4.872654e+01 4.415772e+01 3.595180e+01 5.193776e+01 5.691188e+01 8.060178e+01 3.037666e+01 5.378836e+01 2.469977e+01 1.684004e-02 2.266148e+00 2.954655e+00 2.910535e+00 2.204488e+00 4.635139e+00 4.030173e+00 5.211137e+00 5.065199e+00 4.712347e+00 3.556715e+00 3.528897e+00 2.741904e+00 1.733646e-03 4.863186e-01 5.248997e-01 4.706253e-01 5.893776e-01 5.591109e-01 6.396120e-01 6.353352e-01 1.125378e+00 1.223645e+00 3.722669e-01 6.266620e-01 5.282755e-01 6.328818e-04
<GCONST> 1.074977e+02
<MIXTURE> 6 5.526632e-02
<MEAN> 39
 -8.176504e+00 -9.178421e+00 2.022214e+00 -2.108132e+01 -1.635303e+01 -1.435637e+01 3.121065e+00 -5.946832e+00 -6.223742e+00 3.489660e-01 -4.727664e+00 -2.341452e+00 6.946144e-01 -1.549895e-01 1.047656e+00 4.481749e-01 1.691558e-01 -4.660489e-01 4.356328e-01 -7.319329e-01 -8.706391e-01 -8.933954e-02 2.539406e-01 7.417729e-02 -1.998581e-01 -2.381375e-02 1.671988e-01 -8.690015e-02 -5.347794e-01 6.231051e-01 5.653376e-01 -6.987895e-02 -3.130022e-01 5.912495e-01 1.798639e-01 -3.204581e-01 -2.667747e-01 8.411627e-02 -3.085775e-03
<VARIANCE> 39
 5.484358e+00 1.551880e+01 3.045014e+01 6.764751e+01 2.196183e+01 6.155068e+01 2.581140e+01 2.449464e+01 5.026062e+01 3.714204e+01 2.893184e+01 4.395145e+01 2.058103e-02 3.984873e-01 5.278449e-01 2.043416e+00 2.455628e+00 1.021902e+00 1.956356e+00 1.978879e+00 2.429947e+00 2.933859e+00 2.295279e+00 1.146856e+00 1.101276e+00 2.856988e-04 6.987067e-02 7.793650e-02 1.895120e-01 2.570191e-01 2.219341e-01 4.354002e-01 3.804654e-01 3.385548e-01 3.739935e-01 3.363161e-01 2.597125e-01 3.311989e-01 6.905902e-05
<GCONST> 7.777566e+01
<MIXTURE> 7 7.492721e-02
<MEAN> 39
 -5.486004e-01 -1.620592e+01 -7.050877e+00 -1.000252e+01 -1.300737e+01 -6.582664e+00 -1.610096e+01 4.165953e+00 2.933982e+00 2.260109e+00 -1.141503e+00 -7.492424e+00 8.515308e-01 -7.109774e-01 -7.214042e-02 2.343923e+00 1.482696e+00 -1.265240e+00 -3.216187e+00 -8.325491e-02 2.766031e+00 -1.533605e-04 -2.399627e+00 -1.111850e+00 1.641851e+00 -1.348594e-02 -3.650927e-02 4.251799e-01 2.412365e-01 -4.805009e-01 -3.346043e-01 4.757132e-01 8.204039e-01 -5.485078e-01 -1.052682e+00 -3.631857e-01 7.796590e-01 7.305161e-01 -2.735237e-03
<VARIANCE> 39
 6.676453e+00 1.954051e+01 2.478829e+01 2.290016e+01 3.139825e+01 5.012120e+01 4.512967e+01 4.693976e+01 4.158270e+01 4.309228e+01 4.631993e+01 3.060404e+01 7.505498e-03 1.597920e-01 4.462244e-01 8.303993e-01 7.053334e-01 7.878140e-01 1.184580e+00 1.540052e+00 1.270239e+00 1.579374e+00 1.568889e+00 1.378117e+00 1.460568e+00 1.191741e-04 3.235890e-02 5.095464e-02 1.392734e-01 1.481940e-01 1.656009e-01 2.673253e-01 2.272878e-01 1.997372e-01 2.335448e-01 2.971464e-01 2.111016e-01 2.283487e-01 1.830078e-05
<GCONST> 6.465642e+01
<MIXTURE> 8 6.521992e-02
<MEAN> 39
 -5.096035e+00 -1.595724e+01 -5.412764e+00 -1.479696e+01 -1.231771e+01 -1.634958e+01 -2.278733e+00 5.526178e+00 -6.303331e+00 -2.832181e+00 -9.926774e+00 -4.145181e-01 8.080091e-01 -1.010332e+00 8.436525e-01 2.884791e+00 -1.985366e-01 -3.354814e+00 -1.028201e+00 2.551069e+00 -6.134142e-01 -2.819538e+00 -3.758019e-01 1.918011e+00 9.882076e-01 -1.670840e-02 6.875373e-02 6.273137e-01 -1.787494e-01 -6.691640e-01 2.817701e-01 1.171760e+00 -4.987474e-01 -1.401297e+00 -2.024352e-01 9.213941e-01 3.598951e-01 -5.902910e-01 -4.382357e-03
<VARIANCE> 39
 6.279079e+00 1.595826e+01 2.593955e+01 3.026841e+01 2.822317e+01 4.905978e+01 3.929321e+01 3.493909e+01 4.037578e+01 4.107671e+01 3.400363e+01 2.179036e+01 1.423157e-02 1.777143e-01 5.669382e-01 9.332743e-01 8.687688e-01 1.262581e+00 2.161988e+00 2.048408e+00 2.034278e+00 2.045685e+00 2.575347e+00 1.585795e+00 1.381464e+00 1.260615e-04 4.382348e-02 1.150386e-01 1.209007e-01 2.306459e-01 1.970288e-01 2.617326e-01 3.144474e-01 3.867344e-01 3.405672e-01 2.627062e-01 2.917337e-01 2.057049e-01 2.787945e-05
<GCONST> 7.091497e+01
<MIXTURE> 9 7.854051e-02
<MEAN> 39
 -6.322231e+00 -1.375935e+01 -1.539800e+00 -1.629118e+01 -1.604964e+01 -1.611888e+01 1.121613e+00 3.157945e+00 -9.746501e+00 5.552643e-01 -6.277552e+00 -3.252370e-01 7.962651e-01 -7.623782e-01 1.359616e+00 1.968626e+00 -9.073585e-01 -2.035644e+00 4.076968e-01 9.488757e-01 -2.066361e+00 -1.619072e+00 9.379203e-01 1.068300e+00 -1.441615e-01 -2.037403e-02 1.602284e-01 1.983126e-01 -4.473771e-01 -8.879151e-02 6.759986e-01 6.170477e-01 -8.791925e-01 -5.696362e-01 6.136432e-01 2.443575e-01 -4.081684e-01 -4.412858e-01 -3.656731e-03
<VARIANCE> 39
 4.637776e+00 1.465133e+01 3.177217e+01 2.888479e+01 2.748957e+01 4.910945e+01 4.456820e+01 3.261581e+01 3.626154e+01 4.728592e+01 3.756879e+01 2.954600e+01 1.277577e-02 1.754280e-01 7.442871e-01 9.731578e-01 1.128000e+00 1.427874e+00 2.120934e+00 2.029202e+00 1.635620e+00 2.592867e+00 2.634667e+00 1.502891e+00 1.737646e+00 2.025659e-04 4.428481e-02 1.487348e-01 1.496718e-01 2.073894e-01 2.073694e-01 3.449798e-01 3.307843e-01 4.356279e-01 2.989331e-01 3.399625e-01 2.131195e-01 2.117471e-01 3.352512e-05
<GCONST> 7.329063e+01
<MIXTURE> 10 6.672942e-02
<MEAN> 39
 -1.885300e+00 -1.521890e+01 -7.464936e+00 -1.139618e+01 -1.154636e+01 -1.102672e+01 -8.074029e+00 4.316208e+00 3.022233e+00 -2.700234e+00 -4.755478e+00 -4.692558e+00 8.239443e-01 -6.198375e-01 1.864243e-01 1.775671e+00 2.773419e-01 -1.171782e+00 -1.518095e+00 7.363403e-01 1.069657e+00 -8.706693e-01 -1.205551e+00 2.524491e-01 1.288774e+00 -1.064244e-02 2.806259e-02 1.835656e-01 7.596469e-04 -2.551001e-01 8.086135e-03 3.750091e-01 1.282657e-01 -5.771806e-01 -4.134096e-01 3.470505e-01 4.185298e-01 -5.242359e-02 -1.760556e-03
<VARIANCE> 39
 1.041209e+01 1.897025e+01 2.882445e+01 4.040457e+01 2.885806e+01 4.054609e+01 6.728815e+01 5.895480e+01 7.154186e+01 4.922140e+01 5.989126e+01 2.622268e+01 1.139405e-02 9.255212e-02 3.517741e-01 6.478059e-01 2.960329e-01 5.777542e-01 8.419391e-01 1.172085e+00 1.409602e+00 1.229292e+00 1.039437e+00 1.176165e+00 9.456643e-01 1.033553e-04 2.854180e-02 5.435210e-02 1.023733e-01 8.878399e-02 1.179246e-01 1.165230e-01 1.770659e-01 2.318704e-01 1.651997e-01 1.843151e-01 1.604511e-01 1.350125e-01 1.518088e-05
<GCONST> 5.923544e+01
<MIXTURE> 11 6.932528e-02
<MEAN> 39
 -1.444116e+00 -1.422133e+01 -7.950083e+00 -7.366119e+00 -1.149331e+01 -8.827868e+00 -1.632008e+01 1.084534e+00 3.977672e+00 -8.975054e-01 1.691968e+00 -6.652744e+00 8.100470e-01 -1.162162e+00 5.024335e-02 3.055623e+00 1.964046e+00 -1.283097e+00 -3.435553e+00 -3.764374e-01 2.681771e+00 -1.700868e-01 -2.201431e+00 -1.812267e+00 6.856934e-01 -2.506044e-02 -1.515979e-01 7.351949e-01 3.316674e-01 -7.372427e-01 -3.245607e-01 9.248298e-01 1.399933e+00 -5.299431e-01 -1.397978e+00 -5.047848e-01 4.678304e-01 7.401938e-01 -8.505818e-03
<VARIANCE> 39
 9.560346e+00 1.625026e+01 3.322717e+01 3.482161e+01 3.487150e+01 5.315558e+01 4.110910e+01 5.675297e+01 5.110855e+01 3.540033e+01 4.565387e+01 2.303744e+01 1.274939e-02 5.563323e-01 1.174060e+00 2.032761e+00 1.148204e+00 2.776834e+00 3.387655e+00 3.395791e+00 2.555800e+00 3.277874e+00 2.088029e+00 2.854655e+00 3.805491e+00 2.366022e-04 1.370404e-01 2.532707e-01 3.924516e-01 2.277213e-01 6.639535e-01 4.752841e-01 6.060356e-01 5.748731e-01 5.275567e-01 5.457907e-01 4.402740e-01 3.622155e-01 5.963734e-05
<GCONST> 8.914500e+01
<MIXTURE> 12 5.740041e-02
<MEAN> 39
 -6.213759e+00 -7.932651e+00 4.663660e+00 -5.924406e+00 -1.392859e+01 -1.399036e+01 -9.570459e+00 2.583419e+00 -7.470626e+00 -4.260718e+00 1.129103e+00 -2.124535e+00 6.908796e-01 -3.602402e+00 3.756806e+00 -2.651441e-01 5.066424e-01 3.169496e+00 1.406605e-01 3.247148e+00 -8.728849e-01 -3.762031e-01 5.206791e-01 -1.375611e+00 1.219757e+00 -6.270621e-02 -1.236621e+00 1.847666e-01 -1.037603e+00 -4.995146e-01 9.976779e-01 8.390546e-01 3.123799e-02 6.236778e-02 8.440899e-01 5.044138e-01 -2.408317e-02 4.758971e-02 1.898412e-03
<VARIANCE> 39
 1.022078e+01 1.511239e+01 3.211666e+01 2.147140e+01 2.304473e+01 2.244524e+01 3.003521e+01 2.315338e+01 4.327557e+01 2.473463e+01 2.510583e+01 2.691088e+01 1.096169e-02 2.259019e+00 2.031469e+00 4.156110e+00 1.634852e+00 3.854442e+00 3.609338e+00 3.287812e+00 2.028503e+00 6.041790e+00 2.838590e+00 3.255876e+00 2.013647e+00 6.503173e-04 1.291069e-01 3.967710e-01 3.741180e-01 2.737454e-01 4.949941e-01 6.692542e-01 4.220987e-01 4.654383e-01 4.239649e-01 4.483877e-01 4.061056e-01 4.144919e-01 1.875955e-04
<GCONST> 9.037321e+01
<MIXTURE> 13 3.828652e-02
<MEAN> 39
 -7.041401e+00 -1.099645e+01 8.150734e+00 -1.095049e+01 -1.934053e+01 -9.601793e+00 -9.368299e+00 4.670721e+00 -1.638681e+01 -3.433689e+00 2.645169e+00 -4.357999e+00 6.432640e-01 -4.762169e-01 1.935024e+00 4.565688e-02 1.193828e+00 9.746146e-01 -3.007333e-01 1.359735e+00 -2.051504e+00 -9.472118e-01 1.424235e-01 -1.159027e-01 -1.080827e-01 -5.815992e-02 -7.340823e-02 5.481004e-01 -1.349055e+00 7.091542e-01 1.125977e+00 -1.790386e-01 1.503148e-01 -3.684214e-01 1.115475e+00 1.857793e-01 -4.848487e-01 6.488971e-02 -1.270510e-02
<VARIANCE> 39
 8.086776e+00 1.085412e+01 3.749311e+01 3.904154e+01 1.813460e+01 3.117447e+01 3.896251e+01 5.234207e+01 4.635144e+01 4.889613e+01 5.689918e+01 2.908665e+01 8.736019e-03 1.314209e+00 1.889237e+00 4.135319e+00 3.188642e+00 3.970449e+00 2.455129e+00 5.817493e+00 4.290050e+00 4.593248e+00 3.328584e+00 3.350346e+00 1.942049e+00 1.098063e-03 2.946701e-01 2.621021e-01 4.683355e-01 4.723319e-01 7.185333e-01 3.884744e-01 6.532041e-01 8.121120e-01 6.446215e-01 6.414617e-01 7.939172e-01 4.961193e-01 1.860931e-04
<GCONST> 9.818062e+01
<MIXTURE> 14 6.579072e-02
<MEAN> 39
 -3.780454e+00 -1.712387e+01 -8.698473e+00 -1.514669e+01 -6.294661e+00 -1.344593e+01 -7.993227e+00 6.444162e+00 -2.266821e+00 2.611361e-01 -1.304333e+01 -3.199721e+00 8.397716e-01 -1.022636e+00 -2.657299e-02 2.832141e+00 1.322587e+00 -3.446095e+00 -2.891818e+00 2.717341e+00 1.947060e+00 -1.846575e+00 -2.148692e+00 5.166067e-01 1.950646e+00 -1.270521e-02 -4.462847e-02 7.414623e-01 2.643135e-01 -8.170567e-01 -5.635608e-01 1.042825e+00 5.726873e-01 -1.235081e+00 -1.180805e+00 4.708113e-01 1.142871e+00 8.159042e-02 -4.768166e-03
<VARIANCE> 39
 5.836345e+00 1.525986e+01 3.259393e+01 2.904497e+01 3.101581e+01 5.278200e+01 5.243330e+01 3.986439e+01 3.972543e+01 4.937053e+01 4.402009e+01 2.500879e+01 1.105936e-02 2.053427e-01 5.212783e-01 1.042293e+00 8.061254e-01 1.485598e+00 2.018568e+00 2.234468e+00 1.902406e+00 2.112375e+00 2.206370e+00 1.720549e+00 1.170518e+00 9.210459e-05 4.270054e-02 1.031148e-01 1.326493e-01 2.592719e-01 2.488584e-01 3.484599e-01 3.029824e-01 3.171663e-01 3.949393e-01 3.111947e-01 2.360607e-01 2.976843e-01 2.048053e-05
<GCONST> 7.209861e+01
<MIXTURE> 15 5.679777e-02
<MEAN> 39
 -4.998796e+00 -1.358981e+01 6.482822e+00 -9.801191e+00 -2.016024e+01 -1.185861e+01 -1.428055e+01 7.226583e+00 -9.767848e+00 -3.098170e+00 3.605872e+00 -7.299616e-01 7.926642e-01 -6.119481e-01 1.091339e+00 1.376364e+00 -5.911590e-03 -1.648575e-01 9.637664e-02 9.983281e-01 -1.097185e+00 -1.671780e+00 -4.169474e-01 6.146974e-02 -6.612250e-02 -2.542575e-02 6.754697e-02 2.317358e-01 -8.694896e-01 3.633890e-02 8.240160e-01 2.932801e-01 8.451509e-02 -5.953504e-01 6.952117e-01 3.784556e-01 -3.963552e-01 -4.535984e-01 -5.779745e-03
<VARIANCE> 39
 6.891077e+00 1.631587e+01 2.274654e+01 1.590785e+01 3.287009e+01 2.538140e+01 1.613443e+01 2.953343e+01 5.518140e+01 3.510184e+01 2.676326e+01 1.841952e+01 1.029792e-02 2.659836e-01 3.336533e-01 2.344937e+00 1.027183e+00 2.037190e+00 1.387958e+00 1.546283e+00 1.574470e+00 3.362613e+00 1.305301e+00 1.740539e+00 1.074373e+00 2.320998e-04 1.127932e-01 1.795941e-01 2.732722e-01 2.121243e-01 2.718896e-01 2.926172e-01 3.045131e-01 4.238549e-01 4.407436e-01 3.562425e-01 2.207041e-01 2.654485e-01 5.674492e-05
<GCONST> 7.270895e+01
<MIXTURE> 16 4.978801e-02
<MEAN> 39
 -7.609947e+00 -1.224588e+01 2.259773e+00 -1.882356e+01 -1.851873e+01 -1.643694e+01 -1.159649e+00 -1.072149e+00 -1.199653e+01 4.850202e+00 -7.731344e+00 1.159648e-01 7.696745e-01 -5.906878e-01 2.226089e+00 9.725051e-01 4.356928e-01 -1.093596e+00 6.485742e-01 -5.091292e-01 -2.879161e+00 -6.104706e-01 -5.791779e-01 4.220125e-02 -2.148733e-01 -4.338068e-02 -1.797486e-01 6.180729e-01 -9.763364e-01 9.574361e-01 1.091838e+00 5.502414e-01 -5.596168e-01 1.178972e-01 7.121467e-01 -6.171547e-01 -5.339757e-02 -4.606083e-01 -1.628654e-02
<VARIANCE> 39
 8.157560e+00 1.498315e+01 2.669339e+01 2.518467e+01 3.516326e+01 4.790999e+01 2.868232e+01 3.877143e+01 3.061658e+01 2.685906e+01 3.426872e+01 1.982496e+01 7.053224e-03 7.224594e-01 1.672128e+00 1.803557e+00 2.054744e+00 2.073106e+00 2.450293e+00 2.972338e+00 5.224973e+00 2.713567e+00 3.065709e+00 1.779463e+00 1.706651e+00 3.059356e-04 2.992330e-01 2.666040e-01 2.730563e-01 3.495994e-01 7.470694e-01 5.334293e-01 5.006227e-01 6.842774e-01 5.838508e-01 4.331816e-01 6.019784e-01 2.309225e-01 1.409709e-04
<GCONST> 8.763651e+01
<TRANSP> 5
 0.000000e+00 1.000000e+00 0.000000e+00 0.000000e+00 0.000000e+00
 0.000000e+00 8.162833e-01 1.837167e-01 0.000000e+00 0.000000e+00
 0.000000e+00 0.000000e+00 8.010088e-01 1.989911e-01 0.000000e+00
 0.000000e+00 0.000000e+00 0.000000e+00 8.315470e-01 1.684530e-01
 0.000000e+00 0.000000e+00 0.000000e+00 0.000000e+00 0.000000e+00
<ENDHMM>
