~o
<STREAMINFO> 1 39
<VECSIZE> 39<NULLD><MFCC_E_D_A><DIAGC>
~h "sil"
<BEGINHMM>
<NUMSTATES> 5
<STATE> 2
<NUMMIXES> 16
<MIXTURE> 1 4.461234e-02
<MEAN> 39
 -1.448689e+01 -5.863668e+00 -1.046561e+01 -5.506286e+00 -4.898184e+00 -1.975306e+00 1.115414e+00 3.194838e+00 -1.383805e+00 -3.749641e+00 -2.739542e+00 1.149334e+00 -9.875457e-02 -8.244987e-01 1.484802e+00 8.897515e-01 8.069855e-01 5.591519e-01 4.840844e-01 -1.003742e-02 -2.897886e-01 3.234150e-01 9.351997e-01 3.743973e-01 -2.424473e-01 -2.632613e-02 -1.288237e-01 -8.668439e-03 3.729094e-01 1.630302e-01 2.248382e-01 -1.400291e-02 -2.840082e-01 -2.721862e-01 -2.160069e-03 2.149111e-01 9.873072e-02 -1.110069e-01 8.113873e-03
<VARIANCE> 39
 4.451948e+00 1.107891e+01 1.242781e+01 1.176398e+01 1.478871e+01 1.630060e+01 1.673668e+01 1.590308e+01 1.986114e+01 1.927797e+01 1.882339e+01 1.426471e+01 2.843610e-03 4.226215e-01 1.040175e+00 1.549774e+00 1.361595e+00 1.567896e+00 1.738155e+00 1.784199e+00 1.760494e+00 1.857195e+00 1.874322e+00 1.718242e+00 1.304790e+00 2.675754e-04 8.813498e-02 1.573933e-01 1.831997e-01 1.981528e-01 2.213705e-01 2.729295e-01 2.805309e-01 2.680911e-01 3.062129e-01 3.229960e-01 2.820460e-01 2.318779e-01 5.823748e-05
<GCONST> 6.542870e+01
<MIXTURE> 2 4.825091e-02
<MEAN> 39
 -1.055931e+01 -1.859292e-01 -1.651004e+00 -8.966991e-01 -3.869881e+00 -4.256225e+00 -1.329673e+00 -3.207901e+00 -5.996544e+00 -2.381823e+00 -3.514421e+00 -2.140485e+00 1.311684e-01 -4.019919e-01 -2.402652e-02 -7.870293e-02 3.542756e-01 4.859815e-01 4.392838e-01 3.100886e-01 3.138011e-01 2.703862e-01 8.489828e-02 1.468620e-01 2.158538e-01 -2.367638e-02 -1.379057e-01 -2.633150e-01 -2.427635e-01 -2.257082e-01 7.217962e-03 7.822233e-02 1.111900e-01 2.669146e-01 2.641524e-01 8.672979e-02 5.999577e-02 1.114515e-01 -4.140110e-04
<VARIANCE> 39
 1.361731e+01 2.849465e+01 2.131298e+01 2.519358e+01 3.129874e+01 2.885082e+01 2.923406e+01 3.849827e+01 2.719004e+01 2.588025e+01 2.203722e+01 2.070149e+01 2.265633e-02 8.334075e-01 9.531030e-01 1.037211e+00 1.185105e+00 1.601759e+00 1.617431e+00 1.607299e+00 1.647786e+00 1.653517e+00 1.495589e+00 1.351146e+00 1.265038e+00 6.273820e-04 9.593027e-02 1.374398e-01 1.710446e-01 2.366980e-01 2.646864e-01 2.636590e-01 2.755046e-01 3.140842e-01 3.167468e-01 2.701660e-01 2.610856e-01 2.394623e-01 7.148504e-05
<GCONST> 7.519564e+01
<MIXTURE> 3 8.278309e-02
<MEAN> 39
 -1.374289e+01 -7.973175e+00 -8.213365e+00 -7.105497e+00 -3.845933e+00 -4.942029e+00 -2.660979e+00 4.617151e-01 -9.199284e-01 -1.683155e+00 -3.260611e+00 -4.822467e-01 1.293149e-01 -5.295832e-02 -1.150395e-01 -5.276721e-01 2.465536e-01 2.249928e-01 3.532492e-01 3.464881e-02 1.142632e-01 7.952724e-02 6.354453e-02 6.621335e-02 2.021664e-01 -3.735534e-02 -1.373588e-01 3.826905e-01 1.717463e-01 2.128218e-01 5.157426e-02 2.093062e-01 1.353566e-01 -1.294729e-01 -1.664554e-01 -1.257985e-02 3.086423e-02 -5.494099e-02 -1.582001e-03
<VARIANCE> 39
 2.106148e+01 2.514360e+01 3.722823e+01 3.633121e+01 4.958408e+01 4.498713e+01 4.889476e+01 4.700884e+01 3.973815e+01 4.416256e+01 3.409375e+01 2.903647e+01 1.689761e-02 2.647650e+00 2.835037e+00 3.026070e+00 3.668169e+00 3.895699e+00 3.956858e+00 3.952197e+00 3.864827e+00 3.438695e+00 3.572286e+00 2.847855e+00 2.248610e+00 2.612829e-03 4.661860e-01 4.650995e-01 5.956587e-01 6.542063e-01 7.727903e-01 7.405799e-01 8.053662e-01 8.058240e-01 7.181801e-01 7.413721e-01 6.060019e-01 5.082878e-01 3.360978e-04
<GCONST> 1.059309e+02
<MIXTURE> 4 5.938080e-02
<MEAN> 39
 -1.843662e+01 -2.600028e+00 -6.149973e+00 -2.098233e+00 -2.715409e+00 -4.400365e-01 -9.101217e-01 6.905633e-01 -3.575638e-01 1.601384e-01 -2.471610e-01 2.336303e-01 -1.481936e-01 -7.672036e-02 4.510759e-02 5.288135e-02 2.844386e-02 8.761328e-02 5.134388e-02 -1.394961e-02 -3.023819e-02 -2.556518e-02 5.132659e-02 -9.968998e-03 -2.592039e-02 -3.285835e-05 5.668921e-03 3.779904e-03 1.580439e-02 1.426250e-02 7.387952e-03 -1.214276e-03 5.177789e-03 -5.773967e-03 -1.304250e-02 -1.129657e-02 -1.173050e-02 -1.328758e-02 5.524976e-05
<VARIANCE> 39
 3.079085e+00 4.827354e+00 6.451170e+00 8.379539e+00 8.940973e+00 9.999129e+00 9.327884e+00 1.068805e+01 1.009725e+01 1.038765e+01 9.323475e+00 7.911069e+00 1.289588e-04 1.802134e-01 3.092613e-01 4.857128e-01 6.033062e-01 7.364071e-01 8.980627e-01 9.638412e-01 1.157178e+00 1.093749e+00 1.094738e+00 1.041928e+00 9.548599e-01 4.404991e-06 1.420637e-02 2.137688e-02 3.566489e-02 4.835894e-02 5.602875e-02 6.478878e-02 7.741681e-02 8.636358e-02 8.390852e-02 8.309368e-02 7.458659e-02 7.121187e-02 6.561323e-07
<GCONST> 2.135332e+01
<MIXTURE> 5 6.008294e-02
<MEAN> 39
 -1.319934e+01 -9.605475e+00 -8.909745e+00 -4.827056e+00 -4.577890e+00 -6.286483e+00 -2.486961e+00 2.836216e+00 -3.002764e+00 -6.980591e+00 -2.868073e+00 2.277420e+00 6.848372e-03 -5.964306e-03 6.016852e-01 -1.951929e-01 3.702980e-01 2.801064e-01 3.508561e-01 7.417943e-02 6.431320e-02 3.631323e-01 3.358423e-01 1.198405e-02 -1.102775e-01 -1.998775e-02 -8.590464e-02 1.158761e-01 5.591550e-02 -3.210713e-02 9.135336e-02 2.066898e-01 1.552922e-01 2.273255e-02 1.792346e-01 2.883912e-01 2.065292e-02 -1.444607e-01 1.335646e-03
<VARIANCE> 39
 5.686987e+00 1.083385e+01 1.479557e+01 1.287281e+01 2.105333e+01 1.915085e+01 2.300100e+01 1.879367e+01 2.120865e+01 1.960921e+01 2.273774e+01 1.587639e+01 1.107911e-02 1.971658e-01 4.594463e-01 6.609645e-01 7.129773e-01 9.106584e-01 1.075477e+00 1.341385e+00 1.349668e+00 1.325295e+00 1.335034e+00 1.223026e+00 1.171122e+00 1.675646e-04 3.583157e-02 7.380619e-02 1.054203e-01 1.227173e-01 1.538811e-01 1.765962e-01 2.207829e-01 2.350230e-01 2.127086e-01 2.212077e-01 2.017252e-01 1.965594e-01 2.243804e-05
<GCONST> 5.635131e+01
<MIXTURE> 6 8.196266e-02
<MEAN> 39
 -1.404112e+01 -9.771866e+00 -8.181297e+00 -9.341814e+00 -6.040926e+00 -3.688377e+00 2.131572e-01 9.238480e-01 -3.688800e+00 -2.879100e+00 -9.818138e-01 1.268481e+00 8.807153e-02 -2.886596e-02 9.371888e-02 -4.660945e-01 2.578692e-01 1.215570e-01 -1.818076e-01 -3.034989e-01 1.241994e-01 5.289293e-02 -2.622048e-01 9.011048e-02 2.021830e-01 -2.407885e-02 2.798911e-02 3.448899e-01 2.011233e-01 3.748170e-01 2.647960e-01 1.174928e-01 -1.746116e-02 -5.722781e-02 3.471667e-02 -5.094222e-02 -2.460948e-01 -2.113918e-01 8.904936e-04
<VARIANCE> 39
 9.068933e+00 1.444971e+01 3.412612e+01 2.488358e+01 3.151230e+01 3.664701e+01 3.591192e+01 3.348571e+01 3.223653e+01 2.923168e+01 2.163510e+01 1.887416e+01 1.532261e-02 5.404733e-01 8.271618e-01 1.020660e+00 1.419334e+00 1.651256e+00 1.766974e+00 1.874598e+00 1.834216e+00 1.920110e+00 2.101662e+00 1.593750e+00 1.413636e+00 4.370184e-04 1.259558e-01 1.220865e-01 1.744614e-01 1.811261e-01 2.438876e-01 3.256411e-01 3.355971e-01 3.429312e-01 3.563342e-01 3.362761e-01 2.696618e-01 2.455921e-01 6.367193e-05
<GCONST> 7.564348e+01
<MIXTURE> 7 8.281171e-02
<MEAN> 39
 -1.191570e+01 -4.810029e+00 -4.941884e+00 -2.662354e+00 -1.587819e+00 1.626897e-01 3.417009e+00 5.137764e-01 -3.273558e+00 -2.016933e+00 -3.919600e+00 -6.583742e-01 8.824880e-02 -1.034455e+00 -8.036292e-01 -1.042481e+00 -6.460377e-01 3.236123e-02 -4.867212e-02 2.890140e-02 4.428695e-01 4.736946e-01 1.702217e-01 3.483549e-01 3.819129e-01 -3.888079e-02 1.274471e-01 8.632437e-02 -6.270347e-02 -3.056440e-01 -4.079096e-01 -4.439248e-01 -5.190104e-01 -2.674890e-01 -1.838384e-01 -3.898356e-02 4.385179e-02 -7.003708e-02 7.525004e-03
<VARIANCE> 39
 1.184401e+01 1.877944e+01 3.361129e+01 3.684414e+01 3.951866e+01 3.489600e+01 2.877135e+01 4.264934e+01 3.536631e+01 3.119933e+01 2.926806e+01 2.491713e+01 1.899846e-02 7.291827e-01 1.026560e+00 1.498459e+00 2.065125e+00 2.378897e+00 2.296432e+00 2.662005e+00 2.624055e+00 2.398135e+00 2.347354e+00 2.345078e+00 1.780995e+00 6.380139e-04 9.577962e-02 1.456056e-01 2.181108e-01 3.288743e-01 3.032339e-01 3.281405e-01 3.590366e-01 3.853215e-01 3.794800e-01 3.677047e-01 3.537971e-01 3.166398e-01 6.705509e-05
<GCONST> 8.350043e+01
<MIXTURE> 8 3.534085e-02
<MEAN> 39
 -1.728200e+01 -1.452383e+00 -4.284845e+00 -6.514887e-01 -2.206750e+00 -1.614669e+00 -1.774655e+00 -1.404947e+00 -2.172632e+00 -5.639683e-01 -1.501047e+00 -6.674234e-01 -1.134592e-01 -1.487330e+00 -6.241893e-01 -7.135893e-01 3.203637e-01 1.083239e+00 1.424497e+00 1.194196e+00 1.003703e+00 8.308201e-01 5.571192e-01 5.394362e-01 3.117314e-01 -4.933512e-02 5.794021e-01 -3.310252e-01 -4.840275e-02 -6.167882e-01 -5.707348e-01 -5.402080e-01 -2.931691e-01 -1.065964e-01 -1.649888e-01 -6.902967e-02 -1.443127e-01 -9.665065e-02 3.215734e-02
<VARIANCE> 39
 7.922574e+00 1.082201e+01 1.116099e+01 1.186581e+01 1.759711e+01 1.816477e+01 2.052673e+01 2.214504e+01 2.406460e+01 2.001593e+01 1.833417e+01 1.534886e+01 3.182690e-03 2.119999e+00 2.233614e+00 2.668125e+00 3.947004e+00 4.068464e+00 4.471591e+00 3.736071e+00 4.047191e+00 4.027013e+00 3.408700e+00 3.153601e+00 2.631006e+00 2.635382e-03 3.204607e-01 3.743235e-01 4.152910e-01 3.944409e-01 5.326496e-01 5.951161e-01 5.581564e-01 6.412131e-01 6.176975e-01 5.594043e-01 4.742221e-01 4.030222e-01 2.538039e-04
<GCONST> 9.018867e+01
<MIXTURE> 9 4.816302e-02
<MEAN> 39
 -1.954892e+01 -4.838101e-01 -5.133435e+00 -4.005873e+00 -8.407557e-01 -4.916523e+00 4.520221e-01 -3.035028e-01 -3.084210e+00 1.658238e+00 -1.902271e+00 1.990465e-01 2.921261e-02 5.128940e-04 7.295090e-02 7.688276e-02 4.284561e-02 7.372036e-02 8.970587e-02 6.589284e-02 7.027016e-02 5.537358e-02 3.765218e-02 5.628076e-02 4.314629e-02 -2.591617e-03 2.645989e-02 1.651550e-02 4.039755e-02 6.749635e-02 6.519130e-02 7.845874e-02 6.310525e-02 5.590628e-02 8.519348e-02 5.577654e-02 2.549212e-02 4.820753e-03 4.888783e-04
<VARIANCE> 39
 1.297672e+01 1.286536e+01 9.036383e+00 2.768740e+01 1.744925e+01 1.237617e+01 1.317785e+01 1.702801e+01 1.439666e+01 1.435312e+01 1.302369e+01 1.146765e+01 9.028964e-03 9.314926e-02 2.161130e-01 3.415727e-01 5.307711e-01 6.436961e-01 8.309783e-01 9.342672e-01 1.116591e+00 1.131299e+00 1.156264e+00 1.005751e+00 9.346936e-01 4.974957e-05 1.841342e-02 4.093545e-02 6.489679e-02 1.001813e-01 1.276001e-01 1.537676e-01 1.765228e-01 2.112773e-01 2.199405e-01 2.358804e-01 2.026256e-01 1.766011e-01 6.445327e-06
<GCONST> 4.514984e+01
<MIXTURE> 10 7.882266e-02
<MEAN> 39
 -1.383877e+01 -1.066487e+01 -9.902065e+00 -7.104952e+00 -2.000831e+00 -4.928348e+00 -2.107402e+00 3.852524e+00 4.966215e-01 -3.475775e+00 -3.074294e+00 3.538087e-01 1.054451e-01 8.400085e-02 1.662581e-01 -1.305918e-01 1.389382e-01 -1.909640e-02 -4.504967e-02 -2.091513e-01 -1.589146e-01 7.916593e-03 4.605573e-02 -1.688716e-02 -5.216214e-02 -1.282727e-02 2.827542e-02 1.106484e-01 3.777149e-02 4.215896e-02 -5.225903e-02 -1.500133e-02 -9.493293e-02 -2.268697e-01 -2.300525e-01 -9.017716e-02 -5.749459e-02 -3.356840e-02 -6.922664e-04
<VARIANCE> 39
 1.199008e+01 1.445418e+01 2.374826e+01 1.856920e+01 2.989185e+01 2.740749e+01 3.505145e+01 3.095171e+01 2.706397e+01 3.008685e+01 2.503176e+01 2.010375e+01 1.724789e-02 1.847555e-01 2.940351e-01 5.011743e-01 6.053358e-01 9.087361e-01 9.850912e-01 1.160670e+00 1.310861e+00 1.353956e+00 1.273024e+00 1.141477e+00 1.085945e+00 1.429362e-04 2.580718e-02 5.190171e-02 8.348218e-02 1.075959e-01 1.663772e-01 1.868599e-01 2.243841e-01 2.377100e-01 2.353653e-01 2.556705e-01 2.229855e-01 2.204875e-01 1.495291e-05
<GCONST> 5.892805e+01
<MIXTURE> 11 6.651558e-02
<MEAN> 39
 -1.534910e+01 -8.343672e+00 -7.569965e+00 -9.570659e+00 -2.009583e+00 -6.663393e+00 -3.557844e+00 7.510045e-01 -7.149466e-01 -1.980950e+00 -2.751645e+00 -9.501756e-01 1.657762e-01 1.541124e+00 -3.271485e-01 -3.835066e-01 4.368607e-01 8.941683e-02 5.253845e-01 -3.457835e-01 9.495282e-02 2.777161e-02 -2.340994e-01 -2.617788e-01 -1.232244e-01 -5.043827e-02 -2.756272e-01 2.442241e-01 -1.230466e-01 1.065560e-01 -5.353612e-02 2.023184e-01 8.349159e-02 -1.842480e-02 -4.545708e-02 3.744442e-02 3.854764e-02 6.380229e-02 2.525406e-03
<VARIANCE> 39
 1.397652e+01 8.913054e+00 1.678200e+01 1.815237e+01 2.100118e+01 1.819938e+01 2.779502e+01 1.833629e+01 1.812729e+01 1.725111e+01 1.559432e+01 1.497069e+01 1.370782e-02 7.702610e-01 8.664185e-01 1.124240e+00 1.209101e+00 1.598693e+00 1.720889e+00 1.671115e+00 1.757783e+00 1.779042e+00 1.691829e+00 1.462976e+00 1.410777e+00 7.397242e-04 1.518475e-01 1.429870e-01 1.344139e-01 1.934762e-01 2.399113e-01 2.575584e-01 3.221181e-01 3.085231e-01 2.869551e-01 2.660113e-01 2.361262e-01 2.464822e-01 9.552500e-05
<GCONST> 7.067412e+01
<MIXTURE> 12 5.287471e-02
<MEAN> 39
 -1.427471e+01 -5.428786e+00 -9.540514e+00 -6.966228e+00 -3.007731e+00 -2.122155e+00 -2.982363e+00 -1.214525e+00 -1.690480e+00 -5.379892e-02 -1.232006e+00 -6.299620e-01 -6.605350e-02 1.547241e-01 6.379914e-01 -2.133354e-01 1.090790e+00 -3.816907e-01 6.812837e-01 5.597048e-01 -1.233586e-01 -2.764232e-01 -1.509110e-02 -8.715931e-03 5.819398e-02 -4.752077e-02 -4.740399e-01 1.168477e-01 3.155508e-01 4.956391e-03 1.766963e-01 -1.299712e-01 1.124449e-01 1.485766e-01 5.336145e-02 -8.327825e-02 -1.006240e-01 -2.654568e-02 1.935395e-02
<VARIANCE> 39
 8.332143e+00 9.760201e+00 1.338638e+01 1.711499e+01 2.001164e+01 2.203388e+01 2.481310e+01 1.919881e+01 2.154663e+01 1.882795e+01 1.659784e+01 1.628516e+01 5.984804e-03 1.919948e+00 2.078526e+00 2.501203e+00 2.895814e+00 2.688232e+00 3.585095e+00 3.375733e+00 2.508055e+00 2.529428e+00 2.375276e+00 2.083232e+00 1.825315e+00 1.753799e-03 3.158304e-01 2.390876e-01 2.726091e-01 3.030739e-01 3.739451e-01 4.064849e-01 4.415980e-01 3.732223e-01 3.925846e-01 3.591579e-01 3.052247e-01 3.036583e-01 1.305612e-04
<GCONST> 8.275513e+01
<MIXTURE> 13 7.735907e-02
<MEAN> 39
 -1.278362e+01 -7.394003e+00 -1.265589e+01 -6.205009e+00 -1.356678e-01 -1.377707e+00 -4.187775e+00 -8.750870e-01 -1.683267e-01 -6.145571e-01 -2.818627e+00 -2.041802e+00 -4.292383e-02 -3.463956e-01 8.361763e-01 1.125408e-01 3.622612e-01 -2.112795e-01 5.764712e-01 5.923643e-01 -3.286572e-01 -3.441358e-01 2.734796e-01 2.574419e-01 8.179434e-02 -2.752049e-02 -1.838042e-01 1.093013e-01 3.526771e-01 -7.423582e-03 -1.168835e-01 -1.387228e-01 1.308456e-01 9.552401e-02 -1.028285e-01 -1.596377e-01 4.300992e-03 1.008921e-01 6.216904e-03
<VARIANCE> 39
 5.497760e+00 8.647943e+00 1.009496e+01 1.493509e+01 1.474693e+01 2.246076e+01 2.345437e+01 2.121271e+01 2.087678e+01 1.891909e+01 1.954911e+01 1.468182e+01 6.779636e-03 4.105899e-01 6.949258e-01 9.486271e-01 1.115001e+00 1.217686e+00 1.732164e+00 1.835594e+00 1.798533e+00 1.752754e+00 1.961647e+00 1.617097e+00 1.364580e+00 2.731432e-04 8.668899e-02 9.958858e-02 1.477454e-01 1.905011e-01 2.222695e-01 3.025094e-01 3.313493e-01 3.194515e-01 3.286859e-01 3.100292e-01 2.975354e-01 2.664150e-01 4.658984e-05
<GCONST> 6.571466e+01
<MIXTURE> 14 6.923898e-02
<MEAN> 39
 -1.304381e+01 -9.248904e+00 -1.157863e+01 -5.796764e+00 -2.692875e+00 -4.365866e+00 -5.079387e+00 1.039392e+00 5.981904e-01 -3.103317e+00 -4.215266e+00 -8.318217e-01 -3.125905e-02 -4.235896e-02 3.288140e-01 -8.291118e-02 7.782655e-02 -9.127034e-03 2.568084e-01 1.685824e-01 -1.374667e-01 -1.514327e-01 1.412713e-02 -3.237764e-02 -9.872084e-02 -9.925032e-03 -6.850334e-02 6.734742e-02 5.540587e-02 -3.214249e-02 -1.418976e-03 5.431755e-02 1.134720e-01 4.588084e-02 -1.505745e-02 5.854024e-02 1.366525e-01 1.019169e-01 6.639215e-04
<VARIANCE> 39
 4.633490e+00 1.145923e+01 1.007486e+01 1.103503e+01 1.847771e+01 1.663649e+01 1.870109e+01 1.756904e+01 1.762699e+01 1.819920e+01 1.775800e+01 1.513319e+01 8.235538e-03 1.477060e-01 3.522560e-01 4.495126e-01 5.716316e-01 7.353762e-01 8.920138e-01 1.051011e+00 1.039097e+00 1.042377e+00 1.135510e+00 1.137474e+00 9.911534e-01 1.395078e-04 2.020307e-02 4.847081e-02 6.967176e-02 8.771542e-02 1.171509e-01 1.354176e-01 1.592989e-01 1.555399e-01 1.593568e-01 1.500876e-01 1.473668e-01 1.528239e-01 1.338052e-05
<GCONST> 4.659535e+01
<MIXTURE> 15 4.908790e-02
<MEAN> 39
 -1.552188e+01 5.424929e-01 -3.502016e+00 -4.875088e-01 -3.319070e-01 -1.923930e+00 1.474070e+00 1.123817e-01 -1.324599e+00 1.457685e+00 -1.276984e+00 2.080459e-01 4.605678e-02 -6.843396e-02 2.595701e-02 -9.470761e-03 -8.801719e-02 -1.647195e-01 -1.620504e-01 -1.423500e-01 -7.515030e-02 -8.071017e-02 -2.993848e-02 -2.048710e-02 -6.014127e-02 -5.918324e-03 9.729412e-04 -1.173096e-01 -1.175399e-01 -1.553620e-01 -1.341838e-01 -1.444517e-01 -1.436031e-01 -1.166709e-01 -1.429329e-01 -1.762595e-01 -1.162591e-01 -3.442023e-02 -1.975612e-04
<VARIANCE> 39
 1.664037e+01 1.981204e+01 1.429451e+01 1.643643e+01 1.628603e+01 1.747721e+01 1.740893e+01 1.873604e+01 1.528293e+01 1.419693e+01 1.295539e+01 1.279413e+01 1.709656e-02 1.859598e-01 3.829331e-01 5.066879e-01 6.283596e-01 7.223138e-01 9.396746e-01 1.149021e+00 1.185868e+00 1.229748e+00 1.245357e+00 1.157222e+00 1.052761e+00 1.583077e-04 3.326823e-02 6.583884e-02 8.679176e-02 1.107382e-01 1.402803e-01 1.768911e-01 2.180198e-01 2.263643e-01 2.216168e-01 2.278136e-01 2.219728e-01 2.225304e-01 2.118731e-05
<GCONST> 5.457298e+01
<MIXTURE> 16 6.265324e-02
<MEAN> 39
 -1.201540e+01 -9.240053e+00 -9.632415e+00 -5.549757e+00 -2.298330e+00 -4.155020e+00 -2.912171e+00 1.324205e+00 -2.569834e+00 -7.429910e+00 -7.853291e+00 -1.369996e+00 1.029222e-01 -8.826381e-02 2.548460e-01 -3.744439e-01 1.460689e-01 1.407036e-01 1.640787e-01 -1.954113e-01 -3.424114e-01 -1.888289e-01 -1.396763e-01 -1.914430e-01 -1.541480e-01 -2.620665e-02 -1.667442e-01 2.121459e-01 1.202236e-01 -3.871799e-02 -4.856758e-02 4.553549e-02 1.253711e-01 5.880820e-02 2.286927e-01 6.079004e-01 5.433817e-01 1.646221e-01 1.662457e-03
<VARIANCE> 39
 9.499724e+00 1.937205e+01 2.727853e+01 2.792513e+01 3.197958e+01 3.056217e+01 3.144400e+01 3.046386e+01 3.450787e+01 2.521193e+01 1.956333e+01 2.428785e+01 1.731081e-02 6.818267e-01 9.617499e-01 1.221025e+00 1.459894e+00 1.648413e+00 1.963425e+00 2.002663e+00 1.999999e+00 1.973705e+00 2.081458e+00 1.725431e+00 1.508124e+00 5.408219e-04 1.505046e-01 1.603712e-01 2.125144e-01 2.491642e-01 3.283068e-01 3.463130e-01 3.573908e-01 3.690844e-01 3.903433e-01 2.759777e-01 2.284686e-01 2.942509e-01 7.686117e-05
<GCONST> 7.845473e+01
<STATE> 3
<NUMMIXES> 16
<MIXTURE> 1 5.088488e-02
<MEAN> 39
 -1.737127e+01 -1.270201e+00 -5.381750e+00 -1.592341e+00 -2.145079e+00 -2.732118e-01 -7.519625e-01 3.796489e-01 -3.014769e-01 4.447443e-01 -6.240858e-01 -1.091953e-01 -1.412503e-01 -4.741274e-01 3.009516e-01 4.811937e-01 4.338123e-01 2.685613e-01 2.557122e-01 5.251493e-02 -6.523626e-02 4.749252e-02 2.198583e-01 1.418459e-01 -7.315325e-02 -7.181523e-03 -1.033298e-02 -3.576165e-01 -1.427696e-01 -2.575216e-01 -5.909161e-02 -1.433496e-01 -7.093477e-02 -7.019991e-02 -1.353365e-01 -1.097927e-01 -5.147135e-02 3.569524e-03 8.704784e-03
<VARIANCE> 39
 7.540250e+00 6.420273e+00 7.086982e+00 7.490675e+00 8.719765e+00 1.040399e+01 1.057574e+01 1.153358e+01 9.896803e+00 1.065342e+01 9.172133e+00 8.655415e+00 3.637954e-04 1.459107e+00 2.309573e+00 2.268203e+00 2.374546e+00 2.260542e+00 2.408375e+00 2.378829e+00 2.197371e+00 2.337670e+00 2.260881e+00 1.688218e+00 1.489344e+00 5.264608e-04 1.637156e-01 2.236821e-01 2.169818e-01 2.275715e-01 2.737775e-01 3.036454e-01 3.019560e-01 3.056114e-01 2.844556e-01 2.962006e-01 2.499664e-01 2.325104e-01 6.710728e-05
<GCONST> 6.512467e+01
<MIXTURE> 2 2.936767e-02
<MEAN> 39
 -1.841311e+01 -4.191689e+00 -6.574696e+00 -3.506747e+00 -1.998332e+00 -2.234960e+00 -1.668113e+00 -3.186540e-01 -1.039158e+00 4.300808e-01 -1.156052e+00 -3.948041e-01 1.003003e-03 -2.567323e-01 1.773251e-01 1.733490e-01 2.940409e-01 2.745820e-01 3.147617e-01 1.241590e-01 -2.332697e-02 -3.967796e-02 1.589390e-01 1.653367e-01 -6.382892e-02 -1.118943e-02 2.928571e-01 -3.676896e-03 2.607586e-03 -1.621072e-01 -1.915402e-01 -9.044157e-02 -8.630996e-02 -1.022140e-01 -1.633030e-01 -1.485929e-01 -1.126819e-01 -3.706461e-02 5.710598e-03
<VARIANCE> 39
 2.804150e+01 2.878908e+01 2.766383e+01 3.092320e+01 3.185955e+01 3.341324e+01 3.057936e+01 3.165729e+01 2.877851e+01 2.536629e+01 2.240973e+01 1.771474e+01 1.760317e-02 2.707952e+00 3.956054e+00 3.227004e+00 3.432968e+00 3.548703e+00 3.750598e+00 3.406152e+00 3.628484e+00 3.129279e+00 2.830895e+00 2.411828e+00 1.951473e+00 2.368740e-03 4.827268e-01 6.258401e-01 4.557363e-01 5.906314e-01 6.056081e-01 6.485592e-01 6.464729e-01 6.021370e-01 5.377607e-01 4.855632e-01 4.092565e-01 3.572906e-01 7.421673e-04
<GCONST> 1.002109e+02
<MIXTURE> 3 9.676392e-02
<MEAN> 39
 -1.937145e+01 -1.409607e+00 -4.483637e+00 3.209773e-01 -5.134900e-01 1.294674e+00 -1.872343e-01 7.371799e-01 -1.156400e-01 7.487941e-01 -7.714528e-02 6.059536e-02 -1.508340e-01 -1.005406e-01 -5.981081e-02 1.091039e-02 7.290715e-02 1.266498e-01 1.501270e-01 1.400659e-01 1.418739e-01 1.451311e-01 1.638758e-01 1.208484e-01 8.209931e-03 2.456405e-05 9.298634e-02 -7.081281e-02 -1.692113e-01 -2.786050e-01 -2.342096e-01 -2.026652e-01 -1.032848e-01 -5.878698e-02 -6.037306e-02 -5.012366e-02 -4.871812e-02 -5.534759e-03 9.177020e-05
<VARIANCE> 39
 1.294779e+00 2.844699e+00 2.954756e+00 4.222806e+00 4.857130e+00 6.910985e+00 7.944915e+00 8.371718e+00 8.408662e+00 8.252653e+00 8.203088e+00 7.117567e+00 1.097022e-04 1.887412e-01 2.633407e-01 4.426200e-01 6.486766e-01 7.819220e-01 9.649781e-01 1.071336e+00 1.032631e+00 1.119240e+00 1.122496e+00 1.058741e+00 9.199051e-01 4.404991e-06 4.004735e-02 5.773748e-02 9.081189e-02 1.101708e-01 1.415700e-01 1.834956e-01 2.194141e-01 2.198487e-01 2.197941e-01 2.167048e-01 2.186286e-01 1.872849e-01 6.561323e-07
<GCONST> 2.801078e+01
<MIXTURE> 4 5.499119e-02
<MEAN> 39
 -1.545835e+01 -4.028289e+00 -7.871085e+00 -4.264211e+00 -2.874004e+00 -2.494993e+00 -1.557686e+00 -2.057847e+00 -4.761063e+00 -3.215017e+00 -3.570673e+00 -1.080379e+00 -1.008383e-01 -2.400532e-01 3.694243e-01 1.987778e-01 2.162249e-01 2.599433e-02 1.409413e-01 1.106504e-02 -4.147568e-02 9.614365e-02 1.769395e-01 1.558375e-01 5.297567e-02 -9.750826e-03 5.932026e-03 -8.256216e-02 -2.002061e-02 -5.623398e-02 2.670143e-03 1.488140e-02 8.406217e-02 2.350663e-01 3.587034e-01 2.927942e-01 2.157019e-01 1.354381e-01 4.859733e-03
<VARIANCE> 39
 9.540442e+00 1.198944e+01 1.341134e+01 1.463479e+01 1.735411e+01 2.168523e+01 2.084376e+01 2.080695e+01 1.902876e+01 1.793148e+01 1.651572e+01 1.434978e+01 2.922574e-03 2.313151e-01 4.555005e-01 5.967633e-01 7.440676e-01 9.278085e-01 1.091357e+00 1.236591e+00 1.391420e+00 1.446900e+00 1.389842e+00 1.208622e+00 1.133064e+00 1.263458e-04 4.163739e-02 7.127650e-02 9.149456e-02 1.362170e-01 1.833277e-01 2.157196e-01 2.434236e-01 2.391364e-01 2.300974e-01 2.316955e-01 2.140427e-01 2.140447e-01 2.266210e-05
<GCONST> 5.570545e+01
<MIXTURE> 5 6.091689e-02
<MEAN> 39
 -1.939941e+01 -2.081458e+00 -5.162941e+00 -7.578769e-01 -9.277407e-01 1.114482e+00 8.440746e-02 1.233920e+00 7.450751e-01 1.907440e+00 2.899710e-01 -8.743943e-02 -1.506452e-01 -5.792846e-02 -1.544574e-02 5.720769e-02 5.421505e-02 1.110165e-01 1.219706e-01 9.526850e-02 2.685033e-02 -1.445997e-02 7.608534e-02 3.648364e-02 -6.355931e-02 -5.936369e-05 3.495030e-01 -1.528375e-01 -1.264635e-01 -3.856621e-01 -3.632515e-01 -4.090011e-01 -2.638918e-01 -2.685397e-01 -3.345068e-01 -3.369214e-01 -2.180066e-01 -2.393821e-02 1.034651e-02
<VARIANCE> 39
 2.695674e+00 5.037551e+00 5.416399e+00 6.852833e+00 8.609419e+00 8.471683e+00 1.021196e+01 1.113654e+01 1.026243e+01 1.065740e+01 9.805445e+00 9.227995e+00 1.097022e-04 4.233722e-01 4.756497e-01 6.590790e-01 8.572163e-01 9.941694e-01 1.088295e+00 1.192695e+00 1.268734e+00 1.217613e+00 1.327926e+00 1.196940e+00 1.056902e+00 4.404991e-06 1.687950e-01 2.504501e-01 3.231820e-01 3.010258e-01 3.527239e-01 3.256103e-01 3.627704e-01 3.780416e-01 3.465188e-01 3.587995e-01 3.225878e-01 2.889260e-01 1.039674e-04
<GCONST> 5.043401e+01
<MIXTURE> 6 3.186007e-02
<MEAN> 39
 -2.034066e+01 -6.139345e+00 -4.827884e+00 -4.710123e+00 -1.354564e+00 -2.181705e+00 -2.149444e+00 -1.846107e+00 -2.093655e+00 7.373400e-01 -1.137779e+00 -6.316997e-01 -7.920163e-02 -1.529322e-01 8.501355e-02 5.740298e-02 2.726727e-02 1.360846e-01 7.732471e-02 3.491627e-02 -2.117602e-02 -2.023638e-02 9.294454e-02 3.869092e-02 -3.427390e-02 -1.442968e-03 3.522072e-01 3.517412e-01 -2.489953e-01 1.896878e-01 -1.599268e-01 9.803198e-02 1.184718e-01 1.594219e-01 9.167425e-02 -1.034221e-01 -1.391302e-02 3.291472e-02 -3.685220e-03
<VARIANCE> 39
 1.959622e+01 3.209068e+01 3.823072e+01 4.206804e+01 4.466634e+01 4.768572e+01 4.250629e+01 4.500374e+01 3.995621e+01 3.465181e+01 2.920404e+01 2.319043e+01 5.462880e-03 6.493630e-01 1.127963e+00 1.185040e+00 1.442697e+00 1.617530e+00 1.737459e+00 1.865605e+00 1.838067e+00 1.729095e+00 1.569108e+00 1.469123e+00 1.299342e+00 2.153324e-04 3.738156e-01 6.626502e-01 7.257411e-01 7.950473e-01 8.447456e-01 9.108750e-01 8.403277e-01 8.698259e-01 7.529877e-01 6.702212e-01 5.645221e-01 4.593298e-01 1.539603e-04
<GCONST> 9.162420e+01
<MIXTURE> 7 5.031517e-02
<MEAN> 39
 -1.506523e+01 -5.036685e+00 -1.071907e+01 -5.858518e+00 -4.506609e+00 -1.733611e+00 -5.633510e-01 1.402025e+00 -1.246699e+00 -2.416341e+00 -1.901608e+00 7.726203e-01 -1.506830e-01 -6.820436e-01 1.050770e+00 8.710288e-01 5.922799e-01 3.511350e-01 5.393785e-01 2.662706e-01 -1.606035e-01 2.069526e-01 5.685210e-01 2.641873e-01 -1.416183e-01 -9.404278e-04 -1.413420e-01 -1.352603e-02 3.676915e-01 2.392164e-01 2.201432e-01 1.332679e-02 -1.066833e-01 -7.965939e-02 2.366563e-02 1.356218e-01 3.953974e-02 -9.655724e-02 3.162376e-03
<VARIANCE> 39
 4.027725e+00 8.205371e+00 9.010007e+00 9.350251e+00 1.614206e+01 1.762416e+01 1.775936e+01 1.791652e+01 1.901208e+01 1.866387e+01 1.676662e+01 1.540741e+01 1.097022e-04 4.130593e-01 9.693534e-01 1.256939e+00 1.141540e+00 1.360160e+00 1.497610e+00 1.634864e+00 1.644995e+00 1.746638e+00 1.875572e+00 1.457415e+00 1.314199e+00 4.833860e-06 8.416616e-02 1.461495e-01 1.477506e-01 1.949397e-01 2.354205e-01 2.794681e-01 2.852840e-01 2.815195e-01 3.249623e-01 3.426982e-01 3.092454e-01 2.787133e-01 1.514087e-05
<GCONST> 5.514089e+01
<MIXTURE> 8 4.303365e-02
<MEAN> 39
 -1.807643e+01 -1.782540e+00 -5.890526e+00 -2.467944e+00 -3.004745e+00 -6.890778e-01 -1.164110e+00 3.142481e-01 -8.691534e-02 5.455228e-01 -3.128232e-01 3.334231e-01 -1.508678e-01 -7.818865e-01 5.592427e-01 1.185128e+00 1.152749e+00 8.477187e-01 5.346559e-01 1.116788e-03 -2.721965e-01 6.287172e-02 5.039845e-01 3.057025e-01 -1.900283e-01 -2.566692e-04 2.041891e-01 -3.505214e-01 -2.804815e-01 -1.878233e-01 -3.917187e-02 -9.085631e-02 2.500432e-02 8.025021e-02 -1.038238e-01 -2.102737e-01 -1.320105e-01 -6.653910e-03 2.622249e-03
<VARIANCE> 39
 2.472212e+00 2.852703e+00 4.570634e+00 5.804022e+00 6.836838e+00 8.330615e+00 9.699046e+00 1.012294e+01 9.474391e+00 9.791986e+00 9.536680e+00 9.316486e+00 1.097022e-04 3.821193e-01 6.881860e-01 8.025201e-01 8.385702e-01 1.328555e+00 1.459710e+00 1.626442e+00 1.710953e+00 1.672016e+00 1.898340e+00 1.576514e+00 1.297436e+00 4.404991e-06 8.141117e-02 1.233196e-01 1.736498e-01 1.742625e-01 2.074872e-01 2.422614e-01 2.706055e-01 2.762116e-01 2.577211e-01 2.667258e-01 2.468826e-01 2.470521e-01 1.191201e-05
<GCONST> 4.443347e+01
<MIXTURE> 9 1.102358e-01
<MEAN> 39
 -1.723822e+01 -2.295700e+00 -6.833331e+00 -3.612548e+00 -3.676787e+00 -2.053090e+00 -1.445920e+00 -5.189241e-01 -1.923992e+00 -1.170681e+00 -2.148456e+00 -6.444381e-01 -1.509356e-01 -2.922126e-01 2.125655e-01 3.515601e-01 3.175603e-01 2.842859e-01 2.642168e-01 1.037503e-01 3.438258e-02 1.825063e-01 2.929807e-01 1.406714e-01 9.382475e-03 -3.769888e-05 -3.385891e-02 -9.253706e-02 -1.701962e-03 6.336369e-02 1.312455e-01 8.957290e-02 4.512773e-02 5.632242e-02 8.920721e-02 1.233437e-01 1.395746e-01 8.280935e-02 1.710422e-04
<VARIANCE> 39
 5.497851e+00 7.714396e+00 8.469232e+00 7.604485e+00 1.005180e+01 1.162905e+01 1.339252e+01 1.355384e+01 1.348360e+01 1.371117e+01 1.166114e+01 1.008956e+01 1.097022e-04 2.711477e-01 4.402835e-01 5.511077e-01 6.891133e-01 9.009009e-01 1.064689e+00 1.197954e+00 1.331202e+00 1.370933e+00 1.318681e+00 1.140486e+00 1.048592e+00 4.404991e-06 4.555378e-02 7.091471e-02 1.013617e-01 1.315832e-01 1.706912e-01 2.032753e-01 2.366311e-01 2.549583e-01 2.554909e-01 2.512988e-01 2.179047e-01 2.014209e-01 6.561323e-07
<GCONST> 3.986188e+01
<MIXTURE> 10 4.916012e-02
<MEAN> 39
 -2.080406e+01 -3.287174e+00 -7.118137e+00 -6.362216e+00 -2.506454e+00 -4.678751e+00 1.167343e-01 -2.006824e+00 -3.042180e+00 1.392712e+00 -8.055792e-01 5.450739e-02 -5.408037e-02 -2.550243e-02 -3.069423e-02 -5.847412e-02 -1.315085e-02 -5.073025e-03 1.133104e-01 1.922897e-01 3.141570e-01 3.563921e-01 3.126677e-01 2.612363e-01 1.093184e-01 -2.697116e-03 3.111590e-02 -1.780906e-03 2.725172e-03 2.167535e-02 -1.759633e-02 -7.631786e-03 -3.495584e-02 6.177372e-03 2.209313e-02 3.084834e-03 9.026803e-03 -1.626763e-02 -4.813568e-05
<VARIANCE> 39
 1.421474e+01 1.493744e+01 1.403072e+01 1.757642e+01 1.514518e+01 1.904897e+01 1.557099e+01 1.800134e+01 1.781711e+01 1.454729e+01 1.683933e+01 1.296437e+01 4.901153e-03 9.701779e-02 1.843729e-01 3.163196e-01 4.662270e-01 6.048294e-01 7.177693e-01 8.850221e-01 9.073991e-01 9.429326e-01 9.817417e-01 1.113932e+00 1.057095e+00 7.803921e-05 1.944906e-02 4.030296e-02 6.939283e-02 9.886976e-02 1.260066e-01 1.463700e-01 1.821080e-01 2.107000e-01 2.122672e-01 2.068355e-01 2.367241e-01 2.178763e-01 8.567223e-06
<GCONST> 4.596067e+01
<MIXTURE> 11 6.171019e-02
<MEAN> 39
 -1.879188e+01 -2.117706e+00 -5.203971e+00 -1.561368e+00 -2.016245e+00 -5.662871e-01 -1.850513e+00 -1.046059e+00 -1.869375e+00 -3.708076e-01 -9.816294e-01 -4.347807e-01 -1.509640e-01 2.286374e-01 -2.218407e-01 -3.539275e-01 -5.025953e-01 -3.320115e-01 -2.686734e-01 -4.127765e-02 -7.262486e-02 -2.381196e-01 -1.638140e-01 -1.494193e-01 -7.883484e-03 3.087855e-05 1.122652e-01 -1.490692e-01 -1.273438e-01 -1.897209e-01 -8.006553e-02 -3.615438e-02 9.583333e-02 1.276985e-01 1.211708e-01 8.659127e-02 2.150741e-02 3.269259e-02 4.370036e-03
<VARIANCE> 39
 2.314551e+00 3.549535e+00 4.260267e+00 6.149310e+00 7.191507e+00 8.424584e+00 9.029718e+00 9.662797e+00 1.000673e+01 9.389127e+00 8.655758e+00 8.161655e+00 1.097022e-04 8.335906e-01 1.127556e+00 1.296362e+00 1.558204e+00 1.679522e+00 1.891195e+00 1.951110e+00 2.024102e+00 1.991479e+00 1.885175e+00 1.592574e+00 1.365086e+00 4.404991e-06 1.109188e-01 1.626953e-01 1.953242e-01 2.164092e-01 2.356188e-01 2.621444e-01 2.870462e-01 2.769958e-01 2.913308e-01 2.856944e-01 2.497922e-01 2.176391e-01 3.170720e-05
<GCONST> 4.998966e+01
<MIXTURE> 12 4.185476e-02
<MEAN> 39
 -1.727152e+01 -4.766514e+00 -8.050667e+00 -5.680260e+00 -3.037342e+00 -1.953234e+00 -5.773709e-01 -2.290654e+00 -3.349937e+00 5.822279e-01 -8.248407e-01 1.856834e-01 -1.124141e-01 -2.702009e-01 -4.099042e-02 -1.172653e-01 -3.120775e-01 -2.636835e-01 -2.277927e-01 -8.268838e-02 -3.024151e-02 -9.126373e-02 5.852883e-02 1.547211e-01 1.153703e-01 -3.036535e-03 8.573270e-02 1.434453e-01 2.019347e-01 2.355780e-01 6.593799e-02 1.859212e-02 -3.938414e-02 9.354971e-02 8.878179e-02 -8.974031e-02 -1.471923e-01 -1.322724e-01 7.543809e-03
<VARIANCE> 39
 7.793956e+00 1.039404e+01 1.489948e+01 1.760236e+01 1.715490e+01 2.423814e+01 2.128008e+01 2.645279e+01 2.365647e+01 2.196585e+01 2.227541e+01 1.837803e+01 1.922697e-03 1.267811e+00 1.428575e+00 1.790557e+00 2.275732e+00 2.173679e+00 2.597332e+00 2.406828e+00 2.899962e+00 2.537264e+00 2.358509e+00 2.377199e+00 1.730329e+00 6.040501e-04 1.667394e-01 1.777726e-01 2.138375e-01 2.736562e-01 2.725852e-01 3.642319e-01 3.677729e-01 4.451063e-01 4.082176e-01 3.892921e-01 3.685744e-01 3.121013e-01 1.017049e-04
<GCONST> 7.781057e+01
<MIXTURE> 13 1.430515e-01
<MEAN> 39
 -1.935497e+01 -2.278439e+00 -5.489129e+00 -1.642103e+00 -2.349464e+00 -4.113356e-01 -1.354450e+00 1.003481e-01 -4.198548e-01 5.105334e-01 -1.420157e-01 1.612919e-02 -1.510575e-01 -1.704960e-03 -8.857251e-03 -1.266907e-02 -3.834783e-02 -6.346981e-02 -9.377994e-02 -8.827176e-02 -8.263234e-02 -1.214854e-01 -9.487889e-02 -7.426604e-02 -3.302073e-02 -9.077067e-06 2.492153e-02 9.231896e-03 1.600554e-02 2.231107e-02 4.489467e-02 3.139647e-02 2.862596e-02 -5.613211e-03 -2.539920e-02 -1.781286e-02 -3.376252e-02 -2.069820e-02 7.803612e-05
<VARIANCE> 39
 7.012963e-01 1.907959e+00 2.169505e+00 3.647282e+00 4.166673e+00 5.546933e+00 6.461273e+00 7.242712e+00 7.614183e+00 8.257249e+00 7.409075e+00 6.880953e+00 1.097022e-04 9.599531e-02 1.816487e-01 3.154948e-01 4.917905e-01 6.245323e-01 7.654871e-01 8.771183e-01 9.515395e-01 1.016386e+00 1.058605e+00 9.409779e-01 8.502862e-01 4.404991e-06 2.155144e-02 3.797588e-02 5.980587e-02 8.715416e-02 1.146338e-01 1.451583e-01 1.741043e-01 1.891041e-01 2.031095e-01 2.162086e-01 1.918804e-01 1.740770e-01 6.561323e-07
<GCONST> 2.002818e+01
<MIXTURE> 14 9.397363e-02
<MEAN> 39
 -1.714514e+01 -4.812332e+00 -8.460497e+00 -4.621318e+00 -2.796661e+00 -2.770826e+00 -1.622507e+00 -9.950349e-01 -1.963292e+00 -2.369987e-01 -5.817197e-01 5.917986e-01 -1.506572e-01 7.494068e-03 1.206338e-01 -8.718599e-02 -1.009924e-01 -1.403837e-01 -8.957380e-02 -8.701245e-02 -1.179501e-01 -1.096218e-01 -9.561868e-02 -4.476963e-02 -3.713246e-03 -6.626613e-05 -2.618651e-03 8.712879e-02 9.789597e-02 3.913707e-02 -5.454806e-03 4.252492e-02 6.112430e-02 5.450160e-02 1.721041e-02 -6.657633e-02 -9.895795e-02 -7.840999e-02 1.911445e-04
<VARIANCE> 39
 8.936751e+00 1.547778e+01 1.394021e+01 1.491040e+01 1.881808e+01 2.231723e+01 2.022238e+01 2.316194e+01 2.147959e+01 2.247630e+01 1.791600e+01 1.544141e+01 1.097022e-04 1.640538e-01 4.133321e-01 4.573869e-01 6.539317e-01 7.747830e-01 1.016348e+00 1.111802e+00 1.220752e+00 1.161360e+00 1.170953e+00 1.180780e+00 1.117609e+00 4.404991e-06 3.589100e-02 6.731094e-02 9.421302e-02 1.534994e-01 1.810817e-01 2.330854e-01 2.432945e-01 2.628771e-01 2.673915e-01 2.701871e-01 2.433781e-01 2.362226e-01 6.561323e-07
<GCONST> 4.534074e+01
<MIXTURE> 15 4.175555e-02
<MEAN> 39
 -1.678442e+01 -5.758081e+00 -9.262228e+00 -5.158076e+00 -2.966563e+00 -6.465888e-01 5.416157e-01 1.322754e+00 -3.627079e-01 -2.591241e-01 -1.439799e+00 2.185085e-02 -1.499101e-01 1.430495e-01 -2.222108e-01 -4.724547e-01 -3.850066e-01 -3.075285e-01 -2.595343e-01 -3.008448e-02 1.198209e-01 -8.743487e-02 -1.562415e-01 -7.819835e-02 9.037580e-03 -6.515540e-05 -6.292880e-02 2.628091e-01 3.410143e-01 2.043649e-01 3.749395e-02 -8.151513e-02 -2.314545e-01 -2.673061e-01 -2.040944e-01 -5.328174e-02 -8.131955e-03 -6.871209e-02 2.463543e-03
<VARIANCE> 39
 7.268944e+00 1.219054e+01 1.645541e+01 1.815719e+01 2.450551e+01 2.391161e+01 2.392948e+01 2.530561e+01 2.263248e+01 2.287526e+01 1.931047e+01 1.696373e+01 1.097022e-04 6.395376e-01 1.259863e+00 1.293867e+00 1.600998e+00 1.638110e+00 1.944643e+00 1.963225e+00 1.981108e+00 1.910745e+00 1.977040e+00 1.754902e+00 1.549794e+00 1.044938e-05 1.370253e-01 1.878196e-01 2.440422e-01 3.262281e-01 3.567264e-01 4.163865e-01 3.873106e-01 4.136972e-01 3.796807e-01 4.336500e-01 3.744618e-01 3.231003e-01 1.197663e-05
<GCONST> 6.627678e+01
<MIXTURE> 16 4.003714e-02
<MEAN> 39
 -1.839575e+01 -4.022614e+00 -7.801262e+00 -5.729713e+00 -2.981966e+00 -4.083935e+00 -1.046945e+00 -1.395302e+00 -1.285696e+00 2.150320e+00 2.414003e-01 4.986145e-01 -7.252762e-02 -1.236355e-02 1.976888e-01 1.677342e-01 1.042425e-01 -1.042034e-01 -1.832995e-01 -3.722460e-01 -4.982758e-01 -5.746086e-01 -5.158693e-01 -3.277526e-01 -1.816177e-01 -5.063778e-03 2.998259e-02 -5.628407e-03 3.062612e-02 4.399908e-02 8.321851e-02 1.004161e-01 3.944693e-02 -6.894851e-02 -2.246775e-01 -2.974346e-01 -2.428239e-01 -1.082038e-01 1.252167e-03
<VARIANCE> 39
 1.736089e+01 1.567090e+01 1.661665e+01 1.859202e+01 1.594892e+01 2.063131e+01 1.974524e+01 2.159264e+01 1.820042e+01 1.622968e+01 1.516563e+01 1.272485e+01 3.404380e-03 1.678900e-01 2.822322e-01 3.912602e-01 5.602272e-01 7.519203e-01 8.643601e-01 9.435162e-01 1.014083e+00 1.071194e+00 1.083073e+00 1.047998e+00 9.794568e-01 1.338285e-04 3.053501e-02 5.228356e-02 7.901756e-02 1.145498e-01 1.479595e-01 1.757068e-01 2.127743e-01 2.201144e-01 2.200164e-01 2.036022e-01 1.999325e-01 2.075419e-01 1.305389e-05
<GCONST> 5.095948e+01
<STATE> 4
<NUMMIXES> 16
<MIXTURE> 1 6.761254e-02
<MEAN> 39
 -1.831380e+01 -2.607133e+00 -6.041846e+00 -2.355927e+00 -2.551866e+00 -9.807342e-01 -1.203895e+00 -1.237459e-01 -1.086739e+00 1.490505e-01 -4.433859e-01 9.463077e-02 -8.329154e-02 -3.339763e-01 5.774464e-02 1.536909e-01 -1.209284e-02 6.557640e-02 1.196391e-02 3.775624e-02 -4.926548e-02 1.271273e-02 1.350476e-01 2.376738e-02 -7.691064e-02 1.602446e-02 -1.152980e-02 -2.318427e-01 -1.050394e-02 -1.342727e-01 -3.956249e-02 -8.641826e-02 5.548307e-03 4.306443e-02 2.100280e-02 -6.078952e-02 -5.680718e-02 -2.820143e-02 1.453687e-02
<VARIANCE> 39
 7.103558e+00 9.856216e+00 1.007365e+01 1.109864e+01 1.073548e+01 1.175072e+01 1.184014e+01 1.400961e+01 1.254757e+01 1.244773e+01 1.025880e+01 9.296621e+00 3.648495e-03 2.050899e+00 3.350672e+00 2.538253e+00 2.663767e+00 2.226315e+00 2.546822e+00 2.352500e+00 2.134297e+00 2.217613e+00 2.008024e+00 1.679550e+00 1.502394e+00 2.643816e-03 2.130303e-01 3.061436e-01 2.490790e-01 2.605415e-01 2.652169e-01 2.599364e-01 2.757330e-01 2.907062e-01 2.855672e-01 2.853080e-01 2.407887e-01 2.280110e-01 2.188544e-04
<GCONST> 7.375779e+01
<MIXTURE> 2 4.239602e-02
<MEAN> 39
 -1.496293e+01 -8.366135e+00 -1.014999e+01 -9.377254e+00 -5.337494e+00 -2.602391e+00 -2.589640e+00 -1.376459e+00 -2.737579e+00 -6.149674e-01 -1.437935e+00 -5.582927e-02 8.299924e-02 -4.285255e-03 5.415357e-01 2.807261e-01 2.089151e-01 9.654823e-02 4.908292e-02 3.072512e-01 1.142167e-01 8.457071e-02 3.812180e-02 1.838421e-02 -1.215104e-01 3.436598e-03 -2.786539e-01 4.412954e-01 4.948058e-01 5.488584e-01 2.698067e-01 9.614933e-02 1.177953e-01 1.370275e-01 1.716808e-01 -3.838327e-02 -4.755929e-02 -1.035594e-01 -2.368992e-03
<VARIANCE> 39
 1.906328e+01 2.811019e+01 4.915149e+01 4.289177e+01 7.319430e+01 7.066506e+01 5.437574e+01 6.046505e+01 4.897255e+01 4.609849e+01 4.148891e+01 3.719276e+01 2.539726e-02 2.074685e+00 3.618915e+00 3.368798e+00 4.098752e+00 4.339915e+00 3.936792e+00 3.904476e+00 3.995930e+00 3.972189e+00 2.938247e+00 2.874341e+00 2.332005e+00 3.409903e-03 4.787035e-01 5.501778e-01 7.587675e-01 7.837695e-01 1.180794e+00 1.108496e+00 1.024704e+00 1.107523e+00 9.486079e-01 8.006484e-01 7.942777e-01 7.024021e-01 6.377224e-04
<GCONST> 1.128852e+02
<MIXTURE> 3 4.365411e-02
<MEAN> 39
 -1.607893e+01 -4.043563e+00 -6.506212e+00 -4.402780e+00 -4.535803e+00 -8.199407e-01 9.437330e-01 8.031336e-01 -2.423539e+00 -6.103110e-01 -2.869397e+00 -1.934290e+00 -4.398329e-02 2.639727e+00 1.207182e+00 1.414797e+00 -3.921121e-02 -8.711132e-01 -6.331127e-01 -9.232674e-01 -9.305571e-01 -1.066020e+00 -5.581483e-01 -5.466533e-01 -7.853374e-01 1.179720e-01 9.380043e-01 -1.002444e-01 9.099758e-02 -4.907867e-01 -4.421191e-01 -3.161035e-01 -6.851213e-01 -2.658611e-01 -1.882042e-01 -1.200657e-01 1.486209e-01 3.599482e-02 4.205731e-02
<VARIANCE> 39
 9.849195e+00 2.321680e+01 3.900941e+01 3.009750e+01 3.796502e+01 3.311237e+01 2.960776e+01 3.895807e+01 2.634102e+01 2.684904e+01 2.480927e+01 2.103419e+01 9.663193e-03 1.660697e+00 1.787760e+00 1.914788e+00 2.131031e+00 2.785565e+00 2.412074e+00 2.633512e+00 2.822078e+00 2.477076e+00 2.081895e+00 2.152570e+00 1.767578e+00 2.274678e-03 1.529729e-01 3.956860e-01 3.712400e-01 3.826692e-01 4.635821e-01 4.460137e-01 5.175413e-01 5.304702e-01 4.791171e-01 4.583097e-01 4.589296e-01 3.736632e-01 2.317414e-04
<GCONST> 9.056585e+01
<MIXTURE> 4 7.853397e-02
<MEAN> 39
 -1.933720e+01 -1.256233e+00 -4.940298e+00 -1.472482e-01 -1.431719e+00 7.049260e-01 -5.300421e-01 8.534993e-01 -1.393409e-02 7.283224e-01 -8.470855e-02 1.208189e-01 -1.089754e-01 -4.696662e-02 6.903252e-03 4.359062e-02 5.364031e-02 4.693003e-02 3.621139e-02 -1.520236e-02 -4.565979e-02 -3.545677e-02 3.973543e-02 2.094704e-02 1.184038e-02 -9.431170e-05 6.405941e-02 -6.762002e-02 -6.154332e-02 -1.191002e-01 -5.409099e-02 -5.628790e-02 -1.631360e-02 -5.867481e-03 -3.038178e-02 -3.493774e-02 -2.606059e-02 8.172084e-03 3.711523e-03
<VARIANCE> 39
 1.012762e+00 2.681094e+00 2.643376e+00 4.989739e+00 4.815460e+00 7.479975e+00 7.386238e+00 8.458366e+00 8.185595e+00 8.053743e+00 7.416428e+00 6.885815e+00 2.050785e-03 1.112818e-01 2.061052e-01 3.323576e-01 4.891895e-01 5.846017e-01 8.254043e-01 8.623346e-01 1.029923e+00 1.017332e+00 8.832700e-01 9.038345e-01 8.684735e-01 4.473704e-05 3.127589e-02 6.035488e-02 7.976286e-02 1.151074e-01 1.226370e-01 1.785932e-01 1.882963e-01 2.128530e-01 2.170971e-01 1.982757e-01 1.828831e-01 1.733540e-01 3.968752e-05
<GCONST> 3.337144e+01
<MIXTURE> 5 7.885398e-02
<MEAN> 39
 -1.727989e+01 -1.205853e+01 -8.166423e+00 -7.983804e+00 -5.001572e+00 -5.752737e+00 -2.260301e+00 1.504348e+00 -1.941163e+00 -3.155252e+00 -1.190331e+00 7.461178e-01 7.359632e-02 8.125656e-02 9.000952e-02 -2.208464e-01 9.386264e-02 -7.026267e-02 2.872484e-01 1.206860e-01 2.786172e-02 9.953971e-02 1.536867e-02 2.681345e-02 5.917391e-02 -9.506587e-03 -3.398321e-02 2.519746e-01 3.258777e-02 9.359864e-02 4.596598e-02 7.183889e-02 3.146517e-02 -3.595784e-02 2.909095e-02 7.232561e-02 -3.336319e-03 -2.515000e-02 -1.241011e-04
<VARIANCE> 39
 1.209656e+01 1.426648e+01 1.840221e+01 1.792492e+01 2.137572e+01 2.671140e+01 2.555072e+01 2.504766e+01 2.658826e+01 2.603459e+01 2.173804e+01 1.612710e+01 2.114176e-02 5.922142e-01 1.338611e+00 9.410682e-01 1.033973e+00 1.125419e+00 1.502438e+00 1.352713e+00 1.475464e+00 1.589264e+00 1.675971e+00 1.385696e+00 1.142836e+00 7.743543e-04 9.025678e-02 1.531993e-01 1.678896e-01 1.913955e-01 2.037462e-01 2.584096e-01 2.706998e-01 2.819861e-01 3.051564e-01 3.228310e-01 2.692910e-01 2.371673e-01 7.238727e-05
<GCONST> 7.137339e+01
<MIXTURE> 6 6.015532e-02
<MEAN> 39
 -1.440897e+01 -6.512492e+00 -8.468580e+00 -6.836700e+00 -6.163958e+00 -5.304542e+00 -2.079300e+00 4.976775e-01 -2.326635e+00 -2.612736e+00 -3.285897e+00 -9.650644e-01 3.575653e-02 1.844737e-01 -7.781177e-01 -5.001092e-02 -7.089464e-01 -4.778932e-01 -7.535674e-01 -1.555086e-01 1.021310e-02 -2.218935e-01 -2.819382e-01 -3.302874e-01 -1.052573e-01 3.496293e-02 -4.206724e-01 1.994088e-01 2.980241e-01 2.798048e-01 3.495512e-01 3.544880e-01 8.157309e-02 -9.057091e-03 1.299097e-01 2.593790e-01 2.747335e-01 8.635061e-02 4.686926e-03
<VARIANCE> 39
 1.680884e+01 2.945834e+01 2.606908e+01 2.151807e+01 2.334485e+01 2.231036e+01 2.304689e+01 2.931956e+01 2.535217e+01 2.009106e+01 2.125285e+01 1.645133e+01 1.733001e-02 1.839131e+00 2.369399e+00 2.012801e+00 2.203527e+00 2.195144e+00 2.199079e+00 1.928673e+00 2.307214e+00 2.052574e+00 1.954373e+00 1.860283e+00 1.562503e+00 2.261061e-03 3.352220e-01 4.944027e-01 4.149750e-01 4.022976e-01 3.416524e-01 3.482080e-01 3.853841e-01 4.815436e-01 4.638255e-01 3.755022e-01 3.397719e-01 3.323668e-01 3.883625e-04
<GCONST> 8.822763e+01
<MIXTURE> 7 9.233350e-02
<MEAN> 39
 -1.937350e+01 -1.896133e+00 -4.918548e+00 -8.427719e-01 -1.484240e+00 2.381235e-01 -1.056875e+00 1.357237e-01 -5.206971e-01 5.361193e-01 -3.122635e-01 -2.670360e-01 -1.493804e-01 2.188469e-01 -2.779532e-02 3.053016e-02 -1.504265e-01 -2.468112e-02 -1.205776e-02 6.337229e-02 5.148890e-03 -5.169494e-02 -6.607507e-02 -9.093872e-02 -5.284271e-02 1.026405e-02 3.736937e-01 -4.177690e-01 -1.704146e-01 -6.116925e-01 -3.807200e-01 -3.366982e-01 -5.022341e-02 -1.426227e-02 -1.192430e-01 -1.568158e-01 -1.354480e-01 1.419563e-02 2.927568e-02
<VARIANCE> 39
 1.060277e+00 2.393496e+00 2.884570e+00 4.417004e+00 5.247096e+00 6.544889e+00 7.199888e+00 8.329718e+00 8.250289e+00 8.379568e+00 7.716889e+00 6.832870e+00 1.097022e-04 6.935753e-01 7.746550e-01 9.918041e-01 1.214079e+00 1.243267e+00 1.264106e+00 1.436283e+00 1.456148e+00 1.329394e+00 1.250184e+00 1.168348e+00 1.122161e+00 4.561127e-04 2.570813e-01 3.009092e-01 4.012384e-01 3.632792e-01 4.150221e-01 3.720232e-01 3.938641e-01 3.901910e-01 3.490226e-01 3.429101e-01 3.105871e-01 2.633844e-01 2.343208e-04
<GCONST> 5.449629e+01
<MIXTURE> 8 4.852123e-02
<MEAN> 39
 -1.905795e+01 -1.978689e+00 -4.907979e+00 -1.309675e+00 -1.813017e+00 3.458791e-01 -6.468858e-01 5.852176e-02 -7.027852e-01 4.695411e-01 -4.545862e-01 -2.209401e-01 -1.449627e-01 2.178971e+00 -2.571124e-01 3.833940e-01 -1.546659e+00 -1.412075e+00 -9.842018e-01 -4.686137e-01 -7.089243e-01 -1.114817e+00 -6.714279e-01 -8.335500e-01 -6.338443e-01 1.030683e-01 9.772080e-01 -4.637844e-01 -1.249637e-01 -9.871334e-01 -7.380272e-01 -5.380777e-01 -3.448499e-01 -2.290959e-01 -3.780381e-01 -2.472060e-01 -3.022608e-01 -2.120482e-01 5.178692e-02
<VARIANCE> 39
 2.920888e+00 4.277297e+00 6.562709e+00 8.371431e+00 1.019254e+01 1.096889e+01 1.166247e+01 1.262156e+01 1.205565e+01 1.191305e+01 1.140007e+01 1.034628e+01 2.683012e-04 2.260668e+00 4.116245e+00 4.457943e+00 4.790009e+00 4.684279e+00 3.888631e+00 3.790114e+00 3.704981e+00 3.170252e+00 3.004004e+00 2.725302e+00 2.004319e+00 3.910461e-03 2.422953e-01 4.516276e-01 6.587231e-01 4.971994e-01 6.146470e-01 6.249064e-01 5.676570e-01 6.301743e-01 5.357423e-01 5.128379e-01 4.826798e-01 4.076774e-01 2.949500e-04
<GCONST> 8.231501e+01
<MIXTURE> 9 6.999251e-02
<MEAN> 39
 -1.787045e+01 -3.472160e+00 -7.063769e+00 -4.429656e+00 -3.800122e+00 -1.573159e+00 -6.450291e-01 4.429427e-02 -1.671895e+00 4.700513e-01 -1.199934e+00 -8.112072e-01 -1.495436e-01 2.235698e-01 6.571033e-01 7.179526e-01 4.677534e-01 1.992228e-01 4.622108e-02 4.616529e-03 -2.839106e-01 -2.568623e-01 -8.242397e-03 -2.679839e-01 -4.364442e-01 1.846882e-02 5.491490e-01 7.673528e-02 1.994808e-01 -1.588513e-02 -9.629771e-02 -1.281280e-01 -2.787347e-01 -2.088715e-01 -1.438248e-01 -2.428992e-01 -1.114018e-01 -6.313454e-02 3.287995e-02
<VARIANCE> 39
 6.270565e+00 7.259638e+00 1.414909e+01 1.469020e+01 1.949215e+01 1.864609e+01 2.060726e+01 2.416174e+01 2.338445e+01 1.973046e+01 1.570002e+01 1.644181e+01 1.097022e-04 1.152880e+00 1.495221e+00 1.524449e+00 1.664117e+00 1.809423e+00 1.763452e+00 1.809368e+00 2.201848e+00 2.192190e+00 2.120290e+00 1.644757e+00 1.552252e+00 1.055753e-03 4.000373e-01 3.865283e-01 3.602301e-01 3.820517e-01 4.345999e-01 4.306245e-01 5.278218e-01 5.009394e-01 5.719999e-01 4.454901e-01 3.708215e-01 3.683993e-01 2.635753e-04
<GCONST> 7.669148e+01
<MIXTURE> 10 5.917690e-02
<MEAN> 39
 -1.432720e+01 -4.755515e+00 -8.666105e+00 -4.299427e+00 -2.038853e+00 -2.368799e+00 -1.314660e+00 -2.198267e-01 -2.186553e+00 -1.866943e+00 -2.599586e+00 -2.662225e-01 -5.527177e-02 -8.596906e-02 1.913675e-01 6.604536e-02 1.064875e-01 1.503190e-03 8.513648e-02 -1.055537e-02 3.397466e-02 1.036915e-01 9.954882e-02 7.941687e-02 5.316473e-03 -6.521392e-03 2.098202e-02 -4.831176e-02 -4.520763e-03 -1.970465e-02 1.554123e-03 -3.722405e-02 -1.939643e-02 3.049379e-03 -3.199360e-03 -5.403916e-03 -1.113925e-02 -2.066128e-03 2.226654e-03
<VARIANCE> 39
 1.017774e+01 1.636366e+01 1.789007e+01 1.744286e+01 1.601693e+01 2.310297e+01 2.408911e+01 2.480708e+01 2.210566e+01 2.445043e+01 2.064685e+01 1.609170e+01 6.631257e-03 1.260316e-01 2.707470e-01 4.389008e-01 5.913435e-01 7.895236e-01 9.686806e-01 1.125798e+00 1.206476e+00 1.271812e+00 1.304089e+00 1.152315e+00 1.046915e+00 6.021146e-05 1.021091e-02 2.139537e-02 3.548285e-02 4.667376e-02 6.759007e-02 7.833102e-02 9.006034e-02 1.010446e-01 1.036758e-01 1.057496e-01 9.785033e-02 8.724085e-02 5.143150e-06
<GCONST> 4.198471e+01
<MIXTURE> 11 4.807117e-02
<MEAN> 39
 -1.072057e+01 -2.592172e+00 -3.030189e+00 -5.856635e+00 -7.356201e+00 -4.002337e+00 -2.789873e+00 -1.784021e+00 -4.863572e+00 -2.484973e+00 -3.615590e+00 -2.529425e+00 2.470029e-01 3.335732e+00 -4.509119e-01 7.124150e-01 -2.141426e+00 -2.279590e+00 -1.690590e+00 -1.366289e+00 -8.291401e-01 -1.298162e+00 -8.245080e-01 -7.199290e-01 -7.285179e-01 1.531847e-01 -1.691198e-01 -3.841977e-01 -2.622956e-01 -1.951330e-01 5.803471e-02 6.067684e-02 -2.211160e-02 1.831548e-01 2.496161e-01 1.414820e-01 1.839404e-01 1.569466e-01 1.570564e-03
<VARIANCE> 39
 2.187971e+01 4.771007e+01 5.138881e+01 4.875286e+01 5.270715e+01 4.478429e+01 3.956133e+01 4.713479e+01 3.588296e+01 3.134373e+01 2.729408e+01 2.433650e+01 2.848661e-02 2.012898e+00 4.150464e+00 4.734237e+00 4.708719e+00 4.278659e+00 4.001519e+00 4.062768e+00 4.992393e+00 3.658617e+00 3.327770e+00 3.478573e+00 2.754019e+00 4.391804e-03 3.365589e-01 6.126551e-01 3.766744e-01 5.991247e-01 5.710465e-01 5.174091e-01 5.542189e-01 5.209895e-01 4.638131e-01 4.634121e-01 3.844502e-01 3.712239e-01 3.701977e-04
<GCONST> 1.052106e+02
<MIXTURE> 12 9.855085e-02
<MEAN> 39
 -1.941374e+01 -1.335086e+01 -7.604096e+00 -8.898279e+00 -5.375127e+00 -8.197910e+00 -2.742960e+00 1.515111e+00 -2.314662e+00 -3.678793e+00 -7.189115e-01 9.386429e-01 1.608600e-01 1.029355e-01 -5.624959e-02 -1.283324e-02 2.307311e-02 3.697892e-02 9.173457e-02 -2.784100e-02 4.268405e-03 9.959416e-03 -7.702298e-02 -8.280170e-02 6.095861e-02 -3.434926e-03 4.107898e-02 2.696788e-02 -1.827545e-02 1.881717e-02 2.007152e-02 5.089756e-02 7.067799e-03 -4.341274e-03 -7.138959e-04 2.435369e-03 -1.093364e-02 -8.980329e-03 -1.580854e-03
<VARIANCE> 39
 9.537872e+00 1.036491e+01 1.289199e+01 1.385924e+01 2.173032e+01 1.926624e+01 2.476211e+01 2.286987e+01 2.301678e+01 2.137971e+01 1.924012e+01 1.310664e+01 1.470646e-02 1.599474e-01 2.156454e-01 3.352018e-01 5.469676e-01 6.917152e-01 8.462173e-01 1.001658e+00 1.098606e+00 1.186350e+00 1.104730e+00 1.029460e+00 9.386278e-01 1.890616e-04 2.100401e-02 4.285887e-02 6.664741e-02 1.095980e-01 1.360024e-01 1.756584e-01 1.997427e-01 2.289188e-01 2.499808e-01 2.266346e-01 2.073450e-01 1.934392e-01 1.203559e-05
<GCONST> 5.133527e+01
<MIXTURE> 13 8.376560e-02
<MEAN> 39
 -1.739324e+01 -2.682702e+00 -6.796320e+00 -2.896972e+00 -2.420169e+00 -1.005368e+00 -8.960940e-01 -5.922417e-01 -1.841056e+00 -6.132304e-01 -1.450184e+00 -1.807612e-01 -1.504428e-01 -7.932796e-02 1.277010e-01 1.139326e-01 6.321616e-02 -2.129654e-02 3.510772e-02 -2.811122e-02 -6.622083e-02 -5.026184e-02 -5.493365e-02 -7.867577e-03 -3.083809e-02 -1.320232e-04 2.682041e-02 -1.953607e-02 -5.978381e-03 -1.115028e-02 -7.476504e-03 -2.145085e-02 -1.963273e-02 -1.998593e-02 -1.873033e-02 -2.441498e-02 -1.898635e-02 -9.254941e-03 1.956482e-04
<VARIANCE> 39
 5.826755e+00 6.615009e+00 9.229003e+00 9.708049e+00 1.004742e+01 1.351996e+01 1.298109e+01 1.357354e+01 1.431685e+01 1.391366e+01 1.341715e+01 1.086234e+01 1.097022e-04 1.229480e-01 2.581039e-01 3.946642e-01 5.869407e-01 6.854708e-01 8.653486e-01 1.036377e+00 1.052617e+00 1.137898e+00 1.097390e+00 1.057604e+00 1.018550e+00 4.404991e-06 1.028408e-02 2.285487e-02 3.742881e-02 4.932953e-02 6.555127e-02 7.918887e-02 9.050108e-02 9.332271e-02 9.828969e-02 9.773354e-02 9.007345e-02 8.572877e-02 6.561323e-07
<GCONST> 2.525017e+01
<MIXTURE> 14 4.831486e-02
<MEAN> 39
 -2.506004e+01 -6.321995e+00 -4.311186e+00 -4.096743e+00 -1.670055e+00 -3.140133e+00 -2.173433e+00 5.338981e-02 4.734030e-02 -3.231723e-01 -4.127173e-01 2.626635e-01 1.909057e-01 9.523366e-02 -2.374299e-01 2.102660e-02 -1.364036e-01 3.463109e-02 -2.018979e-01 -1.385997e-01 2.107445e-01 -2.893647e-02 -1.250203e-01 -1.139778e-01 -5.355071e-02 1.859110e-02 8.658347e-01 1.864768e-01 -3.216365e-01 -1.343627e-01 -2.175627e-01 7.940821e-02 6.630009e-02 4.534087e-03 -2.148295e-01 -1.415797e-03 -5.450013e-02 -6.013171e-02 -2.145976e-02
<VARIANCE> 39
 1.934629e+01 4.920217e+01 4.071789e+01 4.698360e+01 3.762940e+01 4.115525e+01 3.829851e+01 3.203666e+01 2.585077e+01 2.375465e+01 1.764244e+01 1.556750e+01 3.122221e-02 4.030898e+00 4.010478e+00 3.533341e+00 3.830247e+00 3.599436e+00 3.689760e+00 3.347407e+00 3.313688e+00 2.649276e+00 2.308022e+00 2.030978e+00 1.701275e+00 5.486587e-03 4.970533e-01 1.149572e+00 8.377999e-01 1.049255e+00 8.153333e-01 9.259833e-01 8.732566e-01 8.021350e-01 6.256542e-01 5.470949e-01 4.748469e-01 3.844665e-01 7.860628e-04
<GCONST> 1.060974e+02
<MIXTURE> 15 3.795401e-02
<MEAN> 39
 -1.598955e+01 -5.758950e+00 -9.674060e+00 -4.507736e+00 -1.648169e-01 2.815967e+00 9.078713e-01 1.450735e+00 2.540475e-01 -5.043665e-03 -1.484750e+00 -6.270120e-01 -2.647133e-02 1.447804e+00 -1.053160e+00 -6.965042e-01 -1.367399e+00 -4.235993e-01 -3.350895e-01 -3.696679e-01 -4.127515e-01 -5.206259e-01 -6.576102e-01 -6.431120e-01 -3.991856e-01 7.331429e-02 1.913216e-01 -3.783054e-02 1.866846e-01 -3.170588e-01 -4.556489e-01 -5.638475e-01 -4.455213e-01 -2.878994e-01 -2.677500e-01 -1.744142e-01 -1.303316e-01 -1.142533e-01 2.510430e-02
<VARIANCE> 39
 1.305835e+01 2.349835e+01 3.187637e+01 2.377964e+01 1.984525e+01 2.618475e+01 2.362373e+01 2.509527e+01 1.988799e+01 2.192238e+01 1.902124e+01 1.799290e+01 9.899881e-03 3.562536e+00 4.136297e+00 4.014844e+00 4.273017e+00 3.581973e+00 4.168163e+00 4.172995e+00 3.624488e+00 2.854451e+00 2.753571e+00 2.522553e+00 2.092821e+00 5.762132e-03 4.619313e-01 4.730358e-01 4.510328e-01 4.392940e-01 3.386167e-01 3.767614e-01 4.288594e-01 4.433439e-01 3.766376e-01 4.193461e-01 3.819312e-01 3.374137e-01 4.557341e-04
<GCONST> 9.504482e+01
<MIXTURE> 16 4.209055e-02
<MEAN> 39
 -1.686069e+01 -2.265818e+00 -6.612234e+00 -3.217114e+00 -3.170352e+00 -1.673219e-01 6.653348e-02 1.569189e+00 -1.571679e-01 9.457114e-02 -6.082095e-01 2.889653e-01 -1.490531e-01 1.057201e+00 -1.198934e+00 -6.010602e-01 -1.402447e+00 -1.019938e+00 -8.116454e-01 5.874277e-02 -3.109167e-02 -5.178343e-01 -6.466329e-01 -5.883766e-01 -1.072374e-02 2.993222e-02 -6.076877e-02 -3.726145e-01 5.648712e-02 -2.373498e-01 -1.315463e-01 -2.852058e-01 -1.846925e-01 -2.278775e-01 -1.790786e-01 -1.398425e-01 -1.420581e-01 -6.571782e-02 2.040849e-02
<VARIANCE> 39
 7.088343e+00 7.886213e+00 1.027201e+01 8.391767e+00 1.095623e+01 1.179372e+01 1.289209e+01 1.412272e+01 1.231574e+01 1.283494e+01 1.043823e+01 8.736847e+00 1.097022e-04 1.396992e+00 2.094995e+00 2.616424e+00 2.114068e+00 2.893407e+00 2.747122e+00 3.036867e+00 3.160428e+00 2.300854e+00 2.183848e+00 1.950497e+00 1.930561e+00 8.583622e-04 2.843256e-01 2.896389e-01 3.311340e-01 2.843716e-01 3.646709e-01 3.402466e-01 3.670976e-01 3.472729e-01 3.422630e-01 3.015200e-01 2.838065e-01 2.296805e-01 1.371655e-04
<GCONST> 7.077821e+01
<TRANSP> 5
 0.000000e+00 1.000000e+00 0.000000e+00 0.000000e+00 0.000000e+00
 0.000000e+00 8.118200e-01 1.881801e-01 0.000000e+00 0.000000e+00
 0.000000e+00 0.000000e+00 8.670364e-01 1.329636e-01 0.000000e+00
 0.000000e+00 0.000000e+00 0.000000e+00 7.456037e-01 2.543962e-01
 0.000000e+00 0.000000e+00 0.000000e+00 0.000000e+00 0.000000e+00
<ENDHMM>
