~o
<STREAMINFO> 1 39
<VECSIZE> 39<NULLD><MFCC_E_D_A><DIAGC>
~h "th"
<BEGINHMM>
<NUMSTATES> 5
<STATE> 2
<NUMMIXES> 16
<MIXTURE> 1 7.685006e-02
<MEAN> 39
 -7.381931e+00 -2.500036e+00 -6.461057e+00 -8.059556e+00 -5.601991e+00 -9.469158e+00 -7.087210e+00 -3.786581e+00 -1.659478e+00 -4.139848e+00 -8.006848e+00 -1.350600e+00 5.930172e-01 -3.441069e+00 3.040477e+00 5.550257e-01 2.170418e+00 1.496243e+00 1.792722e+00 2.463488e+00 -4.718811e-01 5.352538e-01 2.322074e-01 1.147471e+00 1.469356e-01 -1.207127e-01 -5.953758e-01 -7.543905e-01 -3.222215e-01 -1.684284e-02 -1.717219e-02 5.737543e-01 -2.786937e-02 6.072735e-01 -7.860957e-02 3.728527e-01 6.674767e-01 1.123902e-01 -1.573502e-02
<VARIANCE> 39
 7.022926e+00 1.472228e+01 2.452526e+01 2.074777e+01 2.359056e+01 4.411834e+01 4.204337e+01 2.822690e+01 3.084984e+01 5.383532e+01 4.130349e+01 3.315580e+01 1.265374e-02 2.459594e+00 3.214991e+00 3.191047e+00 2.942295e+00 3.826203e+00 5.343459e+00 7.365644e+00 3.941314e+00 3.520865e+00 5.998641e+00 6.247938e+00 3.409175e+00 1.753421e-03 2.156075e-01 2.840046e-01 4.921218e-01 5.723504e-01 5.009552e-01 6.974704e-01 7.583288e-01 5.847384e-01 5.147727e-01 9.143221e-01 6.986631e-01 6.042626e-01 3.178235e-04
<GCONST> 1.017034e+02
<MIXTURE> 2 3.963188e-02
<MEAN> 39
 -1.878456e+01 -6.458781e-01 -6.158879e+00 -1.992609e+00 -2.164004e+00 5.987042e-01 -6.249259e-01 3.814956e-01 1.498319e-01 1.151303e+00 -6.308808e-01 1.023238e-01 -2.357315e-02 -2.361910e+00 -1.025875e+00 -6.340387e-01 1.194502e-01 1.405552e+00 2.298503e+00 1.602170e+00 1.010279e+00 1.426183e+00 1.355267e+00 1.245030e+00 3.317552e-01 -1.007442e-01 8.953261e-01 -4.856059e-01 5.256265e-02 -7.805746e-01 -8.618377e-01 -1.343070e+00 -5.670499e-01 -3.124069e-01 -5.116116e-01 -4.224007e-01 -3.530132e-01 3.590566e-02 6.061753e-02
<VARIANCE> 39
 3.915266e+00 6.647027e+00 5.909034e+00 4.711862e+00 5.726414e+00 5.586925e+00 7.363401e+00 1.059503e+01 1.215038e+01 1.485748e+01 8.363718e+00 5.889750e+00 2.457145e-02 1.094691e+00 1.332165e+00 1.862356e+00 1.207721e+00 2.014029e+00 2.760579e+00 1.667283e+00 3.518825e+00 2.477684e+00 2.142233e+00 2.301127e+00 1.815471e+00 3.789760e-03 1.326116e-01 3.979237e-01 4.118515e-01 3.387927e-01 3.142706e-01 3.563457e-01 5.279021e-01 7.944694e-01 4.385319e-01 4.582785e-01 4.121807e-01 2.939117e-01 5.237248e-04
<GCONST> 7.442878e+01
<MIXTURE> 3 7.566299e-02
<MEAN> 39
 -1.208347e+01 3.189556e+00 -3.982638e+00 -3.119981e+00 -7.659937e+00 -8.197134e+00 -5.814668e+00 -4.664135e+00 -4.322652e+00 -5.748171e+00 -4.960779e+00 -1.278604e+00 3.965351e-01 -3.644136e+00 1.020103e+00 -5.607381e-01 2.168077e+00 2.781448e+00 3.887837e+00 1.848723e+00 8.917254e-01 1.228396e+00 8.677503e-01 1.966281e+00 -2.360531e-01 -1.567916e-01 -1.041190e-01 -1.320164e+00 -2.275940e-01 -8.802338e-01 -1.576711e-01 3.651998e-02 6.003884e-02 4.593831e-01 -1.665992e-02 7.282214e-01 9.150676e-02 1.843750e-01 8.668987e-03
<VARIANCE> 39
 1.108393e+01 9.599136e+00 1.787919e+01 1.691061e+01 2.079492e+01 2.328379e+01 1.941671e+01 2.272357e+01 1.638181e+01 1.726600e+01 2.099354e+01 1.413799e+01 2.953691e-02 2.115300e+00 2.562354e+00 3.544795e+00 2.417153e+00 3.835412e+00 3.230062e+00 4.005657e+00 5.013496e+00 4.955397e+00 4.808728e+00 4.197846e+00 2.955699e+00 2.037431e-03 2.500341e-01 3.163160e-01 4.648291e-01 4.301096e-01 5.216081e-01 5.829317e-01 5.036196e-01 6.194974e-01 5.320456e-01 6.052875e-01 6.009747e-01 4.005342e-01 4.922130e-04
<GCONST> 9.431568e+01
<MIXTURE> 4 8.344702e-02
<MEAN> 39
 -2.142014e+01 -1.679824e+00 -7.799622e+00 -7.256700e+00 -1.689262e-02 -5.390098e+00 -7.528491e-02 -5.868074e-01 -6.225055e-01 1.000232e+00 -2.222990e+00 3.976554e-01 3.450255e-01 -1.137508e+00 1.212894e-01 -2.784120e-01 6.673347e-01 -5.433525e-01 5.032558e-01 3.665783e-01 -7.969245e-02 4.498483e-01 1.088593e-01 1.895529e-01 1.304993e-01 -5.635301e-02 6.490272e-01 -3.242364e-01 2.104216e-01 -9.837496e-02 -6.885628e-01 2.259749e-01 -5.050852e-01 1.827223e-02 -2.399573e-01 -2.945553e-01 8.206055e-02 -1.801117e-01 7.993248e-03
<VARIANCE> 39
 2.451074e+01 1.787223e+01 1.999227e+01 1.973046e+01 2.571258e+01 1.774495e+01 1.006093e+01 1.543046e+01 1.385444e+01 1.417801e+01 9.496959e+00 1.120769e+01 3.384017e-02 5.242648e+00 3.245726e+00 3.481744e+00 4.050364e+00 4.054669e+00 3.122931e+00 3.282899e+00 2.433871e+00 2.844528e+00 2.570448e+00 1.991767e+00 1.439909e+00 4.940862e-03 5.753490e-01 6.352312e-01 5.861045e-01 7.041107e-01 7.383152e-01 5.816156e-01 5.056998e-01 5.620006e-01 4.892820e-01 3.558697e-01 3.403680e-01 2.924856e-01 6.471802e-04
<GCONST> 9.390417e+01
<MIXTURE> 5 4.951724e-02
<MEAN> 39
 -2.045706e+01 1.044999e+00 -7.752695e+00 -3.262109e+00 -3.072221e+00 -4.392195e-01 -1.297450e+00 -7.594437e-01 -2.392553e+00 -1.217230e+00 -3.636173e-01 1.155107e+00 2.080724e-01 -7.310063e-01 -7.786311e-01 -6.758589e-02 -1.214453e-01 3.451171e-01 8.712443e-01 3.485878e-01 7.369045e-01 4.599857e-01 6.378538e-01 5.139274e-01 4.711387e-01 -5.694605e-02 6.823902e-01 -5.166424e-01 7.096919e-02 -3.605580e-01 -3.301419e-01 -6.768160e-01 -1.158915e-01 -5.140257e-02 2.787889e-01 -9.779818e-02 -3.234811e-01 -2.480683e-01 2.908352e-02
<VARIANCE> 39
 1.499682e+01 8.843662e+00 1.050475e+01 1.085260e+01 7.507133e+00 6.259188e+00 8.062943e+00 6.651859e+00 8.605680e+00 5.415480e+00 5.809214e+00 6.142871e+00 3.316307e-02 2.737335e+00 1.473043e+00 1.831092e+00 1.592849e+00 1.285511e+00 1.464449e+00 1.450216e+00 1.423944e+00 1.707591e+00 1.176630e+00 1.231497e+00 1.103516e+00 4.261862e-03 5.348853e-01 3.232053e-01 2.671646e-01 3.083940e-01 2.753644e-01 3.835273e-01 3.360900e-01 2.317194e-01 3.497767e-01 3.306670e-01 2.144204e-01 3.035721e-01 3.834716e-04
<GCONST> 7.070477e+01
<MIXTURE> 6 6.501254e-02
<MEAN> 39
 -1.650624e+01 3.492203e+00 -1.868371e+00 -1.780790e-01 2.092989e-01 -2.728531e+00 -3.482881e+00 -4.109312e+00 -3.262782e+00 -3.254659e+00 -4.893591e+00 -3.485594e+00 9.714863e-02 -3.628308e+00 -5.458527e-01 -5.619537e-01 1.097896e+00 8.565846e-01 2.061092e+00 2.053192e+00 1.736342e+00 2.428181e-01 2.547188e-01 9.186295e-01 9.056178e-01 -1.320094e-01 6.676884e-01 -1.405653e+00 -6.375793e-01 -1.196561e+00 -1.031743e+00 -4.851718e-01 -5.321319e-01 1.535762e-01 2.681527e-01 3.455515e-01 3.543975e-01 3.276743e-01 4.918561e-02
<VARIANCE> 39
 1.721303e+01 9.986811e+00 1.706534e+01 1.874159e+01 1.362850e+01 1.413723e+01 2.170447e+01 1.823261e+01 1.760651e+01 1.338915e+01 1.031687e+01 9.734724e+00 2.954769e-02 1.566414e+00 2.226906e+00 3.518784e+00 3.827670e+00 2.552338e+00 4.170080e+00 3.731574e+00 2.884512e+00 3.187420e+00 3.775049e+00 3.550641e+00 2.655741e+00 3.687237e-03 4.603727e-01 3.440131e-01 4.810051e-01 5.373850e-01 5.085027e-01 5.762748e-01 7.607338e-01 7.199809e-01 5.618996e-01 5.462261e-01 5.441452e-01 3.609961e-01 5.969807e-04
<GCONST> 9.284621e+01
<MIXTURE> 7 4.523135e-02
<MEAN> 39
 -1.440957e+01 3.528414e+00 -3.894845e+00 -1.944644e+00 -3.763919e+00 -2.959320e+00 -4.681499e+00 -4.221977e+00 -4.722837e+00 -3.607787e+00 -3.938974e+00 -2.868922e+00 1.710374e-01 -9.297339e-01 -4.761957e-01 -4.077473e-01 -1.549562e-01 8.788969e-02 4.167919e-01 3.182150e-01 3.179336e-01 -7.333225e-02 -5.907178e-02 1.639199e-01 7.803780e-02 -2.281918e-02 8.514014e-02 -7.539464e-01 -3.541206e-01 -4.366286e-01 -2.824033e-01 -1.860167e-01 1.423000e-01 2.642466e-01 2.901427e-01 1.975326e-01 1.900471e-01 1.724546e-01 2.710173e-02
<VARIANCE> 39
 2.183781e+01 1.245972e+01 1.888975e+01 2.097946e+01 1.750643e+01 1.158325e+01 1.606668e+01 1.196326e+01 1.573596e+01 1.278811e+01 1.086865e+01 7.712746e+00 3.079178e-02 1.996187e+00 2.351854e+00 1.460071e+00 1.805026e+00 1.840395e+00 1.201664e+00 1.964542e+00 2.970551e+00 2.031216e+00 1.732327e+00 2.014009e+00 1.311107e+00 2.248330e-03 4.840959e-01 2.963578e-01 2.611430e-01 4.418283e-01 4.951393e-01 2.934380e-01 3.396650e-01 4.026376e-01 5.321509e-01 5.602826e-01 2.752506e-01 3.125150e-01 4.970842e-04
<GCONST> 8.200391e+01
<MIXTURE> 8 5.936563e-02
<MEAN> 39
 -8.234690e+00 6.614256e-01 -9.790962e+00 -6.750594e+00 -3.370047e+00 -3.761196e+00 -3.984307e+00 -3.397873e+00 2.762576e+00 1.590142e+00 -3.999524e+00 -4.720465e+00 5.414695e-01 -4.331922e+00 2.064331e+00 1.283745e+00 2.471355e+00 8.586497e-01 8.692265e-01 1.540780e+00 1.442837e+00 -9.974984e-01 -8.250108e-01 3.075396e-01 1.804148e+00 -1.431928e-01 -4.677038e-01 -1.113908e+00 9.933038e-03 -4.300713e-01 -2.881985e-01 1.232793e-01 -1.628863e-01 1.946260e-01 -2.686448e-01 -1.327274e-01 3.697229e-01 1.964016e-01 -4.120384e-03
<VARIANCE> 39
 8.387225e+00 1.081922e+01 1.254303e+01 1.527432e+01 1.081880e+01 2.404876e+01 3.723450e+01 3.110095e+01 1.553355e+01 2.088761e+01 1.467682e+01 1.127203e+01 1.497035e-02 1.617465e+00 2.170086e+00 3.256992e+00 3.706617e+00 3.005463e+00 5.586958e+00 7.217738e+00 3.947123e+00 3.745603e+00 4.277267e+00 3.393520e+00 3.286238e+00 2.634059e-03 1.872282e-01 2.672893e-01 2.988012e-01 3.500673e-01 2.925507e-01 4.200112e-01 4.630857e-01 5.901185e-01 3.345555e-01 3.669100e-01 3.062276e-01 3.043214e-01 2.157250e-04
<GCONST> 8.835017e+01
<MIXTURE> 9 9.547746e-02
<MEAN> 39
 -2.222944e+01 -1.921723e+00 -8.620835e+00 -4.429210e+00 -3.712924e+00 -3.440928e+00 3.441457e-01 4.983833e-01 5.654771e-01 -1.912242e+00 -1.776843e+00 2.644782e-01 2.827454e-01 -2.846548e+00 -1.268831e+00 -1.392042e+00 -2.493613e-01 -1.174925e-01 1.190822e+00 9.308521e-01 9.429240e-01 6.718013e-02 -1.829987e-01 5.890344e-01 6.067196e-01 -4.944932e-02 1.369158e+00 -4.761353e-01 2.882333e-01 -5.030701e-01 -4.447432e-01 -5.465947e-01 -9.281704e-01 -3.540248e-01 -2.856844e-01 3.259569e-01 -2.830716e-02 -2.640813e-01 3.104501e-02
<VARIANCE> 39
 8.053370e+00 1.305550e+01 1.055074e+01 1.117013e+01 1.214412e+01 1.243107e+01 1.161520e+01 1.158023e+01 1.262418e+01 8.570951e+00 1.118271e+01 9.299718e+00 1.696357e-02 1.782834e+00 1.254169e+00 1.584293e+00 1.576814e+00 2.043346e+00 1.979036e+00 2.037527e+00 1.867601e+00 2.077118e+00 2.546115e+00 2.216152e+00 1.412785e+00 1.439215e-03 2.041159e-01 3.723299e-01 4.077864e-01 4.105957e-01 3.963769e-01 6.516297e-01 4.805310e-01 4.052905e-01 5.757698e-01 3.764989e-01 4.601795e-01 3.469177e-01 2.564249e-04
<GCONST> 7.800304e+01
<MIXTURE> 10 8.201553e-02
<MEAN> 39
 -1.955731e+01 -7.196147e-01 -4.806824e+00 -1.285748e+00 -9.442410e-01 3.063180e-01 1.286747e-01 5.534551e-01 -1.328113e-01 6.497296e-01 -6.650551e-01 -1.382451e-01 -1.129955e-01 -8.556111e-01 -1.529705e+00 -9.192140e-01 -6.760632e-01 -7.429361e-01 1.138392e-01 1.933839e-01 4.500056e-01 3.515646e-01 2.055777e-01 7.663174e-01 6.897929e-01 -7.808978e-03 8.155088e-01 -4.003664e-01 -4.234787e-01 -9.388737e-01 -6.825026e-01 -8.639479e-01 -5.045464e-01 -4.696753e-01 -1.441283e-01 -2.554216e-01 -2.622338e-01 -9.612012e-02 7.426606e-02
<VARIANCE> 39
 3.765491e+00 5.113571e+00 5.410499e+00 7.901751e+00 7.432117e+00 8.938797e+00 1.205845e+01 8.949823e+00 9.975167e+00 9.877285e+00 8.976358e+00 1.011953e+01 4.649302e-03 1.941782e+00 2.167526e+00 2.487127e+00 2.818933e+00 2.302453e+00 1.934541e+00 1.776890e+00 1.860647e+00 2.017297e+00 1.966219e+00 1.670731e+00 1.210324e+00 7.142963e-03 4.141242e-01 4.288163e-01 4.317714e-01 4.099316e-01 4.405342e-01 5.106341e-01 4.776964e-01 4.695236e-01 4.592802e-01 4.885909e-01 4.618995e-01 3.014877e-01 4.396124e-04
<GCONST> 7.656911e+01
<MIXTURE> 11 5.474820e-02
<MEAN> 39
 -1.937394e+01 -3.798927e+00 -7.835555e+00 -4.396173e+00 -5.487988e+00 -2.989901e+00 -1.849755e+00 -4.221498e+00 -4.370289e+00 -2.889956e+00 -3.124756e+00 -1.790493e+00 1.784573e-01 -2.731575e+00 -1.539581e+00 -1.434165e+00 -4.069233e-02 9.108557e-01 1.619777e+00 1.527164e+00 1.912928e+00 1.753437e+00 1.614922e+00 1.895105e+00 9.541948e-01 -4.423863e-02 9.732023e-01 -8.077499e-03 1.801467e-01 -6.418123e-01 -5.013649e-01 -7.388181e-01 -4.567022e-01 -2.525778e-02 -3.590129e-02 1.582698e-02 -2.791359e-01 2.089202e-01 4.029502e-02
<VARIANCE> 39
 1.578433e+01 1.957610e+01 2.105317e+01 1.746861e+01 1.786519e+01 1.760066e+01 2.533794e+01 2.031686e+01 1.653722e+01 2.012146e+01 1.597033e+01 1.284456e+01 4.388777e-02 1.634555e+00 1.945919e+00 2.475423e+00 1.810937e+00 2.905220e+00 3.385585e+00 2.109249e+00 2.189322e+00 2.651397e+00 2.563284e+00 2.357737e+00 2.846153e+00 4.409332e-03 3.613818e-01 6.039503e-01 6.993093e-01 5.905721e-01 6.269532e-01 6.795662e-01 8.787476e-01 6.723363e-01 7.547772e-01 9.010249e-01 7.347066e-01 4.475338e-01 1.005746e-03
<GCONST> 9.600108e+01
<MIXTURE> 12 8.406363e-02
<MEAN> 39
 -1.631256e+01 1.030513e+00 -6.838529e+00 -3.063812e+00 -3.318213e+00 -2.596440e+00 -2.430450e+00 -1.099252e+00 -1.087091e+00 -1.643059e+00 -2.353800e+00 -8.390388e-01 3.236429e-01 -4.304954e+00 -7.220332e-02 5.419866e-01 1.976629e+00 2.389624e-01 5.090898e-01 1.185953e+00 1.189200e+00 -5.818146e-01 -3.221158e-01 7.676825e-01 1.110660e+00 -1.167405e-01 6.918163e-01 -1.059986e+00 -4.064817e-01 -1.095132e+00 -2.897519e-01 5.498114e-03 -4.478234e-01 -1.752080e-01 1.215269e-01 2.238596e-01 -2.134690e-02 -2.516002e-01 2.724960e-02
<VARIANCE> 39
 1.151458e+01 8.741840e+00 1.038865e+01 9.654372e+00 1.083870e+01 1.105744e+01 8.826041e+00 1.175330e+01 1.187875e+01 1.150857e+01 9.157515e+00 7.316394e+00 2.559699e-02 1.700918e+00 2.124234e+00 2.318039e+00 3.316363e+00 2.375623e+00 4.188860e+00 5.062040e+00 3.142496e+00 3.091970e+00 3.015186e+00 3.517534e+00 2.692238e+00 2.575004e-03 2.593021e-01 2.948481e-01 3.864138e-01 4.979818e-01 4.216328e-01 5.972449e-01 5.725523e-01 4.621633e-01 4.143983e-01 4.361132e-01 4.575593e-01 4.374477e-01 3.603174e-04
<GCONST> 8.451415e+01
<MIXTURE> 13 4.774139e-02
<MEAN> 39
 -1.698360e+01 2.037330e+00 -3.298789e+00 -1.599213e+00 -5.433911e+00 -7.853571e+00 -6.746756e-01 -2.189039e+00 -3.275273e+00 -3.418149e+00 -2.033981e+00 8.802723e-01 3.724661e-01 -3.775868e+00 4.943978e-01 -3.065920e+00 -2.725716e-01 2.622709e+00 2.705810e+00 1.471355e+00 5.746346e-01 2.038680e+00 6.858473e-01 1.895877e-01 8.050183e-01 -1.001943e-01 4.494373e-01 -1.055008e+00 1.727684e-01 -6.661361e-01 -9.239905e-01 1.815513e-01 -7.904245e-01 2.338436e-01 -4.603421e-01 2.273349e-01 1.400538e-01 -4.369241e-01 1.388971e-02
<VARIANCE> 39
 9.113934e+00 6.482721e+00 1.248038e+01 1.210989e+01 1.571252e+01 2.591966e+01 1.736155e+01 1.566674e+01 1.558345e+01 9.594678e+00 1.537666e+01 1.545788e+01 2.183736e-02 1.479155e+00 2.186807e+00 3.191192e+00 2.368093e+00 2.844731e+00 2.227711e+00 4.023066e+00 3.702930e+00 3.415908e+00 1.921043e+00 3.052154e+00 2.211557e+00 2.063588e-03 1.853860e-01 2.365510e-01 4.596070e-01 2.574414e-01 4.285619e-01 6.725993e-01 5.968486e-01 4.666929e-01 4.104875e-01 4.808656e-01 5.155607e-01 4.711886e-01 2.212933e-04
<GCONST> 8.515842e+01
<MIXTURE> 14 3.183001e-02
<MEAN> 39
 -1.540675e+01 -2.577153e+00 -5.883677e+00 -4.791792e+00 -4.476779e+00 -3.665220e+00 -8.532918e-01 -3.815897e+00 -7.327511e+00 -3.729859e+00 -4.850996e+00 -4.328295e+00 1.118031e-01 -1.694345e+00 -2.028111e+00 -2.292256e+00 -1.119404e+00 1.570862e-01 -5.437288e-02 5.251144e-02 7.096680e-01 1.051303e+00 1.644495e-01 5.180759e-01 4.484708e-01 -1.352287e-03 2.513425e-01 -8.957491e-02 -2.784274e-02 -1.451452e-01 -2.660391e-01 -4.290654e-01 -2.558672e-01 9.681448e-02 5.087642e-01 4.876888e-01 3.909779e-01 3.633875e-01 3.622549e-02
<VARIANCE> 39
 2.556219e+01 2.433641e+01 6.269827e+01 4.017014e+01 4.721373e+01 1.594098e+01 3.295393e+01 3.932720e+01 4.214422e+01 2.489965e+01 1.238622e+01 1.470836e+01 1.174153e-02 2.999259e+00 3.067980e+00 4.429390e+00 3.138925e+00 5.212299e+00 1.245447e+00 4.125055e+00 3.143588e+00 5.825350e+00 2.831406e+00 2.908551e+00 3.409191e+00 3.188759e-03 6.908312e-01 6.049959e-01 1.639787e+00 7.977965e-01 1.417886e+00 4.909689e-01 9.605758e-01 1.054262e+00 1.361972e+00 6.389641e-01 3.933811e-01 4.193818e-01 4.627215e-04
<GCONST> 1.055096e+02
<MIXTURE> 15 6.236437e-02
<MEAN> 39
 -1.271814e+01 1.497726e+00 -5.279397e+00 -6.274939e+00 -1.139031e+00 -8.321571e+00 -4.922645e+00 -3.758152e+00 1.090477e+00 2.153184e+00 -3.235941e+00 -2.158197e+00 4.527615e-01 -5.040553e+00 1.687560e+00 -9.444196e-01 1.427009e+00 1.371783e+00 5.322555e-01 3.675152e+00 7.080719e-01 1.104200e-01 -1.270795e+00 -4.040540e-01 1.307765e+00 -1.085243e-01 1.823545e-01 -1.222121e+00 -2.705803e-01 -3.619204e-01 -8.227930e-01 6.098688e-01 -7.363443e-01 3.860686e-01 -3.110431e-01 -2.028701e-01 5.616294e-01 3.892487e-02 6.287198e-03
<VARIANCE> 39
 1.259364e+01 1.023317e+01 1.369179e+01 1.611691e+01 1.762006e+01 2.279120e+01 1.918135e+01 2.225804e+01 2.039142e+01 1.734531e+01 2.024800e+01 1.287817e+01 1.099196e-02 1.073313e+00 2.801946e+00 1.880640e+00 3.080642e+00 2.493719e+00 3.880807e+00 3.620790e+00 3.783606e+00 3.780816e+00 2.894071e+00 3.883313e+00 2.226312e+00 2.288904e-03 3.445399e-01 3.269569e-01 4.232593e-01 3.575967e-01 4.370173e-01 4.481442e-01 5.306969e-01 5.456965e-01 5.237649e-01 4.605878e-01 3.982519e-01 3.678025e-01 2.510096e-04
<GCONST> 8.854704e+01
<MIXTURE> 16 4.703799e-02
<MEAN> 39
 -2.290407e+01 -4.740862e+00 -7.854773e+00 -2.437145e+00 -3.318183e+00 -1.126489e+00 -2.112531e+00 -1.954912e-01 -5.208580e-01 -2.309968e-02 -3.539893e-01 -6.664358e-01 1.740802e-01 -2.401194e+00 -1.384449e+00 2.537301e-02 8.081046e-01 -1.604246e-01 -6.548365e-02 7.816043e-02 4.973142e-01 3.105297e-01 4.977658e-01 7.807356e-01 4.857076e-01 -4.628005e-02 1.585290e+00 9.462170e-02 -5.436801e-01 -1.381968e+00 -3.617161e-01 -1.294602e-01 -2.307393e-01 -3.702818e-01 1.321150e-03 -1.882535e-01 -3.865678e-01 -9.448734e-02 4.759794e-02
<VARIANCE> 39
 1.026485e+01 1.061414e+01 7.986441e+00 1.141136e+01 1.185645e+01 1.055865e+01 8.988271e+00 9.691795e+00 5.681544e+00 9.805903e+00 1.251574e+01 1.014322e+01 2.895398e-02 2.568268e+00 1.091508e+00 9.699570e-01 2.119829e+00 1.660927e+00 9.876752e-01 1.982394e+00 2.498346e+00 1.398258e+00 1.925021e+00 1.776590e+00 1.353079e+00 2.825111e-03 4.607365e-01 4.581298e-01 2.806577e-01 4.749410e-01 4.806276e-01 5.151927e-01 5.148208e-01 4.842599e-01 2.873791e-01 3.527710e-01 7.242804e-01 4.415217e-01 4.897796e-04
<GCONST> 7.793779e+01
<STATE> 3
<NUMMIXES> 16
<MIXTURE> 1 6.432229e-02
<MEAN> 39
 -2.148735e+01 -2.734108e+00 -8.868320e+00 -4.062849e+00 -3.856472e+00 -1.672910e+00 5.400405e-01 2.137593e+00 1.457201e+00 1.862213e-01 -1.213883e+00 9.923887e-01 3.344837e-01 5.342504e-02 2.373699e-01 5.601362e-01 3.854359e-01 4.176046e-01 5.613516e-01 3.830416e-01 2.069473e-01 1.487421e-01 2.768940e-01 7.090072e-02 5.845215e-02 -2.269400e-02 2.445712e-01 -9.524293e-04 1.737685e-01 -1.307219e-01 2.601020e-02 -2.110960e-01 -3.655316e-01 -4.778959e-01 -3.579604e-01 -1.577205e-01 -9.134444e-03 -1.762148e-01 -5.332185e-03
<VARIANCE> 39
 2.168672e+01 1.741547e+01 1.196169e+01 9.602399e+00 7.431774e+00 1.068544e+01 8.771365e+00 8.864502e+00 1.265759e+01 7.719595e+00 9.677672e+00 8.531334e+00 2.029568e-02 1.735204e+00 1.329891e+00 1.327055e+00 1.542240e+00 1.760104e+00 1.742217e+00 1.434350e+00 1.234821e+00 1.381165e+00 1.645082e+00 1.365365e+00 7.805905e-01 3.602296e-03 3.641801e-01 2.823663e-01 2.815782e-01 2.737055e-01 2.276663e-01 3.161291e-01 2.072990e-01 1.937343e-01 3.036377e-01 2.789228e-01 2.726249e-01 2.139288e-01 4.228287e-04
<GCONST> 7.092117e+01
<MIXTURE> 2 4.831389e-02
<MEAN> 39
 -1.900754e+01 -2.949070e+00 -8.880265e+00 -6.633215e+00 -5.191432e+00 -3.955185e+00 -7.506527e-01 7.020466e-01 4.401919e-01 1.236858e+00 9.658852e-02 1.109723e+00 2.213472e-01 -1.062258e+00 -1.430006e-01 1.183525e-01 1.373489e-01 2.717588e-02 -2.430290e-01 2.470687e-01 2.833017e-01 2.161999e-01 5.130531e-01 5.559395e-01 1.125850e+00 -1.042633e-02 6.398134e-01 -1.505074e-01 1.679935e-01 -1.041995e-01 -9.169646e-02 -1.973462e-01 -3.277807e-01 -3.969464e-01 -2.996966e-01 -3.077770e-01 -3.716407e-01 -3.544134e-01 1.833623e-02
<VARIANCE> 39
 2.533851e+01 2.040398e+01 3.094150e+01 1.876702e+01 3.440859e+01 2.439834e+01 3.067684e+01 2.243880e+01 3.543489e+01 2.306358e+01 2.709641e+01 2.629548e+01 3.849649e-02 3.425320e+00 2.356653e+00 3.040393e+00 2.588503e+00 2.945995e+00 2.536869e+00 4.017582e+00 3.068174e+00 4.044533e+00 3.373850e+00 3.262402e+00 2.616473e+00 5.705065e-03 6.618358e-01 4.890662e-01 6.868205e-01 5.456979e-01 8.552504e-01 9.388736e-01 1.013199e+00 5.446637e-01 9.356836e-01 6.445271e-01 8.038893e-01 7.670851e-01 7.594464e-04
<GCONST> 1.047447e+02
<MIXTURE> 3 7.905982e-02
<MEAN> 39
 -2.252508e+01 -3.470511e+00 -9.357121e+00 -5.126007e+00 -4.187045e+00 -3.442434e+00 -2.255738e+00 -2.403130e+00 -2.874810e+00 -4.563516e+00 -3.096614e+00 -9.433303e-01 3.142639e-01 2.201177e-01 -2.803986e-01 1.146148e-01 -2.846849e-01 1.001817e-01 -1.954145e-01 3.509547e-01 3.960394e-01 5.582560e-01 5.118386e-01 2.589519e-01 3.042747e-01 1.517436e-02 7.771353e-01 5.243762e-02 2.507255e-01 -1.159645e-01 -1.019530e-01 -2.516643e-01 -3.158450e-02 1.972247e-01 3.107409e-01 5.921900e-01 1.460262e-01 7.291617e-02 7.407192e-03
<VARIANCE> 39
 1.184787e+01 8.864317e+00 9.159431e+00 1.119588e+01 1.009730e+01 1.665890e+01 1.670623e+01 1.477108e+01 1.207156e+01 1.101946e+01 1.081017e+01 8.869542e+00 2.036138e-02 1.096707e+00 8.085807e-01 8.367696e-01 1.178476e+00 1.039882e+00 1.334977e+00 1.220781e+00 1.140883e+00 1.536088e+00 1.564308e+00 1.208360e+00 1.181622e+00 1.127568e-03 4.054598e-01 1.816452e-01 2.360166e-01 2.207980e-01 2.541637e-01 3.394951e-01 3.755389e-01 3.959635e-01 3.009774e-01 2.714295e-01 3.258236e-01 2.765709e-01 3.134013e-04
<GCONST> 6.922704e+01
<MIXTURE> 4 5.003449e-02
<MEAN> 39
 -2.074421e+01 -8.848651e-01 -6.854506e+00 -3.278925e+00 -1.678585e+00 -1.270562e+00 -3.284647e-01 -1.103398e+00 -1.208006e+00 -1.279402e+00 -1.187832e+00 -2.278757e-01 9.268870e-02 8.506342e-01 -8.026443e-01 -6.506091e-01 -8.197267e-01 -9.236156e-01 -1.013158e+00 -8.904243e-03 6.062570e-02 3.686416e-01 -3.871270e-01 -4.554204e-01 1.023367e-01 8.042566e-02 1.198002e+00 -3.607487e-01 1.457507e-01 -6.263481e-01 -8.258786e-01 -8.257324e-01 -6.845602e-01 -5.408474e-02 -3.885749e-02 1.513158e-02 -3.093067e-01 -1.792942e-01 5.004031e-02
<VARIANCE> 39
 1.126944e+01 8.954635e+00 5.599397e+00 7.462609e+00 1.279883e+01 1.085827e+01 1.098910e+01 1.190849e+01 1.128537e+01 8.843006e+00 8.228196e+00 7.889515e+00 2.683850e-02 2.210102e+00 1.086227e+00 2.213872e+00 1.329117e+00 1.790629e+00 1.606670e+00 1.731451e+00 2.014784e+00 1.621687e+00 1.730400e+00 1.253340e+00 1.292324e+00 4.038156e-03 4.215393e-01 2.721081e-01 5.055801e-01 3.749076e-01 3.710532e-01 3.911766e-01 5.479943e-01 5.329319e-01 3.758071e-01 4.709163e-01 4.738021e-01 4.236439e-01 4.668082e-04
<GCONST> 7.725754e+01
<MIXTURE> 5 8.758742e-02
<MEAN> 39
 -2.266992e+01 -7.131836e+00 -1.152130e+01 -7.106673e+00 -6.944644e+00 -4.816714e+00 -2.622372e+00 -1.027690e+00 1.028923e-02 -8.952714e-01 -9.033480e-01 8.750197e-01 3.131846e-01 1.089121e-01 -1.689115e-01 3.825125e-02 1.723034e-02 3.048945e-03 8.930857e-02 1.033102e-01 2.972246e-01 3.765274e-01 1.518110e-01 -1.678212e-02 -2.907583e-03 1.362400e-02 6.776379e-01 5.730255e-01 5.732298e-01 1.780810e-01 3.531165e-01 1.368045e-01 4.305271e-02 -9.577269e-02 -7.652859e-02 -5.081281e-02 -1.836292e-01 -2.446289e-01 3.748664e-03
<VARIANCE> 39
 8.748737e+00 9.250937e+00 6.728145e+00 7.470916e+00 6.835914e+00 9.773135e+00 9.790864e+00 9.410975e+00 8.933618e+00 6.479244e+00 5.122565e+00 6.010715e+00 1.670084e-02 1.653175e+00 1.257123e+00 1.092253e+00 1.381036e+00 1.325893e+00 1.418492e+00 1.209755e+00 1.154339e+00 9.962898e-01 1.216805e+00 1.102116e+00 1.181608e+00 1.859139e-03 3.581342e-01 2.098262e-01 1.943833e-01 2.898843e-01 2.064288e-01 2.693830e-01 3.213581e-01 2.814038e-01 2.102605e-01 2.240622e-01 1.681862e-01 2.220451e-01 3.971417e-04
<GCONST> 6.345270e+01
<MIXTURE> 6 6.400437e-02
<MEAN> 39
 -1.971545e+01 -1.426088e+00 -5.411552e+00 -1.753491e+00 -1.427477e+00 8.552828e-02 -1.119967e+00 3.906785e-01 -1.312369e-01 2.672875e-01 -5.010838e-01 -7.526874e-03 -1.233273e-01 -2.333197e-01 -3.592722e-01 -6.461576e-02 -6.157011e-02 1.596536e-02 1.054216e-01 -6.928030e-02 1.792219e-02 1.450251e-01 1.778539e-01 1.984597e-01 -5.938772e-02 -7.444788e-03 1.325970e-01 -4.202364e-02 -1.926609e-01 -2.671427e-01 -2.771077e-01 -3.484976e-01 -5.984072e-02 -1.859185e-01 -1.607863e-01 -1.282935e-01 -1.400169e-01 6.845116e-03 3.448104e-02
<VARIANCE> 39
 2.858289e+00 3.629358e+00 3.886372e+00 4.422013e+00 6.938719e+00 6.173210e+00 8.307589e+00 7.604272e+00 7.997952e+00 7.451094e+00 6.283651e+00 6.654200e+00 3.901006e-03 6.044993e-01 6.335296e-01 5.499452e-01 6.017898e-01 1.073517e+00 9.530054e-01 1.191884e+00 9.631363e-01 1.188106e+00 9.783146e-01 7.133343e-01 9.884967e-01 2.329465e-03 1.891722e-01 2.260553e-01 1.557916e-01 1.801751e-01 2.159270e-01 2.282464e-01 2.436438e-01 2.603253e-01 2.278886e-01 2.513448e-01 1.751242e-01 2.139902e-01 4.297769e-04
<GCONST> 5.248281e+01
<MIXTURE> 7 8.421225e-02
<MEAN> 39
 -2.185605e+01 -3.997782e+00 -1.056944e+01 -5.917565e+00 -4.927041e+00 -1.589934e+00 -8.105781e-01 -5.714251e-01 -8.059294e-01 1.592140e+00 1.634751e+00 1.453478e+00 1.802221e-01 -7.190929e-02 -8.626930e-01 -6.913078e-01 -8.187680e-01 -5.752765e-01 -1.835490e-01 7.169238e-02 2.234762e-01 2.287520e-01 1.607231e-01 4.604844e-01 4.378067e-01 3.614864e-02 9.445561e-01 2.856961e-01 6.558887e-01 1.004954e-02 -2.835869e-01 -7.382768e-01 -3.527983e-01 -2.304965e-01 -2.087879e-01 -6.785806e-01 -7.310783e-01 -3.232998e-01 3.156070e-02
<VARIANCE> 39
 1.273162e+01 1.395498e+01 7.301351e+00 1.065798e+01 1.470508e+01 1.123479e+01 9.003643e+00 1.135861e+01 1.223368e+01 9.470504e+00 8.878453e+00 7.371097e+00 2.979696e-02 1.440174e+00 1.430712e+00 1.794368e+00 1.434809e+00 1.463266e+00 1.701771e+00 1.464913e+00 1.420869e+00 1.464314e+00 1.492519e+00 1.372030e+00 9.608990e-01 3.193473e-03 3.999330e-01 3.444279e-01 3.034992e-01 3.643874e-01 3.325980e-01 3.952776e-01 3.768260e-01 3.746373e-01 4.589695e-01 3.368139e-01 3.002881e-01 2.732490e-01 5.586768e-04
<GCONST> 7.496386e+01
<MIXTURE> 8 6.239858e-02
<MEAN> 39
 -1.899533e+01 -8.029256e+00 -1.092939e+01 -8.279577e+00 -6.806265e+00 -3.307828e+00 -2.245530e+00 -8.040836e-01 -1.088819e+00 -8.948342e-01 2.769863e-01 5.811520e-01 3.122973e-01 2.107898e+00 -2.598073e-01 -3.881537e-01 -1.657556e+00 -1.744599e+00 -1.884895e+00 -7.168817e-01 -5.755805e-01 -2.359147e-02 -6.208715e-01 -8.380243e-01 -2.570682e-01 1.398724e-01 8.630608e-01 4.862958e-01 6.783625e-01 2.767005e-02 -1.412850e-01 -4.925232e-01 -3.040071e-01 -6.478488e-02 -7.147863e-02 5.086343e-02 -5.245254e-01 -3.415880e-01 1.044864e-02
<VARIANCE> 39
 9.359431e+00 1.266158e+01 7.956922e+00 8.814726e+00 1.051983e+01 8.729480e+00 7.346151e+00 8.991382e+00 6.154395e+00 6.565621e+00 6.085189e+00 6.229226e+00 1.275667e-02 2.568408e+00 2.190408e+00 1.584573e+00 2.042562e+00 1.731352e+00 2.749715e+00 1.783080e+00 1.563143e+00 1.986687e+00 1.966747e+00 1.370954e+00 1.422251e+00 3.193631e-03 2.417961e-01 4.713832e-01 3.725163e-01 5.394592e-01 5.549370e-01 6.102937e-01 5.340762e-01 4.501453e-01 3.971056e-01 4.218836e-01 3.659539e-01 3.769079e-01 4.747653e-04
<GCONST> 7.645200e+01
<MIXTURE> 9 6.585178e-02
<MEAN> 39
 -2.149190e+01 -3.785098e-01 -6.461534e+00 -2.995898e+00 -4.339386e+00 -2.257915e+00 -2.758222e+00 -1.309986e+00 -2.240112e+00 -2.061579e+00 -2.594144e+00 -2.515952e-01 2.349371e-01 -2.150796e-01 -2.353129e-01 1.426693e-01 -1.906604e-01 1.938448e-01 2.483045e-01 7.850607e-02 -1.486297e-01 -1.442690e-01 -3.137878e-01 -1.008795e-01 -1.510588e-01 4.258626e-03 3.736814e-01 -3.770965e-01 -2.379958e-01 -4.047924e-01 7.375839e-02 -1.471993e-01 2.149459e-01 1.237355e-01 1.732134e-01 1.661826e-01 1.384358e-01 6.751575e-02 1.361955e-02
<VARIANCE> 39
 1.270153e+01 9.979763e+00 1.587003e+01 9.458800e+00 9.611936e+00 8.273202e+00 8.055268e+00 9.033566e+00 7.815269e+00 7.522114e+00 6.420874e+00 7.712967e+00 3.007820e-02 1.511238e+00 1.579783e+00 1.099472e+00 1.216743e+00 1.150024e+00 1.298793e+00 1.181145e+00 1.084325e+00 8.765283e-01 9.612924e-01 9.784968e-01 1.189715e+00 2.202198e-03 3.048427e-01 1.778966e-01 2.830673e-01 2.105002e-01 2.629161e-01 2.394485e-01 2.087427e-01 2.523087e-01 1.644145e-01 1.633212e-01 2.071204e-01 2.489469e-01 3.325727e-04
<GCONST> 6.430393e+01
<MIXTURE> 10 6.605987e-02
<MEAN> 39
 -2.217551e+01 -3.686270e+00 -9.451878e+00 -5.913831e+00 -4.890023e+00 -5.330544e+00 -3.570818e+00 -1.109031e+00 -7.055486e-01 4.027871e-01 -2.421065e-01 8.151660e-01 3.130353e-01 -7.801651e-02 1.018351e-02 -1.827683e-02 -3.008412e-02 -2.194234e-01 -2.592292e-01 -1.932562e-01 -2.797470e-01 -3.981127e-01 -4.139093e-01 -5.673941e-01 -3.263294e-01 -7.395367e-04 1.974094e-01 -5.010511e-02 6.243092e-02 -3.405537e-03 1.308552e-01 1.866410e-01 2.731226e-01 8.267328e-02 -6.725454e-02 -2.862664e-01 -2.677573e-01 -1.636291e-01 2.409013e-03
<VARIANCE> 39
 1.595960e+01 1.572264e+01 9.273832e+00 9.085093e+00 1.421258e+01 1.453455e+01 7.139212e+00 1.202594e+01 1.418480e+01 1.311752e+01 1.095551e+01 1.044457e+01 2.420222e-02 5.938756e-01 5.158093e-01 5.757389e-01 9.106427e-01 9.852067e-01 1.154739e+00 1.116003e+00 1.337884e+00 1.240003e+00 1.299965e+00 1.185730e+00 1.022516e+00 3.139920e-04 1.002934e-01 1.316193e-01 1.266862e-01 1.552653e-01 2.165431e-01 2.226745e-01 1.713452e-01 1.994236e-01 2.255277e-01 2.466042e-01 2.285880e-01 2.044051e-01 1.191183e-04
<GCONST> 5.931647e+01
<MIXTURE> 11 8.383648e-02
<MEAN> 39
 -2.321589e+01 -3.181459e+00 -7.855673e+00 -4.326605e+00 -3.383419e+00 -1.205209e+00 -1.380157e-02 1.476771e+00 4.602006e-01 8.852412e-01 6.061593e-01 1.115731e+00 1.737197e-01 -6.555600e-02 -2.472114e-01 -1.633116e-01 -3.527388e-01 -1.299415e-01 -9.378479e-02 -3.339205e-02 -2.735216e-01 -1.235311e-01 -1.312648e-01 -9.134397e-02 6.914290e-02 4.107534e-03 5.743127e-01 3.714992e-02 -3.131766e-02 -1.077810e-01 -1.938875e-01 -2.901541e-01 -2.667249e-01 -3.746166e-01 -2.585074e-01 -3.519324e-01 -3.641733e-01 -2.000897e-01 1.655115e-02
<VARIANCE> 39
 8.800422e+00 9.781579e+00 7.670706e+00 6.789432e+00 1.083486e+01 6.174634e+00 7.099739e+00 6.996258e+00 6.847332e+00 7.093449e+00 6.468218e+00 9.627855e+00 3.269631e-02 9.281444e-01 6.748675e-01 7.143916e-01 9.644937e-01 9.733446e-01 9.940813e-01 1.039063e+00 1.678855e+00 1.358772e+00 1.224339e+00 1.212041e+00 1.441510e+00 1.879646e-03 2.523803e-01 1.483797e-01 1.961087e-01 2.106795e-01 2.907743e-01 2.110660e-01 1.607880e-01 2.072690e-01 1.967914e-01 2.085022e-01 1.732692e-01 2.502276e-01 2.498041e-04
<GCONST> 5.997149e+01
<MIXTURE> 12 5.354111e-02
<MEAN> 39
 -2.231539e+01 -6.162394e+00 -8.943383e+00 -6.705563e+00 -4.039814e+00 -3.449106e+00 -1.102140e+00 1.773278e+00 -1.004604e+00 -2.470194e+00 -1.916784e+00 1.074825e+00 2.491331e-01 -1.713677e-01 -1.331148e+00 -1.232908e+00 -1.231741e+00 -9.698532e-01 -7.685673e-01 -1.980968e-02 3.071354e-01 4.804540e-01 -1.377392e-01 1.456979e-01 5.323588e-01 4.617748e-02 1.223947e+00 5.299987e-01 4.377888e-01 2.693775e-02 -1.948679e-01 -4.630824e-01 -5.325984e-01 -7.317877e-01 -6.788655e-02 3.737781e-01 -4.893650e-02 -4.073409e-01 2.401480e-02
<VARIANCE> 39
 1.449311e+01 9.960169e+00 1.636181e+01 2.168659e+01 1.909945e+01 1.755605e+01 1.951527e+01 1.271146e+01 1.185105e+01 1.129697e+01 7.952302e+00 7.154175e+00 2.997223e-02 2.678167e+00 1.738253e+00 2.111861e+00 2.017718e+00 2.363939e+00 1.429859e+00 2.109530e+00 2.230603e+00 2.459596e+00 1.806585e+00 1.757093e+00 1.622813e+00 4.379269e-03 3.596756e-01 3.097938e-01 5.437432e-01 7.474393e-01 5.129950e-01 7.222785e-01 6.443921e-01 3.253217e-01 4.385216e-01 3.540068e-01 2.748406e-01 3.099549e-01 6.343628e-04
<GCONST> 8.480451e+01
<MIXTURE> 13 4.976859e-02
<MEAN> 39
 -2.291864e+01 -3.640007e+00 -1.224924e+01 -8.509824e+00 -5.568169e+00 -6.095871e+00 1.690814e+00 -1.605503e+00 1.885750e+00 -1.782162e-01 3.653353e-01 1.790735e+00 4.150463e-01 -5.186868e-01 -7.581162e-01 7.182704e-02 -1.076084e+00 -3.774365e-01 -4.572673e-01 9.782938e-02 -2.532899e-03 3.957079e-01 3.670113e-01 -1.120173e-01 2.655089e-01 3.812032e-02 8.587159e-01 1.455730e-01 1.259716e+00 4.001037e-01 4.588433e-03 9.771849e-02 -6.751564e-01 -2.093418e-01 -7.385425e-01 -2.507411e-01 -4.973684e-01 -4.640865e-01 -9.443783e-03
<VARIANCE> 39
 1.531524e+01 1.839502e+01 1.094212e+01 1.972300e+01 2.259399e+01 1.666126e+01 1.261218e+01 1.381644e+01 1.111325e+01 1.086517e+01 1.039733e+01 1.229207e+01 1.517232e-02 2.120308e+00 1.740352e+00 3.533206e+00 2.115850e+00 2.442937e+00 2.578424e+00 2.171890e+00 1.974140e+00 1.964439e+00 1.617316e+00 1.682871e+00 1.365932e+00 3.937170e-03 5.870489e-01 4.666126e-01 3.104632e-01 5.730096e-01 6.009631e-01 5.441212e-01 4.978740e-01 4.156817e-01 4.134367e-01 3.602519e-01 4.536017e-01 3.605550e-01 5.894580e-04
<GCONST> 8.543855e+01
<MIXTURE> 14 4.441010e-02
<MEAN> 39
 -2.107076e+01 -2.849167e+00 -6.620395e+00 -1.922715e+00 -2.731601e+00 -8.876539e-01 -1.342760e+00 1.628541e-01 -2.007369e-01 7.292458e-01 4.467714e-01 5.975080e-01 -4.970636e-02 2.317549e-01 -1.889500e+00 -1.523825e+00 -1.981649e+00 -1.200600e+00 -1.102798e+00 -4.462015e-01 -4.416490e-01 -3.144110e-01 -4.725764e-01 -5.664936e-02 1.703422e-01 9.680206e-02 6.924623e-01 1.044007e-01 -1.174325e-01 -5.346509e-01 -2.811283e-01 -4.197137e-01 -1.586603e-01 -2.008391e-01 -1.163683e-02 -1.471777e-01 -3.255816e-01 -2.139345e-01 4.715548e-02
<VARIANCE> 39
 8.925265e+00 1.050303e+01 9.052747e+00 7.708965e+00 1.068379e+01 7.892706e+00 8.545959e+00 7.627722e+00 6.999258e+00 7.343014e+00 6.755825e+00 4.978767e+00 1.467444e-02 1.270079e+00 1.478209e+00 1.008624e+00 1.035942e+00 1.143170e+00 1.141417e+00 1.290695e+00 1.186384e+00 7.704098e-01 1.196853e+00 1.030612e+00 8.614499e-01 2.503551e-03 3.343534e-01 2.855553e-01 2.382471e-01 2.539097e-01 2.798162e-01 2.994586e-01 3.111558e-01 2.567654e-01 2.933891e-01 2.482809e-01 1.966017e-01 1.518705e-01 6.235768e-04
<GCONST> 6.381308e+01
<MIXTURE> 15 5.438399e-02
<MEAN> 39
 -2.297801e+01 -3.664572e+00 -8.696635e+00 -4.996488e+00 -4.405319e+00 -2.324350e+00 -1.503846e+00 -1.233183e+00 -2.399701e+00 -2.960286e+00 -3.298658e+00 -1.672423e+00 1.987642e-01 -1.406368e-01 -3.562917e-01 -3.556072e-01 -3.923780e-01 -3.728348e-01 -1.780734e-01 -2.525963e-01 -2.740126e-01 -5.990883e-01 -4.770035e-01 -9.444571e-02 -1.955610e-02 9.640257e-03 5.712622e-01 7.270736e-02 8.431280e-02 -1.079519e-01 -8.607483e-02 -2.194456e-01 -9.660064e-02 9.187885e-02 2.805393e-01 3.076695e-01 2.442686e-01 1.940708e-01 1.513152e-02
<VARIANCE> 39
 1.084856e+01 1.033444e+01 7.379005e+00 8.159567e+00 6.771369e+00 9.426641e+00 6.910442e+00 6.792399e+00 6.503342e+00 4.204309e+00 7.837903e+00 1.137271e+01 2.627113e-02 7.632646e-01 6.190594e-01 7.397533e-01 7.240524e-01 1.010220e+00 8.690295e-01 1.108473e+00 1.066240e+00 8.572297e-01 1.089930e+00 1.081959e+00 1.053239e+00 9.639364e-04 2.622093e-01 1.079560e-01 1.698789e-01 1.796308e-01 1.769778e-01 2.400639e-01 1.718405e-01 2.092735e-01 2.127697e-01 1.309126e-01 2.454082e-01 3.065749e-01 4.157753e-04
<GCONST> 5.694876e+01
<MIXTURE> 16 4.221130e-02
<MEAN> 39
 -1.697014e+01 -3.614166e+00 -1.114498e+01 -9.291079e+00 -6.808782e+00 -4.666420e+00 -3.709080e+00 -2.909743e+00 -2.321911e+00 -1.616228e+00 -3.483007e+00 -1.068049e+00 2.840250e-01 -2.687452e-02 -3.364660e-01 -3.052980e-01 -2.600656e-01 -2.208438e-01 -3.794490e-01 -1.858860e-02 -3.418741e-01 6.160637e-02 4.345035e-02 7.876645e-02 -1.392917e-01 1.592878e-02 -4.752329e-02 7.254866e-02 3.702185e-01 4.166859e-01 2.603651e-01 1.321849e-01 2.903060e-01 2.853367e-01 1.722846e-01 5.412596e-02 2.976833e-01 9.483309e-02 1.952859e-03
<VARIANCE> 39
 3.284069e+01 2.465678e+01 1.232999e+01 7.666416e+00 9.313004e+00 1.166873e+01 8.868316e+00 8.304057e+00 1.010511e+01 7.187811e+00 7.577261e+00 6.832892e+00 3.394862e-02 9.077103e-01 8.669236e-01 1.393750e+00 1.393226e+00 1.016408e+00 1.188583e+00 8.248325e-01 1.424722e+00 8.492221e-01 1.221636e+00 1.327780e+00 1.292714e+00 2.034209e-03 3.305029e-01 3.493511e-01 2.350999e-01 2.207112e-01 2.664357e-01 2.323306e-01 1.857961e-01 2.829376e-01 2.254673e-01 2.169790e-01 1.923487e-01 1.630942e-01 2.657092e-04
<GCONST> 6.635574e+01
<STATE> 4
<NUMMIXES> 16
<MIXTURE> 1 7.906535e-02
<MEAN> 39
 -1.945378e+01 -1.680572e+00 -5.921031e+00 -5.046063e+00 -6.283671e-01 -5.053382e+00 1.377942e-01 -1.623570e-01 -1.338524e+00 -5.167189e-01 -1.543057e+00 1.480799e-01 2.607295e-01 1.227764e+00 -8.020423e-03 1.036674e+00 3.773088e-01 4.382697e-01 4.882736e-01 -5.450699e-01 2.870987e-01 1.337241e-02 5.192408e-01 3.059532e-01 -1.423542e-01 -5.385231e-02 1.028957e-01 -2.481264e-01 -1.952245e-01 1.880893e-02 -3.298103e-01 2.676126e-01 -2.842514e-01 -6.831641e-02 8.175453e-02 -3.034919e-02 4.053424e-02 -8.069196e-02 -8.155000e-03
<VARIANCE> 39
 1.346395e+01 1.283520e+01 8.171059e+00 1.540659e+01 1.480369e+01 1.523324e+01 1.862320e+01 1.579449e+01 1.983870e+01 1.287061e+01 1.546408e+01 9.528939e+00 3.492577e-02 1.147693e+00 2.386194e+00 2.398275e+00 1.939636e+00 1.481542e+00 2.337795e+00 2.626827e+00 1.649757e+00 2.459216e+00 1.434501e+00 1.596556e+00 1.662615e+00 4.742241e-03 2.698464e-01 4.115905e-01 2.989091e-01 4.349165e-01 3.576911e-01 3.183924e-01 4.764271e-01 4.463108e-01 4.681281e-01 3.646362e-01 3.756240e-01 2.862545e-01 7.271597e-04
<GCONST> 8.290432e+01
<MIXTURE> 2 5.345084e-02
<MEAN> 39
 -1.384225e+01 -2.339794e+00 -7.122993e+00 -6.991021e+00 -3.716263e+00 -3.816000e+00 -2.979324e+00 -1.331424e-01 1.349218e+00 4.681868e-01 -3.075802e+00 -1.727201e+00 4.571633e-01 4.697615e+00 -5.674217e-01 5.053131e-02 -1.470393e+00 -1.327525e+00 -8.128322e-01 -1.504445e+00 -1.126845e+00 4.255649e-01 8.982667e-01 -2.973294e-02 -1.582169e+00 1.110282e-01 1.779566e-01 -5.847341e-01 -2.038535e-01 -2.337230e-01 -4.565138e-01 -8.093833e-02 -2.444533e-01 -2.906244e-01 -2.366343e-01 -1.679827e-01 2.190544e-01 -4.097806e-02 4.258029e-03
<VARIANCE> 39
 1.867981e+01 1.097652e+01 1.048807e+01 1.577023e+01 1.321692e+01 1.204685e+01 1.055073e+01 1.631366e+01 1.827709e+01 2.107339e+01 1.261259e+01 8.777667e+00 2.375276e-02 1.709584e+00 2.607113e+00 3.615158e+00 4.086107e+00 2.530735e+00 5.496937e+00 5.129224e+00 4.424331e+00 4.039708e+00 3.930120e+00 3.207300e+00 2.706445e+00 2.370615e-03 4.601310e-01 3.099100e-01 2.332606e-01 4.596324e-01 3.249545e-01 3.656543e-01 4.548499e-01 5.188665e-01 6.634845e-01 4.382897e-01 3.799093e-01 2.739574e-01 3.322948e-04
<GCONST> 8.880918e+01
<MIXTURE> 3 5.779820e-02
<MEAN> 39
 -9.757129e+00 -2.053652e+00 -2.406182e+00 -3.283346e+00 -1.047683e+01 -1.236318e+01 -5.747002e+00 -2.989254e+00 -1.842796e+00 -3.916286e+00 -3.478610e+00 -8.039808e-01 5.948351e-01 3.742144e+00 -1.290076e+00 2.854572e+00 -1.787119e-02 -3.444406e+00 -2.670380e+00 -2.881052e+00 -8.369894e-02 -1.256719e+00 -8.529515e-01 1.615766e-01 -4.875434e-01 1.112880e-01 -6.208894e-01 -5.933565e-01 -2.300807e-03 -3.454934e-01 -2.719738e-01 6.297911e-01 -2.138803e-03 4.465539e-01 -2.926114e-01 9.563573e-02 3.988934e-01 9.451211e-02 -1.529315e-02
<VARIANCE> 39
 1.081960e+01 1.395859e+01 1.631432e+01 1.495581e+01 1.289706e+01 1.948885e+01 2.171506e+01 1.577552e+01 2.214944e+01 1.307848e+01 7.591930e+00 1.335429e+01 1.290011e-02 1.501953e+00 2.768583e+00 3.853450e+00 2.556138e+00 3.520357e+00 3.323856e+00 3.175937e+00 2.628283e+00 3.967297e+00 2.914802e+00 3.223560e+00 2.776592e+00 1.372867e-03 2.430157e-01 2.110482e-01 3.423486e-01 2.230535e-01 2.498139e-01 4.121623e-01 4.221300e-01 3.385234e-01 4.434052e-01 3.433038e-01 2.176163e-01 2.417709e-01 2.424289e-04
<GCONST> 8.292169e+01
<MIXTURE> 4 9.124193e-02
<MEAN> 39
 -2.090653e+01 -5.930187e+00 -9.138623e+00 -4.965200e+00 -3.625115e+00 -2.898735e+00 -1.763045e+00 -6.304236e-01 -3.284622e-01 -1.710878e+00 -2.732827e+00 -1.170930e-01 3.263196e-01 3.105179e+00 6.039352e-01 5.378777e-01 -3.626056e-01 -1.747401e-01 -9.141181e-01 -1.023511e+00 -7.253440e-01 3.690539e-01 4.129635e-02 -5.048417e-01 -8.665133e-01 7.149987e-02 1.325772e+00 -8.406677e-02 7.563817e-02 -4.459048e-01 -6.068607e-01 -4.725608e-01 -7.235301e-01 -2.564704e-01 5.555650e-02 1.275646e-01 1.319868e-01 -3.430251e-01 2.785643e-02
<VARIANCE> 39
 1.348557e+01 2.023773e+01 9.772761e+00 1.141565e+01 9.277473e+00 1.380978e+01 9.972319e+00 8.592440e+00 1.146798e+01 1.421184e+01 1.195903e+01 1.073437e+01 1.651324e-02 2.254268e+00 1.646520e+00 1.586089e+00 1.859842e+00 1.724536e+00 2.568938e+00 2.085679e+00 2.028855e+00 1.642965e+00 1.820960e+00 1.819111e+00 1.876870e+00 1.889823e-03 2.291617e-01 4.959995e-01 4.728079e-01 4.080884e-01 3.947337e-01 4.983371e-01 4.818783e-01 4.078425e-01 5.019572e-01 4.687985e-01 4.675055e-01 5.031940e-01 3.116639e-04
<GCONST> 8.048609e+01
<MIXTURE> 5 6.117978e-02
<MEAN> 39
 -1.911708e+01 -9.269487e+00 -8.048395e-01 -7.120223e+00 -9.204432e+00 -4.354757e+00 1.791635e+00 -1.254991e+00 -2.865268e+00 7.600698e-01 -1.551771e+00 -2.564460e+00 4.194592e-01 4.132782e+00 -9.233226e-01 3.793668e-01 1.757110e+00 -5.026411e-01 -2.582067e+00 -2.725855e+00 -3.780753e-01 -9.997659e-01 -9.847276e-01 -2.047879e-02 -6.417651e-01 2.135532e-02 1.165685e+00 1.627066e-01 -1.131640e+00 2.852727e-02 6.321551e-01 -6.622949e-01 -1.599666e+00 7.354780e-02 2.295498e-01 -4.596176e-01 4.831712e-02 4.047458e-01 1.636245e-02
<VARIANCE> 39
 2.751166e+01 1.617639e+01 1.970656e+01 2.819491e+01 1.862575e+01 2.191507e+01 2.175894e+01 2.266783e+01 2.034056e+01 1.797464e+01 1.967346e+01 1.111536e+01 1.249460e-02 4.922502e+00 1.991099e+00 3.935772e+00 2.402282e+00 4.417278e+00 5.000175e+00 6.100394e+00 2.870894e+00 3.129906e+00 2.621827e+00 1.993544e+00 2.563932e+00 1.499512e-03 5.442563e-01 3.975554e-01 6.616615e-01 8.117765e-01 7.401251e-01 8.150535e-01 9.741423e-01 7.606654e-01 5.754416e-01 5.388523e-01 5.439152e-01 3.641869e-01 2.923962e-04
<GCONST> 9.705074e+01
<MIXTURE> 6 4.978283e-02
<MEAN> 39
 -1.889440e+01 -7.737231e+00 -1.051991e+01 -9.110581e+00 -7.241077e+00 -4.892704e+00 -3.123190e+00 -6.688021e-01 2.555924e-02 -3.373398e-01 1.727146e+00 1.694742e+00 3.104689e-01 7.663823e-01 3.060320e-02 2.096746e-01 1.906720e-01 7.223466e-01 2.315854e-01 6.118058e-01 3.570456e-01 5.569144e-01 -1.607719e-01 -4.175497e-01 3.905323e-03 1.812161e-02 2.450542e-01 4.830956e-01 4.750217e-01 5.577081e-01 4.914201e-01 2.493558e-01 1.343265e-01 -9.359145e-02 -1.119541e-01 -9.014059e-02 -6.362004e-01 -3.673850e-01 -1.139930e-02
<VARIANCE> 39
 1.106665e+01 1.170406e+01 7.385350e+00 8.589214e+00 1.058069e+01 1.164354e+01 1.542581e+01 2.480539e+01 1.568716e+01 2.118338e+01 1.295977e+01 2.331767e+01 1.934555e-02 1.580349e+00 1.832720e+00 1.390235e+00 1.821132e+00 1.268443e+00 1.760393e+00 2.545939e+00 2.680762e+00 1.957189e+00 1.505216e+00 1.836251e+00 2.318151e+00 3.421273e-03 4.142925e-01 2.814449e-01 2.670607e-01 3.185989e-01 2.498626e-01 3.899949e-01 5.113673e-01 8.118769e-01 4.829725e-01 4.734633e-01 2.990481e-01 6.756740e-01 7.695428e-04
<GCONST> 8.252628e+01
<MIXTURE> 7 5.344945e-02
<MEAN> 39
 -5.598669e+00 -4.727798e+00 -1.016736e+01 -9.451052e+00 -7.872755e+00 -8.552969e+00 -8.221698e+00 -3.591688e+00 1.484304e+00 2.370021e+00 -3.190137e+00 -6.392008e+00 7.138115e-01 4.292145e+00 -2.209058e+00 2.467727e-02 -1.635753e+00 -1.590823e+00 -1.122123e+00 -2.807321e+00 -1.110773e-01 5.327481e-01 7.339618e-01 -9.949494e-02 -1.954710e+00 1.198172e-01 -8.811968e-01 -5.018837e-01 1.126715e-01 5.092366e-02 3.397209e-02 3.716216e-01 3.361205e-01 4.528876e-01 -2.217813e-01 -4.230908e-01 2.089906e-01 5.914432e-01 -2.547679e-02
<VARIANCE> 39
 6.539635e+00 1.291046e+01 1.922685e+01 1.651400e+01 1.236234e+01 2.867425e+01 3.204432e+01 2.502709e+01 2.061867e+01 1.384751e+01 1.977678e+01 1.234214e+01 9.253082e-03 1.798139e+00 2.635089e+00 3.672496e+00 3.990402e+00 2.593204e+00 4.902675e+00 6.941617e+00 5.448866e+00 5.099852e+00 2.906547e+00 4.901299e+00 3.370656e+00 1.262422e-03 2.573759e-01 2.622220e-01 3.546143e-01 3.380740e-01 3.111100e-01 3.541815e-01 4.724665e-01 3.977171e-01 3.618915e-01 4.145562e-01 4.159130e-01 2.526981e-01 1.764185e-04
<GCONST> 8.865572e+01
<MIXTURE> 8 4.963797e-02
<MEAN> 39
 -1.047364e+01 -2.483761e+00 -6.326191e+00 -8.865319e+00 -1.406216e+01 -9.700687e+00 -4.254556e+00 -2.348907e+00 -4.292938e+00 -5.985347e+00 -3.688607e+00 8.144102e-02 6.376811e-01 3.365859e+00 -2.003968e+00 1.347100e+00 -3.216098e+00 -3.671571e+00 -3.403359e+00 -1.196830e+00 1.576409e-01 -1.340205e+00 -5.312489e-01 -2.491714e+00 -9.387032e-02 1.394143e-01 -5.502514e-01 -5.902563e-01 2.234011e-01 -3.726830e-01 4.138340e-01 4.744953e-01 3.112134e-01 2.688947e-01 -1.270594e-01 7.510171e-01 -8.087652e-02 -1.478086e-01 -1.930295e-02
<VARIANCE> 39
 1.276900e+01 1.539714e+01 1.591139e+01 2.254396e+01 2.722467e+01 2.218047e+01 1.854173e+01 1.671513e+01 1.959434e+01 1.480418e+01 1.650047e+01 1.132913e+01 1.597412e-02 1.484697e+00 3.310053e+00 3.960541e+00 3.201132e+00 3.074036e+00 3.173905e+00 4.243774e+00 4.493436e+00 3.323776e+00 3.467672e+00 2.856083e+00 2.750117e+00 2.000417e-03 3.437749e-01 2.710731e-01 3.005356e-01 4.043322e-01 4.454249e-01 5.469212e-01 4.476114e-01 4.721186e-01 3.261178e-01 3.243254e-01 3.946869e-01 2.542594e-01 2.632731e-04
<GCONST> 8.915882e+01
<MIXTURE> 9 7.472664e-02
<MEAN> 39
 -2.093335e+01 -4.488906e+00 -9.307560e+00 -7.881855e+00 -6.034880e+00 -5.503251e+00 6.337894e-01 2.403757e-02 8.328426e-01 -4.584849e-01 -2.454063e+00 1.522996e+00 3.449852e-01 2.917839e+00 5.221318e-01 2.222944e+00 6.130722e-01 -4.459001e-01 -1.597188e+00 -7.564121e-01 -2.983829e-01 -3.758743e-01 -5.219477e-01 -8.844498e-01 -5.721871e-01 5.969141e-02 1.146842e+00 -2.852626e-01 8.156089e-01 3.484744e-01 -5.828854e-01 -2.886401e-01 -1.147396e+00 -1.305668e-01 -4.994995e-01 -2.811279e-01 1.446988e-01 -3.467462e-01 1.411961e-02
<VARIANCE> 39
 9.906116e+00 1.130410e+01 1.023842e+01 1.297661e+01 1.834235e+01 1.409069e+01 1.673486e+01 1.475982e+01 1.547113e+01 1.077332e+01 1.340791e+01 1.160540e+01 1.369812e-02 1.722164e+00 2.076745e+00 2.407274e+00 1.799457e+00 1.758023e+00 1.657168e+00 1.980876e+00 1.555669e+00 2.160109e+00 2.181390e+00 1.685848e+00 1.602777e+00 1.880167e-03 3.094138e-01 3.143201e-01 4.030121e-01 3.754810e-01 5.607302e-01 4.171368e-01 4.061348e-01 4.766369e-01 5.108041e-01 4.294757e-01 5.708831e-01 3.815193e-01 3.103907e-04
<GCONST> 8.099219e+01
<MIXTURE> 10 8.633677e-02
<MEAN> 39
 -2.258398e+01 -6.791386e+00 -4.812111e+00 -1.027756e+01 -4.066181e+00 -3.745768e+00 -1.319054e+00 -6.842919e-01 -7.090775e-01 6.459810e-01 -1.974381e+00 -2.269991e-01 4.385763e-01 3.903601e-01 -1.632000e+00 1.084284e+00 -1.878434e-01 -9.233716e-01 2.434848e-02 1.723622e-01 6.266551e-02 -2.486446e-01 1.310093e-01 -2.670721e-01 -3.826538e-01 -2.625823e-03 7.484390e-01 8.674821e-02 -2.416534e-01 6.668577e-01 -1.057016e-01 -2.646542e-01 -3.103808e-01 -1.030426e-01 -5.263267e-02 -2.449847e-01 4.940532e-02 -8.886945e-02 -6.743361e-03
<VARIANCE> 39
 1.537511e+01 1.949308e+01 1.223706e+01 1.373161e+01 2.416974e+01 2.150542e+01 2.070079e+01 1.327507e+01 1.295608e+01 2.044166e+01 1.547744e+01 1.227333e+01 1.145548e-02 1.573856e+00 1.392728e+00 2.515466e+00 2.424760e+00 2.704043e+00 1.761844e+00 2.343076e+00 1.917686e+00 1.731133e+00 2.396399e+00 2.244564e+00 1.496539e+00 9.103768e-04 5.060830e-01 4.237819e-01 3.098846e-01 3.695112e-01 6.221297e-01 5.544705e-01 6.408709e-01 3.745367e-01 2.987255e-01 5.419093e-01 4.590625e-01 3.572262e-01 2.406046e-04
<GCONST> 8.386049e+01
<MIXTURE> 11 7.718399e-02
<MEAN> 39
 -1.862392e+01 -2.462762e+00 -6.755538e+00 -5.535202e+00 -4.783740e+00 -1.673495e+00 3.378236e-01 -1.050923e+00 -1.461650e+00 -1.063669e+00 9.076568e-01 4.841277e-01 3.011487e-01 3.077232e+00 -5.789965e-02 1.474123e+00 -1.473099e+00 -2.343961e+00 -2.195037e+00 -1.475518e+00 -1.284905e+00 -1.531346e+00 -9.842322e-01 -1.663705e+00 -3.659689e-01 9.989811e-02 7.005894e-01 -4.690737e-01 3.083607e-01 -6.962373e-01 -8.260636e-01 -7.317371e-01 -6.733674e-01 -1.507550e-01 -5.510957e-01 -3.615579e-02 -6.929299e-01 -1.672900e-01 2.053804e-02
<VARIANCE> 39
 1.397079e+01 1.838541e+01 1.783263e+01 2.431202e+01 2.323712e+01 1.816446e+01 1.510093e+01 2.180362e+01 1.926927e+01 1.639759e+01 1.211352e+01 1.590067e+01 3.449479e-02 2.895198e+00 3.033614e+00 4.317766e+00 4.467776e+00 4.509801e+00 4.239457e+00 3.418692e+00 3.557260e+00 3.359099e+00 2.579821e+00 3.003200e+00 2.409836e+00 2.576291e-03 3.314334e-01 5.267512e-01 6.000555e-01 8.157709e-01 4.404518e-01 6.745469e-01 5.883744e-01 6.400946e-01 5.627830e-01 4.533108e-01 5.012777e-01 4.453947e-01 5.859269e-04
<GCONST> 9.659013e+01
<MIXTURE> 12 4.189261e-02
<MEAN> 39
 -1.998248e+01 -8.056486e+00 -8.738673e+00 -1.825710e+00 -2.663301e+00 -9.823997e+00 -1.839983e+00 2.195953e+00 3.506212e+00 -1.029197e+00 -3.223918e+00 1.368804e+00 3.244542e-01 8.110228e-01 -6.301132e-01 2.207534e-02 9.134167e-01 2.133188e+00 -1.750573e-01 -1.193023e+00 9.133634e-02 -2.268225e-01 5.668849e-01 -5.828103e-01 -1.900880e-01 -1.129551e-02 6.306015e-01 5.107546e-01 5.201463e-02 -5.559300e-01 4.122255e-03 8.508436e-01 -3.763415e-01 -6.840047e-01 -8.215468e-01 1.534406e-01 2.413149e-01 -4.175641e-01 -5.258881e-03
<VARIANCE> 39
 1.547517e+01 3.300057e+01 1.300903e+01 2.959251e+01 2.796553e+01 1.910441e+01 4.273956e+01 2.370761e+01 2.312144e+01 2.427897e+01 2.780869e+01 2.857904e+01 2.464800e-02 4.700345e+00 2.993447e+00 3.159521e+00 4.813560e+00 2.717139e+00 3.260114e+00 5.938262e+00 4.446562e+00 3.449386e+00 3.375878e+00 2.945821e+00 2.438100e+00 3.135706e-03 8.057579e-01 5.047097e-01 3.263124e-01 9.163325e-01 7.760879e-01 6.179604e-01 1.084270e+00 7.787628e-01 7.396922e-01 6.572874e-01 7.613931e-01 5.471560e-01 1.121506e-03
<GCONST> 1.044548e+02
<MIXTURE> 13 6.149382e-02
<MEAN> 39
 -2.751561e+00 -1.184805e+01 -4.445015e+00 -1.308433e+01 -1.164097e+01 -5.092408e+00 -1.713063e+01 4.533327e-01 1.993631e+00 2.633372e+00 1.709714e-02 -9.133064e+00 7.692236e-01 2.883874e+00 -3.075361e+00 8.357313e-01 -9.764184e-01 -1.792970e+00 -1.388767e-02 -3.250593e+00 1.368255e+00 -1.598568e-01 -3.173968e-01 1.099649e+00 -1.008260e+00 6.937783e-02 -1.188357e+00 3.088539e-01 -4.339544e-01 6.922147e-01 5.656891e-01 -7.015328e-02 1.194479e+00 2.457395e-01 -3.027247e-01 -5.768138e-01 -1.054194e-01 1.174346e+00 -3.393773e-02
<VARIANCE> 39
 7.485323e+00 1.311926e+01 3.532547e+01 1.813945e+01 1.844041e+01 3.414573e+01 3.715316e+01 2.375498e+01 2.659473e+01 2.464608e+01 3.236617e+01 2.221075e+01 1.396775e-02 2.546782e+00 1.527959e+00 3.268437e+00 3.403964e+00 2.482218e+00 3.164009e+00 6.226401e+00 3.160530e+00 1.792319e+00 2.429484e+00 2.672264e+00 3.230616e+00 1.303004e-03 2.075687e-01 3.190075e-01 6.518190e-01 3.975239e-01 3.631883e-01 5.092623e-01 5.346130e-01 5.589220e-01 5.545660e-01 3.722380e-01 5.614299e-01 3.301864e-01 1.267812e-04
<GCONST> 9.134212e+01
<MIXTURE> 14 4.907827e-02
<MEAN> 39
 -1.287923e+01 -2.758206e-02 -4.961032e+00 -6.061342e+00 -5.309990e+00 -8.713426e+00 -4.901671e+00 -2.874324e+00 4.583284e-01 -7.048185e-01 -4.732543e+00 -1.841079e+00 5.390962e-01 5.072074e+00 -1.713630e+00 2.038426e+00 -4.931499e-01 -2.203702e+00 -1.134851e+00 -4.268769e+00 6.983616e-02 -1.108706e-01 2.491171e-02 1.382928e-01 -1.810586e+00 1.052324e-01 5.720790e-02 -1.086439e+00 -7.228015e-02 -1.370561e-02 -4.599693e-01 3.798638e-01 -6.085693e-01 4.873806e-01 -1.482959e-01 -1.103898e-01 5.863473e-01 5.931399e-02 -7.706280e-03
<VARIANCE> 39
 9.090561e+00 6.606647e+00 1.502022e+01 9.937007e+00 9.032327e+00 1.391380e+01 1.690793e+01 1.596358e+01 1.353718e+01 1.921631e+01 8.913883e+00 1.226992e+01 1.548288e-02 1.154743e+00 2.056966e+00 4.148012e+00 3.754227e+00 2.512112e+00 3.515833e+00 2.884442e+00 3.783669e+00 4.197046e+00 3.899570e+00 3.894154e+00 1.895031e+00 1.427717e-03 2.681634e-01 2.243110e-01 3.310164e-01 3.684651e-01 3.532719e-01 2.827749e-01 4.205840e-01 4.764446e-01 3.359045e-01 4.600274e-01 3.514042e-01 3.830166e-01 2.622154e-04
<GCONST> 8.277396e+01
<MIXTURE> 15 6.367217e-02
<MEAN> 39
 -1.867947e+01 -3.716719e+00 -9.272565e+00 -7.261917e+00 -4.861547e+00 -6.011145e+00 -2.369972e-01 -2.309143e-01 4.579286e-01 -1.303261e+00 -2.746796e+00 1.593298e+00 3.613155e-01 4.146074e+00 -8.967098e-01 1.431205e+00 -8.402872e-01 -2.235196e+00 -1.753874e+00 -3.055000e+00 -1.294207e-01 1.357905e-01 -5.814642e-02 -2.683003e-01 -1.584853e+00 1.399257e-01 8.375829e-01 -6.142614e-01 7.256645e-01 -1.168970e-01 -6.404210e-01 1.226914e-01 -1.212340e+00 2.668453e-01 -2.453164e-01 1.660250e-01 3.701392e-01 -6.452820e-01 7.237306e-03
<VARIANCE> 39
 9.144690e+00 8.795673e+00 1.079089e+01 1.215699e+01 1.786155e+01 1.761859e+01 1.046955e+01 1.453087e+01 1.153698e+01 1.286031e+01 8.700677e+00 9.925049e+00 1.712140e-02 1.448478e+00 1.528737e+00 2.911548e+00 1.893575e+00 2.270988e+00 2.974570e+00 2.449058e+00 2.029993e+00 2.375401e+00 1.965419e+00 2.351481e+00 2.023657e+00 1.874139e-03 3.033572e-01 3.091888e-01 4.715670e-01 4.290437e-01 4.388001e-01 6.996893e-01 4.840668e-01 5.998404e-01 3.863849e-01 3.759578e-01 4.547739e-01 3.577437e-01 4.423815e-04
<GCONST> 8.209528e+01
<MIXTURE> 16 5.000816e-02
<MEAN> 39
 -1.899071e+01 -5.080855e+00 -1.276194e+01 -8.085550e+00 -5.713398e+00 -5.127764e+00 -7.625898e-01 -1.856138e+00 -7.164752e-01 -2.866644e+00 -3.187965e+00 3.612366e-01 3.775622e-01 7.462690e-01 1.488636e-01 9.916544e-01 -5.163267e-01 -2.308356e-01 -1.229194e+00 -3.900585e-01 3.339305e-01 5.686377e-02 6.929351e-02 -4.411806e-01 -3.955341e-01 3.661252e-02 2.846931e-01 2.855841e-01 1.160351e+00 6.322976e-01 1.379716e-01 6.178880e-02 -4.677256e-01 1.649412e-01 -7.178469e-02 3.632474e-01 2.158478e-01 -2.030897e-01 -1.766523e-02
<VARIANCE> 39
 1.954926e+01 2.810564e+01 1.516445e+01 1.473290e+01 1.593706e+01 1.707760e+01 2.317980e+01 1.367457e+01 1.569361e+01 1.758439e+01 1.021836e+01 7.673955e+00 2.008583e-02 3.426290e+00 2.580944e+00 3.012746e+00 2.333453e+00 1.905199e+00 2.773703e+00 3.402679e+00 2.662036e+00 1.746737e+00 2.194431e+00 1.502385e+00 1.187482e+00 2.968082e-03 5.210609e-01 7.170104e-01 3.431166e-01 4.650566e-01 4.942446e-01 4.922124e-01 4.886825e-01 4.614280e-01 3.928921e-01 4.333912e-01 2.696641e-01 2.369788e-01 4.786442e-04
<GCONST> 8.704778e+01
<TRANSP> 5
 0.000000e+00 1.000000e+00 0.000000e+00 0.000000e+00 0.000000e+00
 0.000000e+00 6.728141e-01 3.271859e-01 0.000000e+00 0.000000e+00
 0.000000e+00 0.000000e+00 7.569543e-01 2.430458e-01 0.000000e+00
 0.000000e+00 0.000000e+00 0.000000e+00 6.671065e-01 3.328935e-01
 0.000000e+00 0.000000e+00 0.000000e+00 0.000000e+00 0.000000e+00
<ENDHMM>
