~o
<STREAMINFO> 1 39
<VECSIZE> 39<NULLD><MFCC_E_D_A><DIAGC>
~h "uh"
<BEGINHMM>
<NUMSTATES> 5
<STATE> 2
<NUMMIXES> 16
<MIXTURE> 1 7.915522e-02
<MEAN> 39
 -1.661442e+00 -5.054185e+00 -5.794993e+00 -2.708564e+01 -6.746202e+00 2.669354e+00 -9.531755e+00 -6.466223e+00 -6.986854e+00 5.623309e+00 4.042622e-02 2.308580e+00 7.927695e-01 -1.551083e-01 -2.256699e-01 4.146089e-02 -9.605419e-02 3.336720e-01 -7.137106e-02 -8.896769e-02 2.251556e-01 5.460098e-01 2.825467e-01 4.606734e-02 -2.454092e-01 2.841319e-04 2.388491e-02 5.793214e-02 -2.433445e-02 1.618381e-01 -4.589343e-02 -5.112988e-02 1.116951e-02 7.327490e-02 -1.279415e-01 -1.435513e-01 -1.452836e-03 -8.832073e-02 -3.843092e-03
<VARIANCE> 39
 2.844867e+00 3.242109e+01 3.354251e+01 7.784657e+01 6.399934e+01 5.486940e+01 1.912266e+01 3.293069e+01 5.245116e+01 3.038379e+01 3.273926e+01 2.288054e+01 8.332227e-03 1.081872e-01 2.134707e-01 2.420079e-01 8.628405e-01 8.863866e-01 8.451255e-01 6.647897e-01 7.968904e-01 1.824233e+00 9.619483e-01 4.720393e-01 8.911508e-01 2.405916e-04 1.772071e-02 4.638744e-02 5.580698e-02 1.408954e-01 1.692041e-01 1.118737e-01 1.158087e-01 1.140739e-01 1.828119e-01 1.397012e-01 1.014014e-01 1.174734e-01 2.925598e-05
<GCONST> 5.420831e+01
<MIXTURE> 2 8.775519e-02
<MEAN> 39
 -1.678986e+00 -9.324692e+00 -9.327226e+00 -1.899780e+01 -4.612656e+00 -9.908509e+00 -1.353557e+01 -2.443196e+00 -5.222445e+00 6.749853e+00 -6.268807e+00 -4.778698e+00 7.845045e-01 1.127317e+00 -1.022384e+00 -7.767614e-02 -2.124425e+00 -2.870490e-01 -3.284615e-01 -7.025251e-01 5.126481e-01 -1.019987e-01 1.699290e+00 -7.561607e-02 -3.860541e-01 5.188913e-02 -9.248062e-01 1.851715e-01 2.702083e-01 8.144876e-01 4.874274e-03 3.063599e-01 8.536397e-01 5.114292e-02 2.524103e-01 -6.451911e-01 3.246623e-01 3.972702e-01 -2.782646e-02
<VARIANCE> 39
 6.487528e+00 2.467643e+01 3.212711e+01 4.962361e+01 2.418017e+01 5.669767e+01 4.016203e+01 5.323001e+01 4.497324e+01 4.076967e+01 6.499457e+01 2.612491e+01 1.228312e-02 1.608583e+00 2.501341e+00 2.820908e+00 4.182196e+00 3.291318e+00 4.282790e+00 5.530131e+00 4.198239e+00 4.585962e+00 2.396049e+00 3.666048e+00 1.774314e+00 1.859160e-03 3.152142e-01 3.967885e-01 2.724865e-01 4.995521e-01 3.717972e-01 6.184086e-01 4.923476e-01 9.060388e-01 7.381281e-01 4.654032e-01 6.913037e-01 3.609104e-01 1.972842e-04
<GCONST> 9.986418e+01
<MIXTURE> 3 5.698277e-02
<MEAN> 39
 -2.642631e+00 -1.244349e+01 -2.488719e+00 -1.083023e+01 -1.130727e+01 -1.478255e+01 -1.548345e+01 1.538491e+00 -3.536037e-01 1.917535e-01 3.043349e-03 -5.430802e+00 7.848216e-01 2.501259e-01 9.231998e-02 -8.358055e-01 -3.534442e-01 2.720796e-01 1.029707e+00 -2.943107e-01 -2.687045e-01 6.955924e-01 1.226460e+00 -3.311715e-01 -5.448143e-01 1.921273e-03 -1.495000e-01 2.193207e-01 1.339494e-01 2.117296e-01 -6.250340e-02 2.615990e-01 3.615710e-01 -1.365544e-01 -3.589891e-01 -3.528175e-02 -1.011829e-01 1.815951e-01 -8.443403e-03
<VARIANCE> 39
 5.610781e+00 1.788363e+01 2.767291e+01 4.304936e+01 2.566605e+01 5.053119e+01 2.896692e+01 3.583512e+01 7.700246e+01 4.250614e+01 5.608470e+01 4.578430e+01 9.271685e-03 1.978358e-01 3.725566e-01 1.534497e+00 8.116376e-01 1.605094e+00 1.471280e+00 1.267805e+00 1.555071e+00 1.729241e+00 1.521207e+00 1.230425e+00 1.720296e+00 2.272492e-04 5.190452e-02 8.588121e-02 1.380451e-01 1.623093e-01 2.829300e-01 2.919385e-01 3.139309e-01 3.803115e-01 2.976636e-01 2.934172e-01 3.016195e-01 3.215492e-01 5.874207e-05
<GCONST> 7.287827e+01
<MIXTURE> 4 6.174352e-02
<MEAN> 39
 9.797718e-01 -4.782864e+00 -6.721502e+00 -2.309118e+01 -1.396631e+01 6.230002e+00 -6.969103e+00 -8.373172e+00 -9.093066e+00 -1.501816e-01 3.971633e+00 2.538274e+00 7.435489e-01 1.693731e+00 -5.301005e-01 7.244735e-01 -2.759634e+00 -2.058345e+00 1.393137e+00 -1.356417e+00 -3.992741e-01 -5.333872e-01 2.987958e-01 5.895820e-01 2.252298e-01 6.098057e-02 -1.046225e+00 -3.162742e-01 -2.599253e-01 1.124057e+00 9.255127e-01 -6.623596e-01 -3.938989e-02 5.931917e-01 6.100103e-01 1.983196e-01 -2.815538e-01 -4.690381e-01 -2.605775e-02
<VARIANCE> 39
 6.717385e+00 2.372692e+01 2.469958e+01 4.422170e+01 2.980933e+01 2.665907e+01 3.833978e+01 2.585151e+01 3.498115e+01 3.800964e+01 3.181100e+01 2.727320e+01 1.355142e-02 2.207400e+00 1.642716e+00 2.116678e+00 4.700782e+00 3.865169e+00 3.989684e+00 4.291696e+00 2.457017e+00 2.393057e+00 4.074303e+00 2.108486e+00 2.107774e+00 1.286778e-03 2.572143e-01 4.190437e-01 4.037532e-01 4.988956e-01 6.140455e-01 4.465159e-01 6.247299e-01 3.672369e-01 4.569712e-01 5.656863e-01 4.202142e-01 3.783392e-01 1.479360e-04
<GCONST> 9.416216e+01
<MIXTURE> 5 7.683478e-02
<MEAN> 39
 -4.493860e+00 -1.202533e+01 -4.105232e+00 -1.637340e+01 -1.262908e+01 -1.489162e+01 -9.114915e+00 4.780226e+00 -3.609524e+00 4.212844e-01 -8.939556e+00 2.922823e-02 7.707687e-01 -2.820081e-01 1.362257e-01 4.381282e-01 6.418875e-02 -3.959837e-01 -1.950459e-01 8.660187e-01 7.989524e-02 -3.976141e-01 -6.778190e-01 4.059225e-01 5.601906e-01 -4.885525e-03 4.761210e-02 1.899955e-01 8.884658e-02 1.894716e-02 2.986179e-02 -1.004357e-02 -1.512290e-01 -3.146831e-01 -1.504392e-01 1.068341e-01 1.304635e-01 -8.069077e-02 -4.835427e-03
<VARIANCE> 39
 4.743705e+00 1.394051e+01 2.370009e+01 3.124258e+01 2.747896e+01 2.981144e+01 7.944005e+01 4.005132e+01 2.745076e+01 2.172502e+01 2.546943e+01 2.048219e+01 1.496384e-02 1.263923e-01 2.704558e-01 7.034796e-01 4.549708e-01 1.041311e+00 1.016257e+00 6.266453e-01 1.101945e+00 1.444077e+00 1.553715e+00 9.253336e-01 8.100601e-01 1.887900e-04 2.204002e-02 4.483396e-02 8.733940e-02 7.147837e-02 1.493818e-01 1.218543e-01 1.796158e-01 1.487243e-01 2.120474e-01 2.105789e-01 1.500658e-01 1.325776e-01 2.122855e-05
<GCONST> 5.540034e+01
<MIXTURE> 6 6.612234e-02
<MEAN> 39
 -4.927122e-01 -1.072649e+01 -4.564281e+00 -1.346569e+01 -1.615914e+01 -2.544436e-01 -1.561299e+01 -6.188941e+00 -1.507719e+00 -3.927331e+00 8.054471e+00 -4.582156e+00 8.212799e-01 4.071750e-02 -3.852755e-01 6.435780e-02 -3.125477e-01 -8.314451e-02 6.138505e-02 -5.076967e-01 1.884115e-01 2.700995e-01 4.518496e-01 3.308549e-01 -4.279872e-01 1.159318e-02 -3.388877e-01 3.796997e-01 -2.396226e-03 4.156887e-01 6.823952e-01 -4.417885e-01 4.396006e-01 2.094063e-01 -2.148135e-01 2.016465e-01 -7.246873e-01 1.154525e-01 -1.739992e-02
<VARIANCE> 39
 9.244275e+00 2.043226e+01 3.258920e+01 7.961954e+01 3.197365e+01 1.055276e+02 2.575663e+01 4.044548e+01 8.198582e+01 5.117841e+01 3.054066e+01 2.306674e+01 6.743503e-03 2.383083e-01 3.955777e-01 6.305140e-01 7.665324e-01 9.311876e-01 1.023616e+00 8.800763e-01 9.758207e-01 1.021110e+00 1.179369e+00 1.212423e+00 7.823375e-01 2.507897e-04 1.147627e-01 1.219766e-01 1.581119e-01 2.691095e-01 3.189718e-01 3.823859e-01 2.377338e-01 3.951789e-01 4.636201e-01 3.946527e-01 2.638106e-01 1.992574e-01 6.189249e-05
<GCONST> 7.207635e+01
<MIXTURE> 7 5.035906e-02
<MEAN> 39
 -1.919400e+00 -1.084606e+01 -7.923583e+00 -1.128889e+01 -1.364647e+01 -5.461197e+00 -1.506138e+01 -1.179008e+01 5.926494e+00 -1.411511e+00 5.525809e+00 -5.507365e+00 8.405486e-01 -8.075029e-02 -1.105228e+00 1.138049e+00 1.397637e+00 -4.514489e-01 -1.441697e+00 -1.572882e+00 1.419763e+00 4.371310e-01 -4.265947e-01 -6.257097e-01 -4.251041e-01 -3.200985e-03 -5.899343e-01 6.589701e-01 4.477661e-01 7.012131e-01 8.691409e-01 -2.670797e-03 5.641844e-01 8.361279e-01 -1.066500e+00 -1.408470e-01 -8.662177e-01 4.448637e-01 -3.702429e-02
<VARIANCE> 39
 6.703778e+00 1.863849e+01 3.195130e+01 4.158253e+01 1.828702e+01 6.220996e+01 2.021332e+01 4.924912e+01 6.830676e+01 3.716340e+01 3.870353e+01 3.747638e+01 9.609044e-03 4.038832e-01 9.266237e-01 1.246000e+00 2.763651e+00 2.539233e+00 3.866184e+00 1.767347e+00 2.596218e+00 4.927058e+00 2.498345e+00 3.898685e+00 2.284482e+00 9.361067e-04 2.620279e-01 4.357407e-01 3.196030e-01 4.806479e-01 5.842811e-01 9.526423e-01 5.798318e-01 9.764265e-01 7.110304e-01 6.506854e-01 6.670495e-01 4.694190e-01 1.503538e-04
<GCONST> 9.396304e+01
<MIXTURE> 8 6.782818e-02
<MEAN> 39
 -3.269692e+00 -1.364958e+01 2.112543e+00 -6.836510e+00 -1.610439e+01 -1.244702e+01 -1.726683e+01 2.459719e+00 -5.596325e+00 -3.543122e+00 -7.412735e-01 -2.711738e+00 7.699698e-01 2.247933e+00 -1.910744e+00 -3.204687e-01 -3.613444e-01 -7.350249e-01 -4.890184e-01 -2.484153e+00 5.779572e-01 1.655968e-02 3.442823e-01 3.686011e-01 -6.658372e-01 4.181433e-02 -1.494725e+00 6.739241e-01 -3.545803e-01 -9.760517e-02 9.237708e-01 7.639161e-01 1.112296e+00 -3.023731e-01 3.844806e-01 2.955375e-01 -7.800259e-02 1.074457e-01 -2.157805e-02
<VARIANCE> 39
 1.064607e+01 1.296573e+01 3.919804e+01 2.698488e+01 3.896912e+01 2.757195e+01 3.622148e+01 3.391691e+01 4.779571e+01 3.285992e+01 2.988679e+01 2.587992e+01 8.771977e-03 2.268448e+00 2.091083e+00 3.067017e+00 2.722128e+00 4.079287e+00 2.328865e+00 3.058552e+00 2.256882e+00 2.215902e+00 3.266452e+00 2.650569e+00 2.582136e+00 8.503328e-04 3.091912e-01 4.298447e-01 5.503504e-01 3.619983e-01 4.600564e-01 4.421542e-01 5.585800e-01 5.645996e-01 4.220331e-01 4.620087e-01 4.052164e-01 3.386774e-01 2.096083e-04
<GCONST> 9.316154e+01
<MIXTURE> 9 5.516234e-02
<MEAN> 39
 1.349170e+00 -5.723028e+00 -1.214101e+01 -2.104487e+01 -1.581911e+01 4.923158e+00 -6.526882e+00 -9.087504e+00 -3.595545e+00 -3.898280e+00 1.048305e+01 -8.268992e+00 8.081146e-01 -1.840837e-01 -3.885970e-01 -2.283370e-01 -3.187218e-01 5.180762e-01 1.316020e-01 -1.148567e-01 2.554332e-01 1.691304e-01 -6.672467e-03 3.372221e-01 -3.692124e-01 -1.241963e-03 -3.724056e-02 2.264591e-02 1.818837e-01 8.412687e-02 1.972508e-01 -2.132249e-01 -3.357881e-02 9.446818e-02 -1.522836e-01 2.039822e-01 -3.209340e-01 1.157986e-01 -5.772855e-03
<VARIANCE> 39
 4.486686e+00 1.850204e+01 2.377641e+01 3.444279e+01 2.508780e+01 2.274135e+01 5.683128e+01 2.726964e+01 2.454686e+01 3.116839e+01 5.057944e+01 3.347855e+01 6.748507e-03 1.553255e-01 3.458914e-01 4.443493e-01 6.186013e-01 7.241617e-01 1.106065e+00 1.260158e+00 8.381426e-01 7.153336e-01 1.239479e+00 8.364095e-01 9.804556e-01 1.387593e-04 4.400989e-02 6.638396e-02 8.724020e-02 1.304828e-01 1.314723e-01 1.722433e-01 1.811204e-01 1.467049e-01 1.523438e-01 1.678111e-01 1.992791e-01 1.341254e-01 3.158916e-05
<GCONST> 5.661036e+01
<MIXTURE> 10 5.043502e-02
<MEAN> 39
 -2.993303e+00 -1.332487e+01 -1.000709e+01 -2.237973e+01 -3.804042e+00 -1.489113e+01 -8.360442e+00 2.766326e-01 2.476398e+00 5.755816e+00 -1.420339e+01 -1.644384e+00 8.452347e-01 -3.718304e-01 -5.050887e-01 7.528800e-01 2.293446e-01 -7.328814e-01 -8.742591e-01 1.287253e+00 3.466889e-01 -8.821150e-02 -1.228941e+00 5.965945e-02 5.565326e-01 -1.332844e-03 -1.111507e-01 4.021497e-01 7.405081e-02 3.480213e-01 -1.837394e-01 6.082602e-02 -7.904532e-02 -4.988873e-01 -5.676209e-01 -1.942816e-01 4.755416e-01 3.873999e-02 -1.341661e-02
<VARIANCE> 39
 6.545941e+00 9.630110e+00 1.240889e+01 4.413419e+01 3.806228e+01 3.071021e+01 3.593581e+01 2.472894e+01 2.149679e+01 5.327727e+01 2.710386e+01 1.991246e+01 1.011688e-02 2.103798e-01 7.488612e-01 6.432620e-01 6.741210e-01 7.615055e-01 1.391859e+00 1.603537e+00 1.580583e+00 1.262139e+00 1.669731e+00 1.779159e+00 1.253489e+00 2.007058e-04 7.801222e-02 1.309866e-01 7.022101e-02 2.070576e-01 1.236445e-01 2.656556e-01 2.305204e-01 3.199545e-01 2.340854e-01 3.646903e-01 3.600245e-01 2.263571e-01 9.049711e-05
<GCONST> 6.694397e+01
<MIXTURE> 11 7.066309e-02
<MEAN> 39
 -6.344896e+00 -1.222928e+01 1.548540e+00 -1.121422e+01 -1.605247e+01 -1.427791e+01 -1.412371e+01 3.099534e+00 -7.217666e+00 5.106893e-01 -3.482351e+00 -1.901727e+00 8.578420e-01 -1.530874e-01 -2.470311e-01 -2.642809e-02 -6.498328e-01 1.426460e-01 2.052757e-02 -1.519632e-01 5.567153e-02 4.842437e-01 2.641566e-01 -1.209845e-01 7.005972e-02 9.500530e-03 -1.927031e-01 4.000472e-01 -5.495302e-02 3.895093e-01 4.192030e-01 2.066419e-01 2.725494e-01 -4.500634e-01 -4.886407e-03 -3.345321e-01 -1.980837e-01 -4.695262e-03 -1.967812e-02
<VARIANCE> 39
 8.528860e+00 1.490034e+01 2.244714e+01 4.842031e+01 4.092236e+01 4.031723e+01 9.477169e+01 3.330865e+01 1.568102e+01 4.047829e+01 4.362526e+01 2.261205e+01 5.888300e-03 1.958292e-01 4.760826e-01 1.257962e+00 6.268734e-01 6.101012e-01 7.511762e-01 1.034369e+00 1.236125e+00 1.453132e+00 1.009502e+00 9.818463e-01 9.622515e-01 3.082272e-04 1.330745e-01 1.947760e-01 2.094877e-01 1.766979e-01 1.821171e-01 1.986432e-01 4.117106e-01 2.828367e-01 2.430410e-01 1.949289e-01 2.375174e-01 2.110905e-01 8.593888e-05
<GCONST> 6.846513e+01
<MIXTURE> 12 6.743973e-02
<MEAN> 39
 -2.231307e+00 -6.585914e+00 -9.943476e+00 -1.712449e+01 -8.687127e+00 -3.176821e+00 -9.853084e+00 -1.194932e+01 -4.750513e-01 5.829308e+00 3.368641e+00 -4.066042e+00 8.361790e-01 -2.896809e-01 -7.657318e-01 -1.056531e-01 1.073949e+00 3.318456e-01 -1.433478e+00 -5.101171e-01 7.911491e-01 7.585798e-01 5.376059e-01 -6.759176e-01 -9.998801e-01 -7.308424e-04 -1.278094e-01 1.587169e-01 2.603512e-01 4.345136e-01 -1.686592e-02 -1.336373e-01 -3.113964e-02 3.199964e-01 -3.349943e-01 -5.047626e-01 -2.640348e-01 6.581567e-02 -1.206810e-02
<VARIANCE> 39
 7.955275e+00 3.105556e+01 4.403271e+01 4.942616e+01 2.969521e+01 4.346017e+01 6.422412e+01 2.926731e+01 3.259817e+01 4.662492e+01 4.166116e+01 2.554465e+01 1.018721e-02 2.662082e-01 7.314624e-01 7.618480e-01 1.403653e+00 1.495229e+00 1.581789e+00 1.962675e+00 1.066498e+00 2.221264e+00 2.207426e+00 1.948139e+00 1.126736e+00 3.211180e-04 7.322170e-02 1.429734e-01 1.995648e-01 2.921823e-01 3.215677e-01 2.916739e-01 3.933452e-01 2.725829e-01 4.151494e-01 5.820722e-01 3.120010e-01 2.183898e-01 6.744322e-05
<GCONST> 7.793485e+01
<MIXTURE> 13 5.178477e-02
<MEAN> 39
 -3.110112e+00 -1.162846e+01 -4.380554e+00 -1.384947e+01 -1.034753e+01 -8.986703e+00 -1.895633e+01 9.531924e-01 -2.788537e+00 6.272016e+00 -5.661121e+00 -4.347154e+00 7.999156e-01 -4.768000e-01 -9.015278e-01 1.880466e+00 1.666098e+00 -1.381141e+00 -2.083815e+00 1.609208e-01 1.555005e+00 1.167346e+00 -2.088011e+00 -1.468376e+00 6.618627e-01 -1.108004e-02 -1.033281e-01 9.570984e-01 -2.081748e-02 4.067734e-01 1.895676e-01 4.467240e-01 1.107604e+00 -8.993835e-01 -6.324780e-01 -8.617139e-01 3.908857e-01 3.906929e-01 -2.871310e-02
<VARIANCE> 39
 6.042603e+00 2.544345e+01 3.519827e+01 4.075860e+01 3.232848e+01 5.666766e+01 4.885098e+01 5.979656e+01 3.629258e+01 4.325067e+01 7.619893e+01 3.006311e+01 9.208190e-03 4.404518e-01 1.241496e+00 1.802453e+00 2.681095e+00 2.825553e+00 2.756505e+00 2.700639e+00 3.500342e+00 5.556836e+00 3.638077e+00 4.209938e+00 1.825808e+00 3.756188e-04 2.254492e-01 3.405356e-01 3.419037e-01 6.443615e-01 5.532343e-01 1.195998e+00 1.000165e+00 8.135104e-01 6.717622e-01 6.865297e-01 8.616828e-01 4.598687e-01 1.384189e-04
<GCONST> 9.702773e+01
<MIXTURE> 14 5.869707e-02
<MEAN> 39
 -5.517274e+00 -7.662939e+00 -3.643823e+00 -1.464372e+01 -1.276614e+01 -1.871290e+01 -6.030880e+00 -4.762015e+00 -7.956531e+00 -2.364517e+00 -9.477928e+00 -1.465940e+00 7.826395e-01 2.245752e+00 -1.296728e+00 2.193428e-01 -2.756807e+00 -1.908491e+00 -2.021677e+00 -9.077241e-01 -6.538350e-03 -7.794291e-01 8.388783e-01 -1.085308e+00 -1.345200e-01 7.459889e-02 -9.961585e-01 -2.294106e-01 -1.240036e-01 3.901965e-01 5.627835e-01 8.264757e-01 2.621654e-01 6.609035e-01 6.432710e-01 4.679703e-01 7.153856e-01 3.127036e-01 -1.674336e-02
<VARIANCE> 39
 5.875794e+00 1.069631e+01 3.937896e+01 3.920293e+01 3.683995e+01 3.704919e+01 4.671710e+01 3.068947e+01 4.126459e+01 3.018182e+01 3.785566e+01 2.670047e+01 8.811031e-03 2.064229e+00 3.429993e+00 1.688586e+00 2.786758e+00 4.544681e+00 3.083559e+00 4.602089e+00 2.921774e+00 3.111598e+00 3.366555e+00 3.522236e+00 2.402597e+00 8.195742e-04 2.387769e-01 3.813429e-01 2.457256e-01 5.346881e-01 4.722900e-01 6.693561e-01 4.887234e-01 4.691716e-01 5.404543e-01 5.472267e-01 4.363696e-01 4.758925e-01 2.261911e-04
<GCONST> 9.484908e+01
<MIXTURE> 15 4.898473e-02
<MEAN> 39
 -1.782193e+00 -9.137659e+00 -5.937103e+00 -1.155505e+01 -1.220552e+01 -2.992659e+00 -1.495354e+01 -8.710063e+00 3.112367e-02 -1.294445e+00 3.900955e+00 -3.808939e+00 7.800453e-01 2.460976e+00 -1.141069e+00 2.231870e-01 -1.788965e+00 -3.151442e+00 6.560909e-01 -1.827163e+00 -2.021185e+00 6.467187e-01 -6.780125e-01 2.306096e+00 -4.559355e-01 8.065350e-02 -1.191717e+00 -5.860585e-02 -4.337238e-02 2.452245e-01 7.395316e-01 -2.472198e-01 5.233636e-01 8.180057e-01 -6.781343e-02 2.397462e-01 -3.144181e-01 1.889697e-01 -2.429456e-02
<VARIANCE> 39
 8.266382e+00 2.656428e+01 2.964864e+01 4.808519e+01 2.378481e+01 5.540569e+01 3.635964e+01 6.241051e+01 4.144024e+01 4.099427e+01 4.125084e+01 2.022433e+01 7.373573e-03 1.897916e+00 2.789370e+00 1.269911e+00 1.689583e+00 3.453679e+00 4.648108e+00 3.508668e+00 5.411559e+00 5.043914e+00 3.596572e+00 2.909703e+00 2.629391e+00 1.492426e-03 3.353108e-01 5.843512e-01 2.104888e-01 4.222137e-01 3.406088e-01 5.177606e-01 4.328882e-01 5.207391e-01 5.950750e-01 6.908336e-01 5.718656e-01 2.476815e-01 2.196379e-04
<GCONST> 9.652949e+01
<MIXTURE> 16 5.004981e-02
<MEAN> 39
 -1.521564e+00 -9.592721e+00 -7.199883e+00 -1.415910e+01 -1.355864e+01 -2.660258e+00 -1.663415e+01 3.557829e-01 -3.357375e+00 3.722256e+00 -1.898779e+00 -7.992229e+00 8.370112e-01 -3.764660e-02 -3.717210e-01 1.910478e-01 -1.020992e-02 1.956161e-01 -3.154003e-01 -5.048208e-02 3.450976e-01 8.446053e-02 2.662470e-01 -4.458566e-01 -1.101211e-01 -1.926355e-03 -9.258486e-02 2.055382e-03 2.185789e-01 1.180108e-01 1.163564e-01 -4.580906e-01 4.756862e-02 5.193323e-02 -5.750168e-02 -2.795899e-01 -2.246795e-01 1.798221e-01 -3.401110e-03
<VARIANCE> 39
 3.850932e+00 1.016287e+01 3.771014e+01 2.563266e+01 1.393835e+01 9.110767e+01 3.390656e+01 3.872800e+01 6.227054e+01 4.317372e+01 8.666708e+01 1.782982e+01 8.854348e-03 7.829525e-02 4.564931e-01 4.254036e-01 5.931819e-01 8.625259e-01 1.849660e+00 1.206510e+00 9.803010e-01 1.429446e+00 1.096859e+00 1.190991e+00 8.529513e-01 5.620463e-05 1.582423e-02 7.161388e-02 8.228088e-02 9.751198e-02 1.625046e-01 1.744820e-01 1.692169e-01 2.486136e-01 1.316082e-01 1.051735e-01 1.149786e-01 1.327396e-01 1.347431e-05
<GCONST> 5.564656e+01
<STATE> 3
<NUMMIXES> 16
<MIXTURE> 1 3.950925e-02
<MEAN> 39
 -6.434671e+00 -9.346149e+00 1.554694e+00 -1.218132e+00 -1.433852e+01 -1.102958e+01 -1.539330e+01 -5.406047e+00 -1.237689e+00 -5.655484e+00 -2.195981e+00 -2.954066e+00 7.085500e-01 -8.602372e-02 1.925750e+00 -4.112472e-01 9.697230e-01 2.545892e+00 8.167387e-01 1.844123e+00 -9.030510e-02 -1.278196e-01 8.692768e-01 -2.136328e+00 -9.182116e-01 -9.473079e-02 -2.821094e-01 8.709368e-01 -1.766620e-01 -3.776671e-02 7.377290e-01 3.645541e-01 7.033117e-01 3.295623e-01 -2.814321e-01 2.481935e-01 1.067776e-01 -5.359787e-02 -3.204414e-02
<VARIANCE> 39
 1.498467e+01 1.327594e+01 2.385816e+01 1.999838e+01 1.869789e+01 2.323409e+01 3.376548e+01 2.830397e+01 2.057012e+01 2.943176e+01 2.943161e+01 1.057172e+01 8.013440e-03 8.051766e-01 1.930331e+00 1.422194e+00 1.742749e+00 2.857106e+00 3.121778e+00 3.300690e+00 2.722516e+00 2.064123e+00 1.433227e+00 3.338175e+00 1.206653e+00 2.622076e-03 2.203671e-01 1.416754e-01 2.479858e-01 3.637595e-01 4.199166e-01 3.452084e-01 6.900241e-01 2.024749e-01 3.661517e-01 5.899136e-01 2.691768e-01 1.530441e-01 9.754916e-05
<GCONST> 8.193184e+01
<MIXTURE> 2 4.968257e-02
<MEAN> 39
 -2.837214e-01 -8.934871e+00 -1.044133e+01 -1.583605e+01 -9.217664e+00 -6.894950e+00 -1.184196e+01 -6.828701e+00 -4.986425e+00 4.355947e+00 3.438687e+00 -4.667044e+00 8.272862e-01 3.445611e-01 2.782977e-01 -9.056371e-01 -1.479329e+00 2.792757e-01 1.198475e+00 1.122445e+00 -7.440420e-01 -4.429661e-01 3.410624e-01 7.889603e-01 2.868707e-01 1.312386e-02 -7.120843e-01 2.028459e-01 4.402821e-01 5.831885e-01 6.877103e-02 1.093459e-01 4.794821e-01 6.815916e-01 -5.111571e-02 -6.101294e-01 -4.561664e-01 3.358375e-01 -1.971893e-02
<VARIANCE> 39
 1.160022e+01 3.576243e+01 2.619661e+01 7.003698e+01 3.141615e+01 5.165532e+01 9.026800e+01 1.104407e+02 4.431345e+01 4.698627e+01 5.848820e+01 4.210695e+01 8.254537e-03 5.646684e-01 1.395706e+00 1.021279e+00 2.191397e+00 1.467278e+00 2.182276e+00 4.762787e+00 3.550982e+00 2.329158e+00 2.226595e+00 4.365606e+00 1.568906e+00 5.061826e-04 4.254124e-01 3.309951e-01 3.289886e-01 7.148286e-01 7.004839e-01 4.427328e-01 9.812614e-01 9.554387e-01 6.772165e-01 8.143210e-01 5.790551e-01 5.720473e-01 2.201806e-04
<GCONST> 9.824878e+01
<MIXTURE> 3 4.889471e-02
<MEAN> 39
 8.661392e-01 -1.018924e+01 -5.183194e+00 -1.887033e+01 -1.306920e+01 5.252322e+00 -1.233174e+01 -7.989859e+00 -7.394226e+00 5.600036e+00 4.326201e+00 -2.436723e+00 7.772285e-01 -3.655535e-01 1.071697e+00 -1.846430e-01 8.531886e-01 1.303550e+00 -6.252671e-01 5.347324e-01 7.057589e-02 -1.174406e-01 -1.080595e-01 -5.041027e-01 -1.433311e-02 -3.731944e-02 -8.148654e-01 8.390153e-01 -2.670725e-01 7.406152e-01 8.017150e-01 -5.804415e-01 5.143387e-01 2.492242e-01 1.676452e-01 -3.951350e-01 -1.646959e-01 1.257748e-01 -2.964462e-02
<VARIANCE> 39
 6.690125e+00 1.685014e+01 1.892062e+01 2.029841e+01 3.177457e+01 2.925907e+01 3.329438e+01 6.490762e+01 4.764715e+01 5.105354e+01 3.448930e+01 1.587933e+01 3.652287e-03 8.801162e-01 1.204079e+00 8.969632e-01 1.875325e+00 1.671867e+00 2.565768e+00 1.689924e+00 1.139866e+00 1.391878e+00 1.864856e+00 1.569672e+00 9.734359e-01 7.242703e-04 2.456484e-01 3.468230e-01 2.805837e-01 3.660294e-01 3.981782e-01 2.833160e-01 3.898250e-01 5.204943e-01 2.099071e-01 3.828388e-01 2.082032e-01 1.644039e-01 2.479532e-04
<GCONST> 7.947948e+01
<MIXTURE> 4 5.788208e-02
<MEAN> 39
 -3.202152e+00 -1.299562e+01 4.819808e+00 -9.936551e+00 -1.273427e+01 -1.308887e+01 -1.950612e+01 3.935895e+00 -6.307315e+00 1.650283e-02 -4.572618e+00 -1.843063e+00 7.322972e-01 -4.394416e-01 2.190211e+00 -3.833682e-01 2.346290e+00 1.334888e+00 4.077455e-01 1.553562e+00 -1.468716e+00 4.795469e-01 -1.475990e+00 -8.588116e-01 -3.612967e-01 -7.847875e-02 -7.611258e-01 1.274947e+00 -6.512414e-01 6.790578e-01 7.018521e-01 7.257180e-01 1.148185e+00 -8.578608e-01 1.254860e-01 -1.370643e-01 1.359735e-01 -2.792901e-01 -3.390736e-02
<VARIANCE> 39
 6.876975e+00 1.431795e+01 1.604532e+01 2.735963e+01 3.075628e+01 1.274481e+01 3.553117e+01 3.089344e+01 3.433593e+01 3.138610e+01 1.450087e+01 9.443103e+00 9.616099e-03 9.450062e-01 2.810740e+00 1.974052e+00 3.900982e+00 2.645215e+00 3.768210e+00 2.740836e+00 4.053027e+00 3.465321e+00 2.336371e+00 1.906948e+00 1.724254e+00 2.210830e-03 3.836478e-01 5.045596e-01 1.897482e-01 4.283689e-01 3.802426e-01 4.321153e-01 5.654398e-01 5.843287e-01 4.681910e-01 3.580143e-01 2.371351e-01 2.522244e-01 2.337558e-04
<GCONST> 8.744465e+01
<MIXTURE> 5 7.015400e-02
<MEAN> 39
 -2.583395e+00 -9.963236e+00 -4.289463e+00 -1.511553e+01 -5.490051e+00 -1.096025e+01 -1.720465e+01 -2.218546e+00 -6.521226e+00 7.297821e+00 -1.354645e+00 -8.021269e+00 7.408943e-01 -8.599780e-01 1.623041e+00 3.787116e-01 2.939488e+00 1.045908e+00 -2.294897e-01 -6.568913e-02 -3.026694e-01 -5.315109e-01 -1.569536e+00 8.567146e-02 -4.769611e-02 -8.732254e-02 -9.353454e-01 7.377303e-01 -1.691954e-01 8.075693e-01 1.602134e-01 8.157719e-01 1.022530e+00 -1.549959e-01 4.556372e-01 -7.672664e-01 2.188103e-02 5.306154e-01 -3.631988e-02
<VARIANCE> 39
 7.353963e+00 1.293597e+01 4.649890e+01 4.543964e+01 3.162831e+01 4.053230e+01 4.001196e+01 4.339726e+01 5.228280e+01 3.512486e+01 4.400175e+01 2.756216e+01 1.313195e-02 1.003900e+00 2.569309e+00 1.644397e+00 3.577932e+00 3.381411e+00 6.632567e+00 5.530014e+00 5.983396e+00 5.290222e+00 3.856049e+00 4.591458e+00 2.352501e+00 1.514497e-03 3.280072e-01 2.939916e-01 6.525554e-01 6.035913e-01 5.357645e-01 5.779191e-01 8.095177e-01 5.804176e-01 1.103221e+00 5.930704e-01 4.725268e-01 5.476985e-01 2.860461e-04
<GCONST> 1.018856e+02
<MIXTURE> 6 8.071495e-02
<MEAN> 39
 -5.260160e+00 -1.078011e+01 -8.143950e+00 -1.589062e+01 -1.017153e+01 -1.810040e+01 -8.106204e+00 -1.260987e+00 -2.233370e+00 -2.830588e-01 -1.299247e+01 -8.357688e-02 8.107178e-01 -1.739797e-01 6.414208e-01 7.059933e-01 1.369185e+00 -8.283198e-01 -8.205109e-01 2.829464e-01 -5.063156e-01 -1.667785e-01 -6.190125e-01 1.341804e-01 8.543285e-01 -3.325469e-02 -4.120473e-01 7.462397e-01 3.200650e-01 8.239307e-01 4.397866e-01 1.042171e+00 -2.085464e-02 -4.027690e-01 -2.440044e-01 -9.256445e-02 8.633777e-01 -1.258386e-01 -3.579907e-02
<VARIANCE> 39
 7.811983e+00 2.109634e+01 2.509289e+01 6.268944e+01 3.495213e+01 4.240286e+01 5.920676e+01 4.404916e+01 3.840660e+01 4.060033e+01 3.989405e+01 3.173418e+01 1.191754e-02 5.135815e-01 2.522955e+00 2.440079e+00 4.573470e+00 3.328053e+00 3.397693e+00 2.245298e+00 4.845237e+00 2.618550e+00 4.634812e+00 2.948815e+00 2.312254e+00 1.235090e-03 2.611266e-01 4.677519e-01 3.262938e-01 8.810526e-01 3.593006e-01 9.694922e-01 5.330941e-01 7.582946e-01 5.648326e-01 6.531823e-01 5.422124e-01 6.242948e-01 3.130521e-04
<GCONST> 9.912013e+01
<MIXTURE> 7 7.329228e-02
<MEAN> 39
 -3.069843e+00 -1.394402e+01 1.892473e+00 -5.313971e+00 -1.878191e+01 -9.092012e+00 -1.991257e+01 1.003998e+00 -8.212129e-01 -5.732261e+00 4.090957e+00 -4.196993e+00 8.127261e-01 1.191735e-01 -1.612297e-01 4.305716e-01 1.956776e-01 3.146731e-01 2.765686e-01 -2.949729e-01 -5.095968e-01 2.517706e-01 -1.067373e-01 -8.629169e-01 7.298642e-02 -1.872204e-02 -7.578105e-01 1.098919e+00 -3.276761e-01 4.827158e-01 1.441994e+00 1.293617e-01 1.333609e+00 -4.062649e-01 -1.237102e-01 3.219036e-01 -9.219182e-01 1.976511e-01 -4.008553e-02
<VARIANCE> 39
 8.365761e+00 2.158962e+01 3.806168e+01 2.158972e+01 3.387374e+01 3.515616e+01 2.998697e+01 2.422594e+01 2.224166e+01 3.067131e+01 2.718970e+01 2.592496e+01 7.424267e-03 3.879393e-01 8.582632e-01 1.466757e+00 1.641595e+00 1.791810e+00 1.963395e+00 2.205163e+00 2.075737e+00 2.409043e+00 1.741392e+00 1.824169e+00 9.853376e-01 7.575403e-04 5.494549e-01 3.555534e-01 3.950233e-01 4.210317e-01 6.568217e-01 3.147039e-01 6.909749e-01 4.650285e-01 4.116155e-01 4.133861e-01 4.644918e-01 3.720198e-01 1.865572e-04
<GCONST> 8.457683e+01
<MIXTURE> 8 3.295032e-02
<MEAN> 39
 -6.231743e+00 -8.755152e+00 3.080481e+00 -1.890085e+01 -1.306679e+01 -2.108873e+01 -4.739933e+00 -2.848083e+00 -6.015615e+00 -4.978245e-01 -4.018474e+00 2.480492e+00 7.704586e-01 1.445792e-01 2.548966e+00 1.153230e-01 3.842945e+00 1.063065e+00 3.045466e+00 -2.051227e+00 -8.828866e-01 -8.953023e-01 -2.260015e+00 -1.188138e+00 -1.201734e+00 -1.160868e-01 -2.654099e-01 6.382401e-01 -4.766984e-01 1.189720e+00 3.972878e-01 8.602057e-01 3.071907e-02 -3.647799e-01 -9.325689e-02 -5.381982e-01 -7.606952e-01 -6.963292e-01 -3.363004e-02
<VARIANCE> 39
 8.328323e+00 1.954638e+01 1.372992e+01 1.682811e+01 8.894773e+00 2.279738e+01 5.097596e+01 2.800932e+01 2.226576e+01 1.351886e+01 2.704011e+01 8.792634e+00 1.195327e-02 4.851674e-01 1.929348e+00 1.740795e+00 2.650438e+00 2.669756e+00 1.843445e+00 2.477083e+00 3.347437e+00 3.261756e+00 3.054541e+00 3.272215e+00 1.562312e+00 1.328589e-03 1.935888e-01 1.594451e-01 2.494355e-01 3.593395e-01 5.894329e-01 4.415511e-01 7.569581e-01 6.427533e-01 4.492360e-01 3.502528e-01 3.733039e-01 3.311176e-01 2.917844e-04
<GCONST> 8.398263e+01
<MIXTURE> 9 5.007012e-02
<MEAN> 39
 -2.498623e+00 -1.446149e+01 3.553942e+00 -4.624397e+00 -2.114152e+01 -5.153475e+00 -2.171039e+01 -2.505410e+00 1.202405e+00 -6.720553e+00 -5.548728e-01 -2.748103e+00 7.208938e-01 -4.765361e-01 2.143480e+00 4.872203e-01 2.836187e+00 2.173178e+00 -6.535182e-01 2.868447e+00 -8.966889e-01 2.840382e-01 -2.933006e-01 -2.963065e+00 5.189533e-01 -1.032669e-01 -3.413465e-01 1.401043e+00 -8.138413e-01 -1.423620e-01 1.567629e+00 1.266515e-01 1.194717e+00 -3.181830e-01 -9.163249e-01 4.344320e-01 1.833272e-02 -2.829696e-01 -3.243303e-02
<VARIANCE> 39
 5.797940e+00 2.100390e+01 3.978215e+01 2.392061e+01 2.030717e+01 2.616654e+01 3.295543e+01 3.708808e+01 5.609970e+01 3.207510e+01 4.465202e+01 2.329392e+01 9.744978e-03 8.381027e-01 3.849960e+00 4.263222e+00 2.869219e+00 6.129010e+00 3.293989e+00 4.143439e+00 5.978427e+00 4.906104e+00 5.706328e+00 3.241431e+00 4.272530e+00 2.158438e-03 1.012673e-01 3.326567e-01 3.538461e-01 5.130754e-01 5.016788e-01 8.597095e-01 6.075631e-01 5.963162e-01 7.054647e-01 5.816050e-01 7.920593e-01 5.407329e-01 2.900338e-04
<GCONST> 9.940758e+01
<MIXTURE> 10 5.702558e-02
<MEAN> 39
 -6.633704e+00 -1.231297e+01 1.471616e-01 -2.164360e+01 -1.230286e+01 -2.232746e+01 -1.511619e-01 -1.815572e+00 -3.584121e+00 2.755763e+00 -5.008180e+00 2.251141e+00 8.984192e-01 7.675125e-02 2.001356e-01 7.042572e-01 1.308057e-01 -1.486178e-01 1.719987e-01 -6.914901e-01 -6.453823e-02 -3.803786e-01 -1.427648e-01 3.393931e-01 3.115082e-01 -1.436092e-02 -1.989088e-01 8.372172e-01 -1.570983e-01 1.281932e+00 1.523653e-01 1.025234e+00 -7.671992e-01 -1.149347e-01 -2.519882e-01 -5.964431e-01 -1.817542e-01 -2.765725e-01 -3.279633e-02
<VARIANCE> 39
 9.718957e+00 2.147208e+01 1.681277e+01 1.204054e+01 3.441136e+01 2.446192e+01 4.200447e+01 3.479086e+01 3.332006e+01 4.064708e+01 2.857288e+01 1.889835e+01 6.865655e-03 3.425653e-01 1.093621e+00 9.870683e-01 1.566378e+00 1.323893e+00 1.878128e+00 1.986454e+00 1.746915e+00 2.347948e+00 1.808856e+00 1.422913e+00 9.309867e-01 5.546841e-04 2.508390e-01 2.558177e-01 1.483939e-01 3.653384e-01 4.912694e-01 4.079245e-01 3.284415e-01 4.480387e-01 3.360573e-01 5.661562e-01 3.263420e-01 2.093753e-01 1.907965e-04
<GCONST> 7.861995e+01
<MIXTURE> 11 8.635277e-02
<MEAN> 39
 -8.985981e-01 -5.695404e+00 -9.086106e+00 -2.503318e+01 -8.228122e+00 -6.033573e-02 -8.872080e+00 -6.247664e+00 -4.482822e+00 5.939441e-01 -9.349461e-01 -8.743626e-01 8.163778e-01 -2.503369e-02 8.325407e-03 1.305132e-01 3.922035e-01 1.920787e-01 -4.603095e-01 -2.568295e-01 2.087918e-01 -1.459482e-01 -3.158034e-02 -3.312289e-01 -1.137307e-01 -1.065480e-02 -2.131438e-01 2.670493e-01 1.093609e-01 8.703344e-01 1.990099e-01 -2.177713e-01 2.135635e-01 2.077136e-02 -3.692991e-01 -5.145662e-02 -3.170205e-02 -1.129049e-01 -1.967658e-02
<VARIANCE> 39
 6.686325e+00 3.909167e+01 4.382343e+01 1.059520e+02 6.788298e+01 8.062512e+01 6.383595e+01 2.642639e+01 4.862060e+01 6.025313e+01 6.005438e+01 3.613406e+01 8.782760e-03 2.213172e-01 4.932645e-01 6.166677e-01 2.776351e+00 1.378430e+00 1.636432e+00 1.644048e+00 2.053997e+00 1.722327e+00 1.772825e+00 2.072416e+00 1.520128e+00 6.599781e-04 1.439404e-01 1.968927e-01 3.107740e-01 5.504580e-01 5.933694e-01 5.869005e-01 4.134431e-01 4.039902e-01 4.094414e-01 3.295168e-01 3.012854e-01 2.466732e-01 1.506652e-04
<GCONST> 8.637195e+01
<MIXTURE> 12 7.669106e-02
<MEAN> 39
 -6.078364e+00 -1.350300e+01 1.405007e+00 -1.768223e+01 -1.659108e+01 -1.679811e+01 -1.088384e+01 4.828873e+00 -1.251628e+01 3.122382e+00 -1.002802e+01 2.359008e+00 8.078948e-01 3.133920e-01 3.569727e-01 5.795477e-01 1.353082e+00 -1.940918e-01 5.806098e-01 -3.301359e-01 -6.854748e-01 5.263000e-01 -1.200433e+00 3.986453e-01 5.412432e-02 -3.643487e-02 -5.584379e-01 1.171486e+00 -4.051140e-01 1.107412e+00 9.168282e-01 6.198239e-01 4.637223e-01 -1.106237e+00 8.343046e-01 -6.983823e-01 3.452826e-01 -5.682138e-01 -3.449101e-02
<VARIANCE> 39
 7.483771e+00 1.815066e+01 2.827427e+01 2.820437e+01 3.443980e+01 2.626217e+01 3.557868e+01 2.390694e+01 2.711710e+01 2.841419e+01 2.698987e+01 2.282974e+01 8.044627e-03 6.864361e-01 3.120347e+00 2.914683e+00 3.318755e+00 3.781193e+00 2.529695e+00 3.631701e+00 3.868577e+00 2.923866e+00 5.460780e+00 2.753020e+00 1.813055e+00 1.798301e-03 4.550143e-01 4.751500e-01 2.800980e-01 6.443517e-01 9.167403e-01 7.433064e-01 7.571162e-01 4.343207e-01 5.546393e-01 6.147534e-01 6.017991e-01 3.947000e-01 2.641673e-04
<GCONST> 9.556843e+01
<MIXTURE> 13 1.010404e-01
<MEAN> 39
 -1.926222e+00 -1.155051e+01 -3.997433e+00 -1.575159e+01 -9.811441e+00 -2.664633e+00 -2.001163e+01 -5.716327e-01 -3.336967e+00 8.068766e+00 2.370245e+00 -9.558298e+00 7.923558e-01 -3.146566e-01 1.334188e-01 5.595822e-01 1.158231e+00 4.361389e-01 -1.312435e+00 -2.958747e-01 8.610304e-01 -6.086038e-01 -3.756880e-01 -8.196822e-01 1.782199e-01 -2.936133e-02 -3.383614e-01 7.677975e-01 -1.094946e-01 6.224062e-01 4.243578e-01 -1.576210e-01 7.363174e-01 -4.862061e-01 -5.691474e-02 -6.556178e-01 -2.098273e-01 5.630491e-01 -2.557468e-02
<VARIANCE> 39
 7.695883e+00 1.402807e+01 1.698448e+01 2.750535e+01 1.536853e+01 3.849580e+01 4.332825e+01 2.794984e+01 2.785549e+01 3.005713e+01 4.646288e+01 1.201088e+01 1.423983e-02 4.634707e-01 8.710579e-01 1.409317e+00 2.194081e+00 1.834906e+00 2.973864e+00 2.851235e+00 2.347412e+00 3.134467e+00 2.039184e+00 2.080693e+00 2.045502e+00 7.068592e-04 1.197712e-01 2.923064e-01 1.286415e-01 3.130777e-01 3.281021e-01 3.830305e-01 5.658621e-01 4.230119e-01 2.769842e-01 3.667537e-01 2.875188e-01 1.935544e-01 1.439817e-04
<GCONST> 8.056969e+01
<MIXTURE> 14 4.664030e-02
<MEAN> 39
 -3.073458e+00 -1.321756e+01 7.469231e-01 -8.871340e+00 -1.150721e+01 -1.150133e+01 -1.860140e+01 -3.138099e+00 2.463605e+00 -7.708339e+00 4.029979e+00 -6.293025e+00 7.554665e-01 -9.126154e-01 1.719728e+00 5.163487e-01 1.690130e+00 1.354332e+00 3.330700e-01 8.316771e-01 5.057132e-01 -1.356600e+00 4.581626e-01 -2.300370e+00 7.386438e-01 -6.349695e-02 -6.981232e-01 1.019408e+00 -2.998039e-01 4.891152e-01 5.381858e-01 5.301430e-01 1.013389e+00 2.622958e-02 -3.759176e-01 6.470175e-01 -4.479580e-01 2.308936e-01 -3.155302e-02
<VARIANCE> 39
 7.338245e+00 1.259500e+01 2.226114e+01 1.881489e+01 1.317529e+01 4.902746e+01 1.320137e+01 3.446983e+01 2.904336e+01 2.116569e+01 2.921932e+01 4.018559e+01 1.468088e-02 5.674831e-01 1.187796e+00 1.110337e+00 2.698539e+00 1.236279e+00 1.995723e+00 2.425211e+00 3.638861e+00 1.921525e+00 2.154829e+00 1.885647e+00 2.207989e+00 1.974928e-03 2.464370e-01 1.393604e-01 1.837246e-01 4.059636e-01 1.713929e-01 4.610900e-01 3.450436e-01 3.161638e-01 3.852665e-01 5.056484e-01 4.322318e-01 5.679471e-01 2.626295e-04
<GCONST> 8.249844e+01
<MIXTURE> 15 5.238438e-02
<MEAN> 39
 -1.760592e-01 -9.227694e+00 -7.409968e+00 -1.372896e+01 -7.792508e+00 -2.355532e+00 -1.624261e+01 -4.712992e+00 -1.003994e+01 3.683188e+00 8.537467e+00 -6.182961e+00 7.080666e-01 -1.215169e+00 2.492375e+00 -4.510687e-01 2.555754e+00 2.759382e+00 -6.868707e-01 7.907417e-01 -4.816149e-01 -8.472853e-01 -5.630904e-01 -1.107006e+00 1.966567e-01 -1.198378e-01 -1.279315e+00 4.030843e-01 1.242029e-02 7.085548e-01 3.554357e-01 1.786957e-01 9.684372e-01 4.746360e-03 9.405788e-01 -2.087300e-01 -9.962181e-01 2.669795e-01 -4.532151e-02
<VARIANCE> 39
 7.384761e+00 1.821700e+01 2.029235e+01 7.815149e+01 2.308584e+01 5.087749e+01 3.280474e+01 3.142463e+01 2.906055e+01 3.301440e+01 3.956985e+01 2.546058e+01 7.418104e-03 1.423089e+00 2.740065e+00 2.524116e+00 4.189118e+00 2.568381e+00 3.540136e+00 2.915250e+00 2.212373e+00 2.508458e+00 2.831603e+00 3.765754e+00 1.781550e+00 2.000054e-03 1.568121e-01 3.533908e-01 3.769526e-01 7.073987e-01 3.587554e-01 5.847266e-01 7.325116e-01 5.092663e-01 4.172077e-01 4.714724e-01 5.747809e-01 4.700452e-01 1.804865e-04
<GCONST> 9.395530e+01
<MIXTURE> 16 7.671495e-02
<MEAN> 39
 -5.314478e+00 -9.884502e+00 -6.882948e+00 -1.332434e+01 -1.104561e+01 -1.832338e+01 -7.831296e+00 -4.660033e+00 9.178519e-01 2.006654e-01 -5.163705e+00 -1.561070e-01 8.125325e-01 -1.612681e-01 5.739538e-01 7.657830e-01 7.320525e-01 -3.605278e-01 -3.360953e-01 -7.405180e-02 -9.041508e-01 -7.819954e-01 -8.275480e-01 6.846922e-02 2.242432e-01 -3.279385e-02 -5.748838e-02 5.484611e-01 1.475864e-01 5.007016e-01 4.334544e-01 7.940981e-01 -3.649272e-01 -1.296465e-01 -4.384235e-01 -9.687081e-02 -2.563294e-01 -3.624258e-01 -2.549051e-02
<VARIANCE> 39
 8.210739e+00 1.783852e+01 1.853279e+01 5.338556e+01 5.559334e+01 2.354729e+01 3.061360e+01 5.115247e+01 3.515106e+01 4.291797e+01 2.542235e+01 2.609295e+01 1.275987e-02 3.065221e-01 8.646677e-01 1.057415e+00 1.326196e+00 1.538477e+00 2.144450e+00 2.336587e+00 1.149138e+00 2.094725e+00 2.223770e+00 1.658170e+00 1.324614e+00 5.253919e-04 8.708297e-02 8.653394e-02 8.102268e-02 1.812319e-01 5.328152e-01 3.728505e-01 3.215399e-01 2.786442e-01 4.334254e-01 2.684534e-01 3.407456e-01 2.240703e-01 1.137414e-04
<GCONST> 7.657214e+01
<STATE> 4
<NUMMIXES> 16
<MIXTURE> 1 9.872873e-02
<MEAN> 39
 -2.992657e+00 -9.824261e+00 -2.483093e-01 -3.169189e+00 -1.235869e+01 -8.138830e+00 -1.405394e+01 -4.805146e+00 8.631252e-01 -1.416002e+00 -3.894036e+00 -2.869755e+00 6.437754e-01 -1.918284e+00 3.152857e+00 -4.280078e-01 1.468332e+00 3.145393e+00 1.738118e-01 2.455454e+00 -2.160827e-01 -6.836051e-01 -8.200686e-02 -1.470045e+00 2.432869e-02 -1.036530e-01 -8.166175e-01 4.968129e-01 -2.417620e-01 -4.333404e-01 5.127284e-01 2.295551e-01 3.970972e-01 3.502659e-01 -2.957332e-01 -4.412118e-02 5.165436e-01 3.397636e-02 -7.684163e-03
<VARIANCE> 39
 6.989882e+00 1.868905e+01 2.117371e+01 4.279120e+01 2.583168e+01 3.411668e+01 3.640686e+01 2.972436e+01 2.975949e+01 2.567933e+01 2.605986e+01 2.151106e+01 1.252180e-02 2.056374e+00 2.792119e+00 2.584078e+00 4.033260e+00 3.498142e+00 3.875292e+00 3.217350e+00 4.753934e+00 3.763203e+00 3.390712e+00 3.194945e+00 2.762660e+00 2.429025e-03 4.515563e-01 4.661175e-01 4.002625e-01 4.939469e-01 4.227183e-01 5.168705e-01 7.237033e-01 5.320274e-01 5.225022e-01 3.411011e-01 3.185417e-01 3.933754e-01 2.902357e-04
<GCONST> 9.624294e+01
<MIXTURE> 2 4.015333e-02
<MEAN> 39
 -1.287393e+01 -5.836732e+00 -7.209801e+00 -6.567817e+00 -6.991278e+00 -1.079815e+01 -7.933567e+00 3.224424e-01 -3.548428e+00 2.261489e-01 3.460856e+00 3.179436e+00 1.745457e-01 -8.505943e-01 -4.309447e-01 -2.137931e-01 -8.120189e-01 -9.753687e-01 9.645909e-01 1.457832e+00 1.304472e+00 5.702100e-02 8.667880e-01 6.561106e-01 5.651053e-01 -3.888836e-02 4.153872e-01 -8.800223e-02 1.167624e-01 -1.955163e-01 -3.711110e-03 1.883162e-01 7.459389e-02 -1.429617e-01 1.677905e-01 -5.177765e-02 -5.977407e-01 -6.279097e-01 2.967954e-02
<VARIANCE> 39
 1.048539e+01 1.759480e+01 2.797992e+01 2.991418e+01 7.783155e+01 1.167278e+02 4.349237e+01 8.246210e+01 5.542330e+01 4.016792e+01 3.721740e+01 3.506956e+01 4.549773e-02 3.995997e+00 1.466554e+00 4.141367e+00 6.157642e+00 6.355557e+00 9.578256e+00 4.369823e+00 1.069045e+01 6.453577e+00 6.451546e+00 8.518565e+00 6.683450e+00 1.170853e-02 3.654657e-01 3.496283e-01 8.484033e-01 1.315653e+00 1.476754e+00 1.919045e+00 7.747713e-01 2.788891e+00 9.273600e-01 1.650968e+00 1.308374e+00 9.007370e-01 1.093311e-03
<GCONST> 1.226355e+02
<MIXTURE> 3 9.111674e-02
<MEAN> 39
 9.467295e-01 -5.786990e+00 -1.083199e+01 -2.408961e+01 -9.065703e+00 -1.401443e+00 -1.016402e+01 -9.780995e-01 -8.224483e+00 -8.747151e-02 2.438396e+00 -4.004459e-01 8.159665e-01 3.093878e-01 4.637898e-01 -6.136443e-01 -7.012668e-02 1.153509e-01 -9.831526e-02 4.481435e-01 9.438624e-01 -2.999332e-01 -7.019620e-01 4.137053e-01 3.803774e-01 -9.836321e-04 -1.294533e-01 7.050242e-02 4.176105e-02 4.551383e-01 2.790308e-02 -2.375906e-01 -8.054051e-02 1.436484e-01 1.386382e-01 -1.641587e-01 -3.154716e-01 -5.417863e-02 -6.936505e-03
<VARIANCE> 39
 1.126398e+01 3.629598e+01 4.426627e+01 7.827837e+01 5.246530e+01 6.864481e+01 6.592709e+01 1.409503e+02 4.968131e+01 4.882713e+01 6.645738e+01 2.548306e+01 9.982198e-03 2.053628e-01 1.021315e+00 9.697929e-01 1.841650e+00 1.345843e+00 2.394371e+00 2.610225e+00 2.503040e+00 2.260664e+00 1.719963e+00 1.253589e+00 1.883378e+00 3.004500e-04 7.291669e-02 1.693749e-01 2.148433e-01 3.070024e-01 3.854336e-01 3.088078e-01 5.203819e-01 6.020213e-01 4.768525e-01 3.855712e-01 3.529526e-01 1.679646e-01 1.050410e-04
<GCONST> 8.587856e+01
<MIXTURE> 4 4.972526e-02
<MEAN> 39
 -5.319139e+00 -1.177958e+00 4.934866e-01 1.601135e+00 -6.367708e+00 -5.700878e+00 -8.799560e+00 -5.238568e+00 -1.272505e+00 -2.664402e+00 -6.908508e+00 -5.987951e+00 3.404523e-01 -7.888600e-01 4.217485e+00 -1.786028e-01 1.370654e+00 3.294684e+00 6.327031e-01 2.670765e+00 -1.215573e-01 -4.919812e-01 3.917682e-01 -9.232593e-01 -5.554469e-01 -1.341613e-01 -2.501563e-01 -3.756260e-01 4.162592e-02 -4.535676e-01 -5.069949e-01 2.661098e-02 -6.462482e-01 3.349108e-01 -3.604264e-01 -2.904892e-01 8.514126e-01 2.409582e-01 1.650446e-02
<VARIANCE> 39
 7.281783e+00 2.413424e+01 2.166866e+01 1.566664e+01 2.294176e+01 2.356211e+01 1.910637e+01 1.268111e+01 2.358056e+01 1.918154e+01 1.869625e+01 1.231320e+01 1.436622e-02 1.555494e+00 1.527362e+00 3.550577e+00 3.128226e+00 4.446028e+00 2.335994e+00 3.711036e+00 3.001851e+00 3.162776e+00 3.222789e+00 3.514433e+00 1.572084e+00 9.496485e-04 1.704495e-01 4.994137e-01 3.277957e-01 2.580857e-01 5.429755e-01 4.728245e-01 6.534436e-01 4.557410e-01 3.666891e-01 3.324386e-01 4.262964e-01 2.572955e-01 2.538975e-04
<GCONST> 8.676450e+01
<MIXTURE> 5 4.524903e-02
<MEAN> 39
 -2.603056e+00 -8.555706e+00 -8.529241e+00 -6.950382e+00 -1.198405e+01 -1.578095e+01 -8.949310e+00 -2.523748e+00 -8.391327e-01 -4.045868e-01 -4.130953e+00 -1.835039e+00 7.056699e-01 -1.572590e+00 1.270470e+00 2.271958e+00 1.921503e+00 1.188419e-01 9.066640e-01 4.716116e-01 2.407072e-01 -2.436799e-01 -2.386568e+00 7.079062e-01 8.136939e-01 -8.368713e-02 -5.905541e-01 4.232239e-01 2.028621e-01 -4.151625e-01 4.711822e-01 1.242260e+00 1.776514e-01 -6.237172e-01 -4.715764e-01 1.147236e-01 7.492539e-02 1.908600e-02 -1.530470e-02
<VARIANCE> 39
 1.329913e+01 1.472770e+01 2.567753e+01 6.575703e+01 4.602824e+01 4.618901e+01 4.319316e+01 4.423729e+01 3.943415e+01 6.754163e+01 5.270938e+01 2.494451e+01 1.900305e-02 1.904334e+00 4.766555e+00 2.479821e+00 3.201411e+00 4.432651e+00 4.647048e+00 7.992928e+00 5.209131e+00 4.108128e+00 4.881405e+00 3.733278e+00 5.003477e+00 2.566786e-03 3.111011e-01 3.071347e-01 4.241712e-01 1.177885e+00 9.080191e-01 7.620767e-01 6.356258e-01 9.820179e-01 8.115736e-01 1.008034e+00 8.627717e-01 3.036506e-01 3.864218e-04
<GCONST> 1.084212e+02
<MIXTURE> 6 7.381395e-02
<MEAN> 39
 -5.405145e+00 -6.460141e+00 -5.340959e-01 -5.958878e+00 -5.896593e+00 -1.052997e+01 -1.794103e+01 1.037567e+00 -5.835638e+00 -1.565129e+00 -2.014683e+00 -5.411234e+00 5.340335e-01 -2.731091e+00 2.895802e+00 -4.795525e-01 3.303451e+00 2.355971e+00 7.541635e-01 3.216720e+00 -7.749186e-01 -7.876433e-03 -7.477108e-01 -1.226845e+00 6.804103e-01 -1.569101e-01 -6.927884e-01 -2.632675e-01 -5.294627e-01 -5.715308e-01 -1.768044e-01 6.763926e-01 1.072062e+00 -2.357785e-01 4.910685e-01 3.977324e-01 2.431532e-01 2.705244e-01 -5.337091e-03
<VARIANCE> 39
 8.453031e+00 1.305214e+01 3.438113e+01 3.253991e+01 2.513457e+01 3.818661e+01 3.105930e+01 3.304452e+01 3.751635e+01 4.429400e+01 3.857764e+01 3.329093e+01 1.755266e-02 2.488141e+00 2.777839e+00 2.331355e+00 3.828184e+00 4.584252e+00 6.459467e+00 6.640004e+00 4.646212e+00 3.662962e+00 5.289476e+00 4.745090e+00 2.653777e+00 3.142391e-03 3.663969e-01 3.757587e-01 4.757157e-01 6.482821e-01 9.249893e-01 9.266096e-01 7.488281e-01 7.409585e-01 9.052624e-01 7.128774e-01 8.731214e-01 5.132257e-01 5.694307e-04
<GCONST> 1.057919e+02
<MIXTURE> 7 6.307817e-02
<MEAN> 39
 -1.219446e+01 4.414256e+00 6.489424e-01 2.808147e+00 -6.824023e-01 -3.417755e+00 -7.969349e+00 -5.362577e+00 -4.382003e+00 -4.781689e+00 -6.226936e+00 -4.646707e+00 3.890982e-02 -2.293709e+00 -8.366728e-01 -1.339854e+00 -6.329815e-01 6.080564e-01 9.114462e-01 2.335032e+00 1.305260e+00 3.550494e-01 -1.678867e-01 7.021897e-01 1.067731e+00 -6.961551e-02 3.236072e-01 -1.398391e+00 -6.859983e-01 -1.267284e+00 -8.610008e-01 -3.284961e-01 -9.744905e-02 4.519568e-01 8.635496e-02 5.145645e-01 7.274145e-01 3.116859e-01 4.946736e-02
<VARIANCE> 39
 1.468119e+01 1.483972e+01 2.356953e+01 1.061452e+01 9.470769e+00 1.170149e+01 1.821057e+01 7.165834e+00 1.217860e+01 1.292062e+01 6.485230e+00 6.753787e+00 1.598332e-02 2.986886e+00 4.078275e+00 3.425734e+00 5.154920e+00 2.559104e+00 3.267845e+00 3.840243e+00 4.074421e+00 3.540648e+00 2.856760e+00 2.094230e+00 1.370557e+00 4.982620e-03 6.203421e-01 5.286101e-01 5.712204e-01 7.655016e-01 6.557126e-01 3.854690e-01 6.557266e-01 4.362160e-01 5.358522e-01 5.313931e-01 4.178720e-01 1.716821e-01 5.999206e-04
<GCONST> 8.929756e+01
<MIXTURE> 8 4.913307e-02
<MEAN> 39
 -7.046562e+00 1.483122e+00 -2.740191e-02 -1.811406e+00 -1.152147e+01 -1.289275e+01 -1.044179e+01 -6.901891e+00 -6.954243e+00 -1.050009e+01 -1.139614e+01 -3.478896e+00 3.018733e-01 -1.084787e+00 3.393014e+00 -7.948565e-01 2.207606e+00 2.372654e+00 1.981070e+00 1.324878e-03 -2.387935e+00 -1.482695e+00 -2.009816e+00 -8.511231e-01 -1.790936e+00 -1.220101e-01 -2.916672e-01 -1.219610e+00 -3.398237e-01 -1.191166e+00 1.680504e-01 2.327796e-01 2.516456e-01 5.054793e-01 1.909633e-02 1.296162e+00 5.598902e-01 3.720834e-02 2.984565e-02
<VARIANCE> 39
 1.326381e+01 2.983347e+01 2.819388e+01 2.341266e+01 2.763717e+01 4.250943e+01 2.274801e+01 2.052125e+01 2.184393e+01 1.673658e+01 2.043483e+01 2.724068e+01 2.181358e-02 1.176723e+00 3.599488e+00 3.065823e+00 5.491945e+00 3.707161e+00 5.479775e+00 3.808881e+00 3.502494e+00 2.937702e+00 4.481450e+00 4.620031e+00 2.541842e+00 2.132189e-03 1.177204e-01 6.667495e-01 4.805838e-01 5.981763e-01 7.836058e-01 8.849097e-01 7.031592e-01 5.883174e-01 6.738961e-01 4.005018e-01 6.307704e-01 4.265094e-01 2.591293e-04
<GCONST> 9.860184e+01
<MIXTURE> 9 6.104245e-02
<MEAN> 39
 -2.618171e+00 -2.836039e+00 -9.266607e+00 -1.405295e+01 -2.109186e+00 -3.103248e+00 -1.197104e+01 -7.249039e+00 -9.841691e+00 5.632770e+00 3.505755e+00 -4.283237e+00 5.650825e-01 -3.132655e+00 2.009146e+00 1.215934e-01 4.252625e+00 1.847586e+00 8.525183e-01 1.730613e+00 -1.101828e-01 1.158436e+00 -1.288059e+00 -5.177707e-01 7.562784e-01 -1.699552e-01 -1.072135e+00 -6.452197e-01 2.247156e-01 3.811550e-01 -3.311327e-01 6.482086e-02 6.072233e-01 6.237603e-01 9.928123e-01 -2.396627e-01 -4.142229e-01 2.128696e-01 -1.792481e-02
<VARIANCE> 39
 9.279937e+00 1.065264e+01 2.064640e+01 3.455700e+01 2.775269e+01 4.445663e+01 5.639339e+01 3.734584e+01 3.624495e+01 3.756614e+01 6.059764e+01 3.454822e+01 1.639120e-02 2.174334e+00 2.712407e+00 2.754295e+00 4.383451e+00 3.633132e+00 7.370405e+00 4.219249e+00 6.108578e+00 3.426565e+00 4.045245e+00 5.139594e+00 3.316991e+00 2.772478e-03 2.457042e-01 3.740513e-01 4.073375e-01 5.497884e-01 4.502684e-01 5.810353e-01 1.021883e+00 4.494031e-01 4.504365e-01 6.348838e-01 5.809345e-01 4.772982e-01 3.905812e-04
<GCONST> 1.023582e+02
<MIXTURE> 10 9.133682e-02
<MEAN> 39
 -2.001237e+00 -1.000034e+01 -6.479023e+00 -1.345898e+01 -1.023917e+01 -5.262439e+00 -1.094666e+01 -1.989346e+00 -2.640624e+00 2.499393e+00 -1.884297e+00 -5.352397e+00 7.548913e-01 -4.573588e-01 4.950256e-01 1.913009e-01 1.559825e+00 8.272403e-02 2.671789e-01 1.186679e+00 -1.286704e+00 2.938217e-01 -4.915437e-01 -1.091970e+00 5.783980e-02 -3.896562e-02 -1.872617e-01 1.289457e-01 3.150702e-01 2.560060e-01 1.240914e-01 6.814453e-04 1.140084e-01 -2.413298e-01 -2.227375e-01 -1.917756e-01 1.088034e-01 2.105585e-01 -9.555654e-03
<VARIANCE> 39
 9.523182e+00 3.140181e+01 4.306580e+01 4.548391e+01 4.766072e+01 7.285526e+01 8.854212e+01 5.790125e+01 4.756422e+01 6.241181e+01 4.762816e+01 2.904978e+01 1.416779e-02 6.363108e-01 1.130981e+00 1.870764e+00 2.987859e+00 2.815897e+00 3.189836e+00 3.577109e+00 4.096914e+00 2.310758e+00 3.656651e+00 2.760259e+00 1.566611e+00 9.532899e-04 9.581996e-02 1.369248e-01 2.120705e-01 3.132145e-01 2.332511e-01 5.669631e-01 6.435243e-01 4.953738e-01 3.216131e-01 4.439778e-01 2.856014e-01 1.956488e-01 4.588059e-05
<GCONST> 9.050681e+01
<MIXTURE> 11 5.692231e-02
<MEAN> 39
 -7.107104e+00 1.766215e+00 2.397351e+00 5.380578e+00 -4.194422e+00 -8.249310e+00 -1.054345e+01 -4.910583e+00 -2.142638e+00 -3.567894e+00 -1.015955e+01 -8.084078e+00 1.674315e-01 -9.088561e-01 2.481882e+00 -1.306206e+00 9.170718e-01 2.115278e+00 1.253380e+00 1.928823e+00 -5.003893e-01 -1.053544e+00 1.543994e-01 -4.454182e-01 -6.804282e-01 -1.036843e-01 -1.124575e-01 -1.150511e+00 -4.491839e-01 -1.427006e+00 -8.564246e-01 -7.574787e-02 8.388741e-03 1.150855e-01 -2.057905e-01 9.122860e-02 9.765268e-01 7.585992e-01 4.372770e-02
<VARIANCE> 39
 4.210443e+00 1.813024e+01 8.367640e+00 2.916391e+01 2.613773e+01 1.863681e+01 2.844046e+01 2.176389e+01 2.210302e+01 1.562940e+01 1.882815e+01 1.204382e+01 1.219504e-02 8.817800e-01 2.586017e+00 4.090556e+00 4.769959e+00 3.615709e+00 4.035408e+00 4.324865e+00 3.558854e+00 3.362412e+00 4.307843e+00 4.036343e+00 2.870300e+00 3.337042e-03 2.354604e-01 5.862656e-01 3.635805e-01 6.182240e-01 6.104776e-01 9.602948e-01 7.610828e-01 5.954992e-01 4.287849e-01 5.614189e-01 5.971972e-01 3.606447e-01 3.641534e-04
<GCONST> 9.394238e+01
<MIXTURE> 12 5.550093e-02
<MEAN> 39
 -4.885762e+00 -5.115400e+00 -7.051224e+00 -1.552001e+01 -5.818087e+00 -1.834677e+01 -1.164227e+01 -5.001553e+00 -2.285614e+00 -5.485441e-01 -1.501487e+01 2.224629e+00 6.762370e-01 -2.059356e+00 2.981914e+00 6.303647e-01 4.422133e+00 1.041863e+00 1.578454e+00 1.036391e+00 -1.092104e+00 3.113441e-02 -3.342311e-01 1.795524e+00 -1.092906e-01 -1.500974e-01 -1.017699e+00 -2.257365e-01 -1.702197e-03 6.304258e-01 2.213437e-01 1.463190e+00 7.397988e-01 7.679576e-01 1.672490e-02 -7.783151e-02 1.298558e+00 -5.187281e-01 -3.573578e-02
<VARIANCE> 39
 3.808901e+00 1.445340e+01 1.885538e+01 4.446045e+01 2.775103e+01 3.687785e+01 4.308922e+01 3.630792e+01 4.296219e+01 3.772087e+01 2.355568e+01 2.321590e+01 1.362746e-02 1.812499e+00 1.305411e+00 2.046420e+00 4.310906e+00 2.431256e+00 5.164691e+00 3.456475e+00 4.217847e+00 4.297695e+00 2.580508e+00 4.027075e+00 2.935844e+00 4.755610e-03 1.130531e-01 3.906969e-01 3.248480e-01 1.069249e+00 4.944151e-01 6.734271e-01 3.510249e-01 8.867348e-01 4.951639e-01 6.492776e-01 4.095166e-01 4.403107e-01 5.607129e-04
<GCONST> 9.709996e+01
<MIXTURE> 13 3.393036e-02
<MEAN> 39
 -5.668449e+00 -1.143777e+01 3.343843e+00 -1.569403e+01 -1.627299e+01 -1.565458e+01 -5.505056e+00 3.411653e+00 -1.194481e+01 4.526465e+00 -5.773558e+00 -2.142641e+00 6.958580e-01 -4.738773e-01 1.484257e+00 -2.967140e-01 1.821033e+00 2.375306e-01 1.243318e+00 4.138626e-01 -2.073063e+00 -1.172297e-02 -2.232011e+00 4.175161e-01 -1.541638e+00 -5.825556e-02 -1.673251e-01 -1.121547e-01 -3.466930e-01 -3.423611e-01 3.297114e-01 1.483751e-01 -2.787654e-01 -1.000767e-01 1.402955e-01 -5.142012e-02 -2.587684e-01 2.541811e-02 5.669867e-03
<VARIANCE> 39
 1.335070e+01 2.092645e+01 5.517554e+01 6.229074e+01 2.264717e+01 6.334933e+01 4.486401e+01 9.069939e+01 1.372999e+02 3.865386e+01 2.912461e+01 5.093065e+01 1.340298e-02 3.483407e-01 2.096788e+00 3.864944e+00 5.780774e+00 2.902225e+00 3.524125e+00 4.481365e+00 7.734627e+00 8.390308e+00 3.525269e+00 5.864398e+00 7.691927e-01 2.493361e-03 9.305881e-02 2.414625e-01 4.477839e-01 8.616223e-01 1.801528e-01 5.716196e-01 5.616592e-01 1.030398e+00 8.619118e-01 5.634059e-01 4.878241e-01 3.877673e-01 2.569534e-04
<GCONST> 1.019388e+02
<MIXTURE> 14 5.763214e-02
<MEAN> 39
 -7.230817e+00 1.210734e-02 -2.599747e+00 -3.588870e+00 -7.227639e+00 -8.886693e+00 -8.836885e+00 -8.088675e+00 -8.142199e+00 -6.319327e+00 -8.272839e+00 -6.366417e+00 2.799843e-01 -5.333728e-01 1.623062e-01 -5.263343e-01 -1.186569e+00 -1.998066e-01 9.646134e-01 1.415199e+00 -8.028269e-01 -1.267881e+00 6.513380e-01 7.615675e-01 2.501431e-01 5.824952e-03 1.471368e-01 -1.017736e+00 2.664461e-01 -2.130459e-01 -5.409713e-01 -1.733568e-01 -2.002163e-01 4.680824e-01 5.261598e-01 3.947068e-01 2.543693e-01 5.464208e-01 2.853766e-02
<VARIANCE> 39
 9.771693e+00 3.379237e+01 2.161281e+01 2.593483e+01 3.495663e+01 2.147407e+01 4.005549e+01 2.541645e+01 3.349358e+01 1.894801e+01 2.658991e+01 1.576332e+01 1.994475e-02 1.093510e+00 2.151160e+00 2.780651e+00 2.218660e+00 4.351004e+00 4.919138e+00 3.569812e+00 3.247612e+00 3.813133e+00 2.470176e+00 2.337362e+00 2.610351e+00 2.306274e-03 2.996059e-01 6.369776e-01 6.930786e-01 6.869310e-01 9.469038e-01 1.294874e+00 6.371900e-01 6.273572e-01 7.923144e-01 5.806088e-01 5.987087e-01 4.181634e-01 8.753046e-04
<GCONST> 9.978320e+01
<MIXTURE> 15 7.552192e-02
<MEAN> 39
 -6.194304e+00 -6.378426e+00 -1.280243e+00 -7.397361e+00 -1.571719e+01 -1.585967e+01 -8.371485e+00 -3.706901e+00 -5.138143e+00 -4.826831e+00 -6.597199e+00 2.083605e+00 6.273754e-01 -1.047027e+00 2.931154e+00 7.960016e-01 2.889374e+00 2.417667e+00 2.530377e+00 -2.885477e-01 -1.011100e+00 -2.190737e-01 -1.743770e+00 -4.327430e-01 -1.405358e+00 -1.291555e-01 -4.828570e-01 3.541485e-01 -3.066030e-01 -6.759932e-02 9.306082e-01 6.756276e-01 1.858624e-01 2.263420e-02 -1.219963e-02 4.944184e-01 4.820282e-02 -5.690063e-01 -1.888820e-02
<VARIANCE> 39
 1.481509e+01 2.409607e+01 2.075101e+01 3.615089e+01 4.261555e+01 3.637562e+01 3.768664e+01 3.379705e+01 3.346541e+01 2.441441e+01 2.370235e+01 2.898363e+01 1.664071e-02 1.561060e+00 2.229440e+00 3.395725e+00 3.985520e+00 4.459065e+00 3.493542e+00 2.752176e+00 2.703423e+00 3.135342e+00 3.800613e+00 3.622630e+00 3.790347e+00 1.851264e-03 3.865485e-01 4.319326e-01 4.629086e-01 5.062687e-01 7.300388e-01 5.324826e-01 5.270739e-01 4.866383e-01 7.546321e-01 5.781664e-01 6.313341e-01 6.024505e-01 2.852531e-04
<GCONST> 9.971918e+01
<MIXTURE> 16 5.711379e-02
<MEAN> 39
 -7.834800e+00 -1.477415e+00 -8.700023e+00 -4.396514e+00 8.699539e-01 -4.225787e+00 -1.158008e+01 -7.583093e+00 -5.638979e+00 3.751737e+00 1.110992e+00 -4.823578e+00 2.744566e-01 -4.502292e+00 9.142403e-01 3.105171e-01 3.811197e+00 1.269937e+00 6.073457e-01 2.999276e+00 8.215436e-01 1.926432e+00 -1.537893e+00 -1.557204e+00 6.578646e-01 -1.990650e-01 -1.998904e-01 -1.072943e+00 1.216388e-01 -9.743595e-01 -9.212734e-01 1.580468e-01 3.045343e-01 9.192574e-01 2.479304e-01 -1.518281e-01 1.167207e-02 2.599387e-01 2.481784e-02
<VARIANCE> 39
 1.406603e+01 1.501248e+01 1.891733e+01 1.787412e+01 2.593106e+01 4.568664e+01 2.965062e+01 3.147370e+01 3.623420e+01 1.683563e+01 3.878278e+01 1.315821e+01 2.230280e-02 9.731915e-01 3.539510e+00 3.839906e+00 5.512064e+00 3.565006e+00 5.105564e+00 3.855062e+00 3.728555e+00 4.310268e+00 3.542239e+00 9.143324e+00 3.210328e+00 2.504332e-03 3.058464e-01 4.842749e-01 5.113072e-01 6.211318e-01 8.639166e-01 6.933140e-01 4.695193e-01 6.505837e-01 4.465143e-01 3.289452e-01 4.320185e-01 3.561952e-01 5.861856e-04
<GCONST> 9.959933e+01
<TRANSP> 5
 0.000000e+00 1.000000e+00 0.000000e+00 0.000000e+00 0.000000e+00
 0.000000e+00 6.724356e-01 3.275644e-01 0.000000e+00 0.000000e+00
 0.000000e+00 0.000000e+00 5.477349e-01 4.522651e-01 0.000000e+00
 0.000000e+00 0.000000e+00 0.000000e+00 5.214001e-01 4.785999e-01
 0.000000e+00 0.000000e+00 0.000000e+00 0.000000e+00 0.000000e+00
<ENDHMM>
