~o
<STREAMINFO> 1 39
<VECSIZE> 39<NULLD><MFCC_E_D_A><DIAGC>
~h "w"
<BEGINHMM>
<NUMSTATES> 5
<STATE> 2
<NUMMIXES> 16
<MIXTURE> 1 5.484452e-02
<MEAN> 39
 -1.379307e+01 -1.143306e+01 -1.157248e+01 -6.848768e+00 2.837110e-01 -1.900942e-01 -5.364017e+00 -4.349846e+00 -2.339655e+00 1.849105e+00 1.194610e+00 7.752374e-02 2.642696e-01 3.656605e+00 2.118232e+00 2.571546e-01 -8.500121e-01 -1.218129e+00 7.411467e-01 9.671036e-01 -4.072854e-01 -2.198940e+00 -1.280822e+00 1.312392e-01 3.957382e-01 5.890129e-03 5.114436e-01 9.026436e-01 6.988876e-01 -9.089394e-01 -1.098141e+00 -1.879734e-01 -2.823948e-01 4.489949e-01 -1.491826e-01 -5.508395e-01 -2.698301e-01 -1.760011e-01 4.087026e-02
<VARIANCE> 39
 1.025932e+01 8.066244e+00 1.048309e+01 1.551101e+01 1.591603e+01 1.501475e+01 1.596125e+01 1.226246e+01 1.610012e+01 1.235006e+01 1.327642e+01 1.190858e+01 2.066848e-02 3.246227e+00 1.973209e+00 2.170767e+00 2.292790e+00 3.120021e+00 2.549932e+00 3.270577e+00 2.838928e+00 2.434116e+00 2.812045e+00 2.265853e+00 1.688483e+00 3.163693e-03 3.298103e-01 3.642157e-01 3.929334e-01 4.850627e-01 5.644603e-01 4.847123e-01 5.888820e-01 5.813499e-01 5.520011e-01 4.949796e-01 4.944066e-01 4.426194e-01 3.100901e-04
<GCONST> 8.664723e+01
<MIXTURE> 2 5.995478e-02
<MEAN> 39
 -5.717051e-01 -8.373198e+00 -7.487237e+00 -1.050452e+01 -6.237195e+00 -8.128127e+00 -1.617471e+01 -5.760178e+00 -9.852478e+00 3.626819e+00 -1.239043e+00 -5.976821e+00 6.682477e-01 1.137118e+00 2.234149e+00 -2.289814e+00 -2.372189e+00 9.873401e-01 3.650951e+00 1.016689e+00 -2.781204e+00 -1.861054e+00 3.545051e-01 1.380758e+00 3.323429e-01 -2.431503e-02 -2.696743e-01 2.918983e-01 6.782360e-01 -3.959178e-01 -1.134621e+00 -4.093033e-02 1.297664e+00 6.191319e-01 -2.828322e-01 -8.577866e-01 -1.480263e-01 5.396633e-01 8.896754e-04
<VARIANCE> 39
 9.092837e+00 2.407507e+01 4.245190e+01 5.431319e+01 2.943398e+01 6.141586e+01 4.155906e+01 4.681831e+01 4.773561e+01 5.650257e+01 7.581184e+01 2.813505e+01 1.779627e-02 5.635945e-01 1.245056e+00 2.092428e+00 2.279294e+00 2.442883e+00 2.330694e+00 4.502493e+00 3.001192e+00 3.925911e+00 3.253576e+00 2.351125e+00 2.379336e+00 4.740705e-04 8.844488e-02 2.591399e-01 2.537753e-01 3.815941e-01 4.341597e-01 5.788896e-01 5.147775e-01 5.587392e-01 4.965879e-01 6.270714e-01 5.133955e-01 3.936457e-01 8.815711e-05
<GCONST> 9.274491e+01
<MIXTURE> 3 6.815036e-02
<MEAN> 39
 -1.621657e+00 2.558730e+00 -7.488997e+00 -1.213414e+01 -1.183506e+01 -6.387390e+00 -5.389344e+00 -3.945437e+00 -5.921211e+00 -3.924025e+00 -4.369153e+00 -3.426100e+00 4.251013e-01 1.145150e+00 -9.336811e-02 -7.941321e-01 -2.036786e+00 -1.113782e+00 3.626107e-01 2.864484e-01 6.219406e-01 6.683887e-02 5.286752e-02 4.185835e-01 3.270423e-01 6.092578e-02 2.233366e-02 -3.287522e-01 -2.375660e-01 -4.272000e-01 -4.952389e-02 5.689221e-01 7.255549e-02 -2.868798e-02 -2.042677e-01 1.812480e-01 2.852045e-01 2.094819e-01 1.328418e-02
<VARIANCE> 39
 9.012276e+00 2.132469e+01 1.712429e+01 2.624527e+01 2.121530e+01 2.373979e+01 2.310325e+01 1.988115e+01 2.434073e+01 1.760892e+01 1.931740e+01 1.234843e+01 2.022787e-02 8.042908e-01 1.833256e+00 1.622898e+00 2.209438e+00 3.007813e+00 2.541535e+00 2.342982e+00 2.684395e+00 2.618206e+00 1.916641e+00 1.722740e+00 1.799411e+00 8.262752e-04 2.292235e-01 4.201386e-01 3.849001e-01 5.039494e-01 4.983782e-01 5.141759e-01 6.327156e-01 6.199859e-01 5.419472e-01 5.681880e-01 3.934594e-01 2.910992e-01 2.582402e-04
<GCONST> 8.632960e+01
<MIXTURE> 4 4.134432e-02
<MEAN> 39
 -4.055412e+00 2.336611e+00 -8.257726e+00 -1.039219e+01 -7.012033e+00 2.070786e+00 -4.410228e-01 -1.731768e+00 -8.164037e+00 -3.398690e+00 -1.557527e+00 -1.608464e-01 3.963647e-01 4.319445e+00 2.569970e-01 4.893701e-01 -1.717579e+00 -1.911820e+00 1.848024e-01 -2.062212e+00 -1.799420e+00 -2.084477e+00 -4.810985e-01 1.377646e+00 5.232167e-03 1.624674e-01 -3.749486e-01 -1.259857e+00 -1.430539e-01 -7.204973e-02 -2.353034e-02 -3.838563e-01 -1.048810e+00 -9.349647e-02 4.017400e-01 6.127066e-01 4.337138e-01 -2.361951e-01 3.958137e-03
<VARIANCE> 39
 1.252118e+01 1.731780e+01 1.640428e+01 2.662586e+01 1.804867e+01 2.189236e+01 1.781734e+01 2.220201e+01 2.432063e+01 1.660467e+01 2.121735e+01 1.460446e+01 2.768885e-02 1.090592e+00 3.129254e+00 3.361920e+00 4.714617e+00 4.305876e+00 3.986001e+00 5.314370e+00 4.789421e+00 4.380712e+00 3.805895e+00 4.009327e+00 2.603017e+00 2.348190e-03 2.434112e-01 3.033325e-01 3.538440e-01 5.203172e-01 3.535989e-01 5.691528e-01 5.080283e-01 5.566709e-01 6.570605e-01 4.285016e-01 4.774071e-01 3.762658e-01 3.258143e-04
<GCONST> 9.424321e+01
<MIXTURE> 5 8.426094e-02
<MEAN> 39
 1.795027e+00 -1.347089e+00 -9.172001e+00 -1.858904e+01 -1.269970e+01 8.388069e-01 -4.734956e+00 -5.783491e+00 -1.494640e+01 -4.070459e+00 7.303252e-01 -7.185530e-01 6.224838e-01 2.798821e-01 2.076133e+00 4.870417e-01 -1.179934e+00 -1.800238e+00 -1.410217e-01 2.140417e+00 1.394225e+00 3.797010e-01 -1.898134e+00 -1.809404e+00 -3.074295e-01 -2.114448e-02 -2.956944e-01 -4.334012e-01 3.433827e-01 7.054292e-01 7.968071e-02 -9.615921e-01 -7.566575e-01 3.822589e-01 1.192020e+00 5.108480e-01 -3.724763e-01 -5.384962e-01 2.648880e-03
<VARIANCE> 39
 4.879047e+00 2.033036e+01 2.384081e+01 4.577743e+01 2.926337e+01 3.341291e+01 2.942808e+01 3.540383e+01 3.680469e+01 3.451801e+01 4.232809e+01 2.093891e+01 1.449947e-02 4.310069e-01 1.507720e+00 1.463203e+00 2.509982e+00 2.026015e+00 2.360516e+00 2.775465e+00 2.386880e+00 2.755329e+00 2.916198e+00 2.402615e+00 2.080427e+00 6.282153e-04 8.546246e-02 2.513973e-01 2.263022e-01 2.973075e-01 3.601139e-01 3.510889e-01 3.946911e-01 4.337719e-01 4.278792e-01 3.612194e-01 4.249069e-01 3.442275e-01 1.057526e-04
<GCONST> 8.413385e+01
<MIXTURE> 6 5.719095e-02
<MEAN> 39
 1.329186e+00 3.009725e+00 -8.640882e+00 -1.986609e+01 -1.708237e+01 -3.638674e+00 -4.511927e+00 -1.021052e+00 -5.612062e+00 -4.950561e+00 -3.610940e+00 -2.815507e+00 5.753300e-01 -4.283026e-01 1.182832e+00 1.265801e+00 1.153031e+00 -5.652476e-01 -1.585642e+00 -2.592248e-01 -1.000478e-01 9.747481e-01 3.524219e-01 -3.974829e-01 -1.060060e+00 -3.330220e-02 -1.369744e-01 -6.866035e-01 -2.217003e-01 2.507837e-01 6.516820e-01 2.973660e-01 -3.721248e-01 -4.503308e-01 -7.883382e-02 4.464480e-01 4.224508e-01 1.236465e-01 6.631981e-03
<VARIANCE> 39
 8.648595e+00 1.812833e+01 3.067199e+01 5.079856e+01 4.032661e+01 4.850051e+01 3.339546e+01 3.846906e+01 4.059284e+01 2.895300e+01 3.066014e+01 2.513656e+01 2.468333e-02 7.895746e-01 2.109369e+00 2.295967e+00 2.934920e+00 4.107072e+00 3.118435e+00 3.188926e+00 3.733753e+00 3.335092e+00 2.828218e+00 2.994884e+00 2.417677e+00 1.193792e-03 1.443504e-01 2.706220e-01 3.503027e-01 5.234608e-01 5.748136e-01 5.342590e-01 5.872879e-01 4.978488e-01 5.226448e-01 4.761894e-01 5.280387e-01 3.722476e-01 1.664206e-04
<GCONST> 9.470580e+01
<MIXTURE> 7 7.476232e-02
<MEAN> 39
 -1.063699e+01 -4.850603e+00 -1.000206e+01 -8.064281e+00 -2.926580e+00 7.059906e-01 -1.862072e+00 -2.079605e+00 -4.178496e+00 -1.142068e+00 -5.417856e-01 2.087676e-01 1.702160e-01 2.896432e+00 1.432404e+00 7.470847e-01 -1.160621e+00 -1.561808e+00 -5.728752e-02 -3.557426e-01 -4.014913e-01 -1.166136e+00 -7.307468e-01 -2.779709e-03 -2.647207e-01 7.735308e-02 4.992571e-01 -1.212922e-01 1.753521e-01 -6.355208e-01 -5.852140e-01 -3.200926e-01 -7.012731e-01 -2.203609e-02 -1.343533e-01 1.420245e-01 -2.522049e-02 -2.903685e-01 3.804868e-02
<VARIANCE> 39
 1.995963e+01 1.975283e+01 2.131569e+01 2.985557e+01 2.126020e+01 2.030657e+01 2.435001e+01 2.426694e+01 1.703685e+01 1.762564e+01 1.509454e+01 1.292112e+01 4.056069e-02 4.037614e+00 4.161560e+00 3.147833e+00 3.632309e+00 4.284751e+00 3.082247e+00 5.286635e+00 3.434904e+00 3.383612e+00 3.843715e+00 3.071112e+00 2.568526e+00 4.498055e-03 4.059883e-01 5.135069e-01 5.661712e-01 7.177421e-01 5.230076e-01 6.719787e-01 7.402163e-01 8.308374e-01 6.233232e-01 6.307589e-01 5.632445e-01 4.218782e-01 4.717244e-04
<GCONST> 1.002671e+02
<MIXTURE> 8 4.021207e-02
<MEAN> 39
 -3.688596e+00 -7.896729e-01 -1.009927e+01 -1.378641e+01 -8.489609e+00 -7.292600e+00 -9.236629e+00 -9.653253e+00 -9.701311e+00 -4.265211e+00 -6.584857e+00 -4.743516e+00 4.645455e-01 4.204743e+00 5.602781e-01 -1.089264e+00 -3.812533e+00 -1.670582e+00 -6.922758e-01 -1.717661e+00 -1.879285e+00 -2.237179e+00 7.963996e-01 -8.775037e-01 -3.045390e-01 1.222094e-01 -7.775663e-01 -8.199877e-01 -8.707058e-02 -7.280287e-02 4.978009e-01 2.184530e-01 3.736506e-01 9.617798e-01 7.058473e-01 9.542896e-01 2.279061e-01 4.645440e-01 3.752895e-03
<VARIANCE> 39
 1.354943e+01 2.263960e+01 1.381181e+01 2.459805e+01 2.893409e+01 1.946355e+01 3.235971e+01 2.056082e+01 2.389760e+01 2.235000e+01 1.846099e+01 1.046809e+01 1.696748e-02 1.829527e+00 2.674136e+00 2.809193e+00 4.053720e+00 3.412430e+00 4.916785e+00 4.721736e+00 4.524857e+00 4.530746e+00 5.320560e+00 4.485130e+00 3.025486e+00 3.686027e-03 3.002438e-01 4.694330e-01 3.874049e-01 5.771051e-01 6.414022e-01 6.326513e-01 8.379961e-01 6.831851e-01 6.744305e-01 6.756189e-01 6.278753e-01 3.408927e-01 3.497464e-04
<GCONST> 9.841961e+01
<MIXTURE> 9 6.813728e-02
<MEAN> 39
 5.001981e-01 -4.403356e+00 -1.084350e+01 -1.609826e+01 -7.581602e+00 -2.337276e+00 -9.592984e+00 -9.374553e+00 -1.413792e+01 2.069180e+00 3.838961e-01 -1.604021e+00 6.235326e-01 4.223841e-01 2.228503e+00 -4.497856e-01 -1.830572e+00 -1.068416e+00 1.834117e+00 2.601267e+00 -3.258599e-01 -1.603356e+00 -1.862781e+00 3.155132e-01 1.176882e+00 -2.503911e-02 -3.232961e-01 -2.353295e-01 7.185048e-01 4.329905e-01 -6.074646e-01 -9.801622e-01 1.362624e-01 1.112445e+00 7.928630e-01 -5.040001e-01 -8.045571e-01 -1.663480e-01 2.796915e-03
<VARIANCE> 39
 7.750333e+00 2.165583e+01 2.954256e+01 5.428857e+01 2.844608e+01 3.930714e+01 3.495094e+01 3.209416e+01 4.502986e+01 4.684681e+01 5.993064e+01 2.604526e+01 2.180476e-02 7.143249e-01 1.933990e+00 1.646522e+00 3.193789e+00 2.266716e+00 2.794459e+00 2.910380e+00 3.498009e+00 3.584964e+00 3.663111e+00 2.652610e+00 2.555860e+00 9.901418e-04 1.301789e-01 3.277521e-01 2.855905e-01 3.509014e-01 4.206732e-01 4.486725e-01 4.844066e-01 4.063371e-01 4.936942e-01 6.154521e-01 4.354084e-01 3.969382e-01 1.517623e-04
<GCONST> 9.263737e+01
<MIXTURE> 10 6.249272e-02
<MEAN> 39
 4.124553e+00 -5.326513e+00 -1.507386e+01 -1.525822e+01 -9.063262e+00 -4.139512e+00 -8.950507e+00 1.201607e+00 -1.154501e+01 -7.109618e+00 4.969782e+00 4.717610e+00 7.346095e-01 -5.995513e-02 1.796751e+00 1.461940e+00 -1.323184e+00 -2.475725e+00 6.403472e-01 2.759726e+00 1.367006e-01 -1.698848e+00 -8.984210e-01 -7.020806e-01 -4.578692e-01 -2.330339e-02 -1.405841e-01 -5.258700e-03 2.864767e-01 1.298984e-01 -3.907964e-02 -2.222891e-01 -2.989875e-01 -1.206639e-01 8.468021e-01 4.544464e-01 -5.340228e-01 -7.348588e-01 -1.497647e-03
<VARIANCE> 39
 6.484323e+00 2.136239e+01 2.925395e+01 4.462860e+01 5.283912e+01 4.794009e+01 6.774010e+01 7.171983e+01 6.229542e+01 5.949589e+01 4.418573e+01 3.029685e+01 1.045443e-02 2.507553e-01 7.292661e-01 1.326759e+00 1.471129e+00 2.669124e+00 2.658484e+00 4.038045e+00 3.437005e+00 3.656598e+00 2.892876e+00 2.886567e+00 3.211617e+00 2.063413e-04 2.833225e-02 1.628278e-01 1.668273e-01 2.242548e-01 3.690355e-01 3.065933e-01 4.392095e-01 4.271721e-01 5.015014e-01 4.810310e-01 4.645739e-01 3.507756e-01 3.732117e-05
<GCONST> 8.467485e+01
<MIXTURE> 11 7.219996e-02
<MEAN> 39
 6.782776e-01 4.273522e+00 -7.031701e+00 -1.560664e+01 -1.507725e+01 -3.268379e+00 -2.780878e+00 -1.300193e+00 -6.160313e+00 -4.460802e+00 -3.019680e+00 -2.936899e+00 4.969393e-01 3.241733e+00 4.668244e-01 1.305525e-01 -3.205530e+00 -3.178095e+00 2.867942e-01 -4.976656e-01 -3.340582e-01 -1.174065e+00 -1.045255e+00 5.069334e-01 -8.367997e-02 1.216376e-01 -9.757903e-01 -1.275171e+00 -4.188522e-01 1.629590e-01 8.015423e-01 6.420041e-01 -2.512300e-01 -2.003917e-01 7.756222e-02 4.163251e-01 6.431773e-01 3.233747e-01 -1.092958e-02
<VARIANCE> 39
 6.527112e+00 1.466810e+01 1.406107e+01 2.617284e+01 1.883213e+01 2.331517e+01 2.224475e+01 1.851960e+01 3.011464e+01 2.258567e+01 1.913596e+01 1.501723e+01 1.867265e-02 2.069217e+00 3.516077e+00 2.875268e+00 3.367744e+00 3.429353e+00 4.356308e+00 3.008788e+00 3.628119e+00 3.657724e+00 2.999068e+00 2.836565e+00 2.421711e+00 2.793488e-03 2.008607e-01 2.616019e-01 3.069773e-01 5.424897e-01 3.742406e-01 4.186008e-01 5.980142e-01 4.198018e-01 5.660558e-01 5.873613e-01 4.070885e-01 3.064846e-01 2.617188e-04
<GCONST> 9.084071e+01
<MIXTURE> 12 7.331023e-02
<MEAN> 39
 -1.659573e+00 -1.131194e+00 -7.224146e+00 -1.181005e+01 -1.549093e+01 -4.759393e+00 -1.074125e+00 -6.296786e+00 -9.540007e+00 8.974750e-01 -3.636793e+00 -5.869971e+00 5.361143e-01 5.132518e-01 3.477229e-01 -2.938698e-01 -1.234641e+00 -5.244167e-01 1.246098e-01 -5.470837e-02 8.735672e-01 3.738362e-01 -9.699617e-02 5.629179e-01 -1.467919e-01 2.186482e-02 5.075453e-03 -1.922597e-01 -9.044994e-02 -1.710512e-01 3.755084e-01 2.207616e-01 -2.964621e-01 1.507199e-01 5.965285e-02 -1.791108e-01 1.343444e-01 2.231414e-01 5.589085e-03
<VARIANCE> 39
 8.497567e+00 2.822488e+01 2.421090e+01 3.941521e+01 3.794013e+01 4.161775e+01 5.134792e+01 3.705286e+01 4.341837e+01 4.018233e+01 4.682951e+01 3.539299e+01 2.160111e-02 4.171576e-01 1.080168e+00 1.258399e+00 2.419116e+00 2.618508e+00 2.188258e+00 2.490987e+00 2.333771e+00 2.379449e+00 2.284719e+00 2.327247e+00 1.915404e+00 5.866847e-04 1.022311e-01 2.344568e-01 3.030975e-01 3.999719e-01 4.872985e-01 5.099232e-01 6.344382e-01 3.985022e-01 5.401179e-01 4.648653e-01 4.586025e-01 4.532992e-01 9.172281e-05
<GCONST> 8.868663e+01
<MIXTURE> 13 8.228636e-02
<MEAN> 39
 -1.836777e+01 -1.127849e+01 -7.987161e+00 -6.504617e+00 -9.696960e-01 -3.544721e+00 -8.108566e+00 -1.576935e+00 2.709185e+00 2.151661e+00 -1.709652e+00 -2.605530e+00 3.590912e-01 3.099617e+00 -1.578330e-01 -9.678293e-01 5.738103e-01 3.626658e-02 4.836407e-01 3.000292e-02 -1.944460e+00 -1.605457e+00 3.396006e-01 6.279958e-01 -2.805990e-02 -4.362496e-02 6.135031e-01 1.142105e+00 2.580405e-01 -7.548206e-01 -4.174741e-01 7.285997e-02 2.806896e-01 -2.592093e-02 -9.462840e-01 -5.439059e-01 4.330881e-02 3.226479e-01 2.102424e-02
<VARIANCE> 39
 1.360751e+01 1.119814e+01 1.250706e+01 1.687513e+01 1.326535e+01 1.806262e+01 1.736970e+01 1.990655e+01 1.725830e+01 1.450770e+01 1.606080e+01 9.613723e+00 2.352692e-02 3.397141e+00 2.461424e+00 1.959435e+00 2.335939e+00 2.897028e+00 2.425161e+00 2.929722e+00 3.024434e+00 3.001716e+00 2.043622e+00 1.972326e+00 1.886781e+00 2.080295e-03 3.923587e-01 4.064520e-01 3.851777e-01 5.315849e-01 5.423322e-01 4.804574e-01 5.267447e-01 6.850256e-01 5.033264e-01 5.338591e-01 4.437523e-01 3.201604e-01 4.703833e-04
<GCONST> 8.820856e+01
<MIXTURE> 14 5.673214e-02
<MEAN> 39
 -1.221988e+01 -6.600901e-01 -5.000941e+00 -4.664535e+00 -4.127944e+00 -2.959951e+00 -3.365929e+00 -2.655582e+00 -4.222766e+00 -3.044193e+00 -4.908668e+00 -3.510459e+00 1.377237e-01 4.677455e+00 1.631949e+00 -3.762991e-01 -2.689403e+00 -2.061865e+00 -9.339575e-01 -1.682746e+00 -1.888831e+00 -2.269090e+00 -9.005600e-01 -9.461955e-01 -6.084045e-01 1.325668e-01 4.898953e-01 -5.432908e-01 -6.169710e-01 -1.200148e+00 -2.992094e-01 -1.086060e-02 -3.353849e-01 -3.975167e-02 -2.138745e-01 4.678991e-01 2.802206e-01 3.469227e-01 3.665946e-02
<VARIANCE> 39
 1.322027e+01 3.731870e+01 1.362718e+01 1.432274e+01 1.986585e+01 2.231235e+01 2.851334e+01 2.326674e+01 2.203702e+01 1.798695e+01 1.534935e+01 1.230122e+01 3.378017e-02 1.336986e+00 1.937433e+00 2.472089e+00 3.467667e+00 2.578617e+00 3.203691e+00 3.405830e+00 3.583223e+00 3.868927e+00 3.453506e+00 3.169120e+00 2.205611e+00 4.547007e-03 3.115048e-01 5.710268e-01 3.396752e-01 4.411753e-01 4.404593e-01 6.456369e-01 7.715394e-01 7.048905e-01 6.024091e-01 7.775199e-01 5.780121e-01 3.360606e-01 4.810207e-04
<GCONST> 9.490836e+01
<MIXTURE> 15 4.559562e-02
<MEAN> 39
 -2.210909e+00 2.902745e+00 -8.627039e+00 -1.437973e+01 -1.073655e+01 -7.265451e+00 -6.780344e+00 -6.016189e+00 -1.022121e+01 -5.984286e+00 -6.942639e+00 -3.951314e+00 3.895427e-01 -5.359985e-01 2.453879e-01 6.137791e-01 8.320556e-01 -5.021592e-03 -3.073129e-01 -9.042187e-02 7.702525e-02 8.862990e-01 -2.527096e-01 -3.768689e-01 -4.115112e-01 -2.080162e-02 3.311530e-01 -7.007352e-01 -4.369268e-01 -6.877635e-01 1.890544e-01 2.102376e-01 -2.830800e-01 1.052285e-01 -8.327217e-02 7.639543e-01 3.193361e-01 2.892374e-01 3.036282e-02
<VARIANCE> 39
 9.910948e+00 1.558390e+01 1.967997e+01 4.345051e+01 2.035966e+01 1.960119e+01 2.006976e+01 2.041467e+01 2.648509e+01 2.167555e+01 2.339137e+01 1.672758e+01 2.082113e-02 1.107687e+00 1.535454e+00 1.420942e+00 2.927864e+00 2.017382e+00 1.676234e+00 1.951137e+00 2.650310e+00 2.567925e+00 2.444722e+00 2.013601e+00 1.810687e+00 1.801720e-03 2.313922e-01 3.846658e-01 4.615937e-01 7.105143e-01 5.183152e-01 6.184426e-01 7.288244e-01 5.925949e-01 7.184737e-01 6.582747e-01 5.154459e-01 4.759751e-01 2.312745e-04
<GCONST> 8.951617e+01
<MIXTURE> 16 5.850812e-02
<MEAN> 39
 -2.217646e+00 -2.593031e+00 -7.734462e+00 -9.983377e+00 -5.611406e+00 -1.421298e+00 -7.173857e+00 -7.241647e+00 -7.728638e+00 -2.266782e+00 1.249719e+00 5.413837e-01 4.904033e-01 3.302035e+00 1.337532e+00 2.718330e-01 -2.267265e+00 -2.684673e+00 6.904967e-01 -8.236087e-02 -4.482304e-01 -1.904976e+00 -1.161777e+00 6.689321e-01 2.103465e-01 5.785927e-02 -7.519600e-01 -3.683987e-01 1.749668e-01 -2.322284e-01 -2.164147e-01 -1.422960e-01 -2.009522e-01 6.558238e-01 5.796577e-01 1.393287e-01 -2.300795e-01 -3.686693e-01 7.066253e-03
<VARIANCE> 39
 1.153169e+01 9.370154e+00 1.053252e+01 2.159786e+01 2.078668e+01 1.238459e+01 1.914711e+01 1.575085e+01 1.722044e+01 1.724015e+01 1.587239e+01 1.326920e+01 1.274789e-02 3.297495e+00 2.777888e+00 3.031259e+00 3.707210e+00 3.862794e+00 2.862926e+00 5.180310e+00 3.791375e+00 3.794215e+00 4.127687e+00 3.438060e+00 2.716617e+00 1.605889e-03 3.595417e-01 4.009024e-01 2.885323e-01 4.205920e-01 4.936302e-01 4.346393e-01 5.542610e-01 4.942236e-01 4.370483e-01 4.958839e-01 4.105201e-01 3.089962e-01 2.032514e-04
<GCONST> 8.931901e+01
<STATE> 3
<NUMMIXES> 16
<MIXTURE> 1 6.383137e-02
<MEAN> 39
 3.157281e+00 -1.807517e-01 -7.370163e+00 -2.280545e+01 -2.225969e+01 6.557097e-01 -1.461459e+00 -2.300575e+00 -3.357648e+00 -5.453484e+00 -8.390542e-01 -2.035040e+00 7.266828e-01 2.219653e-02 -1.261809e+00 -7.620994e-01 -1.160655e+00 3.002666e-02 1.326957e+00 7.516913e-01 -1.041059e-03 2.187812e-01 -2.961105e-01 5.635815e-01 5.568831e-01 3.399250e-02 -1.195841e-01 -2.826939e-01 -2.608692e-01 2.748552e-01 6.728336e-01 1.701768e-01 -6.815096e-02 -1.811697e-01 -2.536019e-01 4.047212e-02 2.670906e-01 5.217768e-02 -1.763278e-03
<VARIANCE> 39
 4.480455e+00 2.252837e+01 2.368550e+01 3.176892e+01 2.860733e+01 3.395910e+01 2.733672e+01 3.111018e+01 4.257241e+01 2.574504e+01 2.737646e+01 2.360528e+01 8.011485e-03 2.045066e-01 7.322851e-01 5.932088e-01 7.729077e-01 1.636122e+00 1.215859e+00 1.135801e+00 1.673103e+00 1.286779e+00 1.430480e+00 1.250584e+00 8.903614e-01 2.389525e-04 3.023321e-02 1.002443e-01 8.669102e-02 1.092440e-01 1.811119e-01 1.397605e-01 1.483849e-01 2.054082e-01 2.017116e-01 2.098300e-01 2.113948e-01 1.799565e-01 2.780960e-05
<GCONST> 6.166572e+01
<MIXTURE> 2 4.155410e-02
<MEAN> 39
 3.726747e+00 -1.496806e+00 -1.267335e+01 -1.734302e+01 -1.681190e+01 -8.479630e-01 -9.905565e-01 -6.749058e-01 -7.629327e+00 -1.055542e+01 3.326973e+00 4.583307e-01 7.198678e-01 3.596702e-01 -2.008365e+00 -1.559812e+00 -3.202159e-01 1.050984e+00 1.532967e+00 -1.130636e+00 -8.241147e-01 -3.807706e-01 -5.640385e-01 2.190747e+00 1.602871e+00 4.955516e-02 -6.778905e-01 -4.832789e-01 1.497630e-01 8.883753e-01 1.058072e+00 -2.675292e-01 -9.093835e-01 -4.403493e-01 6.119196e-01 1.210315e+00 -1.890628e-02 -3.764680e-01 -1.620532e-02
<VARIANCE> 39
 6.807219e+00 2.219538e+01 2.868873e+01 2.907199e+01 3.735911e+01 3.676786e+01 4.101139e+01 5.237598e+01 3.698738e+01 3.408832e+01 3.146619e+01 3.983710e+01 1.073320e-02 6.443580e-01 1.477816e+00 1.974679e+00 2.116059e+00 3.386523e+00 3.606157e+00 3.825943e+00 3.531459e+00 3.036476e+00 3.397671e+00 3.446934e+00 2.513056e+00 4.536220e-04 2.168639e-01 2.428561e-01 3.186076e-01 3.807068e-01 3.550537e-01 4.957501e-01 6.559237e-01 5.428820e-01 4.506737e-01 4.798217e-01 4.104743e-01 5.180089e-01 1.577755e-04
<GCONST> 9.168227e+01
<MIXTURE> 3 6.491102e-02
<MEAN> 39
 2.441791e+00 3.757278e+00 -8.026188e+00 -1.680449e+01 -1.573189e+01 -5.059707e+00 -4.119071e+00 -2.093158e+00 -6.229418e+00 -4.057182e+00 -4.299115e+00 -3.016385e+00 5.518798e-01 2.536742e-01 -3.587811e-01 -1.580935e-01 -7.504395e-01 -5.865034e-01 5.236908e-01 2.397885e-01 1.220941e-01 -2.486229e-02 4.325734e-02 2.362181e-01 4.779979e-01 2.433346e-02 3.849708e-02 -6.933200e-01 -2.230474e-01 -3.704848e-01 1.420743e-01 7.642850e-01 -1.511335e-01 -2.946985e-01 -5.329778e-01 1.308034e-01 6.390092e-01 3.635291e-01 1.630824e-02
<VARIANCE> 39
 3.699515e+00 1.289132e+01 1.461158e+01 1.756188e+01 2.429291e+01 2.065637e+01 1.974842e+01 1.871771e+01 2.152567e+01 1.452976e+01 1.573206e+01 1.210335e+01 9.460742e-03 2.025760e-01 7.423674e-01 5.960115e-01 1.123803e+00 1.914312e+00 1.701300e+00 1.111964e+00 1.240290e+00 1.950848e+00 1.356846e+00 1.400467e+00 1.301441e+00 5.233395e-04 5.095769e-02 2.659049e-01 2.217973e-01 2.946709e-01 5.180120e-01 3.240409e-01 4.934529e-01 4.487202e-01 3.834606e-01 4.871798e-01 4.904965e-01 3.117609e-01 6.540200e-05
<GCONST> 6.926757e+01
<MIXTURE> 4 6.092879e-02
<MEAN> 39
 1.241235e+00 -3.288428e+00 -1.127737e+01 -1.785879e+01 -8.121531e+00 -3.070863e-01 -8.465965e+00 -1.059624e+01 -1.418968e+01 1.609844e+00 1.043670e+00 -1.438321e-01 6.520624e-01 1.640056e-01 -2.335119e+00 1.155599e-01 1.825992e-01 8.432384e-01 -1.014181e+00 -3.150912e+00 -5.393544e-01 1.257128e+00 2.868028e+00 4.701621e-01 -8.124991e-01 5.850717e-02 -9.367440e-01 -5.170979e-01 7.390072e-01 1.104245e+00 -4.798432e-02 -1.157738e+00 -7.785109e-02 1.223464e+00 1.346943e+00 -2.165925e-01 -9.713403e-01 -3.670493e-01 -1.753535e-02
<VARIANCE> 39
 6.223080e+00 1.759862e+01 2.842139e+01 5.290715e+01 2.624109e+01 4.197812e+01 4.153978e+01 3.716013e+01 3.839180e+01 3.887637e+01 5.596678e+01 2.646576e+01 1.439105e-02 9.481682e-01 2.131751e+00 1.782815e+00 3.892888e+00 3.254271e+00 3.299215e+00 5.044841e+00 3.973350e+00 3.493799e+00 4.454957e+00 3.745263e+00 2.494952e+00 1.029588e-03 3.466567e-01 2.621137e-01 4.701368e-01 7.374340e-01 6.476112e-01 5.103009e-01 5.548168e-01 5.671801e-01 6.760387e-01 5.385578e-01 5.097089e-01 4.710031e-01 3.908189e-04
<GCONST> 9.851136e+01
<MIXTURE> 5 4.703002e-02
<MEAN> 39
 3.449473e+00 6.923828e-01 -8.681383e+00 -1.797473e+01 -1.525726e+01 -2.380719e+00 -2.969081e+00 6.815022e-01 -1.174283e+01 -8.063560e+00 1.624929e-01 -1.556878e+00 6.332381e-01 -7.319789e-02 8.783571e-01 8.734384e-01 -6.892849e-01 -1.263880e+00 -1.919408e-01 8.307148e-01 1.316708e-01 8.850471e-01 4.515171e-01 -1.157970e+00 -1.057825e+00 -7.320214e-03 -5.420613e-02 -7.893466e-01 -2.829518e-01 2.823396e-01 6.074237e-01 7.569401e-02 -9.667889e-01 -4.090898e-01 2.048780e-01 5.505568e-01 6.665822e-01 2.914500e-01 1.100668e-02
<VARIANCE> 39
 4.548587e+00 1.755805e+01 1.890130e+01 2.440423e+01 3.341359e+01 2.507722e+01 3.159911e+01 4.017368e+01 3.765039e+01 3.202845e+01 2.476988e+01 2.621650e+01 1.297563e-02 1.316997e-01 5.687101e-01 8.292309e-01 1.057752e+00 1.424910e+00 1.708909e+00 1.624395e+00 2.268716e+00 1.927544e+00 1.824726e+00 1.597557e+00 1.562443e+00 2.906917e-04 3.285811e-02 1.249053e-01 1.809845e-01 1.631064e-01 3.216659e-01 2.535129e-01 3.579968e-01 3.730249e-01 4.463972e-01 4.136437e-01 3.327099e-01 3.160521e-01 3.742204e-05
<GCONST> 7.112259e+01
<MIXTURE> 6 9.282492e-02
<MEAN> 39
 1.808434e+00 2.097515e+00 -9.221817e+00 -2.084801e+01 -1.827119e+01 -4.139994e+00 -2.498999e+00 7.149168e-01 -5.876173e+00 -3.408225e+00 -2.668891e+00 -4.758099e+00 6.685882e-01 5.475459e-01 -1.129737e+00 -1.228315e+00 -2.129531e+00 1.724972e-02 2.018540e+00 7.657052e-01 8.847134e-01 -5.437943e-01 -8.011736e-01 7.204666e-01 8.645004e-01 5.588065e-02 -3.442642e-01 -6.743208e-01 -2.304588e-01 4.898454e-01 1.034837e+00 5.473129e-01 -2.927927e-01 -5.983061e-01 -2.786732e-01 1.095685e-01 3.174303e-01 4.017826e-01 -5.607025e-03
<VARIANCE> 39
 6.694349e+00 1.984765e+01 2.722815e+01 3.881226e+01 3.214861e+01 3.719043e+01 4.211596e+01 4.016191e+01 4.482003e+01 3.443963e+01 3.375590e+01 2.980133e+01 1.070566e-02 5.237926e-01 1.617297e+00 1.838182e+00 2.537681e+00 3.536488e+00 3.277919e+00 2.818451e+00 3.212772e+00 3.783799e+00 3.933557e+00 2.699132e+00 2.397528e+00 6.131270e-04 1.318931e-01 2.103878e-01 2.543084e-01 3.138129e-01 3.830739e-01 4.109588e-01 4.677927e-01 5.233195e-01 4.817812e-01 5.490464e-01 3.968600e-01 4.012982e-01 1.289214e-04
<GCONST> 8.947424e+01
<MIXTURE> 7 9.515099e-02
<MEAN> 39
 2.549347e+00 -2.175279e+00 -9.197841e+00 -2.001261e+01 -1.469185e+01 2.771325e+00 -5.290744e+00 -4.644188e+00 -1.017914e+01 -4.512499e+00 3.713345e-01 -1.994116e-01 6.608269e-01 2.263659e+00 -1.746384e+00 -3.745358e-01 -2.627380e+00 -1.564718e+00 1.119790e+00 -2.012998e+00 -1.046515e+00 -1.207932e+00 6.431729e-01 1.598333e+00 1.393192e-01 1.160671e-01 -1.425963e+00 -9.804559e-01 -1.083756e-01 1.046197e+00 1.171582e+00 -3.971349e-01 -3.726970e-01 4.024543e-01 9.128811e-01 8.498976e-01 -1.900549e-02 -3.322917e-01 -2.761817e-02
<VARIANCE> 39
 4.552023e+00 2.014246e+01 3.080735e+01 3.888477e+01 3.462391e+01 3.648687e+01 3.180237e+01 4.024450e+01 4.009056e+01 2.849750e+01 4.567986e+01 2.335224e+01 1.486066e-02 1.851112e+00 3.090456e+00 3.208436e+00 4.345257e+00 4.299903e+00 3.875660e+00 5.718260e+00 4.179458e+00 4.005924e+00 4.783778e+00 4.154232e+00 2.641842e+00 2.238328e-03 1.801392e-01 3.253035e-01 4.285963e-01 6.311035e-01 5.393726e-01 6.814581e-01 6.495436e-01 6.519580e-01 7.063049e-01 4.178524e-01 5.962067e-01 4.661809e-01 2.539358e-04
<GCONST> 1.002132e+02
<MIXTURE> 8 5.677785e-02
<MEAN> 39
 -9.541531e-01 -4.680638e+00 -9.159433e+00 -1.395799e+01 -5.107862e+00 -6.294392e+00 -1.317052e+01 -8.688273e+00 -8.699309e+00 2.713195e+00 -3.315415e+00 -4.257242e+00 6.028731e-01 2.730471e+00 -1.059258e+00 4.600322e-01 -2.004157e+00 -1.216914e+00 -1.930586e+00 -2.791811e+00 2.181112e-01 -6.036524e-01 1.497200e+00 -8.102985e-01 -6.612169e-01 1.144961e-01 -1.289822e+00 -5.942423e-01 4.038867e-01 4.558685e-01 -1.593488e-01 -2.869454e-01 7.679030e-01 1.202281e+00 6.572663e-01 -3.113785e-01 -1.812060e-01 4.001185e-01 -1.739673e-02
<VARIANCE> 39
 1.161260e+01 1.623386e+01 3.129335e+01 5.734629e+01 1.721646e+01 5.190965e+01 3.582773e+01 3.586485e+01 4.577146e+01 3.124101e+01 5.744369e+01 2.062542e+01 1.581730e-02 2.268015e+00 3.254030e+00 4.328193e+00 4.801641e+00 3.852618e+00 5.505738e+00 5.722303e+00 5.385646e+00 5.522298e+00 6.423975e+00 5.066364e+00 3.728791e+00 3.011785e-03 3.260540e-01 3.045715e-01 5.315297e-01 7.242633e-01 5.553962e-01 6.325609e-01 8.272391e-01 7.278950e-01 6.688071e-01 6.221224e-01 5.995682e-01 4.441644e-01 4.306156e-04
<GCONST> 1.060090e+02
<MIXTURE> 9 4.284032e-02
<MEAN> 39
 2.730827e+00 4.251612e+00 -2.934521e+00 -2.256266e+01 -2.209780e+01 -1.395029e+00 -7.589023e+00 -1.102137e+00 -1.278602e+00 -4.657476e+00 -1.298233e+00 -4.808712e+00 6.238145e-01 -3.895712e-04 4.315006e-01 2.074181e-01 3.400878e-01 2.847573e-02 -6.216813e-01 -4.175989e-01 -4.616931e-02 7.141546e-01 1.583139e-01 -1.099591e-01 9.595439e-02 -5.378952e-03 -7.811471e-03 -6.744340e-01 -3.595391e-01 -2.231187e-01 2.631461e-01 5.595750e-01 3.083599e-01 -1.355300e-01 -5.086458e-01 -6.370699e-02 3.597898e-01 3.629534e-01 1.003160e-02
<VARIANCE> 39
 3.047154e+00 9.793392e+00 2.288361e+01 2.217939e+01 1.855826e+01 3.483936e+01 2.179899e+01 2.048972e+01 2.697902e+01 1.368164e+01 1.650078e+01 1.496576e+01 8.397416e-03 1.010926e-01 7.896359e-01 7.783706e-01 1.453142e+00 1.419596e+00 1.762540e+00 1.612670e+00 1.014602e+00 1.643790e+00 9.924622e-01 8.107358e-01 8.410761e-01 4.680072e-04 2.259145e-02 1.832120e-01 1.329817e-01 2.037052e-01 2.592383e-01 3.280391e-01 2.574418e-01 2.819706e-01 3.242852e-01 2.447965e-01 2.784572e-01 2.199504e-01 4.711593e-05
<GCONST> 6.248827e+01
<MIXTURE> 10 8.459963e-02
<MEAN> 39
 8.876393e-01 -2.658094e+00 -9.544127e+00 -1.627318e+01 -9.034378e+00 -1.370718e+00 -7.208344e+00 -7.189172e+00 -1.314202e+01 -2.096602e+00 -5.730180e-01 -5.870980e-01 6.281056e-01 7.614784e-02 -1.902084e-01 -1.412315e-01 -5.454639e-01 2.750032e-02 1.531703e-01 -2.056007e-01 1.314385e-01 4.190749e-01 5.588045e-01 1.105149e-01 1.534472e-03 1.320215e-02 -1.668024e-01 -4.949481e-01 1.768955e-01 3.255341e-01 1.881657e-01 -5.216880e-01 -6.518705e-01 1.915328e-01 5.652882e-01 5.197582e-01 -1.754922e-01 -3.480853e-01 5.748554e-03
<VARIANCE> 39
 6.854366e+00 2.104887e+01 2.523545e+01 4.760244e+01 2.447384e+01 3.686747e+01 3.881298e+01 3.649854e+01 3.138070e+01 4.211131e+01 5.450396e+01 2.804420e+01 1.622289e-02 2.044725e-01 8.845777e-01 7.030013e-01 1.680520e+00 1.583971e+00 1.584609e+00 2.148105e+00 2.113373e+00 2.042867e+00 2.823460e+00 1.622613e+00 1.685773e+00 3.876651e-04 6.027115e-02 2.090531e-01 1.288910e-01 2.729020e-01 2.847157e-01 3.572085e-01 4.662896e-01 4.587878e-01 3.877491e-01 6.559230e-01 3.584838e-01 3.576941e-01 8.353794e-05
<GCONST> 7.962878e+01
<MIXTURE> 11 5.338135e-02
<MEAN> 39
 1.119509e+00 -3.529515e+00 -8.296481e+00 -3.004761e+01 -1.741267e+01 5.677760e+00 -4.433632e+00 4.827703e+00 -5.876131e+00 -3.976350e+00 -2.697016e+00 -2.929697e+00 7.964732e-01 -2.089245e-01 -2.341569e+00 -1.379764e+00 -7.046433e-01 1.956555e+00 2.791968e+00 6.763737e-01 -5.268835e-01 -9.742397e-01 -1.380197e-01 4.771239e-01 9.404877e-01 4.063555e-02 -1.764266e-01 -2.154990e-01 -9.190505e-02 1.034705e+00 7.347085e-01 -3.554249e-01 -4.112600e-01 -8.347186e-01 -5.023218e-02 4.078251e-01 2.414041e-01 -1.645329e-01 -9.696932e-03
<VARIANCE> 39
 5.057157e+00 2.204649e+01 3.054724e+01 2.940200e+01 4.382352e+01 3.970761e+01 4.647033e+01 4.068892e+01 5.100368e+01 3.850760e+01 3.913195e+01 3.368993e+01 7.421032e-03 2.510408e-01 9.946461e-01 9.002565e-01 1.369683e+00 2.038127e+00 1.889533e+00 1.999653e+00 2.627878e+00 2.518179e+00 3.238985e+00 2.136174e+00 1.906261e+00 3.386861e-04 6.289212e-02 1.771615e-01 1.564804e-01 2.810108e-01 3.436636e-01 3.654738e-01 3.676822e-01 3.204580e-01 4.399946e-01 5.099941e-01 3.785836e-01 3.664967e-01 5.063997e-05
<GCONST> 8.020886e+01
<MIXTURE> 12 7.316516e-02
<MEAN> 39
 2.863305e+00 2.056359e-01 -7.180762e+00 -2.171262e+01 -1.735134e+01 1.841463e+00 -3.844619e+00 -1.608796e+00 -1.028246e+01 -6.327819e+00 -1.337560e+00 -1.071343e+00 6.703731e-01 1.111385e-02 -1.511733e+00 -4.369718e-01 -3.666396e-01 7.190742e-01 1.367161e+00 -5.951812e-01 -1.159129e+00 -1.064036e+00 6.708741e-01 1.738654e+00 1.203553e+00 2.708604e-02 -1.572641e-01 -7.091380e-01 -2.213584e-01 5.309955e-01 7.440493e-01 -1.853181e-01 -7.863921e-01 -4.275701e-01 1.675258e-01 8.669900e-01 6.757358e-01 -9.506127e-02 4.464248e-03
<VARIANCE> 39
 4.216982e+00 1.319200e+01 2.173880e+01 3.226773e+01 3.392645e+01 3.590924e+01 3.162774e+01 3.712880e+01 4.312058e+01 3.376041e+01 3.064551e+01 2.442439e+01 1.187846e-02 2.068198e-01 8.287699e-01 9.069753e-01 1.731302e+00 1.599339e+00 1.661323e+00 1.706749e+00 1.951302e+00 2.305402e+00 1.993472e+00 1.790342e+00 1.452987e+00 4.480204e-04 3.049443e-02 1.519705e-01 1.210805e-01 1.884454e-01 2.187142e-01 2.379853e-01 3.683732e-01 2.776021e-01 3.335261e-01 2.976205e-01 3.363178e-01 3.214135e-01 5.342490e-05
<GCONST> 7.276713e+01
<MIXTURE> 13 5.557766e-02
<MEAN> 39
 1.178002e+00 3.483112e+00 -3.361680e+00 -2.249957e+01 -2.086174e+01 -2.727011e+00 -9.006836e+00 6.559175e-02 -2.194541e+00 -3.668997e+00 -4.944638e-01 -5.096722e+00 6.353325e-01 1.209285e-01 -6.899827e-01 -1.647661e-01 -1.941497e+00 -9.067053e-01 1.359202e+00 3.953877e-01 8.114799e-01 4.704714e-01 -1.337301e-01 6.355517e-02 -9.911999e-03 4.191938e-02 -8.748873e-02 -5.583444e-01 -4.697959e-01 -5.588231e-02 4.898181e-01 6.305745e-01 5.054646e-01 -3.607838e-04 -5.400853e-01 -1.746029e-01 -4.407543e-02 2.810170e-01 3.475755e-03
<VARIANCE> 39
 4.442799e+00 1.947408e+01 2.417738e+01 3.154101e+01 3.391663e+01 4.235135e+01 3.734225e+01 3.926402e+01 3.977650e+01 3.024331e+01 2.780827e+01 2.638558e+01 9.640553e-03 2.440089e-01 1.227702e+00 1.363852e+00 1.339577e+00 1.657649e+00 1.685867e+00 2.076390e+00 1.976647e+00 2.534662e+00 2.117666e+00 1.773932e+00 1.299289e+00 2.994499e-04 5.379219e-02 1.846268e-01 2.078446e-01 2.512183e-01 3.755825e-01 2.943065e-01 3.344018e-01 4.214195e-01 3.983088e-01 3.546108e-01 3.700582e-01 3.227055e-01 9.224626e-05
<GCONST> 7.752252e+01
<MIXTURE> 14 7.322860e-02
<MEAN> 39
 2.009643e+00 2.387616e+00 -8.913164e+00 -1.745992e+01 -1.592862e+01 -4.542527e+00 -2.622097e+00 -2.565903e+00 -8.226023e+00 -4.035165e+00 -3.064634e+00 -4.024121e+00 6.224890e-01 1.008370e-01 3.248339e-01 1.387275e-01 -6.368717e-01 -7.622340e-01 -1.700873e-01 9.730887e-02 3.438783e-01 7.735484e-01 1.575664e-01 -1.075631e-01 -1.029332e-01 1.119221e-02 -2.386184e-02 -2.964097e-01 -1.542920e-01 -1.266728e-01 1.999621e-01 2.871549e-01 -6.291211e-02 -2.017645e-01 -1.390810e-01 -8.181323e-03 2.815406e-01 3.703108e-01 6.595412e-03
<VARIANCE> 39
 7.972761e+00 1.490040e+01 1.945825e+01 3.194062e+01 3.156814e+01 2.507254e+01 2.757052e+01 3.656842e+01 3.195275e+01 3.016096e+01 3.694692e+01 2.145634e+01 8.738968e-03 1.706635e-01 5.285118e-01 6.069510e-01 1.235219e+00 1.244999e+00 1.020143e+00 1.271480e+00 1.274547e+00 1.307158e+00 1.357122e+00 9.367371e-01 1.043388e+00 4.086039e-04 2.836633e-02 8.233626e-02 8.999602e-02 1.289372e-01 2.452414e-01 1.851634e-01 2.702805e-01 2.543111e-01 2.146369e-01 2.753609e-01 2.603911e-01 2.226757e-01 3.581187e-05
<GCONST> 6.385982e+01
<MIXTURE> 15 5.803181e-02
<MEAN> 39
 1.606354e+00 3.479493e-02 -1.131800e+01 -2.212161e+01 -1.182052e+01 -1.223576e+00 -3.206094e+00 -3.574482e+00 -1.480137e+01 -1.929727e+00 -3.823895e+00 -6.752657e-02 6.453313e-01 2.000072e-01 -2.132343e+00 -8.647944e-01 -1.047524e+00 1.678626e+00 1.542771e+00 -1.469924e+00 -1.188184e+00 -1.348648e+00 2.415189e+00 1.847531e+00 8.974779e-01 5.628576e-02 -4.755044e-01 -7.472053e-01 2.671261e-01 1.035622e+00 5.236760e-01 -6.442317e-01 -9.901512e-01 -6.004166e-02 1.062028e+00 7.197912e-01 -1.278193e-01 -6.160161e-01 -5.745301e-03
<VARIANCE> 39
 5.642654e+00 1.236583e+01 2.429636e+01 3.906388e+01 2.631060e+01 3.253374e+01 3.316804e+01 2.935330e+01 3.346492e+01 2.993396e+01 4.296269e+01 2.352578e+01 1.726515e-02 5.230525e-01 1.659278e+00 1.867954e+00 2.809773e+00 2.852957e+00 2.946872e+00 3.026498e+00 3.717470e+00 3.579035e+00 2.829051e+00 2.947278e+00 2.328980e+00 6.701027e-04 1.620135e-01 1.821291e-01 2.676260e-01 4.700453e-01 4.124397e-01 6.029480e-01 3.731543e-01 4.635825e-01 5.057061e-01 4.439272e-01 5.724456e-01 3.256236e-01 1.758271e-04
<GCONST> 8.861709e+01
<MIXTURE> 16 3.614784e-02
<MEAN> 39
 2.629001e+00 4.588445e-01 -6.610216e+00 -2.351385e+01 -1.853760e+01 1.222460e+00 -4.103203e+00 -1.460299e+00 -9.272510e+00 -4.893795e+00 -1.801923e+00 -2.498811e+00 6.736158e-01 5.215516e-02 2.057317e+00 1.140990e+00 1.055089e-02 -1.475099e+00 -1.335113e+00 1.164891e-01 9.315963e-01 1.846476e+00 -4.046669e-01 -1.696857e+00 -1.394532e+00 -2.608759e-02 -1.063913e-01 -5.028456e-01 -2.339408e-01 5.546244e-01 6.240295e-01 -2.608588e-01 -7.016905e-01 -2.643539e-01 3.649044e-01 6.308891e-01 4.495894e-01 6.910769e-02 3.279044e-03
<VARIANCE> 39
 4.322512e+00 1.786072e+01 2.940921e+01 3.304468e+01 3.581500e+01 3.930754e+01 3.409698e+01 3.926820e+01 4.974625e+01 3.329350e+01 3.113475e+01 2.105551e+01 9.709524e-03 2.000754e-01 9.563342e-01 1.115663e+00 1.599142e+00 1.534697e+00 2.239702e+00 2.082239e+00 2.731742e+00 1.973469e+00 2.172980e+00 1.919669e+00 1.752887e+00 2.379584e-04 3.687520e-02 1.555524e-01 1.276421e-01 1.656587e-01 1.990886e-01 2.652365e-01 3.212751e-01 2.994859e-01 3.841361e-01 3.921483e-01 3.465108e-01 3.506675e-01 3.132269e-05
<GCONST> 7.416810e+01
<STATE> 4
<NUMMIXES> 16
<MIXTURE> 1 3.460071e-02
<MEAN> 39
 4.913117e+00 -6.548635e+00 -1.830452e+01 -1.511821e+01 -7.554298e+00 -4.332743e+00 -1.116501e+01 3.712229e+00 -9.566050e+00 -8.672412e+00 6.837583e+00 6.899692e+00 7.916682e-01 1.185663e-01 -1.488907e+00 -1.712713e+00 1.002994e+00 2.863867e+00 -5.254971e-01 -3.386003e+00 -1.944727e-01 1.785801e+00 1.462067e+00 4.485006e-01 1.712346e-01 1.875081e-02 -1.159562e-01 1.868597e-01 3.704388e-01 1.168677e-01 -7.182741e-02 -1.639982e-01 -2.402115e-01 -1.567719e-01 6.983395e-01 5.887535e-01 -6.112448e-01 -9.685405e-01 -6.993701e-03
<VARIANCE> 39
 6.249899e+00 1.859817e+01 2.512119e+01 2.840240e+01 3.604569e+01 2.644385e+01 4.534007e+01 5.250710e+01 7.087472e+01 4.644312e+01 4.475154e+01 2.416279e+01 1.014225e-02 2.623957e-01 5.680208e-01 1.040745e+00 1.432658e+00 1.975950e+00 1.762558e+00 1.851331e+00 2.477874e+00 2.505058e+00 2.140521e+00 2.822537e+00 2.897658e+00 1.993410e-04 6.130189e-02 1.169234e-01 1.449606e-01 1.785121e-01 2.666743e-01 2.384989e-01 3.695568e-01 3.270339e-01 4.820781e-01 4.321934e-01 6.063850e-01 2.857885e-01 4.237761e-05
<GCONST> 7.780850e+01
<MIXTURE> 2 6.431080e-02
<MEAN> 39
 -6.033068e-01 -1.302183e+01 -9.962898e+00 -1.384460e+01 -6.980784e+00 -5.781123e+00 -1.272142e+01 -1.950290e+00 2.233185e-01 5.268340e+00 -1.530635e+00 -7.898461e+00 8.107430e-01 -6.866512e-01 -8.269287e-01 7.343186e-01 1.528567e+00 -2.495075e-01 -2.251043e+00 -3.029135e-01 2.350993e+00 2.132649e+00 -1.109007e+00 -2.320562e+00 -4.874804e-01 3.524165e-03 3.422310e-02 4.399484e-01 1.729878e-01 -2.756094e-01 -4.895777e-01 2.472180e-01 5.676339e-01 8.903012e-02 -8.160635e-01 -7.535185e-01 1.825980e-01 7.817130e-01 -5.184435e-03
<VARIANCE> 39
 7.410425e+00 2.195782e+01 3.113193e+01 5.332439e+01 4.155462e+01 5.023502e+01 4.445472e+01 4.459526e+01 4.855280e+01 5.658209e+01 7.170976e+01 3.222020e+01 1.304464e-02 1.993665e-01 5.377299e-01 6.856641e-01 9.097522e-01 1.056772e+00 1.552939e+00 1.695373e+00 1.750405e+00 1.587251e+00 2.040594e+00 1.261887e+00 1.804397e+00 1.967889e-04 3.911267e-02 9.106946e-02 1.089038e-01 1.566232e-01 2.420480e-01 2.588440e-01 2.539974e-01 3.025087e-01 2.460356e-01 2.887661e-01 3.325611e-01 2.574367e-01 2.351719e-05
<GCONST> 7.228173e+01
<MIXTURE> 3 6.777786e-02
<MEAN> 39
 7.590836e-01 -8.098133e+00 -7.577832e+00 -1.654515e+01 -9.498057e+00 -1.912037e+00 -1.314582e+01 -5.127230e+00 -7.834406e+00 5.892777e-01 2.313825e+00 -3.265967e+00 6.967553e-01 6.454200e-01 -1.705172e+00 4.337196e-01 -1.086581e+00 -9.171849e-01 -7.211855e-01 -1.680616e+00 7.461262e-01 5.634631e-01 6.656727e-01 -3.719252e-02 -6.589019e-01 6.094303e-02 -1.274151e+00 4.448006e-02 1.662377e-02 7.878166e-01 5.312304e-01 -2.548062e-01 7.886686e-01 4.774087e-01 6.242905e-01 -1.359516e-01 -5.160038e-01 1.300956e-01 -3.055609e-02
<VARIANCE> 39
 9.197624e+00 1.945452e+01 4.685473e+01 6.997170e+01 4.053225e+01 7.090946e+01 5.807706e+01 4.406896e+01 4.275256e+01 5.189565e+01 7.520954e+01 3.169324e+01 1.540476e-02 1.537665e+00 2.525888e+00 3.174689e+00 3.447872e+00 4.150581e+00 4.352654e+00 4.780580e+00 4.027061e+00 3.729770e+00 3.955219e+00 3.293965e+00 3.015263e+00 1.207879e-03 2.967111e-01 3.079709e-01 3.905840e-01 6.880910e-01 5.173557e-01 6.963777e-01 7.801657e-01 6.723462e-01 5.958796e-01 7.100267e-01 7.439160e-01 5.447723e-01 2.826015e-04
<GCONST> 1.046404e+02
<MIXTURE> 4 7.495856e-02
<MEAN> 39
 1.771510e+00 -8.378590e+00 -9.654501e+00 -1.803757e+01 -1.222333e+01 5.319421e+00 -9.826071e+00 -8.208982e+00 -9.026325e+00 9.086280e-01 8.871615e+00 -1.078248e-01 7.799391e-01 -6.300759e-01 -2.085413e+00 -9.786613e-02 1.845695e+00 1.684691e+00 -1.460911e+00 -2.695109e+00 -4.000226e-01 2.527093e+00 2.867486e+00 5.054903e-01 -2.110045e+00 1.742491e-02 -1.928548e-01 2.861284e-01 3.964668e-01 4.255269e-01 -1.690919e-01 -1.078467e+00 3.008675e-02 9.440340e-01 8.415609e-01 -3.580317e-01 -1.262986e+00 -6.335187e-01 -7.959442e-03
<VARIANCE> 39
 6.110969e+00 2.347541e+01 2.839043e+01 3.606562e+01 3.044834e+01 4.292446e+01 4.403624e+01 4.080785e+01 4.600067e+01 4.739153e+01 3.330652e+01 2.506392e+01 1.284480e-02 2.292509e-01 8.780670e-01 7.376994e-01 1.439957e+00 1.129616e+00 1.497056e+00 2.165253e+00 1.927904e+00 2.001221e+00 1.840178e+00 2.240290e+00 1.661291e+00 2.718735e-04 4.513293e-02 1.656258e-01 1.712951e-01 2.094716e-01 2.367441e-01 3.597545e-01 3.076887e-01 4.019343e-01 3.578383e-01 3.508785e-01 2.971061e-01 2.693192e-01 4.249284e-05
<GCONST> 7.567926e+01
<MIXTURE> 5 8.687881e-02
<MEAN> 39
 2.635508e+00 -5.020134e+00 -7.986402e+00 -2.100453e+01 -1.689338e+01 7.530582e+00 -6.309644e+00 -5.764025e+00 -1.157126e+01 -4.805797e+00 5.344080e+00 1.869445e+00 7.455014e-01 -3.811634e-01 -2.675519e+00 -5.743129e-01 1.048027e+00 1.817706e+00 6.018589e-01 -2.525130e+00 -1.687058e+00 2.366999e-01 2.683126e+00 2.618955e+00 -2.588210e-01 3.256591e-02 -3.698551e-01 -1.052973e-01 2.031585e-01 9.470367e-01 4.981539e-01 -1.298609e+00 -6.337090e-01 4.818214e-01 1.207480e+00 6.714225e-01 -6.226136e-01 -1.001036e+00 -9.077317e-03
<VARIANCE> 39
 5.254617e+00 1.895219e+01 2.133066e+01 3.472169e+01 3.207350e+01 2.811544e+01 3.397618e+01 4.280934e+01 4.237849e+01 3.835148e+01 3.171653e+01 2.204401e+01 1.265613e-02 2.914199e-01 1.138559e+00 1.124102e+00 1.922741e+00 1.815654e+00 2.072752e+00 2.372973e+00 2.267823e+00 2.704777e+00 1.941580e+00 1.992619e+00 2.148258e+00 3.845842e-04 8.879939e-02 2.279955e-01 2.178039e-01 3.034590e-01 3.462542e-01 3.920020e-01 3.993894e-01 4.212345e-01 3.771980e-01 3.654980e-01 3.905150e-01 2.907483e-01 1.069246e-04
<GCONST> 8.077489e+01
<MIXTURE> 6 8.152974e-02
<MEAN> 39
 5.951225e-01 -1.076050e+01 -1.013170e+01 -1.695476e+01 -8.028696e+00 5.362855e-02 -1.226721e+01 -5.638026e+00 -6.163257e+00 6.476746e+00 5.293712e+00 -5.264891e+00 7.935173e-01 -6.866261e-01 -1.456031e+00 3.297480e-01 1.831330e+00 1.007329e+00 -2.459326e+00 -1.799188e+00 1.271869e+00 3.039904e+00 1.249651e+00 -1.619623e+00 -2.241230e+00 9.548588e-03 -9.650715e-02 4.750676e-01 3.448492e-01 1.229897e-01 -4.339008e-01 -4.870702e-01 4.840280e-01 6.962776e-01 9.333354e-02 -1.015753e+00 -9.079326e-01 2.989874e-01 -8.053188e-03
<VARIANCE> 39
 7.079059e+00 2.484602e+01 3.283792e+01 4.392096e+01 3.249324e+01 5.471892e+01 4.526730e+01 4.871419e+01 4.825281e+01 4.352681e+01 4.611400e+01 2.568351e+01 1.564460e-02 2.666595e-01 6.493922e-01 8.895636e-01 1.390204e+00 1.181086e+00 1.751841e+00 1.868832e+00 1.833887e+00 1.807182e+00 1.899308e+00 1.545578e+00 1.736714e+00 2.273424e-04 4.995168e-02 1.591349e-01 1.467605e-01 1.877642e-01 2.616633e-01 2.995140e-01 3.258439e-01 3.561248e-01 3.179478e-01 3.359239e-01 3.497739e-01 2.718871e-01 4.429300e-05
<GCONST> 7.638078e+01
<MIXTURE> 7 4.743398e-02
<MEAN> 39
 -1.675887e+00 -1.373800e+01 -1.985624e+00 -6.369679e+00 -1.285645e+01 -9.790259e+00 -1.955591e+01 2.696510e+00 -1.992829e+00 -5.535532e-01 2.879683e-01 -6.690224e+00 7.883984e-01 -1.375402e+00 -7.128073e-01 3.300153e+00 1.700849e+00 -2.394137e+00 -3.609016e+00 1.084169e+00 3.599431e+00 7.864557e-02 -2.659199e+00 -1.261860e+00 1.038992e+00 3.964631e-03 -3.233622e-02 8.871782e-01 1.339436e-01 -8.970968e-01 -4.841812e-01 9.810225e-01 1.525605e+00 -6.288095e-01 -1.360843e+00 -4.504441e-01 5.344790e-01 6.999961e-01 -8.708078e-03
<VARIANCE> 39
 6.834996e+00 2.103862e+01 3.446905e+01 3.477519e+01 3.324434e+01 4.613795e+01 4.492392e+01 4.813374e+01 5.342596e+01 4.360355e+01 3.869456e+01 2.926588e+01 1.235086e-02 4.387755e-01 9.039851e-01 1.936816e+00 1.325641e+00 1.903078e+00 1.997838e+00 2.492353e+00 2.127446e+00 2.834353e+00 1.917622e+00 2.072127e+00 1.460505e+00 2.894900e-04 7.446995e-02 1.439807e-01 2.490553e-01 2.985388e-01 4.079230e-01 4.029378e-01 5.383657e-01 4.088369e-01 3.520006e-01 3.789917e-01 3.403465e-01 3.217369e-01 6.442944e-05
<GCONST> 8.248559e+01
<MIXTURE> 8 4.911767e-02
<MEAN> 39
 -1.350121e+00 -9.556278e+00 -1.077802e+01 -1.827884e+01 -3.377445e+00 -1.106692e+01 -1.694085e+01 -6.362043e+00 -6.508473e+00 1.101148e+01 -1.132645e+01 -4.480007e+00 7.593792e-01 -1.185592e+00 -2.376016e+00 2.199338e+00 1.381662e+00 -1.164866e+00 -3.696227e+00 -2.168825e-01 3.512590e+00 1.996861e+00 -3.890722e-01 -2.238074e+00 5.130336e-01 3.845767e-02 -7.029536e-01 5.071229e-01 7.689092e-01 5.872248e-01 -1.031802e+00 1.502635e-01 1.696282e+00 4.650680e-01 -4.349393e-01 -1.722356e+00 5.165067e-01 6.247260e-01 -2.441527e-02
<VARIANCE> 39
 5.818194e+00 2.017195e+01 2.949597e+01 4.290478e+01 2.309440e+01 4.178620e+01 4.172838e+01 4.783023e+01 5.312614e+01 4.522281e+01 4.345407e+01 3.054658e+01 1.154415e-02 6.439976e-01 1.262528e+00 2.335254e+00 3.169594e+00 2.632788e+00 3.066801e+00 3.566938e+00 2.745101e+00 4.145753e+00 4.155318e+00 2.505405e+00 2.573848e+00 6.178952e-04 3.525573e-01 3.765257e-01 4.469989e-01 6.786661e-01 7.682225e-01 6.671670e-01 6.263960e-01 7.897355e-01 7.818772e-01 6.865307e-01 5.281728e-01 5.548255e-01 3.092190e-04
<GCONST> 9.754107e+01
<MIXTURE> 9 6.948648e-02
<MEAN> 39
 2.589592e+00 -5.669484e+00 -9.886352e+00 -2.554231e+01 -1.712624e+01 6.197567e+00 -2.023422e+00 -2.252213e+00 -5.709916e+00 -3.797919e+00 2.155477e+00 -3.935846e-01 8.135275e-01 -2.153561e-01 -1.459648e+00 -7.398076e-01 -7.872750e-02 1.274928e+00 1.127974e+00 -8.539935e-02 -5.342001e-01 9.538462e-02 5.071220e-01 8.302034e-01 -1.038676e-01 2.240803e-02 -6.305054e-02 5.266578e-02 4.043046e-02 3.865059e-01 2.392608e-01 -3.524249e-01 -2.453850e-01 -3.245353e-02 8.360340e-02 9.790534e-02 -7.204742e-02 -2.742473e-01 -4.808417e-03
<VARIANCE> 39
 5.700147e+00 3.978530e+01 3.217456e+01 4.341167e+01 3.693643e+01 5.053431e+01 5.004304e+01 4.178823e+01 4.688449e+01 3.617759e+01 3.911526e+01 2.583889e+01 8.941771e-03 1.649744e-01 7.674944e-01 6.323574e-01 1.200866e+00 1.441051e+00 1.102019e+00 1.236022e+00 1.264350e+00 1.280121e+00 1.587251e+00 1.215496e+00 1.452767e+00 1.658611e-04 1.942872e-02 8.501507e-02 8.038032e-02 1.176381e-01 1.577914e-01 1.681982e-01 1.950212e-01 1.717392e-01 1.738448e-01 1.931532e-01 1.508899e-01 1.675299e-01 2.101173e-05
<GCONST> 6.436362e+01
<MIXTURE> 10 5.815173e-02
<MEAN> 39
 1.486734e+00 -5.413561e+00 -1.421369e+01 -2.574389e+01 -6.888774e+00 1.409937e+00 -6.215057e+00 -4.404335e+00 -1.541108e+01 4.354146e+00 -1.848089e+00 2.932050e-01 7.879927e-01 -5.424132e-01 -2.805492e+00 -6.957541e-01 1.086423e+00 2.490215e+00 1.124898e-01 -2.279049e+00 -8.143162e-01 1.004030e+00 2.891076e+00 3.312862e-01 -1.031616e+00 3.303150e-02 -3.494754e-01 -9.085549e-02 5.448507e-01 1.132774e+00 -2.291593e-01 -1.157279e+00 -3.460811e-01 5.656219e-01 1.231093e+00 -4.141656e-01 -8.231322e-01 -7.044866e-01 -1.205291e-02
<VARIANCE> 39
 6.085865e+00 2.265267e+01 3.388859e+01 4.595412e+01 3.192407e+01 4.468676e+01 4.980845e+01 3.736598e+01 4.234982e+01 4.191640e+01 5.383623e+01 3.080371e+01 1.149658e-02 3.399030e-01 1.355466e+00 1.034361e+00 2.564668e+00 2.105138e+00 3.056357e+00 2.674421e+00 3.018974e+00 3.091259e+00 2.976813e+00 2.661720e+00 1.837405e+00 4.156376e-04 8.328783e-02 2.092182e-01 3.421403e-01 3.444427e-01 4.091204e-01 6.279269e-01 4.654998e-01 5.423584e-01 4.866758e-01 4.492932e-01 5.588009e-01 4.502466e-01 9.784751e-05
<GCONST> 8.829166e+01
<MIXTURE> 11 6.911875e-02
<MEAN> 39
 1.616261e+00 -8.957247e+00 -8.891106e+00 -1.297984e+01 -1.101644e+01 3.689298e+00 -1.492781e+01 -9.191228e+00 -9.952365e+00 1.649128e+00 9.333428e+00 -3.150415e+00 7.506089e-01 -9.099648e-01 -2.876665e+00 1.290422e+00 2.844098e+00 8.584648e-01 -2.805942e+00 -4.043757e+00 9.701303e-01 3.088136e+00 2.046132e+00 -4.013181e-01 -1.985639e+00 2.527378e-02 -5.919363e-01 5.548137e-01 8.314148e-01 4.818146e-01 -4.744450e-01 -1.306776e+00 9.349545e-01 1.403363e+00 7.352666e-01 -8.675401e-01 -1.524382e+00 -1.381014e-02 -1.953417e-02
<VARIANCE> 39
 5.997219e+00 2.271414e+01 3.582079e+01 3.742122e+01 3.297456e+01 4.202428e+01 5.345969e+01 4.941651e+01 5.314691e+01 4.352686e+01 3.316109e+01 2.764082e+01 1.410842e-02 4.678259e-01 1.181417e+00 1.867924e+00 2.333498e+00 2.573151e+00 3.208143e+00 2.930063e+00 3.088257e+00 2.475320e+00 2.705009e+00 2.634456e+00 2.174162e+00 4.945409e-04 2.279887e-01 3.335367e-01 4.714997e-01 4.560770e-01 8.312663e-01 5.777581e-01 6.936699e-01 5.856715e-01 6.999401e-01 5.653496e-01 4.140407e-01 4.501633e-01 1.945789e-04
<GCONST> 9.353997e+01
<MIXTURE> 12 5.226165e-02
<MEAN> 39
 -2.056551e-01 -7.941502e+00 -1.376373e+01 -2.317114e+01 -2.806246e+00 -3.254496e+00 -1.327639e+01 -8.879008e+00 -1.072916e+01 1.054334e+01 -5.936983e+00 -2.664428e+00 7.634698e-01 -9.387032e-01 -2.611806e+00 7.441859e-01 1.886039e+00 1.115535e+00 -2.666627e+00 -2.038668e+00 1.517071e+00 3.261873e+00 1.645861e+00 -2.322392e+00 -1.358765e+00 2.961850e-02 -3.520676e-01 2.159798e-01 7.735714e-01 7.784502e-01 -1.051751e+00 -9.904348e-01 8.938878e-01 1.178821e+00 3.479077e-01 -1.677534e+00 -5.690513e-01 2.322407e-01 -1.211871e-02
<VARIANCE> 39
 5.599617e+00 2.006049e+01 2.532637e+01 3.765524e+01 2.492125e+01 4.121192e+01 4.275195e+01 4.148260e+01 4.658403e+01 4.858611e+01 3.319844e+01 2.811896e+01 1.216093e-02 3.487880e-01 1.066245e+00 9.679196e-01 2.617622e+00 2.239367e+00 2.961378e+00 2.956631e+00 2.551977e+00 2.680343e+00 3.754098e+00 2.270253e+00 2.430675e+00 5.047333e-04 1.107409e-01 2.583761e-01 3.089338e-01 3.656855e-01 4.282139e-01 4.223391e-01 4.241557e-01 4.414443e-01 5.341099e-01 5.459774e-01 3.847811e-01 3.821980e-01 1.242377e-04
<GCONST> 8.684428e+01
<MIXTURE> 13 5.444153e-02
<MEAN> 39
 -3.365583e+00 -1.321747e+01 -9.307056e+00 -1.646355e+01 -5.967787e+00 -1.503642e+01 -1.276581e+01 1.034323e+00 -3.451891e+00 5.084255e+00 -1.558148e+01 -2.010857e+00 8.077134e-01 -1.403870e+00 -1.163297e+00 2.735545e+00 1.340034e+00 -2.642194e+00 -2.928965e+00 2.514185e+00 3.108835e+00 -1.636332e-02 -2.929030e+00 -7.016094e-01 1.522755e+00 1.039224e-02 -2.423558e-02 8.622916e-01 2.164971e-01 -4.219072e-01 -7.594104e-01 9.653915e-01 9.917289e-01 -8.074549e-01 -1.170230e+00 -6.088880e-01 1.214612e+00 2.869892e-01 -1.151676e-02
<VARIANCE> 39
 7.308824e+00 2.280317e+01 2.831331e+01 3.168213e+01 3.506113e+01 5.108521e+01 4.626958e+01 5.342413e+01 5.108344e+01 5.495273e+01 3.043096e+01 3.676075e+01 1.122642e-02 3.806442e-01 8.449392e-01 2.120085e+00 1.617942e+00 2.563258e+00 2.669320e+00 2.556873e+00 2.533514e+00 3.347235e+00 2.782946e+00 2.978602e+00 2.214041e+00 2.917466e-04 9.427207e-02 1.802634e-01 2.089912e-01 4.249073e-01 5.275638e-01 5.674940e-01 5.967599e-01 5.951903e-01 4.938405e-01 6.726352e-01 3.903708e-01 4.270464e-01 8.420629e-05
<GCONST> 8.822073e+01
<MIXTURE> 14 7.356235e-02
<MEAN> 39
 -2.605489e-01 -1.213511e+01 -7.452624e+00 -1.037204e+01 -9.688403e+00 -3.172248e+00 -1.891107e+01 -4.710644e+00 -2.817201e+00 4.927086e+00 2.610364e+00 -8.194789e+00 7.825603e-01 -1.204586e+00 -1.825662e+00 2.348394e+00 2.888766e+00 -7.700058e-01 -4.266814e+00 -1.387095e+00 3.367294e+00 2.911113e+00 -9.115508e-01 -2.459328e+00 -9.013853e-01 8.628821e-03 -2.093988e-01 8.417098e-01 6.334096e-01 -3.800265e-01 -8.448367e-01 -1.847728e-01 1.634063e+00 6.669413e-01 -8.124630e-01 -1.432133e+00 -3.665089e-01 9.580945e-01 -1.206006e-02
<VARIANCE> 39
 6.622288e+00 2.111996e+01 3.994550e+01 4.270888e+01 3.294719e+01 4.674748e+01 4.597067e+01 4.657474e+01 5.584483e+01 4.704718e+01 5.620943e+01 2.705123e+01 1.441851e-02 3.861312e-01 9.193879e-01 1.816772e+00 1.557706e+00 1.789419e+00 2.263534e+00 2.877157e+00 2.268546e+00 2.519753e+00 2.380457e+00 1.916947e+00 2.228017e+00 2.855475e-04 1.115724e-01 2.221616e-01 2.968343e-01 2.944516e-01 5.414281e-01 4.475065e-01 4.985373e-01 5.280609e-01 5.205200e-01 4.697582e-01 4.983694e-01 3.488139e-01 8.377422e-05
<GCONST> 8.695906e+01
<MIXTURE> 15 5.016073e-02
<MEAN> 39
 1.377403e+00 -3.496572e+00 -1.576319e+01 -2.179034e+01 -1.345951e+01 2.964921e+00 5.724710e-01 -2.397497e+00 -4.930308e+00 -1.013613e+01 1.910294e+00 2.538197e-01 8.076372e-01 -2.330285e-01 -1.793215e+00 -1.226497e+00 4.820419e-01 2.161733e+00 1.473777e+00 -6.366705e-01 -1.570249e+00 -1.465148e-01 1.384744e-01 1.392685e+00 8.215661e-01 2.054441e-02 -1.167642e-01 -4.300795e-02 3.620998e-01 6.388484e-01 2.106145e-01 -5.386347e-01 -6.490231e-01 -2.239837e-01 3.126562e-01 8.031452e-01 -1.448111e-01 -5.273433e-01 -9.039648e-03
<VARIANCE> 39
 1.076198e+01 2.260348e+01 3.075900e+01 4.857273e+01 4.571098e+01 5.320695e+01 6.566626e+01 7.979302e+01 5.880613e+01 4.160899e+01 4.701687e+01 3.666666e+01 9.354161e-03 2.872117e-01 8.247728e-01 1.037970e+00 1.286923e+00 1.621347e+00 1.970448e+00 3.102254e+00 2.396598e+00 2.260220e+00 2.483054e+00 2.111649e+00 1.636894e+00 3.014522e-04 4.754435e-02 1.139557e-01 1.729214e-01 2.346569e-01 3.006773e-01 3.898135e-01 3.255190e-01 4.333383e-01 4.698161e-01 3.874812e-01 4.303788e-01 2.832949e-01 3.450969e-05
<GCONST> 8.169241e+01
<MIXTURE> 16 6.619198e-02
<MEAN> 39
 2.574331e-01 -9.526320e+00 -1.378237e+01 -2.518600e+01 -8.249385e+00 8.348354e+00 -3.620692e+00 -4.089279e+00 -6.263819e+00 -2.493700e+00 2.560564e+00 -1.469488e+00 8.553510e-01 -4.688394e-01 -1.711771e+00 -5.566790e-01 1.480517e+00 2.116882e+00 -1.044552e-01 -1.128431e+00 -1.089274e+00 7.733491e-01 1.399388e+00 3.383808e-01 -1.302667e+00 1.206012e-02 -5.026412e-03 2.502938e-01 2.703738e-01 4.537510e-01 -3.799976e-01 -7.726809e-01 -2.508925e-01 3.903340e-01 3.997090e-01 3.467337e-02 -5.254139e-01 -5.088071e-01 -7.449413e-03
<VARIANCE> 39
 6.797889e+00 2.505355e+01 2.781084e+01 4.298170e+01 4.410453e+01 6.109034e+01 7.343394e+01 5.384835e+01 5.139241e+01 5.291058e+01 4.988346e+01 3.171895e+01 9.746769e-03 2.097969e-01 7.306217e-01 6.178194e-01 9.832650e-01 1.381001e+00 1.347563e+00 1.803120e+00 1.963879e+00 1.768276e+00 1.613345e+00 1.670861e+00 1.457632e+00 2.133397e-04 2.449600e-02 8.158011e-02 7.912802e-02 1.506027e-01 1.912795e-01 2.605700e-01 2.335189e-01 2.396837e-01 2.632041e-01 3.154344e-01 2.507341e-01 2.605117e-01 2.708368e-05
<GCONST> 7.146313e+01
<TRANSP> 5
 0.000000e+00 1.000000e+00 0.000000e+00 0.000000e+00 0.000000e+00
 0.000000e+00 6.886517e-01 3.113483e-01 0.000000e+00 0.000000e+00
 0.000000e+00 0.000000e+00 6.735967e-01 3.264033e-01 0.000000e+00
 0.000000e+00 0.000000e+00 0.000000e+00 6.675317e-01 3.324683e-01
 0.000000e+00 0.000000e+00 0.000000e+00 0.000000e+00 0.000000e+00
<ENDHMM>
