~o
<STREAMINFO> 1 39
<VECSIZE> 39<NULLD><MFCC_E_D_A><DIAGC>
~h "y"
<BEGINHMM>
<NUMSTATES> 5
<STATE> 2
<NUMMIXES> 16
<MIXTURE> 1 5.027847e-02
<MEAN> 39
 -5.891552e+00 -6.557813e+00 7.982379e+00 -4.989909e+00 -1.723606e+01 -7.081038e+00 -6.423589e+00 -2.330596e+00 -1.006353e+01 -8.173676e+00 1.098052e+00 -1.524957e+00 5.474316e-01 -7.987504e-01 -8.756877e-01 3.397788e+00 -2.284617e+00 -2.696749e+00 1.700355e+00 -6.314682e-01 9.445946e-01 -1.289540e-01 -1.666200e-01 3.887526e-01 2.967548e-01 2.420403e-02 5.493695e-02 2.402368e-01 -3.924649e-01 -6.859822e-02 3.163105e-01 3.478033e-02 -1.759594e-01 -1.301213e-01 2.423472e-02 3.271920e-01 -1.238950e-01 -1.136846e-01 1.483942e-03
<VARIANCE> 39
 4.890506e+00 1.928731e+01 2.477056e+01 4.659754e+01 3.582654e+01 5.086517e+01 2.673560e+01 4.110986e+01 4.381958e+01 2.799224e+01 2.855764e+01 2.178910e+01 1.376167e-02 7.852072e-01 1.417413e+00 2.633495e+00 3.894897e+00 4.386914e+00 3.062783e+00 3.719006e+00 2.967013e+00 3.504263e+00 2.603485e+00 2.312881e+00 2.302169e+00 4.292822e-04 6.426980e-02 2.105047e-01 3.213331e-01 4.146493e-01 5.923834e-01 5.880579e-01 4.353538e-01 4.589487e-01 4.030955e-01 2.942832e-01 2.913120e-01 3.196172e-01 4.961871e-05
<GCONST> 8.720809e+01
<MIXTURE> 2 9.961734e-02
<MEAN> 39
 -2.048912e+01 -6.405276e+00 5.111131e+00 -8.745562e+00 -8.809201e+00 -2.683726e+00 -1.382179e+00 -3.044068e+00 -4.662979e+00 1.049302e+00 -3.801117e+00 -1.362702e+00 4.126540e-01 3.473250e+00 9.045383e-01 2.448452e+00 1.501009e+00 -1.445006e+00 -1.910632e+00 -1.581408e+00 -3.323846e-01 -1.913365e+00 -1.885809e+00 6.543629e-02 -3.287310e-01 4.177403e-02 9.109072e-01 -2.663642e-01 -1.592603e-01 2.005117e-01 -4.027530e-01 -6.605667e-01 -8.338632e-01 4.005910e-01 -2.980563e-01 -6.325554e-01 4.583545e-01 1.333622e-01 1.716238e-02
<VARIANCE> 39
 1.849535e+01 2.159116e+01 1.981186e+01 2.638163e+01 2.051016e+01 2.127244e+01 2.187126e+01 2.111141e+01 2.233495e+01 1.897491e+01 1.641994e+01 1.216090e+01 2.087701e-02 2.132845e+00 2.083427e+00 3.746426e+00 3.801778e+00 2.957733e+00 3.614351e+00 3.592329e+00 3.857937e+00 3.436383e+00 2.993862e+00 2.248494e+00 2.033948e+00 2.702008e-03 3.204733e-01 4.588172e-01 5.379376e-01 5.484374e-01 5.275214e-01 5.120140e-01 7.600123e-01 6.058953e-01 6.523647e-01 6.458507e-01 4.166726e-01 3.491030e-01 2.104879e-04
<GCONST> 9.421917e+01
<MIXTURE> 3 6.691802e-02
<MEAN> 39
 -1.356554e+01 1.443003e+00 8.618834e+00 -9.182310e+00 -7.936312e+00 -4.350859e+00 -9.065578e+00 -5.112652e+00 -9.317783e+00 -4.737412e+00 -2.980439e+00 -3.428014e+00 2.840723e-01 2.825598e-01 1.082742e-02 2.209691e+00 -1.095133e+00 -9.438652e-01 7.730318e-01 -1.055129e+00 9.845898e-02 -2.795973e-01 -4.102288e-01 4.696205e-01 -1.670098e-01 4.735896e-02 3.761089e-01 -6.287807e-01 3.091619e-02 -5.867088e-02 -6.807959e-01 -3.227668e-01 2.049367e-01 9.544545e-02 -2.558769e-02 2.246219e-01 1.076147e-01 1.466570e-01 2.072043e-02
<VARIANCE> 39
 2.252632e+01 1.138586e+01 3.452086e+01 4.404686e+01 3.545543e+01 4.399236e+01 3.350332e+01 4.838317e+01 2.826938e+01 3.271610e+01 2.874264e+01 1.825468e+01 3.764958e-02 2.208412e+00 2.076923e+00 4.823519e+00 4.173163e+00 4.742373e+00 3.971053e+00 2.809726e+00 3.438738e+00 2.514488e+00 3.279794e+00 2.332547e+00 2.047947e+00 3.751589e-03 2.849770e-01 3.333108e-01 5.603698e-01 7.022434e-01 7.544855e-01 6.242700e-01 7.205451e-01 6.875592e-01 5.862055e-01 5.305299e-01 3.690006e-01 3.298621e-01 3.322324e-04
<GCONST> 1.008988e+02
<MIXTURE> 4 6.929507e-02
<MEAN> 39
 -9.649179e+00 -3.220177e-01 9.925144e+00 -2.175499e+01 -1.535469e+01 -2.067377e+00 -1.096187e+01 -8.375911e+00 -1.192866e+01 -2.584950e+00 -5.478668e+00 -5.426261e+00 5.666741e-01 -1.320636e-01 -8.516909e-01 1.580909e+00 -9.898028e-01 -2.073061e+00 3.313435e-01 2.888056e-01 5.082092e-01 1.153996e-01 5.932802e-01 3.470925e-01 8.748981e-02 2.853733e-02 1.712214e-01 -4.506483e-01 -8.159674e-01 1.305250e+00 3.140311e-03 -8.459173e-01 7.224267e-01 2.748165e-01 1.042630e-02 1.375837e-01 2.081993e-02 2.532083e-01 -1.290752e-03
<VARIANCE> 39
 7.234667e+00 2.059819e+01 2.096387e+01 5.077723e+01 3.317822e+01 6.328097e+01 4.854959e+01 4.754154e+01 3.987677e+01 4.266242e+01 6.044015e+01 2.630213e+01 1.428122e-02 7.159917e-01 1.338315e+00 3.381991e+00 3.396547e+00 3.030872e+00 3.211592e+00 2.594720e+00 2.802094e+00 2.236436e+00 3.027790e+00 2.286856e+00 2.128274e+00 3.606631e-04 2.912912e-01 2.160425e-01 3.351845e-01 5.572144e-01 4.087300e-01 9.832988e-01 5.534939e-01 5.318280e-01 5.016590e-01 3.926289e-01 5.141808e-01 2.939482e-01 1.123780e-04
<GCONST> 9.264648e+01
<MIXTURE> 5 6.870994e-02
<MEAN> 39
 -1.149990e+01 -6.061634e-01 1.475329e+01 -8.703297e+00 -1.466200e+01 -5.941879e+00 -7.425759e+00 -6.844810e+00 -1.184814e+01 -5.694834e+00 -2.484303e+00 -2.942759e+00 5.396388e-01 -5.560394e-01 9.709309e-01 3.867143e-01 -2.037753e-01 1.059761e+00 7.973823e-01 -2.498222e-01 -1.570857e-01 1.890258e-01 -4.218629e-01 -3.151926e-01 -7.087670e-02 -2.437821e-02 2.181117e-01 -3.753151e-01 -3.313042e-01 8.167845e-03 -2.306024e-01 -3.879606e-01 1.597391e-02 2.044241e-01 9.597956e-02 1.763843e-01 2.083248e-01 1.310183e-01 1.003794e-02
<VARIANCE> 39
 6.337681e+00 1.345254e+01 1.903367e+01 3.656750e+01 3.359634e+01 2.961812e+01 2.900566e+01 3.506463e+01 2.543031e+01 3.187988e+01 2.340040e+01 2.482113e+01 1.506181e-02 3.148647e-01 5.358036e-01 6.659190e-01 9.958714e-01 1.722880e+00 1.080617e+00 1.091030e+00 1.344834e+00 1.410165e+00 1.093227e+00 1.002113e+00 8.141081e-01 5.868355e-04 6.348153e-02 1.260109e-01 1.112204e-01 1.427948e-01 2.824800e-01 2.574899e-01 2.745023e-01 2.083592e-01 2.333012e-01 1.790918e-01 1.845363e-01 1.924837e-01 9.891734e-05
<GCONST> 6.677831e+01
<MIXTURE> 6 5.103402e-02
<MEAN> 39
 -6.310978e+00 -8.002156e+00 1.158475e+01 -5.285271e+00 -1.780068e+01 -1.017730e+01 -1.033618e+01 1.448924e+00 -1.298115e+01 -7.770863e+00 3.346112e+00 -2.780728e+00 6.295549e-01 -4.373220e-01 6.195982e-01 1.194891e+00 7.377262e-02 5.045876e-02 9.592212e-01 1.726037e-01 -4.577033e-01 -1.223826e+00 1.037071e-01 -3.402076e-02 -5.728822e-01 -2.214977e-02 1.620648e-01 -2.401618e-01 -4.786250e-01 3.893027e-02 7.995274e-02 -1.495443e-01 -1.127981e-01 1.764053e-01 5.022147e-01 1.078935e-01 -1.514614e-01 1.514389e-01 6.327861e-03
<VARIANCE> 39
 5.749195e+00 1.697590e+01 2.148752e+01 3.325459e+01 3.119228e+01 4.195976e+01 4.020941e+01 4.366663e+01 3.837815e+01 3.110011e+01 2.341744e+01 2.610801e+01 1.468831e-02 2.389481e-01 6.259076e-01 9.192092e-01 1.260289e+00 8.647004e-01 1.242439e+00 1.502406e+00 1.234455e+00 1.481646e+00 8.411838e-01 9.585149e-01 7.724303e-01 4.847682e-04 6.436910e-02 1.153477e-01 1.939338e-01 2.040886e-01 1.442173e-01 2.457588e-01 2.749714e-01 2.208354e-01 2.032517e-01 1.675946e-01 2.079836e-01 1.481383e-01 9.601913e-05
<GCONST> 6.759722e+01
<MIXTURE> 7 6.752344e-02
<MEAN> 39
 -9.520539e+00 -3.803016e+00 1.407947e+01 -5.375787e+00 -1.529555e+01 -5.809243e+00 -7.858386e+00 -3.881104e+00 -9.858298e+00 -6.428346e+00 -1.441280e+00 -7.555133e-01 5.405777e-01 1.713016e+00 -1.597710e+00 1.489095e+00 -8.098053e-03 -2.535511e+00 -6.481612e-01 -1.232759e+00 2.144424e-01 -8.892233e-01 -1.148591e+00 8.328306e-01 2.734962e-01 6.998329e-02 -2.557487e-01 -3.551410e-01 -8.553516e-01 3.716823e-02 2.688541e-01 -3.386538e-02 2.596166e-02 4.210993e-01 3.164773e-01 1.805874e-01 2.277180e-01 -5.085403e-02 -6.186224e-03
<VARIANCE> 39
 7.406096e+00 2.010352e+01 1.413918e+01 2.466651e+01 1.678105e+01 3.079952e+01 1.957373e+01 1.972003e+01 2.712997e+01 2.361548e+01 1.774856e+01 2.380378e+01 1.442388e-02 1.536732e+00 1.955216e+00 3.177129e+00 1.966372e+00 3.223820e+00 2.739873e+00 2.366339e+00 2.913678e+00 2.671262e+00 3.709307e+00 1.604333e+00 2.183818e+00 1.591069e-03 3.804603e-01 2.945820e-01 2.748916e-01 3.124191e-01 2.972444e-01 4.456998e-01 3.627103e-01 2.899446e-01 3.472945e-01 2.946294e-01 2.392373e-01 3.281363e-01 1.641537e-04
<GCONST> 8.469774e+01
<MIXTURE> 8 7.208783e-02
<MEAN> 39
 -1.352910e+01 1.139838e+00 8.391247e+00 -1.482452e+01 -1.358442e+01 -8.914577e+00 -8.797149e+00 -1.285315e+01 -1.073893e+01 -3.392681e+00 -8.394891e+00 -3.752253e+00 4.825937e-01 3.036160e+00 -9.322995e-03 1.915692e+00 -1.746313e+00 -3.471247e+00 -2.149047e+00 -1.619735e+00 -1.483653e+00 -2.865804e+00 5.904981e-01 -1.070520e+00 -1.053388e+00 8.758631e-02 -2.844171e-01 -7.332677e-01 -7.481174e-01 2.797023e-01 2.422233e-01 2.872860e-01 5.258943e-01 1.136487e+00 4.143414e-01 5.567423e-01 6.599730e-01 2.565253e-01 -5.126917e-03
<VARIANCE> 39
 1.609292e+01 1.611784e+01 1.936351e+01 3.741417e+01 3.173384e+01 2.510560e+01 2.968668e+01 2.365830e+01 2.763970e+01 3.070757e+01 2.673975e+01 1.810603e+01 2.535548e-02 1.974349e+00 3.330843e+00 3.775108e+00 4.959672e+00 4.490282e+00 3.922769e+00 4.054940e+00 4.121199e+00 4.886801e+00 4.914977e+00 4.379155e+00 2.969057e+00 2.018237e-03 4.323338e-01 3.706217e-01 4.074741e-01 5.324136e-01 6.795398e-01 4.833262e-01 5.588079e-01 5.124203e-01 6.083120e-01 6.651695e-01 4.908003e-01 3.408476e-01 3.078830e-04
<GCONST> 9.984184e+01
<MIXTURE> 9 6.459793e-02
<MEAN> 39
 -1.061860e+01 -8.196925e-01 9.684208e+00 -2.209344e+01 -1.419102e+01 -7.343818e+00 -1.158983e+01 -1.005114e+01 -1.431197e+01 1.678048e+00 -1.119752e+01 -3.283216e+00 6.137753e-01 -8.627524e-01 8.573174e-01 1.353174e+00 -1.415739e+00 9.067209e-01 8.345550e-01 -9.351701e-01 -1.645890e-01 -1.541511e-01 -2.681627e-01 -4.580818e-01 -2.419489e-01 -1.263788e-02 2.232653e-01 -3.001894e-01 -6.029822e-01 6.296395e-01 -1.927484e-01 -4.486132e-01 5.576639e-01 2.509168e-01 1.313143e-01 -1.376416e-01 3.704393e-01 5.586537e-02 3.940295e-03
<VARIANCE> 39
 8.043480e+00 2.158747e+01 3.130706e+01 4.000044e+01 3.534681e+01 5.003603e+01 3.947147e+01 4.184104e+01 4.116781e+01 3.389458e+01 4.675314e+01 3.580491e+01 1.468665e-02 6.321994e-01 1.359556e+00 2.046560e+00 4.274041e+00 3.066145e+00 2.572030e+00 2.554515e+00 2.396945e+00 2.393890e+00 2.444030e+00 2.246462e+00 1.780434e+00 8.016812e-04 9.089490e-02 1.881869e-01 2.759266e-01 4.391817e-01 4.412776e-01 3.906211e-01 3.564562e-01 5.904147e-01 5.129008e-01 2.757778e-01 3.335464e-01 2.853440e-01 5.131636e-05
<GCONST> 8.753508e+01
<MIXTURE> 10 7.030027e-02
<MEAN> 39
 -1.139369e+01 -1.764618e+00 1.632035e+01 -8.947972e+00 -1.274931e+01 -2.612230e+00 -1.135643e+01 -2.746184e+00 -9.160168e+00 -1.064791e+01 -8.117527e-01 -1.666488e+00 4.923531e-01 1.027419e-01 -2.165579e-01 6.715374e-02 5.415761e-02 -5.013602e-01 -5.935204e-02 8.905865e-03 -1.429727e-01 -1.300188e-01 1.310246e-01 4.424987e-02 4.858655e-02 1.412363e-02 3.469688e-01 -6.545272e-01 -3.197764e-01 3.340250e-01 -6.713002e-01 -5.273044e-01 1.181571e-01 5.522137e-02 -2.346783e-01 3.035930e-01 2.179426e-01 -4.824997e-02 1.430421e-02
<VARIANCE> 39
 7.207802e+00 1.756032e+01 1.914660e+01 2.556494e+01 2.556054e+01 2.224811e+01 2.057919e+01 2.507711e+01 2.809390e+01 3.307940e+01 1.846742e+01 2.783713e+01 1.654979e-02 4.331480e-01 1.076699e+00 9.332743e-01 6.699107e-01 1.861152e+00 1.490930e+00 1.105956e+00 1.157976e+00 1.312731e+00 1.122014e+00 1.051872e+00 1.106902e+00 7.988265e-04 7.519048e-02 1.262381e-01 1.996212e-01 1.921645e-01 2.506279e-01 2.650579e-01 2.950592e-01 4.029491e-01 2.850588e-01 2.960454e-01 2.715893e-01 2.168000e-01 5.436759e-05
<GCONST> 6.983544e+01
<MIXTURE> 11 6.102359e-02
<MEAN> 39
 -4.238792e+00 -1.286919e+01 4.660097e+00 -8.159864e+00 -1.597900e+01 -1.468010e+01 -1.302430e+01 6.427350e+00 -6.245739e+00 -3.901784e+00 -2.552118e-01 1.152017e+00 7.292500e-01 -1.159578e+00 1.289258e+00 3.481563e+00 3.692872e-01 -1.296036e+00 2.990899e-01 5.931426e-01 -1.097890e+00 -3.176005e+00 -1.023161e+00 1.081258e+00 3.981135e-01 -3.487840e-02 1.246793e-02 1.227275e-01 -2.187489e-01 -3.464245e-01 4.000469e-01 9.192626e-01 4.487609e-02 -5.129786e-01 2.283079e-01 3.260484e-01 -2.522219e-01 -6.651444e-01 -1.337524e-03
<VARIANCE> 39
 6.501808e+00 1.881725e+01 3.165856e+01 3.788755e+01 3.760156e+01 3.497390e+01 4.946535e+01 4.881414e+01 5.572329e+01 3.631490e+01 3.036050e+01 2.452452e+01 1.381855e-02 4.053099e-01 8.855851e-01 1.480645e+00 1.405606e+00 1.996706e+00 2.933260e+00 2.973623e+00 2.042599e+00 2.296928e+00 2.651433e+00 1.961456e+00 2.835551e+00 3.083051e-04 6.805871e-02 1.324348e-01 3.251562e-01 2.286923e-01 2.782942e-01 3.507363e-01 2.757018e-01 3.720920e-01 5.274648e-01 3.097646e-01 4.199516e-01 2.748934e-01 3.769031e-05
<GCONST> 8.113803e+01
<MIXTURE> 12 6.212710e-02
<MEAN> 39
 -1.308077e+01 -2.517830e+00 1.115350e+01 -4.739606e+00 -1.302351e+01 -8.407874e+00 -5.419749e+00 -5.063742e+00 -9.587866e+00 -4.643202e+00 -2.682633e+00 -1.545374e+00 5.434720e-01 4.388525e+00 -5.764372e-01 1.540697e+00 1.488367e+00 -2.375895e+00 -2.517749e+00 -2.305216e+00 6.336920e-01 -2.326889e+00 -2.425066e+00 1.298407e+00 -3.380249e-01 5.437833e-02 -2.121186e-01 -7.968677e-01 -9.243292e-01 -4.234634e-01 1.135006e-01 8.227072e-02 -3.520792e-01 7.729790e-01 3.683864e-01 8.848599e-02 4.399536e-01 1.142427e-01 9.310791e-03
<VARIANCE> 39
 1.011258e+01 1.046324e+01 1.787868e+01 1.723531e+01 1.519485e+01 2.233455e+01 2.247922e+01 1.885851e+01 2.093542e+01 1.821893e+01 1.399262e+01 1.060479e+01 9.745820e-03 2.054999e+00 2.272470e+00 6.190531e+00 3.146468e+00 3.692375e+00 5.444371e+00 5.327042e+00 3.862599e+00 4.136529e+00 4.245907e+00 2.286489e+00 2.443915e+00 1.169405e-03 3.399709e-01 2.343308e-01 3.638939e-01 2.600700e-01 5.397057e-01 5.129673e-01 4.994985e-01 4.425335e-01 4.954476e-01 3.956125e-01 3.500907e-01 2.328066e-01 1.325031e-04
<GCONST> 8.788260e+01
<MIXTURE> 13 5.176825e-02
<MEAN> 39
 -8.704567e+00 -6.635281e+00 6.319777e+00 -1.730068e+01 -1.771326e+01 -1.643938e+01 -2.301860e+00 -7.046351e+00 -9.714878e+00 1.300325e+00 -3.462182e+00 -5.210795e-01 7.100511e-01 -9.435017e-01 1.990251e+00 2.619134e+00 -3.546436e-01 3.169090e-02 1.147948e+00 -1.669195e+00 -2.460910e+00 -1.190617e+00 2.770399e-01 -5.540258e-01 -2.707361e-01 -4.028539e-02 6.632960e-02 -1.823560e-01 -3.935151e-01 5.759428e-02 7.490073e-01 3.300279e-01 -2.376065e-01 3.856114e-01 2.997650e-01 -4.923093e-01 -4.054034e-01 -7.478153e-02 -4.133956e-04
<VARIANCE> 39
 7.912961e+00 2.566307e+01 2.584103e+01 6.989362e+01 2.233487e+01 3.893501e+01 3.667561e+01 4.716766e+01 5.280872e+01 3.656776e+01 4.310336e+01 1.808414e+01 1.396194e-02 2.696190e-01 1.128375e+00 1.033094e+00 1.586030e+00 2.516391e+00 3.163406e+00 3.566485e+00 2.459552e+00 2.509078e+00 2.695961e+00 1.946232e+00 1.432404e+00 3.712402e-04 5.453509e-02 1.363524e-01 1.705293e-01 1.786072e-01 3.503617e-01 3.052624e-01 5.390999e-01 4.377326e-01 4.423258e-01 3.041384e-01 3.639314e-01 2.455684e-01 5.534252e-05
<GCONST> 8.095960e+01
<MIXTURE> 14 3.743778e-02
<MEAN> 39
 -9.084125e+00 -3.677585e+00 1.764774e+01 -8.217408e+00 -1.538223e+01 -1.356198e+00 -1.293485e+01 -3.172790e-02 -1.062051e+01 -9.100456e+00 1.000385e+00 -3.285150e+00 4.944385e-01 1.886969e+00 -1.835770e+00 3.283096e+00 -1.325663e+00 -3.379706e+00 -2.448201e-01 -2.455346e+00 3.429352e-01 -1.974485e+00 -1.764517e+00 1.177904e+00 -3.883417e-01 1.055469e-01 -7.717739e-01 -4.291410e-01 -1.403019e+00 1.743006e-01 3.879608e-01 -1.364829e-01 6.630065e-01 1.837291e-02 4.218204e-01 7.191747e-01 -8.100628e-04 1.192265e-01 -2.115398e-02
<VARIANCE> 39
 6.633512e+00 3.600101e+01 2.084550e+01 2.648034e+01 2.922693e+01 3.396339e+01 2.487607e+01 2.877875e+01 3.202992e+01 2.361950e+01 1.650321e+01 1.782136e+01 2.032321e-02 1.389622e+00 2.107983e+00 2.867090e+00 2.561703e+00 3.201532e+00 2.411181e+00 2.938099e+00 2.888142e+00 2.940112e+00 2.831007e+00 2.582520e+00 1.788087e+00 2.122418e-03 1.457460e-01 4.368124e-01 2.627834e-01 3.483162e-01 4.788254e-01 3.795225e-01 5.478691e-01 4.114670e-01 4.019125e-01 2.654647e-01 1.984140e-01 2.306453e-01 1.716201e-04
<GCONST> 8.776922e+01
<MIXTURE> 15 4.930317e-02
<MEAN> 39
 -8.032578e+00 -9.328941e+00 1.708924e+01 -9.545914e+00 -1.809994e+01 -4.948525e+00 -1.263258e+01 6.283948e-01 -1.348518e+01 -7.091041e+00 2.350354e-01 -2.985251e+00 6.020026e-01 -1.191474e+00 1.903681e+00 1.879575e+00 -8.658888e-01 7.139596e-01 2.310570e+00 3.144146e-01 -1.122311e+00 -2.385525e-01 -4.931116e-01 -4.000074e-01 -9.093230e-01 -3.567637e-02 2.489172e-01 -1.088607e-01 -9.844867e-01 1.713766e-01 4.060986e-01 -4.406978e-01 -2.695628e-01 3.544271e-01 6.336205e-01 1.188782e-01 -4.248891e-02 1.544715e-01 4.988357e-03
<VARIANCE> 39
 5.575215e+00 2.133024e+01 1.931444e+01 3.252977e+01 3.185966e+01 2.452242e+01 2.701878e+01 3.498013e+01 4.262466e+01 3.951107e+01 1.795846e+01 2.925621e+01 1.798619e-02 5.137782e-01 7.174080e-01 1.990461e+00 2.403161e+00 2.753369e+00 2.134840e+00 2.067954e+00 2.144145e+00 2.459787e+00 2.047573e+00 1.989156e+00 1.516738e+00 5.774167e-04 6.991772e-02 1.358321e-01 1.745852e-01 2.329458e-01 3.709694e-01 3.279565e-01 3.187171e-01 2.520006e-01 4.640660e-01 3.931946e-01 2.096530e-01 2.409440e-01 6.840953e-05
<GCONST> 7.841357e+01
<MIXTURE> 16 5.797148e-02
<MEAN> 39
 -1.392272e+01 5.366628e+00 1.035031e+01 -1.714747e+01 -8.403282e+00 -8.183934e+00 -1.178758e+01 -9.082293e+00 -1.546828e+01 -3.396492e+00 -8.007215e+00 -6.138793e+00 4.909630e-01 -4.331848e-02 -1.889171e-01 1.018266e-01 -1.773386e-01 -2.277333e-01 5.057588e-02 5.006534e-02 -1.483659e-01 3.351859e-01 1.831648e-02 1.981716e-01 8.459428e-02 5.164061e-03 2.046344e-01 -4.960053e-01 9.794503e-02 1.500577e-02 -7.330533e-01 1.490504e-01 7.994670e-02 1.693268e-03 2.205623e-01 2.185743e-01 1.312234e-01 1.587694e-01 1.107026e-02
<VARIANCE> 39
 7.966129e+00 1.488750e+01 1.729360e+01 4.689074e+01 3.742832e+01 2.972539e+01 4.484525e+01 2.919791e+01 2.330782e+01 2.157566e+01 2.660635e+01 2.703310e+01 1.191303e-02 4.121143e-01 1.029438e+00 9.415294e-01 1.280870e+00 2.733312e+00 1.393589e+00 1.270513e+00 1.637697e+00 1.828636e+00 1.216286e+00 1.316526e+00 1.245267e+00 9.862687e-04 1.034134e-01 1.700456e-01 1.736470e-01 2.870959e-01 4.595630e-01 3.031366e-01 2.949047e-01 4.445330e-01 3.839639e-01 3.266232e-01 3.120468e-01 3.096519e-01 1.187597e-04
<GCONST> 7.698962e+01
<STATE> 3
<NUMMIXES> 16
<MIXTURE> 1 6.838180e-02
<MEAN> 39
 -7.207819e+00 -7.735449e+00 1.143681e+01 -5.121540e+00 -2.384705e+01 -7.249912e+00 -8.322309e+00 -5.415503e+00 -6.705750e+00 -9.791968e+00 3.373559e+00 6.689624e-01 7.006431e-01 6.823421e-01 -1.332370e+00 -1.826297e+00 9.282946e-01 -6.444557e-01 -2.435440e+00 1.086150e-01 1.377637e+00 8.173946e-01 5.200796e-01 4.113954e-01 6.574987e-01 3.491754e-02 8.205052e-02 3.038172e-02 -8.410482e-01 -7.421008e-02 1.039031e+00 -8.699914e-02 -2.510972e-01 3.659483e-01 4.670918e-01 2.976154e-01 -3.622822e-01 -2.518606e-01 -5.294655e-03
<VARIANCE> 39
 9.654827e+00 2.015983e+01 2.265668e+01 3.171816e+01 2.353231e+01 3.567953e+01 3.230151e+01 3.889971e+01 3.303897e+01 2.915867e+01 2.879389e+01 2.986876e+01 1.395393e-02 4.684342e-01 8.140889e-01 2.164804e+00 2.411948e+00 1.807171e+00 3.031755e+00 2.054871e+00 2.949104e+00 2.601366e+00 1.942957e+00 1.858975e+00 1.827342e+00 3.594571e-04 1.287463e-01 1.449821e-01 2.582676e-01 2.201793e-01 3.904402e-01 5.015081e-01 5.407177e-01 4.178875e-01 4.100926e-01 3.042581e-01 2.827734e-01 3.319731e-01 6.766127e-05
<GCONST> 8.183950e+01
<MIXTURE> 2 6.080991e-02
<MEAN> 39
 -5.978424e+00 -7.758601e+00 1.083867e+01 -6.989495e+00 -1.928933e+01 -1.063300e+01 -7.579132e+00 -6.855099e-02 -1.188744e+01 -3.933074e+00 1.553400e+00 -9.755636e-01 6.239474e-01 3.150343e-01 -4.131467e-01 -7.306200e-01 8.063671e-01 3.750592e-02 -1.110269e+00 -8.799858e-02 6.094708e-01 1.679290e-01 -6.898525e-02 1.925667e-01 4.623712e-01 3.711543e-03 1.973300e-01 -2.339277e-01 -7.272722e-01 1.360738e-01 4.839143e-01 -3.239237e-01 -2.705295e-01 3.356867e-01 5.373324e-01 -5.347374e-02 -1.714602e-01 2.106179e-02 2.514899e-03
<VARIANCE> 39
 5.848895e+00 2.687995e+01 2.745448e+01 3.352766e+01 2.757370e+01 5.126059e+01 5.709027e+01 5.184008e+01 4.238134e+01 2.746262e+01 2.390265e+01 2.711547e+01 1.657918e-02 2.142478e-01 6.694334e-01 1.145864e+00 1.087651e+00 8.134225e-01 1.464124e+00 1.343465e+00 1.382314e+00 1.130678e+00 9.301630e-01 6.242910e-01 6.185803e-01 3.246995e-04 4.220274e-02 9.836184e-02 1.752749e-01 1.775162e-01 2.332007e-01 2.355971e-01 2.544925e-01 2.945164e-01 3.118827e-01 1.778469e-01 1.973798e-01 1.288280e-01 3.000463e-05
<GCONST> 6.695381e+01
<MIXTURE> 3 8.586261e-02
<MEAN> 39
 -1.133951e+01 -5.782158e-01 1.402526e+01 -1.562082e+01 -1.450324e+01 -5.838180e+00 -1.018686e+01 -7.609416e+00 -1.264795e+01 -2.130904e+00 -5.435623e+00 -2.720418e+00 6.082301e-01 5.693208e-01 -1.163711e+00 -8.035392e-02 5.165471e-01 -1.521579e+00 -7.599596e-01 6.614598e-01 -7.621256e-02 -4.343336e-01 8.898816e-01 2.548890e-01 1.208363e-01 3.061797e-02 1.673012e-01 -3.464141e-01 -4.474468e-01 4.322053e-01 -1.826568e-01 -4.358409e-01 2.626235e-01 2.990253e-01 -1.374300e-01 -2.614268e-02 2.872153e-01 -1.265032e-01 1.861382e-03
<VARIANCE> 39
 6.236660e+00 1.998880e+01 3.174000e+01 7.391103e+01 3.048792e+01 3.749843e+01 3.665057e+01 5.675213e+01 2.675516e+01 3.783782e+01 4.239552e+01 2.637416e+01 9.891488e-03 3.953240e-01 7.109889e-01 1.194389e+00 1.227905e+00 1.337254e+00 2.769947e+00 1.849129e+00 2.355846e+00 1.943984e+00 1.449011e+00 1.567602e+00 1.493680e+00 4.010143e-04 8.083427e-02 1.004242e-01 1.877351e-01 2.780150e-01 2.226092e-01 3.973798e-01 2.610396e-01 3.172516e-01 2.390643e-01 2.889953e-01 3.130554e-01 2.195150e-01 5.439949e-05
<GCONST> 7.637608e+01
<MIXTURE> 4 4.296968e-02
<MEAN> 39
 -6.156043e+00 -7.914819e+00 5.016207e+00 1.723611e-01 -1.391909e+01 -1.483166e+01 -1.004754e+01 1.312286e+00 -7.523683e+00 -9.420359e+00 4.603305e-01 1.457924e+00 6.221569e-01 3.622971e+00 -1.303587e+00 -1.409905e+00 1.105141e+00 -8.152792e-01 -2.387377e+00 -3.815625e+00 1.264031e+00 1.060419e+00 -2.436649e+00 1.142012e+00 8.544844e-01 7.493700e-02 -6.247088e-01 -3.600300e-01 -9.900621e-01 -8.620158e-01 5.899725e-01 8.362623e-01 -1.208932e-01 -1.395263e-01 8.505461e-01 8.604804e-01 -1.674182e-01 -1.478983e-01 -5.790214e-03
<VARIANCE> 39
 1.579278e+01 2.255767e+01 1.991644e+01 1.632675e+01 3.099487e+01 2.417525e+01 4.636469e+01 4.289112e+01 2.999815e+01 3.455922e+01 2.020674e+01 1.674339e+01 1.571893e-02 2.331443e+00 2.920550e+00 4.008642e+00 2.376017e+00 5.237133e+00 4.929568e+00 6.789524e+00 4.229106e+00 3.838137e+00 6.084965e+00 2.520672e+00 2.002971e+00 1.148734e-03 4.380949e-01 3.069720e-01 4.217126e-01 2.767828e-01 5.279115e-01 4.948680e-01 8.514093e-01 6.428287e-01 4.486686e-01 5.723545e-01 4.286333e-01 2.610461e-01 1.756891e-04
<GCONST> 9.665212e+01
<MIXTURE> 5 5.012484e-02
<MEAN> 39
 -7.838179e+00 -8.784898e+00 1.588032e+01 -8.703332e+00 -2.011950e+01 -7.313736e+00 -1.175367e+01 -1.446401e+00 -1.282359e+01 -6.389331e+00 3.256511e+00 -3.897206e+00 6.705124e-01 3.221655e-01 -5.030141e-01 -5.251775e-01 3.992594e-01 -3.925490e-01 -8.334445e-01 2.812281e-03 3.921785e-01 -5.965964e-02 4.291209e-02 5.414769e-01 2.033917e-01 1.133107e-02 3.580584e-02 -5.339879e-03 -1.312958e-01 6.022757e-02 1.994769e-01 -1.390632e-01 1.284988e-03 1.124454e-01 7.903212e-02 -1.978766e-02 -6.749301e-02 8.459664e-02 -1.689362e-03
<VARIANCE> 39
 4.007728e+00 2.491482e+01 2.302754e+01 6.089343e+01 1.973031e+01 3.475644e+01 3.033035e+01 2.149422e+01 2.827356e+01 3.094456e+01 2.097443e+01 1.741420e+01 6.175454e-03 9.676158e-02 1.976281e-01 2.516070e-01 2.411953e-01 6.158032e-01 5.874589e-01 7.078423e-01 6.128958e-01 3.431363e-01 4.459317e-01 3.602381e-01 3.553524e-01 8.695797e-05 1.085096e-02 2.834333e-02 3.828098e-02 3.916570e-02 7.060436e-02 8.959363e-02 8.499018e-02 6.494935e-02 7.808089e-02 5.920387e-02 5.963307e-02 7.036344e-02 8.116363e-06
<GCONST> 3.480682e+01
<MIXTURE> 6 5.488309e-02
<MEAN> 39
 -1.053547e+01 -4.018865e+00 1.198942e+01 -1.881405e+01 -1.734086e+01 -1.239050e+01 -5.388619e+00 -1.249097e+01 -1.189252e+01 3.700464e+00 -1.092993e+01 -2.310021e+00 6.861326e-01 2.281724e-01 -5.340016e-01 -1.597764e-01 4.423417e-01 -4.010325e-01 -4.338160e-01 4.892957e-01 3.092698e-01 -4.540816e-01 6.854800e-01 1.736304e-01 -1.581190e-01 7.071254e-03 4.806890e-02 1.214048e-04 -1.807783e-01 1.159470e-01 1.595719e-02 -1.410521e-01 -6.158981e-02 1.630725e-01 -1.210855e-01 -1.765117e-01 1.855706e-01 -5.283137e-02 -5.949089e-04
<VARIANCE> 39
 4.487824e+00 6.903748e+00 1.041447e+01 7.050741e+01 2.342886e+01 2.193646e+01 4.617392e+01 2.791264e+01 4.837530e+01 3.979198e+01 3.995504e+01 2.275325e+01 1.136109e-02 7.500378e-02 2.656024e-01 2.286250e-01 4.006147e-01 4.195793e-01 5.064726e-01 3.779987e-01 7.356427e-01 4.809368e-01 4.744413e-01 5.463112e-01 3.717963e-01 5.463122e-05 2.108609e-02 4.835386e-02 6.633914e-02 7.580818e-02 8.161036e-02 7.937189e-02 7.265893e-02 1.302120e-01 7.991686e-02 9.445914e-02 8.035575e-02 7.312148e-02 1.527571e-05
<GCONST> 3.999575e+01
<MIXTURE> 7 5.384792e-02
<MEAN> 39
 -9.208572e+00 -5.464548e+00 8.539370e+00 -1.963790e+01 -2.068601e+01 -1.192974e+01 -9.203343e+00 -9.113375e+00 -1.464352e+01 2.629699e+00 -7.916499e+00 -3.289832e+00 6.933391e-01 1.799188e+00 -2.333223e+00 -1.708561e-01 -6.836625e-01 -2.201918e+00 -1.123888e+00 5.459998e-01 1.964759e+00 -1.482655e+00 2.038211e+00 7.133465e-02 9.332441e-02 6.186045e-02 -7.785407e-01 -1.555982e-01 -1.041545e+00 7.914662e-01 1.340775e+00 4.222403e-01 6.403517e-01 1.017691e+00 9.927487e-01 -4.523118e-01 4.317387e-01 2.634456e-01 -1.764165e-02
<VARIANCE> 39
 9.098986e+00 2.052891e+01 2.444668e+01 2.869108e+01 2.264481e+01 3.734259e+01 3.270914e+01 3.732526e+01 4.598479e+01 2.306980e+01 3.133720e+01 2.442587e+01 1.077107e-02 2.152089e+00 2.500486e+00 2.333366e+00 2.700213e+00 3.565554e+00 3.640265e+00 4.324534e+00 3.557408e+00 4.355937e+00 3.080822e+00 2.506438e+00 2.402258e+00 8.597365e-04 2.964011e-01 3.173920e-01 2.992214e-01 3.759682e-01 4.996538e-01 6.459554e-01 5.418156e-01 6.080547e-01 8.769931e-01 6.901006e-01 5.004954e-01 5.141235e-01 1.489461e-04
<GCONST> 9.507626e+01
<MIXTURE> 8 5.238000e-02
<MEAN> 39
 -7.648658e+00 -7.445007e+00 1.673032e+01 -1.071370e+01 -2.333635e+01 1.074338e+00 -9.826715e+00 -1.055407e+00 -1.223084e+01 -8.380434e+00 4.787291e+00 -2.789895e+00 6.037277e-01 -3.839269e-02 -7.788956e-01 8.840237e-01 -2.884157e-02 -1.315431e+00 -4.584716e-01 -3.748295e-01 1.017461e+00 -2.103953e-01 4.773343e-03 1.667828e-01 2.530075e-01 2.195419e-02 2.054416e-01 1.632892e-01 -1.332158e+00 8.130326e-01 1.071930e+00 -1.012946e+00 1.420960e-01 -5.976523e-02 2.819074e-01 2.684925e-01 -4.275404e-01 6.686263e-02 -5.399669e-03
<VARIANCE> 39
 6.338980e+00 2.054636e+01 2.532248e+01 4.316319e+01 2.484009e+01 3.377499e+01 2.754087e+01 3.133066e+01 3.561613e+01 2.687530e+01 1.860970e+01 2.606382e+01 1.128903e-02 4.574895e-01 9.823278e-01 2.559664e+00 2.927124e+00 2.321295e+00 3.136414e+00 2.181791e+00 1.856855e+00 1.986221e+00 1.080324e+00 1.393505e+00 1.277044e+00 1.941714e-04 9.112988e-02 1.635983e-01 2.690907e-01 3.402036e-01 3.856703e-01 2.992754e-01 3.991265e-01 3.998158e-01 3.681715e-01 2.131301e-01 2.900612e-01 2.557706e-01 3.565633e-05
<GCONST> 7.701255e+01
<MIXTURE> 9 4.907602e-02
<MEAN> 39
 -9.183387e+00 -1.032878e+01 2.004908e+01 -1.380851e+01 -1.775064e+01 -6.242648e+00 -1.137140e+01 -6.385477e-01 -1.927060e+01 -2.734219e-01 -1.304015e+00 -4.633781e+00 6.841993e-01 2.671819e-01 -6.644539e-01 -3.794224e-01 4.797831e-01 -5.186536e-01 -1.072980e+00 3.153910e-01 3.597711e-01 -7.533615e-01 2.234690e-01 6.209084e-01 -1.912639e-02 1.164985e-02 9.503162e-02 1.641477e-01 -5.244354e-01 3.850985e-01 1.423203e-01 -2.149266e-01 4.411123e-03 1.079487e-01 3.171144e-01 -3.014408e-01 1.254517e-01 8.503038e-02 -5.299924e-03
<VARIANCE> 39
 5.559789e+00 1.335472e+01 3.425215e+01 2.325648e+01 2.181963e+01 2.314258e+01 2.159101e+01 2.271826e+01 1.570525e+01 1.594975e+01 1.157060e+01 2.459911e+01 1.475745e-02 2.240704e-01 3.395578e-01 6.103028e-01 7.837334e-01 5.848128e-01 9.250655e-01 5.479571e-01 5.739359e-01 6.998616e-01 9.233624e-01 7.008826e-01 5.107321e-01 1.834497e-04 4.312100e-02 1.096703e-01 1.476165e-01 1.716871e-01 1.077302e-01 1.144959e-01 1.455285e-01 1.517430e-01 1.090766e-01 1.151614e-01 1.101644e-01 8.257120e-02 3.115528e-05
<GCONST> 5.020044e+01
<MIXTURE> 10 1.015755e-01
<MEAN> 39
 -9.126835e+00 -5.926438e+00 1.535181e+01 -4.223761e+00 -2.120766e+01 -3.914195e+00 -8.721984e+00 -6.351851e+00 -8.974383e+00 -1.026366e+01 4.629131e-01 -1.694348e+00 6.484323e-01 4.823818e-01 -9.330459e-01 -6.628153e-01 9.695495e-01 -1.087350e+00 -1.205224e+00 5.147789e-01 1.699284e-02 -6.447703e-01 1.677743e-01 9.105268e-01 -2.521995e-01 2.298743e-02 8.011142e-02 -8.743667e-04 -3.493899e-01 8.419413e-02 4.018445e-01 -4.575078e-01 -1.394713e-01 4.644001e-01 -7.669176e-03 -2.353603e-02 1.208796e-01 8.272146e-02 -2.884980e-03
<VARIANCE> 39
 7.242488e+00 1.746751e+01 1.901600e+01 2.102081e+01 2.540316e+01 3.693974e+01 2.888025e+01 2.380460e+01 2.748926e+01 3.079877e+01 2.043846e+01 3.035783e+01 1.415120e-02 3.283818e-01 4.440046e-01 6.206095e-01 6.269286e-01 9.898620e-01 1.516951e+00 1.165590e+00 1.187058e+00 1.125670e+00 9.287963e-01 9.920357e-01 8.623639e-01 2.905816e-04 6.234646e-02 8.159059e-02 1.333361e-01 1.185868e-01 1.608997e-01 2.211547e-01 1.784593e-01 1.629520e-01 1.561365e-01 1.769756e-01 1.590722e-01 1.386505e-01 2.695158e-05
<GCONST> 6.017978e+01
<MIXTURE> 11 8.257274e-02
<MEAN> 39
 -1.255135e+01 2.073019e-01 1.195654e+01 -2.221734e+01 -1.409252e+01 -8.799173e+00 -1.091408e+01 -1.205329e+01 -1.234427e+01 -2.165377e-01 -9.334435e+00 -2.921585e+00 6.002605e-01 1.317857e-02 -1.085351e-01 2.388449e-01 1.155080e-01 -4.320336e-01 3.230823e-01 1.540035e-01 -3.323730e-01 4.872974e-01 2.874799e-01 -1.777707e-01 3.697264e-01 4.337606e-03 1.279261e-01 -2.553962e-01 -1.732612e-01 1.701001e-01 -3.041366e-01 -1.043368e-01 2.520396e-01 8.829598e-02 -3.320996e-04 1.967078e-01 5.911897e-02 5.296430e-02 4.365297e-03
<VARIANCE> 39
 6.667055e+00 2.116721e+01 3.303009e+01 4.199950e+01 2.931413e+01 3.906933e+01 4.753635e+01 4.481082e+01 4.053479e+01 3.027930e+01 5.670912e+01 2.202083e+01 8.517461e-03 1.615399e-01 4.720652e-01 3.623401e-01 6.039879e-01 8.748132e-01 7.355894e-01 1.274493e+00 8.630580e-01 8.264444e-01 6.184922e-01 8.472622e-01 6.675025e-01 2.793928e-04 3.041051e-02 5.919691e-02 8.052068e-02 1.118888e-01 1.388163e-01 1.558049e-01 1.816069e-01 2.006470e-01 1.946386e-01 1.759222e-01 1.675879e-01 1.418701e-01 4.191467e-05
<GCONST> 5.881514e+01
<MIXTURE> 12 4.551119e-02
<MEAN> 39
 -1.128613e+01 -5.979249e-01 9.407902e+00 -2.003450e+01 -2.055883e+01 -5.270191e+00 -1.066919e+01 -1.387359e+01 -1.088437e+01 2.183178e+00 -1.098894e+01 -3.371764e+00 6.563417e-01 3.938597e-01 -1.009712e+00 -4.184168e-01 1.058231e+00 -1.225776e+00 -7.801910e-01 1.371953e+00 -3.479334e-01 -4.189022e-01 1.151280e+00 -3.449629e-03 -2.161519e-01 1.475181e-02 5.256918e-02 -8.528502e-03 -2.951596e-01 2.540082e-01 2.437920e-01 -4.791199e-01 1.257799e-01 3.623928e-01 -4.238252e-01 -1.849651e-01 2.961343e-01 -5.847983e-02 -2.892687e-03
<VARIANCE> 39
 3.549855e+00 8.054065e+00 1.268932e+01 3.369801e+01 2.310589e+01 2.937637e+01 4.389498e+01 2.672173e+01 3.720605e+01 2.106550e+01 4.898873e+01 3.444721e+01 9.798593e-03 1.448107e-01 3.150771e-01 5.045788e-01 6.452496e-01 9.142956e-01 1.501747e+00 7.975299e-01 1.356950e+00 1.610357e+00 1.034050e+00 1.010443e+00 9.617501e-01 2.345762e-04 3.391254e-02 7.196480e-02 8.213815e-02 1.041427e-01 1.691253e-01 1.803908e-01 2.050439e-01 2.750147e-01 2.098554e-01 2.163437e-01 1.687430e-01 2.516254e-01 2.552239e-05
<GCONST> 5.848641e+01
<MIXTURE> 13 8.123164e-02
<MEAN> 39
 -8.581319e+00 -7.556273e+00 1.805707e+01 -7.289802e+00 -1.967577e+01 -1.940207e+00 -1.392000e+01 -8.904122e-01 -1.145654e+01 -1.046832e+01 2.553867e+00 -3.999297e+00 6.255721e-01 5.832350e-01 -1.455230e+00 2.633563e-01 3.091671e-01 -1.809673e+00 -3.152774e-01 -6.004325e-01 2.450538e-01 -5.104308e-01 -4.454011e-01 1.052420e+00 -2.213796e-01 4.378428e-02 -3.612796e-01 2.190880e-01 -1.091590e+00 3.514157e-01 6.624232e-01 -4.669508e-01 6.406088e-01 1.049471e-02 3.677115e-01 5.759515e-01 -2.378607e-01 2.270223e-01 -1.431707e-02
<VARIANCE> 39
 7.101953e+00 1.815868e+01 1.949235e+01 2.716319e+01 2.295031e+01 2.751781e+01 2.509805e+01 2.528753e+01 3.699189e+01 3.398003e+01 2.321010e+01 3.627293e+01 1.480356e-02 7.438850e-01 1.129795e+00 1.294219e+00 1.134180e+00 1.330878e+00 1.922890e+00 1.719962e+00 1.889544e+00 1.484464e+00 1.653461e+00 1.256365e+00 1.328798e+00 5.112311e-04 2.013992e-01 1.506034e-01 3.301865e-01 2.662214e-01 4.332523e-01 2.688971e-01 3.424341e-01 4.191028e-01 4.507054e-01 3.655058e-01 2.664761e-01 3.808755e-01 1.147803e-04
<GCONST> 7.834723e+01
<MIXTURE> 14 5.944766e-02
<MEAN> 39
 -1.026459e+01 -4.322987e+00 1.287109e+01 -2.064354e+01 -1.836566e+01 -5.950343e+00 -8.134862e+00 -8.713702e+00 -1.466350e+01 2.095773e+00 -8.078102e+00 -4.871696e+00 6.487591e-01 8.018071e-01 -1.956782e+00 -5.984753e-01 1.680193e+00 -1.869042e+00 -2.301067e+00 1.650101e+00 1.414611e+00 -1.011880e+00 1.132171e+00 1.088462e+00 1.839635e-01 3.490072e-02 2.739624e-01 -1.366438e-01 -1.229943e+00 9.466095e-01 7.823024e-01 -8.481748e-01 -1.353951e-01 8.575084e-01 3.477125e-01 -5.744025e-01 3.345648e-01 2.395078e-01 -3.603436e-03
<VARIANCE> 39
 8.250379e+00 2.174574e+01 3.451347e+01 5.814170e+01 3.330620e+01 5.298153e+01 5.031609e+01 5.438387e+01 4.284052e+01 3.618135e+01 5.762466e+01 2.570695e+01 1.576631e-02 4.595479e-01 8.155813e-01 1.760414e+00 2.120936e+00 1.857549e+00 1.998205e+00 2.629375e+00 3.014844e+00 3.021306e+00 2.680050e+00 3.204134e+00 1.738487e+00 4.921881e-04 1.059413e-01 2.058076e-01 3.163966e-01 4.891270e-01 4.592738e-01 5.100561e-01 5.819692e-01 5.309852e-01 4.716313e-01 3.482944e-01 4.031800e-01 3.610697e-01 9.491744e-05
<GCONST> 8.895512e+01
<MIXTURE> 15 5.766099e-02
<MEAN> 39
 -7.158120e+00 -7.693804e+00 1.155321e+01 -6.280496e+00 -1.825880e+01 -1.140471e+01 -9.412353e+00 -1.304174e-01 -1.544364e+01 -6.407011e+00 2.683756e+00 -4.152683e+00 6.622969e-01 2.628947e+00 -1.977306e+00 -1.543858e-02 2.431108e-01 -1.963148e+00 -2.284312e+00 -2.291167e+00 2.390550e+00 -1.765722e+00 -1.111653e+00 1.939896e+00 -3.691398e-01 6.679434e-02 -8.112894e-01 -2.407543e-01 -1.120621e+00 -2.200571e-01 9.205696e-01 4.423208e-01 1.041412e-01 3.485365e-01 1.261319e+00 4.453018e-01 -3.353807e-01 3.267508e-01 -1.217310e-02
<VARIANCE> 39
 6.996226e+00 1.989310e+01 3.370361e+01 2.202202e+01 2.129949e+01 3.103283e+01 3.182744e+01 3.447818e+01 2.728118e+01 3.026066e+01 2.252928e+01 1.883376e+01 8.518977e-03 1.965821e+00 1.876788e+00 3.461094e+00 3.190648e+00 2.574987e+00 4.204789e+00 4.885886e+00 3.274838e+00 4.165383e+00 2.737674e+00 2.348233e+00 1.646618e+00 1.111291e-03 2.637024e-01 3.653122e-01 4.293873e-01 2.710977e-01 4.121227e-01 3.472723e-01 4.720174e-01 5.784051e-01 3.571051e-01 3.607133e-01 3.979764e-01 2.964026e-01 2.171892e-04
<GCONST> 9.020966e+01
<MIXTURE> 16 5.366113e-02
<MEAN> 39
 -9.381516e+00 -5.276137e+00 1.906654e+01 -8.794352e+00 -1.810648e+01 -2.693270e-01 -1.427628e+01 2.898690e-01 -1.387331e+01 -7.785873e+00 3.441962e-01 -5.920718e+00 5.732431e-01 8.157642e-02 -1.157163e-01 -9.598387e-03 2.619164e-01 -4.464150e-01 -3.177897e-02 2.368813e-01 -2.816369e-01 -3.202078e-01 3.154572e-01 1.068519e-01 -8.795615e-02 4.296099e-03 1.629438e-01 -2.569083e-01 -3.126008e-01 1.403693e-01 -1.329133e-01 -4.719840e-01 1.665297e-01 5.373454e-02 -5.582476e-02 7.554711e-02 1.116795e-01 1.301517e-01 4.693632e-03
<VARIANCE> 39
 5.236041e+00 2.244713e+01 3.179751e+01 3.438084e+01 2.228035e+01 2.080723e+01 1.543683e+01 3.217327e+01 2.482630e+01 2.932972e+01 1.426543e+01 1.722704e+01 1.462173e-02 2.052970e-01 3.337870e-01 5.161364e-01 4.184423e-01 1.009831e+00 6.518837e-01 5.689907e-01 5.878699e-01 7.441132e-01 6.625053e-01 4.615464e-01 5.685839e-01 2.776423e-04 3.110517e-02 4.784764e-02 9.785438e-02 8.970239e-02 1.303962e-01 1.902466e-01 1.572170e-01 1.235789e-01 1.066348e-01 1.273446e-01 1.001058e-01 9.338865e-02 2.319503e-05
<GCONST> 4.917011e+01
<STATE> 4
<NUMMIXES> 16
<MIXTURE> 1 3.726562e-02
<MEAN> 39
 3.731132e-01 -1.352596e+01 -4.180172e+00 -9.654899e-01 -1.227240e+01 -1.364733e+01 -2.306057e+01 7.944838e+00 1.256531e+00 -1.050251e+01 3.116446e+00 3.432615e-01 7.532333e-01 1.191735e+00 5.934279e-02 -3.826114e+00 -5.473385e-01 2.760274e+00 6.639861e-01 -2.027018e+00 -7.658588e-01 2.427627e+00 1.615825e+00 -7.092919e-01 -3.578992e-01 1.388358e-02 -2.119519e-01 4.040932e-01 3.745469e-01 -5.289258e-01 6.843616e-02 6.573538e-01 8.046013e-01 -9.123822e-01 -6.738410e-01 5.373431e-01 4.256939e-02 -1.103483e-01 -6.893390e-03
<VARIANCE> 39
 6.313794e+00 1.809094e+01 3.350264e+01 2.797286e+01 4.652114e+01 4.686387e+01 7.555560e+01 4.112100e+01 3.339739e+01 2.312811e+01 1.528617e+01 1.854789e+01 9.533698e-03 2.606889e-01 7.589709e-01 9.234886e-01 1.973047e+00 1.459564e+00 1.828654e+00 3.585779e+00 3.017139e+00 1.591290e+00 2.140505e+00 1.385271e+00 1.014708e+00 2.040358e-04 4.310368e-02 1.449722e-01 2.301186e-01 2.406372e-01 2.407361e-01 3.914169e-01 3.710920e-01 3.332815e-01 3.611128e-01 2.745665e-01 2.818008e-01 1.895099e-01 3.058186e-05
<GCONST> 7.398510e+01
<MIXTURE> 2 5.154205e-02
<MEAN> 39
 -5.770220e+00 -1.102144e+01 1.180781e+01 -2.443634e+00 -2.123722e+01 -1.045605e+01 -1.122603e+01 2.656606e+00 -1.297626e+01 -9.291644e+00 4.187102e+00 -5.762832e-01 6.733590e-01 1.146757e+00 -8.392858e-01 -2.946069e+00 1.265626e+00 1.581447e+00 -2.237355e+00 -1.768101e+00 1.627028e+00 1.690514e+00 -1.037534e-01 -4.671593e-01 8.439082e-01 1.395669e-02 1.258119e-01 3.760749e-01 -7.050315e-01 -5.160996e-01 9.226232e-01 7.088913e-01 -5.658958e-01 -6.507348e-01 8.195951e-01 5.445786e-01 -4.213720e-01 -3.371325e-01 -5.466254e-03
<VARIANCE> 39
 8.122357e+00 1.820758e+01 1.932555e+01 3.388623e+01 2.173487e+01 2.985946e+01 2.381926e+01 3.079201e+01 3.554165e+01 3.121398e+01 1.841451e+01 2.149330e+01 9.346440e-03 2.998897e-01 5.258777e-01 1.258901e+00 1.457092e+00 1.352368e+00 1.796874e+00 1.118323e+00 1.575015e+00 1.561723e+00 1.476614e+00 1.224397e+00 9.840084e-01 3.067713e-04 5.174639e-02 1.004945e-01 2.051953e-01 1.957430e-01 2.883546e-01 2.540957e-01 2.297037e-01 2.685492e-01 2.493540e-01 1.908885e-01 2.028535e-01 1.377899e-01 3.703409e-05
<GCONST> 6.699808e+01
<MIXTURE> 3 4.350152e-02
<MEAN> 39
 -5.067666e+00 -7.409438e+00 -1.138743e+00 -4.496480e-01 -1.498392e+01 -1.638335e+01 -1.076483e+01 3.248145e-01 -3.679013e+00 -7.466868e+00 2.848904e-02 1.518852e+00 6.913120e-01 1.713210e+00 -9.074876e-01 -3.337485e+00 -7.156214e-01 1.913616e+00 -3.084005e-01 -2.289783e+00 2.711392e-01 2.577686e+00 5.995807e-01 -4.434222e-01 -2.180411e-01 3.389799e-02 -2.883870e-01 2.753675e-02 1.643748e-01 -8.911979e-01 5.516840e-01 1.293547e+00 5.771009e-02 -4.562969e-01 -1.470876e-01 6.186806e-01 -1.320742e-01 -5.290302e-01 -1.001056e-02
<VARIANCE> 39
 1.216865e+01 1.619672e+01 2.229755e+01 2.805559e+01 5.855399e+01 5.237484e+01 4.296961e+01 4.187304e+01 4.628201e+01 3.626551e+01 1.563547e+01 1.854184e+01 1.574215e-02 1.976410e+00 2.164467e+00 2.386863e+00 2.765085e+00 3.097306e+00 4.314824e+00 6.246164e+00 4.510980e+00 4.019818e+00 4.033842e+00 3.270457e+00 2.956166e+00 5.157719e-04 4.907608e-01 3.103199e-01 5.068381e-01 4.095538e-01 7.087945e-01 5.797147e-01 8.748609e-01 6.582745e-01 7.182951e-01 7.339618e-01 5.576850e-01 3.169816e-01 1.248057e-04
<GCONST> 9.836611e+01
<MIXTURE> 4 5.499469e-02
<MEAN> 39
 -6.471376e+00 -1.182682e+01 1.135001e+01 -1.259148e+01 -1.914649e+01 -1.361579e+01 -1.154528e+01 3.982185e+00 -1.703946e+01 6.713017e-01 1.052956e+00 -1.798910e+00 7.564309e-01 1.010841e+00 -1.757637e+00 -1.710233e+00 3.597319e-03 -2.525172e-02 -1.188398e+00 -5.948151e-01 2.598609e+00 7.223411e-01 8.026663e-02 4.220521e-01 3.718917e-01 4.067538e-02 -6.210824e-01 5.240199e-01 -1.000748e+00 3.635169e-01 1.088133e+00 6.599826e-01 4.584734e-01 -3.515711e-01 1.289873e+00 -3.538652e-01 -4.871841e-01 -1.134746e-01 -1.974478e-02
<VARIANCE> 39
 6.568727e+00 2.042747e+01 4.863023e+01 2.918776e+01 3.110635e+01 5.633325e+01 3.409552e+01 4.203199e+01 3.705844e+01 3.494475e+01 3.099484e+01 1.677967e+01 1.054254e-02 9.735782e-01 1.464219e+00 2.901673e+00 2.372815e+00 1.746901e+00 3.019908e+00 2.660277e+00 3.520283e+00 4.592996e+00 2.378078e+00 2.867806e+00 1.656518e+00 5.851206e-04 3.297886e-01 2.779665e-01 4.872555e-01 3.530001e-01 5.076201e-01 6.460556e-01 4.846120e-01 5.598630e-01 6.249501e-01 6.385840e-01 3.786530e-01 4.085995e-01 1.620357e-04
<GCONST> 9.204636e+01
<MIXTURE> 5 6.135506e-02
<MEAN> 39
 -3.891674e+00 -1.278739e+01 -2.663635e+00 -9.514942e+00 -1.262157e+01 -1.501127e+01 -1.277467e+01 5.114387e+00 -2.573190e+00 -6.943964e-01 -5.053339e+00 -1.818515e+00 7.866844e-01 1.234523e+00 -2.733865e-01 -3.879995e+00 -1.055357e+00 3.145250e+00 2.273091e+00 -1.677565e+00 -9.060907e-01 2.622672e+00 1.716864e+00 -8.779920e-01 -2.115739e+00 1.449257e-02 -5.164689e-02 4.522271e-01 4.274126e-01 -6.735998e-01 -1.710405e-01 1.370036e+00 4.095139e-01 -1.209880e+00 -9.095574e-01 2.488936e-01 7.103193e-01 -3.278292e-01 -5.645905e-03
<VARIANCE> 39
 8.320155e+00 2.541298e+01 3.420861e+01 4.100664e+01 3.815858e+01 5.127039e+01 4.710834e+01 6.210248e+01 4.150858e+01 4.194664e+01 4.963842e+01 3.584687e+01 1.404749e-02 5.103544e-01 1.048775e+00 1.679326e+00 1.360261e+00 1.604840e+00 2.400563e+00 3.553495e+00 3.321115e+00 2.636639e+00 3.835872e+00 3.045357e+00 1.852920e+00 2.980822e-04 6.001519e-02 1.250567e-01 1.692871e-01 3.460442e-01 3.633990e-01 4.907938e-01 6.087709e-01 4.461439e-01 3.666218e-01 6.442723e-01 3.274220e-01 4.175106e-01 4.179818e-05
<GCONST> 8.619003e+01
<MIXTURE> 6 8.695742e-02
<MEAN> 39
 -6.228794e+00 -1.049013e+01 1.252461e+01 -1.727084e+00 -2.268149e+01 -7.991433e+00 -1.286158e+01 6.831682e-01 -1.188950e+01 -1.225368e+01 6.416461e+00 -3.081265e+00 7.283579e-01 4.016589e-01 -4.156669e-01 -1.168596e+00 5.184402e-01 4.321799e-01 -1.288919e+00 -7.376130e-01 8.669635e-01 5.816035e-01 -3.732105e-01 1.732174e-01 4.658004e-01 8.813328e-03 -4.654672e-03 1.581426e-01 -1.928257e-01 -1.196172e-01 4.704568e-01 6.731138e-02 -9.332362e-02 -9.351516e-02 3.648239e-01 1.944924e-01 -4.616176e-01 1.001117e-01 -4.989420e-03
<VARIANCE> 39
 7.474124e+00 1.353736e+01 1.730017e+01 1.389478e+01 2.244250e+01 3.672265e+01 3.370581e+01 3.281189e+01 3.041958e+01 2.192540e+01 1.462858e+01 1.864788e+01 1.351341e-02 1.744897e-01 3.028490e-01 5.189358e-01 4.303736e-01 6.144340e-01 6.868420e-01 9.036705e-01 7.284299e-01 9.205249e-01 7.851131e-01 8.153138e-01 7.318966e-01 1.136350e-04 4.825993e-02 6.192404e-02 1.006917e-01 7.412789e-02 1.656327e-01 2.074614e-01 2.034182e-01 1.688288e-01 1.408471e-01 1.239238e-01 9.045424e-02 1.018081e-01 1.921823e-05
<GCONST> 5.061442e+01
<MIXTURE> 7 7.360706e-02
<MEAN> 39
 -3.818928e+00 -9.313148e+00 4.452637e+00 -3.291542e+00 -1.598751e+01 -1.794168e+01 -6.827112e+00 -4.381138e-01 -5.586520e+00 -7.051303e+00 1.352666e+00 2.767138e+00 6.847784e-01 6.100959e-01 -5.141273e-01 -1.475558e+00 -3.325813e-02 1.205789e+00 -5.203320e-01 -9.035952e-01 8.774989e-01 1.459312e+00 1.297972e-01 -7.548735e-01 2.767058e-01 4.107177e-03 -9.858161e-02 7.501382e-02 1.511898e-01 -1.871221e-01 3.394851e-02 5.465873e-01 -1.601574e-01 -1.384880e-01 2.844723e-02 1.757163e-01 -2.268214e-01 -2.772401e-01 -3.054742e-03
<VARIANCE> 39
 5.234566e+00 1.967849e+01 3.071752e+01 3.314344e+01 3.101606e+01 4.471589e+01 3.225670e+01 3.513720e+01 5.636462e+01 4.277265e+01 1.651221e+01 2.358849e+01 2.322968e-02 2.177867e-01 6.702129e-01 1.061974e+00 7.341258e-01 9.407390e-01 1.285900e+00 2.210950e+00 1.171020e+00 1.390631e+00 9.859808e-01 8.421794e-01 1.345849e+00 2.472837e-04 3.894551e-02 7.848886e-02 1.397874e-01 1.364790e-01 1.061768e-01 1.645741e-01 2.251670e-01 1.972476e-01 1.852498e-01 1.846345e-01 1.195315e-01 1.131741e-01 2.263970e-05
<GCONST> 6.331492e+01
<MIXTURE> 8 6.510071e-02
<MEAN> 39
 -9.183436e+00 -5.501312e+00 1.031709e+01 -1.470927e+01 -1.992387e+01 -1.138132e+01 -3.787905e+00 -7.547216e+00 -1.642868e+01 4.133823e+00 -5.792193e+00 -4.991868e+00 6.816093e-01 9.301164e-01 -1.336304e+00 -1.773041e+00 1.996039e+00 -2.340402e-01 -2.688963e+00 8.879723e-01 2.279246e+00 -6.789674e-01 -4.719208e-01 1.412371e+00 5.270754e-01 1.761265e-02 1.273923e-01 8.676256e-02 -5.989350e-01 7.875165e-02 8.023389e-01 -1.987258e-01 -7.500346e-01 4.470628e-01 6.075159e-01 -7.199574e-01 -6.638374e-02 4.034872e-01 -3.108541e-03
<VARIANCE> 39
 6.812685e+00 1.925393e+01 3.267498e+01 5.071921e+01 3.065342e+01 3.837276e+01 4.850527e+01 4.927958e+01 4.042765e+01 4.081655e+01 3.975985e+01 3.082421e+01 1.513563e-02 2.171272e-01 5.669391e-01 5.842112e-01 1.142200e+00 1.140946e+00 1.281608e+00 1.636919e+00 1.478223e+00 1.170933e+00 1.493960e+00 1.485523e+00 1.027280e+00 2.630682e-04 5.008846e-02 7.568622e-02 2.163554e-01 1.569868e-01 2.665839e-01 1.665766e-01 2.421738e-01 3.131454e-01 4.057726e-01 2.825709e-01 2.428088e-01 2.724329e-01 3.768412e-05
<GCONST> 7.092908e+01
<MIXTURE> 9 7.905869e-02
<MEAN> 39
 -7.439307e+00 -9.062483e+00 1.591101e+01 -6.912001e+00 -1.981166e+01 -8.411587e+00 -1.055202e+01 2.818382e+00 -1.939575e+01 -4.003601e+00 3.516426e+00 -5.801415e+00 6.544549e-01 6.159862e-01 -6.277035e-01 -1.379881e+00 1.044798e+00 2.204523e-01 -1.710630e+00 -3.419007e-01 1.263443e+00 2.787831e-02 -5.288996e-01 5.503594e-01 3.808168e-01 7.487498e-03 -1.591765e-02 2.476575e-01 -3.805953e-01 4.556207e-03 4.921886e-01 3.420941e-02 -2.092773e-01 -1.302505e-01 7.326266e-01 -2.576616e-01 -3.376156e-01 3.150627e-01 -5.865972e-03
<VARIANCE> 39
 5.629542e+00 1.892048e+01 2.292218e+01 2.668265e+01 2.836247e+01 4.082650e+01 2.228485e+01 2.421790e+01 1.954811e+01 2.352475e+01 1.494667e+01 2.298523e+01 1.590682e-02 2.085283e-01 7.149720e-01 7.674739e-01 9.531514e-01 1.056009e+00 1.018931e+00 1.141121e+00 7.937219e-01 1.491075e+00 1.355418e+00 1.187804e+00 1.116782e+00 3.339468e-04 4.605890e-02 9.312219e-02 1.493301e-01 1.270284e-01 1.842259e-01 2.166424e-01 1.963529e-01 1.999659e-01 1.812912e-01 1.641482e-01 1.681716e-01 1.608113e-01 2.570422e-05
<GCONST> 6.110735e+01
<MIXTURE> 10 7.594555e-02
<MEAN> 39
 -6.995566e+00 -7.504322e+00 7.213701e+00 -7.199459e+00 -1.852097e+01 -1.677809e+01 -2.193451e+00 -3.206084e+00 -1.471407e+01 -3.126638e+00 1.536533e-01 -2.368631e+00 6.682894e-01 8.589680e-01 -7.451859e-01 -2.122514e+00 1.401407e+00 1.153601e+00 -2.165676e+00 -7.854656e-01 2.182299e+00 4.319339e-01 -9.874611e-01 2.676286e-01 8.808043e-01 6.154447e-03 7.744051e-04 2.543953e-01 -1.763818e-01 -3.589612e-01 6.432576e-01 5.476562e-01 -8.771411e-01 -1.137201e-01 7.559788e-01 -5.452793e-02 -5.322024e-01 8.409290e-02 -4.039021e-03
<VARIANCE> 39
 8.253206e+00 2.106114e+01 3.700502e+01 6.999195e+01 3.233363e+01 4.794073e+01 3.519096e+01 3.963970e+01 4.199652e+01 4.778537e+01 3.243139e+01 2.569761e+01 1.758591e-02 2.768161e-01 5.825325e-01 6.232646e-01 8.042899e-01 1.205405e+00 1.173570e+00 1.486631e+00 1.223781e+00 1.266646e+00 1.433027e+00 1.242745e+00 1.370281e+00 2.879071e-04 4.135471e-02 8.060001e-02 1.883186e-01 1.732988e-01 2.225045e-01 1.981317e-01 1.660136e-01 2.305400e-01 1.885589e-01 1.519551e-01 1.730178e-01 1.845794e-01 2.528415e-05
<GCONST> 6.788344e+01
<MIXTURE> 11 7.456709e-02
<MEAN> 39
 -5.478594e+00 -1.097976e+01 3.601927e+00 -9.706752e+00 -1.686060e+01 -1.921237e+01 -7.746774e+00 4.499369e+00 -1.282640e+01 -1.568552e+00 -2.371393e+00 3.048981e-01 7.414366e-01 1.251874e+00 -6.489991e-01 -3.822633e+00 7.369466e-01 2.972786e+00 -9.807963e-01 -2.249143e+00 1.542271e+00 3.087022e+00 -3.229201e-01 -1.350712e+00 1.196492e-01 1.214734e-02 1.500843e-02 5.084041e-01 -2.174536e-01 -7.033979e-01 6.981452e-01 1.421125e+00 -4.296701e-01 -1.317896e+00 4.456324e-01 5.680851e-01 -3.107931e-01 -7.033725e-01 -6.970707e-03
<VARIANCE> 39
 8.582184e+00 2.732526e+01 3.220050e+01 4.647476e+01 3.301513e+01 4.332702e+01 4.370922e+01 5.222664e+01 4.222568e+01 2.936822e+01 4.447621e+01 2.738769e+01 1.643053e-02 3.514796e-01 7.089593e-01 1.422939e+00 1.673775e+00 1.435761e+00 2.546862e+00 3.116224e+00 2.685456e+00 1.663908e+00 2.302111e+00 1.518812e+00 2.374717e+00 3.320908e-04 5.822430e-02 1.258007e-01 1.901285e-01 3.115168e-01 2.948513e-01 4.108741e-01 3.348903e-01 3.378149e-01 3.830595e-01 4.546315e-01 3.951103e-01 2.968707e-01 4.348061e-05
<GCONST> 8.111194e+01
<MIXTURE> 12 7.892860e-02
<MEAN> 39
 -8.382728e+00 -8.503869e+00 6.407364e+00 -1.385166e+01 -2.174955e+01 -1.328361e+01 -3.533632e+00 -2.648747e+00 -1.406534e+01 1.557459e+00 -2.349949e+00 -3.010443e+00 7.479173e-01 1.109052e+00 -1.802912e+00 -3.047534e+00 1.916667e+00 9.229451e-01 -2.386057e+00 1.173810e-01 3.152782e+00 9.441786e-01 -1.243268e+00 3.745423e-01 7.222414e-01 2.740552e-02 9.018020e-02 3.130589e-01 -7.266369e-01 -5.739391e-02 1.465645e+00 5.173374e-01 -1.017684e+00 -1.045361e-01 8.602498e-01 -4.027006e-01 -6.165169e-01 -1.109880e-01 -1.176218e-02
<VARIANCE> 39
 8.174311e+00 2.353856e+01 4.365845e+01 6.433095e+01 2.643826e+01 4.545386e+01 3.916533e+01 5.618159e+01 5.670184e+01 3.929218e+01 5.374795e+01 2.802265e+01 1.632152e-02 6.925551e-01 1.535038e+00 1.517413e+00 2.473690e+00 2.434457e+00 4.171478e+00 3.678982e+00 3.454596e+00 3.053199e+00 2.973633e+00 3.328638e+00 2.009950e+00 4.328559e-04 1.975056e-01 2.460711e-01 5.604235e-01 4.700204e-01 5.276203e-01 5.382524e-01 5.373991e-01 7.427453e-01 8.351224e-01 5.804378e-01 5.450766e-01 4.321146e-01 1.009822e-04
<GCONST> 9.527581e+01
<MIXTURE> 13 6.686822e-02
<MEAN> 39
 -9.551149e+00 -5.712869e+00 8.422410e+00 -1.981170e+01 -2.042806e+01 -1.034865e+01 -5.678263e+00 -1.023993e+01 -1.288155e+01 4.982195e+00 -9.232804e+00 -2.772852e+00 7.058500e-01 3.691905e-01 -9.280310e-01 -9.266381e-01 9.608736e-01 -4.903017e-01 -8.054334e-01 1.141134e+00 1.108232e+00 -5.259588e-01 2.954696e-02 6.841975e-01 -1.374288e-01 1.050224e-02 -5.262638e-02 1.690320e-01 -3.461682e-01 2.766119e-01 4.457640e-01 -1.161890e-01 -1.004490e-01 1.776247e-01 1.026115e-01 -6.890982e-01 1.539778e-01 5.302354e-02 -6.385279e-03
<VARIANCE> 39
 6.179042e+00 2.352507e+01 2.796014e+01 4.446833e+01 2.123711e+01 3.935160e+01 3.968385e+01 6.110798e+01 3.577414e+01 3.733573e+01 4.401571e+01 2.543518e+01 1.064689e-02 2.864570e-01 8.725532e-01 9.965085e-01 1.249343e+00 1.211875e+00 1.931250e+00 1.850619e+00 2.171570e+00 1.792038e+00 2.373313e+00 1.443325e+00 1.160717e+00 2.287726e-04 5.660158e-02 1.344410e-01 1.797572e-01 2.334012e-01 2.315237e-01 3.113078e-01 3.084507e-01 3.199185e-01 1.882907e-01 3.450330e-01 2.849439e-01 2.020107e-01 3.750070e-05
<GCONST> 7.385866e+01
<MIXTURE> 14 5.452882e-02
<MEAN> 39
 -5.766675e+00 -9.855785e+00 7.843196e+00 -3.453632e-01 -1.803124e+01 -1.174278e+01 -1.511436e+01 5.929543e+00 -9.969713e+00 -1.057749e+01 3.006252e+00 -3.424335e-01 6.620981e-01 5.466858e-01 -7.551233e-02 -1.951676e+00 1.171097e-01 1.678581e+00 -3.310559e-01 -1.680080e+00 -1.092061e-01 2.041719e+00 3.557377e-01 -9.848593e-01 5.312452e-02 -8.833961e-04 4.293418e-02 1.884171e-01 1.107754e-03 -4.039061e-01 1.905374e-01 5.494788e-01 7.299234e-02 -7.009256e-01 1.185288e-01 6.166523e-01 -4.296185e-02 -4.776227e-01 -2.304185e-03
<VARIANCE> 39
 6.633820e+00 1.542014e+01 1.765632e+01 3.042691e+01 2.498685e+01 3.585357e+01 3.227744e+01 3.023442e+01 4.055652e+01 3.254548e+01 1.814839e+01 1.763995e+01 2.143488e-02 3.228695e-01 5.239189e-01 1.078801e+00 7.613135e-01 7.546920e-01 1.132270e+00 8.286240e-01 1.653842e+00 1.733097e+00 1.699636e+00 1.267583e+00 9.245851e-01 2.134917e-04 4.926422e-02 9.786638e-02 1.543079e-01 1.512997e-01 1.904609e-01 2.642701e-01 2.374507e-01 2.412675e-01 2.568673e-01 2.356727e-01 1.784396e-01 1.412713e-01 4.065875e-05
<GCONST> 6.481906e+01
<MIXTURE> 15 5.282222e-02
<MEAN> 39
 -4.958908e+00 -1.188375e+01 6.852824e+00 -1.392268e+00 -1.982987e+01 -1.301045e+01 -1.470809e+01 2.862193e+00 -7.705639e+00 -1.260987e+01 5.653365e+00 -9.195524e-01 7.364473e-01 1.527512e+00 -1.575453e+00 -2.593916e+00 3.985457e-01 6.599563e-01 -9.642865e-01 -2.725206e+00 1.440269e+00 2.221263e+00 -3.471577e-01 5.148912e-01 5.688282e-02 3.640775e-02 -5.367911e-01 4.747990e-01 -7.375702e-01 -6.803541e-01 1.186776e+00 9.155628e-01 4.074396e-01 -6.197566e-01 5.159222e-01 1.172727e+00 -7.572825e-01 -2.123257e-01 -1.736787e-02
<VARIANCE> 39
 9.976832e+00 1.438952e+01 3.314189e+01 2.374681e+01 2.575034e+01 4.192359e+01 4.548368e+01 4.133092e+01 5.353553e+01 2.941635e+01 2.399792e+01 3.054715e+01 1.019900e-02 6.966391e-01 8.175676e-01 2.442038e+00 1.186546e+00 3.116056e+00 2.187882e+00 3.790680e+00 2.569334e+00 2.668555e+00 2.982354e+00 2.278370e+00 1.663584e+00 4.689205e-04 2.794209e-01 2.224517e-01 3.834183e-01 3.721511e-01 3.650524e-01 7.811150e-01 9.674763e-01 6.224445e-01 5.835320e-01 4.211457e-01 4.435461e-01 4.466034e-01 9.163413e-05
<GCONST> 8.884018e+01
<MIXTURE> 16 4.295015e-02
<MEAN> 39
 -1.759884e+00 -1.636251e+01 5.519153e+00 -4.183028e+00 -1.902546e+01 -1.177236e+01 -2.047643e+01 7.904064e+00 -4.953194e+00 -1.040569e+01 4.723742e+00 8.428331e-01 7.739886e-01 1.182802e+00 -8.944958e-01 -3.011852e+00 2.542339e-01 1.088975e+00 7.444009e-02 -1.678664e+00 9.062259e-01 2.570874e+00 7.791525e-01 -9.523651e-01 -4.136780e-02 1.913472e-02 -2.910749e-01 5.624278e-01 -3.133724e-01 -1.641160e-01 5.695422e-01 4.737570e-01 6.173154e-01 -7.940558e-01 2.083537e-02 5.044465e-01 -3.907911e-01 -3.569904e-01 -1.020353e-02
<VARIANCE> 39
 6.723724e+00 1.216745e+01 1.867878e+01 2.731251e+01 3.408781e+01 3.230769e+01 3.299725e+01 3.282227e+01 3.010612e+01 2.810264e+01 2.138322e+01 1.502169e+01 6.852971e-03 3.160370e-01 6.312777e-01 1.871863e+00 1.146698e+00 1.158163e+00 1.470305e+00 3.866038e+00 1.936849e+00 1.326261e+00 2.327704e+00 1.177346e+00 1.311869e+00 2.518574e-04 8.949526e-02 9.749340e-02 2.826272e-01 2.327946e-01 2.601691e-01 3.372838e-01 4.730928e-01 4.266813e-01 2.852987e-01 3.909746e-01 3.868479e-01 2.245885e-01 4.405057e-05
<GCONST> 7.264766e+01
<TRANSP> 5
 0.000000e+00 1.000000e+00 0.000000e+00 0.000000e+00 0.000000e+00
 0.000000e+00 6.905903e-01 3.094097e-01 0.000000e+00 0.000000e+00
 0.000000e+00 0.000000e+00 6.552325e-01 3.447675e-01 0.000000e+00
 0.000000e+00 0.000000e+00 0.000000e+00 6.444625e-01 3.555375e-01
 0.000000e+00 0.000000e+00 0.000000e+00 0.000000e+00 0.000000e+00
<ENDHMM>
