~o
<STREAMINFO> 1 39
<VECSIZE> 39<NULLD><MFCC_E_D_A><DIAGC>
~h "z"
<BEGINHMM>
<NUMSTATES> 5
<STATE> 2
<NUMMIXES> 16
<MIXTURE> 1 4.787764e-02
<MEAN> 39
 -2.245203e+01 1.057942e+01 -7.038858e+00 -7.416585e+00 3.846750e-01 -1.450327e+01 -1.830014e+00 -7.815366e+00 -3.716432e+00 -4.100083e+00 -4.252172e+00 -1.116178e+00 5.552512e-01 -4.768138e+00 1.267841e+00 -1.038248e+00 1.708457e+00 2.251382e+00 1.698043e+00 2.416941e+00 1.162803e+00 1.084186e+00 3.255849e-01 8.233786e-01 1.491195e-01 9.370353e-03 9.627705e-01 -1.643592e+00 2.027420e-01 -4.393146e-01 -8.086010e-01 7.692056e-01 -4.557610e-01 6.752476e-01 2.410566e-02 4.345241e-01 1.322879e-02 7.268605e-02 1.099393e-02
<VARIANCE> 39
 1.284519e+01 9.877686e+00 2.074291e+01 2.337702e+01 2.844413e+01 2.629214e+01 2.546899e+01 2.337732e+01 2.637474e+01 2.950944e+01 1.935297e+01 1.668657e+01 1.458565e-02 2.427886e+00 2.783585e+00 3.811228e+00 5.073492e+00 2.883547e+00 4.746051e+00 3.907486e+00 3.534028e+00 3.401296e+00 3.082563e+00 2.949976e+00 2.648032e+00 1.792875e-03 3.443076e-01 4.177038e-01 3.668116e-01 6.766825e-01 6.905770e-01 5.043468e-01 6.110498e-01 5.794095e-01 5.863475e-01 5.583002e-01 4.759219e-01 4.988539e-01 1.939232e-04
<GCONST> 9.558531e+01
<MIXTURE> 2 7.205835e-02
<MEAN> 39
 -1.612457e+01 6.487063e+00 -4.727763e+00 -8.172880e+00 -8.087844e-02 -1.586667e+01 -7.759999e+00 -5.084251e+00 -1.360029e+00 7.553235e-01 -6.284623e+00 -1.435567e-01 5.337695e-01 -4.942056e+00 2.668475e+00 -8.505060e-01 2.421099e-01 2.359507e+00 9.219407e-01 2.649874e+00 5.930477e-01 -2.095732e-01 -2.815040e-01 3.679706e-01 9.456418e-01 -2.355194e-02 7.146472e-02 -1.304975e+00 1.325077e-01 -1.362737e-01 -5.333516e-01 9.160497e-01 2.389703e-02 7.505319e-01 -6.388453e-02 -1.445169e-01 4.394186e-01 -2.084418e-01 1.630051e-02
<VARIANCE> 39
 7.302504e+00 8.873046e+00 1.538931e+01 1.925856e+01 1.702416e+01 1.842439e+01 2.144438e+01 2.266169e+01 1.689953e+01 1.979330e+01 1.565252e+01 1.547407e+01 1.236154e-02 1.734719e+00 2.471591e+00 1.947087e+00 2.094420e+00 2.207346e+00 2.701988e+00 2.863070e+00 3.104591e+00 2.149160e+00 2.276734e+00 1.935103e+00 2.115244e+00 1.069880e-03 2.317964e-01 2.590214e-01 3.310280e-01 3.294345e-01 3.642077e-01 4.254268e-01 4.172326e-01 4.368216e-01 4.214386e-01 3.712656e-01 3.778867e-01 3.239380e-01 6.593368e-05
<GCONST> 8.119473e+01
<MIXTURE> 3 5.065827e-02
<MEAN> 39
 -2.229735e+01 3.710781e+00 4.804838e+00 -1.312461e+01 -9.139884e-01 -5.982562e+00 -1.145750e+01 -4.193270e-02 -2.678153e+00 -4.464049e+00 -3.536274e+00 -1.546879e+00 5.439858e-01 -5.231697e+00 1.448582e+00 -6.165602e-01 -9.690632e-01 3.091723e+00 1.725999e+00 1.688897e+00 1.920441e+00 1.907462e-01 5.356559e-01 9.248930e-01 3.067734e-01 2.065356e-02 9.067325e-01 -1.036759e+00 -8.513680e-01 7.023776e-01 -6.001338e-01 -2.248608e-01 4.732844e-01 -1.751445e-02 -3.725676e-02 3.728760e-01 8.784420e-02 -1.035185e-03 9.093449e-03
<VARIANCE> 39
 1.675512e+01 1.418295e+01 1.722150e+01 1.722549e+01 3.628355e+01 3.605457e+01 2.428642e+01 2.582647e+01 3.082232e+01 1.899517e+01 1.786435e+01 1.574675e+01 1.319757e-02 2.037409e+00 3.545750e+00 2.597824e+00 3.174428e+00 3.722097e+00 4.060392e+00 3.718386e+00 3.549313e+00 3.401746e+00 2.470880e+00 2.160079e+00 2.089001e+00 1.309481e-03 4.560344e-01 3.428980e-01 4.575611e-01 4.559767e-01 7.611089e-01 7.787959e-01 7.524120e-01 7.860999e-01 5.942941e-01 4.608336e-01 4.426320e-01 4.025970e-01 1.263777e-04
<GCONST> 9.405578e+01
<MIXTURE> 4 4.771373e-02
<MEAN> 39
 -1.218600e+01 1.736060e+00 -4.724757e-01 -3.509964e+00 -3.735413e+00 -5.991498e+00 -7.828349e+00 -6.033409e+00 -5.114060e+00 -4.573575e+00 -6.719948e+00 -4.461606e+00 2.558851e-01 -4.178486e+00 3.411165e-01 -7.340500e-01 -1.171541e+00 2.236701e+00 9.509189e-01 8.587232e-01 1.510902e+00 1.006113e+00 4.175284e-01 7.774227e-01 5.804101e-01 7.105555e-03 -5.409840e-01 -3.345908e-01 -5.307751e-01 -4.784876e-01 -2.184744e-01 -2.296716e-01 3.899721e-01 4.292095e-01 1.742400e-01 3.903552e-01 4.518487e-01 4.155629e-01 3.117175e-02
<VARIANCE> 39
 2.471842e+01 2.074537e+01 3.027036e+01 3.330381e+01 3.607033e+01 2.738099e+01 3.282802e+01 2.588231e+01 3.308168e+01 2.273579e+01 1.627680e+01 1.780994e+01 2.857511e-02 4.038546e+00 4.144025e+00 5.671061e+00 5.630496e+00 5.403111e+00 4.077695e+00 4.994517e+00 4.568446e+00 4.097246e+00 3.506004e+00 3.076258e+00 2.807186e+00 2.932419e-03 5.473820e-01 6.170290e-01 5.842575e-01 7.009011e-01 9.003390e-01 5.854920e-01 7.190129e-01 6.939194e-01 6.220565e-01 5.440673e-01 3.945243e-01 4.629163e-01 4.394599e-04
<GCONST> 1.048727e+02
<MIXTURE> 5 5.848359e-02
<MEAN> 39
 -2.364607e+01 -3.619707e+00 -3.502417e+00 -1.134120e+01 -3.554057e+00 -2.984871e+00 -3.987308e+00 -2.910366e-01 -7.400444e-02 -1.199789e+00 -1.397928e+00 -1.343511e-02 4.511785e-01 -3.307824e+00 9.464247e-01 -6.467414e-01 -1.330018e+00 1.075050e+00 7.903966e-02 1.042579e-01 1.069103e+00 5.523440e-01 1.426993e-01 5.207452e-01 4.279471e-01 5.728725e-02 8.515138e-01 4.140601e-01 1.940612e-01 7.147617e-01 3.028530e-02 -3.466992e-01 -7.020552e-02 -2.724530e-01 -4.947396e-01 -3.202851e-02 -2.411951e-01 -2.889796e-01 -5.546863e-03
<VARIANCE> 39
 2.618861e+01 2.195636e+01 8.099905e+01 3.200540e+01 3.699804e+01 4.790749e+01 3.260508e+01 2.569117e+01 2.287077e+01 1.873201e+01 1.849220e+01 1.217061e+01 2.652623e-02 3.428421e+00 3.012768e+00 3.606104e+00 4.000526e+00 3.816693e+00 3.530033e+00 3.543799e+00 3.466374e+00 3.313442e+00 2.480438e+00 2.205682e+00 2.047019e+00 1.772138e-03 6.239790e-01 5.146675e-01 1.211356e+00 5.589746e-01 5.848387e-01 9.294969e-01 7.295014e-01 5.968343e-01 5.632741e-01 6.062759e-01 5.326683e-01 3.333006e-01 2.771832e-04
<GCONST> 1.013802e+02
<MIXTURE> 6 7.469742e-02
<MEAN> 39
 -9.554531e+00 1.903185e-01 -3.464717e+00 -1.063462e+01 -1.340099e+00 -1.147862e+01 -1.280128e+01 -6.053906e+00 -1.030956e+00 2.908816e+00 -5.344800e+00 -4.253522e+00 5.895334e-01 -4.539772e+00 3.829330e+00 -2.557822e-01 4.829997e-02 2.502824e+00 -3.358717e-01 2.045602e+00 -5.109578e-02 -3.060107e-01 -4.880649e-01 -3.924234e-02 1.054143e+00 -4.603464e-02 -7.396529e-01 -4.917464e-01 7.729935e-03 3.234917e-02 -2.548178e-01 6.116673e-01 4.407558e-01 8.527445e-01 -3.635317e-02 -3.137995e-01 4.293467e-01 2.167146e-01 8.426592e-03
<VARIANCE> 39
 7.961397e+00 1.292795e+01 2.276740e+01 2.433895e+01 1.683302e+01 2.984396e+01 2.708879e+01 3.021599e+01 2.291907e+01 2.019486e+01 2.203125e+01 1.805792e+01 1.261467e-02 1.568596e+00 2.427629e+00 2.716901e+00 3.546628e+00 3.081316e+00 4.033152e+00 4.270963e+00 4.526089e+00 3.489027e+00 3.210249e+00 3.067105e+00 2.777763e+00 7.694264e-04 2.714633e-01 2.196785e-01 2.787553e-01 3.385587e-01 3.113810e-01 4.128059e-01 4.445287e-01 4.703978e-01 4.260203e-01 3.655521e-01 3.830625e-01 3.216758e-01 7.681816e-05
<GCONST> 8.755476e+01
<MIXTURE> 7 5.468713e-02
<MEAN> 39
 -2.116669e+01 7.487756e+00 -8.514651e+00 -1.609051e+00 -8.509813e+00 -8.323460e+00 -5.524558e+00 -6.332017e+00 -6.398951e+00 -7.281522e+00 -3.787849e+00 -3.162529e+00 4.817195e-01 -4.490641e+00 1.181187e-01 -1.387094e+00 1.692446e+00 2.580375e+00 3.750042e+00 2.126523e+00 1.852443e+00 1.066772e+00 1.214099e+00 1.418861e+00 -2.094372e-01 -1.470202e-02 6.172338e-01 -1.273705e+00 -8.798857e-03 -8.847713e-01 -2.900116e-01 -1.951078e-01 3.236889e-01 4.119478e-01 2.962014e-01 7.016453e-01 -1.786283e-01 5.937343e-01 1.786171e-02
<VARIANCE> 39
 7.553116e+00 1.438815e+01 1.120840e+01 1.063717e+01 1.772297e+01 2.269515e+01 1.921563e+01 1.629858e+01 1.842454e+01 1.520345e+01 1.362419e+01 1.355631e+01 1.396749e-02 1.121636e+00 1.805928e+00 2.002017e+00 2.166982e+00 1.844426e+00 2.143314e+00 2.068348e+00 2.597890e+00 2.840376e+00 2.446634e+00 2.359130e+00 2.473587e+00 1.222308e-03 1.918817e-01 3.591484e-01 2.808599e-01 3.165918e-01 4.006406e-01 5.357897e-01 5.488733e-01 5.015063e-01 4.717225e-01 4.250792e-01 4.550910e-01 3.941948e-01 8.362340e-05
<GCONST> 8.106035e+01
<MIXTURE> 8 7.250691e-02
<MEAN> 39
 -1.466445e+01 5.938233e+00 -8.303820e+00 -5.942659e+00 -1.193625e+01 -1.519906e+01 -7.319860e+00 -8.185665e+00 -5.837968e+00 -8.162511e+00 -5.183791e+00 -1.499493e+00 5.542706e-01 -4.633507e+00 2.880457e+00 -1.255635e+00 2.813641e+00 2.398397e+00 2.501113e+00 1.283141e+00 2.637441e-01 5.008291e-01 -5.599509e-01 1.615174e+00 -1.252962e+00 -4.275300e-02 -3.357261e-01 -1.123913e+00 1.032546e-01 -4.879165e-01 4.071699e-01 8.016112e-01 6.030437e-01 7.854409e-01 1.393241e-01 9.033156e-01 -6.725255e-02 2.513414e-01 1.257855e-02
<VARIANCE> 39
 8.976560e+00 8.868429e+00 2.234933e+01 2.085228e+01 2.750471e+01 2.442740e+01 2.528419e+01 2.455169e+01 2.944778e+01 2.103775e+01 1.971557e+01 2.048444e+01 1.268625e-02 1.581391e+00 2.631324e+00 2.832006e+00 3.078618e+00 3.399503e+00 3.908421e+00 4.117340e+00 3.575900e+00 3.944726e+00 3.547070e+00 3.064642e+00 2.910907e+00 1.115948e-03 2.156761e-01 2.729030e-01 3.626604e-01 3.953445e-01 4.208004e-01 4.939823e-01 6.109514e-01 5.117797e-01 4.986382e-01 4.254663e-01 4.332363e-01 3.645892e-01 8.515993e-05
<GCONST> 8.982344e+01
<MIXTURE> 9 8.875474e-02
<MEAN> 39
 -2.398553e+01 7.017558e+00 -2.289830e+00 -8.095270e+00 3.059993e+00 -1.177191e+01 -3.478523e+00 -6.937021e-01 -3.985263e+00 -8.849679e-01 -4.255126e+00 1.721777e+00 5.512339e-01 -3.994716e+00 1.383683e-02 -1.191521e+00 -3.089469e-01 1.785950e+00 2.168179e+00 2.261330e+00 1.438656e+00 3.587248e-01 2.300795e-01 4.406455e-01 3.210955e-01 1.578587e-02 1.033493e+00 -1.179181e+00 3.113242e-02 -5.372604e-02 -8.753210e-01 1.698817e-01 -4.046909e-01 3.604754e-02 2.710911e-02 1.841979e-03 1.053774e-01 -3.690015e-01 8.648123e-03
<VARIANCE> 39
 8.102472e+00 1.237686e+01 1.577427e+01 1.650664e+01 1.780233e+01 1.899211e+01 2.645980e+01 1.977506e+01 1.838345e+01 1.462581e+01 1.445750e+01 1.094695e+01 1.468897e-02 1.625176e+00 1.623068e+00 1.936774e+00 1.660936e+00 1.865992e+00 1.822805e+00 1.934969e+00 2.083621e+00 2.248406e+00 1.840751e+00 1.542265e+00 1.541891e+00 6.767394e-04 2.662141e-01 2.726993e-01 2.996404e-01 2.189674e-01 3.639134e-01 3.929103e-01 4.303089e-01 3.725532e-01 3.831502e-01 3.217751e-01 2.967718e-01 2.824137e-01 1.220012e-04
<GCONST> 7.740738e+01
<MIXTURE> 10 6.507062e-02
<MEAN> 39
 -2.231709e+01 -6.440211e-01 -5.873976e+00 -6.554246e+00 -6.631033e-01 -5.013121e+00 -1.742032e+00 1.586281e-01 -1.994238e+00 -1.170267e+00 -2.391653e+00 -6.391822e-01 3.501889e-01 -3.428709e+00 -6.638622e-01 -1.731879e+00 -7.198732e-01 5.325140e-01 5.971382e-01 1.051340e+00 1.251179e+00 9.805797e-01 5.376877e-01 6.326308e-01 4.073920e-01 3.314423e-02 7.904163e-01 3.381142e-02 1.085256e-01 -2.105980e-01 -5.819879e-01 -3.095340e-01 -3.685797e-01 -3.622430e-01 -2.992689e-01 -3.545462e-02 -8.394488e-02 -3.162149e-02 1.435067e-02
<VARIANCE> 39
 1.644702e+01 1.537095e+01 3.601493e+01 2.399129e+01 3.128340e+01 2.464303e+01 2.173186e+01 2.148881e+01 2.081086e+01 1.581886e+01 1.413609e+01 1.248800e+01 2.496717e-02 2.398784e+00 1.919130e+00 2.447714e+00 3.081316e+00 1.902115e+00 2.491081e+00 2.648381e+00 2.615735e+00 2.646828e+00 2.290022e+00 2.090929e+00 1.712235e+00 1.335708e-03 3.846895e-01 3.545676e-01 4.407410e-01 4.675341e-01 4.602362e-01 4.874693e-01 4.340339e-01 4.714840e-01 4.167331e-01 4.048583e-01 3.861873e-01 3.450145e-01 1.894663e-04
<GCONST> 8.852364e+01
<MIXTURE> 11 6.895576e-02
<MEAN> 39
 -7.721663e+00 -3.470437e+00 -1.254200e-03 -6.659785e+00 -6.598535e+00 -1.239266e+01 -1.288629e+01 -4.426358e+00 -1.340722e+00 -1.351293e+00 -6.303728e+00 -2.204645e+00 6.217713e-01 -2.541200e+00 2.818092e+00 -7.282782e-01 -5.397112e-01 2.546455e+00 -3.878406e-01 7.758518e-01 -4.086680e-01 -4.157411e-02 4.797924e-01 -5.518485e-01 3.376442e-01 -3.639321e-02 -7.267697e-01 2.049231e-01 -7.736764e-02 -1.803622e-01 1.411752e-01 2.712538e-01 2.629691e-01 4.898257e-01 -1.072648e-01 -1.116061e-01 4.443065e-01 1.141432e-01 -4.062683e-04
<VARIANCE> 39
 1.174271e+01 1.731244e+01 2.239962e+01 2.148602e+01 2.501410e+01 3.432481e+01 3.251443e+01 3.170851e+01 2.673969e+01 2.603274e+01 1.943890e+01 2.207441e+01 1.364791e-02 1.192230e+00 1.773586e+00 1.969144e+00 2.289845e+00 2.260099e+00 2.521353e+00 2.640947e+00 3.042052e+00 2.457094e+00 2.474837e+00 2.169545e+00 1.711643e+00 2.968936e-04 2.061002e-01 1.620773e-01 2.069102e-01 2.007398e-01 2.717748e-01 3.299319e-01 3.323427e-01 3.003346e-01 2.894872e-01 2.742589e-01 2.908478e-01 2.267369e-01 4.571116e-05
<GCONST> 7.970691e+01
<MIXTURE> 12 8.487999e-02
<MEAN> 39
 -1.422607e+01 2.370856e+00 1.971607e+00 -5.756171e+00 -4.816157e+00 -1.625030e+01 -6.984859e+00 -1.171210e+00 -6.587774e+00 -4.502166e+00 -3.952969e+00 1.282134e+00 5.499970e-01 -3.682754e+00 2.401383e+00 -1.636583e+00 -7.597938e-01 3.100201e+00 5.098968e-01 9.434245e-01 2.917220e-01 1.242444e+00 7.528381e-01 -4.093032e-01 7.950593e-01 -2.143123e-02 -2.971324e-01 -6.262655e-01 5.485926e-02 -1.360572e-01 -3.244072e-01 9.702169e-01 5.499693e-02 2.801851e-01 1.557440e-02 6.861755e-02 4.086904e-01 -3.265713e-01 1.013644e-02
<VARIANCE> 39
 1.195719e+01 1.263545e+01 2.037480e+01 1.981670e+01 2.259558e+01 1.757425e+01 3.374244e+01 1.988260e+01 2.666665e+01 1.692757e+01 1.382606e+01 1.521990e+01 1.434890e-02 1.696066e+00 2.191084e+00 2.231479e+00 1.564860e+00 2.886054e+00 2.956352e+00 2.702685e+00 2.629444e+00 2.491431e+00 2.142497e+00 1.923718e+00 1.793867e+00 6.656822e-04 2.696840e-01 2.215587e-01 2.867500e-01 2.647514e-01 4.300513e-01 3.399062e-01 4.151373e-01 3.560877e-01 3.639085e-01 3.736388e-01 2.812334e-01 2.758903e-01 7.757589e-05
<GCONST> 8.142666e+01
<MIXTURE> 13 3.676009e-02
<MEAN> 39
 -2.126475e+01 6.489850e+00 -9.928172e+00 -3.725093e-01 -8.540039e+00 -7.982343e+00 -7.215971e+00 -6.889728e+00 -7.382937e+00 -7.779487e+00 -6.308273e+00 -3.934434e+00 4.786124e-01 -2.292125e+00 -9.782264e-02 -3.001246e-01 7.695141e-01 1.344951e+00 2.025274e+00 1.195783e+00 8.731457e-01 3.368388e-01 6.214957e-01 5.728550e-01 -4.514094e-02 -1.278776e-02 9.257144e-01 -9.002568e-01 1.981465e-01 -8.199624e-01 -3.872597e-01 -5.126035e-01 1.528049e-01 2.061858e-01 3.511427e-01 4.430623e-01 1.162462e-01 4.120017e-01 1.353650e-02
<VARIANCE> 39
 1.435173e+01 1.319773e+01 1.037510e+01 1.363198e+01 2.013290e+01 2.991314e+01 2.027765e+01 1.665328e+01 2.381345e+01 1.905711e+01 1.283827e+01 1.518233e+01 1.703264e-02 1.595103e+00 2.140602e+00 1.406929e+00 1.263392e+00 1.823248e+00 2.609516e+00 2.340527e+00 2.466066e+00 2.260263e+00 2.396005e+00 1.827772e+00 2.189672e+00 8.062806e-04 4.387172e-01 4.034596e-01 3.583113e-01 4.244832e-01 5.161701e-01 5.498607e-01 4.592289e-01 4.014720e-01 4.825650e-01 4.267683e-01 3.762119e-01 4.553230e-01 2.689179e-04
<GCONST> 8.435180e+01
<MIXTURE> 14 6.348872e-02
<MEAN> 39
 -8.791573e+00 -8.909065e-01 -5.822513e+00 -9.525608e+00 -1.394339e+01 -1.763192e+01 -7.595503e+00 -6.628422e+00 -5.377853e+00 -7.144348e+00 -8.156166e+00 2.100730e+00 6.477391e-01 -3.255973e+00 3.909935e+00 -1.281485e+00 2.613813e+00 1.712773e+00 9.984513e-01 -1.410147e-02 -9.512577e-01 4.186511e-01 -1.339964e+00 1.348423e+00 -1.100805e+00 -5.381628e-02 -1.095422e+00 -7.622633e-02 -7.738855e-02 6.255711e-02 6.870224e-01 1.041649e+00 6.199111e-01 5.248718e-01 -2.224817e-02 5.790313e-01 3.086804e-01 -3.790659e-01 3.187742e-04
<VARIANCE> 39
 8.215016e+00 1.193020e+01 2.812766e+01 2.863707e+01 3.024744e+01 2.005051e+01 3.143814e+01 2.614402e+01 3.801965e+01 2.650106e+01 2.458847e+01 2.820622e+01 1.250622e-02 1.598176e+00 2.662130e+00 2.751946e+00 3.090209e+00 3.652936e+00 3.965973e+00 4.645551e+00 3.915517e+00 3.608890e+00 2.931658e+00 2.815594e+00 2.502610e+00 6.039466e-04 1.688854e-01 2.705961e-01 3.006070e-01 4.004995e-01 3.007778e-01 4.206039e-01 4.584558e-01 3.779700e-01 4.238144e-01 4.277518e-01 3.893352e-01 4.311343e-01 9.194205e-05
<GCONST> 8.940111e+01
<MIXTURE> 15 5.732208e-02
<MEAN> 39
 -1.949880e+01 5.078444e+00 -5.986304e-01 -1.125853e+01 2.081789e+00 -9.696795e+00 -1.194650e+01 -1.532237e+00 -2.755241e+00 -5.218653e-01 -3.839551e+00 -2.108998e+00 5.230517e-01 -2.744667e+00 7.779127e-01 -3.386358e-02 -6.720098e-02 8.744075e-01 1.081559e+00 1.328920e+00 1.167474e+00 -1.290493e-01 -2.805858e-01 3.829529e-01 4.355693e-01 -5.121836e-03 7.261871e-01 -8.984169e-01 -9.729941e-03 1.924635e-01 -5.923182e-01 1.174934e-01 1.246209e-01 -7.952429e-02 5.640293e-02 3.315700e-02 3.809451e-03 -1.107620e-01 9.313456e-03
<VARIANCE> 39
 1.130554e+01 1.140963e+01 2.000940e+01 1.675774e+01 1.597044e+01 2.088430e+01 2.394143e+01 2.465873e+01 1.611280e+01 2.022847e+01 1.312912e+01 1.078697e+01 1.109896e-02 1.403390e+00 1.348876e+00 1.092259e+00 1.415743e+00 1.149638e+00 1.917793e+00 2.006553e+00 1.677040e+00 1.763819e+00 1.463404e+00 1.441514e+00 1.098877e+00 5.402087e-04 3.789754e-01 2.287074e-01 2.365225e-01 2.778344e-01 2.848157e-01 2.884920e-01 3.637992e-01 3.953994e-01 3.496033e-01 2.694270e-01 2.367795e-01 2.086776e-01 8.108684e-05
<GCONST> 7.334826e+01
<MIXTURE> 16 5.605749e-02
<MEAN> 39
 -1.631804e+01 3.740009e+00 -4.930942e-01 -1.479696e+01 9.619732e-01 -6.046680e+00 -1.337457e+01 -3.736929e+00 -2.599018e+00 7.300472e-01 -1.071933e+00 -2.736665e+00 5.169929e-01 -5.221328e+00 1.617183e+00 9.283645e-01 -2.306654e-02 1.942028e+00 8.063837e-01 1.040552e+00 2.203383e+00 3.207056e-01 -9.600965e-01 1.702342e-01 5.396488e-01 -1.427216e-02 2.964088e-01 -1.061463e+00 -3.065824e-01 3.830851e-01 -5.852994e-01 2.994729e-01 4.563929e-01 2.668906e-01 1.199942e-01 5.713703e-02 -4.014671e-02 -1.832630e-03 1.458095e-02
<VARIANCE> 39
 1.242296e+01 1.373634e+01 1.828277e+01 2.127838e+01 2.433120e+01 3.578947e+01 2.382216e+01 3.369798e+01 2.707530e+01 1.804574e+01 2.062396e+01 1.277371e+01 1.158204e-02 2.512796e+00 2.696336e+00 1.775055e+00 3.569891e+00 2.556725e+00 3.909766e+00 3.121489e+00 3.387486e+00 4.237263e+00 2.308403e+00 2.652592e+00 1.957279e+00 1.135592e-03 4.577643e-01 3.267306e-01 3.108211e-01 3.979048e-01 5.002376e-01 4.962781e-01 5.830697e-01 5.988302e-01 6.257057e-01 4.348456e-01 3.836579e-01 3.239397e-01 7.534071e-05
<GCONST> 8.979626e+01
<STATE> 3
<NUMMIXES> 16
<MIXTURE> 1 4.978365e-02
<MEAN> 39
 -2.805144e+01 7.728469e+00 -1.029163e+01 -2.458635e+00 -2.501960e-02 -6.799311e+00 2.294496e+00 -4.485848e+00 -1.434095e+00 -4.418442e+00 -2.443620e+00 -1.552270e+00 6.026497e-01 -2.902144e+00 -8.617304e-01 -1.430032e+00 6.797538e-01 1.167766e+00 2.314117e+00 2.023771e+00 1.529183e+00 1.257573e+00 1.187238e+00 1.160246e+00 5.717082e-01 2.327671e-02 1.562134e+00 -9.630516e-01 4.784382e-01 -8.042132e-01 -8.592639e-01 -6.481483e-01 -7.931826e-01 3.192545e-02 -2.839182e-01 1.907464e-01 -3.140564e-01 2.203334e-01 -3.779937e-04
<VARIANCE> 39
 7.005979e+00 1.337784e+01 1.277398e+01 1.729712e+01 2.276095e+01 2.107565e+01 1.906043e+01 1.892633e+01 2.158774e+01 1.817699e+01 1.559140e+01 1.497257e+01 1.592944e-02 1.722430e+00 1.293365e+00 1.830608e+00 2.506784e+00 2.444897e+00 3.100741e+00 2.036038e+00 2.184139e+00 2.410443e+00 2.127543e+00 1.854874e+00 1.821010e+00 1.021909e-03 2.410977e-01 3.328238e-01 3.350857e-01 4.817089e-01 4.487646e-01 5.193959e-01 4.788481e-01 4.975548e-01 4.876620e-01 4.420408e-01 4.764781e-01 4.612139e-01 2.280469e-04
<GCONST> 8.409796e+01
<MIXTURE> 2 6.683214e-02
<MEAN> 39
 -2.983236e+01 1.002297e+00 -6.434997e+00 -1.311816e+01 2.960888e+00 -8.163717e+00 -2.642266e+00 2.877518e+00 -3.754101e+00 8.281306e-01 -2.518681e+00 2.146669e-02 6.164792e-01 -7.462466e-02 -3.468501e-01 1.747175e-01 -7.745331e-02 -2.249820e-02 8.688498e-02 -2.228886e-01 1.527766e-01 -1.624558e-02 8.438403e-02 1.568066e-01 -1.121960e-01 -3.703745e-03 1.013651e+00 -1.268685e-01 5.226629e-01 5.026567e-01 -2.658662e-01 2.650502e-01 -2.102757e-01 -2.480938e-01 1.742155e-01 -1.581997e-01 1.295823e-02 -8.942337e-02 -2.289003e-02
<VARIANCE> 39
 8.358646e+00 1.435334e+01 1.872278e+01 1.803213e+01 2.220255e+01 2.057108e+01 2.248500e+01 2.152336e+01 1.264696e+01 1.599370e+01 1.511971e+01 1.255136e+01 1.564329e-02 1.249074e+00 1.800264e+00 2.100512e+00 1.657262e+00 1.711696e+00 2.392080e+00 2.111851e+00 1.798386e+00 1.697912e+00 1.703807e+00 1.528986e+00 1.247331e+00 1.030258e-03 3.006865e-01 2.422467e-01 3.092423e-01 2.692343e-01 3.013076e-01 3.396327e-01 3.277162e-01 3.659574e-01 2.775095e-01 3.412822e-01 3.335658e-01 2.520162e-01 1.783287e-04
<GCONST> 7.765125e+01
<MIXTURE> 3 6.173167e-02
<MEAN> 39
 -2.915174e+01 4.280368e+00 -1.395095e+01 -2.005539e+00 -3.745392e+00 -3.393157e+00 2.346378e+00 -1.495512e+00 8.146206e-01 -1.264321e+00 7.662766e-01 5.840299e-01 6.082523e-01 -2.473727e-01 3.057819e-02 1.399601e-01 6.581818e-02 1.511644e-01 -7.009123e-04 8.154853e-02 6.917828e-02 1.124155e-01 1.430347e-01 1.708247e-02 8.352333e-02 3.133186e-03 8.361121e-01 -1.412272e-01 6.347162e-01 -3.103197e-01 5.623889e-02 -4.955040e-01 -4.012660e-01 -2.246424e-01 -4.039145e-01 -1.965218e-01 -4.226681e-01 -1.647570e-01 -1.876598e-02
<VARIANCE> 39
 5.738888e+00 1.632319e+01 9.207052e+00 2.033545e+01 1.742838e+01 2.208223e+01 1.548959e+01 1.460677e+01 1.464708e+01 1.438481e+01 1.142909e+01 9.874660e+00 2.018603e-02 1.093778e+00 1.542684e+00 1.316698e+00 1.668432e+00 1.824008e+00 2.090570e+00 1.885875e+00 1.461496e+00 1.450683e+00 1.237882e+00 1.203866e+00 1.053072e+00 1.231776e-03 2.852143e-01 2.927626e-01 3.101566e-01 3.718446e-01 3.322114e-01 3.756251e-01 3.352254e-01 3.509500e-01 3.912913e-01 3.233742e-01 3.016551e-01 2.389077e-01 2.385921e-04
<GCONST> 7.488138e+01
<MIXTURE> 4 5.598087e-02
<MEAN> 39
 -2.996261e+01 5.687502e+00 -1.081983e+01 -5.987452e+00 2.443702e+00 -9.302196e+00 5.654801e+00 -3.062999e+00 5.457099e-01 -1.361559e+00 -1.811714e+00 1.552058e+00 6.582643e-01 3.699703e-01 -1.003063e+00 6.961499e-01 -7.737216e-01 4.052736e-01 -2.720843e-01 -1.730859e-01 8.201300e-01 -1.707396e-01 4.773518e-01 -1.967757e-01 2.589928e-01 -1.775599e-02 1.336561e+00 -5.846384e-01 5.804422e-01 -1.105643e-01 -6.030470e-01 9.168348e-02 -1.074758e+00 4.023642e-02 -3.835778e-01 -6.594448e-02 -1.911401e-01 -3.327319e-01 -2.822506e-02
<VARIANCE> 39
 6.745688e+00 1.407489e+01 1.457741e+01 1.689887e+01 2.135982e+01 1.776488e+01 1.871851e+01 1.757469e+01 1.903131e+01 1.672246e+01 1.478043e+01 1.234551e+01 1.735353e-02 2.375720e+00 2.756443e+00 2.786226e+00 3.581950e+00 3.464338e+00 3.438193e+00 2.519273e+00 2.714481e+00 2.542366e+00 2.314771e+00 2.036682e+00 1.685690e+00 2.027334e-03 5.130429e-01 3.170447e-01 4.027382e-01 4.546698e-01 5.725462e-01 5.265523e-01 5.794299e-01 4.832328e-01 4.975302e-01 4.099945e-01 3.963569e-01 3.292764e-01 2.835578e-04
<GCONST> 8.799226e+01
<MIXTURE> 5 4.762999e-02
<MEAN> 39
 -2.737242e+01 -1.880647e-01 -1.366307e+01 -3.375569e+00 -5.870603e+00 -1.622825e+00 -7.293304e-02 9.476634e-01 -5.093070e-01 -5.707122e-01 2.151477e-01 3.018079e-01 4.896410e-01 -6.965754e-01 -7.487867e-01 -8.073972e-01 -4.686995e-01 -1.260982e-01 3.309350e-01 6.457165e-01 7.912414e-01 1.010743e+00 8.616205e-01 9.215542e-01 7.713637e-01 1.351290e-02 1.116856e+00 4.201519e-01 7.057706e-01 -1.405615e-01 -3.105868e-01 -9.103574e-01 -6.095620e-01 -7.847160e-01 -5.472714e-01 -5.846946e-01 -5.203947e-01 -2.500726e-01 -2.553833e-03
<VARIANCE> 39
 6.899034e+00 1.165859e+01 1.189035e+01 1.420564e+01 1.393577e+01 2.212042e+01 1.839046e+01 1.386109e+01 1.404110e+01 1.299689e+01 9.661116e+00 9.503909e+00 1.629773e-02 9.938338e-01 1.025241e+00 1.105308e+00 9.410252e-01 1.122251e+00 1.475470e+00 1.427070e+00 1.525318e+00 1.491012e+00 1.441457e+00 1.347167e+00 1.176029e+00 7.295774e-04 2.763880e-01 1.837631e-01 2.439926e-01 2.811470e-01 3.219049e-01 4.343442e-01 3.571334e-01 3.425093e-01 3.389312e-01 3.034961e-01 2.803408e-01 2.650630e-01 1.513432e-04
<GCONST> 7.002018e+01
<MIXTURE> 6 9.802298e-02
<MEAN> 39
 -2.834739e+01 -1.230443e+00 -5.328028e+00 -1.331348e+01 1.788343e+00 -5.380541e+00 -4.294031e+00 2.935965e+00 -1.537889e+00 -4.070676e-01 -2.110240e+00 -7.989310e-01 5.261729e-01 1.342970e-01 -2.268960e-01 -1.309907e-01 -1.428269e-01 -6.728435e-02 -2.292855e-01 -1.960661e-01 -2.832550e-02 -6.906860e-02 3.701736e-02 -1.869418e-02 -1.197308e-01 -1.613757e-03 3.423971e-01 -6.096422e-02 1.593357e-01 8.139932e-02 -3.319806e-02 -2.092384e-02 -4.769452e-02 -6.540327e-02 1.043892e-02 -2.750720e-02 3.339007e-02 7.617999e-03 -8.043693e-03
<VARIANCE> 39
 7.998404e+00 1.830313e+01 2.623337e+01 1.367082e+01 2.669950e+01 2.860786e+01 2.521054e+01 2.252285e+01 1.776161e+01 1.604781e+01 1.672964e+01 1.210948e+01 1.840835e-02 3.907838e-01 5.593673e-01 7.262191e-01 7.257076e-01 9.515668e-01 1.167533e+00 1.233052e+00 1.279241e+00 1.413763e+00 1.260772e+00 1.109319e+00 9.778172e-01 3.215349e-04 1.132466e-01 1.217918e-01 1.623811e-01 1.607031e-01 1.971959e-01 2.597161e-01 2.613801e-01 2.670654e-01 2.930739e-01 2.906936e-01 2.521258e-01 2.068151e-01 3.979225e-05
<GCONST> 6.439980e+01
<MIXTURE> 7 1.011277e-01
<MEAN> 39
 -2.928997e+01 3.218853e+00 -2.086391e-01 -1.279902e+01 4.976671e+00 -4.016932e+00 -5.699001e+00 4.427999e+00 -2.751132e+00 -1.187171e+00 -1.650567e+00 -9.897727e-01 6.131280e-01 -2.357159e+00 -7.487768e-01 -9.841763e-01 -1.003302e-01 7.526558e-01 8.457322e-01 1.280673e+00 1.314494e+00 4.137887e-01 2.931760e-01 4.064833e-01 1.865030e-01 2.286324e-02 1.805157e+00 -7.019134e-01 -1.000776e-01 3.726420e-01 -1.061509e+00 -4.398634e-01 -4.135387e-01 -8.007200e-01 3.658325e-02 5.478317e-02 -2.112886e-01 -1.148998e-01 -1.067246e-02
<VARIANCE> 39
 1.029083e+01 1.805234e+01 1.982820e+01 1.604133e+01 2.110709e+01 2.917143e+01 2.743919e+01 2.015831e+01 2.068292e+01 1.984548e+01 1.550061e+01 1.175499e+01 1.389087e-02 2.352031e+00 2.239718e+00 2.491108e+00 1.980446e+00 2.239011e+00 4.141126e+00 2.939568e+00 2.510397e+00 2.629121e+00 2.372774e+00 1.853173e+00 1.525788e+00 8.996350e-04 3.882489e-01 3.590911e-01 3.910359e-01 4.498273e-01 4.636613e-01 5.409790e-01 5.385079e-01 5.084789e-01 4.782404e-01 4.726798e-01 3.865450e-01 3.282728e-01 2.216431e-04
<GCONST> 8.733607e+01
<MIXTURE> 8 5.003796e-02
<MEAN> 39
 -2.749118e+01 1.988158e+00 -1.319990e+01 -2.498518e+00 -5.544841e+00 -2.209985e+00 9.257088e-01 -7.722764e-01 -6.450511e-01 -2.100302e+00 6.498163e-02 9.542092e-02 5.359268e-01 2.505882e+00 -3.027011e-01 8.125136e-01 -1.239951e+00 -1.375900e+00 -2.228147e+00 -1.044313e+00 -1.006099e+00 -3.405750e-01 -7.314644e-01 -6.662370e-01 -9.804840e-02 -2.893915e-04 1.785388e+00 -1.742071e-01 6.158839e-01 -7.172106e-01 -6.431111e-01 -1.303941e+00 -9.901882e-01 -5.512004e-01 -4.805640e-01 -3.353602e-01 -8.239888e-01 -1.739153e-01 7.091262e-03
<VARIANCE> 39
 7.318299e+00 1.669479e+01 9.943490e+00 1.503299e+01 1.604501e+01 1.909868e+01 1.591234e+01 1.653938e+01 1.568822e+01 1.312868e+01 1.288309e+01 1.102932e+01 1.587565e-02 2.547349e+00 1.504777e+00 1.687027e+00 1.841152e+00 2.177240e+00 2.885881e+00 2.079066e+00 2.083639e+00 2.007869e+00 1.998729e+00 1.946051e+00 1.399463e+00 1.149982e-03 2.788645e-01 3.831506e-01 3.800792e-01 4.228563e-01 4.464115e-01 5.006489e-01 5.385426e-01 5.287687e-01 5.722675e-01 5.002995e-01 4.880121e-01 4.883332e-01 2.546220e-04
<GCONST> 8.255385e+01
<MIXTURE> 9 6.044039e-02
<MEAN> 39
 -2.629506e+01 -2.352773e+00 -6.682875e+00 -1.358276e+01 2.357121e+00 -8.276765e+00 -3.191793e+00 2.952821e+00 -2.889962e+00 1.068297e+00 -2.295043e+00 -4.035919e-01 4.993487e-01 1.374895e+00 -1.092800e+00 9.529845e-02 -6.694208e-03 -5.581992e-01 2.437624e-02 -6.364371e-01 -1.164448e-01 4.619712e-02 -3.151705e-01 1.265551e-01 -2.321427e-01 -4.192437e-02 4.209994e-01 -1.033462e-01 -3.361786e-02 2.249148e-01 -7.252166e-02 1.935961e-01 -5.882679e-02 -1.329896e-01 1.139008e-01 -1.818931e-01 -8.588430e-02 -5.306588e-02 -1.446256e-02
<VARIANCE> 39
 7.804861e+00 9.573637e+00 1.449283e+01 1.514948e+01 1.702866e+01 1.679203e+01 2.730876e+01 1.834478e+01 1.388624e+01 1.505436e+01 1.275772e+01 1.300690e+01 1.727649e-02 5.402688e-01 6.782933e-01 8.408132e-01 1.140344e+00 1.455222e+00 1.519323e+00 1.492694e+00 1.578289e+00 1.506746e+00 1.590479e+00 1.350449e+00 1.136443e+00 5.143767e-04 1.113954e-01 1.099903e-01 1.482755e-01 1.969556e-01 2.250967e-01 2.481274e-01 3.002028e-01 3.031289e-01 2.611296e-01 2.861831e-01 2.397630e-01 2.449845e-01 6.417077e-05
<GCONST> 6.568501e+01
<MIXTURE> 10 6.155987e-02
<MEAN> 39
 -2.109197e+01 6.061460e+00 -3.473944e+00 -7.548275e+00 -2.137696e-01 -1.097519e+01 -7.241704e+00 -3.709038e+00 -3.600326e+00 -1.419168e+00 -4.649094e+00 -5.084430e-01 5.541394e-01 2.827539e-01 -3.256074e-01 -4.558109e-02 -1.205723e-01 -2.845303e-01 -1.012749e-01 -2.737353e-02 4.792413e-02 8.719552e-02 1.992455e-01 9.038945e-02 -1.796933e-01 3.921777e-03 9.846035e-01 -6.928209e-01 1.032802e-01 -7.254334e-02 -5.418483e-01 -1.689152e-01 -2.833277e-01 -2.163542e-02 7.236351e-02 6.287114e-02 4.219094e-02 -1.300184e-01 5.290102e-03
<VARIANCE> 39
 1.675559e+01 1.468814e+01 2.476793e+01 3.114461e+01 2.753902e+01 3.198777e+01 3.712597e+01 2.564886e+01 2.184299e+01 2.049727e+01 1.587227e+01 1.574497e+01 1.270379e-02 1.781903e+00 7.765131e-01 8.777468e-01 9.897983e-01 1.265082e+00 1.561996e+00 1.416896e+00 1.328442e+00 1.255782e+00 1.099961e+00 9.278921e-01 9.193161e-01 3.048027e-04 3.253072e-01 2.252702e-01 2.424841e-01 2.796683e-01 2.868691e-01 3.656975e-01 4.066428e-01 3.276851e-01 2.879046e-01 2.705250e-01 2.335175e-01 2.658185e-01 1.464490e-04
<GCONST> 7.456086e+01
<MIXTURE> 11 6.162065e-02
<MEAN> 39
 -2.835945e+01 1.553990e+00 -1.250135e+01 -4.451668e+00 -2.429896e+00 -4.703442e+00 1.565008e+00 -1.266669e+00 -2.817527e-01 -1.088589e+00 -1.077274e+00 8.505301e-01 5.159450e-01 1.009457e-01 -2.088032e-01 2.832842e-02 -1.972257e-01 2.641314e-02 -2.423943e-02 4.324884e-02 9.064642e-02 4.885156e-02 5.820509e-02 3.421515e-02 -4.263683e-02 -2.309032e-03 1.816979e-01 -6.873938e-02 1.249243e-01 -1.507104e-01 -3.091554e-02 -1.722867e-01 -4.859404e-02 -4.396269e-03 -2.661088e-02 -4.837200e-02 -2.477137e-02 -5.199741e-02 -5.446393e-03
<VARIANCE> 39
 5.315074e+00 1.810152e+01 1.045637e+01 1.566444e+01 2.223395e+01 2.283204e+01 1.849254e+01 1.654027e+01 1.439491e+01 1.387509e+01 1.387485e+01 1.080689e+01 1.883686e-02 2.058014e-01 4.032918e-01 4.902704e-01 7.171138e-01 8.596251e-01 9.295551e-01 1.045401e+00 1.234338e+00 1.063452e+00 1.223404e+00 1.047794e+00 1.060710e+00 2.672846e-04 6.166227e-02 9.419814e-02 1.076453e-01 1.218184e-01 1.872513e-01 1.905974e-01 2.293903e-01 2.718432e-01 2.323895e-01 2.530308e-01 2.196303e-01 2.202267e-01 3.301337e-05
<GCONST> 5.649715e+01
<MIXTURE> 12 4.836196e-02
<MEAN> 39
 -2.513614e+01 4.308109e+00 -1.509165e+00 -8.344227e+00 1.094655e+00 -5.541257e+00 -5.507680e+00 -1.616318e+00 -3.024312e+00 -2.352432e+00 -2.978923e+00 -1.490994e+00 5.103168e-01 1.748445e-01 -8.929910e-01 -2.789036e-01 -5.481493e-02 -3.304227e-01 1.126409e-01 2.830093e-01 3.065901e-01 3.026579e-01 2.376211e-01 2.545449e-02 -5.157574e-02 3.046762e-03 2.163748e+00 -9.935768e-01 -2.884937e-01 -3.346752e-01 -9.779525e-01 -5.600575e-01 -7.094419e-01 -4.224652e-01 1.062602e-01 4.207416e-01 -1.344718e-01 -1.757824e-01 9.281768e-03
<VARIANCE> 39
 2.012232e+01 2.620240e+01 3.783633e+01 3.028314e+01 3.956778e+01 4.223885e+01 3.153979e+01 3.492097e+01 2.442852e+01 2.266466e+01 1.836506e+01 1.716659e+01 1.623362e-02 4.782896e+00 1.537417e+00 1.629299e+00 2.032077e+00 2.100501e+00 3.246470e+00 3.264832e+00 2.241042e+00 2.521038e+00 1.895387e+00 1.569795e+00 1.461017e+00 8.817688e-04 4.178232e-01 5.556850e-01 4.624278e-01 8.432048e-01 5.510808e-01 8.886650e-01 8.199313e-01 7.348037e-01 6.841738e-01 5.703231e-01 5.587319e-01 5.717698e-01 3.253409e-04
<GCONST> 9.609109e+01
<MIXTURE> 13 5.959079e-02
<MEAN> 39
 -2.902693e+01 3.529039e+00 -5.558312e+00 -1.055047e+01 5.028039e+00 -8.808844e+00 8.016197e-01 2.369476e+00 -2.907351e+00 1.124995e+00 -3.656839e+00 1.191233e+00 6.216976e-01 2.623238e+00 -1.045011e+00 4.830666e-01 -2.329636e-01 -1.504576e+00 -9.997436e-01 -1.373559e+00 -4.645750e-01 -9.870519e-02 6.061672e-02 -3.220643e-01 -4.893833e-01 -1.620301e-02 1.927637e+00 -4.726039e-01 4.361464e-01 7.928262e-02 -1.077533e+00 -2.962966e-01 -1.250088e+00 -6.213977e-01 -2.288332e-02 -1.731930e-01 -8.867116e-02 -4.098054e-01 -5.809868e-03
<VARIANCE> 39
 9.743400e+00 1.659721e+01 1.698251e+01 1.443796e+01 1.847140e+01 2.049421e+01 2.129060e+01 2.074039e+01 1.567516e+01 1.512975e+01 1.479381e+01 1.212311e+01 1.339112e-02 3.298094e+00 1.595608e+00 2.156591e+00 1.591780e+00 1.964279e+00 2.730135e+00 2.780710e+00 2.712448e+00 1.915618e+00 1.806174e+00 1.691192e+00 1.577922e+00 7.737106e-04 3.691296e-01 4.157159e-01 3.564571e-01 3.849241e-01 4.711197e-01 6.429459e-01 4.464252e-01 5.453326e-01 4.565400e-01 4.962950e-01 4.222608e-01 3.154747e-01 2.551382e-04
<GCONST> 8.404720e+01
<MIXTURE> 14 5.195985e-02
<MEAN> 39
 -2.747010e+01 4.119793e+00 -1.193706e+01 -2.015911e-01 -4.138932e+00 -1.258870e+00 -3.191443e-01 -1.066391e+00 -2.632313e+00 -2.990912e+00 -1.751572e+00 -1.229431e+00 5.266104e-01 -1.669114e+00 -1.531353e+00 -1.206893e+00 -1.270537e-01 6.140242e-01 1.748103e+00 1.545650e+00 1.518837e+00 1.280718e+00 1.377701e+00 1.038533e+00 8.095134e-01 7.441500e-03 1.481190e+00 -2.757018e-01 3.567089e-01 -8.412772e-01 -7.983198e-01 -1.346730e+00 -6.475375e-01 -4.809580e-01 -1.179943e-01 -2.120232e-01 -2.968041e-01 1.299643e-01 3.805056e-03
<VARIANCE> 39
 5.915926e+00 1.471507e+01 1.014678e+01 1.217907e+01 1.497766e+01 1.717627e+01 1.578757e+01 1.561154e+01 1.385794e+01 1.351925e+01 1.281751e+01 9.696570e+00 1.807695e-02 1.378159e+00 1.054114e+00 1.008357e+00 1.167726e+00 1.735906e+00 1.911544e+00 1.557278e+00 1.697757e+00 1.877267e+00 1.790050e+00 1.431771e+00 1.329987e+00 7.838573e-04 3.167920e-01 2.571390e-01 3.028672e-01 3.533517e-01 3.412260e-01 4.581303e-01 4.418947e-01 3.428105e-01 3.840457e-01 4.222591e-01 3.999359e-01 3.419961e-01 2.619684e-04
<GCONST> 7.493245e+01
<MIXTURE> 15 8.407585e-02
<MEAN> 39
 -2.920238e+01 2.096786e+00 -7.328447e+00 -9.578866e+00 3.657659e+00 -7.251731e+00 7.860165e-01 2.678592e+00 -1.863151e+00 5.445839e-01 -3.249389e+00 1.197235e+00 5.921609e-01 -9.094247e-01 -9.662572e-01 -1.069405e+00 -5.070329e-01 -3.596379e-01 2.567747e-01 4.933412e-01 3.883466e-01 2.501115e-01 1.181710e-01 6.391250e-02 2.978165e-02 1.549109e-02 1.398171e+00 -2.045746e-02 5.050223e-01 2.278148e-02 -5.570741e-01 -5.624512e-01 -8.942780e-01 -5.350649e-01 -1.843361e-01 -9.876887e-02 -7.568950e-02 -2.159905e-01 -7.885961e-03
<VARIANCE> 39
 7.416473e+00 1.339236e+01 1.508297e+01 1.520537e+01 1.574401e+01 1.468486e+01 1.990162e+01 2.028011e+01 1.593426e+01 1.350742e+01 1.153875e+01 1.116907e+01 1.524385e-02 1.427266e+00 8.899796e-01 1.110095e+00 1.018131e+00 1.149385e+00 1.477626e+00 1.522921e+00 1.534958e+00 1.312045e+00 1.209506e+00 1.082964e+00 1.109299e+00 4.008214e-04 3.046735e-01 1.873406e-01 2.181284e-01 2.684794e-01 2.694823e-01 3.559586e-01 2.986644e-01 3.437566e-01 3.598347e-01 2.931307e-01 2.549500e-01 2.770926e-01 9.808539e-05
<GCONST> 6.931471e+01
<MIXTURE> 16 4.120722e-02
<MEAN> 39
 -2.712325e+01 -1.686174e-01 -1.386143e+01 -3.731074e+00 -6.335666e+00 -2.278585e+00 -3.714336e-01 -2.205818e-02 -5.825683e-01 -1.367273e+00 -3.088028e-01 -1.834514e-01 4.722911e-01 6.851710e-01 -5.864327e-01 3.226289e-01 -6.295019e-01 -2.932325e-01 -6.722611e-01 -5.253036e-02 -2.651115e-01 -1.190632e-01 -2.810103e-01 -1.885191e-01 -3.228413e-02 -1.999341e-02 5.158473e-01 -2.731365e-02 2.955136e-01 -6.452458e-02 9.776484e-02 -3.094225e-01 -5.354084e-02 -1.561736e-01 -9.620577e-02 -1.446473e-01 -1.316903e-01 -3.436982e-02 -1.076697e-02
<VARIANCE> 39
 4.902331e+00 1.483145e+01 8.433441e+00 1.136040e+01 1.278601e+01 2.163454e+01 1.506853e+01 1.488340e+01 1.108034e+01 1.319362e+01 1.179418e+01 1.141556e+01 1.608384e-02 5.475432e-01 9.716046e-01 8.271562e-01 9.364734e-01 1.065996e+00 1.265008e+00 1.236383e+00 1.503339e+00 1.498073e+00 1.372673e+00 1.375286e+00 1.153758e+00 6.002751e-04 1.531616e-01 1.941698e-01 1.988078e-01 1.781224e-01 2.029144e-01 2.755068e-01 2.905833e-01 3.181118e-01 2.402908e-01 2.672385e-01 2.939142e-01 2.740757e-01 9.793896e-05
<GCONST> 6.449910e+01
<STATE> 4
<NUMMIXES> 16
<MIXTURE> 1 4.339666e-02
<MEAN> 39
 -1.141287e+01 -3.098867e+00 -8.375403e+00 -1.121814e+01 -1.127625e+01 -1.341974e+01 -1.010519e+01 -3.369723e+00 1.313179e+00 2.287255e+00 -2.863694e+00 -1.797456e-01 3.774031e-01 1.327067e+00 -8.351311e-01 -2.418775e-01 2.691754e-01 -8.328980e-01 7.198887e-01 5.460873e-01 8.228345e-01 9.906321e-01 1.041389e+00 6.521024e-01 -2.240891e-02 -6.464325e-02 -1.207248e+00 1.144730e-01 1.313413e-01 4.326267e-01 1.026200e+00 1.201856e+00 1.115009e+00 5.329799e-01 -3.465521e-01 -3.151627e-01 6.526773e-02 -1.542357e-01 2.486562e-03
<VARIANCE> 39
 2.683763e+01 1.951797e+01 5.210249e+01 3.648743e+01 5.550899e+01 5.270274e+01 5.388616e+01 5.568124e+01 6.612722e+01 6.711403e+01 5.260156e+01 4.847168e+01 3.002711e-02 6.830532e+00 3.331199e+00 3.790962e+00 5.195292e+00 6.070304e+00 7.139615e+00 6.822727e+00 6.067235e+00 5.111792e+00 5.009474e+00 4.801907e+00 3.564312e+00 4.188478e-03 6.509482e-01 5.188117e-01 7.672902e-01 8.028348e-01 7.695031e-01 1.151132e+00 1.008585e+00 1.208080e+00 1.282993e+00 1.113107e+00 1.113181e+00 8.330022e-01 6.763663e-04
<GCONST> 1.199054e+02
<MIXTURE> 2 6.553701e-02
<MEAN> 39
 -6.878238e+00 -4.904232e+00 -3.829051e+00 -1.280048e+01 -5.356902e+00 -8.418307e+00 -1.383846e+01 -5.180552e+00 3.878093e-01 3.981624e+00 -2.805434e+00 -5.537296e+00 6.456503e-01 4.366681e+00 -3.612827e+00 -4.684391e-01 -6.337007e-02 -2.602709e+00 6.148682e-01 -1.548355e+00 -1.660176e-01 8.449169e-01 4.413524e-01 4.137665e-01 -1.068948e+00 4.062729e-02 -1.026652e+00 2.319086e-01 -7.308061e-02 2.613514e-01 3.372175e-01 2.436663e-01 6.855187e-01 5.798156e-01 -1.568711e-01 -4.909613e-01 8.872259e-02 3.504769e-01 -1.975788e-03
<VARIANCE> 39
 1.278421e+01 1.987397e+01 2.263045e+01 2.848110e+01 2.372569e+01 3.160918e+01 2.488072e+01 2.753364e+01 2.157512e+01 2.347169e+01 2.325021e+01 1.423546e+01 1.326045e-02 3.083616e+00 2.407848e+00 3.374456e+00 3.988725e+00 2.865069e+00 4.516868e+00 4.844216e+00 4.810033e+00 3.361921e+00 3.979987e+00 2.656714e+00 2.440882e+00 7.146123e-04 4.076383e-01 3.341794e-01 3.178833e-01 3.682730e-01 3.817087e-01 4.398849e-01 5.230886e-01 4.159796e-01 3.897530e-01 3.362007e-01 3.444466e-01 2.405758e-01 1.023604e-04
<GCONST> 9.091442e+01
<MIXTURE> 3 7.035863e-02
<MEAN> 39
 -2.305852e+01 1.272057e+00 -7.258780e+00 -5.836962e+00 -2.825541e+00 -8.338495e+00 -1.642710e-01 -1.895996e+00 -2.240813e+00 -2.904392e+00 -3.393911e+00 -2.053289e-01 4.804175e-01 5.060120e+00 -8.343415e-01 1.406882e+00 -9.653443e-01 -2.151973e+00 -2.176090e+00 -2.681406e+00 -1.378371e+00 -8.238089e-01 -4.676117e-01 -1.242154e+00 -7.699702e-01 9.602281e-04 9.249609e-01 -3.824512e-01 7.892442e-02 -3.972208e-01 -4.763777e-01 -3.091758e-02 -6.969871e-01 -7.241127e-03 -9.737749e-02 2.390710e-01 -4.356249e-02 -1.783668e-01 1.541847e-02
<VARIANCE> 39
 1.256444e+01 2.140721e+01 2.490424e+01 1.766971e+01 2.632405e+01 2.709603e+01 2.296054e+01 2.587058e+01 2.432684e+01 1.848121e+01 1.464032e+01 1.542086e+01 1.663420e-02 1.980921e+00 2.563042e+00 2.655310e+00 3.941440e+00 3.094048e+00 3.884306e+00 3.252990e+00 3.333095e+00 3.701879e+00 2.848999e+00 3.259737e+00 2.127789e+00 2.203920e-03 4.068907e-01 4.267730e-01 4.556660e-01 4.634387e-01 4.502929e-01 5.731364e-01 6.772923e-01 6.301973e-01 5.890535e-01 4.896021e-01 5.032488e-01 4.878952e-01 2.308122e-04
<GCONST> 9.423147e+01
<MIXTURE> 4 4.009045e-02
<MEAN> 39
 -2.438558e+01 -5.975150e+00 -5.145173e+00 -5.118186e+00 4.787044e+00 -9.191992e+00 -7.930436e+00 5.310306e+00 8.489696e-01 -4.502663e-01 -1.730075e+00 -7.749943e-01 5.085356e-01 2.824347e+00 -1.350484e+00 -3.872777e-01 1.515711e+00 2.243744e-01 1.568727e+00 -6.425193e-01 -1.089476e+00 2.766481e-01 8.224053e-01 4.696414e-01 -2.816395e-01 -1.211636e-01 3.284318e-01 5.819653e-01 5.468239e-03 -1.310302e-01 -6.824960e-01 7.424467e-01 5.976948e-01 -6.274194e-01 -4.657011e-01 2.423315e-03 6.558076e-02 2.504171e-02 -2.421144e-02
<VARIANCE> 39
 1.846842e+01 1.863891e+01 2.924128e+01 2.814985e+01 3.508001e+01 3.628825e+01 4.337593e+01 4.165896e+01 3.320665e+01 2.968885e+01 2.368211e+01 1.825479e+01 2.317394e-02 9.443957e-01 2.605262e+00 2.513035e+00 1.766424e+00 3.479122e+00 4.555282e+00 4.015449e+00 3.539979e+00 3.060305e+00 2.161520e+00 2.329651e+00 1.530711e+00 3.310763e-03 5.301139e-01 4.147580e-01 5.270857e-01 5.405562e-01 6.493865e-01 7.045516e-01 6.926904e-01 8.664672e-01 7.331520e-01 5.907326e-01 5.930634e-01 4.020175e-01 6.921256e-04
<GCONST> 9.972749e+01
<MIXTURE> 5 6.041433e-02
<MEAN> 39
 -2.588798e+01 6.577062e-01 -9.424726e+00 -5.383708e+00 -1.562212e+00 -8.386661e+00 2.101341e+00 4.466703e-02 -2.890467e-01 -9.082918e-01 -1.967402e+00 1.439716e+00 4.882156e-01 2.226058e+00 -1.247287e+00 1.221975e+00 3.636367e-01 4.624640e-01 2.276639e-01 -8.319401e-01 3.758350e-01 1.179221e-01 4.785335e-01 -2.084853e-01 -2.562931e-01 -9.015370e-02 6.337742e-01 -1.305660e-01 2.160959e-01 8.107337e-02 -1.296255e-01 4.470019e-01 -5.168148e-01 -2.315207e-01 -2.243406e-01 -2.997403e-03 -6.276094e-04 -2.710489e-01 -1.635362e-02
<VARIANCE> 39
 1.299143e+01 2.620062e+01 1.599000e+01 3.452921e+01 2.117458e+01 2.937602e+01 1.759453e+01 1.972049e+01 1.463678e+01 1.854066e+01 1.421272e+01 1.153454e+01 2.202169e-02 1.597772e+00 2.186984e+00 2.717330e+00 2.505690e+00 3.066466e+00 2.658472e+00 2.420155e+00 2.368809e+00 2.641467e+00 1.920517e+00 1.798908e+00 1.291141e+00 3.455714e-03 4.042530e-01 5.189782e-01 3.954111e-01 6.022550e-01 4.735232e-01 7.184015e-01 3.445005e-01 5.058653e-01 3.752735e-01 4.193287e-01 3.105432e-01 3.225350e-01 6.823369e-04
<GCONST> 8.954122e+01
<MIXTURE> 6 6.492670e-02
<MEAN> 39
 -2.211337e+01 -6.230637e+00 2.258614e+00 -8.032043e+00 -6.512916e+00 1.650226e+00 -4.600101e+00 -3.619710e+00 2.019441e+00 4.503679e-01 -3.130195e+00 -1.333717e+00 4.464948e-01 2.749409e+00 -1.109382e+00 -1.429733e+00 2.339046e+00 -6.589320e-01 -8.746434e-01 9.708132e-01 -8.235597e-01 -7.971021e-01 7.556390e-01 1.514372e-01 -3.298392e-01 -7.837410e-02 5.858577e-01 5.351641e-01 -6.804637e-01 -7.425924e-03 5.739694e-01 -7.449771e-01 -3.403006e-01 3.046761e-01 -5.786310e-01 -2.284343e-01 2.426417e-01 2.863107e-02 -3.039833e-03
<VARIANCE> 39
 3.293887e+01 1.966636e+01 2.066766e+01 2.386172e+01 2.514136e+01 2.496105e+01 3.717304e+01 2.488139e+01 2.926217e+01 1.921201e+01 1.559655e+01 1.484940e+01 2.559824e-02 3.749359e+00 2.431404e+00 2.555269e+00 3.126885e+00 3.007229e+00 3.670322e+00 3.589502e+00 3.506882e+00 2.649923e+00 2.276071e+00 1.987855e+00 1.555772e+00 4.478449e-03 9.490161e-01 3.988627e-01 4.108612e-01 5.250579e-01 4.794208e-01 6.279058e-01 8.168898e-01 5.797560e-01 7.342949e-01 4.011057e-01 4.112862e-01 3.914414e-01 5.014014e-04
<GCONST> 9.737457e+01
<MIXTURE> 7 6.365515e-02
<MEAN> 39
 -1.806858e+01 5.062945e+00 -4.186904e+00 -8.195184e+00 -3.178311e-01 -1.461212e+01 -6.254146e+00 -3.215256e+00 -2.695237e+00 2.917631e-01 -5.335428e+00 -1.273786e-01 5.757574e-01 4.232567e+00 -2.572384e+00 7.212070e-01 -4.356354e-01 -2.378094e+00 -1.018645e+00 -2.202627e+00 -3.494206e-01 2.889848e-01 4.282181e-01 -8.684921e-02 -7.160850e-01 2.776268e-02 6.321228e-01 -1.012044e+00 3.247352e-01 -1.854039e-01 -5.990943e-01 5.125346e-01 -4.343010e-01 3.851790e-01 -3.011759e-02 -1.267919e-01 2.749481e-01 -2.650962e-01 1.102446e-02
<VARIANCE> 39
 1.054228e+01 9.618163e+00 1.660404e+01 1.827936e+01 1.745116e+01 1.736263e+01 2.164924e+01 2.109651e+01 1.767056e+01 2.207125e+01 1.276459e+01 1.411742e+01 1.093697e-02 2.532610e+00 1.921528e+00 2.056761e+00 1.847740e+00 1.935581e+00 2.423990e+00 3.601982e+00 2.257396e+00 2.062387e+00 2.024796e+00 1.669476e+00 1.767669e+00 7.515120e-04 3.056984e-01 2.148972e-01 2.488690e-01 2.540514e-01 2.870435e-01 4.046071e-01 4.032955e-01 4.039720e-01 4.090197e-01 3.449507e-01 2.924856e-01 2.428786e-01 6.140456e-05
<GCONST> 7.861903e+01
<MIXTURE> 8 5.563615e-02
<MEAN> 39
 -1.676158e+01 4.628853e+00 -9.061247e+00 -5.687920e+00 -1.201293e+01 -1.304885e+01 -6.413188e+00 -6.551171e+00 -4.251421e+00 -6.980175e+00 -4.080979e+00 -1.618242e+00 5.723664e-01 4.977796e+00 -2.315493e+00 1.119419e+00 -2.893346e+00 -2.455727e+00 -3.398872e+00 -1.630359e+00 -6.313638e-01 -3.798211e-01 7.715312e-02 -1.757390e+00 8.475632e-01 4.089993e-02 8.076079e-02 -8.355481e-01 1.364649e-01 -3.993322e-01 3.076126e-01 4.491943e-01 3.791772e-01 4.837562e-01 3.580553e-03 5.904932e-01 -2.125218e-01 2.113878e-01 8.511460e-03
<VARIANCE> 39
 1.804271e+01 1.377470e+01 1.653906e+01 1.729407e+01 2.668753e+01 2.913640e+01 2.236694e+01 1.973774e+01 2.657456e+01 1.548078e+01 1.904874e+01 1.736861e+01 1.164243e-02 2.181360e+00 2.780004e+00 3.162691e+00 2.760730e+00 3.773012e+00 4.429427e+00 4.447327e+00 4.593156e+00 4.557571e+00 3.766117e+00 3.379662e+00 3.260955e+00 1.898031e-03 4.873973e-01 2.757355e-01 3.083184e-01 3.821912e-01 4.822676e-01 6.614481e-01 4.441492e-01 5.825406e-01 4.901258e-01 4.391115e-01 4.143584e-01 3.768860e-01 1.305398e-04
<GCONST> 9.276456e+01
<MIXTURE> 9 5.364210e-02
<MEAN> 39
 -2.514848e+01 -1.125369e+00 3.582240e+00 -1.255908e+01 -1.337607e+00 1.072637e+00 -9.861866e+00 8.900869e-01 1.162287e+00 -4.863334e+00 -1.066098e+00 3.801429e-01 5.140448e-01 2.162785e+00 -1.431718e+00 6.587096e-02 2.084345e+00 -1.384919e+00 9.818551e-01 9.091970e-01 -1.541027e+00 4.629097e-01 3.318008e-01 -4.201309e-01 4.851253e-02 -8.147758e-02 8.750986e-01 5.482770e-03 -7.969151e-01 7.446179e-01 -2.848525e-02 -7.659943e-01 5.540130e-01 -2.279950e-01 -5.455297e-01 6.003815e-01 -1.094645e-01 -2.588035e-01 -1.960916e-02
<VARIANCE> 39
 3.440996e+01 1.978788e+01 1.877771e+01 1.683838e+01 1.879508e+01 2.797052e+01 2.596955e+01 2.161946e+01 2.079559e+01 1.493099e+01 1.801082e+01 1.515956e+01 2.157779e-02 3.595343e+00 2.187914e+00 2.652703e+00 2.178227e+00 3.114162e+00 3.143981e+00 2.764056e+00 2.762709e+00 2.674999e+00 2.367336e+00 1.767987e+00 1.593482e+00 3.775535e-03 8.202161e-01 4.125299e-01 3.392350e-01 4.428538e-01 4.314314e-01 6.230741e-01 4.690980e-01 4.274595e-01 4.926763e-01 3.683012e-01 3.703574e-01 3.686065e-01 5.657017e-04
<GCONST> 9.242192e+01
<MIXTURE> 10 9.152405e-02
<MEAN> 39
 -1.996750e+01 -6.889503e+00 -6.719201e+00 -1.257729e+01 5.116292e-01 -6.746839e+00 -6.391092e+00 1.788725e+00 -1.492810e+00 -1.470396e+00 -2.672668e+00 -1.618757e+00 2.883194e-01 2.342389e+00 -9.813084e-01 -6.792505e-01 7.225952e-01 -6.470707e-01 7.322868e-01 -3.492647e-01 -5.026211e-01 2.216777e-01 -2.193246e-01 -1.235143e-01 -2.973305e-01 -7.933157e-02 -1.166566e-01 3.884916e-01 -1.221436e-01 2.690711e-01 -5.281163e-02 2.724469e-01 3.155733e-01 -8.470836e-02 -2.003952e-02 1.233456e-01 5.022162e-02 3.877075e-02 1.058403e-03
<VARIANCE> 39
 1.255839e+01 8.498734e+00 1.507089e+01 1.744543e+01 1.895706e+01 2.421506e+01 2.608740e+01 1.966266e+01 1.920212e+01 1.933969e+01 1.793943e+01 1.504334e+01 2.471252e-02 9.047041e-01 1.087832e+00 1.323938e+00 1.548339e+00 1.920273e+00 2.153976e+00 2.424164e+00 1.997047e+00 1.840209e+00 1.887002e+00 1.863852e+00 1.441607e+00 1.047405e-03 1.896870e-01 1.741302e-01 2.002393e-01 2.718588e-01 2.744776e-01 3.894453e-01 3.558185e-01 3.588763e-01 3.531703e-01 3.348450e-01 3.384290e-01 2.711895e-01 1.564867e-04
<GCONST> 7.727306e+01
<MIXTURE> 11 6.832990e-02
<MEAN> 39
 -1.893490e+01 2.268690e+00 -5.241012e-01 -1.305290e+01 9.683874e-01 -8.594055e+00 -1.009014e+01 -3.791637e-02 -2.943329e+00 5.768075e-01 -2.725812e+00 -2.915264e+00 5.439576e-01 5.420028e+00 -2.035461e+00 -3.532915e-01 1.610987e-01 -2.593141e+00 -5.598765e-01 -2.022250e+00 -1.703022e+00 3.898668e-01 6.450239e-01 -2.327240e-02 -1.017971e+00 3.154347e-03 6.277136e-01 -6.131660e-01 -3.568898e-01 3.335082e-01 -5.981117e-01 2.656806e-01 1.354325e-01 -2.677942e-01 2.057776e-01 -2.416642e-02 7.131296e-02 7.979173e-03 9.103990e-03
<VARIANCE> 39
 2.206481e+01 1.244373e+01 2.091278e+01 1.756250e+01 1.590291e+01 2.898128e+01 3.260204e+01 2.415239e+01 2.062953e+01 2.043702e+01 1.933393e+01 1.325401e+01 1.383406e-02 2.925962e+00 2.613001e+00 2.646703e+00 3.085597e+00 3.030093e+00 3.721391e+00 3.924955e+00 3.429075e+00 2.890666e+00 3.083945e+00 2.355666e+00 2.071615e+00 1.374749e-03 5.957114e-01 2.880595e-01 3.200699e-01 3.840727e-01 3.385828e-01 5.852137e-01 6.035684e-01 4.820812e-01 4.788064e-01 4.832268e-01 3.882837e-01 3.486374e-01 1.175190e-04
<GCONST> 9.042553e+01
<MIXTURE> 12 4.751119e-02
<MEAN> 39
 -1.886538e+01 -4.771938e+00 -5.479632e+00 -5.877719e+00 -3.688073e+00 -2.960467e+00 -4.549383e-01 1.042914e+00 -9.672583e-01 1.102474e+00 -9.927794e-01 -1.111281e+00 1.800445e-01 2.392630e+00 -6.264759e-01 4.443717e-01 4.282015e-01 -1.852207e-01 2.783064e-01 1.787219e-01 -1.013529e+00 -1.570706e+00 -6.266382e-01 -6.767853e-01 -5.063944e-01 -2.170883e-02 5.630426e-01 3.113944e-01 -1.915716e-01 -5.268059e-01 -3.856071e-01 -5.212221e-01 -5.955377e-01 -5.707104e-01 -3.746707e-01 -3.716929e-01 -2.846752e-01 -2.817325e-02 4.326632e-02
<VARIANCE> 39
 1.710962e+01 2.714036e+01 2.914940e+01 3.533899e+01 3.946482e+01 3.498065e+01 3.604458e+01 4.183934e+01 4.189342e+01 3.549322e+01 2.692422e+01 2.302664e+01 4.471172e-02 6.607708e+00 3.075728e+00 4.772275e+00 5.548421e+00 6.964125e+00 6.148365e+00 7.591513e+00 5.157242e+00 4.258318e+00 3.315286e+00 3.446918e+00 2.957662e+00 7.552962e-03 7.149048e-01 7.486823e-01 8.078439e-01 1.025189e+00 9.680618e-01 8.794474e-01 9.701630e-01 9.950491e-01 8.840121e-01 7.843899e-01 6.598932e-01 5.453413e-01 7.147095e-04
<GCONST> 1.140852e+02
<MIXTURE> 13 7.474808e-02
<MEAN> 39
 -1.092939e+01 -5.198060e-01 -3.830342e+00 -8.518831e+00 -5.708150e+00 -1.600080e+01 -8.746994e+00 -2.904071e+00 -1.943708e+00 -9.012405e-01 -6.010977e+00 -7.109843e-01 6.278534e-01 4.671061e+00 -3.565105e+00 1.093121e+00 -8.082072e-01 -2.915782e+00 -3.543976e-01 -2.432047e+00 6.458846e-01 -9.890833e-02 1.804250e-01 -2.042261e-02 -8.136594e-01 4.176618e-02 -6.739388e-01 -2.115629e-01 -1.031024e-02 -5.889744e-02 9.341621e-02 8.719041e-01 3.417664e-01 4.702239e-01 -1.564723e-01 -5.874286e-02 3.696156e-01 -1.222118e-01 3.096611e-03
<VARIANCE> 39
 8.065817e+00 1.146304e+01 2.907880e+01 1.846708e+01 2.616198e+01 1.956083e+01 2.286703e+01 2.460479e+01 2.542038e+01 2.599273e+01 1.477078e+01 1.631347e+01 1.340645e-02 2.171295e+00 2.526499e+00 3.349137e+00 3.822831e+00 3.505611e+00 4.193713e+00 5.259459e+00 3.999979e+00 3.961933e+00 3.636404e+00 3.551765e+00 2.810249e+00 9.874754e-04 2.457878e-01 2.563735e-01 2.807386e-01 3.002884e-01 3.407373e-01 3.657334e-01 4.636006e-01 4.089124e-01 4.274664e-01 3.466964e-01 2.845795e-01 2.786794e-01 1.035112e-04
<GCONST> 8.815794e+01
<MIXTURE> 14 7.097062e-02
<MEAN> 39
 -2.862686e+01 -3.324006e+00 -1.174217e+00 -1.440802e+01 7.630350e-01 -1.979234e+00 -8.560161e+00 5.955636e+00 1.179065e+00 -3.002274e+00 4.295664e-02 -9.249082e-01 5.992966e-01 1.405623e+00 -1.631866e+00 -4.219119e-02 6.544678e-01 -1.191076e+00 3.722135e-01 -4.284792e-01 -7.611853e-01 9.800982e-01 -1.093968e-01 -1.679336e-01 1.305082e-01 -3.060835e-02 1.357900e+00 1.257043e-01 -8.814804e-02 6.783172e-01 -2.670582e-01 -3.212530e-01 7.744128e-02 -9.460413e-01 -3.751839e-01 2.850220e-01 -2.422301e-01 -3.587288e-02 -2.171308e-02
<VARIANCE> 39
 1.076486e+01 1.174651e+01 1.601849e+01 1.925173e+01 1.866834e+01 2.170501e+01 2.024215e+01 1.798250e+01 1.924315e+01 1.624604e+01 1.408686e+01 1.293358e+01 1.574038e-02 2.655832e+00 1.769560e+00 1.987509e+00 1.859743e+00 2.513297e+00 3.054171e+00 2.428792e+00 2.220198e+00 2.399620e+00 1.919759e+00 1.760922e+00 1.389718e+00 1.043755e-03 5.434546e-01 2.507188e-01 3.305414e-01 4.287377e-01 4.166881e-01 5.555072e-01 4.971251e-01 5.060072e-01 4.827251e-01 3.820120e-01 3.407798e-01 2.956830e-01 2.959756e-04
<GCONST> 8.418249e+01
<MIXTURE> 15 6.587096e-02
<MEAN> 39
 -2.755180e+01 2.042166e+00 -2.332790e+00 -1.191817e+01 5.123779e+00 -5.861126e+00 -2.723475e+00 3.684323e+00 -4.607305e+00 1.141395e+00 -1.841450e+00 -1.119302e+00 5.206666e-01 2.125153e+00 -1.653483e+00 1.286498e+00 5.658300e-01 -8.494750e-01 1.635239e+00 -1.139611e+00 -2.978965e-02 2.491671e-01 -3.477038e-01 3.608806e-01 -5.840362e-01 -9.726895e-02 8.562675e-01 -3.144733e-01 -4.046159e-01 6.958739e-01 -8.468526e-01 4.278103e-02 -2.572722e-02 -6.486588e-01 3.151615e-01 -2.482942e-01 -7.973905e-02 1.073229e-01 -2.108902e-02
<VARIANCE> 39
 1.933692e+01 1.875787e+01 2.072902e+01 1.532678e+01 1.692845e+01 2.426159e+01 2.171316e+01 2.030950e+01 1.438552e+01 1.265970e+01 1.432515e+01 1.163479e+01 2.480289e-02 1.821661e+00 2.434353e+00 2.612817e+00 2.344265e+00 2.486299e+00 2.794305e+00 2.894678e+00 2.506701e+00 2.090200e+00 2.123917e+00 1.615607e+00 1.500745e+00 3.175819e-03 5.398884e-01 4.922273e-01 4.083317e-01 5.339675e-01 4.414258e-01 5.494748e-01 4.177622e-01 5.658665e-01 3.812153e-01 3.620794e-01 3.648475e-01 3.121372e-01 6.566823e-04
<GCONST> 8.872051e+01
<MIXTURE> 16 6.336783e-02
<MEAN> 39
 -2.352820e+01 -2.216487e+00 -1.175652e+01 -5.672524e+00 -6.498272e+00 -5.271153e+00 -3.379559e-01 -1.313412e+00 -3.945884e-01 -2.046010e+00 -1.857718e-02 6.144792e-02 3.811746e-01 1.935596e+00 -1.132092e+00 6.417025e-01 -4.476281e-01 1.039009e-01 -7.225072e-01 -1.063428e-01 7.736684e-02 3.658029e-02 -1.469337e-01 -3.298441e-01 1.289019e-01 -5.981094e-02 3.114168e-01 -1.885179e-02 1.517849e-01 8.523346e-02 3.804842e-01 1.148018e-01 -9.431039e-04 8.170512e-02 -5.881378e-02 -1.103057e-03 -2.603272e-01 -1.494865e-02 -7.485803e-03
<VARIANCE> 39
 8.495398e+00 1.621944e+01 1.263689e+01 1.867477e+01 1.469016e+01 2.513172e+01 1.805966e+01 1.733553e+01 1.866392e+01 1.648204e+01 1.477711e+01 1.267046e+01 2.145637e-02 1.280397e+00 1.399533e+00 1.249695e+00 1.578956e+00 2.133333e+00 2.129870e+00 2.312236e+00 1.804551e+00 1.837343e+00 1.675814e+00 1.681060e+00 1.388954e+00 1.503815e-03 1.927170e-01 2.225882e-01 2.532425e-01 2.838236e-01 3.282529e-01 3.995868e-01 3.632546e-01 3.866015e-01 4.290207e-01 3.655847e-01 3.865899e-01 2.718893e-01 2.562453e-04
<GCONST> 7.837133e+01
<TRANSP> 5
 0.000000e+00 1.000000e+00 0.000000e+00 0.000000e+00 0.000000e+00
 0.000000e+00 6.946905e-01 3.053095e-01 0.000000e+00 0.000000e+00
 0.000000e+00 0.000000e+00 7.541850e-01 2.458150e-01 0.000000e+00
 0.000000e+00 0.000000e+00 0.000000e+00 6.496073e-01 3.503927e-01
 0.000000e+00 0.000000e+00 0.000000e+00 0.000000e+00 0.000000e+00
<ENDHMM>
